svm_type c_svc
kernel_type rbf
gamma 0.015873
nr_class 2
total_sv 213
rho 0.306152
label 0 1
probA -5.69645
probB 1.14115
nr_sv 111 102
SV
1 0:-1 1:-0.75 5:0.25 6:0.25 7:-1 8:-1 9:0.75 10:0.5 11:0.5 12:0.5 14:0.75 15:-0.375 16:-0.625 17:0.5 18:-1 19:-1 20:-1 21:-1 22:-0.5 24:-0.5 25:-0.5 26:-1 27:-1 28:-1 29:-1 30:-1 32:-0.5 33:-0.375 34:-1 35:-1 36:-1 37:-1 38:-0.5 39:-0.125 40:-0.5 41:0.625 42:-1 46:0.75 47:-0.75 48:-1 49:0.5 50:1 51:0.625 52:0.5 53:0.5 55:-1 56:-1 57:-0.875 58:-0.5 59:-0.875 60:-1 61:-1 62:-1 63:-1 
0.2689753193635152 0:-1 1:-0.75 6:-0.5 7:-1 8:-1 9:0.75 10:1 11:1 12:1 13:1 14:1 15:-1 16:-0.625 17:0.5 18:-1 19:-1 20:-1 21:-1 23:-0.375 24:-0.5 25:-0.125 26:-1 27:-1 28:-1 29:-1 30:-0.5 32:-0.5 33:-0.25 34:-1 35:-1 36:-1 37:-1 38:-0.5 40:-0.75 41:0.75 42:-1 43:-1 44:-1 45:-1 46:0.25 47:-0.25 48:-1 49:0.5 50:1 51:1 52:1 53:1 54:0.75 55:-0.875 56:-1 57:-0.75 58:-0.5 59:-0.5 60:-0.5 61:-0.5 62:-0.75 63:-1 
0.4369398875182373 0:-1 1:-0.5 2:-0.5 3:-0.5 4:-0.5 5:-0.5 6:-1 7:-0.5 8:-0.625 9:1 10:1 11:1 12:1 13:1 14:-0.375 15:-0.875 16:-0.5 17:0.5 18:-0.5 19:-0.5 20:-0.5 21:-0.25 22:0.75 23:-1 24:-0.625 25:-0.5 26:-1 27:-1 28:-1 29:-1 30:0.375 31:-1 32:-0.75 33:-1 34:-1 35:-1 36:-1 37:-1 39:-1 40:-0.5 41:0.25 42:-0.75 43:-1 44:-0.75 45:-0.75 46:0.75 47:-1 48:-0.75 49:1 50:1 51:1 52:1 53:1 54:0.25 55:-1 56:-1 57:-0.25 62:-0.75 63:-0.75 
0.9465664636556886 0:-1 1:-1 2:-1 3:-1 4:-1 5:-1 6:-1 7:-1 8:-0.875 9:0.5 10:0.5 11:0.5 12:0.5 13:0.5 14:-0.5 15:-1 16:-0.125 17:0.375 19:0.5 20:0.5 21:0.5 22:0.75 23:-0.5 25:-0.875 26:-1 27:-1 28:-1 29:-1 30:-0.375 33:-1 34:-1 35:-1 36:-1 37:-1 38:-0.5 42:-1 43:-1 44:-1 45:-1 46:-0.25 48:-0.75 49:1 50:1 51:1 52:1 53:0.75 54:1 55:-0.25 56:-1 57:-1 58:-1 62:-0.25 63:-1 
1 0:-1 1:-1 2:-1 3:-0.75 5:0.25 6:-0.75 7:-1 8:-0.75 9:0.5 10:1 11:1 12:1 13:1 14:-0.25 15:-1 16:0.375 17:0.75 18:0.5 19:-0.5 20:-0.5 21:0.125 22:0.375 23:-1 24:0.75 25:-1 26:-1 27:-1 28:-1 29:-0.5 30:0.5 31:-1 33:-1 34:-1 35:-1 36:-1 37:-0.125 38:0.125 39:-1 41:-1 42:-1 43:-1 44:-0.75 45:0.625 46:-0.25 47:-1 48:0.75 50:0.25 51:1 52:1 53:0.625 54:-1 55:-1 56:0.75 57:1 58:0.625 59:0.5 60:-0.25 61:-0.75 62:-1 63:-1 
1 0:-1 1:-1 2:-1 3:-1 4:-1 5:-0.25 6:-0.5 7:-1 8:-1 10:1 11:1 12:1 13:1 14:1 15:-1 16:-0.5 17:0.5 20:-1 21:-1 22:-0.25 23:-0.5 24:-1 25:-0.25 26:-1 27:-1 28:-1 29:-1 30:-0.5 31:-0.5 32:-0.5 33:-0.5 34:-1 35:-1 36:-1 37:-1 38:-0.375 39:-0.5 40:-0.5 42:-1 43:-1 44:-0.75 45:-0.5 46:0.5 47:-0.875 48:-0.875 49:0.75 50:0.5 51:0.5 52:0.75 53:1 54:0.375 55:-1 56:-1 57:-0.125 58:0.5 60:-0.5 61:-0.5 62:-0.875 63:-1 
1 0:-1 1:-0.875 2:-0.5 3:-0.5 4:-0.5 5:-0.5 6:-0.875 7:-1 8:-1 9:0.25 10:1 11:1 12:1 13:1 14:0.25 15:-1 17:0.25 18:-1 19:-1 20:-1 21:-1 22:0.375 23:-0.5 25:-0.5 26:-1 27:-1 28:-1 29:-1 31:-0.5 33:-0.5 34:-1 35:-1 36:-1 37:-1 38:0.125 39:-0.625 42:-0.75 46:0.75 47:-1 48:-1 49:0.5 50:0.5 51:0.5 52:0.5 53:0.5 54:-0.625 55:-1 56:-1 57:-1 58:-1 59:-1 60:-1 61:-1 62:-1 63:-1 
1 0:-1 1:-1 2:-1 3:-0.25 6:-1 7:-1 8:-1 9:-0.25 10:1 11:1 12:0.75 13:0.5 14:1 15:-0.75 16:-0.5 17:0.5 18:-0.75 19:-1 20:-1 21:-1 22:-0.375 23:0.375 24:0.25 25:-0.375 26:-1 27:-1 28:-1 29:-1 30:-1 31:0.125 33:-1 34:-1 35:-1 36:-1 37:-1 38:-1 41:-0.5 42:-1 43:-1 44:-1 45:-1 46:-0.75 47:0.5 48:-0.5 49:0.5 50:-0.5 51:-0.625 52:-0.5 53:-0.5 54:0.75 55:-0.5 56:-1 57:0.25 58:0.75 59:0.875 60:0.625 61:0.5 62:-0.25 63:-1 
1 0:-1 1:-0.875 2:-0.5 3:-0.5 4:-0.5 5:-0.5 6:-0.5 7:-1 8:-1 9:0.375 10:0.625 11:0.875 12:0.5 13:0.5 14:0.75 15:-0.5 16:-1 17:0.625 18:-0.875 19:-0.625 20:-1 21:-1 22:-0.5 23:0.125 24:-0.625 25:0.125 26:-1 27:-1 28:-1 29:-1 30:-1 31:0.5 32:-0.5 34:-1 35:-1 36:-1 37:-1 38:-0.75 39:0.25 40:-1 41:0.75 42:-1 43:-1 44:-1 45:-0.25 46:0.25 48:-1 49:0.5 50:1 51:1 52:1 53:1 54:1 55:-0.75 56:-1 57:-1 61:-0.75 62:-1 63:-1 
0.07636951956353349 0:-1 2:0.25 6:-0.75 7:-1 8:-0.75 9:1 10:1 11:1 12:1 13:1 14:1 15:-0.25 17:0.75 18:-1 19:-1 20:-1 21:-0.25 22:0.5 23:0.5 26:-1 27:-1 28:-1 29:-1 30:-1 31:0.5 33:0.5 34:-1 35:-1 36:-1 37:-1 38:-1 39:0.5 40:-0.25 41:1 42:0.25 46:0.5 47:0.5 48:-1 49:0.25 50:1 51:1 52:1 53:1 54:1 55:-0.25 56:-1 57:-1 58:-1 59:-0.75 60:-0.25 61:-1 62:-1 63:-1 
1 0:-1 1:-1 2:-1 3:-0.25 6:-0.5 7:-1 8:-1 9:0.25 10:1 11:1 12:1 13:1 14:0.75 15:-1 16:-0.625 17:0.5 18:-0.875 19:-1 20:-1 21:-1 22:0.125 23:-0.5 24:-0.125 25:-0.375 26:-1 27:-1 28:-1 29:-1 30:-0.375 31:-0.5 33:-0.5 34:-1 35:-1 36:-1 37:-1 39:-0.5 41:0.25 42:-1 43:-1 44:-0.25 46:0.75 47:-1 48:-0.875 49:0.75 50:1 51:0.875 52:0.5 53:0.5 54:-0.375 55:-1 56:-1 57:-0.75 58:-0.5 59:-0.625 60:-1 61:-1 62:-1 63:-1 
1 0:-1 1:-1 2:-0.5 3:-0.5 4:-0.5 5:-0.5 6:-0.75 7:-1 8:-0.25 9:-0.25 10:1 11:1 12:1 13:1 14:0.375 15:-1 17:0.75 18:-1 19:-0.25 20:-1 21:-1 22:0.75 23:-0.5 24:-0.5 25:0.125 26:-1 27:-1 28:-1 29:-1 30:0.125 31:-0.5 32:-0.5 33:0.25 34:-1 35:-1 36:-1 37:-1 38:0.25 39:-0.5 40:-0.625 41:1 42:-0.5 43:-0.5 44:0.25 45:0.25 46:0.875 47:-0.625 48:-1 49:0.25 50:1 51:1 52:1 53:1 54:0.125 55:-1 56:-1 57:-1 58:-1 59:-1 60:-1 61:-1 62:-1 63:-1 
1 0:-1 1:-1 2:-0.5 3:0.25 4:1 5:1 6:0.625 7:-0.875 8:-1 9:0.125 10:1 11:1 12:1 13:0.625 14:1 15:-0.125 16:-1 17:0.75 18:-0.75 19:-1 20:-1 21:-1 22:-0.75 24:-1 25:1 26:-1 27:-1 28:-1 29:-1 30:-1 32:-1 33:1 34:-1 35:-1 36:-1 37:-1 38:-0.75 40:-1 41:0.875 42:-0.125 43:-0.5 44:0.25 45:1 46:1 47:-0.625 48:-1 49:-0.625 50:1 51:1 52:1 53:0.625 54:-0.5 55:-1 56:-1 57:-1 58:-1 59:-1 60:-1 61:-1 62:-1 63:-0.25 
0.751226036525724 0:-1 1:-1 2:-0.75 3:-0.5 4:-0.5 5:-0.5 6:-0.75 7:-1 8:-1 10:0.5 11:1 12:1 13:1 14:0.5 15:-1 17:0.625 18:-1 19:-1 20:-1 21:-1 22:0.375 23:-0.875 25:-0.75 26:-1 27:-1 28:-1 29:-1 31:-0.5 33:-0.875 34:-1 35:-1 36:-1 37:-1 39:-1 42:-1 43:-1 44:-0.25 46:0.5 47:-1 48:-1 49:0.875 50:1 51:1 52:0.875 53:0.5 54:-0.25 55:-0.5 56:-1 57:-0.25 60:-0.25 61:-1 62:-1 63:-0.5 
0.6219084862160764 0:-1 1:-0.5 2:-0.5 3:-0.5 4:-0.5 5:-0.5 6:-0.5 7:-1 8:-0.5 9:1 10:1 11:1 14:0.75 15:-1 16:0.25 17:-0.625 18:-1 19:-1 20:-1 21:-1 23:-1 24:1 25:-1 26:-1 27:-1 28:-1 29:-1 31:-1 32:0.75 33:-0.875 34:-1 35:-1 36:-1 37:-1 38:0.125 39:-1 40:-0.5 41:0.25 47:-1 48:-1 49:0.125 50:0.5 51:0.5 52:0.5 53:-0.25 54:-1 55:-1 56:-1 57:-1 58:-1 59:-1 60:-1 61:-1 62:-1 63:-1 
0.209819731623545 0:-1 1:-0.75 7:-1 8:-1 9:0.75 10:1 11:1 12:1 13:1 14:1 15:0.25 16:-0.5 17:0.25 18:-1 19:-1 20:-1 21:-1 22:-0.75 23:0.5 24:-0.5 26:-1 27:-1 28:-1 29:-1 30:-1 31:0.5 32:-0.5 34:-1 35:-1 36:-1 37:-1 38:-1 39:0.5 40:-0.75 41:0.75 42:-1 43:-0.25 44:-1 46:-0.5 47:0.5 48:-1 49:0.25 50:1 51:1 52:1 53:1 54:1 55:-0.25 56:-1 57:-1 58:-1 59:-1 60:-1 61:-1 62:-1 63:-1 
1 0:-1 1:-0.75 2:-0.5 3:-0.5 4:-0.5 5:-0.5 6:-0.875 7:-1 8:-1 9:0.75 10:1 11:1 12:1 13:1 14:0.375 15:-1 16:-0.75 17:0.5 22:0.75 23:-0.75 24:-0.5 25:-0.25 26:-1 27:-1 28:-1 29:-1 30:-0.5 31:-0.5 32:-0.5 33:-0.375 34:-1 35:-1 36:-1 37:-1 38:-0.5 39:-0.5 40:-0.875 41:0.75 42:-0.5 43:-0.5 44:-0.5 45:-0.5 46:0.625 47:-0.625 48:-1 49:0.75 50:1 51:1 52:1 53:1 54:0.75 55:-1 56:-1 57:-1 58:-1 59:-1 60:-1 61:-1 62:-1 63:-1 
1 0:-1 1:-0.875 2:-0.5 3:-0.5 4:-0.5 5:-0.5 6:-0.875 7:-1 8:-1 9:0.25 10:1 11:1 12:1 13:1 14:0.375 15:-1 16:-1 17:0.75 18:-0.5 19:-0.5 20:-0.5 21:-0.5 22:0.5 23:-0.625 24:-1 25:0.5 26:-1 27:-1 28:-1 29:-1 31:-0.5 32:-1 33:0.5 34:-1 35:-1 36:-1 37:-1 39:-0.5 40:-1 41:0.75 42:-0.75 43:-1 44:-1 45:-1 46:0.5 47:-0.5 48:-1 49:0.25 50:1 51:1 52:1 53:1 54:0.5 55:-1 56:-1 57:-1 58:-1 59:-1 60:-1 61:-1 62:-1 63:-1 
1 0:-1 1:-1 2:-1 3:-1 4:-1 5:-1 6:-1 7:-1 8:-1 9:-0.375 10:0.5 11:0.5 12:0.5 13:0.5 14:0.25 15:-0.875 16:-0.875 17:0.75 18:0.5 19:0.5 20:0.5 21:-0.5 22:0.5 23:-0.375 24:-0.5 25:0.125 26:-1 27:-1 28:-1 29:-1 30:-0.375 32:-0.5 33:-0.25 34:-1 35:-1 36:-1 37:-1 38:-0.5 40:-0.5 42:-1 43:-1 44:-1 45:-1 46:-0.25 47:-0.25 48:-0.75 49:0.75 52:0.75 53:0.75 54:1 55:-0.75 56:-1 57:-0.25 62:-0.5 63:-1 
1 0:-1 1:-1 2:-1 3:-1 4:-1 5:-1 6:-1 7:-1 8:-1 9:-0.625 10:0.5 11:0.5 12:0.5 13:0.5 14:0.25 15:-1 16:-0.875 17:0.75 18:0.5 19:0.5 20:0.5 21:-0.5 22:0.5 23:-0.5 24:-0.5 26:-1 27:-1 28:-1 29:-1 30:-0.375 32:-0.5 33:-0.5 34:-1 35:-1 36:-1 37:-1 38:-0.5 40:-0.5 41:-0.25 42:-1 43:-1 44:-1 45:-1 47:-0.25 48:-0.5 49:1 52:0.5 53:1 54:1 55:-0.75 56:-1 57:-0.25 58:1 59:0.5 62:-0.5 63:-1 
1 0:-1 1:-0.75 6:-0.25 7:-1 8:-1 9:0.75 10:0.5 11:0.75 12:1 13:1 14:1 15:0.25 16:-1 17:0.75 18:-1 19:-1 20:-1 21:-1 22:-0.5 23:0.75 24:-0.75 26:-1 27:-1 28:-1 29:-1 30:-1 31:0.75 32:-0.5 33:0.625 34:-1 35:-1 36:-1 37:-1 38:-0.875 39:0.5 40:-0.625 41:1 42:-0.25 43:-0.5 45:-0.5 46:0.125 47:0.125 48:-1 50:0.5 51:0.5 52:0.5 53:0.5 54:0.25 55:-0.75 56:-1 57:-1 58:-1 59:-1 60:-1 61:-1 62:-1 63:-1 
1 0:-1 1:-1 2:-1 3:-1 4:-1 5:-1 6:-1 7:-1 8:-1 9:-0.25 11:0.75 12:1 13:1 14:0.75 15:-0.75 16:-1 17:0.75 18:0.25 22:0.5 23:0.25 24:-0.75 25:-0.25 26:-1 27:-1 28:-1 29:-1 30:-0.75 31:0.75 32:-0.125 33:-1 34:-1 35:-1 36:-1 37:-1 38:-1 39:0.5 40:1 41:-0.875 42:-1 43:-1 44:-1 45:-1 46:-0.5 47:0.5 48:0.75 49:0.375 50:-0.5 51:-0.5 54:0.5 56:-0.5 57:0.5 58:0.5 59:0.5 60:0.5 61:0.5 62:0.25 63:-0.875 
1 0:-1 1:-1 6:-0.5 7:-1 8:-1 9:0.75 10:1 11:1 12:1 13:1 14:1 15:-0.75 16:-0.5 17:0.25 18:-1 19:-1 20:-1 21:-1 22:-0.25 23:0.25 25:-0.5 26:-1 27:-1 28:-1 29:-1 30:-1 31:0.5 33:-0.5 34:-1 35:-1 36:-1 37:-1 38:-1 39:0.5 40:-0.25 41:-0.25 42:-1 43:-1 44:-1 45:-1 46:-0.75 47:0.25 48:-0.75 49:1 53:0.75 54:1 55:-0.25 56:-1 57:-0.25 63:-1 
1 0:-1 1:-1 2:-1 3:-1 4:-1 5:-1 6:-1 7:-1 8:-1 9:-0.75 14:-0.25 15:-1 16:-0.875 17:0.5 18:0.5 19:0.5 20:0.5 21:-0.625 22:1 23:-1 24:-0.25 25:0.25 26:-1 27:-1 28:-1 29:-1 30:0.5 31:-1 33:-0.5 34:-1 35:-1 36:-1 37:-1 38:-0.375 39:-1 41:-0.5 42:-1 43:-1 44:-1 45:-1 46:0.5 47:-1 48:-0.5 49:0.625 50:-0.5 51:0.25 52:1 53:1 54:0.375 55:-1 56:-0.75 57:0.5 58:1 62:-0.5 63:-1 
0.3543077907705824 0:-1 1:0.25 2:1 3:1 4:-0.5 5:-0.5 6:-0.625 7:-1 8:-0.875 9:0.875 10:0.5 11:0.5 12:0.5 13:0.625 14:0.875 15:-0.25 16:-0.5 17:0.25 18:-1 19:-1 20:-1 21:-0.75 22:0.5 23:0.25 24:-0.5 25:-0.5 26:-1 27:-1 28:-1 29:-1 30:-0.75 31:0.5 32:-0.5 33:-0.375 34:-1 35:-1 36:-1 37:-1 38:-0.875 39:0.5 40:-0.625 41:0.75 42:-0.5 43:0.25 44:-0.5 45:-0.5 46:0.125 47:0.125 48:-1 49:0.75 50:1 51:1 52:1 53:1 54:1 55:-0.5 56:-1 57:-1 58:-1 59:-1 60:-0.25 61:-0.25 62:-0.25 63:-1 
1 0:-1 1:-1 2:-1 3:-1 4:-1 5:-1 6:-1 7:-1 8:-0.875 9:0.75 10:0.625 11:1 12:0.875 13:1 14:-0.125 15:-1 17:0.75 20:-0.5 21:-0.75 22:0.75 23:-1 24:0.5 25:-0.625 26:-1 27:-1 28:-1 29:-1 30:0.375 31:-1 32:0.5 33:-1 34:-1 35:-1 36:-1 37:-1 39:-1 40:0.5 41:-0.875 42:-1 43:-1 44:-1 45:-1 46:0.5 47:-1 48:0.5 50:-0.25 53:0.25 54:0.25 55:-1 56:-0.5 57:1 58:1 59:1 60:0.75 61:0.5 62:-0.75 63:-1 
0.06208498456487211 0:-1 1:-1 2:-0.5 3:-1 4:-1 5:-1 6:-1 7:-1 8:-1 9:0.125 10:1 11:0.5 12:0.5 13:0.5 14:0.125 15:-1 16:-0.75 17:1 22:0.75 23:-0.75 24:-0.5 25:0.25 26:-1 27:-1 28:-1 29:-1 30:-0.25 31:-0.5 32:-0.5 34:-1 35:-1 36:-1 37:-1 38:-0.5 39:-0.5 40:-0.5 41:0.25 42:-1 43:-1 44:-1 45:-1 46:-0.25 47:-0.5 48:-0.875 49:1 50:0.5 51:0.5 52:0.5 53:0.5 54:0.875 55:-0.875 56:-1 57:-0.25 62:-0.25 63:-1 
1 0:-1 1:-1 2:-0.5 3:-0.5 4:-0.5 5:-0.625 6:-1 7:-1 8:-1 9:0.125 10:1 11:1 12:1 13:0.875 14:0.125 15:-1 16:-0.75 17:0.5 22:0.75 23:-0.75 24:-0.375 25:-0.125 26:-1 27:-1 28:-1 29:-1 30:0.25 31:-0.5 33:-0.5 34:-1 35:-1 36:-1 37:-1 38:-0.5 39:-0.5 40:-0.5 41:0.25 42:-1 43:-1 44:-1 45:-1 46:0.625 47:-0.625 48:-0.875 49:1 50:0.5 51:0.5 52:0.5 53:0.5 54:0.625 55:-1 56:-1 57:-0.5 62:-0.75 63:-1 
1 0:-1 1:-0.875 2:-0.75 3:-0.75 4:-1 5:-1 6:-1 7:-1 8:-0.875 9:0.625 10:0.75 11:0.75 12:0.5 13:0.5 14:-0.125 15:-1 16:-0.125 17:0.125 18:-0.5 19:-0.5 20:-0.5 21:-0.5 22:0.5 23:-0.25 24:1 25:-0.625 26:-1 27:-1 28:-1 29:-1 30:0.125 32:1 33:-1 34:-1 35:-1 36:-1 37:-1 39:-0.25 40:1 41:-1 42:-1 43:-1 44:-1 45:-1 47:-0.5 49:0.25 54:0.75 55:-1 56:-0.75 62:-0.5 63:-1 
1 0:-1 1:-1 2:-1 3:-1 4:-0.75 6:-0.5 7:-1 8:-1 10:1 11:1 12:1 13:1 14:1 15:-0.625 16:-0.75 17:1 18:-0.5 19:-1 20:-1 21:-1 22:-0.25 24:-0.5 25:0.375 26:-1 27:-1 28:-1 29:-1 30:-0.875 31:0.5 32:-0.5 34:-1 35:-1 36:-1 37:-1 38:-1 39:0.5 40:-0.5 41:0.625 42:-1 43:-1 44:-1 45:-1 46:-0.375 47:0.125 48:-1 49:1 50:0.25 53:0.75 54:1 55:-0.5 56:-1 57:-0.375 58:0.5 59:0.5 60:0.5 61:0.5 63:-1 
0.3165661275357835 0:-1 1:-0.75 6:-0.75 7:-1 8:-0.125 9:1 10:1 11:1 12:1 13:1 14:1 15:-0.625 16:0.5 17:-0.25 18:-1 19:-1 20:-1 21:-1 22:0.25 24:1 25:-1 26:-1 27:-1 28:-1 29:-1 30:-0.5 31:0.375 32:1 33:-1 34:-1 35:-1 36:-1 37:-1 38:-0.25 39:0.25 40:0.375 41:0.625 42:0.5 43:0.5 44:0.5 45:0.5 46:0.875 47:-0.125 48:-0.75 49:0.75 50:1 51:1 52:1 53:1 54:0.75 55:-0.75 56:-1 57:-1 58:-1 59:-1 60:-1 61:-1 62:-1 63:-1 
0.0238823772827661 0:-1 1:-0.25 2:1 3:1 4:1 5:1 7:-1 8:-0.875 9:0.875 10:0.125 14:0.5 15:-0.125 16:-0.125 17:0.125 18:-1 19:-1 20:-1 21:-1 22:-0.625 23:0.875 24:0.5 25:-0.25 26:-1 27:-1 28:-1 29:-1 30:-1 31:0.5 32:0.125 33:-0.125 34:-1 35:-1 36:-1 37:-1 38:-1 39:0.625 40:-0.25 41:0.25 42:-1 43:-1 44:-1 45:-1 46:-0.75 47:0.75 48:-1 49:0.625 50:0.75 51:0.75 52:-0.125 54:0.5 55:0.125 56:-1 57:-0.5 58:0.5 59:0.5 61:0.5 62:0.25 63:-0.875 
1 0:-1 1:-1 2:-0.75 3:-0.5 4:-0.5 5:-0.5 6:-0.875 7:-1 8:-1 9:0.25 10:0.75 11:1 12:1 13:1 14:0.625 15:-0.625 16:-0.75 17:1 22:0.25 23:-0.25 24:-0.25 25:-0.5 26:-1 27:-1 28:-1 29:-1 30:-1 33:-0.5 34:-1 35:-1 36:-1 37:-1 38:-1 40:-0.375 41:0.125 42:-1 43:-1 44:-1 45:-1 46:-0.25 47:-0.125 48:-0.75 49:1 54:1 55:-0.75 56:-1 57:-0.25 62:-0.25 63:-1 
1 0:-1 1:-0.875 2:-0.5 3:-0.5 4:-0.5 5:-0.5 6:-1 7:-1 8:-1 9:0.25 10:1 11:1 12:1 13:1 14:-0.25 15:-1 16:-0.25 17:0.625 18:-0.5 19:-0.5 20:-0.5 21:-0.5 22:0.875 23:-0.625 24:1 25:-0.25 26:-1 27:-1 28:-1 29:-1 30:-0.125 31:-0.5 32:1 33:-0.5 34:-1 35:-1 36:-1 37:-1 38:-0.25 39:-0.5 40:0.25 41:0.375 42:-1 43:-1 44:-1 45:-1 46:0.75 47:-0.5 48:-1 49:0.75 50:0.625 51:0.5 52:0.5 53:0.5 54:0.125 55:-1 56:-1 57:-0.5 58:-0.75 59:-1 60:-1 61:-1 62:-1 63:-1 
1 0:-1 1:-0.5 2:-0.5 3:-0.5 4:-0.5 5:-0.5 6:-0.75 7:-1 8:-0.5 9:1 10:0.25 13:0.5 14:0.5 15:-0.75 17:0.25 18:-0.875 19:-1 20:-1 21:-0.75 22:0.25 23:-0.5 24:1 26:-1 27:-1 28:-1 29:-1 31:-0.5 32:0.5 34:-1 35:-1 36:-1 37:-1 39:-0.5 41:0.75 42:0.5 43:0.5 44:0.5 45:0.5 46:0.375 47:-0.875 48:-1 49:0.5 50:0.5 51:0.5 52:0.5 53:0.5 54:0.125 55:-1 56:-1 57:-1 58:-1 59:-1 60:-1 61:-1 62:-1 63:-1 
1 0:-1 1:-1 2:-0.5 5:-1 6:-1 7:-1 8:-1 9:0.75 10:1 11:1 12:1 13:1 14:1 15:-0.5 16:-0.5 17:0.125 18:-1 19:-1 20:-1 21:-1 22:-0.75 23:0.625 24:-0.125 25:-0.5 26:-1 27:-1 28:-1 29:-1 30:-1 31:0.5 32:-0.125 33:-0.375 34:-1 35:-1 36:-1 37:-1 38:-1 39:0.5 40:-0.75 41:0.625 42:-0.5 43:-0.5 44:-0.5 45:-0.5 46:-0.375 47:0.875 48:-1 49:0.5 50:1 51:1 52:1 53:1 54:1 55:-0.125 56:-1 57:-1 58:-1 59:-0.5 60:-1 61:-0.75 62:-1 63:-1 
1 0:-1 1:-1 2:-1 3:-1 4:-1 5:-1 6:-1 7:-1 8:-1 9:0.25 10:1 11:1 12:1 13:1 14:-0.625 15:-1 16:-1 17:0.75 22:0.75 23:-0.75 24:-0.25 25:0.125 26:-1 27:-1 28:-1 29:-1 30:0.25 31:-0.5 34:-1 35:-1 36:-1 37:-1 38:-0.5 39:-0.5 40:-1 41:0.625 42:-0.875 43:-1 44:-1 45:-1 46:0.25 47:-0.5 48:-1 49:0.5 50:0.25 54:0.75 55:-0.75 56:-1 57:-0.75 58:-0.5 59:1 60:-0.5 61:-0.5 62:-0.625 63:-1 
0.5144953328767219 0:-1 1:-0.5 2:0.5 3:0.25 5:-0.5 6:-1 7:-1 8:-0.5 9:1 10:1 11:1 12:1 13:1 14:1 15:-0.5 16:-0.375 17:0.625 22:0.5 23:0.125 25:-0.25 26:-1 27:-1 28:-1 29:-1 30:-0.5 31:0.875 33:-0.125 34:-1 35:-1 36:-1 37:-1 38:-0.5 39:1 40:-0.25 41:0.5 42:-0.125 43:-0.5 44:-0.5 45:-0.5 47:0.625 48:-0.5 49:1 50:1 51:1 52:1 53:1 54:1 56:-1 57:-0.75 58:-0.5 59:-0.25 61:0.5 62:-0.25 63:-0.875 
1 0:-1 1:-1 2:-1 3:-1 4:-1 5:-1 6:-1 7:-1 8:-0.75 14:-1 15:-1 16:-0.375 17:0.75 18:0.5 19:0.5 20:0.5 21:0.5 22:0.625 23:-1 24:0.5 25:-0.25 26:-1 27:-1 28:-1 29:-1 30:1 31:-1 32:0.5 33:-1 34:-1 35:-1 36:-1 37:-1 39:-1 40:0.75 41:-0.75 42:-1 43:-1 44:-1 45:-1 47:-1 48:-0.125 49:0.25 50:-0.5 51:-0.5 52:-0.5 53:-0.5 54:0.5 55:-1 56:-0.5 57:1 58:1 59:1 60:1 61:1 62:0.25 63:-1 
0.6238840483246126 0:-1 1:-1 2:-0.25 4:0.5 5:1 7:-1 8:-1 9:0.125 10:1 11:1 12:1 13:1 14:1 15:-0.375 16:-0.875 17:0.875 18:-0.5 19:-0.5 20:-0.5 21:-0.5 22:0.25 24:-0.5 25:0.25 26:-1 27:-1 28:-1 29:-1 30:-0.75 32:-0.5 34:-1 35:-1 36:-1 37:-1 38:-1 40:-0.5 41:0.25 42:-1 43:-1 44:-1 45:-1 48:-0.5 49:1 50:-0.5 51:0.25 52:0.5 53:0.625 54:1 55:-0.25 56:-1 57:0.375 58:1 59:0.75 60:0.75 61:0.5 62:0.375 63:-1 
1 0:-1 1:-1 2:-1 3:-1 5:-1 6:-1 7:-1 8:-1 9:0.5 10:1 11:1 12:1 13:1 14:1 15:-0.5 16:-1 17:1 18:-0.5 19:-1 20:-1 21:-1 23:0.25 24:-0.5 25:0.5 26:-1 27:-1 28:-1 29:-1 30:-0.5 31:0.5 32:-0.5 33:0.5 34:-1 35:-1 36:-1 37:-1 38:-0.5 39:0.5 40:-1 41:1 46:0.5 47:0.5 48:-1 49:-0.5 50:1 51:1 52:1 53:1 54:1 55:-0.5 56:-1 57:-1 58:-0.75 59:-1 60:-1 61:-0.25 62:-0.75 63:-1 
0.8273725096883176 0:-1 1:-1 2:-0.5 3:-1 4:-1 5:-1 6:-1 7:-1 8:-1 9:0.5 10:1 11:1 12:1 13:1 14:1 15:-0.5 16:-0.5 17:0.875 18:-0.5 19:-0.5 20:-1 21:-1 22:0.375 23:0.25 24:-0.5 25:0.125 26:-1 27:-1 28:-1 29:-1 30:-0.875 31:0.5 32:-0.375 34:-1 35:-1 36:-1 37:-1 38:-1 39:0.5 40:-0.5 41:0.75 42:-0.875 43:-1 44:-0.75 45:-0.5 47:-0.125 48:-0.875 49:0.75 50:0.625 51:0.5 52:0.75 53:1 54:1 55:-0.75 56:-1 57:-0.75 58:-0.5 59:-0.5 60:-0.5 61:-0.5 62:-0.625 63:-1 
1 0:-1 1:-0.5 2:-0.5 3:-0.5 4:-0.5 5:-0.5 6:-0.5 7:-1 8:-0.5 9:0.75 10:0.5 11:0.5 12:0.5 13:0.5 14:0.75 15:-0.5 17:-0.25 18:-1 19:-1 20:-1 21:-1 22:-0.25 24:1 25:-1 26:-1 27:-1 28:-1 29:-1 30:-1 32:0.75 33:-0.875 34:-1 35:-1 36:-1 37:-1 38:-0.875 41:-0.125 42:-0.625 43:-0.875 44:-1 45:-1 47:-0.125 48:-0.25 49:1 50:0.75 51:0.25 54:0.75 55:-0.75 56:-1 57:-0.25 62:-0.25 63:-1 
1 0:-1 1:-1 2:-1 3:-1 4:-1 5:-1 6:-1 7:-1 8:-1 9:-0.375 10:0.5 11:0.5 12:0.5 13:0.5 14:-0.125 15:-1 16:-0.875 17:0.75 18:0.5 19:0.5 20:0.5 21:-0.5 22:0.625 23:-0.875 24:-0.5 26:-1 27:-1 28:-1 29:-1 30:-0.125 31:-0.5 32:-0.5 33:-0.5 34:-1 35:-1 36:-1 37:-1 38:-0.5 39:-0.5 40:-0.5 41:-0.25 42:-1 43:-1 44:-1 45:-1 46:-0.25 47:-0.5 48:-0.75 49:0.75 54:0.75 55:-1 56:-1 57:-0.25 62:-0.5 63:-1 
1 0:-1 1:-1 2:-1 3:-1 4:-1 5:-1 6:-1 7:-1 8:-1 9:-0.75 10:0.5 11:0.5 12:0.5 13:0.5 15:-1 16:-1 17:0.5 18:0.5 19:0.5 20:0.5 21:0.25 22:0.5 23:-0.5 24:-1 25:0.5 26:-1 27:-1 28:-1 29:-1 30:-0.5 32:-1 34:-1 35:-1 36:-1 37:-1 38:-1 40:-1 41:0.25 42:-1 43:-1 44:-1 45:-1 46:-0.25 48:-1 49:0.75 54:0.75 55:-0.75 56:-1 57:-0.5 62:-0.25 63:-1 
1 0:-1 1:-1 2:-1 3:-1 4:-1 5:-1 6:-1 7:-1 8:-0.75 9:-0.5 10:1 11:1 12:0.25 13:-0.5 14:-0.875 15:-1 17:0.5 23:-1 25:-0.75 26:-1 27:-1 28:-1 29:-1 30:0.125 31:-1 33:-1 34:-1 35:-1 36:-1 37:-1 39:-1 41:0.25 42:-0.5 43:-0.5 44:-0.5 45:-0.5 46:0.25 47:-1 48:-0.5 54:-0.75 55:-1 56:-1 57:-1 58:-1 59:-1 60:-1 61:-1 62:-1 63:-1 
1 0:-1 1:-0.875 2:-0.5 3:-0.5 4:-0.5 5:-0.5 6:-0.75 7:-1 8:-1 10:1 11:1 12:1 13:1 14:0.25 15:-1 16:-0.5 17:0.375 18:-1 19:-1 20:-1 21:-1 23:-1 24:-0.5 26:-1 27:-1 28:-1 29:-1 31:-1 32:-0.5 34:-1 35:-1 36:-1 37:-1 38:0.25 39:-1 40:-0.5 41:0.5 46:0.75 47:-1 48:-1 49:0.125 50:0.5 51:0.5 52:0.5 53:0.5 54:-0.25 55:-1 56:-1 57:-1 58:-1 59:-1 60:-1 61:-1 62:-1 63:-1 
0.06498775603807999 0:-1 1:-1 2:-1 3:-1 4:-0.5 6:-0.75 7:-1 8:-1 9:-0.125 10:1 11:1 12:1 13:0.875 14:0.875 15:-1 16:-0.75 17:1 18:-0.25 19:-1 20:-1 21:-1 22:0.25 23:-0.5 24:-0.5 25:0.125 26:-1 27:-1 28:-1 29:-1 31:-0.5 33:-0.25 34:-1 35:-1 36:-1 37:-1 39:-0.5 40:-0.375 41:0.125 42:-1 43:-1 44:-1 45:-0.5 46:0.875 47:-0.875 48:-0.75 49:1 50:1 51:1 52:1 53:1 54:0.25 55:-1 56:-1 57:-0.375 58:0.5 59:-0.25 60:-0.5 61:-0.75 62:-1 63:-1 
0.07541816053543281 0:-1 1:-0.625 2:0.25 3:0.25 4:-0.5 5:-0.5 6:-0.625 7:-1 8:-0.75 9:0.75 10:1 11:1 12:1 13:1 14:0.75 15:-1 16:-0.5 17:0.625 18:-0.5 19:-0.5 20:-0.5 21:-0.5 22:0.25 23:-0.25 24:-0.5 26:-1 27:-1 28:-1 29:-1 30:-0.5 32:-0.5 33:0.25 34:-1 35:-1 36:-1 37:-1 38:-0.25 40:-0.875 41:0.5 42:0.5 43:0.5 44:0.5 45:0.5 46:0.75 47:-0.75 48:-1 49:0.25 50:1 51:1 52:1 53:1 54:0.75 55:-1 56:-1 57:-0.75 62:-0.5 63:-1 
1 0:-1 1:-0.875 2:-0.5 3:-0.5 4:-0.5 5:-0.5 6:-0.75 7:-1 8:-1 9:-0.25 10:1 11:1 12:1 13:1 14:0.25 15:-1 16:-1 17:0.375 18:1 19:1 20:1 21:1 22:0.875 23:-1 24:-0.5 25:0.375 26:-1 27:-1 28:-1 29:-1 30:-0.125 32:-0.5 34:-1 35:-1 36:-1 37:-1 38:-0.5 40:-0.5 42:-1 43:-1 44:-1 45:-1 46:-0.5 48:-0.625 49:0.5 50:-0.5 51:-0.5 52:-0.5 53:-0.5 54:0.25 55:-0.25 56:-1 58:1 59:1 60:1 61:1 62:0.75 63:-1 
0.1897984482713174 0:-1 1:-1 2:-1 3:-1 4:-1 5:-0.5 6:-0.75 7:-1 8:-1 9:-0.5 10:0.5 11:0.875 12:1 13:1 14:0.875 15:-0.875 16:-1 17:0.75 18:0.5 20:-0.5 21:-1 22:0.5 23:-0.25 24:-0.625 25:0.625 26:-1 27:-1 28:-1 29:-1 32:-0.5 34:-1 35:-1 36:-1 37:-1 40:-0.5 41:0.375 42:-1 43:-1 44:-1 45:-0.875 46:0.625 47:-0.375 48:-1 49:1 50:0.25 52:1 53:1 54:0.75 55:-1 56:-1 57:-0.125 58:0.5 59:0.5 60:-0.25 61:-0.5 62:-0.875 63:-1 
1 1:-0.75 2:-0.5 3:-0.5 4:-0.5 5:-0.5 6:-0.75 7:-0.5 8:-0.75 9:0.5 10:0.625 11:0.5 12:0.5 13:0.5 14:0.5 15:-0.5 16:-1 17:0.75 18:-0.75 19:-1 20:-1 21:-1 22:0.5 23:-0.75 24:-0.75 26:-1 27:-1 28:-1 29:-1 30:-0.25 31:-0.5 32:-0.5 34:-1 35:-1 36:-1 37:-1 38:-0.375 39:-0.5 40:-0.875 41:0.5 42:-0.5 43:-0.5 44:-0.5 45:-0.5 46:0.5 47:-0.5 48:-1 49:0.75 50:1 51:1 52:1 53:1 54:0.75 55:-0.5 56:-1 57:-1 62:-1 63:-0.5 
1 0:-1 1:-1 2:-0.75 3:-0.5 4:-0.5 5:-0.5 6:-0.75 7:-1 8:-0.875 9:0.5 10:0.75 11:1 12:1 13:1 14:0.75 15:-0.625 16:-0.375 17:0.125 18:-0.5 19:-0.5 20:-0.5 21:-0.5 22:-0.125 23:0.25 24:0.75 25:-0.5 26:-1 27:-1 28:-1 29:-1 30:-0.5 31:0.5 32:1 33:-0.5 34:-1 35:-1 36:-1 37:-1 38:-0.5 39:0.5 40:0.5 41:-0.25 42:-1 43:-1 44:-1 45:-0.5 46:0.5 47:-0.25 48:-0.75 49:1 50:1 51:1 52:1 53:1 54:0.75 55:-0.75 56:-1 57:-1 58:-1 59:-1 60:-1 61:-1 62:-1 63:-1 
1 0:-1 1:-1 2:-0.625 3:-0.5 4:-0.5 5:-0.5 6:-1 7:-1 8:-1 9:-0.25 10:0.875 11:1 12:1 13:1 14:-0.625 15:-1 16:-1 17:0.75 19:-0.5 20:-1 21:-0.75 23:-1 24:-0.875 25:0.5 26:-1 27:-1 28:-1 29:-1 31:-0.75 32:-0.5 34:-1 35:-1 36:-1 37:-1 38:0.25 39:-0.25 40:-1 41:0.125 42:-1 43:-1 44:-1 45:-0.75 47:-1 48:-1 49:0.5 50:0.5 51:0.5 52:0.5 53:0.75 54:-0.375 55:-0.25 56:-1 58:0.25 62:-1 63:0.5 
1 0:-1 1:-1 2:-1 3:-1 4:-1 5:-1 6:-1 8:-1 9:-0.875 10:-0.5 11:-0.5 12:0.5 13:0.5 14:-0.875 15:-0.375 16:-1 17:-0.25 18:1 19:1 20:1 21:1 22:-0.25 23:-0.75 24:-1 25:0.75 26:-0.5 27:-1 28:-1 29:-1 30:0.25 31:-0.5 32:-1 33:0.375 34:-1 35:-1 36:-1 37:-1 39:-0.375 40:-1 41:0.125 42:-1 43:-1 44:-1 45:-1 46:0.125 47:-0.125 48:-1 49:0.5 50:-1 51:-1 52:-1 53:-0.5 54:0.25 55:-0.5 56:-1 57:0.25 58:1 59:1 60:1 61:0.5 62:-0.75 63:-1 
1 0:-1 1:-0.75 5:-0.25 6:-0.625 7:-1 8:-0.875 9:0.875 10:0.875 11:1 12:1 13:1 14:1 15:-0.875 16:-0.125 17:0.125 18:-1 19:-1 20:-1 21:-1 22:0.25 23:-0.25 24:0.25 25:-0.625 26:-1 27:-1 28:-1 29:-1 30:-0.5 32:0.375 33:-0.75 34:-1 35:-1 36:-1 37:-1 38:-0.375 41:0.125 42:-1 43:-1 44:-1 45:-0.75 46:0.5 47:-0.375 48:-0.625 49:1 50:1 51:1 52:1 53:1 54:1 55:-0.75 56:-1 57:-0.5 58:-0.5 59:-0.25 60:-0.125 61:-0.25 62:-0.625 63:-1 
0.9664624783274854 0:-1 1:-0.75 2:-0.5 3:-0.5 4:-0.5 5:-1 6:-1 7:-1 8:-0.875 9:0.75 10:1 11:1 12:1 13:0.5 14:0.5 15:-0.75 16:-0.5 17:0.5 18:-0.5 19:-0.5 20:-0.5 21:-0.5 22:0.625 24:-0.5 26:-1 27:-1 28:-1 29:-1 30:-0.875 31:0.25 32:-0.5 34:-1 35:-1 36:-1 37:-1 38:-1 40:-0.5 41:0.25 42:-1 43:-1 44:-1 45:-1 46:-0.75 47:0.5 48:-1 49:1 50:1 54:0.5 55:0.25 56:-1 57:-0.5 59:0.75 60:1 61:1 62:0.5 63:-0.75 
1 0:-1 1:-1 2:-1 3:-1 4:-1 5:-1 6:-1 7:-1 8:-1 9:0.25 10:1 11:0.75 12:0.5 13:0.5 14:0.5 15:-1 16:-0.5 17:0.75 19:-0.5 20:-1 21:-1 22:0.25 23:-0.75 25:0.125 26:-1 27:-1 28:-1 29:-1 31:-0.5 34:-1 35:-1 36:-1 37:-1 39:-0.5 40:-0.25 41:0.25 42:-0.5 43:-0.5 44:-0.5 45:-0.5 46:0.5 47:-1 48:-1 49:0.25 50:1 54:-0.25 55:-1 56:-1 57:-0.875 58:-0.5 59:-1 60:-1 61:-1 62:-1 63:-1 
1 0:-1 1:-1 2:-1 3:-1 4:-1 5:-1 6:-1 7:-1 8:-1 9:0.25 10:1 11:1 12:0.875 13:1 14:0.25 15:-0.875 16:-1 17:0.75 20:-0.25 22:0.5 23:-0.5 24:-0.25 25:0.125 26:-1 27:-1 28:-1 29:-1 30:-0.375 31:-0.5 34:-1 35:-1 36:-1 37:-1 39:-0.5 40:-1 41:0.625 42:-0.5 43:-0.5 44:-0.5 45:-0.5 46:0.875 47:-0.625 48:-1 49:0.5 50:1 51:0.5 54:-0.25 55:-1 56:-1 57:-0.75 58:-0.5 59:-0.75 60:-1 61:-1 62:-1 63:-1 
1 0:-1 1:-1 2:-1 3:-1 4:-1 5:-1 6:-1 7:-1 9:-0.5 10:1 11:1 12:1 13:0.5 14:-1 15:-1 16:1 17:0.5 18:0.5 19:-0.625 20:-0.625 21:0.5 22:0.75 23:-0.875 24:0.5 25:0.5 26:-1 27:-1 28:-1 29:-1 31:-0.5 32:-1 33:0.5 34:-1 35:-1 36:-1 37:-1 39:-0.5 40:-1 42:-0.5 43:-1 44:-1 45:-1 46:0.25 47:-0.5 48:-1 49:-0.5 50:0.75 51:0.5 52:0.5 53:0.5 54:0.875 55:-0.875 56:-1 57:-0.875 58:-0.5 59:-0.5 60:-0.5 61:-0.5 62:-0.5 63:-1 
1 0:-1 1:-1 2:-0.5 3:-0.5 4:-0.5 5:-0.375 6:-0.375 7:-1 8:-1 9:0.5 10:1 11:1 12:1 13:0.625 14:0.625 15:-1 16:-1 17:0.75 18:-0.5 19:-0.75 20:-1 21:-1 22:0.25 23:-0.625 24:-0.625 26:-1 27:-1 28:-1 29:-1 31:-0.5 32:-0.5 34:-1 35:-1 36:-1 37:-1 38:0.125 39:-0.625 40:-0.625 41:0.125 42:-1 43:-1 44:-1 45:-1 46:0.5 47:-1 48:-1 49:0.875 50:0.5 51:0.5 52:0.5 53:0.875 54:0.125 55:-1 56:-1 57:-0.125 58:0.5 59:0.25 60:-0.125 61:-0.5 62:-0.875 63:-0.5 
1 0:-1 1:-0.75 2:-0.5 3:-0.5 4:-0.5 5:-0.5 6:-0.5 7:-0.875 8:-0.875 9:0.75 10:0.5 11:0.5 12:0.5 13:0.5 14:0.75 16:-0.5 17:0.5 18:-1 19:-1 20:-1 21:-1 22:-0.25 23:0.5 24:-0.5 26:-1 27:-1 28:-1 29:-1 30:-1 31:0.5 32:-0.5 34:-1 35:-1 36:-1 37:-1 38:-0.875 39:0.5 40:-0.625 41:0.5 42:-0.5 43:-0.5 44:-0.5 45:-0.5 46:0.125 47:0.375 48:-1 49:0.5 50:1 51:1 52:1 53:1 54:1 55:-0.25 56:-1 57:-1 58:-0.25 59:-1 60:-1 61:-1 62:-1 63:-1 
1 0:-1 1:-1 2:-1 3:-1 4:-1 5:-0.5 6:-0.75 7:-1 8:-1 9:-0.875 10:1 11:1 12:1 13:1 14:0.875 15:-1 16:-1 17:0.25 19:-1 20:-1 21:-1 22:0.5 23:-0.5 24:-1 25:0.875 26:-1 27:-1 28:-1 29:-1 31:-0.5 32:-1 33:0.5 34:-1 35:-1 36:-1 37:-1 39:-0.5 40:-1 41:0.875 42:-1 43:-1 44:-1 45:-1 46:0.625 47:-0.625 48:-1 49:0.5 53:1 54:0.75 55:-1 56:-1 57:-0.5 58:0.5 59:0.25 60:-0.5 61:-0.5 62:-0.875 63:-1 
1 0:-1 1:-1 2:-1 3:-0.5 4:-0.5 5:-0.5 6:-1 7:-1 8:-1 9:0.25 10:0.5 11:1 12:1 13:1 14:0.25 15:-1 16:-0.75 17:0.5 22:1 23:-0.75 24:-0.5 25:-0.5 26:-1 27:-1 28:-1 29:-1 31:-0.5 32:-0.5 33:-0.875 34:-1 35:-1 36:-1 37:-1 38:-0.25 39:-0.5 40:-0.5 41:0.125 42:-0.5 43:-0.5 44:-0.5 45:-0.5 46:0.875 47:-0.625 48:-0.75 49:1 50:1 51:1 52:1 53:1 54:0.75 55:-1 56:-1 57:-0.5 60:-0.5 61:-1 62:-1 63:-1 
1 0:-1 1:-0.875 2:-0.5 3:-0.5 4:-1 5:-1 6:-1 7:-1 8:-1 9:0.25 10:1 11:1 15:-1 16:-1 17:1 18:-0.5 19:-0.5 20:0.625 21:0.25 22:0.625 23:-0.625 25:0.5 26:-1 27:-1 28:-1 29:-1 30:-0.25 31:0.5 32:-0.5 33:0.5 34:-1 35:-1 36:-1 37:-1 38:-1 39:0.5 40:-1 41:0.5 42:-1 43:-1 44:-1 45:-1 46:-0.25 47:0.5 48:-1 49:0.875 50:0.25 51:-0.125 52:-0.125 53:1 54:1 55:-0.625 56:-1 57:-0.25 58:1 59:1 60:1 61:0.75 63:-1 
0.9788092219034594 0:-1 1:-1 2:-1 3:-1 4:-1 5:-1 6:-1 7:-1 8:-1 9:-1 10:-0.75 12:1 13:0.5 14:-0.25 15:-1 16:0.5 18:0.75 19:1 21:0.5 22:1 23:0.75 24:0.5 25:1 27:-1 28:-1 29:-1 30:-0.25 31:1 32:-0.75 33:0.5 34:-1 35:-1 36:-1 37:-1 38:-1 39:0.5 40:-0.25 41:0.875 42:-0.375 43:-1 44:-1 45:-1 46:-0.625 47:0.875 48:0.75 49:0.625 50:0.875 51:-0.5 52:-0.5 53:-0.5 54:0.125 55:0.875 57:-0.875 58:0.25 59:1 60:1 61:1 62:0.75 63:-0.375 
1 0:-1 1:-1 6:-0.5 7:-1 8:-1 9:-0.125 10:0.5 11:0.5 12:0.5 13:0.5 14:0.75 15:-0.625 16:-1 17:0.5 18:-1 19:-1 20:-1 21:-1 22:-0.125 23:0.375 24:-1 25:0.5 26:-1 27:-1 28:-1 29:-1 30:-1 31:0.5 32:-1 33:0.5 34:-1 35:-1 36:-1 37:-1 38:-0.5 39:0.375 40:-1 41:0.625 46:0.5 47:-0.25 48:-1 49:-0.375 50:0.5 51:0.625 52:0.5 53:0.5 54:0.25 55:-1 56:-1 57:-1 58:-1 59:-0.875 60:-1 61:-1 62:-1 63:-1 
0.2555567966339618 0:-1 1:-1 2:-1 3:-1 4:-1 5:-1 6:-1 7:-1 8:-1 9:-0.25 10:1 11:1 12:1 13:1 14:0.25 15:-1 16:-0.625 17:0.75 18:-0.5 19:-0.5 20:-0.5 21:-0.75 22:0.625 23:-0.875 24:-0.125 25:-0.375 26:-1 27:-1 28:-1 29:-1 30:0.125 31:-0.5 33:-0.75 34:-1 35:-1 36:-1 37:-1 39:-0.75 41:-0.5 42:-1 43:-1 44:-1 45:-1 46:0.75 47:-1 48:-0.5 49:0.75 50:0.5 51:0.5 52:0.5 53:1 54:-0.125 55:-1 56:-1 58:0.5 59:0.5 60:-0.25 61:-0.5 62:-1 63:-1 
0.410523648280516 0:-1 1:-1 2:-1 3:-1 4:-1 5:-1 6:-1 7:-1 8:-1 10:0.5 11:0.5 12:0.5 13:0.5 14:0.25 15:-1 16:-0.75 17:1 18:1 19:1 20:1 22:1 23:-0.75 24:-0.5 25:0.25 26:-1 27:-1 28:-1 29:-1 30:-0.25 31:-0.25 32:-0.5 33:-0.5 34:-1 35:-1 36:-1 37:-1 38:-0.5 40:-0.5 42:-1 43:-1 44:-1 45:-1 46:0.125 47:-0.375 48:-0.75 49:0.75 54:1 55:-0.75 56:-1 58:1 59:1 60:1 61:0.25 62:-0.25 63:-1 
0.1369671679501005 0:-1 1:-0.875 2:-0.5 3:-0.5 4:-0.5 5:-0.5 6:-0.625 7:-1 8:-1 9:0.625 10:1 11:1 12:1 13:1 14:0.875 15:-0.625 16:-0.75 17:0.25 18:-1 19:-1 20:-1 21:-1 22:-0.25 23:-0.25 24:-0.5 26:-1 27:-1 28:-1 29:-1 30:-0.5 32:-0.5 34:-1 35:-1 36:-1 37:-1 38:-0.25 39:-0.25 40:-1 41:0.625 42:-0.5 43:-0.5 44:-0.5 45:-0.5 46:0.875 47:-0.625 48:-1 49:-0.125 50:1 51:1 52:1 53:-0.125 54:-0.625 55:-1 56:-1 57:-1 58:-1 59:-1 60:-1 61:-1 62:-1 63:-1 
0.4190846509402427 0:-1 1:-0.625 2:-0.5 3:-0.5 4:-0.5 5:-0.5 6:-0.875 7:-1 8:-1 9:0.875 10:1 11:1 12:1 13:1 14:0.625 15:-1 16:0.25 17:0.25 18:-0.5 22:1 23:-0.5 25:-0.5 26:-1 27:-1 28:-1 29:-1 30:0.375 31:-0.5 33:-0.5 34:-1 35:-1 36:-1 37:-1 38:-0.5 39:-0.5 40:-0.125 41:0.25 42:-0.5 43:-0.625 44:-1 45:-1 46:0.625 47:-0.5 48:-0.875 49:1 50:1 51:0.875 52:0.5 53:0.5 54:1 55:-0.875 56:-1 57:-0.25 62:-0.25 63:-1 
0.372419563505256 0:-1 2:1 3:1 4:1 5:1 6:1 7:-0.5 8:-1 9:0.75 10:0.25 11:1 12:1 13:0.25 14:1 15:0.75 16:-0.75 17:0.75 18:-1 19:-1 20:-1 21:-1 22:-0.75 23:1 24:-0.25 25:0.5 26:-1 27:-1 28:-1 29:-1 30:-1 31:1 32:-0.375 33:0.625 34:-1 35:-1 36:-1 37:-1 38:-0.875 39:1 40:-0.875 41:0.875 42:0.5 43:0.5 44:0.5 45:0.5 46:0.625 47:0.5 48:-1 49:-0.125 50:1 51:1 52:1 53:1 54:0.75 55:-0.5 56:-1 57:-1 58:-0.5 59:-0.5 60:-0.5 61:-0.5 62:-0.75 63:-1 
0.7461587916316128 0:-1 1:-1 2:-1 3:-0.625 4:-0.125 5:1 6:0.75 7:-1 8:-1 9:-0.375 10:1 11:1 12:0.625 13:-0.625 14:0.375 15:-0.5 16:-1 17:0.875 18:-0.5 19:-0.875 20:-1 21:-1 22:-0.875 24:-0.5 26:-1 27:-1 28:-1 29:-1 30:-0.625 31:-0.375 32:-0.5 33:-0.5 34:-1 35:-1 36:-1 37:-1 38:0.25 39:-0.75 40:-0.5 42:-1 43:-0.75 45:0.75 46:0.5 47:-1 48:-0.75 49:1 50:0.75 51:1 52:0.75 53:-0.375 54:-1 55:-1 56:-1 57:-0.375 58:-0.25 59:-0.625 60:-1 61:-1 62:-1 63:-1 
1 0:-1 1:-0.75 5:0.75 6:-0.25 7:-1 8:-1 9:0.75 10:1 11:1 12:1 13:1 14:1 15:-0.25 16:-1 17:0.75 18:-1 19:-1 20:-1 21:-1 22:-0.25 24:-1 26:-1 27:-1 28:-1 29:-1 30:-1 32:-1 33:0.25 34:-1 35:-1 36:-1 37:-1 38:-0.75 40:-1 41:0.75 46:0.75 47:-0.25 48:-1 49:-0.5 50:0.75 51:1 52:1 53:0.75 55:-1 56:-1 57:-1 58:-1 59:-1 60:-1 61:-1 62:-1 63:-1 
0.4849574717940595 0:-1 1:-1 2:-0.75 3:-0.75 6:-0.25 7:-1 8:-1 9:0.75 10:1 11:1 12:1 13:1 14:1 15:-0.25 16:-0.25 17:0.75 20:-0.75 21:-1 22:-0.5 23:0.75 25:-0.75 26:-1 27:-1 28:-1 29:-1 30:-1 31:0.5 32:0.75 33:-1 34:-1 35:-1 36:-1 37:-1 38:-1 39:0.5 40:1 41:-0.875 42:-1 43:-1 44:-1 45:-1 46:-0.875 47:0.75 48:0.75 49:0.125 50:-0.5 51:-0.5 52:-0.25 53:0.5 54:0.625 55:0.375 56:-0.5 57:1 58:1 59:1 60:1 61:0.625 62:0.5 63:-0.75 
1 0:-1 1:-1 2:-1 3:-1 4:-1 5:-1 6:-1 7:-1 8:-1 9:0.5 10:1 11:1 12:1 13:1 14:1 15:-0.75 16:-0.5 17:0.75 22:0.25 23:-0.25 25:-0.5 26:-1 27:-1 28:-1 29:-1 30:-1 33:-0.5 34:-1 35:-1 36:-1 37:-1 38:-1 39:0.5 41:-0.25 42:-1 43:-1 44:-1 45:-1 46:-0.75 47:0.5 48:-0.75 49:0.75 50:0.5 54:0.75 55:-0.5 56:-1 57:-1 58:-1 59:-1 62:-0.75 63:-1 
1 0:-1 1:-1 2:-1 3:-1 4:-1 5:-1 6:-1 7:-1 8:-1 9:-0.625 10:0.375 11:0.5 12:0.75 13:1 14:0.875 15:-0.75 16:-1 17:0.5 18:0.125 20:-0.75 21:-1 22:-0.125 24:-1 25:0.5 26:-1 27:-1 28:-1 29:-1 30:-0.75 32:-0.5 34:-1 35:-1 36:-1 37:-1 38:-1 40:-0.625 41:0.125 42:-1 43:-1 44:-1 45:-1 46:-0.375 48:-1 49:0.75 50:-1 51:-0.875 52:-0.5 53:-0.5 54:0.5 55:-0.5 56:-1 58:1 59:1 60:0.75 61:0.5 63:-1 
0.2186243838894588 0:-1 1:-0.25 2:0.75 7:-1 8:-0.75 9:0.75 11:1 12:1 13:1 14:0.5 15:-0.25 17:0.25 18:-1 19:-1 20:-1 21:-1 22:-0.5 26:-1 27:-1 28:-1 29:-1 30:-1 31:0.5 33:-0.5 34:-1 35:-1 36:-1 37:-1 38:-0.75 39:0.5 40:-0.5 41:0.5 46:0.5 47:0.25 48:-1 49:0.25 50:1 51:1 52:1 53:1 54:0.75 55:-0.75 56:-1 57:-1 58:-1 59:-1 60:-1 61:-1 62:-1 63:-1 
0.3058555838804781 0:-1 1:-1 2:-1 3:-1 4:-1 5:-1 6:-1 7:-1 8:-1 9:-0.75 11:1 12:1 13:1 14:1 15:-0.25 16:-1 17:0.5 18:-0.25 19:-0.5 20:-0.5 21:-0.75 22:-0.75 23:0.75 24:-1 25:0.625 26:-1 27:-1 28:-1 29:-1 30:-1 31:0.5 32:-1 33:0.5 34:-1 35:-1 36:-1 37:-1 38:-1 39:0.5 40:-1 41:0.75 42:-1 43:-1 44:-1 45:-1 46:-0.75 47:0.75 48:-1 50:0.625 51:0.5 52:0.5 53:0.5 54:0.625 55:-0.375 56:-1 57:-0.875 58:-0.5 59:-0.5 60:-0.5 61:-0.5 62:-0.625 63:-1 
1 0:-1 1:-0.875 2:-0.5 3:-0.125 6:-0.25 7:-1 8:-1 9:0.5 10:0.625 11:0.5 12:0.5 13:0.5 14:0.875 15:-0.625 16:-0.75 17:0.75 18:-0.875 19:-1 20:-1 21:-1 22:-0.125 23:-0.125 24:-0.5 25:-0.375 26:-1 27:-1 28:-1 29:-1 30:-1 33:-0.5 34:-1 35:-1 36:-1 37:-1 38:-0.875 40:-0.375 42:-1 43:-1 44:-1 45:-1 47:-0.375 48:-0.75 49:1 52:0.5 53:1 54:0.875 55:-0.75 56:-1 57:0.25 58:0.5 59:0.5 60:0.125 62:-0.75 63:-1 
1 0:-1 1:-1 2:-1 3:-1 4:-1 5:-1 6:-1 7:-1 8:-1 9:-0.25 10:1 11:1 12:1 13:1 14:0.5 15:-1 16:-1 17:0.75 22:0.5 23:-0.25 24:-0.75 25:0.25 26:-1 27:-1 28:-1 29:-1 30:-0.75 32:-0.5 34:-1 35:-1 36:-1 37:-1 38:-1 40:-0.75 41:0.25 42:-1 43:-1 44:-1 45:-1 46:-0.5 47:-0.25 48:-1 49:0.5 54:0.75 55:-0.75 56:-1 57:-0.75 62:-0.25 63:-1 
0.9022105997867093 0:-1 1:-1 2:-1 3:-1 4:-0.5 7:-1 8:-1 9:-0.125 10:0.75 11:1 12:0.875 13:0.5 14:0.75 15:-0.625 16:-0.875 17:0.5 18:-0.25 19:-1 20:-1 21:-1 22:-0.75 24:-0.5 25:-0.25 26:-1 27:-1 28:-1 29:-1 30:-1 32:-0.5 33:-0.5 34:-1 35:-1 36:-1 37:-1 38:-0.625 40:-0.5 41:-0.375 42:-1 43:-1 44:-0.875 45:-0.5 46:0.375 47:-0.625 48:-0.75 49:0.625 51:0.375 52:0.625 53:1 54:0.75 55:-1 56:-1 57:0.5 58:0.75 59:0.5 60:-0.25 61:-0.625 62:-1 63:-1 
1 0:-1 1:-0.875 2:-0.625 3:-0.5 4:-1 5:-1 6:-1 7:-1 8:-0.875 9:0.5 10:0.75 11:1 12:0.5 13:0.5 15:-0.875 16:-0.375 17:0.125 18:-0.625 19:-0.5 20:-0.5 21:-0.5 22:0.375 23:-0.125 25:-0.375 26:-1 27:-1 28:-1 29:-1 30:-0.625 33:-0.5 34:-1 35:-1 36:-1 37:-1 38:-0.75 41:-0.25 42:-1 43:-1 44:-1 45:-1 46:-0.25 47:-0.25 48:-0.25 49:0.75 52:0.5 53:0.5 54:0.75 55:-0.5 56:-1 62:-0.25 63:-1 
1 0:-1 1:-0.75 7:-1 8:-1 9:0.75 10:1 11:1 12:1 13:1 14:1 17:0.25 18:-0.75 19:-1 20:-1 21:-1 22:-0.5 23:0.5 24:0.5 25:-1 26:-1 27:-1 28:-1 29:-1 30:-1 31:0.5 32:0.5 33:-0.5 34:-1 35:-1 36:-1 37:-1 38:-1 39:0.625 41:0.5 43:0.5 44:0.5 45:0.5 46:0.5 47:0.5 48:-0.875 49:0.625 50:1 51:0.75 52:0.5 53:0.5 54:0.5 55:-0.5 56:-1 57:-0.875 58:-0.5 59:-0.75 60:-1 61:-1 62:-1 63:-1 
1 0:-1 6:-0.25 7:-1 8:-0.5 9:0.75 10:0.5 11:1 12:1 13:1 14:1 15:-0.75 16:-0.25 17:-0.25 18:-1 19:-1 20:-1 21:-1 22:-0.75 23:0.5 25:-0.75 26:-1 27:-1 28:-1 29:-1 30:-1 31:0.5 33:-0.5 34:-1 35:-1 36:-1 37:-1 38:-0.875 39:0.5 40:-0.375 41:0.75 42:-0.25 43:-0.5 44:-0.5 45:-0.5 46:0.125 48:-0.875 49:0.625 50:0.5 51:0.5 52:0.5 53:0.5 54:0.5 55:-0.875 56:-1 57:-0.875 58:-1 59:-1 60:-1 61:-1 62:-1 63:-1 
1 0:-1 1:-1 2:-1 3:-0.625 4:-0.5 5:-0.5 6:-1 7:-1 8:-1 9:-0.25 11:0.75 12:1 13:1 14:-0.5 15:-1 16:-0.625 17:0.875 18:1 19:0.25 20:-0.5 21:-0.125 22:0.375 23:-1 24:-0.375 26:-1 27:-1 28:-1 29:-1 30:0.5 31:-1 33:-0.25 34:-1 35:-1 36:-1 37:-0.75 38:0.5 39:-1 40:-0.375 41:-0.125 42:-1 43:-1 44:0.125 45:0.625 46:0.125 47:-1 48:-0.625 49:0.875 50:1 51:0.625 52:0.5 53:0.5 54:-1 55:-1 56:-1 57:-0.25 59:-0.75 60:-1 61:-1 62:-1 63:-1 
1 0:-1 1:-1 2:-1 3:-0.625 4:-0.5 5:-0.5 6:-0.75 7:-1 8:-1 9:-0.5 11:0.75 12:1 13:1 14:0.5 15:-1 16:-1 17:0.375 18:0.25 19:-0.5 20:-0.5 21:-0.5 22:0.25 23:-1 24:-0.875 26:-1 27:-1 28:-1 29:-1 31:-1 32:-0.5 34:-1 35:-1 36:-1 37:-1 38:0.5 39:-1 40:-0.875 42:-1 43:-1 44:-0.625 45:0.5 46:0.625 47:-1 48:-1 49:0.25 50:1 51:1 52:0.5 53:0.5 54:-0.25 55:-1 56:-1 57:-0.75 60:-1 61:-1 62:-1 63:-0.75 
1 0:-1 1:-0.875 2:-0.75 3:-1 4:-1 5:-1 6:-1 7:-1 8:-0.875 9:0.375 10:0.75 11:0.5 12:0.5 13:0.5 14:0.5 15:0.125 16:-0.375 17:0.875 18:-0.25 19:0.25 20:0.5 21:0.5 22:0.625 23:0.875 25:0.125 26:-1 27:-1 28:-1 29:-1 30:-0.875 31:1 34:-1 35:-1 36:-1 37:-1 38:-1 39:0.5 41:0.5 42:-1 43:-1 44:-1 45:-1 46:-1 47:1 48:-0.5 49:1 50:1 51:0.25 54:1 55:0.75 56:-1 57:-0.5 63:-0.5 
0.6910043259030592 0:-1 1:-1 2:-1 3:-0.5 6:-1 7:-1 8:-1 9:-0.25 10:1 11:1 12:0.5 13:0.25 14:1 15:-0.75 16:-0.5 17:0.5 18:-0.75 19:-1 20:-1 21:-1 22:-0.375 23:0.375 24:0.75 25:-0.375 26:-1 27:-1 28:-1 29:-1 30:-1 31:0.125 32:1 33:-1 34:-1 35:-1 36:-1 37:-1 38:-1 40:0.5 41:-0.5 42:-1 43:-1 44:-1 45:-1 46:-0.75 47:0.5 48:-0.5 49:0.5 50:-0.5 51:-0.625 52:-0.5 53:-0.5 54:0.875 55:-0.5 56:-1 57:0.25 58:0.875 59:0.875 60:0.625 61:0.5 62:-0.25 63:-1 
1 0:-1 1:-0.5 6:-0.5 7:-1 8:-0.75 9:1 10:0.25 11:0.75 12:1 13:1 14:1 15:-0.75 18:-1 19:-1 20:-1 21:-1 22:0.25 23:-0.25 24:0.5 25:-1 26:-1 27:-1 28:-1 29:-1 30:-0.5 32:0.25 33:-0.375 34:-1 35:-1 36:-1 37:-1 38:-0.375 39:-0.125 40:-0.375 41:0.5 43:0.25 44:-0.5 45:-0.25 46:0.75 47:-0.625 48:-0.875 49:0.5 50:0.5 51:0.5 52:0.75 53:0.5 54:0.25 55:-1 56:-1 57:-1 58:-1 59:-1 60:-0.75 61:-1 62:-1 63:-1 
1 0:-1 1:-1 2:-1 3:-1 4:-1 5:-1 6:-1 7:-1 8:-1 9:-0.375 10:1 11:1 12:1 13:1 14:0.375 15:-1 16:-1 17:0.75 19:-0.5 20:-0.5 21:-0.5 22:0.5 23:-0.875 24:-0.5 25:0.25 26:-1 27:-1 28:-1 29:-1 30:-0.25 31:-0.5 32:-0.5 34:-1 35:-1 36:-1 37:-1 38:-0.375 39:-0.5 40:-0.5 41:0.25 42:-1 43:-1 44:-1 45:-1 46:0.25 47:-0.75 48:-1 49:0.875 53:0.25 54:0.625 55:-1 56:-1 57:-0.125 58:0.5 59:0.5 60:0.5 61:0.5 62:-0.75 63:-1 
1 0:-1 1:-1 2:-1 5:1 6:-0.25 7:-1 8:-1 9:0.125 10:1 11:0.75 12:0.5 13:0.25 14:0.625 15:-1 16:-0.875 17:0.875 18:-0.5 19:-0.75 20:-1 21:-1 22:0.375 23:-1 24:-0.5 26:-1 27:-1 28:-1 29:-1 31:-1 32:-0.5 33:-0.5 34:-1 35:-1 36:-1 37:-1 38:0.375 39:-1 40:-0.5 41:-0.125 42:-1 43:-1 44:-0.25 45:0.25 46:0.25 47:-1 48:-0.75 49:0.875 50:0.75 51:0.875 52:0.5 53:0.5 54:-0.75 55:-1 56:-1 57:-0.375 58:-0.25 59:-0.625 60:-1 61:-1 62:-1 63:-1 
1 0:-1 1:-1 3:-0.75 6:-0.25 7:-1 8:-1 9:0.75 10:1 11:1 12:1 13:1 14:1 15:-0.25 16:-0.5 17:0.25 18:-1 19:-1 20:-1 21:-1 22:-0.5 24:-0.5 25:-0.25 26:-1 27:-1 28:-1 29:-1 30:-1 32:-0.5 33:-0.25 34:-1 35:-1 36:-1 37:-1 38:-0.75 40:-0.5 41:0.75 42:-1 43:-0.25 44:-1 46:0.5 47:-0.25 48:-1 49:0.75 50:1 51:1 52:1 53:1 54:0.75 55:-1 56:-1 57:-0.75 58:-1 59:-1 60:-1 61:-1 62:-1 63:-1 
1 0:-0.75 1:-0.625 2:-0.5 3:-0.5 4:-0.5 5:-1 6:-1 7:-1 8:0.5 9:0.75 10:1 11:1 12:1 15:-1 16:1 17:-1 18:-1 19:-1 20:0.5 21:0.5 22:0.75 23:-1 24:0.5 25:-1 26:-1 27:-1 28:-1 29:-1 31:-1 33:-1 34:-1 35:-1 36:-1 37:-1 39:-1 41:-0.75 42:-1 43:-1 44:-1 45:-1 46:0.25 47:-0.75 48:-0.625 49:0.875 50:1 51:1 52:0.625 53:0.625 54:0.375 55:-0.625 56:-1 57:-0.25 60:0.25 61:0.75 62:-0.5 63:-1 
0.5753556241436388 0:-1 1:-1 2:-1 3:-1 4:-1 5:-1 6:-1 7:-1 8:0.25 9:0.25 14:0.25 15:-0.25 16:0.5 22:0.5 24:0.5 25:-1 26:-1 27:-1 28:-1 29:-1 30:-0.5 32:0.5 33:-1 34:-1 35:-1 36:-1 37:-1 38:-0.5 40:0.5 41:-1 42:-1 43:-1 44:-1 45:-1 48:0.25 49:-0.25 50:-1 51:-1 52:-1 53:-1 54:0.25 55:-0.5 56:-0.25 57:1 58:1 59:1 60:1 61:1 62:1 63:-0.75 
0.02192545760449198 0:-0.5 1:-1 2:-1 3:-1 4:-1 5:-1 6:-1 7:-1 8:0.5 9:0.875 10:0.875 11:0.75 12:1 13:0.5 14:0.5 15:-0.625 16:0.25 17:-0.5 18:-0.75 19:-0.5 22:0.5 23:-0.5 24:-0.5 25:-0.875 26:-1 27:-1 28:-1 29:-1 30:-0.375 31:-0.5 32:-1 33:-1 34:-1 35:-1 36:-1 37:-1 38:-0.25 39:-0.5 40:-0.5 41:-0.375 42:-1 43:-1 44:-1 45:-1 46:0.125 47:-0.625 49:1 50:0.5 51:0.5 54:1 55:-0.75 56:-0.875 57:-0.25 58:0.5 59:0.5 60:0.5 61:0.5 62:-0.375 63:-1 
1 0:-1 1:-1 2:-1 3:-1 4:-1 5:-1 6:-1 7:-1 8:-0.5 9:0.5 15:-0.5 17:0.5 18:0.5 19:0.75 22:0.5 25:-0.75 26:-1 27:-1 28:-1 29:-1 30:-0.5 33:-1 34:-1 35:-1 36:-1 37:-1 38:-0.5 41:-0.875 42:-1 43:-1 44:-1 45:-1 46:-0.5 48:-0.125 49:-0.125 50:-1 51:-1 52:-1 53:-1 54:0.125 55:-0.5 56:-0.5 57:0.75 58:0.5 59:0.5 60:0.5 61:0.5 62:0.625 63:-1 
0.4506546892976316 0:-0.75 7:-0.25 8:-0.625 9:1 10:0.75 11:1 12:0.75 13:0.625 14:0.875 16:-0.875 17:-0.5 18:-1 19:-1 20:-1 21:-1 22:-0.75 24:-0.5 25:-0.5 26:-1 27:-1 28:-1 29:-1 30:-1 32:-0.5 33:-0.5 34:-1 35:-1 36:-1 37:-1 38:-0.625 40:-0.5 41:-0.125 42:-1 43:-1 44:-1 45:-1 46:-0.125 47:-0.25 48:-0.875 49:0.875 50:0.5 51:0.5 52:0.5 53:0.5 54:0.875 55:-0.875 56:-1 57:-0.125 58:-0.25 59:-0.5 60:-0.5 61:-0.5 62:-0.625 63:-1 
0.5039161376047721 0:-1 1:-1 2:-1 3:-1 4:-1 5:-1 6:-1 7:-1 8:-0.5 10:-0.5 12:0.25 13:0.75 14:1 15:-0.25 16:0.5 17:1 18:1 19:1 20:1 21:1 22:1 24:0.5 25:-0.25 26:-0.75 27:-0.75 28:-1 29:-1 30:-0.5 32:0.5 33:-1 34:-1 35:-1 36:-1 37:-1 38:-0.5 40:0.5 41:-0.875 42:-1 43:-1 44:-1 45:-1 46:-0.5 48:0.375 49:-0.375 50:-1 51:-1 52:-1 53:-1 55:-0.375 56:-0.125 57:0.5 59:0.5 60:0.5 61:0.5 62:0.375 63:-0.875 
1 0:-1 1:-1 2:-1 3:-1 4:-1 5:-1 6:-1 7:-0.5 8:-0.5 9:0.5 15:-0.5 16:0.25 17:1 18:1 19:1 20:1 21:1 22:1 23:-0.5 24:0.5 25:-0.75 26:-0.75 27:-0.5 28:-1 29:-1 31:-0.5 32:0.25 33:-0.875 34:-1 35:-1 36:-1 37:-1 38:-0.125 39:-0.625 40:0.375 41:-0.5 42:-1 43:-1 44:-1 45:-1 46:-0.125 47:-1 48:-0.125 49:-0.375 50:-1 51:-1 52:-1 53:-1 54:0.25 55:-1 56:-0.625 57:0.75 58:0.5 59:0.5 60:0.5 61:0.5 62:0.75 63:-1 
1 0:-1 1:-1 2:-1 3:-1 4:-1 5:-0.5 6:-0.5 7:-0.75 8:-1 9:0.5 10:0.5 11:0.5 12:0.5 13:1 14:1 16:-0.5 17:0.75 21:-0.5 22:-0.25 24:-0.875 25:0.5 26:-1 27:-1 28:-1 29:-1 30:-0.5 32:-1 33:0.5 34:-1 35:-1 36:-1 37:-1 38:-0.5 40:-1 41:0.625 42:-1 43:-1 44:-1 45:-1 46:0.125 47:-0.125 48:-1 49:0.25 50:0.5 51:0.5 52:0.5 53:0.5 54:0.875 55:-0.5 56:-1 57:-0.5 62:-0.75 63:-1 
1 0:-1 1:-1 2:-1 3:-1 4:-1 5:-1 6:-1 7:-1 8:-0.75 9:-0.5 10:-0.25 11:-0.5 15:-0.25 17:1 18:1 19:1 20:1 21:1 22:1 23:0.5 26:-0.5 27:-1 28:-1 29:-1 31:0.5 33:-0.5 34:-1 35:-1 36:-1 37:-1 38:-0.5 39:0.5 41:-0.5 42:-1 43:-1 44:-1 45:-1 46:-0.25 47:0.5 49:0.25 50:-1 51:-1 52:-1 53:-1 55:-0.25 57:1 58:0.75 59:0.75 60:1 61:1 62:1 63:-0.5 
0.5306740595014291 0:-1 1:-1 2:-1 3:-1 4:-1 5:-1 6:-1 7:-1 8:1 10:0.25 15:-0.25 16:1 17:0.25 18:0.75 19:0.75 20:1 21:1 22:1 23:1 24:0.75 25:-1 26:-1 27:-1 28:-1 29:-1 30:-1 31:1 32:0.5 33:-1 34:-1 35:-1 36:-1 37:-1 38:-1 40:0.625 41:-1 42:-1 43:-1 44:-1 45:-1 46:-1 47:0.5 48:0.875 49:-0.375 50:-1 51:-1 52:-1 53:-1 54:-0.875 55:0.875 56:-0.125 57:0.875 58:0.5 59:0.5 60:0.5 61:0.5 62:0.625 
1 0:-1 1:-0.75 2:-0.875 3:-0.875 4:-1 5:-1 6:-0.75 7:-1 8:-1 9:0.75 10:0.375 11:0.625 12:0.5 13:0.5 14:0.75 15:-0.625 16:-1 17:0.75 18:-0.5 22:0.5 23:-0.5 24:-1 25:0.25 26:-1 27:-1 28:-1 29:-1 31:-0.5 32:-0.875 33:0.125 34:-1 35:-1 36:-1 37:-1 39:-1 40:-0.625 41:0.625 42:-1 43:-1 44:-1 45:-1 46:0.5 47:-1 48:-1 49:1 54:0.75 55:-1 56:-1 57:-0.25 58:1 59:1 60:1 61:0.75 62:-0.5 63:-1 
1 0:-1 1:-0.5 2:-0.5 3:-0.5 4:-0.5 5:-0.5 6:-0.5 7:-0.875 8:-1 9:1 10:0.75 11:1 12:1 13:1 14:1 15:-0.5 16:-1 17:0.5 18:-1 19:-1 20:-1 21:-1 23:-0.5 24:-1 25:0.5 26:-1 27:-1 28:-1 29:-1 31:-0.75 32:-1 33:0.5 34:-1 35:-1 36:-0.625 37:-0.875 38:0.125 39:-1 40:-1 41:0.5 44:0.75 45:0.25 46:0.5 47:-1 48:-0.375 49:-0.625 50:0.5 51:0.5 52:0.5 53:0.5 54:-0.25 55:-1 56:0.25 57:-1 58:-1 59:-1 60:-1 61:-1 62:-1 63:-1 
1 0:-0.75 7:-0.25 8:-0.625 9:1 10:0.75 11:1 12:0.75 13:0.625 14:0.875 16:-0.875 17:-0.5 18:-1 19:-1 20:-1 21:-1 22:-0.75 24:-0.5 25:-0.5 26:-1 27:-1 28:-1 29:-1 30:-1 32:-0.5 33:-0.5 34:-1 35:-1 36:-1 37:-1 38:-0.625 40:-0.5 41:-0.125 42:-1 43:-1 44:-1 45:-1 46:-0.125 47:-0.25 48:-0.875 49:0.875 50:0.5 51:0.5 52:0.5 53:0.5 54:0.875 55:-0.875 56:-1 57:-0.125 58:-0.25 59:-0.5 60:-0.5 61:-0.5 62:-0.625 63:-1 
0.1593723302675954 0:-1 1:-0.25 2:-1 3:-1 4:-1 5:-1 6:-0.75 8:-1 9:1 10:1 11:1 12:1 13:1 14:1 15:1 16:-1 18:-1 19:-1 20:-1 21:-1 22:-1 23:0.25 24:-1 25:-0.5 26:-1 27:-1 28:-1 29:-1 30:-1 32:-1 33:-0.5 34:-1 35:-1 36:-1 37:-1 38:-1 40:-0.5 42:-1 43:-1 44:-1 45:-1 46:-1 47:0.75 48:-0.75 49:1 50:0.25 51:0.25 53:0.75 54:1 55:0.25 56:-1 57:-0.125 58:0.5 59:0.5 60:0.5 61:0.5 62:0.25 63:-0.875 
1 0:-0.75 5:-0.5 6:-1 7:-1 8:-0.5 9:1 10:1 11:1 12:1 13:1 14:1 15:-0.25 16:-0.5 18:-1 19:-1 20:-1 21:-1 22:-0.25 23:-0.5 24:-0.5 26:-1 27:-1 28:-1 29:-1 30:-0.5 31:-0.5 32:-0.5 34:-1 35:-1 36:-1 37:-1 38:-0.5 39:-0.5 40:-0.625 41:0.5 42:-1 43:-1 44:-1 45:-1 47:-0.5 48:-1 49:0.5 50:0.5 51:0.5 52:0.5 53:0.5 54:0.75 55:-0.875 56:-1 57:-0.75 58:-0.5 59:-0.5 60:-0.5 61:-0.5 62:-0.625 63:-1 
0.7654810804253374 0:-1 1:-1 2:-0.875 3:-0.5 4:-0.5 5:-0.5 6:-0.5 7:-0.75 8:-1 9:0.5 10:0.625 11:1 12:1 13:1 14:1 15:0.375 16:-1 17:1 18:0.25 22:-0.75 24:-1 25:0.75 26:-0.875 27:-1 28:-1 29:-1 30:-1 32:-1 34:-1 35:-1 36:-1 37:-1 38:-0.75 40:-1 41:1 42:-0.875 43:-1 44:-0.875 45:-0.5 46:0.625 47:-0.125 48:-1 49:0.625 50:0.625 51:0.5 52:0.625 53:1 54:1 55:-0.875 56:-1 57:-0.5 58:1 59:1 62:-0.25 63:-1 
0.9808244009849382 0:-1 1:-1 2:-1 3:-0.25 4:-0.5 5:-1 6:-1 7:-1 8:-0.5 9:1 10:1 11:1 12:1 13:1 14:1 15:-0.75 16:-0.5 17:-0.5 18:-1 19:-1 20:-1 21:-1 23:-0.5 24:-1 25:-0.75 26:-1 27:-1 28:-1 29:-1 30:-0.5 31:-0.5 32:-0.5 33:-0.25 34:-1 35:-1 36:-1 37:-1 38:-0.25 39:-0.5 40:-0.5 41:0.25 42:-1 43:-1 44:-1 45:-1 46:0.25 47:-0.5 48:-1 49:0.75 50:1 51:1 52:1 53:1 54:0.75 55:-1 56:-1 57:-1 58:-0.25 59:-1 60:-0.5 62:-1 63:-1 
1 0:-1 1:-1 2:-1 3:-1 4:-1 5:-1 6:-1 7:-1 8:-0.75 9:0.25 14:0.25 15:-0.75 16:-0.5 17:0.75 18:0.25 22:0.75 23:-0.5 24:-0.5 25:-0.5 26:-1 27:-1 28:-1 29:-1 31:-0.5 32:-0.5 33:-0.75 34:-1 35:-1 36:-1 37:-1 39:-0.5 40:-0.5 41:-0.25 42:-1 43:-1 44:-1 45:-1 46:0.25 47:-0.5 48:-0.5 49:0.75 54:0.75 55:-0.75 56:-1 57:0.75 58:1 59:1 60:1 61:1 63:-1 
-1 0:-1 1:-1 2:-1 3:-1 4:-1 5:-1 6:-1 7:-1 8:-1 9:0.25 10:1 11:1 12:1 13:0.875 14:0.125 15:-1 16:-0.5 17:0.75 21:-0.25 22:0.25 23:-0.75 25:0.125 26:-1 27:-1 28:-1 29:-1 31:-0.5 34:-1 35:-1 36:-1 37:-1 38:-0.5 39:-1 40:-1 41:0.625 42:-0.625 43:-1 44:-1 45:0.125 46:0.375 47:-1 48:-1 49:0.5 50:0.5 51:-1 52:-1 53:-0.25 54:-0.5 55:-1 56:-1 57:-0.75 58:-0.625 59:-1 60:-1 61:-1 62:-1 63:-1 
-1 0:-1 1:-1 2:-1 3:-1 4:-1 5:-1 6:-1 7:-1 8:-1 9:-0.125 10:0.5 11:0.5 12:0.5 13:0.5 14:-0.125 15:-1 16:-0.75 17:0.75 18:1 19:1 20:1 21:0.25 22:0.75 23:-0.75 24:-0.125 25:-0.125 26:-1 27:-1 28:-1 29:-1 30:-0.375 33:-0.5 34:-0.5 35:-1 36:-1 37:-1 38:-0.5 41:-0.625 42:-0.625 43:-1 44:-1 45:-0.875 46:-0.5 48:-0.25 49:-0.25 50:-1 52:-1 53:-0.75 55:-0.5 56:-0.625 57:1 58:-0.5 59:-0.375 60:-1 61:0.5 62:0.5 63:-1 
-0.5875822448831817 0:-0.5 1:-1 2:-0.75 3:-0.875 4:-0.625 5:-0.75 6:-0.625 7:-1 8:-0.625 9:-0.375 10:0.75 11:0.625 12:0.875 13:0.375 14:0.875 15:-0.875 16:-0.875 17:0.375 18:-0.25 19:-0.5 20:-0.5 21:-0.875 22:-0.25 23:-0.125 24:-0.375 25:-0.375 26:-1 27:-1 28:-1 29:-1 30:-1 31:0.125 33:-0.5 34:-1 35:-1 36:-1 37:-1 38:-1 39:0.5 41:-0.5 42:-1 43:-1 44:-1 45:-1 46:-1 47:0.25 49:0.5 50:-0.75 51:-1 52:-1 53:0.25 54:0.5 55:-0.25 56:-0.75 57:0.75 58:-0.25 59:-1 60:-1 61:0.5 63:-1 
-1 0:-1 1:-0.75 2:-0.5 3:-0.5 4:-0.5 5:-0.5 6:-0.625 7:-1 8:-1 9:0.5 10:1 11:1 12:1 13:0.875 14:0.75 15:-0.5 16:-0.875 17:0.5 18:-0.5 19:-0.5 20:-0.5 21:-0.625 23:0.375 24:-0.5 26:-1 27:-1 28:-1 29:-1 30:-0.875 31:0.5 32:-0.5 34:-1 35:-1 36:-1 37:-1 38:-1 39:0.5 40:-0.5 41:0.75 42:-1 43:-1 44:-1 45:-1 46:-0.25 48:-1 49:0.75 50:0.5 51:-1 52:-1 53:0.5 54:1 55:-0.5 56:-1 57:-0.5 58:-0.5 59:-1 60:-1 61:-0.25 62:-0.5 63:-1 
-0.9275048008334952 0:-1 1:-1 4:-1 5:-0.5 7:-1 8:-1 9:0.375 10:1 11:1 12:1 13:1 14:1 15:-0.125 16:-0.875 17:0.625 18:-0.75 19:-0.5 20:-1 21:-1 22:-0.125 23:0.25 24:-0.5 25:-0.25 26:-1 27:-1 28:-1 29:-1 30:-1 31:0.5 32:-0.5 33:-0.375 34:-1 35:-1 36:-1 37:-1 38:-1 39:0.5 40:-0.5 41:0.375 42:-1 43:-1 44:-1 45:-1 46:-0.625 47:0.25 48:-0.75 49:1 50:-0.375 51:-1 52:-1 54:0.75 55:-0.25 56:-1 57:0.5 58:-0.125 59:-1 60:-1 61:0.25 62:0.25 63:-1 
-0.1629654905880376 0:-1 1:-0.75 5:-1 6:-1 7:-1 8:-1 9:0.75 10:1 11:1 12:1 13:1 14:0.25 15:-1 16:-0.125 17:0.125 18:-0.875 19:-0.875 20:-1 21:-0.875 22:0.25 23:-0.375 26:-1 27:-1 28:-1 29:-1 30:-0.125 34:-1 35:-1 36:-1 37:-1 38:-0.25 40:-0.5 41:0.75 42:-1 43:-1 44:-1 45:-1 47:-0.5 48:-1 49:0.375 50:-0.25 51:-1 52:-1 53:0.875 54:0.5 55:-1 56:-1 57:-0.875 58:-0.875 59:-1 60:-1 61:-0.5 62:-0.75 63:-1 
-0.7825976929503417 0:-1 1:-1 2:-1 3:-1 4:-1 5:-1 6:-1 7:-1 8:-0.625 9:-0.125 10:0.75 11:0.25 12:1 14:-0.125 15:-1 16:-1 17:0.5 18:-0.5 19:-0.5 20:-0.5 21:-0.25 22:0.875 23:-0.625 24:-0.5 25:-0.5 26:-1 27:-1 28:-1 29:-1 30:-0.5 32:-0.125 33:-0.625 34:-1 35:-0.875 36:-1 37:-1 38:-1 40:-0.25 41:-0.625 42:-1 43:-0.75 44:-1 45:-1 46:-1 48:-0.75 49:0.75 50:-0.875 51:-1 52:-1 53:-0.625 55:-0.25 56:-1 57:0.25 58:-0.625 59:-1 60:-1 61:0.375 62:0.75 63:-0.625 
-1 0:-1 1:-1 2:-1 3:-1 4:-1 5:-1 6:-1 7:-1 8:-1 14:-0.5 15:-1 16:-1 17:1 18:1 19:1 20:1 21:1 22:0.75 23:-1 25:0.25 26:-1 27:-1 28:-1 29:-1 30:0.375 31:-0.5 34:-1 35:-1 36:-1 37:-1 39:-0.5 40:-0.75 41:0.875 42:-1 43:-1 44:-1 45:-1 46:0.375 47:-0.5 48:-1 49:0.625 50:0.375 51:-1 52:-0.5 53:1 54:0.75 55:-1 56:-1 57:-0.75 58:-0.5 59:-1 60:-0.75 62:-0.5 63:-1 
-0.7466797293905204 0:-1 1:-1 2:-1 3:-0.25 4:-0.5 5:-0.25 6:-1 7:-1 8:-1 9:0.125 10:1 11:1 12:1 13:1 14:0.875 15:-0.875 16:-1 17:0.625 18:-0.5 22:0.375 24:-0.75 25:0.25 26:-1 27:-1 28:-1 29:-1 30:-0.5 31:0.25 32:-0.5 34:-1 35:-1 36:-1 37:-1 38:-0.625 39:0.375 40:-0.5 41:0.5 42:-0.625 43:-1 44:-1 45:-0.875 46:0.125 48:-0.25 49:-0.5 50:0.875 51:-1 52:-1 53:-0.125 54:1 55:-0.625 56:0.125 57:-1 58:0.25 59:-1 60:-1 61:-0.25 62:-0.125 63:-1 
-0.07147076259422061 0:-1 1:-1 2:-1 3:-1 4:-1 5:-1 6:-1 7:-0.75 8:-1 9:0.75 10:1 11:1 12:1 13:1 14:0.75 15:-1 16:-0.75 17:0.25 18:-1 19:-0.75 20:-1 21:-1 22:0.5 23:-0.75 25:-0.25 26:-1 27:-1 28:-1 29:-1 30:-0.5 31:-0.5 33:-0.5 34:-1 35:-1 36:-1 37:-1 38:-0.5 39:-0.5 41:0.25 42:-1 43:-1 44:-1 45:-1 46:0.25 47:-0.75 48:-0.75 49:1 50:-0.75 51:-0.25 52:-1 53:1 54:0.75 55:-1 56:-1 57:-0.25 58:-0.75 59:-1 60:-1 61:-0.25 62:-0.75 63:-1 
-1 0:-1 1:-1 2:-1 3:-1 4:-1 5:-1 6:-1 7:-1 8:-0.75 9:1 10:1 11:1 12:1 13:1 14:0.5 15:-1 16:-0.25 17:0.25 18:-0.5 22:0.5 23:-0.25 24:0.5 25:-0.75 26:-1 27:-1 28:-1 29:-1 30:-0.75 32:0.5 33:-1 34:-1 35:-1 36:-1 37:-1 38:-1 39:0.5 40:0.5 41:-0.5 42:-1 43:-1 44:-1 45:-1 46:-0.75 48:-0.25 49:0.75 50:-1 51:-1 52:-1 53:-0.25 54:0.5 55:-0.25 56:-1 57:0.25 58:-1 59:-1 60:-1 61:0.25 62:0.5 63:-1 
-1 0:-1 1:-1 2:-1 3:-1 4:-1 5:-1 6:-1 7:-1 8:-1 9:-0.5 10:0.5 11:0.5 12:0.5 13:0.5 15:-0.875 16:-0.75 17:1 18:1 21:0.5 22:1 23:-0.25 25:-0.25 26:-1 27:-1 28:-1 29:-1 30:-1 31:0.5 33:-0.5 34:-1 35:-1 36:-1 37:-1 38:-1 40:-0.125 41:-0.125 42:-1 43:-1 44:-1 45:-1 46:-0.5 47:-0.125 48:-0.75 49:0.75 50:-0.25 51:-1 52:-1 53:-0.5 54:0.5 55:-0.5 56:-1 57:-0.5 58:-0.25 59:-1 60:-1 61:-0.5 62:-0.25 63:-1 
-1 0:-1 1:-1 2:-1 3:-1 4:-0.875 5:-0.25 6:-1 7:-1 8:-0.875 9:0.75 10:1 11:1 12:1 13:1 14:-0.125 15:-1 16:-0.375 17:0.75 18:-0.5 19:-1 20:-0.25 21:-1 22:0.625 23:-1 25:-0.5 26:-1 27:-1 28:-1 29:-1 30:0.25 31:-1 32:-0.125 33:-0.5 34:-1 35:-1 36:-1 37:-1 38:0.125 39:-1 40:-0.5 41:0.25 42:-0.875 43:-1 44:-0.5 45:0.5 46:0.75 47:-1 48:-1 49:1 51:-1 52:-0.25 53:0.875 54:-0.375 55:-1 56:-1 57:-0.25 58:-0.25 59:-1 60:-0.75 61:-0.375 62:-1 63:-0.5 
-0.262191961771742 0:-1 1:-1 2:0.25 3:-0.5 6:-0.75 7:-1 8:-1 9:1 10:1 11:1 12:1 13:1 14:0.5 15:-1 16:-0.5 17:0.125 18:-0.5 19:-0.5 20:-0.5 21:-0.5 22:0.75 23:-0.625 24:-0.125 26:-1 27:-1 28:-1 29:-1 30:-0.125 31:-0.375 34:-1 35:-1 36:-1 37:-1 38:-0.5 40:-0.5 41:0.75 42:-0.75 43:-1 44:-1 45:-1 46:-0.25 47:-0.5 48:-1 49:0.75 51:-1 52:-1 53:0.75 54:0.875 55:-0.875 56:-1 57:-0.75 58:-0.75 59:-1 60:-1 61:0.125 62:-0.125 63:-1 
-1 0:-1 1:-0.75 6:-0.5 7:-0.5 8:-0.75 9:0.75 10:1 11:1 12:0.75 14:0.5 15:-1 17:0.25 18:-1 19:-1 20:-1 21:-1 22:0.25 23:-1 24:0.5 25:-1 26:-1 27:-1 28:-1 29:-1 31:-1 32:0.5 33:-1 34:-0.5 35:-0.75 36:-1 37:-1 39:-1 40:0.5 41:-0.75 42:-0.75 43:-0.5 44:-1 45:-0.75 46:0.5 47:-1 48:-0.25 49:0.75 50:-1 51:-1 52:-0.5 53:1 54:-0.25 55:-1 56:-1 57:0.25 58:-0.75 59:-1 60:-0.75 61:-0.5 62:-1 63:-1 
-1 0:-1 1:-1 2:-0.5 3:-0.25 6:-0.5 7:-1 8:-1 9:0.5 10:1 11:1 12:1 13:1 14:1 15:-1 17:0.5 18:-1 19:-1 20:-1 21:-1 22:-0.125 23:-0.375 24:0.5 25:-0.375 26:-1 27:-1 28:-1 29:-1 30:-0.5 32:0.5 33:-0.5 34:-1 35:-1 36:-1 37:-1 38:-0.5 40:0.5 41:-0.25 42:-1 43:-0.5 45:-0.75 46:0.25 49:0.875 50:-0.625 51:-0.75 52:-0.625 53:1 54:0.875 55:-0.5 56:-0.875 57:0.25 58:-0.625 59:-1 60:-1 61:0.25 62:-0.125 63:-1 
-0.470609247504124 0:-1 1:-1 2:-0.25 3:-0.5 6:-0.5 7:-1 8:-0.875 9:0.75 10:0.875 11:0.5 12:0.5 13:0.5 14:0.875 15:-0.75 16:-0.375 17:0.5 18:-0.625 19:-1 20:-1 21:-1 22:0.125 23:-0.125 25:-0.25 26:-1 27:-1 28:-1 29:-1 30:-0.5 31:0.5 33:-0.125 34:-1 35:-1 36:-1 37:-1 38:-0.5 39:0.125 40:-0.375 41:0.625 42:-0.5 43:-1 44:-1 45:-0.75 46:0.375 47:-0.25 48:-1 49:0.5 50:0.375 51:-1 52:-1 53:-0.25 54:0.5 55:-1 56:-1 57:-0.875 58:-0.75 59:-1 60:-1 61:-1 62:-0.875 63:-1 
-1 0:-0.25 1:-1 2:-0.75 3:-0.75 6:-0.25 7:-1 8:-0.125 10:1 11:1 12:0.5 13:0.5 14:0.75 15:-0.5 18:-1 19:-1 20:-1 21:-1 22:-0.75 24:-0.375 25:-0.625 26:-1 27:-1 28:-1 29:-1 30:-1 32:-0.25 33:-1 34:-1 35:-1 36:-1 37:-1 38:-1 41:-0.5 42:-1 43:-1 44:-1 45:-1 46:-0.25 47:-0.125 48:-0.25 49:0.75 50:-0.75 51:-1 52:-1 53:0.5 54:0.75 55:-0.75 56:-1 58:-0.5 59:-1 60:-1 61:-0.125 62:-0.625 63:-1 
-1 0:-1 1:-0.875 2:-0.5 3:-0.5 4:-0.5 5:-0.5 6:-0.75 7:-1 8:-1 9:-0.125 10:0.25 11:1 12:1 13:1 14:0.75 15:-0.625 16:-1 17:0.25 18:-0.75 19:-1 20:-1 21:-1 22:-0.25 24:-1 25:0.5 26:-1 27:-1 28:-1 29:-1 30:-0.75 32:-1 33:0.5 34:-1 35:-1 36:-1 37:-1 38:-0.5 40:-1 42:-0.125 43:-0.875 44:-1 45:-1 46:0.25 47:-0.625 48:-1 50:1 51:-0.875 52:-1 53:-0.625 54:0.625 55:-1 56:-1 57:-1 58:-1 59:-1 60:-1 61:-1 62:-0.75 63:-1 
-0.4996217034635031 0:-1 1:-1 2:-1 3:-1 4:-1 5:-1 6:-1 7:-1 8:-1 9:-1 10:0.25 15:-1 16:-0.125 17:0.125 19:0.25 21:0.5 22:1 23:-1 25:-0.125 26:-1 27:-1 28:-1 29:-1 30:0.5 31:-0.875 32:-0.25 33:-0.5 34:-1 35:-1 36:-1 37:-1 39:-0.5 40:-0.75 41:0.25 42:-1 43:-1 44:-1 45:-1 47:-0.75 48:-1 49:0.625 50:-0.125 51:-1 52:-1 53:0.25 54:1 55:-1 56:-1 57:-0.125 58:-0.25 59:-1 60:-1 61:0.125 62:0.25 63:-1 
-1 0:-1 1:-1 2:-1 3:-0.875 4:-0.5 5:-0.5 6:-0.875 7:-1 8:-1 9:-0.625 10:0.5 11:0.625 12:1 13:1 14:0.5 15:-1 16:-1 17:0.375 18:0.625 19:0.5 20:0.5 21:0.5 22:0.75 23:-0.625 24:-1 25:0.375 26:-1 27:-1 28:-1 29:-1 30:-0.25 32:-1 33:0.5 34:-1 35:-1 36:-1 37:-1 38:-0.5 40:-1 41:0.375 42:-1 43:-1 44:-1 45:-1 46:-0.125 47:-0.25 48:-1 49:0.375 50:0.625 51:-1 52:-1 53:-0.25 54:1 55:-0.875 56:-1 57:-0.625 58:0.5 59:-1 60:-1 61:-0.25 63:-1 
-0.5401595246954577 0:-1 1:0.125 2:0.5 3:0.25 6:-0.25 7:-1 8:-0.875 9:0.75 10:0.25 11:0.25 12:0.5 13:0.5 14:0.875 15:-0.625 16:-0.5 18:-1 19:-1 20:-1 21:-1 22:-0.25 23:-0.125 24:-0.5 25:-0.375 26:-1 27:-1 28:-1 29:-1 30:-0.875 31:-0.25 32:-0.5 33:-0.125 34:-1 35:-1 36:-1 37:-1 38:-1 39:-0.5 40:-0.625 41:0.5 42:-0.875 43:-1 44:-1 45:-1 46:-0.625 48:-1 49:0.875 51:-1 52:-1 53:0.25 54:1 55:-0.5 56:-1 57:-0.75 58:-0.5 59:-1 60:-1 61:-0.25 62:-0.125 63:-1 
-1 0:-1 1:-1 2:-1 3:-1 4:-1 5:-1 6:-1 7:-1 8:-1 13:-0.25 14:-1 15:-0.75 16:-0.25 17:1 18:1 19:1 20:0.625 21:0.125 22:-0.625 23:-0.5 24:1 25:-0.625 26:-1 27:-1 28:-1 29:-0.625 30:0.875 31:-0.625 32:1 33:-1 34:-1 35:-1 36:-1 37:-1 38:0.5 39:-0.75 40:1 41:-1 42:-1 43:-1 44:-1 45:-0.625 46:-0.25 47:0.625 49:0.625 50:-1 51:-1 52:-0.25 53:0.875 54:-0.625 55:-0.125 56:-0.5 57:0.5 58:-1 59:-1 60:-0.25 61:-0.25 62:-1 63:-0.75 
-0.2796769111878033 0:-1 1:-0.375 6:-0.125 7:-1 8:-1 9:0.875 10:0.25 11:1 12:1 13:1 14:1 15:-0.75 16:-0.625 18:-1 19:-1 20:-1 21:-1 22:-0.375 24:-0.5 25:-0.5 26:-1 27:-1 28:-1 29:-1 30:-1 32:-0.625 33:-0.375 34:-1 35:-1 36:-1 37:-1 38:-1 40:-1 41:0.5 42:-0.5 43:-1 44:-1 45:-1 46:-0.125 48:-0.375 49:0.375 51:-1 52:-1 53:0.375 54:0.875 55:-0.875 56:-0.375 57:-1 58:-0.75 59:-1 60:-1 61:-0.75 62:-0.75 63:-1 
-0.8059469461328652 0:-1 1:-1 2:-1 3:-1 4:-1 5:-1 6:-1 7:-1 8:-1 10:1 11:1 12:1 13:1 14:0.75 15:-1 16:-0.625 17:0.75 18:-0.625 19:-0.625 20:-0.5 21:-0.5 22:0.375 23:-0.375 24:-0.5 25:-0.375 26:-1 27:-1 28:-1 29:-1 30:-0.5 32:-0.5 33:-0.25 34:-1 35:-1 36:-1 37:-1 38:-0.5 40:-0.5 41:0.25 42:-1 43:-1 44:-1 45:-1 46:-0.25 48:-1 49:0.5 50:0.5 51:-1 52:-1 54:0.875 55:-0.875 56:-1 57:-0.75 58:-0.625 59:-1 60:-1 61:-0.25 62:-0.625 63:-1 
-1 0:-1 1:-1 2:-1 3:-1 4:-1 5:-1 6:-1 7:-1 8:-1 9:-0.75 10:0.75 11:1 12:1 13:0.75 14:-0.75 15:-1 16:-1 18:0.5 21:0.25 22:0.75 23:-1 24:-1 26:-0.75 27:-1 28:-1 29:-1 30:0.5 31:-1 32:-1 34:-0.75 35:-1 36:-1 37:-1 39:-1 40:-1 43:-1 44:-1 45:-1 46:0.75 47:-1 48:-1 49:-0.75 50:1 51:-0.5 52:-1 53:0.5 54:0.25 55:-1 56:-1 57:-1 58:-1 59:-1 60:-1 61:-0.5 62:-1 63:-1 
-0.8176104881979944 0:-0.5 1:-1 2:-0.75 3:-0.875 4:-0.625 5:-0.75 6:-0.625 7:-1 8:-0.625 9:-0.375 10:0.75 11:0.625 12:0.875 13:0.375 14:0.875 15:-0.875 16:-0.875 17:0.375 18:-0.25 19:-0.5 20:-0.5 21:-0.875 22:-0.25 23:-0.125 24:-0.375 25:-0.375 26:-1 27:-1 28:-1 29:-1 30:-1 31:0.125 33:-0.5 34:-1 35:-1 36:-1 37:-1 38:-1 39:0.5 41:-0.5 42:-1 43:-1 44:-1 45:-1 46:-1 47:0.25 49:0.5 50:-0.75 51:-1 52:-1 53:0.25 54:0.5 55:-0.25 56:-0.75 57:0.75 58:-0.25 59:-1 60:-1 61:0.5 63:-1 
-1 0:-1 1:-0.75 6:-0.5 7:-1 8:-1 9:0.5 10:1 11:1 12:1 13:1 14:1 15:-0.75 16:-1 17:0.625 18:-1 19:-1 20:-1 21:-1 22:-0.5 23:0.375 24:-1 25:0.5 26:-1 27:-1 28:-1 29:-1 30:-1 31:0.5 32:-1 33:0.5 34:-1 35:-1 36:-1 37:-1 38:-1 39:0.5 40:-1 41:0.75 42:-1 43:-1 44:-1 45:-1 46:-0.25 48:-1 49:0.125 50:0.875 51:-1 52:-1 53:-0.5 54:0.875 55:-0.875 56:-1 57:-0.875 58:-0.625 59:-1 60:-1 61:-0.875 62:-0.375 63:-1 
-1 0:-0.75 1:-1 2:-1 3:-1 4:-1 5:-1 6:-1 7:-1 8:-1 9:-0.25 10:1 11:1 12:1 13:1 14:1 15:-0.25 16:-0.25 17:0.25 18:-1 19:-1 20:-1 21:-1 22:-0.75 24:-0.5 26:-1 27:-1 28:-1 29:-1 30:-1 31:-0.25 32:-0.5 34:-1 35:-1 36:-1 37:-1 38:-1 39:-0.5 40:-0.5 41:0.5 42:-1 43:-1 44:-1 45:-1 46:-1 48:-1 49:0.75 50:-0.75 51:-1 52:-1 53:-0.75 54:0.75 55:-0.25 56:-1 57:-0.75 58:-0.75 59:-1 60:-1 61:-1 62:-0.5 63:-1 
-0.9217050244003903 0:-1 1:-0.625 2:-0.125 3:-0.5 4:-0.5 5:-0.5 6:-0.5 7:-1 8:-0.5 9:0.75 10:0.5 11:0.5 12:0.5 13:0.5 14:0.875 15:-0.5 16:0.125 18:-1 19:-1 20:-1 21:-1 22:-0.25 23:0.125 24:0.5 25:-0.5 26:-1 27:-1 28:-1 29:-1 30:-0.875 31:0.5 32:0.25 33:-0.5 34:-1 35:-1 36:-1 37:-1 38:-0.75 39:0.25 40:-0.25 41:0.5 42:-0.5 43:-1 44:-1 45:-0.75 46:0.25 47:-0.25 48:-1 49:0.5 51:-1 52:-1 54:0.75 55:-0.75 56:-1 57:-1 58:-1 59:-1 60:-1 61:-1 62:-1 63:-1 
-1 0:-1 1:-0.375 6:-0.125 7:-1 8:-1 9:0.875 10:0.25 11:1 12:1 13:1 14:1 15:-0.75 16:-0.625 18:-1 19:-1 20:-1 21:-1 22:-0.375 24:-0.5 25:-0.5 26:-1 27:-1 28:-1 29:-1 30:-1 32:-0.625 33:-0.375 34:-1 35:-1 36:-1 37:-1 38:-1 40:-1 41:0.5 42:-0.5 43:-1 44:-1 45:-1 46:-0.125 48:-0.375 49:0.375 51:-1 52:-1 53:0.375 54:0.875 55:-0.875 56:-0.375 57:-1 58:-0.75 59:-1 60:-1 61:-0.75 62:-0.75 63:-1 
-1 0:-1 1:-1 2:-0.5 7:-1 8:-1 9:0.75 10:1 11:1 12:1 13:0.75 14:0.75 15:-0.25 16:-0.5 17:0.125 18:-1 19:-1 20:-1 21:-1 22:-1 23:0.125 24:-0.375 25:-0.5 26:-1 27:-1 28:-1 29:-1 30:-1 31:0.125 33:-0.25 34:-1 35:-1 36:-1 37:-1 38:-1 40:-0.5 41:0.25 42:-1 43:-1 44:-1 45:-0.75 46:-0.25 47:-0.5 48:-0.875 49:0.875 50:-0.125 51:-1 52:-1 54:0.625 55:-1 56:-1 57:-0.625 58:-0.5 59:-1 60:-1 61:-0.75 62:-0.875 63:-1 
-0.7756692652886325 0:-1 1:-1 2:-1 3:-0.5 5:0.5 6:-0.875 7:0.5 8:-1 9:-0.25 10:0.5 11:1 12:1 13:1 14:-0.125 15:0.125 16:-1 17:0.5 18:-0.25 19:-0.5 20:-0.5 21:-0.625 22:0.5 23:-0.5 24:-1 25:0.5 26:-1 27:-1 28:-1 29:-1 31:-0.625 32:-1 33:0.5 34:-1 35:-1 36:-1 37:-1 39:-0.75 40:-1 41:0.5 42:-1 43:-1 44:-1 45:-1 46:0.25 47:-0.5 48:-1 49:0.5 50:-0.875 51:-1 52:-1 53:0.625 55:-0.625 56:-1 57:-0.375 58:-0.375 59:-1 60:-1 61:0.25 62:-1 63:-1 
-1 0:-1 1:-0.75 6:-0.5 7:-1 8:-0.75 9:0.5 10:0.25 11:0.75 12:0.75 13:0.5 14:0.75 15:-1 16:-0.25 18:-1 19:-1 20:-1 21:-1 22:-0.25 23:-0.5 25:-0.5 26:-1 27:-1 28:-1 30:-0.5 32:-0.125 34:-1 35:-1 36:-1 38:0.375 40:-0.625 41:0.5 42:0.5 43:0.5 44:0.5 45:0.125 46:1 48:-1 49:-0.375 50:0.5 51:0.5 52:0.5 54:-0.5 55:-0.75 56:-1 57:-1 58:-1 59:-1 60:-1 61:-1 62:-1 63:-1 
-1 0:-1 1:-1 2:-1 6:-0.75 7:-1 8:-1 9:0.25 10:1 11:1 12:1 13:1 14:0.75 15:-1 16:-1 17:0.75 19:-0.5 20:-1 21:-1 22:0.75 23:-1 24:-0.5 25:0.25 26:-1 27:-1 28:-0.75 29:-0.75 31:-1 32:-0.5 33:-0.25 34:-1 35:-1 36:-0.875 37:0.5 38:0.75 39:-1 40:-0.5 41:0.125 42:-1 43:-0.75 44:-0.5 45:0.5 46:1 47:-1 48:-0.625 49:0.875 50:0.5 51:0.75 52:1 53:1 54:0.5 55:-1 56:-1 57:0.25 58:0.5 59:0.5 61:-0.5 62:-1 63:-1 
-1 0:-1 1:-1 2:-1 3:-1 4:-1 5:-1 6:-1 7:-1 8:-1 9:-0.5 10:0.5 11:1 12:0.5 14:-0.5 15:-1 16:-1 17:0.75 18:1 19:1 20:1 21:0.75 22:0.75 23:-1 24:-0.75 25:0.75 26:-1 27:-1 28:-1 29:-1 30:0.25 31:-0.75 32:-0.5 34:-1 35:-1 36:-1 37:-1 38:0.125 39:-0.5 40:-0.5 41:0.125 42:-1 43:-1 44:-1 45:-0.625 46:0.875 47:-0.5 48:-0.875 49:0.875 50:-0.25 51:-0.5 52:-0.5 53:0.125 54:1 55:-0.375 56:-1 58:0.875 59:0.625 60:0.625 61:0.5 63:-0.75 
-1 0:-1 1:-1 2:-1 3:-1 4:-1 5:-1 6:-1 7:-1 8:-1 9:-1 10:-0.25 11:-0.5 13:-0.25 14:-1 15:-1 16:-0.875 17:0.875 18:0.625 19:0.625 20:0.5 21:0.75 22:-0.5 23:-0.625 24:-0.375 25:-0.125 26:-0.875 27:-0.875 28:-1 29:-0.375 30:-0.125 31:-1 32:0.25 33:-1 34:-1 35:-1 36:-0.75 37:-1 39:-1 40:0.25 41:-1 42:-1 43:-1 44:-0.25 45:-0.25 47:-1 48:-0.125 50:-0.875 51:-0.625 52:-0.875 53:1 55:-1 56:-0.875 57:0.875 58:0.625 59:0.875 60:0.625 61:1 63:-1 
-1 0:-0.75 1:-1 2:-1 3:-1 4:-1 5:-1 6:-1 7:-1 8:-0.75 10:1 11:1 12:1 13:0.75 15:-1 16:-1 17:0.875 18:-0.5 19:-0.5 20:-0.5 21:-0.5 22:0.125 23:-0.375 24:-0.875 25:0.125 26:-1 27:-1 28:-1 29:-1 30:-0.625 31:0.375 32:-0.25 33:-0.5 34:-1 35:-1 36:-1 37:-0.25 38:-1 40:-0.25 42:-1 43:-1 44:-1 45:-0.5 46:0.25 48:-0.625 49:0.875 50:-0.25 51:0.5 52:-0.25 53:-0.25 54:1 55:0.125 56:-1 57:0.25 58:0.875 59:0.625 60:0.5 61:0.5 62:0.5 63:0.125 
-1 0:-1 1:-1 2:-0.25 7:-0.75 8:-1 9:0.25 10:0.75 11:0.75 12:1 13:0.75 14:0.75 16:-1 17:0.75 18:-0.75 19:-1 20:-1 21:-1 22:-1 23:0.5 24:-1 25:1 26:-1 27:-1 28:-1 30:-0.75 31:0.5 32:-1 33:0.5 34:-1 35:-1 36:-1 37:-0.75 38:0.25 39:0.5 40:-1 41:0.25 42:0.25 45:-1 46:0.25 47:-1 48:-1 49:-0.75 50:1 51:1 52:1 53:1 54:-0.5 55:-1 56:-1 57:-1 58:-1 59:-1 60:-1 61:-1 62:-0.75 
-1 0:-1 1:-0.625 2:-0.5 3:-0.5 4:-0.5 5:-0.5 6:-0.875 7:-1 8:-0.875 9:0.75 10:0.5 11:0.5 12:0.5 13:0.5 14:0.5 15:-1 16:-0.5 17:0.25 18:-1 19:-1 20:-1 21:-1 22:0.25 23:-1 24:-0.25 26:-1 27:-1 28:-0.25 29:-1 31:-0.5 32:-0.5 34:-1 35:-1 36:-0.625 39:-1 40:-0.875 41:0.75 42:-0.5 43:-0.5 44:-0.5 45:0.25 46:0.75 47:-1 48:-1 49:0.25 50:1 51:1 52:1 53:1 54:1 55:-0.75 56:-1 57:-1 58:-1 59:-1 60:-1 61:-1 62:-1 63:-1 
-1 0:-1 1:-1 2:-1 3:-1 4:-1 5:-1 6:-1 7:-1 8:-0.75 9:1 10:1 11:1 12:1 13:1 14:0.125 15:-1 17:0.5 23:-1 24:0.75 25:-0.75 26:-1 27:-1 28:-1 29:-1 30:-0.5 31:-1 32:1 33:-1 34:-1 35:-1 36:-1 37:-1 38:0.5 39:-1 41:0.25 42:-0.5 43:-0.5 44:-0.5 45:0.25 46:0.625 47:-0.875 48:-0.5 49:1 50:1 51:1 52:1 53:1 55:-0.75 56:-1 57:-0.5 58:-0.5 59:-0.5 60:-0.5 61:-0.5 62:-1 63:-1 
-1 0:-1 1:-1 2:-0.5 4:-1 5:-1 6:-1 7:-1 8:-0.75 9:1 10:1 11:1 12:1 13:1 14:0.125 15:-0.875 22:0.5 23:-0.75 24:0.75 25:-1 26:-1 27:-1 28:-1 29:-1 30:-0.25 31:-1 32:1 33:-1 34:-1 35:-1 36:-1 37:-1 38:0.5 39:-1 40:-0.25 41:0.25 42:-0.5 43:-0.5 44:-0.5 45:0.25 46:0.625 47:-0.875 48:-1 49:0.5 50:1 51:1 52:1 53:1 55:-0.75 56:-1 57:-0.75 58:-0.5 59:-0.5 60:-0.5 61:-0.5 62:-1 63:-1 
-1 0:-1 1:-1 2:-1 3:-0.25 4:-0.75 5:-1 6:-1 7:-1 8:-1 9:0.75 10:1 11:1 12:1 13:1 14:0.75 15:-0.75 16:-0.375 17:0.5 18:-0.875 19:-0.75 20:-1 21:-0.875 22:0.125 23:-0.5 26:-1 27:-1 28:-1 29:-1 30:-0.875 31:-0.375 32:-0.25 34:-1 35:-1 36:-1 37:-1 38:0.25 40:-0.5 41:0.25 42:-1 43:-1 44:-1 45:-1 46:0.5 47:0.25 48:-1 49:0.375 50:1 51:1 52:1 53:0.875 54:0.75 55:0.125 56:-1 57:-0.875 58:-0.5 59:-0.5 60:-0.5 61:-0.5 62:-0.75 63:-1 
-1 0:-1 1:-1 2:-1 3:-1 4:-1 5:-1 6:-1 7:-1 8:-1 9:0.75 10:1 11:1 12:1 13:1 14:1 15:-0.75 16:-0.5 17:0.5 18:-1 19:-0.75 20:-0.75 21:-1 22:-0.25 24:-0.5 26:-1 27:-1 28:-1 29:-1 30:-1 32:-0.5 34:-1 35:-1 36:-1 37:-1 38:-0.25 40:-0.75 41:0.75 42:-0.5 43:-0.25 45:-1 46:0.75 47:0.25 48:-1 49:0.25 50:1 51:1 52:1 53:1 54:0.25 55:-0.25 56:-1 57:-1 58:-1 59:-1 60:-1 61:-1 62:-1 63:-1 
-0.490645647101626 0:-0.75 1:-1 2:-1 3:-1 4:-1 5:-1 6:-1 7:-1 8:-1 9:0.5 10:1 11:1 12:1 13:1 14:1 15:-0.75 16:-0.5 17:0.25 18:-1 19:-1 20:-1 21:-1 22:-1 23:-0.25 24:-0.5 25:-0.5 26:-1 27:-1 28:-0.75 29:-0.5 30:-1 31:-0.5 32:-0.5 33:-0.5 34:-1 35:-1 36:-0.5 37:1 38:-0.5 40:-0.5 41:-0.25 42:-1 43:-1 44:-1 45:-1 46:0.75 47:0.25 48:-0.75 49:0.75 50:1 51:1 52:1 54:-0.5 55:-1 56:-0.75 57:-1 58:-0.75 60:-0.75 62:-0.75 63:-1 
-1 0:-1 1:-1 2:-0.75 3:-0.75 4:-1 5:-1 6:-1 7:-1 8:-1 9:0.5 10:0.75 11:0.75 12:0.5 13:0.5 14:0.125 15:-1 16:-0.5 17:0.5 22:0.75 23:-0.75 24:-0.5 25:-0.375 26:-1 27:-1 28:-0.875 29:-1 30:-0.25 31:-0.5 32:-0.5 33:-0.5 34:-1 35:-1 36:-0.5 37:-0.5 38:-0.5 39:-0.5 40:-0.5 41:0.25 42:-0.5 43:-0.5 44:-0.875 45:0.625 46:0.625 47:-0.5 48:-0.875 49:0.625 50:1 51:1 52:0.625 53:1 54:1 55:-0.5 56:-1 57:-1 58:-0.25 60:-0.5 61:-0.5 62:-1 63:-1 
-1 0:-1 1:-1 2:-0.75 3:-0.625 4:-1 5:-1 6:-1 7:-1 8:-1 9:0.5 10:0.75 11:0.875 12:0.5 13:0.5 14:0.125 15:-1 16:-0.5 17:0.5 22:0.75 23:-0.75 24:-0.5 25:-0.375 26:-1 27:-1 28:-0.875 29:-1 30:-0.25 31:-0.5 32:-0.5 33:-0.25 34:-1 35:-1 36:-0.5 37:-0.5 38:-0.5 39:-0.5 40:-0.625 41:1 42:-0.5 43:-0.5 44:-0.875 45:0.25 46:-0.125 47:-0.5 48:-1 49:0.625 50:1 51:1 52:0.625 53:1 54:1 55:-0.5 56:-1 57:-1 58:-0.5 60:-0.75 61:-0.5 62:-0.75 63:-0.75 
-0.328397545013925 0:-1 1:-0.5 6:-0.75 7:-0.5 8:-0.75 9:0.875 10:0.5 11:0.5 12:0.5 13:0.5 14:0.625 15:-0.875 16:-0.125 18:-1 19:-1 20:-1 21:-1 22:0.375 23:-0.5 24:0.5 25:-1 26:-1 27:-1 28:-0.75 29:-0.5 30:-0.75 31:-0.5 32:0.5 33:-1 34:-1 35:-1 36:-1 37:0.5 38:-0.375 39:-0.5 40:0.125 41:-0.375 42:-1 43:-1 44:-1 46:0.875 47:-0.5 48:-0.625 49:1 50:1 51:1 52:1 53:0.625 54:0.25 55:-0.625 56:-1 57:-0.5 58:-0.5 59:-0.5 60:-0.5 61:-0.625 62:-1 63:-1 
-1 0:-1 1:-1 2:-1 3:-1 4:-1 5:-1 6:-1 7:-0.5 8:-0.875 9:0.75 10:1 11:1 12:1 13:1 14:0.125 15:-0.5 16:-0.125 17:0.375 18:-0.5 19:-0.5 20:-0.5 21:-0.25 22:0.875 23:-0.25 24:0.5 25:-1 26:-1 27:-1 28:-1 29:-1 30:-0.25 31:-0.5 32:0.5 33:-1 34:-1 35:-1 36:-0.5 37:0.25 38:-0.75 39:-0.5 40:0.25 41:-0.75 42:-1 43:-1 44:-0.875 45:0.125 46:-0.125 47:-0.5 48:-0.375 49:0.5 52:-0.125 54:0.5 55:-0.5 56:-1 57:0.5 58:0.5 59:0.5 60:0.5 61:0.25 62:-0.5 63:-0.875 
-1 0:-1 1:-1 2:-1 3:-1 4:-1 5:-1 6:-1 7:-1 8:-1 9:-0.5 15:-1 16:-0.5 17:0.75 18:0.5 19:1 20:0.5 22:0.75 23:-0.25 24:0.25 25:-0.25 26:-1 27:-1 28:-1 29:-1 30:-0.25 32:0.5 33:-1 34:-1 35:-1 36:-1 37:-0.5 38:-0.75 40:0.5 41:-0.875 42:-1 43:-1 44:-1 46:0.625 48:0.5 49:0.125 50:-0.5 51:-0.5 52:-0.5 53:0.25 54:1 56:-0.125 57:1 58:1 59:1 60:1 61:0.875 62:0.5 63:-0.25 
-1 0:-1 1:-1 2:-1 3:-1 4:-1 5:-1 6:-1 7:-1 8:-1 9:0.25 10:0.5 11:0.5 12:0.5 13:0.5 15:-1 16:-0.5 17:0.875 18:-0.25 19:0.5 20:0.5 21:-0.5 22:0.75 23:-0.25 24:0.125 25:-0.375 26:-1 27:-1 28:-1 29:-1 30:-0.5 31:0.375 32:0.5 33:-1 34:-1 35:-1 36:-1 37:-1 38:-1 39:0.5 40:0.5 41:-0.25 42:-1 43:-1 44:-1 45:0.25 46:0.25 47:0.5 49:0.75 50:0.25 51:0.75 53:0.75 54:1 55:0.5 56:-0.75 57:0.5 58:1 59:1 60:1 61:0.75 63:-0.25 
-1 0:-1 1:-1 2:-1 3:-1 4:-1 5:-1 6:-1 7:-1 8:-1 10:1 11:1 12:1 13:1 14:1 15:-0.75 16:-1 17:0.75 18:-0.5 21:-0.75 22:-0.25 23:0.5 24:-0.5 25:0.5 26:-1 27:-1 28:-1 29:-1 30:-1 31:0.25 33:0.5 34:-1 35:-1 36:-1 37:-0.375 38:-0.5 39:0.375 40:-0.375 41:0.625 42:-1 43:-1 44:-1 45:-0.875 46:1 47:0.5 48:-0.875 49:0.875 50:0.5 51:0.5 52:0.5 53:0.5 54:1 55:0.25 56:-1 57:-0.375 58:0.5 59:0.5 60:0.5 61:0.5 62:-0.25 63:-0.875 
-1 0:-1 1:-0.75 2:-0.5 3:-0.5 4:-0.5 5:-0.5 6:-0.625 7:-1 8:-1 9:0.5 10:0.875 11:0.625 12:1 13:0.625 14:0.75 15:-0.875 16:-1 17:0.5 18:-0.625 19:-0.875 20:-0.5 21:-0.875 22:-0.375 24:-0.625 26:-1 27:-1 28:-1 29:-0.875 30:-1 31:0.5 32:-0.5 33:0.25 34:-1 35:-1 36:-1 37:-0.5 38:-0.5 39:0.5 40:-1 41:1 42:-0.25 44:-0.5 45:-0.25 46:1 47:0.5 48:-1 49:0.25 50:1 51:1 52:1 53:1 54:0.5 55:0.25 56:-1 57:-1 58:-1 59:-1 60:-1 61:-1 62:-1 63:-1 
-1 0:-0.75 1:-0.5 6:-0.5 7:-1 8:-0.75 9:0.625 10:0.875 11:0.75 12:0.5 13:0.5 14:0.875 15:-0.75 16:-1 17:0.5 18:-0.625 19:-0.75 20:-1 21:-1 23:-0.5 24:-1 25:-0.25 26:-1 27:-1 28:-1 29:-1 30:-1 31:-0.5 32:-1 33:-0.375 34:-1 35:-1 36:-1 37:-0.125 38:-0.5 39:-0.5 40:-1 41:0.25 42:-1 43:-1 44:-1 45:-0.125 46:0.75 47:-0.5 48:-1 49:0.625 50:1 51:1 52:0.75 53:0.5 54:0.625 55:-0.625 56:-1 57:-0.5 58:0.5 59:0.5 60:-0.5 61:-0.5 62:-0.875 63:-1 
-0.4317496018100154 0:-1 1:-1 2:-0.5 3:-0.25 4:-0.25 5:-1 6:-1 7:-1 8:-1 9:0.25 10:1 11:1 12:1 13:1 14:0.75 15:-1 16:-0.75 17:1 18:-0.5 20:-0.5 21:-0.75 22:0.75 23:-0.5 24:-0.5 25:0.25 26:-1 27:-1 28:-1 29:-1 30:-0.5 32:-0.5 34:-1 35:-1 36:-1 37:-0.25 38:-0.75 40:-0.5 41:0.5 42:-0.875 43:-0.75 44:-1 45:-0.125 46:0.75 48:-0.875 49:0.875 50:0.625 51:0.75 52:0.5 53:0.375 54:1 55:0.125 56:-1 57:-0.375 58:0.5 59:0.5 60:0.5 61:0.5 63:-0.125 
-1 0:-1 1:-0.75 2:-0.625 3:-0.5 4:-0.5 5:-0.75 6:-0.875 7:-1 8:-0.75 9:0.5 10:0.5 11:0.5 12:1 14:0.5 15:-1 16:-0.125 17:-0.5 18:-0.625 19:-1 20:-1 21:-0.75 22:0.5 23:-0.625 25:-0.75 26:-1 27:-0.875 28:-0.25 29:-0.75 30:-0.5 31:-0.5 33:-1 34:-1 35:-0.75 36:0.25 37:0.75 38:-0.25 39:-0.5 40:-0.25 41:-0.375 42:-1 43:-1 44:-1 45:-0.25 47:-0.875 48:-0.625 49:0.875 50:1 51:1 52:0.75 53:0.25 54:-0.25 55:-0.5 56:-1 57:-1 58:-1 59:-0.5 61:-0.75 62:-1 63:-0.375 
-1 0:-1 1:-1 6:-0.5 7:-1 8:-1 9:0.25 10:1 11:1 12:1 13:1 14:0.75 15:-1 16:-0.875 17:0.875 18:-0.5 19:-0.5 20:-0.5 21:-0.5 22:0.25 23:-0.125 24:-0.5 25:0.5 26:-1 27:-1 28:-1 29:-1 30:-0.375 32:-0.5 33:0.5 34:-1 35:-1 36:-1 37:-1 38:0.25 40:-0.75 41:0.75 42:-1 43:-1 44:-1 45:-0.75 46:1 48:-1 49:0.5 50:1 51:1 52:1 53:1 54:1 56:-1 57:-0.5 58:0.5 59:0.5 60:0.5 61:0.5 62:-0.5 63:-0.75 
-1 0:-1 1:-1 2:-0.25 5:0.25 7:-1 8:-1 9:0.75 10:1 11:0.75 12:1 13:0.5 14:0.75 15:-0.25 16:-0.5 17:0.5 18:-1 19:-1 20:-1 21:-1 22:-0.25 24:-0.5 26:-1 27:-1 28:-1 29:-0.75 30:-1 32:-0.5 34:-1 35:-1 36:-1 37:-0.375 38:-0.25 40:-0.5 41:0.5 42:-0.5 43:-0.5 44:-0.5 45:-0.375 46:1 48:-0.875 49:0.75 50:1 51:1 52:1 53:0.75 54:0.625 55:-0.25 56:-1 57:-0.75 59:-0.25 60:-0.5 61:-0.5 62:-0.875 63:-1 
-1 0:-1 1:-1 2:-1 3:-1 4:-1 5:-1 6:-1 7:-1 8:-1 9:-1 10:-1 11:-1 12:-1 13:-1 14:-1 15:-1 16:-1 17:0.25 18:1 19:1 20:1 21:1 22:1 23:-0.75 24:-1 25:0.75 26:-0.75 27:-0.75 28:-1 29:-1 31:0.25 32:-1 33:0.5 34:-1 35:-1 36:-1 37:-0.875 38:-0.875 39:0.5 40:-0.625 41:0.5 42:-1 43:-1 44:-1 45:-0.125 46:-0.625 47:0.5 48:-0.625 49:0.625 50:-1 51:-1 52:-1 54:0.875 55:0.25 56:-1 57:0.875 58:0.5 59:0.5 60:0.5 61:0.75 62:1 63:0.5 
-0.3067074098771791 0:-1 1:-1 2:-1 3:-1 4:-1 5:-1 6:-1 7:-1 8:-1 9:-1 10:-1 11:-1 12:-1 13:-0.25 14:-1 15:-1 16:-1 18:1 19:1 20:1 21:1 22:1 23:-0.25 24:-1 25:0.75 26:-0.5 27:-0.75 28:-1 29:-1 31:0.25 32:-1 33:0.5 34:-1 35:-1 36:-1 37:-0.75 38:-0.875 39:0.5 40:-1 41:0.5 42:-1 43:-1 44:-1 45:0.25 46:-0.5 47:0.5 48:-0.75 49:0.625 50:-1 51:-1 52:-1 54:1 55:0.25 56:-1 57:0.875 58:0.5 59:0.5 60:0.5 61:0.75 62:1 63:0.5 
-1 0:-1 1:-0.75 2:0.25 4:0.5 5:0.75 7:-1 8:-1 9:0.5 10:0.25 11:0.75 12:0.5 14:0.5 15:-0.25 16:-1 17:1 18:-1 19:-1 20:-1 21:-1 22:-0.75 23:0.25 24:-1 25:0.5 26:-1 27:-1 28:-1 29:-0.75 30:-1 32:-1 33:0.625 34:-1 35:-1 36:-1 37:-0.375 38:-0.125 39:0.375 40:-1 41:0.5 42:-0.25 43:0.5 45:-0.125 46:1 47:0.5 48:-1 49:-0.5 50:0.75 51:0.75 52:0.875 53:0.875 54:0.5 55:0.125 56:-1 57:-1 58:-0.75 59:-0.75 60:-0.625 61:-0.625 62:-1 63:-1 
-1 0:-1 1:-0.75 6:-0.5 7:-1 8:-1 9:0.75 10:1 11:1 12:1 13:1 14:1 15:-0.75 16:-0.5 17:0.25 18:-1 19:-1 20:-1 21:-1 22:-0.25 23:-0.25 24:-0.5 25:-0.25 26:-1 27:-1 28:-1 29:-1 30:-1 32:-0.5 33:-0.5 34:-1 35:-1 36:-1 37:-1 38:-0.5 40:-0.5 41:0.25 42:-1 43:-1 44:-1 45:-1 46:0.75 48:-1 49:0.75 50:1 51:1 52:1 53:1 54:1 56:-1 57:-0.5 62:-0.75 63:-1 
-1 0:-1 1:-1 2:-1 3:-1 4:-1 5:-1 6:-1 7:-1 8:-1 14:-0.5 15:-1 16:-0.25 17:1 18:0.25 19:1 20:1 21:1 22:0.375 23:-1 25:-0.25 26:-1 27:-1 28:-1 29:-1 30:-0.5 31:-1 33:-1 34:-1 35:-1 36:-1 37:-1 38:-0.5 39:-1 41:-0.25 42:-1 43:-1 44:-1 45:-0.25 46:0.25 47:-1 48:-0.25 49:1 50:-0.125 51:0.25 52:-0.5 53:0.25 54:0.75 55:-0.625 56:-1 62:-0.5 63:-1 
-1 0:-1 1:-1 2:-1 3:-1 4:-0.75 5:-0.25 6:-1 7:-1 8:-1 9:0.5 10:1 11:1 12:1 13:1 14:0.75 15:-0.75 16:-0.5 17:0.5 18:-0.5 19:-0.5 20:-1 21:-1 22:0.25 23:-0.25 25:-0.5 26:-1 27:-1 28:-1 29:-1 30:-0.75 33:-0.5 34:-1 35:-1 36:-1 37:-1 38:-0.375 40:-0.125 42:-1 43:-1 44:-1 45:-1 46:0.625 48:-0.875 49:0.75 50:0.5 51:0.5 52:0.5 53:0.5 54:0.875 56:-1 57:-0.625 58:0.5 59:-0.25 60:-0.5 61:-0.5 62:-0.625 63:-1 
-1 0:-1 1:-1 2:-1 3:-1 4:-1 5:-0.75 6:-0.875 7:-1 8:-1 9:-1 13:0.5 14:0.25 15:-1 16:-1 17:0.5 18:0.75 19:0.5 20:0.5 21:-0.25 22:0.375 23:-0.875 24:-1 25:0.5 26:-0.5 27:-1 28:-1 29:-1 31:-0.5 32:-1 33:0.5 34:-1 35:-1 36:-1 37:-0.875 38:0.25 39:-0.5 40:-1 41:0.5 42:-1 43:-1 44:-1 45:-0.5 46:1 47:-0.5 48:-1 49:0.875 50:-0.5 51:0.25 52:1 53:1 54:0.625 55:-0.625 56:-1 58:1 59:1 60:0.25 62:-0.75 63:-1 
-1 0:-1 1:-1 2:-1 3:-1 4:-0.75 6:-0.25 7:-1 8:-1 9:-0.5 10:0.5 11:0.5 12:1 13:1 14:1 15:-0.25 16:-0.625 17:0.875 18:-0.125 19:-0.625 20:-0.5 21:-1 22:-0.875 23:0.375 26:-1 27:-1 28:-1 29:-0.875 30:-1 31:0.375 32:0.5 33:-0.5 34:-1 35:-1 36:-1 37:-0.25 38:-0.5 39:0.5 40:0.25 42:-1 43:-1 44:-1 45:-1 46:1 47:0.5 48:-0.625 49:0.875 51:0.5 52:0.5 53:0.75 54:0.625 55:-0.625 56:-1 57:0.375 58:0.875 59:0.5 61:-0.5 62:-0.875 63:-1 
-1 0:-1 1:-1 2:-0.75 3:-1 4:-1 5:-1 6:-0.75 7:-1 8:-1 9:-0.625 10:0.75 11:0.5 12:0.5 13:0.5 14:0.75 15:-1 16:-0.75 17:0.5 18:0.5 21:-0.25 22:0.25 23:-0.5 24:-0.125 25:-0.375 26:-0.75 27:-1 28:-1 29:-1 31:-0.5 32:0.25 33:-0.5 34:-1 35:-1 36:-1 37:-0.5 39:-0.5 40:0.5 41:-0.25 42:-1 43:-1 44:-1 45:1 46:1 47:-0.5 48:0.5 49:0.875 50:0.5 51:0.5 52:0.5 53:1 54:1 55:-0.5 57:1 58:1 59:1 60:1 61:0.5 62:0.5 63:-0.75 
-1 0:-1 1:-1 2:-1 3:-1 4:-0.5 5:-0.875 6:-1 7:-1 8:-0.875 9:0.25 10:0.5 11:0.5 12:1 13:0.625 14:-0.125 15:-1 16:-0.25 17:1 18:0.75 19:0.25 22:0.75 23:-1 25:-0.25 26:-1 27:-1 28:-1 29:-1 31:-0.75 33:-0.5 34:-1 35:-1 36:-1 37:-1 38:0.25 39:-0.5 40:-0.125 41:-0.375 42:-1 43:-1 44:-1 45:-0.625 46:1 47:-0.5 48:-0.5 49:0.5 53:0.25 54:1 55:-0.5 56:-1 57:0.5 58:1 59:1 60:0.75 62:-0.75 63:-1 
-1 0:-1 1:-0.75 6:-0.5 7:-1 8:-1 9:0.75 10:1 11:1 12:1 13:1 14:0.75 15:-1 16:-0.5 17:0.75 18:-0.75 19:-1 20:-1 21:-1 23:-0.25 26:-1 27:-1 28:-1 29:-1 30:-0.5 33:-0.375 34:-1 35:-1 36:-1 37:-0.5 38:-0.125 40:-0.375 41:0.125 42:-1 43:-0.625 44:-1 45:-0.375 46:1 48:-0.625 49:0.875 50:0.5 51:0.875 52:0.5 53:0.75 54:0.75 55:-0.25 56:-1 58:0.5 59:0.5 60:0.25 61:-0.5 62:-0.75 63:-1 
-1 0:-1 1:-1 2:-0.25 3:-0.75 4:-1 5:-1 6:-1 7:-1 8:-1 9:0.5 10:1 11:1 12:1 13:1 14:1 15:-0.75 16:-1 17:0.75 18:-0.5 19:-0.5 20:-0.25 21:-1 24:-0.5 26:-1 27:-1 28:-1 29:-0.5 30:-1 32:-0.5 34:-1 35:-1 36:-1 38:-0.25 39:-0.25 40:-1 41:0.75 42:-1 43:-1 44:-1 45:-1 46:1 47:-0.25 48:-1 49:0.5 50:1 51:1 52:1 53:1 54:1 55:-0.5 56:-1 57:-1 58:-1 59:-1 61:-0.25 62:-1 63:-1 
-1 0:-1 1:-1 2:-0.75 3:-1 4:-1 5:-0.75 6:-1 7:-1 8:-1 10:0.75 11:0.5 12:0.5 13:0.75 14:0.375 15:-1 16:-0.625 17:0.75 18:-0.125 22:0.5 23:-0.75 24:-0.5 25:0.125 26:-1 27:-1 28:-1 29:-1 30:-0.625 31:-0.5 32:-0.5 33:-0.25 34:-1 35:-1 36:-1 37:0.25 38:-0.875 39:-0.5 40:-0.5 41:0.5 42:-1 43:-1 44:-1 45:-0.375 46:0.875 47:-0.5 48:-1 49:0.75 50:1 51:1 52:1 53:0.5 54:1 56:-1 57:-0.375 58:0.375 59:0.5 60:0.25 61:0.25 62:-0.25 63:-0.75 
-1 0:-1 1:-1 2:-0.5 3:-1 4:-1 5:-1 6:-1 7:-0.75 8:-1 9:0.25 10:1 11:1 12:1 13:1 14:0.625 15:-0.875 16:-0.875 17:0.75 18:-0.75 22:0.5 23:-0.25 24:-0.5 25:-0.25 26:-1 27:-1 28:-1 29:-1 30:-0.875 32:-0.5 33:-0.5 34:-1 35:-1 36:-1 38:-1 40:-0.625 41:0.375 42:-1 43:-1 44:-1 45:-0.5 46:0.25 48:-1 49:0.75 50:0.5 51:0.5 52:0.125 53:0.25 54:1 56:-1 57:-0.375 58:0.5 59:0.5 60:0.5 61:0.5 63:0.125 
-0.4834057950747559 0:-1 1:-1 2:-1 3:-1 4:-1 5:-0.25 6:-0.5 7:-1 8:-1 9:-0.5 10:1 11:1 12:1 13:1 14:1 15:-0.75 16:-1 17:0.75 18:-0.25 19:-0.5 20:-0.625 21:-0.75 22:-0.5 23:0.375 24:-0.625 25:0.375 26:-1 27:-1 28:-1 29:-0.625 30:-1 31:0.375 32:-0.5 33:0.25 34:-1 35:-1 36:-1 39:0.25 40:-0.75 41:0.5 42:-1 43:-1 44:-1 45:-1 46:0.75 47:0.5 48:-1 49:0.5 50:0.625 51:0.625 52:0.75 53:0.5 54:0.75 55:0.5 56:-1 57:-0.5 58:0.5 59:0.5 60:0.25 61:-0.5 62:-0.75 63:-1 
-1 0:-1 1:-0.875 2:-0.75 3:-0.5 4:-0.5 5:-0.75 6:-1 7:-1 8:-1 10:0.75 11:1 12:1 13:0.75 14:0.5 15:-0.875 16:-1 17:0.75 22:0.5 23:-0.25 24:-1 25:0.25 26:-1 27:-1 28:-1 29:-1 30:-0.5 32:-1 34:-1 35:-1 36:-1 37:-1 38:-0.5 40:-1 41:0.5 42:-0.875 43:-1 44:-1 45:-0.5 46:0.625 48:-1 49:1 50:0.25 53:0.5 54:1 56:-1 57:-0.25 58:0.5 59:0.25 62:-0.5 63:-0.75 
-1 0:-1 1:-0.875 2:-0.5 3:-0.5 4:-0.5 5:-0.5 6:-1 7:-1 8:-1 9:0.25 10:1 11:1 12:1 13:1 14:-0.25 15:-1 16:-0.875 17:0.875 18:-1 19:-1 20:-1 21:-1 22:0.375 23:-0.5 24:-0.5 25:0.25 26:-1 27:-1 28:-1 29:-1 30:-0.25 31:-0.5 32:-0.625 33:0.125 34:-1 35:-1 36:-1 37:-0.375 38:-0.125 39:-0.5 40:-1 41:0.75 44:-0.75 46:1 47:-0.5 48:-1 49:-0.25 50:0.5 51:0.5 52:0.5 53:0.5 54:0.5 55:-0.625 56:-1 57:-1 58:-1 59:-1 60:-1 61:-1 62:-1 63:-1 
-1 0:-1 1:-1 6:-1 7:-1 8:-0.875 9:0.625 10:0.625 11:0.875 12:0.5 13:0.625 15:-1 16:-0.5 17:0.125 18:-0.875 19:-0.625 20:-1 21:-0.875 22:0.375 23:-1 24:-0.5 25:-0.5 26:-1 27:-1 28:-0.75 29:-1 30:0.25 31:-1 32:-0.5 33:-0.5 34:-1 35:-1 36:-0.875 37:0.125 38:0.25 39:-1 40:-0.5 41:0.125 42:-1 43:-1 44:-1 45:0.375 46:1 47:-1 48:-0.75 49:0.75 50:1 51:1 52:1 53:1 54:0.625 55:-1 56:-1 57:-0.625 58:-0.5 59:-0.5 60:-0.5 61:-0.5 62:-0.875 63:-1 
-0.5760507988196265 0:-1 1:-1 2:-1 3:-1 4:-1 5:-1 6:-1 7:-1 8:-1 10:0.625 11:0.5 12:0.5 13:0.625 14:0.25 15:-1 16:-1 17:0.75 18:0.5 19:0.5 22:1 23:-0.75 24:-0.5 25:0.125 26:-1 27:-1 28:-1 29:-1 30:-0.375 31:-0.375 32:-0.25 33:-0.5 34:-1 35:-1 36:-1 37:-0.5 38:-0.5 40:-0.125 41:-0.5 42:-1 43:-1 44:-1 45:0.375 46:0.625 47:-0.375 48:-0.5 49:0.5 50:-1 51:-0.25 52:-0.25 53:0.25 54:1 55:-0.25 56:-0.625 57:1 58:1 59:1 60:1 61:1 62:1 
-1 0:-1 1:-1 2:-1 3:-1 4:-1 5:-1 6:-1 7:-1 8:-1 9:0.5 10:1 11:1 12:1 13:1 14:0.25 15:-0.75 16:-0.5 17:0.25 18:-0.5 20:-0.75 21:-1 22:0.25 24:-0.5 25:-0.5 26:-1 27:-1 28:-1 29:-1 30:-0.5 32:-0.5 33:-0.125 34:-1 35:-1 36:-1 37:-0.625 38:-0.125 39:0.375 40:-0.5 41:0.25 42:-0.75 43:-0.625 44:-1 45:-0.375 46:1 47:0.5 48:-0.625 49:1 50:0.75 51:0.875 52:0.5 53:0.75 54:0.75 55:0.125 56:-1 60:-0.5 61:-0.5 62:-0.75 63:-0.75 
-1 0:-1 1:-0.75 6:-0.75 7:-1 8:-1 9:0.5 10:0.5 11:0.75 12:1 13:0.75 14:0.5 15:-1 16:-1 18:-1 19:-1 20:-1 21:-1 22:0.25 23:-0.75 24:-0.75 25:-0.5 26:-1 27:-1 28:-1 29:-0.5 30:-0.5 31:-0.5 32:-1 34:-1 35:-1 36:-1 37:-0.5 38:0.25 39:-0.5 40:-1 41:0.5 44:-0.5 45:-0.75 46:1 47:-0.5 48:-1 49:0.25 50:1 51:1 52:1 53:1 54:0.25 55:-0.75 56:-1 57:-1 58:-1 59:-1 60:-1 61:-1 62:-1 63:-1 
-1 0:-0.75 1:-1 7:-1 9:-0.25 10:1 11:1 12:1 13:1 14:1 16:-1 17:0.5 18:-0.75 19:-1 20:-1 21:-1 22:-0.75 23:0.5 24:-1 25:0.5 26:-1 27:-1 28:-1 29:-0.75 30:-1 31:0.5 32:-1 33:0.5 34:-1 35:-1 36:-1 37:-0.5 38:-0.25 39:0.5 40:-1 41:0.875 42:-0.75 43:-0.5 44:-0.75 45:-0.375 46:1 47:0.5 48:-1 49:0.125 50:0.75 51:1 52:0.75 53:0.75 54:0.5 55:0.125 56:-1 57:-0.875 58:-0.5 59:-0.25 60:-0.5 61:-0.5 62:-1 63:-1 
-1 0:-1 1:-0.5 5:-0.75 7:-1 8:-0.75 9:1 10:1 11:0.75 12:0.25 13:0.5 14:0.25 15:-1 17:-0.25 18:-1 19:-1 20:-1 21:-0.5 22:-0.25 23:-0.75 24:0.5 25:-1 26:-1 27:-1 28:-0.25 29:-0.5 31:-0.75 32:1 33:-1 34:-1 35:-1 36:0.25 37:0.25 39:-1 40:0.5 41:-0.25 42:-1 43:-1 44:-0.25 45:1 47:-1 48:-0.5 49:1 50:1 51:1 52:0.75 53:-0.75 54:-1 55:-1 56:-1 57:-1 58:-1 59:-1 60:-1 61:-1 62:-1 63:-0.25 
-1 0:-1 1:-1 6:-0.5 7:-1 8:-1 9:0.25 10:1 11:1 12:1 13:1 14:0.75 15:-1 16:-0.875 17:0.875 18:-0.5 19:-0.5 20:-0.5 21:-0.5 22:0.25 23:-0.125 24:-0.5 25:0.5 26:-1 27:-1 28:-1 29:-1 30:-0.375 32:-0.5 33:0.5 34:-1 35:-1 36:-1 37:-1 38:0.25 40:-0.75 41:0.75 42:-1 43:-1 44:-1 45:-0.75 46:1 48:-1 49:0.5 50:1 51:1 52:1 53:1 54:1 56:-1 57:-0.5 58:0.5 59:0.5 60:0.5 61:0.5 62:-0.5 63:-0.75 
-1 0:-1 1:-1 2:-1 3:-1 4:-1 5:-1 6:-1 7:-1 8:-1 9:-0.125 10:0.5 11:0.5 12:0.5 13:0.5 14:0.25 15:-1 16:-1 17:0.625 18:-0.5 19:-0.5 20:-0.5 21:-0.5 22:0.125 23:-0.5 24:-0.625 26:-1 27:-1 28:-1 29:-0.75 30:-0.875 32:-0.5 34:-1 35:-1 36:-1 38:-1 40:-1 41:0.25 42:-1 43:-1 44:-1 45:-1 46:0.75 48:-1 49:0.75 50:1 51:1 52:0.75 53:0.5 54:1 56:-1 57:-0.5 62:-1 63:-1 
-1 0:-1 1:-1 2:-1 3:-1 4:-1 5:-1 6:-1 7:-1 8:-1 9:0.375 10:1 11:1 12:1 13:1 14:0.5 15:-1 16:-0.5 17:0.75 21:-0.75 22:0.5 23:-0.5 26:-1 27:-1 28:-1 29:-1 30:-0.375 31:-0.125 32:0.5 33:-0.5 34:-1 35:-1 36:-1 37:-1 40:0.125 42:-1 43:-1 44:-1 45:-0.875 46:1 48:-0.25 49:0.75 53:0.5 54:1 56:-1 57:0.25 58:0.5 59:0.5 60:0.5 61:0.5 62:-0.5 63:-1 
-0.7997639004389883 0:-1 1:-0.75 5:-0.5 6:-0.25 7:-1 8:-0.75 9:0.75 10:0.5 11:1 12:1 13:0.5 14:1 15:-0.75 16:-0.5 17:0.5 18:-1 19:-1 20:-1 21:-1 22:-0.25 24:-0.5 26:-1 27:-1 28:-1 29:-0.75 30:-1 32:-0.5 33:0.25 34:-1 35:-1 36:-1 37:-0.5 38:-0.5 40:-0.75 41:1 42:-0.75 43:-1 44:-1 45:-0.5 46:1 47:0.25 48:-1 49:0.25 50:1 51:1 52:1 53:0.75 54:1 55:0.5 56:-1 57:-1 58:-1 60:-0.5 61:-0.5 62:-1 63:-1 
-1 0:-1 1:-1 2:-1 3:-1 4:-1 5:-1 6:-1 7:-1 8:-1 14:-0.5 15:-1 16:-0.25 17:1 18:0.25 19:1 20:1 21:1 22:0.375 23:-1 25:-0.25 26:-1 27:-1 28:-1 29:-1 30:-0.5 31:-1 33:-1 34:-1 35:-1 36:-1 37:-1 38:-0.5 39:-1 41:-0.25 42:-1 43:-1 44:-1 45:-0.25 46:0.25 47:-1 48:-0.25 49:1 50:-0.125 51:0.25 52:-0.5 53:0.25 54:0.75 55:-0.625 56:-1 62:-0.5 63:-1 
-1 0:-1 1:-0.875 2:0.25 3:-0.5 4:-0.5 5:-0.5 6:-0.5 7:-1 8:-0.875 9:0.125 10:0.625 11:0.5 12:0.5 14:0.75 15:-0.5 16:-0.5 17:0.875 18:-0.875 19:-1 20:-1 21:-1 22:-0.5 23:0.375 24:-0.5 25:0.125 26:-1 27:-1 28:-1 29:-0.625 30:-1 31:0.5 32:-0.5 33:0.25 34:-1 35:-1 36:-1 37:-0.75 39:0.5 40:-1 41:1 45:-0.25 46:1 47:0.5 48:-1 50:1 51:1 52:1 53:0.75 55:-0.25 56:-1 57:-1 58:-1 59:-1 60:-1 61:-1 62:-1 63:-1 
-1 0:-1 1:-1 2:-1 3:-0.75 6:-0.75 7:-1 8:-1 9:0.5 10:1 11:1 12:1 13:1 14:0.75 15:-1 16:-0.375 17:0.5 18:-0.5 19:-0.5 20:-0.5 21:-0.5 22:0.5 23:-0.375 25:-0.375 26:-1 27:-1 28:-1 29:-1 30:-0.375 31:-0.125 33:-0.5 34:-1 35:-1 36:-1 37:-1 38:0.5 39:-0.5 41:-0.25 42:-1 43:-1 44:-1 45:-0.75 46:1 48:-0.625 49:1 50:0.5 51:0.875 52:0.875 53:0.75 54:0.625 55:-0.25 56:-1 57:-0.25 58:0.5 59:0.5 60:0.5 61:-0.25 62:-0.875 63:-1 
-0.05278583769104386 0:-1 1:-1 2:-1 3:-0.5 4:-0.5 5:-0.5 6:-0.875 7:-1 8:-0.75 11:1 12:1 13:1 14:0.25 15:-1 16:0.25 17:0.625 18:0.5 19:0.5 20:-1 21:-1 22:0.25 23:-0.5 24:1 25:-0.75 26:-1 27:-1 28:-0.5 29:-1 30:-0.5 31:-0.5 32:0.5 33:-1 34:-1 35:-1 36:0.25 37:0.25 38:-0.25 39:-0.5 40:0.75 41:-1 42:-1 43:-1 44:-0.75 45:0.75 46:0.75 47:-0.5 48:-0.125 49:0.25 50:0.625 51:1 52:1 53:0.875 54:0.5 55:-0.125 56:-0.75 58:0.75 61:-0.25 62:-1 63:-0.75 
-1 0:-1 1:-0.75 2:-0.375 5:0.75 6:-0.25 7:-1 8:-1 9:1 10:1 11:1 12:0.625 13:0.5 14:0.75 15:-0.75 16:-0.5 17:0.5 18:-0.5 19:-0.75 20:-1 21:-1 22:-0.375 23:-0.375 26:-1 27:-1 28:-0.875 29:-0.75 30:-1 34:-1 35:-1 36:-0.875 37:0.125 38:-0.625 39:-0.5 41:0.5 42:-0.75 44:-1 45:0.5 46:1 47:-0.25 48:-0.875 49:0.875 50:1 51:1 52:1 53:1 54:0.375 55:-0.375 56:-1 57:-0.375 61:-0.25 62:-1 63:-1 
-1 0:-1 1:-0.5 2:-0.5 3:-0.5 4:-0.5 5:-0.625 6:-1 7:-0.5 8:-0.5 9:1 10:1 11:1 12:1 13:0.75 14:-0.75 15:-0.5 17:0.625 18:-0.5 19:-0.5 20:-0.5 21:-0.125 22:-0.125 23:-0.875 24:1 25:-0.625 26:-1 27:-1 28:-0.625 29:-1 30:0.5 31:-1 32:1 33:-1 34:-1 35:-1 36:-0.25 37:-0.5 39:-1 40:0.25 41:-0.625 42:-1 43:-1 44:-1 45:0.75 46:0.625 47:-1 48:-0.25 49:1 50:1 51:1 52:1 53:0.5 54:0.5 55:-1 56:-1 61:-1 62:-1 63:-1 
-1 0:-1 1:-1 2:-1 3:-1 4:-0.5 5:-0.75 6:-1 7:-1 8:-1 9:-0.5 12:1 13:0.5 14:-0.25 15:-1 16:-0.875 17:0.875 18:0.5 19:0.5 20:-0.25 21:-1 22:0.75 23:-0.5 24:-0.5 25:0.25 26:-1 27:-1 28:-1 29:-1 30:-0.25 31:-0.5 32:-0.5 34:-1 35:-1 36:-1 37:-1 38:-0.125 39:-0.5 40:-0.75 41:0.25 42:-1 43:-1 44:-1 45:-1 46:1 47:-0.5 48:-1 49:0.75 50:1 51:1 52:1 53:1 54:0.5 55:-0.625 56:-1 57:-0.5 62:-1 63:-1 
-1 0:-0.5 1:-1 2:-1 3:-1 4:-1 5:-1 6:-1 7:-1 8:-0.25 9:0.25 10:1 11:1 12:1 13:1 14:0.25 15:-1 16:0.5 17:0.75 22:0.75 23:-1 24:0.5 25:-0.25 26:-1 27:-1 28:-1 29:-1 30:-0.25 31:-0.5 32:0.5 33:-0.875 34:-1 35:-1 36:-1 37:-0.375 38:-0.5 39:-0.125 40:0.5 41:-0.625 42:-1 43:-1 44:-1 45:-0.125 46:0.625 47:-0.5 48:0.5 49:0.125 50:-0.5 51:-0.5 52:-0.5 53:0.25 54:1 55:-0.5 57:1 58:1 59:1 60:1 61:1 62:0.5 63:-0.625 
-1 0:-1 1:-1 2:-1 3:-1 4:-0.5 5:-0.875 6:-1 7:-1 8:-0.875 9:0.25 10:0.5 11:0.5 12:1 13:0.625 14:-0.125 15:-1 16:-0.25 17:1 18:0.75 19:0.25 22:0.75 23:-1 25:-0.25 26:-1 27:-1 28:-1 29:-1 31:-0.75 33:-0.5 34:-1 35:-1 36:-1 37:-1 38:0.25 39:-0.5 40:-0.125 41:-0.375 42:-1 43:-1 44:-1 45:-0.625 46:1 47:-0.5 48:-0.5 49:0.5 53:0.25 54:1 55:-0.5 56:-1 57:0.5 58:1 59:1 60:0.75 62:-0.75 63:-1 
-1 0:-1 1:-0.875 2:-0.25 3:-0.25 4:-0.125 6:-0.5 7:-1 8:-1 9:0.125 10:1 11:1 12:1 13:1 14:0.75 15:-1 16:-1 17:0.75 18:-0.875 19:-1 20:-1 21:-1 23:-0.5 24:-1 26:-1 27:-1 28:-1 29:-0.75 30:-0.5 31:-0.5 32:-1 33:0.125 34:-1 35:-1 36:-1 37:0.125 39:-0.5 40:-1 41:0.875 42:-1 43:-1 44:-1 45:-0.5 46:1 47:-0.5 48:-1 49:0.5 50:1 51:1 52:1 53:1 54:0.75 55:-0.625 56:-1 57:-1 60:-0.25 61:-1 62:-1 63:-1 
-0.1348200157014234 0:-1 1:-0.625 2:-0.5 3:-0.5 4:-0.5 5:-0.5 6:-0.875 7:-0.625 8:-0.875 9:0.75 10:0.75 11:0.875 12:0.5 13:0.5 14:0.625 15:-1 16:-0.125 17:0.125 18:-0.75 19:-0.625 20:-1 21:-1 22:0.125 23:-1 25:-0.25 26:-1 27:-1 28:-0.625 29:-0.25 30:-0.5 31:-0.75 34:-1 35:-1 36:-0.75 37:0.25 38:-0.25 39:-1 40:-0.25 41:0.75 43:-0.75 44:-1 46:1 47:-1 48:-1 49:0.75 50:1 51:1 52:1 53:1 54:0.5 55:-1 56:-1 57:-1 58:-1 59:-1 60:-1 61:-1 62:-1 63:-1 
-1 0:-0.75 1:-1 2:-1 3:-1 4:-1 5:-1 6:-1 7:-1 8:-0.75 10:1 11:1 12:1 13:0.75 15:-1 16:-1 17:0.875 18:-0.5 19:-0.5 20:-0.5 21:-0.5 22:0.125 23:-0.375 24:-0.875 25:0.125 26:-1 27:-1 28:-1 29:-1 30:-0.625 31:0.375 32:-0.25 33:-0.5 34:-1 35:-1 36:-1 37:-0.25 38:-1 40:-0.25 42:-1 43:-1 44:-1 45:-0.5 46:0.25 48:-0.625 49:0.875 50:-0.25 51:0.5 52:-0.25 53:-0.25 54:1 55:0.125 56:-1 57:0.25 58:0.875 59:0.625 60:0.5 61:0.5 62:0.5 63:0.125 
-1 0:-1 1:-1 2:-0.5 3:-1 4:-1 5:-1 6:-1 7:-1 8:-0.75 9:1 10:1 11:1 12:1 13:1 14:0.25 15:-1 16:0.5 17:-0.25 18:-0.25 19:-1 20:-0.5 22:0.5 23:-0.5 24:0.25 25:-0.5 26:-1 27:-1 28:-1 29:-1 30:-0.75 31:0.25 33:-0.625 34:-1 35:-1 36:-1 37:0.25 38:-0.75 39:0.125 41:-0.125 42:-0.625 43:-0.625 44:-1 45:-0.5 46:0.75 48:-0.5 49:0.875 50:0.875 51:0.875 52:0.5 53:0.5 54:0.875 55:-0.125 56:-1 57:-0.625 58:-0.5 59:-0.25 60:0.5 61:-0.25 62:-0.625 63:-0.875 
-1 0:-1 1:-0.75 2:-0.625 3:-0.5 4:-0.5 5:-0.75 6:-0.875 7:-1 8:-0.75 9:0.5 10:0.5 11:0.5 12:1 14:0.5 15:-1 16:-0.125 17:-0.5 18:-0.625 19:-1 20:-1 21:-0.75 22:0.5 23:-0.625 25:-0.75 26:-1 27:-0.875 28:-0.25 29:-0.75 30:-0.5 31:-0.5 33:-1 34:-1 35:-0.75 36:0.25 37:0.75 38:-0.25 39:-0.5 40:-0.25 41:-0.375 42:-1 43:-1 44:-1 45:-0.25 47:-0.875 48:-0.625 49:0.875 50:1 51:1 52:0.75 53:0.25 54:-0.25 55:-0.5 56:-1 57:-1 58:-1 59:-0.5 61:-0.75 62:-1 63:-0.375 
-1 0:-1 1:-0.5 6:-0.5 7:-1 8:-1 9:0.75 10:1 11:1 12:0.5 14:0.75 15:-1 16:-0.75 17:0.75 18:-1 19:-1 20:-1 21:-1 22:0.25 23:-0.5 24:-0.5 26:-1 27:-1 28:-1 29:-0.5 31:-0.5 32:-0.5 33:0.125 34:-1 35:-1 36:-1 37:0.125 38:0.75 39:-0.75 40:-0.875 41:0.875 43:0.5 44:0.5 45:0.75 46:1 47:-0.5 48:-1 49:0.5 50:1 51:1 52:0.5 53:0.5 54:-0.25 55:-0.875 56:-1 57:-0.75 58:-0.5 59:-0.5 60:-1 61:-1 62:-1 63:-1 
-1 0:-1 1:-0.875 2:-0.25 3:-0.25 4:-0.125 6:-0.5 7:-1 8:-1 9:0.125 10:1 11:1 12:1 13:1 14:0.75 15:-1 16:-1 17:0.75 18:-0.875 19:-1 20:-1 21:-1 23:-0.5 24:-1 26:-1 27:-1 28:-1 29:-0.75 30:-0.5 31:-0.5 32:-1 33:0.125 34:-1 35:-1 36:-1 37:0.125 39:-0.5 40:-1 41:0.875 42:-1 43:-1 44:-1 45:-0.5 46:1 47:-0.5 48:-1 49:0.5 50:1 51:1 52:1 53:1 54:0.75 55:-0.625 56:-1 57:-1 60:-0.25 61:-1 62:-1 63:-1 
-0.985123099200147 0:-1 1:-0.25 6:-0.125 7:-0.875 8:-0.625 9:0.625 14:0.25 15:0.25 17:-0.25 18:-1 19:-1 20:-0.875 21:-0.875 22:-1 23:0.25 25:-0.875 26:-1 27:-1 28:-0.625 29:0.375 30:-0.875 32:-0.125 33:-0.25 34:-1 35:-1 36:-1 37:-0.375 38:0.5 39:0.25 40:-1 41:0.75 42:0.5 43:0.75 45:0.25 46:0.875 47:0.5 48:-1 49:-0.75 53:-1 54:-1 55:-0.75 56:-1 57:-1 58:-1 59:-1 60:-1 61:-1 62:-1 63:-1 
