svm_type c_svc
kernel_type rbf
gamma 0.00558659
nr_class 2
total_sv 190
rho 0.249844
label 129 24
probA -5.85404
probB -0.497068
nr_sv 95 95
SV
1 0:0 1:0 2:0 3:0 4:0 5:0 6:0 7:0 8:0 9:0 10:0 11:0 12:0 13:0 14:0 15:0 16:0 17:0 18:0 19:0 20:0 21:0 22:0 23:0 24:0.243961 25:0.418649 26:0.337329 27:0.255766 28:0 29:0 30:0 31:0.00280841 32:0.0533598 33:0.196338 34:0.387811 35:0.103911 36:0 37:0 38:0 39:0 40:0 41:0 42:0 43:0 44:0 45:0 46:0 47:0 48:0 49:0 50:0 51:0 52:0 53:0 54:0 55:0 56:0 57:0 58:0 59:0 60:0 61:0 62:0 63:0 64:0.249954 65:0.749861 66:0 67:0 68:0 69:0 70:0 71:0 72:0.732546 73:0.196426 74:0.0222221 75:0.0463615 76:0.00244008 77:0 78:0 79:0 80:0 81:0 82:0 83:0 84:0 85:0 86:0 87:0 88:0 89:0 90:0 91:0 92:0 93:0 94:0.0465505 95:0.690002 96:0.248776 97:0.0146659 98:0 99:0 100:0 101:0 102:0.249464 103:0.281296 104:0.469233 105:0 106:0 107:0 108:0.0251797 109:0.203641 110:0.341433 111:0.22646 112:0.203281 113:0 114:0 115:0 116:0 117:0.0618781 118:0.275026 119:0.475246 120:0.18475 121:0.00309391 122:0 123:0 124:0 125:0 126:0 127:0 128:0 129:0 130:0 131:0 132:0 133:0 134:0 135:0 136:0 137:0 138:0 139:0.814112 140:0.146175 141:0.0297792 142:0.0099264 143:0 144:0 145:0 146:0 147:0.202487 148:0.536515 149:0.260994 150:0 151:0 152:0 153:0 154:0 155:0 156:0.196274 157:0.762545 158:0.0411763 159:0 160:0 161:0 162:0 163:0.0128448 164:0.0385345 165:0.682109 166:0.266507 167:0 168:0 169:0 170:0 171:0 172:0 173:0 174:0 175:0.351693 176:0.193515 177:0.253865 178:0.200921 179:0 
1 0:0 1:0 2:0 3:0 4:0 5:0 6:0 7:0 8:0 9:0 10:0 11:0 12:0 13:0 14:0 15:0 16:0 17:0 18:0.999993 19:0 20:0 21:0 22:0 23:0 24:0 25:0 26:0 27:0 28:0 29:0 30:0 31:0 32:0 33:0 34:0 35:0 36:0 37:0 38:0 39:0 40:0 41:0 42:0 43:0 44:0 45:0.99999 46:0 47:0 48:0 49:0 50:0 51:0 52:0 53:0 54:0 55:0 56:0 57:0 58:0 59:0 60:0 61:0 62:0 63:0.999995 64:0 65:0 66:0 67:0 68:0 69:0 70:0 71:0 72:0.620341 73:0.258375 74:0.121254 75:0 76:0 77:0 78:0 79:0 80:0 81:0.0853221 82:0.576178 83:0.224732 84:0.108075 85:0.00568814 86:0 87:0 88:0 89:0 90:0.999971 91:0 92:0 93:0 94:0 95:0 96:0 97:0 98:0 99:0 100:0 101:0 102:0 103:0 104:0 105:0 106:0 107:0 108:0.999995 109:0 110:0 111:0 112:0 113:0 114:0 115:0 116:0 117:0 118:0 119:0 120:0 121:0 122:0 123:0 124:0 125:0 126:0.999985 127:0 128:0 129:0 130:0 131:0 132:0 133:0 134:0 135:0.999993 136:0 137:0 138:0 139:0 140:0 141:0 142:0 143:0 144:0 145:0 146:0 147:0 148:0 149:0 150:0 151:0 152:0 153:0.999993 154:0 155:0 156:0 157:0 158:0 159:0 160:0 161:0 162:0 163:0 164:0 165:0 166:0 167:0 168:0 169:0 170:0 171:0.99998 172:0 173:0 174:0 175:0 176:0 177:0 178:0 179:0 
1 0:0 1:0 2:0 3:0 4:0 5:0 6:0 7:0 8:0 9:0 10:0 11:0 12:0 13:0 14:0 15:0 16:0 17:0 18:0.999993 19:0 20:0 21:0 22:0 23:0 24:0 25:0 26:0 27:0 28:0 29:0 30:0 31:0 32:0 33:0 34:0 35:0 36:0 37:0 38:0 39:0 40:0 41:0 42:0 43:0 44:0 45:0.99999 46:0 47:0 48:0 49:0 50:0 51:0 52:0 53:0 54:0 55:0 56:0 57:0 58:0 59:0 60:0 61:0 62:0 63:0 64:0.160624 65:0.0328427 66:0.0381908 67:0.00603013 68:0.0763816 69:0.173366 70:0.438189 71:0.0743716 72:0.301189 73:0.0334655 74:0 75:0 76:0 77:0 78:0.0806757 79:0.171909 80:0.412741 81:0 82:0 83:0 84:0 85:0 86:0 87:0 88:0 89:0 90:0.571426 91:0 92:0 93:0 94:0.42857 95:0 96:0 97:0 98:0 99:0 100:0 101:0 102:0 103:0.999993 104:0 105:0 106:0 107:0 108:0.156082 109:0.445893 110:0.308191 111:0.0877209 112:0.00210922 113:0 114:0 115:0 116:0 117:0.285773 118:0.405316 119:0.187294 120:0.115525 121:0.00608028 122:0 123:0 124:0 125:0 126:0.0687582 127:0.628146 128:0.201227 129:0.0967708 130:0.0050932 131:0 132:0 133:0 134:0 135:0 136:0 137:0 138:0 139:0.752228 140:0 141:0.0604469 142:0.10373 143:0.0835808 144:0 145:0 146:0 147:0 148:0.999985 149:0 150:0 151:0 152:0 153:0.036649 154:0.0831146 155:0.207132 156:0.342995 157:0.330103 158:0 159:0 160:0 161:0 162:0.0516603 163:0.203989 164:0.457678 165:0.12892 166:0.157748 167:0 168:0 169:0 170:0 171:0.123345 172:0.249994 173:0.379948 174:0.234356 175:0.0123345 176:0 177:0 178:0 179:0 
1 0:0 1:0 2:0 3:0 4:0 5:0 6:0 7:0 8:0 9:0 10:0 11:0 12:0 13:0 14:0 15:0 16:0 17:0 18:0.341156 19:0.0794071 20:0.238221 21:0 22:0 23:0 24:0 25:0 26:0.341156 27:0.364338 28:0.264397 29:0.0299118 30:0.0624043 31:0.00328444 32:0 33:0 34:0 35:0.275658 36:0 37:0 38:0 39:0 40:0.0337329 41:0.640925 42:0.243961 43:0.0813204 44:0 45:0 46:0 47:0 48:0 49:0 50:0 51:0 52:0 53:0 54:0 55:0 56:0 57:0 58:0 59:0 60:0 61:0 62:0 63:0.349377 64:0.0813204 65:0.243961 66:0 67:0 68:0 69:0.243961 70:0.0813204 71:0 72:0.450675 73:0.179601 74:0.0203186 75:0.0423903 76:0.00446213 77:0.0423903 78:0.0203186 79:0.179601 80:0.0602388 81:0 82:0 83:0 84:0 85:0 86:0 87:0 88:0 89:0 90:0 91:0 92:0 93:0 94:0 95:0 96:0.749861 97:0.249954 98:0 99:0 100:0.0813204 101:0.243961 102:0.640925 103:0.0337329 104:0 105:0 106:0 107:0 108:0.0469153 109:0.0486529 110:0.30104 111:0.321891 112:0.231101 113:0 114:0 115:0 116:0.0503905 117:0.218243 118:0.0646843 119:0.339193 120:0.175148 121:0.00238703 122:0 123:0 124:0 125:0.20034 126:0 127:0 128:0 129:0 130:0 131:0 132:0 133:0 134:0 135:0 136:0 137:0 138:0 139:0.701884 140:0.29811 141:0 142:0 143:0 144:0 145:0 146:0 147:0.467401 148:0.532595 149:0 150:0 151:0 152:0 153:0.0339392 154:0.042121 155:0.0948479 156:0.488967 157:0.340119 158:0 159:0 160:0 161:0 162:0 163:0.0649346 164:0.262011 165:0.145908 166:0.527139 167:0 168:0 169:0 170:0 171:0 172:0 173:0 174:0 175:0.411669 176:0.316437 177:0.229083 178:0.0428011 179:0 
1 0:0 1:0 2:0 3:0 4:0 5:0 6:0 7:0 8:0 9:0 10:0 11:0 12:0 13:0 14:0 15:0 16:0 17:0 18:0.99999 19:0 20:0 21:0 22:0 23:0 24:0 25:0 26:0 27:0.99998 28:0 29:0 30:0 31:0 32:0 33:0 34:0 35:0 36:0 37:0 38:0 39:0 40:0 41:0 42:0 43:0 44:0 45:0.99999 46:0 47:0 48:0 49:0 50:0 51:0 52:0 53:0 54:0 55:0 56:0 57:0 58:0 59:0 60:0 61:0 62:0 63:0.999993 64:0 65:0 66:0 67:0 68:0 69:0 70:0 71:0 72:0.999985 73:0 74:0 75:0 76:0 77:0 78:0 79:0 80:0 81:0 82:0 83:0 84:0 85:0 86:0 87:0 88:0 89:0 90:0.427098 91:0 92:0 93:0 94:0.00174836 95:0.218982 96:0.33047 97:0.0216983 98:0 99:0.039716 100:0.0804959 101:0.375529 102:0.18397 103:0.139006 104:0.142978 105:0.0287232 106:0.0095744 107:0 108:0.127802 109:0.126214 110:0.260089 111:0.236714 112:0.249177 113:0 114:0 115:0 116:0 117:0.674808 118:0.179493 119:0.145681 120:0 121:0 122:0 123:0 124:0 125:0 126:0 127:0.726956 128:0.0854257 129:0.178221 130:0.00938008 131:0 132:0 133:0 134:0 135:0.622569 136:0 137:0 138:0 139:0.00339804 140:0.134951 141:0.196904 142:0.0421721 143:0 144:0 145:0.0308553 146:0.165146 147:0.228119 148:0.373981 149:0.201892 150:0 151:0 152:0 153:0.339276 154:0.247016 155:0.241064 156:0 157:0 158:0 159:0 160:0 161:0.172614 162:0.146867 163:0.104944 164:0.208351 165:0.345548 166:0.15912 167:0 168:0 169:0 170:0.0351646 171:0 172:0.0685392 173:0.358802 174:0.548028 175:0.024624 176:0 177:0 178:0 179:0 
1 0:0 1:0 2:0 3:0 4:0 5:0 6:0 7:0 8:0 9:0 10:0 11:0 12:0 13:0 14:0 15:0 16:0 17:0 18:0 19:0 20:0 21:0 22:0 23:0 24:0 25:0 26:0 27:0.99998 28:0 29:0 30:0 31:0 32:0 33:0 34:0 35:0 36:0.99999 37:0 38:0 39:0 40:0 41:0 42:0 43:0 44:0 45:0 46:0 47:0 48:0 49:0 50:0 51:0 52:0 53:0 54:0 55:0 56:0 57:0 58:0 59:0 60:0 61:0 62:0 63:0 64:0 65:0 66:0 67:0 68:0 69:0 70:0 71:0 72:0.999985 73:0 74:0 75:0 76:0 77:0 78:0 79:0 80:0 81:0.999993 82:0 83:0 84:0 85:0 86:0 87:0 88:0 89:0 90:0 91:0 92:0 93:0 94:0.99998 95:0 96:0 97:0 98:0 99:0 100:0 101:0 102:0 103:0.999985 104:0 105:0 106:0 107:0 108:0 109:0.0113635 110:0.0340906 111:0.687115 112:0.267422 113:0 114:0 115:0 116:0 117:0.0432598 118:0.254827 119:0.418596 120:0.149053 121:0.13426 122:0 123:0 124:0 125:0 126:0.24319 127:0.422882 128:0.202462 129:0.124881 130:0.00657269 131:0 132:0 133:0 134:0 135:0 136:0 137:0 138:0 139:0.99999 140:0 141:0 142:0 143:0 144:0 145:0 146:0 147:0 148:0.999993 149:0 150:0 151:0 152:0 153:0 154:0.00991182 155:0.0297355 156:0.599335 157:0.361011 158:0 159:0 160:0 161:0 162:0 163:0.0268919 164:0.0806757 165:0.396008 166:0.496404 167:0 168:0 169:0 170:0 171:0.123345 172:0.249994 173:0.379948 174:0.234356 175:0.0123345 176:0 177:0 178:0 179:0 
1 0:0 1:0 2:0 3:0 4:0 5:0 6:0 7:0 8:0 9:0 10:0 11:0 12:0 13:0 14:0 15:0 16:0 17:0 18:0.99999 19:0 20:0 21:0 22:0 23:0 24:0 25:0 26:0 27:0.99998 28:0 29:0 30:0 31:0 32:0 33:0 34:0 35:0 36:0 37:0 38:0 39:0 40:0 41:0 42:0 43:0 44:0 45:0 46:0 47:0 48:0 49:0 50:0 51:0 52:0 53:0 54:0 55:0 56:0 57:0 58:0 59:0 60:0 61:0 62:0 63:0.999993 64:0 65:0 66:0 67:0 68:0 69:0 70:0 71:0 72:0.999985 73:0 74:0 75:0 76:0 77:0 78:0 79:0 80:0 81:0 82:0 83:0 84:0 85:0 86:0 87:0 88:0 89:0 90:0 91:0 92:0 93:0 94:0.0305082 95:0.407085 96:0.376731 97:0.142526 98:0.043143 99:0.0430766 100:0.087307 101:0.407305 102:0.199537 103:0.262767 104:0 105:0 106:0 107:0 108:0 109:0.231937 110:0.399981 111:0.353701 112:0.0143781 113:0 114:0 115:0 116:0 117:0.310175 118:0.149399 119:0.121256 120:0.2976 121:0.121555 122:0 123:0 124:0 125:0 126:0.137673 127:0.434582 128:0.241693 129:0.0706972 130:0.115348 131:0 132:0 133:0 134:0 135:0 136:0 137:0 138:0 139:0.124803 140:0.712444 141:0.149508 142:0.0132352 143:0 144:0 145:0.0321166 146:0.171897 147:0.237444 148:0.558536 149:0 150:0 151:0 152:0 153:0.526389 154:0.311594 155:0.161997 156:0 157:0 158:0 159:0 160:0 161:0 162:0 163:0.226776 164:0.236407 165:0.497729 166:0.0390837 167:0 168:0 169:0 170:0 171:0 172:0.0428011 173:0.229083 174:0.316437 175:0.411669 176:0 177:0 178:0 179:0 
1 0:0 1:0 2:0 3:0 4:0 5:0 6:0 7:0 8:0 9:0 10:0 11:0 12:0 13:0 14:0 15:0 16:0 17:0 18:0.99999 19:0 20:0 21:0 22:0 23:0 24:0 25:0 26:0 27:0.99998 28:0 29:0 30:0 31:0 32:0 33:0 34:0 35:0 36:0 37:0 38:0 39:0 40:0 41:0 42:0 43:0 44:0 45:0 46:0 47:0 48:0 49:0 50:0 51:0 52:0 53:0 54:0 55:0 56:0 57:0 58:0 59:0 60:0 61:0 62:0 63:0.999993 64:0 65:0 66:0 67:0 68:0 69:0 70:0 71:0 72:0.999985 73:0 74:0 75:0 76:0 77:0 78:0 79:0 80:0 81:0 82:0 83:0 84:0 85:0 86:0 87:0 88:0 89:0 90:0 91:0 92:0 93:0 94:0.679536 95:0.288619 96:0.0238796 97:0.00795986 98:0 99:0 100:0 101:0 102:0 103:0.999995 104:0 105:0 106:0 107:0 108:0 109:0.203464 110:0.222003 111:0.509923 112:0.0646065 113:0 114:0 115:0 116:0 117:0.285773 118:0.253037 119:0.339573 120:0.115525 121:0.00608028 122:0 123:0 124:0 125:0 126:0 127:0.0789991 128:0.437715 129:0.46347 130:0.0198117 131:0 132:0 133:0 134:0 135:0 136:0 137:0 138:0 139:0 140:0 141:0 142:0 143:0 144:0 145:0 146:0 147:0 148:0 149:0 150:0 151:0 152:0 153:0.24319 154:0.422882 155:0.202462 156:0.124881 157:0.00657269 158:0 159:0 160:0 161:0 162:0 163:0.0484478 164:0.278522 165:0.573655 166:0.0993704 167:0 168:0 169:0 170:0 171:0.123345 172:0.249994 173:0.379948 174:0.234356 175:0.0123345 176:0 177:0 178:0 179:0 
1 0:0 1:0 2:0 3:0 4:0 5:0 6:0 7:0 8:0 9:0 10:0 11:0 12:0 13:0 14:0 15:0 16:0 17:0 18:0 19:0 20:0 21:0 22:0 23:0 24:0 25:0 26:0 27:0.60968 28:0 29:0 30:0 31:0 32:0 33:0.030484 34:0.269454 35:0.090376 36:0 37:0 38:0 39:0 40:0.0337329 41:0.640925 42:0.243961 43:0.0813204 44:0 45:0 46:0 47:0 48:0 49:0 50:0 51:0.121254 52:0.258375 53:0.620341 54:0.999941 55:0 56:0 57:0 58:0 59:0 60:0 61:0 62:0 63:0 64:0 65:0 66:0 67:0 68:0 69:0 70:0 71:0 72:0.25846 73:0 74:0 75:0 76:0.00430766 77:0.0818455 78:0.230767 79:0.381536 80:0.0430766 81:0.499266 82:0 83:0 84:0 85:0 86:0 87:0.0963497 88:0.253137 89:0.15124 90:0 91:0 92:0 93:0 94:0.0775554 95:0.583222 96:0.214102 97:0.125116 98:0 99:0 100:0 101:0 102:0 103:0.273534 104:0.700094 105:0.0197753 106:0.00659176 107:0 108:0 109:0.00880046 110:0.0264014 111:0.258864 112:0.705928 113:0 114:0 115:0 116:0 117:0 118:0.0958523 119:0.298237 120:0.583408 121:0.022499 122:0 123:0 124:0 125:0 126:0.24319 127:0.422882 128:0.202462 129:0.124881 130:0.00657269 131:0 132:0 133:0 134:0 135:0 136:0 137:0 138:0 139:0.115661 140:0.60502 141:0.231154 142:0.0481571 143:0 144:0 145:0 146:0 147:0 148:0.373048 149:0.2976 150:0.121256 151:0.12425 152:0.0838311 153:0 154:0 155:0 156:0.137498 157:0.862487 158:0 159:0 160:0 161:0 162:0.0550093 163:0.124753 164:0.310901 165:0.424063 166:0.0852644 167:0 168:0 169:0 170:0 171:0 172:0.00946697 173:0.0284009 174:0.662197 175:0.299928 176:0 177:0 178:0 179:0 
1 0:0 1:0 2:0 3:0 4:0 5:0 6:0 7:0 8:0 9:0.99999 10:0 11:0 12:0 13:0 14:0 15:0 16:0 17:0 18:0.99998 19:0 20:0 21:0 22:0 23:0 24:0 25:0 26:0 27:0.337329 28:0.418649 29:0.243961 30:0 31:0 32:0 33:0 34:0 35:0 36:0 37:0.581806 38:0.325163 39:0.0883714 40:0.00465112 41:0 42:0 43:0 44:0 45:0.302117 46:0.0119257 47:0.0357771 48:0.46678 49:0.183391 50:0 51:0 52:0 53:0 54:0.295463 55:0.145896 56:0.18434 57:0.179006 58:0.195291 59:0 60:0 61:0 62:0 63:0.881804 64:0.11818 65:0 66:0 67:0 68:0 69:0 70:0 71:0 72:0 73:0.0613608 74:0.184083 75:0 76:0 77:0 78:0.184083 79:0.315895 80:0.254534 81:0.0585465 82:0.226868 83:0.0266596 84:0.0556192 85:0.00585465 86:0.0556192 87:0.204651 88:0.366177 89:0 90:0.240895 91:0 92:0 93:0.430459 94:0.328639 95:0 96:0 97:0 98:0 99:0 100:0.0185948 101:0.0557844 102:0.551508 103:0.3741 104:0 105:0 106:0 107:0 108:0 109:0.249954 110:0.749861 111:0 112:0 113:0 114:0 115:0 116:0 117:0.211574 118:0.457231 119:0.241156 120:0.0855299 121:0.00450157 122:0 123:0 124:0 125:0 126:0.109629 127:0.554124 128:0.276983 129:0.056296 130:0.00296295 131:0 132:0 133:0 134:0 135:0 136:0 137:0 138:0 139:0 140:0 141:0 142:0 143:0 144:0 145:0 146:0 147:0 148:0 149:0 150:0 151:0 152:0 153:0.337329 154:0.418649 155:0.243961 156:0 157:0 158:0 159:0 160:0 161:0 162:0.167711 163:0.57281 164:0.207065 165:0.0497892 166:0.00262048 167:0 168:0 169:0 170:0 171:0 172:0.0813204 173:0.243961 174:0.640925 175:0.0337329 176:0 177:0 178:0 179:0 
1 0:0 1:0 2:0 3:0 4:0 5:0 6:0 7:0 8:0 9:0 10:0 11:0 12:0 13:0 14:0 15:0 16:0 17:0 18:0.99999 19:0 20:0 21:0 22:0 23:0 24:0 25:0 26:0 27:0.99998 28:0 29:0 30:0 31:0 32:0 33:0 34:0 35:0 36:0 37:0 38:0 39:0 40:0 41:0 42:0 43:0 44:0 45:0.99999 46:0 47:0 48:0 49:0 50:0 51:0 52:0 53:0 54:0 55:0 56:0 57:0 58:0 59:0 60:0 61:0 62:0 63:0.611803 64:0.266844 65:0.0545614 66:0.0634463 67:0.00333928 68:0 69:0 70:0 71:0 72:0.974985 73:0.0249996 74:0 75:0 76:0 77:0 78:0 79:0 80:0 81:0 82:0 83:0 84:0 85:0.00657269 86:0.124881 87:0.202462 88:0.422882 89:0.24319 90:0.166828 91:0 92:0 93:0 94:0.327462 95:0.505705 96:0 97:0 98:0 99:0 100:0.0114942 101:0.194976 102:0.540781 103:0.0607064 104:0.16905 105:0.0172413 106:0.0057471 107:0 108:0 109:0.0844195 110:0.602236 111:0.308473 112:0.00486743 113:0 114:0 115:0 116:0 117:0.111998 118:0.165997 119:0.161997 120:0.397592 121:0.162397 122:0 123:0 124:0 125:0 126:0 127:0 128:0 129:0 130:0.556238 131:0.44374 132:0 133:0 134:0 135:0 136:0 137:0 138:0 139:0.0337329 140:0.640925 141:0.243961 142:0.0813204 143:0 144:0 145:0.0268919 146:0.0806757 147:0.396008 148:0.312344 149:0.18406 150:0 151:0 152:0 153:0.24319 154:0.422882 155:0.202462 156:0.124881 157:0.00657269 158:0 159:0 160:0 161:0 162:0 163:0.0327468 164:0.142115 165:0.700591 166:0.124544 167:0 168:0 169:0 170:0 171:0.217141 172:0 173:0 174:0 175:0.217141 176:0.080317 177:0.270951 178:0.214443 179:0 
1 0:0 1:0 2:0 3:0 4:0 5:0 6:0 7:0 8:0 9:0 10:0 11:0 12:0 13:0 14:0 15:0 16:0 17:0 18:0.99999 19:0 20:0 21:0 22:0 23:0 24:0 25:0 26:0 27:0.99998 28:0 29:0 30:0 31:0 32:0 33:0 34:0 35:0 36:0 37:0 38:0 39:0 40:0 41:0 42:0 43:0 44:0 45:0 46:0 47:0 48:0 49:0 50:0 51:0 52:0 53:0 54:0 55:0 56:0 57:0 58:0 59:0 60:0 61:0 62:0 63:0.432718 64:0 65:0 66:0 67:0 68:0 69:0 70:0.214677 71:0.352597 72:0.421929 73:0 74:0 75:0 76:0 77:0 78:0.0376391 79:0.266076 80:0.274347 81:0 82:0 83:0 84:0 85:0 86:0 87:0 88:0 89:0 90:0 91:0 92:0 93:0 94:0.679536 95:0.288619 96:0.0238796 97:0.00795986 98:0 99:0 100:0.00566273 101:0.0169882 102:0.479486 103:0.497859 104:0 105:0 106:0 107:0 108:0 109:0.0320938 110:0.144474 111:0.499125 112:0.324303 113:0 114:0 115:0 116:0 117:0.0525323 118:0.349809 119:0.38752 120:0.204876 121:0.00525323 122:0 123:0 124:0 125:0 126:0 127:0.00929106 128:0.210253 129:0.74879 130:0.0316584 131:0 132:0 133:0 134:0 135:0 136:0 137:0 138:0 139:0.99999 140:0 141:0 142:0 143:0 144:0 145:0 146:0 147:0 148:0.999993 149:0 150:0 151:0 152:0 153:0 154:0.00880046 155:0.0264014 156:0.258864 157:0.705928 158:0 159:0 160:0 161:0 162:0 163:0.00565324 164:0.285803 165:0.684419 166:0.0241205 167:0 168:0 169:0 170:0 171:0 172:0.0183921 173:0.207763 174:0.742769 175:0.0310622 176:0 177:0 178:0 179:0 
1 0:0 1:0 2:0 3:0 4:0 5:0 6:0 7:0 8:0 9:0 10:0 11:0 12:0 13:0 14:0 15:0 16:0 17:0 18:0.99998 19:0 20:0 21:0 22:0 23:0 24:0 25:0 26:0 27:0.99999 28:0 29:0 30:0 31:0 32:0 33:0 34:0 35:0 36:0 37:0 38:0 39:0 40:0 41:0 42:0 43:0 44:0 45:0 46:0 47:0 48:0 49:0 50:0 51:0.749861 52:0.249954 53:0 54:0 55:0 56:0 57:0 58:0 59:0 60:0 61:0 62:0 63:0.442222 64:0 65:0 66:0 67:0 68:0 69:0 70:0.145017 71:0.412741 72:0.368079 73:0 74:0 75:0 76:0.00258301 77:0.0490773 78:0.199261 79:0.355164 80:0.0258301 81:0 82:0 83:0 84:0 85:0 86:0 87:0 88:0 89:0 90:0 91:0 92:0 93:0 94:0.0280451 95:0.374218 96:0.218306 97:0.232682 98:0.146741 99:0 100:0.0140917 101:0.0422751 102:0.55156 103:0.392063 104:0 105:0 106:0 107:0 108:0.0270399 109:0.167092 110:0.173321 111:0.386768 112:0.245774 113:0 114:0 115:0 116:0 117:0.0570552 118:0.411944 119:0.473941 120:0.0542025 121:0.00285276 122:0 123:0 124:0 125:0 126:0 127:0.0813204 128:0.243961 129:0.640925 130:0.0337329 131:0 132:0 133:0 134:0 135:0 136:0 137:0 138:0 139:0.124803 140:0.712444 141:0.149508 142:0.0132352 143:0 144:0.0361755 145:0.0645991 146:0.0852708 147:0.268668 148:0.545281 149:0 150:0 151:0 152:0 153:0 154:0 155:0.0506854 156:0.25803 157:0.69128 158:0 159:0 160:0 161:0 162:0 163:0.0128448 164:0.0385345 165:0.682109 166:0.266507 167:0 168:0 169:0 170:0 171:0 172:0 173:0 174:0.606964 175:0.39303 176:0 177:0 178:0 179:0 
1 0:0 1:0 2:0 3:0 4:0 5:0 6:0 7:0 8:0 9:0 10:0 11:0 12:0 13:0 14:0 15:0 16:0 17:0 18:0.99998 19:0 20:0 21:0 22:0 23:0 24:0 25:0 26:0 27:0.99999 28:0 29:0 30:0 31:0 32:0 33:0 34:0 35:0 36:0 37:0 38:0 39:0 40:0 41:0 42:0 43:0 44:0 45:0 46:0 47:0 48:0 49:0 50:0 51:0 52:0 53:0 54:0 55:0 56:0 57:0 58:0 59:0 60:0 61:0 62:0 63:0.999985 64:0 65:0 66:0 67:0 68:0 69:0 70:0 71:0 72:0.999993 73:0 74:0 75:0 76:0 77:0 78:0 79:0 80:0 81:0 82:0 83:0 84:0 85:0 86:0 87:0 88:0 89:0 90:0 91:0 92:0 93:0 94:0 95:0 96:0 97:0 98:0 99:0 100:0.249954 101:0.749861 102:0 103:0 104:0 105:0 106:0 107:0 108:0.212657 109:0.161866 110:0.265979 111:0.345061 112:0.0144303 113:0 114:0 115:0 116:0 117:0.650506 118:0.253137 119:0.0963497 120:0 121:0 122:0 123:0 124:0 125:0 126:0 127:0.0813204 128:0.243961 129:0.640925 130:0.0337329 131:0 132:0 133:0 134:0 135:0 136:0 137:0 138:0 139:0.999993 140:0 141:0 142:0 143:0 144:0 145:0 146:0 147:0.227462 148:0.772534 149:0 150:0 151:0 152:0 153:0 154:0.0155978 155:0.264585 156:0.693237 157:0.0265741 158:0 159:0 160:0 161:0 162:0.16867 163:0.249992 164:0.243969 165:0.320472 166:0.016867 167:0 168:0 169:0 170:0 171:0.0369147 172:0.283617 173:0.563609 174:0.112161 175:0.00369147 176:0 177:0 178:0 179:0 
1 0:0 1:0 2:0 3:0 4:0 5:0 6:0 7:0 8:0 9:0 10:0 11:0 12:0 13:0 14:0 15:0 16:0 17:0 18:0.199765 19:0 20:0 21:0 22:0.00327101 23:0.0621492 24:0.252335 25:0.449764 26:0.0327101 27:0.374992 28:0 29:0 30:0 31:0 32:0 33:0 34:0.162496 35:0.46249 36:0 37:0 38:0 39:0 40:0 41:0 42:0 43:0 44:0 45:0.99999 46:0 47:0 48:0 49:0 50:0 51:0 52:0 53:0 54:0 55:0.0813204 56:0.243961 57:0.640925 58:0.0337329 59:0 60:0 61:0 62:0 63:0.153727 64:0.346658 65:0.388469 66:0.106817 67:0.00432598 68:0 69:0 70:0 71:0 72:0.747395 73:0.171909 74:0.0806757 75:0 76:0 77:0 78:0 79:0 80:0 81:0 82:0 83:0 84:0 85:0 86:0 87:0 88:0 89:0 90:0.472048 91:0 92:0 93:0 94:0.527948 95:0 96:0 97:0 98:0 99:0 100:0 101:0 102:0.467401 103:0.532595 104:0 105:0 106:0 107:0 108:0.0442684 109:0.185572 110:0.593078 111:0.172647 112:0.00442684 113:0 114:0 115:0 116:0 117:0 118:0.0122171 119:0.379636 120:0.592577 121:0.0155655 122:0 123:0 124:0 125:0 126:0 127:0.265671 128:0.276954 129:0.43731 130:0.0200601 131:0 132:0 133:0 134:0 135:0 136:0 137:0 138:0 139:0.621555 140:0.333135 141:0.0339762 142:0.0113254 143:0 144:0 145:0.00609203 146:0.0182761 147:0.647019 148:0.328609 149:0 150:0 151:0 152:0 153:0 154:0 155:0.131414 156:0.351806 157:0.516776 158:0 159:0 160:0 161:0 162:0 163:0.0899232 164:0.584501 165:0.319498 166:0.00606711 167:0 168:0 169:0 170:0 171:0 172:0 173:0 174:0 175:0 176:0 177:0 178:0 179:0 
1 0:0 1:0 2:0 3:0 4:0 5:0 6:0 7:0 8:0 9:0 10:0 11:0 12:0 13:0 14:0 15:0 16:0 17:0 18:0.359677 19:0.387811 20:0.196338 21:0.0533598 22:0.00280841 23:0 24:0 25:0 26:0 27:0.337329 28:0.418649 29:0.243961 30:0 31:0 32:0 33:0 34:0 35:0 36:0.99998 37:0 38:0 39:0 40:0 41:0 42:0 43:0 44:0 45:0.99999 46:0 47:0 48:0 49:0 50:0 51:0 52:0 53:0 54:0 55:0 56:0 57:0 58:0 59:0 60:0 61:0 62:0 63:0.999995 64:0 65:0 66:0 67:0 68:0 69:0 70:0 71:0 72:0 73:0 74:0 75:0 76:0 77:0 78:0 79:0 80:0 81:0.999985 82:0 83:0 84:0 85:0 86:0 87:0 88:0 89:0 90:0.534373 91:0 92:0 93:0 94:0.289413 95:0.155117 96:0.0158202 97:0.00527342 98:0 99:0 100:0.00609203 101:0.0182761 102:0.647019 103:0.328609 104:0 105:0 106:0 107:0 108:0.346639 109:0.211478 110:0.245407 111:0.157225 112:0.0392458 113:0 114:0 115:0 116:0 117:0.0304181 118:0.338673 119:0.474604 120:0.150216 121:0.00608362 122:0 123:0 124:0 125:0 126:0.36784 127:0.353232 128:0.169116 129:0.104313 130:0.00549014 131:0 132:0 133:0 134:0 135:0.404251 136:0 137:0 138:0 139:0.486519 140:0.109219 141:0 142:0 143:0 144:0.0710651 145:0.161165 146:0.270301 147:0.387305 148:0.110151 149:0 150:0 151:0 152:0 153:0 154:0.0293962 155:0.297111 156:0.424407 157:0.24908 158:0 159:0 160:0 161:0 162:0.0340631 163:0.126368 164:0.586219 165:0.249938 166:0.00340631 167:0 168:0 169:0 170:0 171:0 172:0 173:0 174:0 175:0 176:0 177:0 178:0 179:0 
1 0:0 1:0 2:0 3:0 4:0 5:0 6:0 7:0 8:0 9:0 10:0 11:0 12:0 13:0 14:0 15:0 16:0 17:0 18:0 19:0 20:0 21:0 22:0 23:0 24:0 25:0 26:0 27:0.999993 28:0 29:0 30:0 31:0 32:0 33:0 34:0 35:0 36:0 37:0 38:0 39:0 40:0.0194438 41:0.369432 42:0.14062 43:0.0468734 44:0.423596 45:0 46:0 47:0 48:0 49:0 50:0 51:0 52:0 53:0 54:0 55:0 56:0 57:0 58:0 59:0 60:0 61:0 62:0 63:0 64:0 65:0 66:0 67:0 68:0 69:0 70:0 71:0 72:0.999995 73:0 74:0 75:0 76:0 77:0 78:0 79:0 80:0 81:0 82:0 83:0 84:0 85:0 86:0 87:0 88:0 89:0 90:0 91:0 92:0 93:0 94:0.0126123 95:0.491881 96:0.434675 97:0.0608094 98:0 99:0 100:0.0813204 101:0.243961 102:0.640925 103:0.0337329 104:0 105:0 106:0 107:0 108:0 109:0.0635859 110:0.354068 111:0.338972 112:0.243365 113:0 114:0 115:0 116:0 117:0.266121 118:0.22358 119:0.314192 120:0.191947 121:0.00415583 122:0 123:0 124:0 125:0 126:0 127:0 128:0 129:0 130:0 131:0 132:0 133:0 134:0 135:0 136:0 137:0 138:0 139:0.0931826 140:0.722526 141:0.176487 142:0.00779892 143:0 144:0 145:0 146:0 147:0.467401 148:0.532595 149:0 150:0 151:0 152:0 153:0 154:0.00847985 155:0.0983034 156:0.569971 157:0.323239 158:0 159:0 160:0 161:0 162:0.126123 163:0.313056 164:0.560798 165:0 166:0 167:0 168:0 169:0 170:0 171:0 172:0.0545899 173:0.16377 174:0.132008 175:0.299252 176:0.132008 177:0.16377 178:0.0545899 179:0 
1 0:0 1:0 2:0 3:0 4:0 5:0 6:0 7:0 8:0 9:0.197878 10:0.438159 11:0.265015 12:0.0939921 13:0.00494695 14:0 15:0 16:0 17:0 18:0.534236 19:0.337351 20:0.128403 21:0 22:0 23:0 24:0 25:0 26:0 27:0.517811 28:0.120525 29:0.361575 30:0 31:0 32:0 33:0 34:0 35:0 36:0.374865 37:0.454446 38:0.0534026 39:0.111412 40:0.00586381 41:0 42:0 43:0 44:0 45:0.999971 46:0 47:0 48:0 49:0 50:0 51:0 52:0 53:0 54:0.263077 55:0.212841 56:0.0240792 57:0 58:0 59:0 60:0.0240792 61:0.212841 62:0.263077 63:0.211802 64:0.0234371 65:0.0703113 66:0.184719 67:0.0194441 68:0.184719 69:0.0703113 70:0.0234371 71:0.211802 72:0.613 73:0.215378 74:0 75:0 76:0 77:0 78:0 79:0 80:0.171593 81:0.0334156 82:0.433475 83:0.242263 84:0.0658412 85:0.00346533 86:0 87:0 88:0 89:0.221533 90:0.238236 91:0.0413934 92:0.184484 93:0.128498 94:0.407383 95:0 96:0 97:0 98:0 99:0.0437498 100:0.245019 101:0.573924 102:0.132929 103:0.00437498 104:0 105:0 106:0 107:0 108:0 109:0.0663924 110:0.382781 111:0.53245 112:0.0183604 113:0 114:0 115:0 116:0 117:0.0428133 118:0.291188 119:0.467315 120:0.189965 121:0.00871556 122:0 123:0 124:0 125:0 126:0.24319 127:0.422882 128:0.202462 129:0.124881 130:0.00657269 131:0 132:0 133:0 134:0 135:0 136:0 137:0 138:0.0603918 139:0.939602 140:0 141:0 142:0 143:0 144:0 145:0.00880046 146:0.0264014 147:0.0693607 148:0.895431 149:0 150:0 151:0 152:0 153:0.0516603 154:0.139298 155:0.522368 156:0.12892 157:0.157748 158:0 159:0 160:0 161:0 162:0 163:0.0342635 164:0.244921 165:0.691869 166:0.0289336 167:0 168:0 169:0 170:0 171:0 172:0 173:0 174:0 175:0 176:0 177:0 178:0 179:0 
1 0:0 1:0 2:0 3:0 4:0 5:0 6:0 7:0 8:0 9:0 10:0 11:0 12:0 13:0 14:0 15:0 16:0 17:0 18:0.99999 19:0 20:0 21:0 22:0 23:0 24:0 25:0 26:0 27:0.99998 28:0 29:0 30:0 31:0 32:0 33:0 34:0 35:0 36:0.123345 37:0.249994 38:0.379948 39:0.234356 40:0.0123345 41:0 42:0 43:0 44:0 45:0 46:0 47:0 48:0 49:0 50:0 51:0 52:0 53:0 54:0 55:0 56:0 57:0 58:0 59:0 60:0 61:0 62:0 63:0.611803 64:0.266844 65:0.0545614 66:0.0634463 67:0.00333928 68:0 69:0 70:0 71:0 72:0.974985 73:0.0249996 74:0 75:0 76:0 77:0 78:0 79:0 80:0 81:0.139482 82:0.227673 83:0 84:0 85:0 86:0 87:0.12177 88:0.319923 89:0.191142 90:0.077401 91:0 92:0 93:0 94:0.472699 95:0.149101 96:0.214062 97:0.0480301 98:0.0387005 99:0 100:0.0076357 101:0.0229071 102:0.534103 103:0.435348 104:0 105:0 106:0 107:0 108:0.0433603 109:0.238191 110:0.563683 111:0.150425 112:0.00433603 113:0 114:0 115:0 116:0 117:0.108212 118:0.134298 119:0.238403 120:0.278306 121:0.240771 122:0 123:0 124:0 125:0 126:0.0261803 127:0.230948 128:0.578539 129:0.159092 130:0.00523607 131:0 132:0 133:0 134:0 135:0 136:0 137:0 138:0 139:0.81665 140:0.18333 141:0 142:0 143:0 144:0 145:0 146:0 147:0.322722 148:0.677262 149:0 150:0 151:0 152:0 153:0.289336 154:0.593647 155:0.117004 156:0 157:0 158:0 159:0 160:0 161:0 162:0.0859996 163:0.146249 164:0.341623 165:0.217324 166:0.208799 167:0 168:0 169:0 170:0 171:0.123345 172:0.249994 173:0.379948 174:0.234356 175:0.0123345 176:0 177:0 178:0 179:0 
1 0:0 1:0 2:0 3:0 4:0 5:0 6:0 7:0 8:0 9:0 10:0 11:0 12:0 13:0 14:0 15:0 16:0 17:0 18:0.99999 19:0 20:0 21:0 22:0 23:0 24:0 25:0 26:0 27:0.99998 28:0 29:0 30:0 31:0 32:0 33:0 34:0 35:0 36:0 37:0 38:0 39:0 40:0 41:0 42:0 43:0 44:0 45:0.99999 46:0 47:0 48:0 49:0 50:0 51:0 52:0 53:0 54:0 55:0 56:0 57:0 58:0 59:0 60:0 61:0 62:0 63:0.360271 64:0.374876 65:0.21032 66:0.0518011 67:0.00272637 68:0 69:0 70:0 71:0 72:0.789886 73:0.167472 74:0.0426311 75:0 76:0 77:0 78:0 79:0 80:0 81:0 82:0.629924 83:0.245695 84:0.118156 85:0.00621873 86:0 87:0 88:0 89:0 90:0.176835 91:0.00698032 92:0.0209409 93:0.48826 94:0.0737328 95:0.205325 96:0.0209409 97:0.00698032 98:0 99:0 100:0.00540863 101:0.0162259 102:0.654084 103:0.324278 104:0 105:0 106:0 107:0 108:0.0261437 109:0.169117 110:0.618111 111:0.181395 112:0.00522873 113:0 114:0 115:0 116:0 117:0 118:0.120147 119:0.375612 120:0.488887 121:0.0153502 122:0 123:0 124:0 125:0 126:0.36784 127:0.353232 128:0.169116 129:0.104313 130:0.00549014 131:0 132:0 133:0 134:0 135:0.188325 136:0 137:0 138:0.109471 139:0.651318 140:0.0508808 141:0 142:0 143:0 144:0 145:0.0148188 146:0.0444564 147:0.518274 148:0.422446 149:0 150:0 151:0 152:0 153:0 154:0 155:0.125159 156:0.543092 157:0.331745 158:0 159:0 160:0 161:0 162:0 163:0.0899232 164:0.584501 165:0.319498 166:0.00606711 167:0 168:0 169:0 170:0 171:0 172:0 173:0 174:0 175:0 176:0 177:0 178:0 179:0 
0.2283649024936721 0:0 1:0 2:0 3:0 4:0 5:0 6:0 7:0 8:0 9:0 10:0 11:0 12:0 13:0 14:0 15:0 16:0 17:0 18:0.99999 19:0 20:0 21:0 22:0 23:0 24:0 25:0 26:0 27:0.99998 28:0 29:0 30:0 31:0 32:0 33:0 34:0 35:0 36:0 37:0 38:0 39:0 40:0 41:0 42:0 43:0 44:0 45:0.99999 46:0 47:0 48:0 49:0 50:0 51:0 52:0 53:0 54:0 55:0 56:0 57:0 58:0 59:0 60:0 61:0 62:0 63:0.999993 64:0 65:0 66:0 67:0 68:0 69:0 70:0 71:0 72:0.999985 73:0 74:0 75:0 76:0 77:0 78:0 79:0 80:0 81:0 82:0 83:0 84:0 85:0 86:0 87:0 88:0 89:0 90:0.730765 91:0 92:0 93:0 94:0.269229 95:0 96:0 97:0 98:0 99:0 100:0.00991182 101:0.0297355 102:0.599335 103:0.361011 104:0 105:0 106:0 107:0 108:0.0405062 109:0.337702 110:0.439691 111:0.178046 112:0.00405062 113:0 114:0 115:0 116:0 117:0.62035 118:0.258379 119:0.121256 120:0 121:0 122:0 123:0 124:0 125:0 126:0 127:0.629924 128:0.245695 129:0.118156 130:0.00621873 131:0 132:0 133:0 134:0 135:0.249998 136:0 137:0 138:0 139:0.749995 140:0 141:0 142:0 143:0 144:0 145:0.0113635 146:0.0340906 147:0.687115 148:0.267422 149:0 150:0 151:0 152:0 153:0.0585768 154:0.375937 155:0.272591 156:0.207948 157:0.0849363 158:0 159:0 160:0 161:0 162:0 163:0.0534813 164:0.252516 165:0.390435 166:0.303564 167:0 168:0 169:0 170:0 171:0.24319 172:0.422882 173:0.202462 174:0.124881 175:0.00657269 176:0 177:0 178:0 179:0 
1 0:0 1:0 2:0 3:0 4:0 5:0 6:0 7:0 8:0 9:0 10:0 11:0 12:0 13:0 14:0 15:0 16:0 17:0 18:0.99999 19:0 20:0 21:0 22:0 23:0 24:0 25:0 26:0 27:0.90321 28:0.0241931 29:0.0725793 30:0 31:0 32:0 33:0 34:0 35:0 36:0 37:0.726956 38:0.0854257 39:0.178221 40:0.00938008 41:0 42:0 43:0 44:0 45:0.999985 46:0 47:0 48:0 49:0 50:0 51:0 52:0 53:0 54:0 55:0 56:0 57:0 58:0 59:0 60:0 61:0 62:0 63:0.360271 64:0.374876 65:0.21032 66:0.0518011 67:0.00272637 68:0 69:0 70:0 71:0 72:0.837491 73:0.162498 74:0 75:0 76:0 77:0 78:0 79:0 80:0 81:0.21818 82:0.454867 83:0.254219 84:0.0690905 85:0.00363634 86:0 87:0 88:0 89:0 90:0.399998 91:0 92:0 93:0 94:0.599997 95:0 96:0 97:0 98:0 99:0 100:0.0106761 101:0.181099 102:0.760732 103:0.0474889 104:0 105:0 106:0 107:0 108:0.0291969 109:0.159671 110:0.602708 111:0.20258 112:0.00583939 113:0 114:0 115:0 116:0 117:0.0295513 118:0.336146 119:0.482451 120:0.145936 121:0.00591026 122:0 123:0 124:0 125:0 126:0.36784 127:0.353232 128:0.169116 129:0.104313 130:0.00549014 131:0 132:0 133:0 134:0 135:0.404251 136:0 137:0 138:0 139:0.595738 140:0 141:0 142:0 143:0 144:0.0710651 145:0.161165 146:0.270301 147:0.387305 148:0.110151 149:0 150:0 151:0 152:0 153:0 154:0.0219931 155:0.156927 156:0.696215 157:0.124861 158:0 159:0 160:0 161:0 162:0.0358283 163:0.105725 164:0.346607 165:0.489824 166:0.0220088 167:0 168:0 169:0 170:0 171:0 172:0 173:0 174:0 175:0 176:0 177:0 178:0 179:0 
1 0:0 1:0 2:0 3:0 4:0 5:0 6:0 7:0 8:0 9:0 10:0 11:0 12:0 13:0 14:0 15:0 16:0 17:0 18:0 19:0 20:0 21:0 22:0 23:0 24:0 25:0 26:0 27:0.999993 28:0 29:0 30:0 31:0 32:0 33:0 34:0 35:0 36:0 37:0 38:0 39:0 40:0 41:0 42:0 43:0 44:0 45:0 46:0 47:0 48:0 49:0 50:0 51:0 52:0 53:0 54:0 55:0 56:0 57:0 58:0 59:0 60:0 61:0 62:0 63:0 64:0 65:0 66:0 67:0 68:0 69:0 70:0 71:0 72:0.999995 73:0 74:0 75:0 76:0 77:0 78:0 79:0 80:0 81:0 82:0 83:0 84:0 85:0 86:0 87:0 88:0 89:0 90:0 91:0 92:0 93:0 94:0.43293 95:0.567061 96:0 97:0 98:0 99:0 100:0 101:0 102:0 103:0.673137 104:0.257797 105:0.0517896 106:0.0172632 107:0 108:0 109:0.020408 110:0.261525 111:0.561145 112:0.156915 113:0 114:0 115:0 116:0 117:0.268412 118:0.225504 119:0.20668 120:0.286526 121:0.0128742 122:0 123:0 124:0 125:0 126:0 127:0 128:0 129:0 130:0 131:0 132:0 133:0 134:0 135:0 136:0 137:0 138:0 139:0.262782 140:0.668852 141:0.0512652 142:0.0170884 143:0 144:0 145:0 146:0 147:0 148:0.797817 149:0.202176 150:0 151:0 152:0 153:0 154:0.00991182 155:0.111967 156:0.53355 157:0.344564 158:0 159:0 160:0 161:0 162:0.16867 163:0.249992 164:0.243969 165:0.320472 166:0.016867 167:0 168:0 169:0 170:0 171:0 172:0.0685392 173:0.358802 174:0.548028 175:0.024624 176:0 177:0 178:0 179:0 
1 0:0 1:0 2:0 3:0 4:0 5:0 6:0 7:0 8:0 9:0.99999 10:0 11:0 12:0 13:0 14:0 15:0 16:0 17:0 18:0.99998 19:0 20:0 21:0 22:0 23:0 24:0 25:0 26:0 27:0 28:0 29:0 30:0 31:0 32:0 33:0 34:0 35:0 36:0 37:0 38:0 39:0 40:0 41:0 42:0 43:0 44:0 45:0.99999 46:0 47:0 48:0 49:0 50:0 51:0 52:0 53:0 54:0.611803 55:0.266844 56:0.0545614 57:0.0634463 58:0.00333928 59:0 60:0 61:0 62:0 63:0.974985 64:0.0249996 65:0 66:0 67:0 68:0 69:0 70:0 71:0 72:0 73:0.249954 74:0.749861 75:0 76:0 77:0 78:0 79:0 80:0 81:0 82:0.726956 83:0.0854257 84:0.178221 85:0.00938008 86:0 87:0 88:0 89:0 90:0.353792 91:0.00465516 92:0.0139655 93:0.394171 94:0.233413 95:0 96:0 97:0 98:0 99:0 100:0.0507194 101:0.42653 102:0.506776 103:0.0159702 104:0 105:0 106:0 107:0 108:0.16867 109:0.249992 110:0.243969 111:0.320472 112:0.016867 113:0 114:0 115:0 116:0 117:0.148898 118:0.37935 119:0.308889 120:0.129123 121:0.0337348 122:0 123:0 124:0 125:0 126:0 127:0.0685392 128:0.358802 129:0.548028 130:0.024624 131:0 132:0 133:0 134:0 135:0 136:0 137:0 138:0 139:0 140:0 141:0 142:0 143:0 144:0.123345 145:0.249994 146:0.379948 147:0.234356 148:0.0123345 149:0 150:0 151:0 152:0 153:0 154:0.0216708 155:0.312499 156:0.641706 157:0.0241205 158:0 159:0 160:0 161:0 162:0.0411762 163:0.0933817 164:0.232719 165:0.531173 166:0.101543 167:0 168:0 169:0 170:0 171:0 172:0 173:0 174:0 175:0 176:0 177:0 178:0 179:0 
1 0:0 1:0 2:0 3:0 4:0 5:0 6:0 7:0 8:0 9:0 10:0 11:0 12:0 13:0 14:0 15:0 16:0 17:0 18:0.999993 19:0 20:0 21:0 22:0 23:0 24:0 25:0 26:0 27:0 28:0 29:0 30:0 31:0 32:0 33:0 34:0 35:0 36:0.99998 37:0 38:0 39:0 40:0 41:0 42:0 43:0 44:0 45:0.99999 46:0 47:0 48:0 49:0 50:0 51:0 52:0 53:0 54:0 55:0 56:0 57:0 58:0 59:0 60:0 61:0 62:0 63:0.999995 64:0 65:0 66:0 67:0 68:0 69:0 70:0 71:0 72:0 73:0 74:0 75:0 76:0 77:0 78:0 79:0 80:0 81:0.999985 82:0 83:0 84:0 85:0 86:0 87:0 88:0 89:0 90:0.571426 91:0 92:0 93:0 94:0.42857 95:0 96:0 97:0 98:0 99:0 100:0.0123682 101:0.209802 102:0.581903 103:0.195922 104:0 105:0 106:0 107:0 108:0.0869854 109:0.264294 110:0.265847 111:0.366077 112:0.0167925 113:0 114:0 115:0 116:0 117:0.0304181 118:0.338673 119:0.474604 120:0.150216 121:0.00608362 122:0 123:0 124:0 125:0 126:0.36784 127:0.353232 128:0.169116 129:0.104313 130:0.00549014 131:0 132:0 133:0 134:0 135:0.182691 136:0 137:0 138:0 139:0.817303 140:0 141:0 142:0 143:0 144:0 145:0.00721921 146:0.0216576 147:0.10631 148:0.864808 149:0 150:0 151:0 152:0 153:0 154:0.00634098 155:0.196101 156:0.596662 157:0.200891 158:0 159:0 160:0 161:0 162:0.0358283 163:0.105725 164:0.346607 165:0.489824 166:0.0220088 167:0 168:0 169:0 170:0 171:0 172:0 173:0 174:0 175:0 176:0 177:0 178:0 179:0 
1 0:0 1:0 2:0 3:0 4:0 5:0 6:0 7:0 8:0 9:0 10:0 11:0 12:0 13:0 14:0 15:0 16:0 17:0 18:0.232475 19:0.449764 20:0.252335 21:0.0621492 22:0.00327101 23:0 24:0 25:0 26:0 27:0.837481 28:0.162496 29:0 30:0 31:0 32:0 33:0 34:0 35:0 36:0 37:0.0813204 38:0.243961 39:0.640925 40:0.0337329 41:0 42:0 43:0 44:0 45:0 46:0 47:0 48:0 49:0 50:0 51:0 52:0 53:0 54:0 55:0 56:0 57:0 58:0 59:0 60:0 61:0 62:0 63:0.732546 64:0.196426 65:0.0222221 66:0.0463615 67:0.00244008 68:0 69:0 70:0 71:0 72:0 73:0.249954 74:0.749861 75:0 76:0 77:0 78:0 79:0 80:0 81:0.302036 82:0.505532 83:0.192417 84:0 85:0 86:0 87:0 88:0 89:0 90:0.306725 91:0 92:0 93:0.00390133 94:0.465962 95:0.223407 96:0 97:0 98:0 99:0 100:0.00540863 101:0.0162259 102:0.654084 103:0.324278 104:0 105:0 106:0 107:0 108:0.126341 109:0.375638 110:0.361431 111:0.13317 112:0.00341461 113:0 114:0 115:0 116:0 117:0.0953987 118:0.249996 119:0.463791 120:0.181258 121:0.00953987 122:0 123:0 124:0 125:0 126:0 127:0.418536 128:0.423875 129:0.15145 130:0.00613359 131:0 132:0 133:0 134:0 135:0.667956 136:0 137:0 138:0.0113279 139:0.203902 140:0.0113279 141:0.0791 142:0.0263667 143:0 144:0 145:0.249954 146:0.749861 147:0 148:0 149:0 150:0 151:0 152:0 153:0.0900307 154:0.5561 155:0.353853 156:0 157:0 158:0 159:0 160:0 161:0 162:0 163:0.0479052 164:0.436954 165:0.500869 166:0.0142679 167:0 168:0 169:0 170:0 171:0.123345 172:0.249994 173:0.379948 174:0.234356 175:0.0123345 176:0 177:0 178:0 179:0 
1 0:0 1:0 2:0 3:0 4:0 5:0 6:0 7:0 8:0 9:0 10:0 11:0 12:0 13:0 14:0 15:0 16:0 17:0 18:0.999993 19:0 20:0 21:0 22:0 23:0 24:0 25:0 26:0 27:0 28:0 29:0 30:0 31:0 32:0 33:0 34:0 35:0 36:0.99998 37:0 38:0 39:0 40:0 41:0 42:0 43:0 44:0 45:0.99999 46:0 47:0 48:0 49:0 50:0 51:0 52:0 53:0 54:0.747395 55:0.171909 56:0.0806757 57:0 58:0 59:0 60:0 61:0 62:0 63:0.221719 64:0.492852 65:0.194993 66:0.08591 67:0.00452158 68:0 69:0 70:0 71:0 72:0 73:0 74:0 75:0 76:0 77:0 78:0 79:0 80:0 81:0.999985 82:0 83:0 84:0 85:0 86:0 87:0 88:0 89:0 90:0.690208 91:0.00681127 92:0.0204338 93:0.101715 94:0.180827 95:0 96:0 97:0 98:0 99:0.176377 100:0.0334644 101:0.154724 102:0.389079 103:0.24635 104:0 105:0 106:0 107:0 108:0.625838 109:0.253018 110:0.121137 111:0 112:0 113:0 114:0 115:0 116:0 117:0.0304181 118:0.338673 119:0.474604 120:0.150216 121:0.00608362 122:0 123:0 124:0 125:0 126:0.36784 127:0.353232 128:0.169116 129:0.104313 130:0.00549014 131:0 132:0 133:0 134:0 135:0.240167 136:0 137:0 138:0.202176 139:0.557651 140:0 141:0 142:0 143:0 144:0.0498216 145:0.0738428 146:0.0720634 147:0.552308 148:0.251955 149:0 150:0 151:0 152:0 153:0 154:0.0381138 155:0.388205 156:0.555141 157:0.0185356 158:0 159:0 160:0 161:0 162:0.0358283 163:0.105725 164:0.346607 165:0.489824 166:0.0220088 167:0 168:0 169:0 170:0 171:0 172:0 173:0 174:0 175:0 176:0 177:0 178:0 179:0 
0.4975193674131866 0:0 1:0 2:0 3:0 4:0 5:0 6:0 7:0 8:0 9:0 10:0 11:0 12:0 13:0 14:0 15:0 16:0 17:0 18:0.999993 19:0 20:0 21:0 22:0 23:0 24:0 25:0 26:0 27:0 28:0 29:0 30:0 31:0 32:0 33:0 34:0 35:0 36:0 37:0 38:0 39:0 40:0 41:0 42:0 43:0 44:0 45:0.99999 46:0 47:0 48:0 49:0 50:0 51:0 52:0 53:0 54:0 55:0 56:0 57:0 58:0 59:0 60:0 61:0 62:0 63:0.999995 64:0 65:0 66:0 67:0 68:0 69:0 70:0 71:0 72:0 73:0 74:0 75:0 76:0 77:0 78:0 79:0 80:0 81:0 82:0 83:0 84:0 85:0 86:0 87:0 88:0 89:0 90:0.534373 91:0 92:0 93:0 94:0.289413 95:0.155117 96:0.0158202 97:0.00527342 98:0 99:0 100:0.0076357 101:0.0229071 102:0.534103 103:0.435348 104:0 105:0 106:0 107:0 108:0.342174 109:0.287475 110:0.263477 111:0.104198 112:0.00267174 113:0 114:0 115:0 116:0 117:0.0953987 118:0.249996 119:0.463791 120:0.181258 121:0.00953987 122:0 123:0 124:0 125:0 126:0 127:0.418536 128:0.423875 129:0.15145 130:0.00613359 131:0 132:0 133:0 134:0 135:0.404251 136:0 137:0 138:0 139:0.486519 140:0.109219 141:0 142:0 143:0 144:0 145:0 146:0 147:0.322722 148:0.677262 149:0 150:0 151:0 152:0 153:0.082839 154:0.531649 155:0.385497 156:0 157:0 158:0 159:0 160:0 161:0 162:0 163:0.0479052 164:0.436954 165:0.500869 166:0.0142679 167:0 168:0 169:0 170:0 171:0.123345 172:0.249994 173:0.379948 174:0.234356 175:0.0123345 176:0 177:0 178:0 179:0 
1 0:0 1:0 2:0 3:0 4:0 5:0 6:0 7:0 8:0 9:0 10:0 11:0 12:0 13:0 14:0 15:0 16:0 17:0 18:0.99998 19:0 20:0 21:0 22:0 23:0 24:0 25:0 26:0 27:0.99999 28:0 29:0 30:0 31:0 32:0 33:0 34:0 35:0 36:0 37:0 38:0 39:0 40:0 41:0 42:0 43:0 44:0 45:0.99999 46:0 47:0 48:0 49:0 50:0 51:0 52:0 53:0 54:0 55:0 56:0 57:0 58:0 59:0 60:0 61:0 62:0 63:0.210195 64:0.530417 65:0.196638 66:0.0596075 67:0.00313724 68:0 69:0 70:0 71:0 72:0.495023 73:0.292276 74:0.139397 75:0.0696331 76:0.0036649 77:0 78:0 79:0 80:0 81:0 82:0.629924 83:0.245695 84:0.118156 85:0.00621873 86:0 87:0 88:0 89:0 90:0.176652 91:0 92:0 93:0 94:0.56601 95:0.257333 96:0 97:0 98:0 99:0 100:0.00594711 101:0.0178413 102:0.435108 103:0.541099 104:0 105:0 106:0 107:0 108:0.0869854 109:0.264294 110:0.265847 111:0.366077 112:0.0167925 113:0 114:0 115:0 116:0 117:0.0304181 118:0.338673 119:0.474604 120:0.150216 121:0.00608362 122:0 123:0 124:0 125:0 126:0.36784 127:0.353232 128:0.169116 129:0.104313 130:0.00549014 131:0 132:0 133:0 134:0 135:0.23108 136:0 137:0 138:0 139:0.728509 140:0.00391889 141:0.0273647 142:0.00912156 143:0 144:0 145:0.0164033 146:0.0492099 147:0.244774 148:0.689607 149:0 150:0 151:0 152:0 153:0 154:0 155:0 156:0.655019 157:0.344977 158:0 159:0 160:0 161:0 162:0.0358283 163:0.105725 164:0.346607 165:0.489824 166:0.0220088 167:0 168:0 169:0 170:0 171:0 172:0 173:0 174:0 175:0 176:0 177:0 178:0 179:0 
1 0:0 1:0 2:0 3:0 4:0 5:0 6:0 7:0 8:0 9:0 10:0 11:0 12:0 13:0 14:0 15:0 16:0 17:0 18:0.99999 19:0 20:0 21:0 22:0 23:0 24:0 25:0 26:0 27:0.974985 28:0.0249996 29:0 30:0 31:0 32:0 33:0 34:0 35:0 36:0.360125 37:0.465161 38:0.0546618 39:0.11404 40:0.00600208 41:0 42:0 43:0 44:0 45:0.999985 46:0 47:0 48:0 49:0 50:0 51:0 52:0 53:0 54:0 55:0 56:0 57:0 58:0 59:0 60:0 61:0 62:0 63:0.611803 64:0.266844 65:0.0545614 66:0.0634463 67:0.00333928 68:0 69:0 70:0 71:0 72:0.974985 73:0.0249996 74:0 75:0 76:0 77:0 78:0 79:0 80:0 81:0.999985 82:0 83:0 84:0 85:0 86:0 87:0 88:0 89:0 90:0.861456 91:0.00850121 92:0.0255036 93:0.0670021 94:0.00352643 95:0 96:0.0255036 97:0.00850121 98:0 99:0 100:0.0140917 101:0.0422751 102:0.64801 103:0.295613 104:0 105:0 106:0 107:0 108:0.151572 109:0.503235 110:0.304223 111:0.0389172 112:0.00204827 113:0 114:0 115:0 116:0 117:0.0558044 118:0.34529 119:0.455528 120:0.137792 121:0.00558044 122:0 123:0 124:0 125:0 126:0.36784 127:0.353232 128:0.169116 129:0.104313 130:0.00549014 131:0 132:0 133:0 134:0 135:0.158186 136:0 137:0 138:0.479507 139:0.135892 140:0.22641 141:0 142:0 143:0 144:0 145:0.00847985 146:0.0254395 147:0.635549 148:0.330526 149:0 150:0 151:0 152:0 153:0.193547 154:0.40857 155:0.207723 156:0.185397 157:0.00475378 158:0 159:0 160:0 161:0 162:0.131109 163:0.37277 164:0.431711 165:0.0611842 166:0.00322022 167:0 168:0 169:0 170:0 171:0 172:0 173:0 174:0 175:0 176:0 177:0 178:0 179:0 
1 0:0 1:0 2:0 3:0 4:0 5:0 6:0 7:0 8:0 9:0 10:0 11:0 12:0 13:0 14:0 15:0 16:0 17:0 18:0.0505942 19:0.313486 20:0.0803555 21:0 22:0 23:0 24:0 25:0.0333327 26:0.522212 27:0.181155 28:0.125535 29:0 30:0 31:0.0036387 32:0.0691354 33:0.0594538 34:0.290771 35:0.270304 36:0 37:0 38:0 39:0 40:0.0123345 41:0.234356 42:0.379948 43:0.249994 44:0.123345 45:0 46:0 47:0 48:0 49:0 50:0 51:0 52:0 53:0 54:0 55:0 56:0 57:0 58:0 59:0 60:0 61:0 62:0 63:0.721734 64:0.270124 65:0.00813459 66:0 67:0 68:0 69:0 70:0 71:0 72:0.364731 73:0.152143 74:0.3052 75:0.17347 76:0.00444794 77:0 78:0 79:0 80:0 81:0 82:0.0813204 83:0.243961 84:0.640925 85:0.0337329 86:0 87:0 88:0 89:0 90:0 91:0 92:0 93:0 94:0.99999 95:0 96:0 97:0 98:0 99:0 100:0 101:0 102:0 103:0.999993 104:0 105:0 106:0 107:0 108:0.127707 109:0.197815 110:0.206217 111:0.434166 112:0.0340925 113:0 114:0 115:0 116:0 117:0.674808 118:0.179493 119:0.145681 120:0 121:0 122:0 123:0 124:0 125:0 126:0.161495 127:0.608569 128:0.142633 129:0.08293 130:0.00436474 131:0 132:0 133:0 134:0 135:0.404251 136:0 137:0 138:0 139:0.595738 140:0 141:0 142:0 143:0 144:0 145:0 146:0 147:0 148:0.999985 149:0 150:0 151:0 152:0 153:0.111998 154:0.165997 155:0.161997 156:0.397592 157:0.162397 158:0 159:0 160:0 161:0 162:0 163:0.045595 164:0.418212 165:0.519807 166:0.0163809 167:0 168:0 169:0 170:0 171:0 172:0.0685392 173:0.358802 174:0.548028 175:0.024624 176:0 177:0 178:0 179:0 
1 0:0 1:0 2:0 3:0 4:0 5:0 6:0 7:0 8:0 9:0 10:0 11:0 12:0 13:0 14:0 15:0 16:0 17:0 18:0.512356 19:0.335203 20:0.0685388 21:0.0796998 22:0.00419472 23:0 24:0 25:0 26:0 27:0.810734 28:0.128804 29:0.0604469 30:0 31:0 32:0 33:0 34:0 35:0 36:0 37:0.581806 38:0.325163 39:0.0883714 40:0.00465112 41:0 42:0 43:0 44:0 45:0.999971 46:0 47:0 48:0 49:0 50:0 51:0 52:0 53:0 54:0 55:0 56:0 57:0 58:0 59:0 60:0 61:0 62:0 63:0.490094 64:0.308825 65:0.156349 66:0.0424918 67:0.00223641 68:0 69:0 70:0 71:0 72:0.620341 73:0.258375 74:0.121254 75:0 76:0 77:0 78:0 79:0 80:0 81:0.457761 82:0.394184 83:0.0463211 84:0.0966385 85:0.00508624 86:0 87:0 88:0 89:0 90:0.418432 91:0.00550569 92:0.0165171 93:0.385113 94:0.174428 95:0 96:0 97:0 98:0 99:0 100:0.00540863 101:0.0162259 102:0.654084 103:0.324278 104:0 105:0 106:0 107:0 108:0.115085 109:0.293855 110:0.331656 111:0.221446 112:0.0379535 113:0 114:0 115:0 116:0 117:0 118:0.147933 119:0.464551 120:0.373262 121:0.01425 122:0 123:0 124:0 125:0 126:0.24319 127:0.422882 128:0.202462 129:0.124881 130:0.00657269 131:0 132:0 133:0 134:0 135:0 136:0.0353127 137:0.189003 138:0.420623 139:0.355053 140:0 141:0 142:0 143:0 144:0 145:0.0148188 146:0.0444564 147:0.518274 148:0.422446 149:0 150:0 151:0 152:0 153:0 154:0.00617846 155:0.238443 156:0.681553 157:0.0738212 158:0 159:0 160:0 161:0 162:0.123345 163:0.249994 164:0.379948 165:0.234356 166:0.0123345 167:0 168:0 169:0 170:0 171:0 172:0 173:0 174:0 175:0 176:0 177:0 178:0 179:0 
1 0:0 1:0 2:0 3:0 4:0 5:0 6:0 7:0 8:0 9:0 10:0 11:0 12:0 13:0 14:0 15:0 16:0 17:0 18:0.999993 19:0 20:0 21:0 22:0 23:0 24:0 25:0 26:0 27:0 28:0 29:0 30:0 31:0 32:0 33:0 34:0 35:0 36:0 37:0 38:0 39:0 40:0 41:0 42:0 43:0 44:0 45:0.99999 46:0 47:0 48:0 49:0 50:0 51:0 52:0 53:0 54:0 55:0 56:0 57:0 58:0 59:0 60:0 61:0 62:0 63:0.999995 64:0 65:0 66:0 67:0 68:0 69:0 70:0 71:0 72:0 73:0.249954 74:0.749861 75:0 76:0 77:0 78:0 79:0 80:0 81:0 82:0.726956 83:0.0854257 84:0.178221 85:0.00938008 86:0 87:0 88:0 89:0 90:0.376927 91:0 92:0 93:0 94:0.4234 95:0.17983 96:0.0148787 97:0.00495957 98:0 99:0 100:0.0105882 101:0.0317646 102:0.640233 103:0.31741 104:0 105:0 106:0 107:0 108:0.123997 109:0.261848 110:0.303858 111:0.258347 112:0.0519446 113:0 114:0 115:0 116:0 117:0.0557489 118:0.236684 119:0.492033 120:0.175111 121:0.0404179 122:0 123:0 124:0 125:0 126:0.0332737 127:0.263665 128:0.532082 129:0.164319 130:0.00665474 131:0 132:0 133:0 134:0 135:0 136:0 137:0 138:0 139:0 140:0 141:0 142:0 143:0 144:0 145:0 146:0 147:0 148:0 149:0 150:0 151:0 152:0 153:0.0665474 154:0.296938 155:0.532082 156:0.101099 157:0.00332737 158:0 159:0 160:0 161:0 162:0.0772941 163:0.116976 164:0.376291 165:0.373393 166:0.0560383 167:0 168:0 169:0 170:0 171:0 172:0 173:0 174:0 175:0 176:0 177:0 178:0 179:0 
1 0:0 1:0 2:0 3:0 4:0 5:0 6:0 7:0 8:0 9:0 10:0 11:0 12:0 13:0 14:0 15:0 16:0 17:0 18:0.99999 19:0 20:0 21:0 22:0 23:0 24:0 25:0 26:0 27:0.848677 28:0.102982 29:0.0483288 30:0 31:0 32:0 33:0 34:0 35:0 36:0 37:0.629924 38:0.245695 39:0.118156 40:0.00621873 41:0 42:0 43:0 44:0 45:0 46:0 47:0 48:0 49:0 50:0 51:0 52:0 53:0 54:0 55:0 56:0 57:0 58:0 59:0 60:0 61:0 62:0 63:0.611803 64:0.266844 65:0.0545614 66:0.0634463 67:0.00333928 68:0 69:0 70:0 71:0 72:0.974985 73:0.0249996 74:0 75:0 76:0 77:0 78:0 79:0 80:0 81:0.999985 82:0 83:0 84:0 85:0 86:0 87:0 88:0 89:0 90:0.633917 91:0.00625576 92:0.0187673 93:0.244855 94:0.0961997 95:0 96:0 97:0 98:0 99:0 100:0.00740127 101:0.0222038 102:0.675545 103:0.294845 104:0 105:0 106:0 107:0 108:0.0433603 109:0.238191 110:0.563683 111:0.150425 112:0.00433603 113:0 114:0 115:0 116:0 117:0.039716 118:0.230672 119:0.326771 120:0.386664 121:0.0161701 122:0 123:0 124:0 125:0 126:0.531502 127:0.339331 128:0.129157 129:0 130:0 131:0 132:0 133:0 134:0 135:0.386876 136:0 137:0 138:0.347679 139:0.26544 140:0 141:0 142:0 143:0 144:0 145:0.0185948 146:0.0557844 147:0.551508 148:0.3741 149:0 150:0 151:0 152:0 153:0.0329798 154:0.1303 155:0.591428 156:0.241989 157:0.00329798 158:0 159:0 160:0 161:0 162:0 163:0.0383552 164:0.485649 165:0.466499 166:0.00949222 167:0 168:0 169:0 170:0 171:0 172:0.0813204 173:0.243961 174:0.640925 175:0.0337329 176:0 177:0 178:0 179:0 
1 0:0 1:0 2:0 3:0 4:0 5:0 6:0 7:0 8:0 9:0 10:0 11:0 12:0 13:0 14:0 15:0 16:0 17:0 18:0.298943 19:0 20:0 21:0 22:0 23:0 24:0.152109 25:0.427489 26:0.121453 27:0 28:0 29:0 30:0 31:0.0123345 32:0.234356 33:0.379948 34:0.249994 35:0.123345 36:0 37:0 38:0 39:0 40:0 41:0 42:0 43:0 44:0 45:0.99999 46:0 47:0 48:0 49:0 50:0 51:0 52:0 53:0 54:0 55:0 56:0 57:0 58:0 59:0 60:0 61:0 62:0 63:0.285227 64:0.184633 65:0.0776734 66:0.0903218 67:0.00950756 68:0.0903218 69:0.0776734 70:0.184633 71:0 72:0.564321 73:0.166756 74:0 75:0 76:0 77:0 78:0 79:0.166756 80:0.102161 81:0 82:0 83:0 84:0 85:0 86:0 87:0 88:0 89:0 90:0.633917 91:0 92:0 93:0 94:0.0961997 95:0.244855 96:0.0187673 97:0.00625576 98:0 99:0 100:0.0113635 101:0.0340906 102:0.687115 103:0.267422 104:0 105:0 106:0 107:0 108:0.152971 109:0.420763 110:0.253321 111:0.046696 112:0.126245 113:0 114:0 115:0 116:0 117:0.180642 118:0.295157 119:0.343543 120:0.17161 121:0.00903211 122:0 123:0 124:0 125:0 126:0 127:0.581806 128:0.325163 129:0.0883714 130:0.00465112 131:0 132:0 133:0 134:0 135:0.386876 136:0 137:0 138:0 139:0.26544 140:0.347679 141:0 142:0 143:0 144:0 145:0.00991182 146:0.0297355 147:0.599335 148:0.361011 149:0 150:0 151:0 152:0 153:0.0838311 154:0.12425 155:0.121256 156:0.2976 157:0.373048 158:0 159:0 160:0 161:0 162:0 163:0.0927964 164:0.479233 165:0.411824 166:0.0161426 167:0 168:0 169:0 170:0 171:0.0520441 172:0.164729 173:0.515794 174:0.257014 175:0.0104088 176:0 177:0 178:0 179:0 
1 0:0 1:0 2:0 3:0 4:0 5:0 6:0 7:0 8:0 9:0 10:0 11:0 12:0 13:0 14:0 15:0 16:0 17:0 18:0.99998 19:0 20:0 21:0 22:0 23:0 24:0 25:0 26:0 27:0.99999 28:0 29:0 30:0 31:0 32:0 33:0 34:0 35:0 36:0 37:0 38:0 39:0 40:0 41:0 42:0 43:0 44:0 45:0 46:0 47:0 48:0 49:0 50:0 51:0 52:0 53:0 54:0 55:0 56:0 57:0 58:0 59:0 60:0 61:0 62:0 63:0 64:0 65:0 66:0 67:0 68:0 69:0.121254 70:0.258375 71:0.620341 72:0.192816 73:0 74:0 75:0 76:0.00423439 77:0.0804534 78:0.182608 79:0.461548 80:0.0783362 81:0 82:0 83:0 84:0 85:0 86:0 87:0 88:0 89:0 90:0 91:0 92:0 93:0 94:0.621555 95:0.333135 96:0.0339762 97:0.0113254 98:0 99:0 100:0 101:0 102:0 103:0.999993 104:0 105:0 106:0 107:0 108:0 109:0.0365211 110:0.264318 111:0.309825 112:0.389331 113:0 114:0 115:0 116:0 117:0.0841247 118:0.272857 119:0.428439 120:0.210028 121:0.00454728 122:0 123:0 124:0 125:0 126:0 127:0 128:0 129:0.316657 130:0.366656 131:0.316657 132:0 133:0 134:0 135:0 136:0 137:0 138:0 139:0.363419 140:0.308036 141:0.203538 142:0.0837014 143:0.0412976 144:0 145:0 146:0 147:0 148:0.999985 149:0 150:0 151:0 152:0 153:0.0309391 154:0.0627068 155:0.152485 156:0.289556 157:0.464307 158:0 159:0 160:0 161:0 162:0 163:0.0123682 164:0.209802 165:0.581903 166:0.195922 167:0 168:0 169:0 170:0 171:0.100927 172:0 173:0 174:0.3174 175:0.067169 176:0.109454 177:0.148665 178:0.163804 179:0.0925749 
1 0:0 1:0 2:0 3:0 4:0 5:0 6:0 7:0 8:0 9:0 10:0 11:0 12:0 13:0 14:0 15:0 16:0 17:0 18:0.99999 19:0 20:0 21:0 22:0 23:0 24:0 25:0 26:0 27:0.99998 28:0 29:0 30:0 31:0 32:0 33:0 34:0 35:0 36:0.99998 37:0 38:0 39:0 40:0 41:0 42:0 43:0 44:0 45:0.99999 46:0 47:0 48:0 49:0 50:0 51:0 52:0 53:0 54:0 55:0 56:0 57:0 58:0 59:0 60:0 61:0 62:0 63:0.221719 64:0.492852 65:0.194993 66:0.08591 67:0.00452158 68:0 69:0 70:0 71:0 72:0.747395 73:0.171909 74:0.0806757 75:0 76:0 77:0 78:0 79:0 80:0 81:0.999985 82:0 83:0 84:0 85:0 86:0 87:0 88:0 89:0 90:0.472048 91:0 92:0 93:0 94:0.527948 95:0 96:0 97:0 98:0 99:0 100:0.00566273 101:0.0169882 102:0.479486 103:0.497859 104:0 105:0 106:0 107:0 108:0.122313 109:0.371633 110:0.373817 111:0.128925 112:0.00330577 113:0 114:0 115:0 116:0 117:0 118:0.205585 119:0.337819 120:0.43826 121:0.0183278 122:0 123:0 124:0 125:0 126:0.531502 127:0.339331 128:0.129157 129:0 130:0 131:0 132:0 133:0 134:0 135:0.999985 136:0 137:0 138:0 139:0 140:0 141:0 142:0 143:0 144:0.123345 145:0.249994 146:0.379948 147:0.234356 148:0.0123345 149:0 150:0 151:0 152:0 153:0 154:0.0219931 155:0.156927 156:0.696215 157:0.124861 158:0 159:0 160:0 161:0 162:0 163:0.0155978 164:0.264585 165:0.693237 166:0.0265741 167:0 168:0 169:0 170:0 171:0 172:0.0813204 173:0.243961 174:0.640925 175:0.0337329 176:0 177:0 178:0 179:0 
1 0:0 1:0 2:0 3:0 4:0 5:0 6:0 7:0 8:0 9:0 10:0 11:0 12:0 13:0 14:0 15:0 16:0 17:0 18:0.999993 19:0 20:0 21:0 22:0 23:0 24:0 25:0 26:0 27:0 28:0 29:0 30:0 31:0 32:0 33:0 34:0 35:0 36:0 37:0 38:0 39:0 40:0.0337329 41:0.640925 42:0.243961 43:0.0813204 44:0 45:0 46:0 47:0 48:0 49:0 50:0 51:0 52:0 53:0 54:0 55:0 56:0 57:0 58:0 59:0 60:0 61:0 62:0 63:0.397782 64:0 65:0 66:0 67:0 68:0 69:0.130664 70:0.367219 71:0.10433 72:0.336252 73:0 74:0 75:0 76:0.00818701 77:0.155553 78:0.252189 79:0.165933 80:0.0818701 81:0 82:0 83:0 84:0 85:0 86:0 87:0 88:0 89:0 90:0 91:0 92:0 93:0 94:0.393031 95:0.606964 96:0 97:0 98:0 99:0 100:0.00609753 101:0.0182926 102:0.647603 103:0.124254 104:0.179358 105:0.0182926 106:0.00609753 107:0 108:0.0419474 109:0.170692 110:0.386796 111:0.179138 112:0.221422 113:0 114:0 115:0 116:0 117:0.110234 118:0.249995 119:0.419283 120:0.209445 121:0.0110234 122:0 123:0 124:0 125:0 126:0.142994 127:0.548167 128:0.154243 129:0.146859 130:0.00772941 131:0 132:0 133:0 134:0 135:0 136:0 137:0 138:0 139:0.0180642 140:0.34322 141:0.343543 142:0.204835 143:0.0903211 144:0.0838311 145:0.12425 146:0.121256 147:0.2976 148:0.234727 149:0.138321 150:0 151:0 152:0 153:0 154:0.0321166 155:0.171897 156:0.237444 157:0.558536 158:0 159:0 160:0 161:0 162:0 163:0.00634098 164:0.196101 165:0.596662 166:0.200891 167:0 168:0 169:0 170:0 171:0 172:0.0685392 173:0.358802 174:0.548028 175:0.024624 176:0 177:0 178:0 179:0 
1 0:0 1:0 2:0 3:0 4:0 5:0 6:0 7:0 8:0 9:0 10:0 11:0 12:0 13:0 14:0 15:0 16:0 17:0 18:0.99998 19:0 20:0 21:0 22:0 23:0 24:0 25:0 26:0 27:0.99999 28:0 29:0 30:0 31:0 32:0 33:0 34:0 35:0 36:0 37:0 38:0 39:0 40:0 41:0 42:0 43:0 44:0 45:0.99999 46:0 47:0 48:0 49:0 50:0 51:0 52:0 53:0 54:0 55:0 56:0 57:0 58:0 59:0 60:0 61:0 62:0 63:0.999985 64:0 65:0 66:0 67:0 68:0 69:0 70:0 71:0 72:0.999993 73:0 74:0 75:0 76:0 77:0 78:0 79:0 80:0 81:0 82:0 83:0 84:0 85:0 86:0 87:0 88:0 89:0 90:0.999993 91:0 92:0 93:0 94:0 95:0 96:0 97:0 98:0 99:0 100:0 101:0 102:0 103:0 104:0 105:0 106:0 107:0 108:0.633328 109:0.332573 110:0.0340906 111:0 112:0 113:0 114:0 115:0 116:0 117:0.654233 118:0.288557 119:0.057203 120:0 121:0 122:0 123:0 124:0 125:0 126:0 127:0.726956 128:0.0854257 129:0.178221 130:0.00938008 131:0 132:0 133:0 134:0 135:0.462577 136:0 137:0 138:0 139:0.334038 140:0.179034 141:0.0182596 142:0.00608654 143:0 144:0 145:0 146:0 147:0 148:0.999993 149:0 150:0 151:0 152:0 153:0 154:0.226776 155:0.236407 156:0.497729 157:0.0390837 158:0 159:0 160:0 161:0 162:0.674908 163:0.259116 164:0.0659598 165:0 166:0 167:0 168:0 169:0 170:0 171:0.122448 172:0.510565 173:0.285348 174:0.0775505 175:0.0040816 176:0 177:0 178:0 179:0 
1 0:0 1:0 2:0 3:0 4:0 5:0 6:0 7:0 8:0 9:0 10:0 11:0 12:0 13:0 14:0 15:0 16:0 17:0 18:0.99999 19:0 20:0 21:0 22:0 23:0 24:0 25:0 26:0 27:0.99998 28:0 29:0 30:0 31:0 32:0 33:0 34:0 35:0 36:0.99998 37:0 38:0 39:0 40:0 41:0 42:0 43:0 44:0 45:0.99999 46:0 47:0 48:0 49:0 50:0 51:0 52:0 53:0 54:0 55:0 56:0 57:0 58:0 59:0 60:0 61:0 62:0 63:0.999993 64:0 65:0 66:0 67:0 68:0 69:0 70:0 71:0 72:0.999985 73:0 74:0 75:0 76:0 77:0 78:0 79:0 80:0 81:0.999985 82:0 83:0 84:0 85:0 86:0 87:0 88:0 89:0 90:0.999993 91:0 92:0 93:0 94:0 95:0 96:0 97:0 98:0 99:0 100:0.0342635 101:0.244921 102:0.691869 103:0.0289336 104:0 105:0 106:0 107:0 108:0.0401432 109:0.371235 110:0.485482 111:0.0991215 112:0.00401432 113:0 114:0 115:0 116:0 117:0.212403 118:0.529521 119:0.200665 120:0.0545359 121:0.00287031 122:0 123:0 124:0 125:0 126:0.36784 127:0.353232 128:0.169116 129:0.104313 130:0.00549014 131:0 132:0 133:0 134:0 135:0.182691 136:0 137:0 138:0 139:0.817303 140:0 141:0 142:0 143:0 144:0 145:0.00650599 146:0.147228 147:0.760237 148:0.0860237 149:0 150:0 151:0 152:0 153:0.26632 154:0.145628 155:0.300125 156:0.280716 157:0.00719785 158:0 159:0 160:0 161:0 162:0.0970487 163:0.571801 164:0.226228 165:0.0996717 166:0.00524588 167:0 168:0 169:0 170:0 171:0 172:0 173:0 174:0 175:0 176:0 177:0 178:0 179:0 
1 0:0 1:0 2:0 3:0 4:0 5:0 6:0 7:0 8:0 9:0 10:0 11:0 12:0 13:0 14:0 15:0 16:0 17:0 18:0.99999 19:0 20:0 21:0 22:0 23:0 24:0 25:0 26:0 27:0.835808 28:0.10373 29:0.0604469 30:0 31:0 32:0 33:0 34:0 35:0 36:0 37:0.581806 38:0.325163 39:0.0883714 40:0.00465112 41:0 42:0 43:0 44:0 45:0.999971 46:0 47:0 48:0 49:0 50:0 51:0 52:0 53:0 54:0 55:0 56:0 57:0 58:0 59:0 60:0 61:0 62:0 63:0.611803 64:0.266844 65:0.0545614 66:0.0634463 67:0.00333928 68:0 69:0 70:0 71:0 72:0.793741 73:0.0812491 74:0 75:0 76:0 77:0 78:0 79:0.0624993 80:0.0624993 81:0.120289 82:0.193115 83:0.246737 84:0 85:0 86:0 87:0.246737 88:0.193115 89:0 90:0.401398 91:0 92:0 93:0 94:0.598596 95:0 96:0 97:0 98:0 99:0.0272637 100:0.0766793 101:0.372442 102:0.187876 103:0.335734 104:0 105:0 106:0 107:0 108:0.0243795 109:0.116347 110:0.462231 111:0.382062 112:0.014976 113:0 114:0 115:0 116:0 117:0.162637 118:0.52074 119:0.228708 120:0.0835162 121:0.00439559 122:0 123:0 124:0 125:0 126:0.0520441 127:0.164729 128:0.515794 129:0.257014 130:0.0104088 131:0 132:0 133:0 134:0 135:0 136:0 137:0 138:0 139:0.999993 140:0 141:0 142:0 143:0 144:0 145:0 146:0 147:0.408331 148:0.591664 149:0 150:0 151:0 152:0 153:0 154:0 155:0 156:0.401175 157:0.598821 158:0 159:0 160:0 161:0 162:0.0358283 163:0.105725 164:0.346607 165:0.489824 166:0.0220088 167:0 168:0 169:0 170:0 171:0 172:0 173:0 174:0 175:0 176:0 177:0 178:0 179:0 
1 0:0 1:0 2:0 3:0 4:0 5:0 6:0 7:0 8:0 9:0 10:0 11:0 12:0 13:0 14:0 15:0 16:0 17:0 18:0.999993 19:0 20:0 21:0 22:0 23:0 24:0 25:0 26:0 27:0 28:0 29:0 30:0 31:0 32:0 33:0 34:0 35:0 36:0 37:0 38:0 39:0 40:0 41:0 42:0 43:0 44:0 45:0.99999 46:0 47:0 48:0 49:0 50:0 51:0 52:0 53:0 54:0 55:0 56:0 57:0 58:0 59:0 60:0 61:0 62:0 63:0.999995 64:0 65:0 66:0 67:0 68:0 69:0 70:0 71:0 72:0 73:0.249954 74:0.749861 75:0 76:0 77:0 78:0 79:0 80:0 81:0 82:0.726956 83:0.0854257 84:0.178221 85:0.00938008 86:0 87:0 88:0 89:0 90:0.376927 91:0 92:0 93:0 94:0.4234 95:0.17983 96:0.0148787 97:0.00495957 98:0 99:0 100:0.00566273 101:0.0169882 102:0.479486 103:0.497859 104:0 105:0 106:0 107:0 108:0.126341 109:0.375638 110:0.361431 111:0.13317 112:0.00341461 113:0 114:0 115:0 116:0 117:0.211574 118:0.457231 119:0.241156 120:0.0855299 121:0.00450157 122:0 123:0 124:0 125:0 126:0.109629 127:0.554124 128:0.276983 129:0.056296 130:0.00296295 131:0 132:0 133:0 134:0 135:0 136:0 137:0 138:0 139:0 140:0 141:0 142:0 143:0 144:0 145:0 146:0 147:0 148:0 149:0 150:0 151:0 152:0 153:0.337329 154:0.418649 155:0.243961 156:0 157:0 158:0 159:0 160:0 161:0 162:0.167711 163:0.57281 164:0.207065 165:0.0497892 166:0.00262048 167:0 168:0 169:0 170:0 171:0 172:0.0813204 173:0.243961 174:0.640925 175:0.0337329 176:0 177:0 178:0 179:0 
1 0:0 1:0 2:0 3:0 4:0 5:0 6:0 7:0 8:0 9:0 10:0 11:0 12:0 13:0 14:0 15:0 16:0 17:0 18:0.99999 19:0 20:0 21:0 22:0 23:0 24:0 25:0 26:0 27:0.99998 28:0 29:0 30:0 31:0 32:0 33:0 34:0 35:0 36:0 37:0 38:0 39:0 40:0 41:0 42:0 43:0 44:0 45:0.99999 46:0 47:0 48:0 49:0 50:0 51:0 52:0 53:0 54:0 55:0 56:0 57:0 58:0 59:0 60:0 61:0 62:0 63:0.360271 64:0.374876 65:0.21032 66:0.0518011 67:0.00272637 68:0 69:0 70:0 71:0 72:0.789886 73:0.167472 74:0.0426311 75:0 76:0 77:0 78:0 79:0 80:0 81:0.0853221 82:0.576178 83:0.224732 84:0.108075 85:0.00568814 86:0 87:0 88:0 89:0 90:0.249998 91:0 92:0 93:0 94:0.749995 95:0 96:0 97:0 98:0 99:0 100:0.00609203 101:0.0182761 102:0.647019 103:0.328609 104:0 105:0 106:0 107:0 108:0.154216 109:0.382249 110:0.240425 111:0.185757 112:0.0373492 113:0 114:0 115:0 116:0 117:0.0295513 118:0.336146 119:0.482451 120:0.145936 121:0.00591026 122:0 123:0 124:0 125:0 126:0.36784 127:0.353232 128:0.169116 129:0.104313 130:0.00549014 131:0 132:0 133:0 134:0 135:0.404251 136:0 137:0 138:0 139:0.595738 140:0 141:0 142:0 143:0 144:0.0710651 145:0.161165 146:0.270301 147:0.387305 148:0.110151 149:0 150:0 151:0 152:0 153:0 154:0.0293962 155:0.297111 156:0.424407 157:0.24908 158:0 159:0 160:0 161:0 162:0.0340631 163:0.126368 164:0.586219 165:0.249938 166:0.00340631 167:0 168:0 169:0 170:0 171:0 172:0 173:0 174:0 175:0 176:0 177:0 178:0 179:0 
1 0:0 1:0 2:0 3:0 4:0 5:0 6:0 7:0 8:0 9:0 10:0 11:0 12:0 13:0 14:0 15:0 16:0 17:0 18:0.374992 19:0 20:0 21:0 22:0 23:0 24:0 25:0.162496 26:0.46249 27:0.199765 28:0 29:0 30:0 31:0.00327101 32:0.0621492 33:0.252335 34:0.449764 35:0.0327101 36:0 37:0 38:0 39:0 40:0 41:0 42:0 43:0 44:0 45:0 46:0 47:0 48:0 49:0 50:0 51:0.121254 52:0.258375 53:0.620341 54:0.999941 55:0 56:0 57:0 58:0 59:0 60:0 61:0 62:0 63:0 64:0 65:0 66:0 67:0 68:0 69:0.749861 70:0.249954 71:0 72:0.666664 73:0 74:0 75:0 76:0.00244008 77:0.0463615 78:0.0222221 79:0.196426 80:0.0658821 81:0 82:0 83:0 84:0 85:0 86:0 87:0 88:0 89:0 90:0 91:0 92:0 93:0 94:0.00519476 95:0.206306 96:0.511823 97:0.276667 98:0 99:0.861516 100:0 101:0 102:0 103:0 104:0 105:0.103843 106:0.0346145 107:0 108:0 109:0.249954 110:0.749861 111:0 112:0 113:0 114:0 115:0 116:0 117:0.287892 118:0.0548113 119:0.138004 120:0.0471838 121:0.00248336 122:0 123:0.0226163 124:0.19991 125:0.247094 126:0.297554 127:0 128:0 129:0 130:0.0136582 131:0.259506 132:0.0987781 133:0.032926 134:0.297554 135:0 136:0 137:0 138:0 139:0.00412976 140:0.359437 141:0.585173 142:0.0512533 143:0 144:0 145:0 146:0 147:0 148:0.772534 149:0.227462 150:0 151:0 152:0 153:0 154:0 155:0 156:0.227462 157:0.772534 158:0 159:0 160:0 161:0 162:0 163:0.0155978 164:0.264585 165:0.693237 166:0.0265741 167:0 168:0 169:0 170:0 171:0.0903211 172:0.204835 173:0.343543 174:0.34322 175:0.0180642 176:0 177:0 178:0 179:0 
1 0:0 1:0 2:0 3:0 4:0 5:0 6:0 7:0 8:0 9:0 10:0 11:0 12:0 13:0 14:0 15:0 16:0 17:0 18:0.402863 19:0 20:0 21:0 22:0 23:0 24:0.145678 25:0.249991 26:0.201432 27:0.211476 28:0 29:0 30:0 31:0.00297554 32:0.0565353 33:0.208022 34:0.41089 35:0.110095 36:0 37:0 38:0 39:0 40:0 41:0 42:0 43:0 44:0 45:0 46:0 47:0 48:0 49:0 50:0 51:0 52:0 53:0 54:0 55:0 56:0 57:0 58:0 59:0 60:0 61:0 62:0 63:0.126123 64:0.666201 65:0.207653 66:0 67:0 68:0 69:0 70:0 71:0 72:0.268613 73:0.347208 74:0.30028 75:0.0797001 76:0.00419474 77:0 78:0 79:0 80:0 81:0 82:0 83:0 84:0 85:0 86:0 87:0 88:0 89:0 90:0 91:0 92:0 93:0 94:0.679536 95:0.288619 96:0.0238796 97:0.00795986 98:0 99:0 100:0.00566273 101:0.0169882 102:0.479486 103:0.497859 104:0 105:0 106:0 107:0 108:0 109:0.03527 110:0.150893 111:0.508276 112:0.305557 113:0 114:0 115:0 116:0 117:0.0287916 118:0.191721 119:0.291052 120:0.429201 121:0.0592285 122:0 123:0 124:0 125:0 126:0 127:0.00667983 128:0.20658 129:0.755464 130:0.0312715 131:0 132:0 133:0 134:0 135:0 136:0.00946697 137:0.0284009 138:0.662197 139:0.299928 140:0 141:0 142:0 143:0 144:0 145:0 146:0 147:0.227462 148:0.772534 149:0 150:0 151:0 152:0 153:0 154:0 155:0 156:0.467401 157:0.532595 158:0 159:0 160:0 161:0 162:0 163:0.01767 164:0.126308 165:0.735466 166:0.120549 167:0 168:0 169:0 170:0 171:0 172:0.0813204 173:0.243961 174:0.640925 175:0.0337329 176:0 177:0 178:0 179:0 
1 0:0 1:0 2:0 3:0 4:0 5:0 6:0 7:0 8:0 9:0 10:0 11:0 12:0 13:0 14:0 15:0 16:0 17:0 18:0.571425 19:0 20:0 21:0 22:0.00313724 23:0.0596075 24:0.0285713 25:0.252548 26:0.0847054 27:0 28:0 29:0 30:0 31:0 32:0 33:0.749861 34:0.249954 35:0 36:0.99998 37:0 38:0 39:0 40:0 41:0 42:0 43:0 44:0 45:0.99999 46:0 47:0 48:0 49:0 50:0 51:0 52:0 53:0 54:0 55:0 56:0 57:0 58:0 59:0 60:0 61:0 62:0 63:0.144731 64:0.189377 65:0.0387218 66:0.0450273 67:0.00473972 68:0.0450273 69:0.182818 70:0.325856 71:0.0236986 72:0.427774 73:0.0166665 74:0 75:0 76:0 77:0 78:0 79:0.088888 80:0.466662 81:0.355163 82:0 83:0 84:0 85:0.0037812 86:0.0718429 87:0.034436 88:0.293043 89:0.241727 90:0.222945 91:0 92:0 93:0 94:0.482983 95:0.258864 96:0.0264014 97:0.00880046 98:0 99:0 100:0.0076357 101:0.0229071 102:0.534103 103:0.435348 104:0 105:0 106:0 107:0 108:0.0433603 109:0.238191 110:0.563683 111:0.150425 112:0.00433603 113:0 114:0 115:0 116:0 117:0.131305 118:0.21676 119:0.291982 120:0.345498 121:0.0144486 122:0 123:0 124:0 125:0 126:0.258579 127:0.538108 128:0.126119 129:0.0733282 130:0.00385938 131:0 132:0 133:0 134:0 135:0.337941 136:0 137:0 138:0 139:0.406715 140:0.0913034 141:0.0400194 142:0.0686752 143:0.0553354 144:0.0309391 145:0.0627068 146:0.152485 147:0.289556 148:0.464307 149:0 150:0 151:0 152:0 153:0 154:0.0365211 155:0.264318 156:0.309825 157:0.389331 158:0 159:0 160:0 161:0 162:0 163:0.0383552 164:0.485649 165:0.466499 166:0.00949222 167:0 168:0 169:0 170:0 171:0 172:0.0813204 173:0.243961 174:0.640925 175:0.0337329 176:0 177:0 178:0 179:0 
1 0:0 1:0 2:0 3:0 4:0 5:0 6:0 7:0 8:0 9:0 10:0 11:0 12:0 13:0 14:0 15:0 16:0 17:0 18:0.999993 19:0 20:0 21:0 22:0 23:0 24:0 25:0 26:0 27:0.620341 28:0.258375 29:0.121254 30:0 31:0 32:0 33:0 34:0 35:0 36:0 37:0.629924 38:0.245695 39:0.118156 40:0.00621873 41:0 42:0 43:0 44:0 45:0 46:0 47:0 48:0 49:0 50:0 51:0 52:0 53:0 54:0 55:0 56:0 57:0 58:0 59:0 60:0 61:0 62:0 63:0.999995 64:0 65:0 66:0 67:0 68:0 69:0 70:0 71:0 72:0 73:0 74:0 75:0 76:0 77:0 78:0 79:0 80:0 81:0.999985 82:0 83:0 84:0 85:0 86:0 87:0 88:0 89:0 90:0.999993 91:0 92:0 93:0 94:0 95:0 96:0 97:0 98:0 99:0.337329 100:0.418649 101:0.243961 102:0 103:0 104:0 105:0 106:0 107:0 108:0.490094 109:0.308825 110:0.156349 111:0.0424918 112:0.00223641 113:0 114:0 115:0 116:0 117:0 118:0.516615 119:0.217334 120:0.252726 121:0.0133013 122:0 123:0 124:0 125:0 126:0.726378 127:0.273611 128:0 129:0 130:0 131:0 132:0 133:0 134:0 135:0.90771 136:0.0583049 137:0.0339762 138:0 139:0 140:0 141:0 142:0 143:0 144:0 145:0.0927964 146:0.479233 147:0.411824 148:0.0161426 149:0 150:0 151:0 152:0 153:0.0495571 154:0.168804 155:0.526986 156:0.244732 157:0.00991142 158:0 159:0 160:0 161:0 162:0.173243 163:0.609778 164:0.216971 165:0 166:0 167:0 168:0 169:0 170:0 171:0.587131 172:0.117737 173:0.17894 174:0.110372 175:0.00580907 176:0 177:0 178:0 179:0 
1 0:0 1:0 2:0 3:0 4:0 5:0 6:0 7:0 8:0 9:0.139482 10:0.227673 11:0 12:0 13:0 14:0 15:0.12177 16:0.319923 17:0.191142 18:0 19:0.0382421 20:0.114726 21:0.119255 22:0.152849 23:0.0638269 24:0.179963 25:0.297539 26:0.0335931 27:0 28:0.249954 29:0.749861 30:0 31:0 32:0 33:0 34:0 35:0 36:0 37:0 38:0 39:0 40:0 41:0 42:0 43:0 44:0 45:0 46:0 47:0 48:0 49:0 50:0 51:0 52:0 53:0 54:0 55:0.0406614 56:0.121984 57:0.320472 58:0.0337339 59:0.320472 60:0.121984 61:0.0406614 62:0 63:0.174461 64:0.0473272 65:0.212972 66:0.0631586 67:0.00415737 68:0.0631586 69:0.212972 70:0.0473272 71:0.174461 72:0.258917 73:0.0602652 74:0.180796 75:0 76:0 77:0 78:0.180796 79:0.0602652 80:0.258917 81:0.24319 82:0.422882 83:0.202462 84:0.124881 85:0.00657269 86:0 87:0 88:0 89:0 90:0 91:0 92:0 93:0 94:0.999993 95:0 96:0 97:0 98:0 99:0 100:0.0100111 101:0.169818 102:0.747606 103:0.0725618 104:0 105:0 106:0 107:0 108:0.056737 109:0.167425 110:0.54888 111:0.221274 112:0.0056737 113:0 114:0 115:0 116:0 117:0 118:0.0608094 119:0.434675 120:0.491881 121:0.0126123 122:0 123:0 124:0 125:0 126:0.0553073 127:0.417927 128:0.219891 129:0.291523 130:0.0153433 131:0 132:0 133:0 134:0 135:0.399998 136:0 137:0 138:0 139:0.599997 140:0 141:0 142:0 143:0 144:0 145:0 146:0 147:0 148:0.999993 149:0 150:0 151:0 152:0 153:0 154:0.00880046 155:0.0264014 156:0.258864 157:0.705928 158:0 159:0 160:0 161:0 162:0 163:0.00565324 164:0.285803 165:0.684419 166:0.0241205 167:0 168:0 169:0 170:0 171:0.429516 172:0.190712 173:0 174:0.270976 175:0.108788 176:0 177:0 178:0 179:0 
1 0:0 1:0 2:0 3:0 4:0 5:0 6:0 7:0 8:0 9:0 10:0 11:0 12:0 13:0 14:0 15:0 16:0 17:0 18:0.99999 19:0 20:0 21:0 22:0 23:0 24:0 25:0 26:0 27:0.99998 28:0 29:0 30:0 31:0 32:0 33:0 34:0 35:0 36:0 37:0 38:0 39:0 40:0 41:0 42:0 43:0 44:0 45:0.949991 46:0 47:0 48:0 49:0 50:0 51:0.0374997 52:0.0124999 53:0 54:0 55:0.0813204 56:0.243961 57:0.640925 58:0.0337329 59:0 60:0 61:0 62:0 63:0.307829 64:0.23841 65:0.248536 66:0.197479 67:0.00774074 68:0 69:0 70:0 71:0 72:0.881804 73:0.11818 74:0 75:0 76:0 77:0 78:0 79:0 80:0 81:0 82:0 83:0 84:0 85:0 86:0 87:0 88:0 89:0 90:0.435945 91:0 92:0 93:0.00277246 94:0.288909 95:0.0384639 96:0.16571 97:0.0503504 98:0.0178457 99:0 100:0.00971919 101:0.300575 102:0.666952 103:0.0227501 104:0 105:0 106:0 107:0 108:0 109:0.0306584 110:0.377363 111:0.574712 112:0.0172595 113:0 114:0 115:0 116:0 117:0 118:0.0306584 119:0.377363 120:0.574712 121:0.0172595 122:0 123:0 124:0 125:0 126:0 127:0.282411 128:0.279949 129:0.418816 130:0.0188183 131:0 132:0 133:0 134:0 135:0.667956 136:0 137:0 138:0.0113279 139:0.203902 140:0.0113279 141:0.0791 142:0.0263667 143:0 144:0 145:0.249954 146:0.749861 147:0 148:0 149:0 150:0 151:0 152:0 153:0.0340631 154:0.126368 155:0.586219 156:0.249938 157:0.00340631 158:0 159:0 160:0 161:0 162:0 163:0.0383552 164:0.485649 165:0.466499 166:0.00949222 167:0 168:0 169:0 170:0 171:0 172:0.0813204 173:0.243961 174:0.640925 175:0.0337329 176:0 177:0 178:0 179:0 
0.2265481858030777 0:0 1:0 2:0 3:0 4:0 5:0 6:0 7:0 8:0 9:0 10:0 11:0 12:0 13:0 14:0 15:0 16:0 17:0 18:0.99999 19:0 20:0 21:0 22:0 23:0 24:0 25:0 26:0 27:0.99998 28:0 29:0 30:0 31:0 32:0 33:0 34:0 35:0 36:0 37:0 38:0 39:0 40:0 41:0 42:0 43:0 44:0 45:0.99999 46:0 47:0 48:0 49:0 50:0 51:0 52:0 53:0 54:0 55:0 56:0 57:0 58:0 59:0 60:0 61:0 62:0 63:0.360271 64:0.374876 65:0.21032 66:0.0518011 67:0.00272637 68:0 69:0 70:0 71:0 72:0.766231 73:0.181967 74:0.0517896 75:0 76:0 77:0 78:0 79:0 80:0 81:0 82:0.581806 83:0.325163 84:0.0883714 85:0.00465112 86:0 87:0 88:0 89:0 90:0.308942 91:0 92:0 93:0 94:0.691054 95:0 96:0 97:0 98:0 99:0 100:0.0105882 101:0.0317646 102:0.640233 103:0.31741 104:0 105:0 106:0 107:0 108:0.0279022 109:0.122944 110:0.514571 111:0.291329 112:0.0432484 113:0 114:0 115:0 116:0 117:0.0419474 118:0.237827 119:0.569005 120:0.147022 121:0.00419474 122:0 123:0 124:0 125:0 126:0.0520441 127:0.164729 128:0.515794 129:0.257014 130:0.0104088 131:0 132:0 133:0 134:0 135:0 136:0 137:0 138:0 139:0.99999 140:0 141:0 142:0 143:0 144:0 145:0.0076357 146:0.0229071 147:0.534103 148:0.435348 149:0 150:0 151:0 152:0 153:0 154:0 155:0.125159 156:0.543092 157:0.331745 158:0 159:0 160:0 161:0 162:0 163:0.0899232 164:0.584501 165:0.319498 166:0.00606711 167:0 168:0 169:0 170:0 171:0 172:0 173:0 174:0 175:0 176:0 177:0 178:0 179:0 
1 0:0 1:0 2:0 3:0 4:0 5:0 6:0 7:0 8:0 9:0 10:0 11:0 12:0 13:0 14:0 15:0 16:0 17:0 18:0 19:0 20:0 21:0 22:0 23:0 24:0 25:0 26:0 27:0.99998 28:0 29:0 30:0 31:0 32:0 33:0 34:0 35:0 36:0.99999 37:0 38:0 39:0 40:0 41:0 42:0 43:0 44:0 45:0 46:0 47:0 48:0 49:0 50:0 51:0 52:0 53:0 54:0 55:0 56:0 57:0 58:0 59:0 60:0 61:0 62:0 63:0 64:0 65:0 66:0 67:0 68:0 69:0 70:0 71:0 72:0.999985 73:0 74:0 75:0 76:0 77:0 78:0 79:0 80:0 81:0.999993 82:0 83:0 84:0 85:0 86:0 87:0 88:0 89:0 90:0 91:0 92:0 93:0 94:0.393031 95:0.606964 96:0 97:0 98:0 99:0 100:0.00794113 101:0.0238234 102:0.233587 103:0.469291 104:0.233587 105:0.0238234 106:0.00794113 107:0 108:0 109:0 110:0 111:0.467401 112:0.532595 113:0 114:0 115:0 116:0 117:0 118:0.0980633 119:0.161138 120:0.481248 121:0.259547 122:0 123:0 124:0 125:0 126:0.140188 127:0.23464 128:0.165087 129:0.440863 130:0.019215 131:0 132:0 133:0 134:0 135:0 136:0 137:0 138:0 139:0.865429 140:0.089261 141:0.0339762 142:0.0113254 143:0 144:0 145:0 146:0 147:0.0452939 148:0.909407 149:0.0452939 150:0 151:0 152:0 153:0 154:0.0158823 155:0.0476468 156:0.296175 157:0.64029 158:0 159:0 160:0 161:0 162:0 163:0 164:0 165:0.655019 166:0.344977 167:0 168:0 169:0 170:0 171:0 172:0.00929106 173:0.210253 174:0.74879 175:0.0316584 176:0 177:0 178:0 179:0 
1 0:0 1:0 2:0 3:0 4:0 5:0 6:0 7:0 8:0 9:0 10:0 11:0 12:0 13:0 14:0 15:0 16:0 17:0 18:0.999993 19:0 20:0 21:0 22:0 23:0 24:0 25:0 26:0 27:0 28:0 29:0 30:0 31:0 32:0 33:0 34:0 35:0 36:0.99998 37:0 38:0 39:0 40:0 41:0 42:0 43:0 44:0 45:0.99999 46:0 47:0 48:0 49:0 50:0 51:0 52:0 53:0 54:0 55:0 56:0 57:0 58:0 59:0 60:0 61:0 62:0 63:0.999995 64:0 65:0 66:0 67:0 68:0 69:0 70:0 71:0 72:0 73:0 74:0 75:0 76:0 77:0 78:0 79:0 80:0 81:0.999985 82:0 83:0 84:0 85:0 86:0 87:0 88:0 89:0 90:0.730765 91:0 92:0 93:0 94:0.269229 95:0 96:0 97:0 98:0 99:0.0381989 100:0.126193 101:0.333558 102:0.360434 103:0.141609 104:0 105:0 106:0 107:0 108:0.107516 109:0.388295 110:0.386641 111:0.112969 112:0.00457514 113:0 114:0 115:0 116:0 117:0.0580907 118:0.514517 119:0.3112 120:0.110372 121:0.00580907 122:0 123:0 124:0 125:0 126:0.531502 127:0.339331 128:0.129157 129:0 130:0 131:0 132:0 133:0 134:0 135:0.399998 136:0 137:0 138:0 139:0.599997 140:0 141:0 142:0 143:0 144:0 145:0.00991182 146:0.111967 147:0.53355 148:0.344564 149:0 150:0 151:0 152:0 153:0.0485685 154:0.155029 155:0.504983 156:0.281697 157:0.00971371 158:0 159:0 160:0 161:0 162:0.0246261 163:0.122801 164:0.472733 165:0.364708 166:0.0151275 167:0 168:0 169:0 170:0 171:0 172:0.0813204 173:0.243961 174:0.640925 175:0.0337329 176:0 177:0 178:0 179:0 
1 0:0 1:0 2:0 3:0 4:0 5:0 6:0 7:0 8:0 9:0 10:0 11:0 12:0 13:0 14:0 15:0 16:0 17:0 18:0.280393 19:0.421684 20:0.236581 21:0.0582691 22:0.0030668 23:0 24:0 25:0 26:0 27:0.782013 28:0.217958 29:0 30:0 31:0 32:0 33:0 34:0 35:0 36:0 37:0 38:0 39:0 40:0 41:0 42:0 43:0 44:0 45:0.99999 46:0 47:0 48:0 49:0 50:0 51:0 52:0 53:0 54:0 55:0 56:0 57:0 58:0 59:0 60:0 61:0 62:0 63:0.510697 64:0.203521 65:0.0230247 66:0.0480359 67:0.00252821 68:0 69:0 70:0 71:0.212189 72:0.339276 73:0.247016 74:0.241064 75:0 76:0 77:0 78:0 79:0 80:0.172614 81:0 82:0.581806 83:0.325163 84:0.0883714 85:0.00465112 86:0 87:0 88:0 89:0 90:0.399998 91:0 92:0 93:0 94:0.599997 95:0 96:0 97:0 98:0 99:0 100:0.0076357 101:0.0229071 102:0.534103 103:0.435348 104:0 105:0 106:0 107:0 108:0.33358 109:0.286534 110:0.275696 111:0.101581 112:0.00260464 113:0 114:0 115:0 116:0 117:0.107081 118:0.193023 119:0.297625 120:0.386116 121:0.0161472 122:0 123:0 124:0 125:0 126:0.258579 127:0.538108 128:0.126119 129:0.0733282 130:0.00385938 131:0 132:0 133:0 134:0 135:0.404251 136:0 137:0 138:0 139:0.595738 140:0 141:0 142:0 143:0 144:0.052336 145:0.106074 146:0.161213 147:0.285231 148:0.395137 149:0 150:0 151:0 152:0 153:0 154:0.0354771 155:0.309595 156:0.412708 157:0.242214 158:0 159:0 160:0 161:0 162:0 163:0.0383552 164:0.485649 165:0.466499 166:0.00949222 167:0 168:0 169:0 170:0 171:0 172:0.0813204 173:0.243961 174:0.640925 175:0.0337329 176:0 177:0 178:0 179:0 
1 0:0 1:0 2:0 3:0 4:0 5:0 6:0 7:0 8:0 9:0 10:0 11:0 12:0 13:0 14:0 15:0 16:0 17:0 18:0.747871 19:0.186153 20:0.0659598 21:0 22:0 23:0 24:0 25:0 26:0 27:0.899437 28:0.100554 29:0 30:0 31:0 32:0 33:0 34:0 35:0 36:0 37:0 38:0 39:0 40:0 41:0 42:0 43:0 44:0 45:0 46:0 47:0 48:0 49:0 50:0 51:0 52:0 53:0 54:0 55:0 56:0 57:0 58:0 59:0 60:0 61:0 62:0 63:0.462937 64:0.419767 65:0.0527374 66:0.0613253 67:0.00322765 68:0 69:0 70:0 71:0 72:0.641329 73:0.316385 74:0.0422751 75:0 76:0 77:0 78:0 79:0 80:0 81:0 82:0.0813204 83:0.243961 84:0.640925 85:0.0337329 86:0 87:0 88:0 89:0 90:0 91:0 92:0 93:0 94:0.146764 95:0.80029 96:0.0397057 97:0.0132352 98:0 99:0 100:0.00566273 101:0.0169882 102:0.479486 103:0.497859 104:0 105:0 106:0 107:0 108:0 109:0.0529093 110:0.413468 111:0.516377 112:0.0172413 113:0 114:0 115:0 116:0 117:0.068627 118:0.155943 119:0.324447 120:0.38039 121:0.0705878 122:0 123:0 124:0 125:0 126:0.0261559 127:0.114899 128:0.455509 129:0.387364 130:0.0160672 131:0 132:0 133:0 134:0 135:0 136:0 137:0 138:0 139:0.127901 140:0.840441 141:0.0237396 142:0.0079132 143:0 144:0 145:0.0076357 146:0.0229071 147:0.534103 148:0.435348 149:0 150:0 151:0 152:0 153:0 154:0 155:0 156:0.655019 157:0.344977 158:0 159:0 160:0 161:0 162:0 163:0.01767 164:0.126308 165:0.735466 166:0.120549 167:0 168:0 169:0 170:0 171:0 172:0.0813204 173:0.243961 174:0.640925 175:0.0337329 176:0 177:0 178:0 179:0 
1 0:0 1:0 2:0 3:0 4:0 5:0 6:0 7:0 8:0 9:0 10:0 11:0 12:0 13:0 14:0 15:0 16:0 17:0 18:0.747871 19:0.186153 20:0.0659598 21:0 22:0 23:0 24:0 25:0 26:0 27:0.899437 28:0.100554 29:0 30:0 31:0 32:0 33:0 34:0 35:0 36:0 37:0 38:0 39:0 40:0 41:0 42:0 43:0 44:0 45:0 46:0 47:0 48:0 49:0 50:0 51:0.749861 52:0.249954 53:0 54:0 55:0 56:0 57:0 58:0 59:0 60:0 61:0 62:0 63:0.462937 64:0.419767 65:0.0527374 66:0.0613253 67:0.00322765 68:0 69:0 70:0 71:0 72:0.641329 73:0.316385 74:0.0422751 75:0 76:0 77:0 78:0 79:0 80:0 81:0.123345 82:0.249994 83:0.379948 84:0.234356 85:0.0123345 86:0 87:0 88:0 89:0 90:0 91:0 92:0 93:0 94:0.0786889 95:0.692642 96:0.215935 97:0.0127298 98:0 99:0 100:0.0105882 101:0.0317646 102:0.640233 103:0.31741 104:0 105:0 106:0 107:0 108:0 109:0.0719413 110:0.308989 111:0.546406 112:0.0726597 113:0 114:0 115:0 116:0 117:0.0589161 118:0.073119 119:0.245264 120:0.381929 121:0.240767 122:0 123:0 124:0 125:0 126:0.0261803 127:0.230948 128:0.578539 129:0.159092 130:0.00523607 131:0 132:0 133:0 134:0 135:0 136:0.00847985 137:0.0254395 138:0.59315 139:0.0895723 140:0.249433 141:0.0254395 142:0.00847985 143:0 144:0 145:0 146:0 147:0.227462 148:0.772534 149:0 150:0 151:0 152:0 153:0 154:0 155:0.131414 156:0.351806 157:0.516776 158:0 159:0 160:0 161:0 162:0 163:0.0635859 164:0.354068 165:0.338972 166:0.243365 167:0 168:0 169:0 170:0 171:0.22769 172:0.381095 173:0.145053 174:0.233844 175:0.0123076 176:0 177:0 178:0 179:0 
1 0:0 1:0 2:0 3:0 4:0 5:0 6:0 7:0 8:0 9:0 10:0 11:0 12:0 13:0 14:0 15:0 16:0 17:0 18:0.99998 19:0 20:0 21:0 22:0 23:0 24:0 25:0 26:0 27:0.99999 28:0 29:0 30:0 31:0 32:0 33:0 34:0 35:0 36:0 37:0 38:0 39:0 40:0 41:0 42:0 43:0 44:0 45:0 46:0 47:0 48:0 49:0 50:0 51:0.121254 52:0.258375 53:0.620341 54:0.999941 55:0 56:0 57:0 58:0 59:0 60:0 61:0 62:0 63:0.802036 64:0.146162 65:0.0517896 66:0 67:0 68:0 69:0 70:0 71:0 72:0.923589 73:0.076404 74:0 75:0 76:0 77:0 78:0 79:0 80:0 81:0 82:0 83:0 84:0 85:0 86:0 87:0 88:0 89:0 90:0 91:0 92:0 93:0 94:0.0471395 95:0.58102 96:0.231159 97:0.140676 98:0 99:0.109374 100:0 101:0 102:0 103:0.890619 104:0 105:0 106:0 107:0 108:0.19905 109:0.26696 110:0.184181 111:0.0545962 112:0.295208 113:0 114:0 115:0 116:0 117:0.556978 118:0.398111 119:0.0448997 120:0 121:0 122:0 123:0 124:0 125:0 126:0 127:0 128:0 129:0 130:0 131:0 132:0 133:0 134:0 135:0 136:0 137:0 138:0 139:0.243106 140:0.595192 141:0.121254 142:0.040418 143:0 144:0 145:0 146:0 147:0 148:0.999985 149:0 150:0 151:0 152:0 153:0 154:0 155:0 156:0.322722 157:0.677262 158:0 159:0 160:0 161:0 162:0 163:0.249954 164:0.749861 165:0 166:0 167:0 168:0 169:0 170:0 171:0.123345 172:0.249994 173:0.379948 174:0.234356 175:0.0123345 176:0 177:0 178:0 179:0 
1 0:0 1:0 2:0 3:0 4:0 5:0 6:0 7:0 8:0 9:0 10:0 11:0 12:0 13:0 14:0 15:0 16:0 17:0 18:0.99999 19:0 20:0 21:0 22:0 23:0 24:0 25:0 26:0 27:0.99998 28:0 29:0 30:0 31:0 32:0 33:0 34:0 35:0 36:0 37:0 38:0 39:0 40:0 41:0 42:0 43:0 44:0 45:0.99999 46:0 47:0 48:0 49:0 50:0 51:0 52:0 53:0 54:0 55:0 56:0 57:0 58:0 59:0 60:0 61:0 62:0 63:0.999993 64:0 65:0 66:0 67:0 68:0 69:0 70:0 71:0 72:0.873948 73:0.0857844 74:0.040258 75:0 76:0 77:0 78:0 79:0 80:0 81:0.0853221 82:0.576178 83:0.224732 84:0.108075 85:0.00568814 86:0 87:0 88:0 89:0 90:0.999971 91:0 92:0 93:0 94:0 95:0 96:0 97:0 98:0 99:0 100:0.0268919 101:0.0806757 102:0.396008 103:0.496404 104:0 105:0 106:0 107:0 108:0.153727 109:0.322034 110:0.37862 111:0.14129 112:0.00432598 113:0 114:0 115:0 116:0 117:0.406496 118:0.329141 119:0.14301 120:0.115275 121:0.00606711 122:0 123:0 124:0 125:0 126:0.726378 127:0.273611 128:0 129:0 130:0 131:0 132:0 133:0 134:0 135:0.401407 136:0 137:0 138:0 139:0.598589 140:0 141:0 142:0 143:0 144:0 145:0.00659176 146:0.0197753 147:0.700094 148:0.273534 149:0 150:0 151:0 152:0 153:0.110019 154:0.179762 155:0.310901 156:0.319545 157:0.0797635 158:0 159:0 160:0 161:0 162:0.0523607 163:0.340578 164:0.524892 165:0.0795461 166:0.00261803 167:0 168:0 169:0 170:0 171:0.123345 172:0.249994 173:0.379948 174:0.234356 175:0.0123345 176:0 177:0 178:0 179:0 
1 0:0 1:0 2:0 3:0 4:0 5:0 6:0 7:0 8:0 9:0 10:0 11:0 12:0 13:0 14:0 15:0 16:0 17:0 18:0 19:0 20:0 21:0 22:0 23:0 24:0 25:0 26:0 27:0.999993 28:0 29:0 30:0 31:0 32:0 33:0 34:0 35:0 36:0 37:0 38:0 39:0 40:0 41:0 42:0 43:0 44:0 45:0 46:0 47:0 48:0 49:0 50:0 51:0 52:0 53:0 54:0 55:0 56:0 57:0 58:0 59:0 60:0 61:0 62:0 63:0 64:0.249954 65:0.749861 66:0 67:0 68:0 69:0 70:0 71:0 72:0.732546 73:0.196426 74:0.0222221 75:0.0463615 76:0.00244008 77:0 78:0 79:0 80:0 81:0 82:0 83:0 84:0 85:0 86:0 87:0 88:0 89:0 90:0 91:0 92:0 93:0.649557 94:0.350436 95:0 96:0 97:0 98:0 99:0 100:0 101:0 102:0 103:0.999995 104:0 105:0 106:0 107:0 108:0 109:0.022718 110:0.187626 111:0.319836 112:0.469816 113:0 114:0 115:0 116:0 117:0.0329798 118:0.1303 119:0.591428 120:0.241989 121:0.00329798 122:0 123:0 124:0 125:0 126:0 127:0 128:0 129:0 130:0 131:0 132:0 133:0 134:0 135:0 136:0.0485594 137:0.145678 138:0.38272 139:0.423006 140:0 141:0 142:0 143:0 144:0 145:0 146:0 147:0 148:0 149:0 150:0 151:0 152:0 153:0 154:0 155:0 156:0 157:0 158:0 159:0 160:0 161:0 162:0.337329 163:0.418649 164:0.243961 165:0 166:0 167:0 168:0 169:0 170:0 171:0 172:0.0685392 173:0.358802 174:0.548028 175:0.024624 176:0 177:0 178:0 179:0 
1 0:0 1:0 2:0 3:0 4:0 5:0 6:0 7:0 8:0 9:0 10:0 11:0 12:0 13:0 14:0 15:0 16:0 17:0 18:0 19:0 20:0 21:0 22:0 23:0 24:0.121254 25:0.258375 26:0.620341 27:0 28:0 29:0 30:0 31:0.00524588 32:0.0996717 33:0.226228 34:0.571801 35:0.0970487 36:0 37:0 38:0 39:0 40:0 41:0 42:0 43:0 44:0 45:0 46:0 47:0 48:0 49:0 50:0 51:0 52:0 53:0 54:0 55:0 56:0 57:0 58:0 59:0 60:0 61:0 62:0 63:0 64:0 65:0 66:0 67:0 68:0 69:0 70:0 71:0 72:0.999995 73:0 74:0 75:0 76:0 77:0 78:0 79:0 80:0 81:0 82:0 83:0 84:0 85:0 86:0 87:0 88:0 89:0 90:0 91:0 92:0 93:0 94:0.556238 95:0.44374 96:0 97:0 98:0 99:0 100:0.0347929 101:0.104379 102:0.512358 103:0.209273 104:0 105:0.104379 106:0.0347929 107:0 108:0.0381989 109:0.126193 110:0.333558 111:0.360434 112:0.141609 113:0 114:0 115:0 116:0 117:0.107516 118:0.388295 119:0.386641 120:0.112969 121:0.00457514 122:0 123:0 124:0 125:0 126:0.24319 127:0.422882 128:0.202462 129:0.124881 130:0.00657269 131:0 132:0 133:0 134:0 135:0 136:0 137:0 138:0 139:0.299928 140:0.662197 141:0.0284009 142:0.00946697 143:0 144:0 145:0.00579894 146:0.0173968 147:0.615891 148:0.150644 149:0.210265 150:0 151:0 152:0 153:0.0394363 154:0.0394363 155:0.0788727 156:0.511757 157:0.330491 158:0 159:0 160:0 161:0 162:0 163:0.0396002 164:0.221833 165:0.65551 166:0.0830521 167:0 168:0 169:0 170:0 171:0 172:0.200921 173:0.253865 174:0.193515 175:0.351693 176:0 177:0 178:0 179:0 
1 0:0 1:0 2:0 3:0 4:0 5:0 6:0 7:0 8:0 9:0 10:0 11:0 12:0 13:0 14:0 15:0 16:0 17:0 18:0.99999 19:0 20:0 21:0 22:0 23:0 24:0 25:0 26:0 27:0.99998 28:0 29:0 30:0 31:0 32:0 33:0 34:0 35:0 36:0 37:0 38:0 39:0 40:0 41:0 42:0 43:0 44:0 45:0.754406 46:0 47:0 48:0 49:0.0597054 50:0.146175 51:0.0297792 52:0.0099264 53:0 54:0 55:0 56:0 57:0 58:0 59:0 60:0 61:0 62:0 63:0.611803 64:0.266844 65:0.0545614 66:0.0634463 67:0.00333928 68:0 69:0 70:0 71:0 72:0.974985 73:0.0249996 74:0 75:0 76:0 77:0 78:0 79:0 80:0 81:0 82:0.0132612 83:0.0397835 84:0.104518 85:0.0110019 86:0.104518 87:0.169448 88:0.353926 89:0.203534 90:0 91:0 92:0 93:0 94:0.127901 95:0.840441 96:0.0237396 97:0.0079132 98:0 99:0 100:0 101:0 102:0 103:0.999995 104:0 105:0 106:0 107:0 108:0 109:0.0527011 110:0.261335 111:0.605448 112:0.080511 113:0 114:0 115:0 116:0 117:0.043143 118:0.063944 119:0.148689 120:0.641829 121:0.102387 122:0 123:0 124:0 125:0 126:0.107972 127:0.35672 128:0.291166 129:0.0659194 130:0.178217 131:0 132:0 133:0 134:0 135:0 136:0 137:0 138:0 139:0.99999 140:0 141:0 142:0 143:0 144:0 145:0.0076357 146:0.0229071 147:0.534103 148:0.435348 149:0 150:0 151:0 152:0 153:0 154:0 155:0 156:0.432419 157:0.567577 158:0 159:0 160:0 161:0 162:0 163:0.0155978 164:0.199883 165:0.744999 166:0.0395145 167:0 168:0 169:0 170:0 171:0 172:0 173:0 174:0.44374 175:0.556238 176:0 177:0 178:0 179:0 
1 0:0 1:0 2:0 3:0 4:0 5:0 6:0 7:0 8:0 9:0.966648 10:0.0333327 11:0 12:0 13:0 14:0 15:0 16:0 17:0 18:0.512356 19:0.335203 20:0.0685388 21:0.0796998 22:0.00419472 23:0 24:0 25:0 26:0 27:0 28:0.249954 29:0.749861 30:0 31:0 32:0 33:0 34:0 35:0 36:0.312304 37:0.554845 38:0.0415645 39:0.0867149 40:0.00456394 41:0 42:0 43:0 44:0 45:0 46:0 47:0 48:0 49:0 50:0 51:0 52:0 53:0 54:0.999985 55:0 56:0 57:0 58:0 59:0 60:0 61:0 62:0 63:0.999993 64:0 65:0 66:0 67:0 68:0 69:0 70:0 71:0 72:0.201432 73:0.201432 74:0 75:0 76:0 77:0 78:0.145678 79:0.249991 80:0.201432 81:0.0574356 82:0.136666 83:0.174614 84:0 85:0.0147692 86:0.33805 87:0.236281 88:0.0421793 89:0 90:0.194349 91:0 92:0 93:0 94:0.241637 95:0.5335 96:0.0228812 97:0.00762708 98:0 99:0.0721646 100:0.109858 101:0.180519 102:0.453735 103:0.183719 104:0 105:0 106:0 107:0 108:0.459963 109:0.301756 110:0.144471 111:0.0891115 112:0.00469008 113:0 114:0 115:0 116:0 117:0.0953987 118:0.249996 119:0.463791 120:0.181258 121:0.00953987 122:0 123:0 124:0 125:0 126:0 127:0.0787907 128:0.45507 129:0.447569 130:0.0185644 131:0 132:0 133:0 134:0 135:0.199996 136:0 137:0 138:0 139:0.444992 140:0.354994 141:0 142:0 143:0 144:0 145:0.0268919 146:0.0806757 147:0.396008 148:0.496404 149:0 150:0 151:0 152:0 153:0.056737 154:0.167425 155:0.54888 156:0.221274 157:0.0056737 158:0 159:0 160:0 161:0 162:0 163:0.0216708 164:0.312499 165:0.641706 166:0.0241205 167:0 168:0 169:0 170:0 171:0.123345 172:0.249994 173:0.379948 174:0.234356 175:0.0123345 176:0 177:0 178:0 179:0 
1 0:0 1:0 2:0 3:0 4:0 5:0 6:0 7:0 8:0 9:0 10:0 11:0 12:0 13:0 14:0 15:0 16:0 17:0 18:0.99998 19:0 20:0 21:0 22:0 23:0 24:0 25:0 26:0 27:0.99999 28:0 29:0 30:0 31:0 32:0 33:0 34:0 35:0 36:0 37:0 38:0 39:0 40:0 41:0 42:0 43:0 44:0 45:0 46:0 47:0 48:0 49:0 50:0 51:0.243961 52:0.418649 53:0.337329 54:0 55:0 56:0 57:0 58:0 59:0 60:0 61:0 62:0 63:0.442222 64:0 65:0 66:0 67:0 68:0 69:0 70:0.145017 71:0.412741 72:0.368079 73:0 74:0 75:0 76:0.00258301 77:0.0490773 78:0.199261 79:0.355164 80:0.0258301 81:0 82:0 83:0 84:0 85:0 86:0 87:0 88:0 89:0 90:0 91:0 92:0 93:0 94:0.634391 95:0.17843 96:0.179356 97:0.00781698 98:0 99:0 100:0 101:0 102:0 103:0.31741 104:0.640233 105:0.0317646 106:0.0105882 107:0 108:0 109:0.0101427 110:0.0304281 111:0.79718 112:0.162246 113:0 114:0 115:0 116:0 117:0.0295201 118:0.0942272 119:0.30693 120:0.508379 121:0.060938 122:0 123:0 124:0 125:0 126:0.0494695 127:0.100264 128:0.467752 129:0.22915 130:0.153356 131:0 132:0 133:0 134:0 135:0.341156 136:0.0794071 137:0.238221 138:0 139:0 140:0 141:0 142:0 143:0.341156 144:0 145:0 146:0 147:0 148:0 149:0 150:0 151:0 152:0 153:0.341156 154:0.0794071 155:0.238221 156:0 157:0 158:0 159:0 160:0 161:0.341156 162:0.191623 163:0 164:0.0710655 165:0.402472 166:0.0994283 167:0.119923 168:0 169:0.0486672 170:0.0668143 171:0 172:0.0345909 173:0.18514 174:0.0994489 175:0.556128 176:0.0806597 177:0.0330186 178:0.0110062 179:0 
1 0:0 1:0 2:0 3:0 4:0 5:0 6:0 7:0 8:0 9:0 10:0 11:0 12:0 13:0 14:0 15:0 16:0 17:0 18:0 19:0 20:0 21:0 22:0 23:0 24:0 25:0 26:0 27:0.999993 28:0 29:0 30:0 31:0 32:0 33:0 34:0 35:0 36:0 37:0 38:0 39:0 40:0 41:0 42:0 43:0 44:0 45:0 46:0 47:0 48:0 49:0 50:0 51:0 52:0 53:0 54:0 55:0 56:0 57:0 58:0 59:0 60:0 61:0 62:0 63:0 64:0 65:0 66:0 67:0 68:0 69:0 70:0 71:0 72:0.166418 73:0.137939 74:0.103268 75:0 76:0 77:0 78:0.128528 79:0.361217 80:0.102625 81:0.294236 82:0.10288 83:0.135801 84:0 85:0.00576126 86:0.109464 87:0.177467 88:0.116768 89:0.0576126 90:0 91:0 92:0 93:0 94:0.0717308 95:0.310775 96:0.467752 97:0.100264 98:0.0494695 99:0 100:0 101:0 102:0 103:0.0337329 104:0.640925 105:0.243961 106:0.0813204 107:0 108:0 109:0.249954 110:0.749861 111:0 112:0 113:0 114:0 115:0 116:0 117:0.331701 118:0.0187132 119:0.160836 120:0.214676 121:0.00841483 122:0 123:0.102005 124:0.136252 125:0.0273971 126:0.433546 127:0.108931 128:0.143789 129:0 130:0 131:0 132:0.143789 133:0.108931 134:0.0610015 135:0 136:0 137:0 138:0 139:0.115661 140:0.60502 141:0.231154 142:0.0481571 143:0 144:0 145:0 146:0 147:0 148:0.532595 149:0.467401 150:0 151:0 152:0 153:0 154:0 155:0 156:0.227462 157:0.772534 158:0 159:0 160:0 161:0 162:0 163:0.0155978 164:0.264585 165:0.693237 166:0.0265741 167:0 168:0 169:0 170:0 171:0 172:0.0813204 173:0.243961 174:0.640925 175:0.0337329 176:0 177:0 178:0 179:0 
1 0:0 1:0 2:0 3:0 4:0 5:0 6:0 7:0 8:0 9:0 10:0 11:0 12:0 13:0 14:0 15:0 16:0 17:0 18:0.999993 19:0 20:0 21:0 22:0 23:0 24:0 25:0 26:0 27:0 28:0 29:0 30:0 31:0 32:0 33:0 34:0 35:0 36:0 37:0 38:0 39:0 40:0 41:0 42:0 43:0 44:0 45:0.99999 46:0 47:0 48:0 49:0 50:0 51:0 52:0 53:0 54:0 55:0 56:0 57:0 58:0 59:0 60:0 61:0 62:0 63:0.999995 64:0 65:0 66:0 67:0 68:0 69:0 70:0 71:0 72:0 73:0 74:0 75:0 76:0 77:0 78:0 79:0 80:0 81:0 82:0 83:0 84:0 85:0 86:0 87:0 88:0 89:0 90:0.999993 91:0 92:0 93:0 94:0 95:0 96:0 97:0 98:0 99:0 100:0 101:0 102:0 103:0 104:0 105:0 106:0 107:0 108:0.999995 109:0 110:0 111:0 112:0 113:0 114:0 115:0 116:0 117:0 118:0 119:0 120:0 121:0 122:0 123:0 124:0 125:0 126:0 127:0 128:0 129:0 130:0 131:0 132:0 133:0 134:0 135:0.999993 136:0 137:0 138:0 139:0 140:0 141:0 142:0 143:0 144:0.620341 145:0.258375 146:0.121254 147:0 148:0 149:0 150:0 151:0 152:0 153:0.0970487 154:0.571801 155:0.226228 156:0.0996717 157:0.00524588 158:0 159:0 160:0 161:0 162:0.337329 163:0.418649 164:0.243961 165:0 166:0 167:0 168:0 169:0 170:0 171:0 172:0.581806 173:0.325163 174:0.0883714 175:0.00465112 176:0 177:0 178:0 179:0 
1 0:0 1:0 2:0 3:0 4:0 5:0 6:0 7:0 8:0 9:0 10:0 11:0 12:0 13:0 14:0 15:0 16:0 17:0 18:0.99999 19:0 20:0 21:0 22:0 23:0 24:0 25:0 26:0 27:0.99998 28:0 29:0 30:0 31:0 32:0 33:0 34:0 35:0 36:0 37:0 38:0 39:0 40:0 41:0 42:0 43:0 44:0 45:0.99999 46:0 47:0 48:0 49:0 50:0 51:0 52:0 53:0 54:0 55:0 56:0 57:0 58:0 59:0 60:0 61:0 62:0 63:0.999993 64:0 65:0 66:0 67:0 68:0 69:0 70:0 71:0 72:0.868725 73:0.0829346 74:0.0483288 75:0 76:0 77:0 78:0 79:0 80:0 81:0 82:0.581806 83:0.325163 84:0.0883714 85:0.00465112 86:0 87:0 88:0 89:0 90:0.999985 91:0 92:0 93:0 94:0 95:0 96:0 97:0 98:0 99:0 100:0.0813204 101:0.243961 102:0.640925 103:0.0337329 104:0 105:0 106:0 107:0 108:0.307829 109:0.23841 110:0.248536 111:0.197479 112:0.00774074 113:0 114:0 115:0 116:0 117:0.576261 118:0.254853 119:0.075933 120:0.088298 121:0.00464726 122:0 123:0 124:0 125:0 126:0.366038 127:0.511491 128:0.0383168 129:0.0799393 130:0.00420733 131:0 132:0 133:0 134:0 135:0.399998 136:0 137:0 138:0 139:0.599997 140:0 141:0 142:0 143:0 144:0 145:0.00571305 146:0.176681 147:0.769146 148:0.0484551 149:0 150:0 151:0 152:0 153:0.0390786 154:0.0673408 155:0.347869 156:0.529794 157:0.0159106 158:0 159:0 160:0 161:0 162:0.0510714 163:0.338348 164:0.530435 165:0.0775874 166:0.00255357 167:0 168:0 169:0 170:0 171:0.123345 172:0.249994 173:0.379948 174:0.234356 175:0.0123345 176:0 177:0 178:0 179:0 
1 0:0.136582 1:0.169508 2:0.0987781 3:0.0453647 4:0.504378 5:0.0453647 6:0 7:0 8:0 9:0 10:0 11:0 12:0 13:0 14:0 15:0.243961 16:0.418649 17:0.337329 18:0.99998 19:0 20:0 21:0 22:0 23:0 24:0 25:0 26:0 27:0.823428 28:0.0108346 29:0.0325038 30:0 31:0 32:0 33:0.0325038 34:0.055778 35:0.0449435 36:0 37:0.240976 38:0.0283174 39:0.059078 40:0.00621873 41:0.059078 42:0.217378 43:0.388948 44:0 45:0.223481 46:0 47:0 48:0.0352266 49:0.391659 50:0.0352266 51:0.0767031 52:0.131626 53:0.106059 54:0.360444 55:0.404046 56:0.235451 57:0 58:0 59:0 60:0 61:0 62:0 63:0.583325 64:0 65:0 66:0 67:0 68:0 69:0 70:0.0249996 71:0.391661 72:0.375462 73:0.0905369 74:0 75:0 76:0.00266285 77:0.0505941 78:0.0504515 79:0.228672 80:0.201616 81:0 82:0.290904 83:0.162582 84:0.0441859 85:0.00465114 86:0.0441859 87:0.162582 88:0.290904 89:0 90:0 91:0 92:0 93:0 94:0.446206 95:0.223103 96:0.303779 97:0.0268919 98:0 99:0 100:0 101:0 102:0.137498 103:0.862487 104:0 105:0 106:0 107:0 108:0.0787182 109:0.290296 110:0.371028 111:0.24183 112:0.0181235 113:0 114:0 115:0 116:0 117:0.180202 118:0.421349 119:0.293114 120:0.0675123 121:0.037817 122:0 123:0 124:0 125:0 126:0 127:0.388948 128:0.217378 129:0.059078 130:0.00621873 131:0.059078 132:0.0283174 133:0.240976 134:0 135:0.211371 136:0.00834358 137:0.0550676 138:0.0762665 139:0.2665 140:0.138009 141:0.159641 142:0.0477129 143:0.0370826 144:0 145:0 146:0.0703513 147:0.193152 148:0.666139 149:0 150:0 151:0 152:0.0703513 153:0.152576 154:0.0635489 155:0.112297 156:0.539392 157:0.132179 158:0 159:0 160:0 161:0 162:0 163:0.148135 164:0.305262 165:0.233705 166:0.312893 167:0 168:0 169:0 170:0 171:0.0520441 172:0.164729 173:0.515794 174:0.257014 175:0.0104088 176:0 177:0 178:0 179:0 
1 0:0 1:0 2:0 3:0 4:0 5:0 6:0 7:0 8:0 9:0 10:0 11:0 12:0 13:0 14:0 15:0 16:0 17:0 18:0.99999 19:0 20:0 21:0 22:0 23:0 24:0 25:0 26:0 27:0.99998 28:0 29:0 30:0 31:0 32:0 33:0 34:0 35:0 36:0 37:0 38:0 39:0 40:0 41:0 42:0 43:0 44:0 45:0.99999 46:0 47:0 48:0 49:0 50:0 51:0 52:0 53:0 54:0 55:0 56:0 57:0 58:0 59:0 60:0 61:0 62:0 63:0.999993 64:0 65:0 66:0 67:0 68:0 69:0 70:0 71:0 72:0.999985 73:0 74:0 75:0 76:0 77:0 78:0 79:0 80:0 81:0 82:0 83:0 84:0 85:0 86:0 87:0 88:0 89:0 90:0.7533 91:0 92:0 93:0 94:0.137224 95:0.109471 96:0 97:0 98:0 99:0 100:0 101:0 102:0 103:0 104:0 105:0.749861 106:0.249954 107:0 108:0.194938 109:0.209699 110:0.042877 111:0.0498592 112:0.00524834 113:0.0498592 114:0.042877 115:0.209699 116:0.194938 117:0.357716 118:0.2438 119:0.100379 120:0.0809119 121:0.00425852 122:0 123:0 124:0.0127756 125:0.200151 126:0.0687582 127:0.628146 128:0.201227 129:0.0967708 130:0.0050932 131:0 132:0 133:0 134:0 135:0 136:0.0345909 137:0.266507 138:0.198898 139:0.136791 140:0.0994489 141:0.218159 142:0.0455971 143:0 144:0.629942 145:0.123345 146:0 147:0 148:0 149:0 150:0 151:0.123345 152:0.123345 153:0.116181 154:0 155:0 156:0 157:0.00580907 158:0.110372 159:0.17894 160:0.373751 161:0.214936 162:0 163:0.0217071 164:0.154886 165:0.481835 166:0.0993704 167:0.0918201 168:0.123636 169:0.0267407 170:0 171:0.123345 172:0.249994 173:0.379948 174:0.234356 175:0.0123345 176:0 177:0 178:0 179:0 
1 0:0 1:0 2:0 3:0 4:0 5:0 6:0 7:0 8:0 9:0 10:0 11:0 12:0 13:0 14:0 15:0 16:0 17:0 18:0.99998 19:0 20:0 21:0 22:0 23:0 24:0 25:0 26:0 27:0.99999 28:0 29:0 30:0 31:0 32:0 33:0 34:0 35:0 36:0 37:0 38:0 39:0 40:0 41:0 42:0 43:0 44:0 45:0.99999 46:0 47:0 48:0 49:0 50:0 51:0 52:0 53:0 54:0 55:0 56:0 57:0 58:0 59:0 60:0 61:0 62:0 63:0.999985 64:0 65:0 66:0 67:0 68:0 69:0 70:0 71:0 72:0.999993 73:0 74:0 75:0 76:0 77:0 78:0 79:0 80:0 81:0 82:0 83:0 84:0 85:0 86:0 87:0 88:0 89:0 90:0.999993 91:0 92:0 93:0 94:0 95:0 96:0 97:0 98:0 99:0 100:0 101:0 102:0 103:0 104:0 105:0 106:0 107:0 108:0 109:0.0347929 110:0.104379 111:0 112:0 113:0 114:0.104379 115:0.222417 116:0.534007 117:0.0521378 118:0.155448 119:0.0175861 120:0.0366895 121:0.00579308 122:0.0733791 123:0.166551 124:0.420964 125:0.071448 126:0 127:0 128:0 129:0 130:0 131:0 132:0 133:0 134:0 135:0.999993 136:0 137:0 138:0 139:0 140:0 141:0 142:0 143:0 144:0.123345 145:0.249994 146:0.379948 147:0.234356 148:0.0123345 149:0 150:0 151:0 152:0 153:0.033353 154:0.033353 155:0.222006 156:0.258873 157:0.452409 158:0 159:0 160:0 161:0 162:0.0665474 163:0.296938 164:0.532082 165:0.101099 166:0.00332737 167:0 168:0 169:0 170:0 171:0 172:0 173:0 174:0 175:0 176:0 177:0 178:0 179:0 
1 0:0.249989 1:0.249989 2:0 3:0 4:0 5:0 6:0 7:0.249989 8:0.249989 9:0.999815 10:0 11:0 12:0 13:0 14:0 15:0 16:0 17:0 18:0.666653 19:0 20:0 21:0 22:0 23:0 24:0 25:0.0333327 26:0.299994 27:0.512356 28:0 29:0 30:0 31:0.00419472 32:0.0796998 33:0.0685388 34:0.335203 35:0 36:0 37:0 38:0 39:0 40:0.0123345 41:0.234356 42:0.379948 43:0.249994 44:0.123345 45:0 46:0 47:0 48:0 49:0.00243795 50:0.0463211 51:0.445819 52:0.456659 53:0.048759 54:0 55:0 56:0 57:0 58:0.673137 59:0.257797 60:0.0517896 61:0.0172632 62:0 63:0 64:0.0142404 65:0.0427211 66:0.212656 67:0.555268 68:0 69:0.0427211 70:0.0733115 71:0.0590711 72:0.0685183 73:0.194791 74:0.132192 75:0.108068 76:0.00753966 77:0.0351851 78:0.129464 79:0.25572 80:0.0685183 81:0 82:0 83:0 84:0 85:0 86:0 87:0 88:0 89:0 90:0.213749 91:0 92:0 93:0 94:0.112499 95:0.216561 96:0.324685 97:0.0974994 98:0.0349998 99:0 100:0 101:0 102:0 103:0.797817 104:0.202176 105:0 106:0 107:0 108:0 109:0 110:0 111:0.202176 112:0.797817 113:0 114:0 115:0 116:0 117:0.163042 118:0.0366845 119:0.262226 120:0.518746 121:0.0192933 122:0 123:0 124:0 125:0 126:0.0367603 127:0.00775412 128:0.175473 129:0.624925 130:0.0329694 131:0.0589313 132:0 133:0.0284318 134:0.0347499 135:0.0810229 136:0.263076 137:0.319223 138:0.177469 139:0.0810229 140:0 141:0.058635 142:0.019545 143:0 144:0 145:0 146:0 147:0 148:0.149999 149:0.216347 150:0.217594 151:0.264148 152:0.151905 153:0 154:0 155:0 156:0 157:0 158:0 159:0 160:0 161:0 162:0 163:0 164:0 165:0 166:0.141461 167:0.346335 168:0.0705563 169:0.15714 170:0.28449 171:0 172:0 173:0 174:0 175:0.805547 176:0.194442 177:0 178:0 179:0 
1 0:0 1:0 2:0 3:0 4:0 5:0 6:0 7:0 8:0 9:0 10:0 11:0 12:0 13:0 14:0 15:0 16:0 17:0 18:0 19:0 20:0 21:0 22:0 23:0 24:0 25:0 26:0 27:0.999993 28:0 29:0 30:0 31:0 32:0 33:0 34:0 35:0 36:0 37:0 38:0 39:0 40:0 41:0 42:0 43:0 44:0 45:0 46:0 47:0 48:0 49:0 50:0 51:0 52:0 53:0 54:0 55:0 56:0 57:0 58:0 59:0 60:0 61:0 62:0 63:0 64:0 65:0 66:0 67:0 68:0 69:0 70:0 71:0 72:0.999995 73:0 74:0 75:0 76:0 77:0 78:0 79:0 80:0 81:0 82:0 83:0 84:0 85:0 86:0 87:0 88:0 89:0 90:0 91:0 92:0 93:0 94:0 95:0 96:0 97:0 98:0 99:0 100:0 101:0 102:0 103:0 104:0 105:0 106:0 107:0 108:0 109:0 110:0 111:0 112:0 113:0 114:0 115:0 116:0 117:0.999995 118:0 119:0 120:0 121:0 122:0 123:0 124:0 125:0 126:0 127:0 128:0 129:0 130:0 131:0 132:0 133:0 134:0 135:0 136:0 137:0 138:0 139:0 140:0 141:0.243961 142:0.418649 143:0.337329 144:0 145:0 146:0 147:0 148:0 149:0 150:0 151:0 152:0 153:0.0900307 154:0.5561 155:0.353853 156:0 157:0 158:0 159:0 160:0 161:0 162:0.0948279 163:0.304941 164:0.393362 165:0.201738 166:0.00512583 167:0 168:0 169:0 170:0 171:0 172:0 173:0 174:0 175:0 176:0 177:0 178:0 179:0 
1 0:0 1:0 2:0 3:0 4:0 5:0 6:0 7:0 8:0 9:0 10:0 11:0 12:0 13:0 14:0 15:0 16:0 17:0 18:0.99998 19:0 20:0 21:0 22:0 23:0 24:0 25:0 26:0 27:0.99999 28:0 29:0 30:0 31:0 32:0 33:0 34:0 35:0 36:0 37:0 38:0 39:0 40:0 41:0 42:0 43:0 44:0 45:0 46:0 47:0 48:0 49:0 50:0 51:0 52:0 53:0 54:0 55:0 56:0 57:0 58:0 59:0 60:0 61:0 62:0 63:0.210195 64:0.530417 65:0.196638 66:0.0596075 67:0.00313724 68:0 69:0 70:0 71:0 72:0.459963 73:0.301756 74:0.144471 75:0.0891115 76:0.00469008 77:0 78:0 79:0 80:0 81:0 82:0.040418 83:0.121254 84:0.595192 85:0.243106 86:0 87:0 88:0 89:0 90:0 91:0 92:0 93:0 94:0.999993 95:0 96:0 97:0 98:0 99:0 100:0 101:0 102:0 103:0.999995 104:0 105:0 106:0 107:0 108:0.102828 109:0.210446 110:0.231885 111:0.161438 112:0.293398 113:0 114:0 115:0 116:0 117:0.175057 118:0.309023 119:0.347837 120:0.161535 121:0.00654202 122:0 123:0 124:0 125:0 126:0.0290154 127:0.0888596 128:0.290413 129:0.547303 130:0.0444039 131:0 132:0 133:0 134:0 135:0 136:0 137:0 138:0 139:0.99999 140:0 141:0 142:0 143:0 144:0 145:0 146:0 147:0 148:0.999993 149:0 150:0 151:0 152:0 153:0 154:0.00880046 155:0.0264014 156:0.258864 157:0.705928 158:0 159:0 160:0 161:0 162:0.0527538 163:0.23846 164:0.442685 165:0.257928 166:0.0081671 167:0 168:0 169:0 170:0 171:0 172:0.249954 173:0.749861 174:0 175:0 176:0 177:0 178:0 179:0 
1 0:0 1:0 2:0 3:0 4:0 5:0 6:0 7:0 8:0 9:0 10:0 11:0 12:0 13:0 14:0 15:0 16:0 17:0 18:0.999993 19:0 20:0 21:0 22:0 23:0 24:0 25:0 26:0 27:0.254534 28:0.315895 29:0.184083 30:0 31:0 32:0 33:0.184083 34:0.0613608 35:0 36:0.357988 37:0.203651 38:0 39:0.0141551 40:0.118416 41:0.00441397 42:0 43:0.0826478 44:0.21872 45:0 46:0 47:0 48:0 49:0 50:0 51:0 52:0 53:0 54:0 55:0.249997 56:0.74999 57:0 58:0 59:0 60:0 61:0 62:0 63:0.442713 64:0.360632 65:0.196651 66:0 67:0 68:0 69:0 70:0 71:0 72:0.256702 73:0.397786 74:0.155345 75:0.180642 76:0.00950748 77:0 78:0 79:0 80:0 81:0.62361 82:0.171275 83:0.0263827 84:0.0238295 85:0.077446 86:0.077446 87:0 88:0 89:0 90:0.173488 91:0 92:0 93:0 94:0.748339 95:0.0518516 96:0.0197367 97:0.00657892 98:0 99:0 100:0.0541853 101:0.295813 102:0.35674 103:0.293257 104:0 105:0 106:0 107:0 108:0.127628 109:0.187635 110:0.562904 111:0 112:0 113:0 114:0 115:0 116:0.121827 117:0 118:0.0177651 119:0.357277 120:0.440816 121:0.0137315 122:0.07978 123:0.0715755 124:0.0190525 125:0 126:0.0388056 127:0.0582084 128:0 129:0.101305 130:0.265669 131:0.0173506 132:0.334139 133:0.132275 134:0.0522383 135:0.00661152 136:0 137:0 138:0 139:0.396939 140:0.495616 141:0 142:0 143:0.100826 144:0 145:0 146:0 147:0 148:0.999993 149:0 150:0 151:0 152:0 153:0.0336132 154:0.0336132 155:0 156:0.22935 157:0.492134 158:0 159:0 160:0.144597 161:0.0666863 162:0.23639 163:0.0104976 164:0.118584 165:0.34121 166:0.0133747 167:0 168:0.0886463 169:0.0643074 170:0.126982 171:0 172:0 173:0 174:0 175:0 176:0 177:0 178:0 179:0 
1 0:0 1:0 2:0 3:0 4:0 5:0 6:0 7:0 8:0 9:0.99998 10:0 11:0 12:0 13:0 14:0 15:0 16:0 17:0 18:0.99999 19:0 20:0 21:0 22:0 23:0 24:0 25:0 26:0 27:0 28:0 29:0 30:0 31:0 32:0 33:0 34:0 35:0 36:0 37:0 38:0 39:0 40:0 41:0 42:0 43:0 44:0 45:0.99999 46:0 47:0 48:0 49:0 50:0 51:0 52:0 53:0 54:0.999985 55:0 56:0 57:0 58:0 59:0 60:0 61:0 62:0 63:0.999993 64:0 65:0 66:0 67:0 68:0 69:0 70:0 71:0 72:0 73:0 74:0 75:0 76:0 77:0 78:0 79:0 80:0 81:0 82:0 83:0 84:0 85:0 86:0 87:0 88:0 89:0 90:0.472048 91:0 92:0 93:0 94:0.527948 95:0 96:0 97:0 98:0 99:0 100:0.0292028 101:0.13502 102:0.100274 103:0.735498 104:0 105:0 106:0 107:0 108:0.203534 109:0.367187 110:0.209232 111:0.209035 112:0.0110019 113:0 114:0 115:0 116:0 117:0.0229507 118:0.119979 119:0.45717 120:0.383503 121:0.0163934 122:0 123:0 124:0 125:0 126:0.0967793 127:0.159484 128:0.138172 129:0.188992 130:0.413171 131:0.00339576 132:0 133:0 134:0 135:0 136:0 137:0 138:0 139:0 140:0 141:0 142:0 143:0 144:0.0469008 145:0.0950578 146:0.231154 147:0.272443 148:0.354436 149:0 150:0 151:0 152:0 153:0.0658562 154:0.0541194 155:0.194486 156:0.215351 157:0.470181 158:0 159:0 160:0 161:0 162:0.255933 163:0.445726 164:0.298332 165:0 166:0 167:0 168:0 169:0 170:0 171:0 172:0 173:0 174:0 175:0 176:0 177:0 178:0 179:0 
