svm_type c_svc
kernel_type rbf
gamma 0.00558659
nr_class 2
total_sv 194
rho 0.155868
label 129 24
probA -6.52562
probB -1.38398
nr_sv 96 98
SV
1 0:0.057137 1:0.377512 2:0.293848 3:0.240792 4:0.0306091 5:0 6:0 7:0 8:0 9:0.0477255 10:0.0204538 11:0 12:0 13:0 14:0 15:0.0927995 16:0.508314 17:0.330669 18:0.200208 19:0.0328383 20:0.00677952 21:0.0411008 22:0.0114404 23:0.0237283 24:0.103388 25:0.258257 26:0.322239 27:0.0767627 28:0 29:0 30:0 31:0 32:0 33:0 34:0.124584 35:0.798643 36:0.886236 37:0.113728 38:0 39:0 40:0 41:0 42:0 43:0 44:0 45:0.0371269 46:0.0123756 47:0.0633632 48:0.114846 49:0.305925 50:0.409881 51:0.0168309 52:0.0178209 53:0.0217811 54:0.0569933 55:0.101293 56:0.248698 57:0.204399 58:0.0440403 59:0.210875 60:0.0974068 61:0 62:0.0362685 63:0 64:0.150183 65:0.12379 66:0.0605937 67:0.0780655 68:0.0494415 69:0.0750915 70:0.12602 71:0.336797 72:0.093913 73:0.166884 74:0.00883502 75:0 76:0 77:0 78:0 79:0.205823 80:0.524538 81:0.163685 82:0.113876 83:0 84:0 85:0 86:0 87:0 88:0.229463 89:0.492956 90:0 91:0 92:0 93:0 94:0.404171 95:0.587467 96:0.00835109 97:0 98:0 99:0 100:0 101:0 102:0.00486952 103:0.723646 104:0.271476 105:0 106:0 107:0 108:0 109:0 110:0.232652 111:0.442982 112:0.320151 113:0.00420916 114:0 115:0 116:0 117:0.00743797 118:0.270935 119:0.516388 120:0.0674926 121:0.0239668 122:0.0614321 123:0.00743797 124:0.0187327 125:0.0261706 126:0.0458325 127:0.169441 128:0.176212 129:0.042534 130:0.0911442 131:0.121526 132:0.31996 133:0.0333328 134:0 135:0 136:0 137:0 138:0.0688439 139:0.811386 140:0.119755 141:0 142:0 143:0 144:0 145:0 146:0 147:0.0167337 148:0.954023 149:0.0292336 150:0 151:0 152:0 153:0 154:0 155:0.00508603 156:0.370341 157:0.576913 158:0.0476522 159:0 160:0 161:0 162:0 163:0 164:0.012158 165:0.513066 166:0.459571 167:0 168:0.00303949 169:0.012158 170:0 171:0 172:0 173:0 174:0 175:0.220442 176:0.0283674 177:0.313468 178:0.375671 179:0.0620439 
1 0:0 1:0 2:0 3:0 4:0.721573 5:0.27836 6:0 7:0 8:0 9:0.540627 10:0.130591 11:0 12:0.157987 13:0.0566197 14:0 15:0 16:0.00821899 17:0.105934 18:0.572857 19:0 20:0 21:0 22:0 23:0 24:0 25:0 26:0.42713 27:0.471991 28:0 29:0 30:0 31:0 32:0 33:0.0319994 34:0.148797 35:0.347193 36:0.218388 37:0 38:0 39:0 40:0 41:0 42:0 43:0.178158 44:0.60344 45:0 46:0 47:0 48:0 49:0.271197 50:0.535326 51:0.136646 52:0.0568048 53:0 54:0.0676047 55:0 56:0 57:0 58:0 59:0.152111 60:0.132392 61:0.300841 62:0.347037 63:0.240358 64:0.00473852 65:0 66:0 67:0 68:0 69:0 70:0.0628263 71:0.69207 72:0.410664 73:0.347949 74:0.0560339 75:0 76:0 77:0 78:0 79:0.0093749 80:0.175968 81:0.465979 82:0.51147 83:0.0225408 84:0 85:0 86:0 87:0 88:0 89:0 90:0.555453 91:0 92:0 93:0 94:0 95:0 96:0.194408 97:0.194408 98:0.0555453 99:0.917146 100:0 101:0 102:0 103:0 104:0 105:0 106:0.014201 107:0.068638 108:0.99458 109:0.0054104 110:0 111:0 112:0 113:0 114:0 115:0 116:0 117:0.999969 118:0 119:0 120:0 121:0 122:0 123:0 124:0 125:0 126:0.999985 127:0 128:0 129:0 130:0 131:0 132:0 133:0 134:0 135:0.999981 136:0 137:0 138:0 139:0 140:0 141:0 142:0 143:0 144:0.99998 145:0 146:0 147:0 148:0 149:0 150:0 151:0 152:0 153:0.999987 154:0 155:0 156:0 157:0 158:0 159:0 160:0 161:0 162:0.999912 163:0 164:0 165:0 166:0 167:0 168:0 169:0 170:0 171:0.999979 172:0 173:0 174:0 175:0 176:0 177:0 178:0 179:0 
1 0:0 1:0 2:0 3:0.0190461 4:0.642806 5:0.323784 6:0.0142846 7:0 8:0 9:0.429473 10:0.294862 11:0.0128201 12:0.0724336 13:0.190379 14:0 15:0 16:0 17:0 18:0.186155 19:0 20:0 21:0 22:0 23:0 24:0 25:0 26:0.813833 27:0.472316 28:0.0811793 29:0.0354237 30:0.052951 31:0.0149444 32:0 33:0 34:0.158484 35:0.184683 36:0 37:0 38:0 39:0 40:0 41:0 42:0 43:0.310073 44:0.689914 45:0 46:0 47:0 48:0 49:0.674217 50:0.295443 51:0.0227264 52:0.00757547 53:0 54:0 55:0 56:0 57:0 58:0.157939 59:0.175087 60:0.306493 61:0.247107 62:0.113355 63:0.229707 64:0 65:0 66:0 67:0 68:0 69:0.00237364 70:0.245327 71:0.522584 72:0.178351 73:0.212233 74:0 75:0 76:0.0437642 77:0.0462347 78:0.0311761 79:0.161057 80:0.327173 81:0.595385 82:0.404605 83:0 84:0 85:0 86:0 87:0 88:0 89:0 90:0 91:0 92:0 93:0 94:0.767946 95:0.201255 96:0.0182225 97:0.00754033 98:0.00502688 99:0 100:0.00853506 101:0.0774208 102:0.278933 103:0.590553 104:0.00217916 105:0.000907985 106:0.000302662 107:0.041162 108:0.2048 109:0.179524 110:0.186533 111:0.369203 112:0.0551322 113:0.0048013 114:0 115:0 116:0 117:0.276124 118:0.332489 119:0.159945 120:0.0358085 121:0.0457554 122:0.0119362 123:0.00106099 124:0.0442965 125:0.0925717 126:0.345333 127:0.479846 128:0.174812 129:0 130:0 131:0 132:0 133:0 134:0 135:0 136:0 137:0 138:0.0337266 139:0.87991 140:0.0863506 141:0 142:0 143:0 144:0 145:0 146:0 147:0.120373 148:0.842983 149:0.0366352 150:0 151:0 152:0 153:0 154:0 155:0.0298195 156:0.444861 157:0.471257 158:0 159:0.0513509 160:0.00270268 161:0 162:0.0561943 163:0.236355 164:0.398153 165:0.281266 166:0 167:0 168:0 169:0.00700585 170:0.0210175 171:0.117514 172:0.481203 173:0.401267 174:0 175:0 176:0 177:0 178:0 179:0 
1 0:0.111096 1:0.187474 2:0.256909 3:0 4:0.166644 5:0 6:0.0680461 7:0.134704 8:0.0749896 9:0.113959 10:0.237827 11:0.187829 12:0.13603 13:0 14:0.0567542 15:0.0243232 16:0 17:0.243232 18:0.124362 19:0.223091 20:0.0535519 21:0 22:0 23:0.0213193 24:0.00913682 25:0.0154818 26:0.553032 27:0.262709 28:0 29:0 30:0 31:0 32:0 33:0 34:0 35:0.73728 36:0.0620895 37:0.00326787 38:0 39:0 40:0.0261429 41:0 42:0.162086 43:0.522859 44:0.223522 45:0.0881998 46:0.0803348 47:0 48:0 49:0 50:0 51:0.188197 52:0.36263 53:0.28061 54:0.113508 55:0.0756723 56:0 57:0.0621594 58:0.0297284 59:0.264403 60:0.179722 61:0.0963921 62:0.17837 63:0.557794 64:0.093036 65:0.086707 66:0.0345984 67:0.049366 68:0.0892386 69:0.0132909 70:0.0198308 71:0.056117 72:0.791888 73:0.0217423 74:0 75:0 76:0 77:0 78:0 79:0 80:0.186362 81:0.149597 82:0.27618 83:0.113884 84:0 85:0 86:0.0857109 87:0.136503 88:0.0753938 89:0.162692 90:0 91:0 92:0 93:0.00659329 94:0.288456 95:0.521053 96:0.136261 97:0.0476182 98:0 99:0 100:0 101:0 102:0.0990866 103:0.757131 104:0.143767 105:0 106:0 107:0 108:0 109:0.07245 110:0.150075 111:0.372448 112:0.214915 113:0.0376709 114:0.0276254 115:0.0602735 116:0.0645353 117:0.157292 118:0.167995 119:0.306452 120:0.161542 121:0 122:0 123:0 124:0.121983 125:0.084732 126:0.145537 127:0.164644 128:0.194898 129:0.163689 130:0.057323 131:0 132:0.0315277 133:0.196491 134:0.0458584 135:0 136:0 137:0 138:0 139:0.669188 140:0.330804 141:0 142:0 143:0 144:0 145:0 146:0 147:0.156796 148:0.819039 149:0.0241587 150:0 151:0 152:0 153:0 154:0.0230641 155:0.0818774 156:0.629484 157:0.260294 158:0.00527179 159:0 160:0 161:0 162:0 163:0 164:0.18429 165:0.608621 166:0.169213 167:0.0265075 168:0.0113604 169:0 170:0 171:0 172:0 173:0 174:0.145267 175:0.345581 176:0.278783 177:0.179573 178:0.0507882 179:0 
1 0:0 1:0 2:0 3:0 4:0 5:0 6:0 7:0.115446 8:0.884526 9:0.338286 10:0.2468 11:0.152477 12:0.0212758 13:0.120918 14:0.0450339 15:0.0397149 16:0.00886493 17:0.0265948 18:0.41184 19:0.0289252 20:0 21:0 22:0 23:0 24:0 25:0.0723131 26:0.486908 27:0.165753 28:0.021218 29:0.0491586 30:0.0999979 31:0.0319321 32:0.129409 33:0.140333 34:0.266171 35:0.0960064 36:0.352516 37:0.207318 38:0.117926 39:0.00909068 40:0 41:0 42:0.0361102 43:0.0613621 44:0.215651 45:0.323915 46:0.201369 47:0.199408 48:0.0596067 49:0 50:0 51:0 52:0.0727437 53:0.142938 54:0 55:0.0634284 56:0.114254 57:0.0396686 58:0.125617 59:0.273341 60:0.235946 61:0.0814033 62:0.0663209 63:0.231421 64:0.0432802 65:0 66:0 67:0 68:0 69:0.0870545 70:0.209385 71:0.428849 72:0.548801 73:0.196277 74:0.119492 75:0.0223211 76:0.0428565 77:0.0541659 78:0.0160712 79:0 80:0 81:0 82:0 83:0 84:0 85:0 86:0.00584182 87:0.0876274 88:0.210134 89:0.69638 90:0 91:0 92:0 93:0 94:0.0505106 95:0.585397 96:0.286713 97:0.0773717 98:0 99:0 100:0 101:0.0399239 102:0.365073 103:0.560147 104:0.0348482 105:0 106:0 107:0 108:0.0876498 109:0.19295 110:0.434806 111:0.278687 112:0.00590161 113:0 114:0 115:0 116:0 117:0.162434 118:0.343143 119:0.305834 120:0.12208 121:0.00558369 122:0 123:0 124:0.025888 125:0.0350249 126:0.358749 127:0.314265 128:0.225657 129:0.070143 130:0 131:0 132:0 133:0 134:0.0311747 135:0 136:0 137:0.0420705 138:0.0224915 139:0.525882 140:0.40954 141:0 142:0 143:0 144:0 145:0 146:0 147:0.10271 148:0.878407 149:0.0188718 150:0 151:0 152:0 153:0 154:0 155:0.0389679 156:0.378075 157:0.272059 158:0.0329508 159:0.0116044 160:0.0772195 161:0.189109 162:0.109581 163:0.270891 164:0.324493 165:0.283067 166:0.0119596 167:0 168:0 169:0 170:0 171:0 172:0 173:0.252841 174:0.620974 175:0.126175 176:0 177:0 178:0 179:0 
0.8228834754565471 0:0.267568 1:0.286085 2:0.152764 3:0.0712897 4:0.0277752 5:0.0648088 6:0 7:0.0388853 8:0.0907323 9:0.45758 10:0.426167 11:0.00104709 12:0 13:0.0293186 14:0.00732965 15:0 16:0 17:0.078532 18:0.223137 19:0.00275478 20:0.00826435 21:0.0374651 22:0.0203854 23:0 24:0 25:0.0782358 26:0.629743 27:0.110353 28:0.0198907 29:0.000544952 30:0 31:0 32:0 33:0 34:0.000817428 35:0.868381 36:0.659732 37:0 38:0 39:0 40:0 41:0 42:0 43:0 44:0.340255 45:0.0357111 46:0.00892777 47:0.126774 48:0.0499955 49:0.211588 50:0.195518 51:0.166057 52:0.141059 53:0.06428 54:0.198004 55:0.0741134 56:0.00663702 57:0.014159 58:0.0471229 59:0.0139377 60:0 61:0.297339 62:0.348665 63:0.858397 64:0.100848 65:0 66:0 67:0.00373511 68:0.0286076 69:0.008404 70:0 71:0 72:0.764518 73:0.168062 74:0.00223462 75:0 76:0 77:0 78:0 79:0.00167596 80:0.0635003 81:0.530234 82:0.0723791 83:0 84:0 85:0 86:0 87:0 88:0 89:0.397376 90:0.103791 91:0 92:0.0225547 93:0.0662668 94:0.626042 95:0.134031 96:0.0457081 97:0.00159679 98:0 99:0.0153138 100:0 101:0.00696779 102:0.414009 103:0.487898 104:0.0419599 105:0.0200611 106:0.0137824 107:0 108:0.0260993 109:0.16912 110:0.33279 111:0.376241 112:0.0957452 113:0 114:0 115:0 116:0 117:0.0937753 118:0.287965 119:0.398407 120:0.192461 121:0.0174273 122:0.00995844 123:0 124:0 125:0 126:0.215357 127:0.488681 128:0.225518 129:0.0704384 130:0 131:0 132:0 133:0 134:0 135:0 136:0 137:0 138:0 139:0.7959 140:0.204089 141:0 142:0 143:0 144:0 145:0 146:0.0243792 147:0.350529 148:0.610722 149:0.0143616 150:0 151:0 152:0 153:0.00434256 154:0.00651383 155:0.00367911 156:0.493121 157:0.474907 158:0.0174305 159:0 160:0 161:0 162:0 163:0 164:0.246431 165:0.655024 166:0.09854 167:0 168:0 169:0 170:0 171:0.0200816 172:0.0510235 173:0.40409 174:0.508186 175:0.016598 176:0 177:0 178:0 179:0 
1 0:0 1:0.0583236 2:0.174971 3:0.116647 4:0.383269 5:0 6:0.199967 7:0.0666556 8:0 9:0.119596 10:0.0225468 11:0.156847 12:0.151946 13:0 14:0.0235271 15:0.167631 16:0.174493 17:0.183315 18:0.21009 19:0.20706 20:0.118176 21:0.060603 22:0.0565628 23:0.0141407 24:0.0363618 25:0.148982 26:0.147972 27:0.354379 28:0.0017808 29:0 30:0 31:0 32:0 33:0 34:0.0330132 35:0.610814 36:0.328514 37:0 38:0 39:0 40:0 41:0 42:0 43:0.00974712 44:0.661721 45:0.0221413 46:0.0492822 47:0 48:0 49:0 50:0.0299979 51:0.362117 52:0.504964 53:0.0314263 54:0.0203685 55:0.0166651 56:0 57:0.0629571 58:0.230534 59:0.132395 60:0.183316 61:0.285159 62:0.0685122 63:0.443459 64:0.153037 65:0.0817356 66:0.0456502 67:0.0430416 68:0.0156515 69:0 70:0.131733 71:0.0856484 72:0.409757 73:0.00455526 74:0 75:0 76:0 77:0 78:0 79:0.0131235 80:0.572553 81:0.544152 82:0.0760673 83:0.00940158 84:0 85:0 86:0 87:0 88:0.00512813 89:0.365237 90:0.0341455 91:0.00243896 92:0.0109753 93:0.0207312 94:0.390234 95:0.429258 96:0.0658521 97:0.0463403 98:0 99:0.00619186 100:0.0154796 101:0.0464389 102:0.308354 103:0.45959 104:0.131732 105:0.0321976 106:0 107:0 108:0 109:0.0499996 110:0.0614395 111:0.613595 112:0.247758 113:0 114:0.00599995 115:0.00679995 116:0.0143999 117:0.155869 118:0.193205 119:0.195814 120:0.352498 121:0.102608 122:0 123:0 124:0 125:0 126:0.374446 127:0.399367 128:0.114575 129:0.0833843 130:0 131:0 132:0.0126957 133:0.015517 134:0 135:0 136:0 137:0 138:0.00986231 139:0.775759 140:0.214371 141:0 142:0 143:0 144:0 145:0 146:0 147:0.256113 148:0.743881 149:0 150:0 151:0 152:0 153:0 154:0 155:0 156:0.603594 157:0.396399 158:0 159:0 160:0 161:0 162:0.0525365 163:0.114327 164:0.00626856 165:0.176415 166:0.524022 167:0.0673124 168:0.00910434 169:0.00940285 170:0.0405964 171:0 172:0.205094 173:0.388424 174:0.286661 175:0.0717633 176:0.0213721 177:0.0266661 178:0 179:0 
1 0:0.873754 1:0.0591445 2:0 3:0 4:0 5:0 6:0 7:0 8:0.0670711 9:0.198768 10:0.285348 11:0.089019 12:0 13:0 14:0.0426803 15:0.0865801 16:0.228035 17:0.069508 18:0.65936 19:0.00339574 20:0 21:0 22:0 23:0 24:0 25:0 26:0.337233 27:0.444256 28:0.0488521 29:0.0298158 30:0 31:0 32:0.00642187 33:0.0532098 34:0.020183 35:0.397239 36:0.358053 37:0.0290313 38:0 39:0 40:0 41:0 42:0 43:0.0922551 44:0.520628 45:0.755646 46:0.199995 47:0.0443339 48:0 49:0 50:0 51:0 52:0 53:0 54:0.227198 55:0.074262 56:0 57:0 58:0.0779383 59:0.237124 60:0.199625 61:0.107349 62:0.0764678 63:0.283017 64:0 65:0 66:0 67:0 68:0 69:0 70:0.156367 71:0.560609 72:0.504942 73:0.0415835 74:0.0402634 75:0.00396033 76:0 77:0.00462039 78:0.0290424 79:0.0217818 80:0.35379 81:0.41199 82:0.237244 83:0.040749 84:0 85:0 86:0 87:0 88:0.0604985 89:0.249494 90:0.0605697 91:0 92:0 93:0 94:0.196911 95:0.566742 96:0.172208 97:0.00356292 98:0 99:0 100:0 101:0 102:0.329508 103:0.670486 104:0 105:0 106:0 107:0 108:0.00418603 109:0.130744 110:0.323301 111:0.514044 112:0.0277208 113:0 114:0 115:0 116:0 117:0.139684 118:0.164072 119:0.302707 120:0.227446 121:0.0714154 122:0.0124999 123:0.0476394 124:0.00655589 125:0.0279718 126:0.0394687 127:0.459111 128:0.425129 129:0.0762825 130:0 131:0 132:0 133:0 134:0 135:0.110462 136:0.113078 137:0.10552 138:0.0627889 139:0.27005 140:0.242726 141:0.0139531 142:0.081393 143:0 144:0 145:0 146:0.0469555 147:0.195648 148:0.488902 149:0.133693 150:0.0784765 151:0.0563031 152:0 153:0.1656 154:0.195487 155:0.242009 156:0.295768 157:0.0879691 158:0.0124999 159:0.000657889 160:0 161:0 162:0 163:0.032974 164:0.131357 165:0.678391 166:0.157273 167:0 168:0 169:0 170:0 171:0 172:0 173:0.1727 174:0.461075 175:0.299455 176:0.0456751 177:0.0210808 178:0 179:0 
1 0:0.022726 1:0 2:0.0102267 3:0.0238623 4:0.026703 5:0.0187489 6:0.0255667 7:0.0215897 8:0.85052 9:0.146985 10:0.157984 11:0.0149985 12:0.0319968 13:0.0879912 14:0.0419958 15:0.0839916 16:0.225977 17:0.207979 18:0.413021 19:0 20:0 21:0 22:0.0538014 23:0.217923 24:0.0864083 25:0.0548883 26:0.173904 27:0 28:0 29:0 30:0 31:0 32:0 33:0.0333006 34:0.380967 35:0.585722 36:0.0657763 37:0.00533321 38:0 39:0 40:0 41:0 42:0.0208884 43:0.495545 44:0.412435 45:0.0838138 46:0 47:0 48:0 49:0 50:0 51:0.0171963 52:0.449993 53:0.448982 54:0.055554 55:0.0252771 56:0.0136107 57:0 58:0.00416655 59:0.445265 60:0.314158 61:0.0819422 62:0.0599983 63:0.0384093 64:0.0841032 65:0.111917 66:0.240721 67:0.16026 68:0.0609251 69:0.210589 70:0.0751631 71:0.0178802 72:0 73:0 74:0 75:0 76:0 77:0.00992899 78:0.0542548 79:0.158332 80:0.777475 81:0.0741737 82:0.00601408 83:0 84:0 85:0 86:0 87:0 88:0.0274761 89:0.892324 90:0 91:0 92:0 93:0 94:0.019144 95:0.435696 96:0.454783 97:0.0903711 98:0 99:0 100:0 101:0 102:0 103:0.432249 104:0.493819 105:0.0710991 106:0.00282721 107:0 108:0 109:0 110:0.00419311 111:0.174332 112:0.767403 113:0.0388181 114:0.0114358 115:0.00381192 116:0 117:0.0779098 118:0.0893671 119:0.213015 120:0.475204 121:0.10417 122:0 123:0 124:0.0100824 125:0.0302473 126:0.35221 127:0.217597 128:0.216548 129:0.191723 130:0.0219112 131:0 132:0 133:0 134:0 135:0 136:0 137:0 138:0.00824268 139:0.031612 140:0.631878 141:0.328258 142:0 143:0 144:0 145:0 146:0 147:0 148:0.467928 149:0.46294 150:0.0691203 151:0 152:0 153:0 154:0 155:0.0478867 156:0.150139 157:0.729708 158:0.0722525 159:0 160:0 161:0 162:0 163:0 164:0.110237 165:0.631073 166:0.258681 167:0 168:0 169:0 170:0 171:0 172:0 173:0.130287 174:0.685812 175:0.183893 176:0 177:0 178:0 179:0 
1 0:0.634554 1:0 2:0 3:0 4:0 5:0 6:0.0509566 7:0.189405 8:0.124988 9:0.423289 10:0 11:0 12:0 13:0 14:0 15:0 16:0 17:0.576696 18:0.634029 19:0.017872 20:0.00765941 21:0 22:0 23:0.00638284 24:0.0199996 25:0.0161699 26:0.297866 27:0.359078 28:0.21258 29:0.0506975 30:0 31:0 32:0.0104891 33:0.0314674 34:0.104891 35:0.230761 36:0.858704 37:0.141276 38:0 39:0 40:0 41:0 42:0 43:0 44:0 45:0 46:0 47:0 48:0.385496 49:0.404195 50:0.0991857 51:0.0342814 52:0.0573163 53:0.0195119 54:0.183936 55:0.168538 56:0.281278 57:0.33629 58:0.0299515 59:0 60:0 61:0 62:0 63:0.224626 64:0.215603 65:0.247556 66:0.192461 67:0.0711245 68:0.0486194 69:0 70:0 71:0 72:0.118365 73:0.0122446 74:0.0367339 75:0 76:0.0277545 77:0.0563254 78:0.0220404 79:0.0928552 80:0.63366 81:0.155985 82:0.102911 83:0 84:0 85:0 86:0 87:0 88:0.0878627 89:0.653226 90:0 91:0.0278337 92:0.177933 93:0.586937 94:0.207285 95:0 96:0 97:0 98:0 99:0.0383558 100:0.035029 101:0.246769 102:0.586491 103:0.0620346 104:0 105:0.00880618 106:0.00293539 107:0.0195693 108:0.116543 109:0.210178 110:0.17327 111:0.215996 112:0.155815 113:0.0190906 114:0.0945437 115:0 116:0.0145452 117:0.292485 118:0.549045 119:0.080742 120:0 121:0 122:0 123:0.0069084 124:0.0276336 125:0.0431775 126:0.0837152 127:0.548846 128:0.320456 129:0.0469724 130:0 131:0 132:0 133:0 134:0 135:0 136:0 137:0 138:0.106381 139:0.784026 140:0.109572 141:0 142:0 143:0 144:0 145:0 146:0 147:0.148761 148:0.74822 149:0.103002 150:0 151:0 152:0 153:0.0645153 154:0.020161 155:0.301071 156:0.359404 157:0.171503 158:0.00967729 159:0.023118 160:0.0129031 161:0.0376339 162:0.227507 163:0.399996 164:0.372487 165:0 166:0 167:0 168:0 169:0 170:0 171:0.306874 172:0.2727 173:0.174996 174:0.0114676 175:0 176:0 177:0 178:0.0247701 179:0.20917 
1 0:0.609695 1:0.13993 2:0.149925 3:0 4:0 5:0 6:0.0749625 7:0.0249875 8:0 9:0 10:0 11:0 12:0.0246558 13:0.00547908 14:0.103418 15:0.243134 16:0.0972536 17:0.525991 18:0.327023 19:0 20:0 21:0 22:0 23:0 24:0 25:0 26:0.672964 27:0.758276 28:0 29:0 30:0 31:0 32:0 33:0 34:0 35:0.2417 36:0.304611 37:0 38:0 39:0 40:0 41:0 42:0 43:0 44:0.695374 45:0.0211518 46:0.017306 47:0 48:0.330737 49:0.448034 50:0.110566 51:0.0288434 52:0.0221133 53:0.0211518 54:0.00901602 55:0.00737675 56:0 57:0.0852424 58:0.162288 59:0.129503 60:0.0307364 61:0.137699 62:0.438097 63:0.538215 64:0.0121402 65:0 66:0 67:0 68:0 69:0 70:0 71:0.449636 72:0.943955 73:0.00283683 74:0 75:0 76:0 77:0 78:0 79:0.00744668 80:0.0457439 81:0.0138887 82:0 83:0 84:0 85:0 86:0.072499 87:0.0802767 88:0.300413 89:0.532909 90:0 91:0 92:0 93:0 94:0.47922 95:0.520771 96:0 97:0 98:0 99:0 100:0.00454543 101:0.149279 102:0.556316 103:0.271562 104:0.0182926 105:0 106:0 107:0 108:0 109:0.207865 110:0.395041 111:0.376399 112:0.0206895 113:0 114:0 115:0 116:0 117:0.0290319 118:0.163362 119:0.487091 120:0.18456 121:0.0557597 122:0.0110598 123:0 124:0.0311056 125:0.038018 126:0.0523409 127:0 128:0.0330574 129:0.186499 130:0.111018 131:0 132:0.32107 133:0.223688 134:0.0723131 135:0 136:0 137:0.00954845 138:0.100519 139:0.617177 140:0.272738 141:0 142:0 143:0 144:0 145:0 146:0.0723278 147:0.297667 148:0.466706 149:0.0916426 150:0.0141094 151:0 152:0.0575335 153:0.12244 154:0.187793 155:0.207478 156:0.310528 157:0.167813 158:0 159:0.00295273 160:0.000984242 161:0 162:0 163:0.0284018 164:0.306927 165:0.647312 166:0.0173532 167:0 168:0 169:0 170:0 171:0 172:0 173:0 174:0.0592404 175:0.16683 176:0.0479369 177:0.484897 178:0.235559 179:0.00552801 
1 0:0 1:0 2:0 3:0.05999 4:0.166639 5:0.173304 6:0.0499917 7:0.136644 8:0.413264 9:0.328538 10:0.0183655 11:0 12:0 13:0.0448934 14:0.0367309 15:0 16:0.115294 17:0.456076 18:0 19:0 20:0 21:0 22:0 23:0 24:0 25:0 26:0.999985 27:0.487796 28:0 29:0 30:0 31:0 32:0 33:0 34:0 35:0.512186 36:0.926436 37:0.0734619 38:0 39:0 40:0 41:0 42:0 43:0 44:0 45:0.164378 46:0.0136982 47:0.0410945 48:0.158214 49:0.471902 50:0.0479436 51:0.0616417 52:0.0410945 53:0 54:0.00272719 55:0.0154541 56:0.00212115 57:0.192115 58:0.53059 59:0.199994 60:0.056968 61:0 62:0 63:0.15927 64:0.0956946 65:0 66:0 67:0 68:0 69:0.126903 70:0.212995 71:0.405129 72:0.428013 73:0.0116378 74:0 75:0 76:0 77:0 78:0 79:0 80:0.560339 81:0.668775 82:0.296996 83:0 84:0 85:0 86:0 87:0.01282 88:0.0119653 89:0.00940131 90:0.0315066 91:0 92:0 93:0 94:0.566982 95:0.401504 96:0 97:0 98:0 99:0 100:0 101:0 102:0.255691 103:0.744304 104:0 105:0 106:0 107:0 108:0 109:0.0200693 110:0.269622 111:0.639343 112:0.0660056 113:0 114:0.000991075 115:0.0039643 116:0 117:0 118:0.170016 119:0.443823 120:0.314195 121:0.0649024 122:0 123:0.000352731 124:0.00670188 125:0 126:0.0443408 127:0.211062 128:0.314862 129:0.398476 130:0.0312497 131:0 132:0 133:0 134:0 135:0 136:0 137:0 138:0 139:0.950905 140:0.0417729 141:0.00731255 142:0 143:0 144:0 145:0 146:0 147:0.0385672 148:0.961426 149:0 150:0 151:0 152:0 153:0 154:0.00536395 155:0.0363344 156:0.216027 157:0.733329 158:0.00849292 159:0.000446996 160:0 161:0 162:0 163:0 164:0.186985 165:0.674524 166:0.138486 167:0 168:0 169:0 170:0 171:0 172:0 173:0.029534 174:0.708202 175:0.19387 176:0.0661757 177:0.00220586 178:0 179:0 
1 0:0.320125 1:0.0380569 2:0.0671592 3:0.0447728 4:0.156705 5:0 6:0 7:0 8:0.373107 9:0.275809 10:0.0538432 11:0.220867 12:0.140652 13:0.0637328 14:0.0362617 15:0.0412065 16:0.0532938 17:0.114279 18:0.791342 19:0.141561 20:0.0588465 21:0 22:0.00411514 23:0 24:0.00308636 25:0.00102879 26:0 27:0.392655 28:0.00308507 29:0 30:0 31:0 32:0 33:0 34:0.0917011 35:0.512548 36:0.335473 37:0.140318 38:0.0725783 39:0 40:0 41:0 42:0 43:0.157414 44:0.294184 45:0.105162 46:0.0485904 47:0.0434262 48:0 49:0 50:0.0204221 51:0.354687 52:0.2399 53:0.187789 54:0.0425263 55:0.0178151 56:0.107465 57:0.158612 58:0.28734 59:0.186771 60:0.0563186 61:0.0971209 62:0.0459744 63:0.0980323 64:0.00589879 65:0 66:0 67:0.0400275 68:0.0874988 69:0.153509 70:0.321625 71:0.293395 72:0.217079 73:0.0252553 74:0 75:0 76:0 77:0 78:0.0027737 79:0.337078 80:0.417807 81:0.0492175 82:0.214578 83:0.233327 84:0.0783834 85:0.0138017 86:0.223953 87:0.11458 88:0.0416656 89:0.030468 90:0 91:0 92:0 93:0 94:0.0972817 95:0.246193 96:0.303077 97:0.333874 98:0.019565 99:0 100:0 101:0 102:0.0674432 103:0.667358 104:0.142925 105:0.0767679 106:0.045498 107:0 108:0.00317072 109:0.0881459 110:0.295755 111:0.4759 112:0.137024 113:0 114:0 115:0 116:0 117:0 118:0.256635 119:0.639198 120:0.099662 121:0 122:0.00224971 123:0.00224971 124:0 125:0 126:0.0195353 127:0.0422125 128:0.384831 129:0.465977 130:0.0251363 131:0.0598352 132:0.00245898 133:0 134:0 135:0.00303026 136:0.0360601 137:0.00636354 138:0.0319692 139:0.696202 140:0.190906 141:0.035454 142:0 143:0 144:0 145:0 146:0 147:0.206717 148:0.77351 149:0.0158101 150:0.00395253 151:0 152:0 153:0 154:0 155:0.0415234 156:0.394472 157:0.556852 158:0.00714279 159:0 160:0 161:0 162:0 163:0 164:0.0978106 165:0.676398 166:0.206633 167:0 168:0 169:0.011491 170:0.00766069 171:0 172:0 173:0.189616 174:0.710791 175:0.0995839 176:0 177:0 178:0 179:0 
1 0:0.285132 1:0.214775 2:0.0555453 3:0 4:0 5:0 6:0.0555453 7:0.107388 8:0.281429 9:0.236078 10:0.256909 11:0.0902652 12:0 13:0 14:0.0583252 15:0.136092 16:0.147202 17:0.0749896 18:0.901745 19:0.0363627 20:0.0113633 21:0 22:0.00101008 23:0.00909068 24:0 25:0 26:0.040403 27:0.999991 28:0 29:0 30:0 31:0 32:0 33:0 34:0 35:0 36:0.0745421 37:0.113177 38:0.0122722 39:0 40:0 41:0 42:0 43:0.0681787 44:0.731785 45:0.163378 46:0.230337 47:0.177663 48:0 49:0.0178555 50:0.147308 51:0.102669 52:0.0937416 53:0.0669583 54:0.268162 55:0.0916597 56:0.124991 57:0.0249981 58:0.020453 59:0.0477237 60:0.193925 61:0.117415 62:0.110598 63:0.632642 64:0.00425163 65:0.0127549 66:0 67:0 68:0 69:0.000680261 70:0.0151358 71:0.334518 72:0.999993 73:0 74:0 75:0 76:0 77:0 78:0 79:0 80:0 81:0.627968 82:0.0764127 83:0 84:0 85:0 86:0 87:0 88:0.0528285 89:0.24276 90:0.147343 91:0.0193174 92:0 93:0.0496193 94:0.415893 95:0.328018 96:0.0359835 97:0.00378774 98:0 99:0 100:0.0220202 101:0.0790135 102:0.522266 103:0.299474 104:0.0357504 105:0.00388591 106:0.0121758 107:0.0253879 108:0.172547 109:0.183173 110:0.336374 111:0.274113 112:0.0337872 113:0 114:0 115:0 116:0 117:0.506809 118:0.292326 119:0.15357 120:0.047288 121:0 122:0 123:0 124:0 125:0 126:0.481628 127:0.401074 128:0.0717582 129:0.0393512 130:0.000617274 131:0.00555547 132:0 133:0 134:0 135:0 136:0 137:0 138:0.0217702 139:0.711557 140:0.266665 141:0 142:0 143:0 144:0 145:0 146:0 147:0.443301 148:0.556693 149:0 150:0 151:0 152:0 153:0 154:0 155:0.0917015 156:0.686449 157:0.201984 158:0 159:0 160:0.0119148 161:0.00794321 162:0 163:0.146143 164:0.415299 165:0.373944 166:0.0477798 167:0.00280371 168:0 169:0.00630834 170:0.00771019 171:0 172:0.0878664 173:0.581526 174:0.325113 175:0.00548682 176:0 177:0 178:0 179:0 
1 0:0.195098 1:0 2:0.408487 3:0.15242 4:0 5:0 6:0 7:0.109743 8:0.13413 9:0.0833241 10:0.128875 11:0.205533 12:0.0266637 13:0.0133319 14:0.166648 15:0.092212 16:0.105544 17:0.177758 18:0.800726 19:0.17313 20:0.0111938 21:0 22:0 23:0.0104475 24:0.0044775 25:0 26:0 27:0.906084 28:0.0939078 29:0 30:0 31:0 32:0 33:0 34:0 35:0 36:0.289541 37:0.182456 38:0.0802209 39:0 40:0 41:0 42:0 43:0.074251 44:0.373493 45:0.0660961 46:0.193204 47:0.130497 48:0.0279637 49:0.127108 50:0.256758 51:0.096602 52:0.0381324 53:0.0635539 54:0.189117 55:0.271719 56:0.0608651 57:0.105065 58:0.0253605 59:0.01739 60:0.113035 61:0.0666618 62:0.150714 63:0.774921 64:0.0798619 65:0.0164381 66:0 67:0 68:0 69:0 70:0.00410953 71:0.124656 72:0.915844 73:0.0841491 74:0 75:0 76:0 77:0 78:0 79:0 80:0 81:0.744798 82:0.143151 83:0 84:0 85:0 86:0 87:0.00933591 88:0.00311197 89:0.099583 90:0.0491394 91:0.000614243 92:0.00184273 93:0.0270267 94:0.720507 95:0.198401 96:0.00184273 97:0.000614243 98:0 99:0 100:0 101:0.0227792 102:0.585884 103:0.373278 104:0.0141833 105:0.00386817 106:0 107:0 108:0.0214476 109:0.126407 110:0.286951 111:0.459649 112:0.10554 113:0 114:0 115:0 116:0 117:0.115332 118:0.325414 119:0.316247 120:0.204582 121:0.0150832 122:0 123:0.0081666 124:0.0151665 125:0 126:0.0694899 127:0.314736 128:0.434019 129:0.181748 130:0 131:0 132:0 133:0 134:0 135:0 136:0 137:0 138:0.0680362 139:0.740308 140:0.191642 141:0 142:0 143:0 144:0 145:0.000967109 146:0.0365567 147:0.488777 148:0.444677 149:0.0290133 150:0 151:0 152:0 153:0 154:0.000753006 155:0.0801199 156:0.696983 157:0.222137 158:0 159:0 160:0 161:0 162:0 163:0 164:0.162861 165:0.701014 166:0.136119 167:0 168:0 169:0 170:0 171:0 172:0.0203659 173:0.442787 174:0.464068 175:0.072768 176:0 177:0 178:0 179:0 
1 0:0 1:0 2:0 3:0 4:0 5:0.0898367 6:0.333568 7:0.423404 8:0.153113 9:0.103439 10:0.0215499 11:0.161193 12:0.0844755 13:0.0430997 14:0.0241359 15:0.119817 16:0.314628 17:0.127575 18:0.188374 19:0.0580966 20:0 21:0 22:0.0218302 23:0.161262 24:0.094715 25:0.0616176 26:0.41407 27:0.737403 28:0 29:0 30:0 31:0 32:0 33:0 34:0 35:0.262588 36:0.253118 37:0.0281243 38:0 39:0 40:0 41:0 42:0.0791646 43:0.106508 44:0.533059 45:0.491515 46:0.118302 47:0.108443 48:0 49:0.0140835 50:0 51:0.0528132 52:0.142948 53:0.0718259 54:0.0391276 55:0.134773 56:0.085501 57:0.101442 58:0.232592 59:0.333309 60:0.0659373 61:0.00724585 62:0 63:0.492383 64:0.0134499 65:0.0365486 66:0.0789451 67:0.0339171 68:0.13216 69:0.0207596 70:0.0280694 71:0.163738 72:0.0424594 73:0 74:0 75:0 76:0 77:0 78:0 79:0.0409953 80:0.916538 81:0.213131 82:0.0408744 83:0.0890478 84:0 85:0.029196 86:0.0328455 87:0.154374 88:0.0682457 89:0.372249 90:0 91:0 92:0.00361439 93:0.00843357 94:0.0194775 95:0.706813 96:0.227505 97:0.0281119 98:0.00602398 99:0.0187495 100:0.00624984 101:0.0647484 102:0.438239 103:0.279243 104:0.190995 105:0.00174996 106:0 107:0 108:0.0453854 109:0.0801809 110:0.334415 111:0.474127 112:0.0522689 113:0 114:0.00453854 115:0.00680782 116:0.00226927 117:0.226794 118:0.196301 119:0.354768 120:0.21688 121:0.00525185 122:0 123:0 124:0 125:0 126:0.484877 127:0.135985 128:0.0208785 129:0.0835142 130:0.0142853 131:0.0571413 132:0 133:0.0601632 134:0.143128 135:0 136:0 137:0 138:0 139:0.210421 140:0.769254 141:0.0203171 142:0 143:0 144:0 145:0 146:0 147:0.382661 148:0.551317 149:0.0660157 150:0 151:0 152:0 153:0 154:0.00851493 155:0.194958 156:0.724859 157:0.0648497 158:0.00238418 159:0.00442776 160:0 161:0 162:0.00919027 163:0.163237 164:0.496822 165:0.309296 166:0.021444 167:0 168:0 169:0 170:0 171:0 172:0.0424523 173:0.215799 174:0.489617 175:0.148347 176:0.0363203 177:0.067452 178:0 179:0 
1 0:0.451339 1:0.165057 2:0 3:0 4:0.00547908 5:0.206835 6:0.171221 7:0 8:0 9:0.8737 10:0.126287 11:0 12:0 13:0 14:0 15:0 16:0 17:0 18:0.754608 19:0.0902625 20:0 21:0 22:0 23:0 24:0 25:0.0178215 26:0.137291 27:0.434258 28:0.245253 29:0.212711 30:0.00603435 31:0.0241374 32:0.0275856 33:0.0284477 34:0.0215513 35:0 36:0.914025 37:0.0859574 38:0 39:0 40:0 41:0 42:0 43:0 44:0 45:0.23422 46:0.087581 47:0.0271803 48:0.0704674 49:0.148653 50:0.0996611 51:0.0100668 52:0.144962 53:0.177175 54:0.385406 55:0.148397 56:0 57:0 58:0 59:0 60:0 61:0.0143237 62:0.451864 63:0.40857 64:0.239967 65:0.0499993 66:0.0485458 67:0 68:0 69:0 70:0.00174416 71:0.251159 72:0.598606 73:0.183074 74:0.0198458 75:0.00461531 76:0 77:0.0184613 78:0.0323072 79:0.0390763 80:0.103998 81:0.513003 82:0.430651 83:0.0563342 84:0 85:0 86:0 87:0 88:0 89:0 90:0 91:0.0628181 92:0.0969258 93:0.363266 94:0.476983 95:0 96:0 97:0 98:0 99:0 100:0.271307 101:0.473558 102:0.241098 103:0.0140313 104:0 105:0 106:0 107:0 108:0.0340678 109:0.117734 110:0.524043 111:0.274045 112:0.0240479 113:0.00280558 114:0.0148295 115:0.00841675 116:0 117:0.0762661 118:0.327036 119:0.412333 120:0.18436 121:0 122:0 123:0 124:0 125:0 126:0.0554365 127:0.424729 128:0.431765 129:0.0880588 130:0 131:0 132:0 133:0 134:0 135:0 136:0 137:0 138:0.148813 139:0.851178 140:0 141:0 142:0 143:0 144:0.0135278 145:0.00901851 146:0 147:0.401589 148:0.575858 149:0 150:0 151:0 152:0 153:0 154:0.0232121 155:0.40607 156:0.481609 157:0.0891028 158:0 159:0 160:0 161:0 162:0.00215684 163:0.0361761 164:0.496368 165:0.459897 166:0.0053921 167:0 168:0 169:0 170:0 171:0.463787 172:0.0719013 173:0.0357126 174:0.264749 175:0.163802 176:0 177:0 178:0 179:0 
1 0:0 1:0.206885 2:0.0103442 3:0.0643641 4:0.0241365 5:0.151715 6:0.0959715 7:0.407448 8:0.0390782 9:0.763474 10:0.199687 11:0 12:0 13:0 14:0 15:0 16:0 17:0.0368087 18:0.738736 19:0.0760673 20:0 21:0 22:0 23:0 24:0 25:0 26:0.185183 27:0.413323 28:0.0892285 29:0.00820492 30:0.0779467 31:0.0112818 32:0.0758955 33:0.026666 34:0.0930745 35:0.204354 36:0.656389 37:0.0358963 38:0.0666645 39:0.0166661 40:0 41:0 42:0.0128201 43:0.0512804 44:0.160251 45:0.323067 46:0.157367 47:0.0259607 48:0 49:0 50:0 51:0.0285247 52:0.236851 53:0.228198 54:0.414154 55:0.0407717 56:0 57:0 58:0 59:0 60:0.0231755 61:0.241626 62:0.280252 63:0.549585 64:0.0107361 65:0 66:0 67:0 68:0 69:0 70:0.0395701 71:0.400098 72:0.536766 73:0.10289 74:0.0545443 75:0.0283052 76:0.0283052 77:0.0136361 78:0.0309911 79:0.0400818 80:0.164459 81:0.58524 82:0.166586 83:0.0822562 84:0 85:0 86:0 87:0 88:0.0207368 89:0.145158 90:0.0290274 91:0 92:0 93:0 94:0.151523 95:0.452174 96:0.288967 97:0.0783013 98:0 99:0 100:0.0773546 101:0.227112 102:0.467509 103:0.228018 104:0 105:0 106:0 107:0 108:0 109:0.28147 110:0.480089 111:0.224309 112:0.0141261 113:0 114:0 115:0 116:0 117:0.141303 118:0.258572 119:0.270287 120:0.240335 121:0.0223427 122:0.0260866 123:0 124:0.026932 125:0.0141303 126:0.036214 127:0.396713 128:0.450214 129:0.116848 130:0 131:0 132:0 133:0 134:0 135:0 136:0 137:0 138:0 139:0.579245 140:0.42074 141:0 142:0 143:0 144:0 145:0 146:0.00440092 147:0.286549 148:0.700236 149:0.00880185 150:0 151:0 152:0 153:0.0236784 154:0.181182 155:0.34376 156:0.299045 157:0.114269 158:0 159:0.0228327 160:0.0152218 161:0 162:0 163:0.156576 164:0.501581 165:0.304831 166:0.0370045 167:0 168:0 169:0 170:0 171:0.0180248 172:0.0912211 173:0.455322 174:0.435416 175:0 176:0 177:0 178:0 179:0 
1 0:0 1:0.0526177 2:0.157853 3:0.0868193 4:0.257827 5:0.292028 6:0.126283 7:0.0263089 8:0 9:0.041658 10:0.020829 11:0.062487 12:0 13:0.22287 14:0.0687357 15:0.0708186 16:0.429077 17:0.083316 18:0.791017 19:0.00170938 20:0 21:0 22:0 23:0 24:0 25:0 26:0.207263 27:0.716071 28:0.0125627 29:0.018844 30:0.0037688 31:0 32:0 33:0 34:0 35:0.248741 36:0.806044 37:0.193946 38:0 39:0 40:0 41:0 42:0 43:0 44:0 45:0 46:0.00735186 47:0.0220556 48:0.0529334 49:0.582267 50:0.335245 51:0 52:0 53:0 54:0.0609 55:0.118793 56:0.436826 57:0.278185 58:0.0015037 59:0.0293222 60:0.0236833 61:0.0124055 62:0.0383444 63:0.526843 64:0.365942 65:0.100644 66:0.00656503 67:0 68:0 69:0 70:0 71:0 72:0.745338 73:0.159999 74:0.0506892 75:0.00258618 76:0 77:0 78:0 79:0.00155171 80:0.0398272 81:0.670237 82:0.329756 83:0 84:0 85:0 86:0 87:0 88:0 89:0 90:0 91:0 92:0 93:0.0617119 94:0.81938 95:0.118901 96:0 97:0 98:0 99:0 100:0 101:0.0654257 102:0.708028 103:0.226542 104:0 105:0 106:0 107:0 108:0.00545253 109:0.121373 110:0.57546 111:0.293183 112:0.00125408 113:0 114:0.00245364 115:0.00081788 116:0 117:0.0336245 118:0.258095 119:0.494248 120:0.202989 121:0 122:0.00275988 123:0.00827963 124:0 125:0 126:0.0374528 127:0.481831 128:0.389509 129:0.0761229 130:0.0150748 131:0 132:0 133:0 134:0 135:0 136:0 137:0 138:0.248602 139:0.62274 140:0.128647 141:0 142:0 143:0 144:0 145:0 146:0.00439941 147:0.478488 148:0.512915 149:0.00418992 150:0 151:0 152:0 153:0 154:0 155:0.12052 156:0.678325 157:0.20115 158:0 159:0 160:0 161:0 162:0.00329894 163:0.0214431 164:0.562984 165:0.390718 166:0.0215462 167:0 168:0 169:0 170:0 171:0.0217368 172:0 173:0.266275 174:0.533638 175:0.10325 176:0.0749918 177:0 178:0 179:0 
1 0:0.567002 1:0.114279 2:0 3:0 4:0 5:0 6:0 7:0.0582386 8:0.260425 9:0.241764 10:0.193137 11:0.0479419 12:0.119855 13:0.00821862 14:0.132183 15:0.126019 16:0.124649 17:0.00616396 18:0.311566 19:0.0725565 20:0.0274373 21:0.0518261 22:0.0243888 23:0.0469484 24:0.062801 25:0.276812 26:0.125602 27:0.00740732 28:0 29:0 30:0 31:0 32:0 33:0 34:0.0999988 35:0.892582 36:0.039999 37:0 38:0 39:0 40:0 41:0 42:0.00199995 43:0.0917477 44:0.866228 45:0.0260858 46:0 47:0 48:0.031303 49:0.00347811 50:0 51:0.0586931 52:0.576062 53:0.304335 54:0.0278472 55:0.10506 56:0.211702 57:0.122148 58:0.0670865 59:0.093035 60:0.0980982 61:0.263599 62:0.011392 63:0.061722 64:0.144823 65:0.25275 66:0.173442 67:0.0155167 68:0 69:0.0441364 70:0.166201 71:0.141374 72:0.251863 73:0 74:0 75:0 76:0 77:0 78:0.00317161 79:0.0520518 80:0.692904 81:0.827748 82:0.0955507 83:0 84:0 85:0 86:0 87:0 88:0 89:0.0766859 90:0.00241225 91:0.00197366 92:0 93:0 94:0.396377 95:0.498021 96:0.0688589 97:0.0323461 98:0 99:0 100:0 101:0.00402888 102:0.0822306 103:0.815178 104:0.0824372 105:0.0161155 106:0 107:0 108:0 109:0.0161712 110:0.0644225 111:0.43164 112:0.463283 113:0 114:0 115:0.0110139 116:0.0134614 117:0.161975 118:0.226396 119:0.349399 120:0.222604 121:0.0256486 122:0 123:0 124:0 125:0.013972 126:0.225212 127:0.340969 128:0.344694 129:0.0661882 130:0 131:0.0121775 132:0.00214897 133:0.00730649 134:0.00128938 135:0 136:0 137:0 138:0 139:0.54228 140:0.400527 141:0.0305847 142:0.0119679 143:0.0146275 144:0 145:0 146:0.0206955 147:0.0220868 148:0.855645 149:0.101564 150:0 151:0 152:0 153:0 154:0 155:0 156:0.207276 157:0.7154 158:0.0338371 159:0.0391301 160:0.00434778 161:0 162:0.015249 163:0.0932538 164:0.344863 165:0.286213 166:0.166566 167:0 168:0.0139294 169:0.0653949 170:0.0145159 171:0 172:0 173:0.239005 174:0.660898 175:0.0977828 176:0.00230494 177:0 178:0 179:0 
1 0:0 1:0.0833056 2:0.249917 3:0 4:0.0799733 5:0.253249 6:0.283239 7:0.0499833 8:0 9:0.222181 10:0 11:0 12:0 13:0.0222181 14:0.277726 15:0.0333272 16:0.205518 17:0.238845 18:0.148234 19:0 20:0 21:0 22:0 23:0 24:0 25:0.00788226 26:0.843872 27:0.473138 28:0.00756665 29:0 30:0 31:0 32:0 33:0 34:0.000890195 35:0.51839 36:0.693139 37:0.00809112 38:0 39:0 40:0 41:0 42:0 43:0.0246883 44:0.274061 45:0.0434688 46:0.0326016 47:0.184742 48:0.0869376 49:0.130406 50:0 51:0.391219 52:0.130406 53:0 54:0 55:0.017855 56:0.0928461 57:0.194025 58:0.114272 59:0.220212 60:0.152363 61:0.10832 62:0.0999881 63:0.897056 64:0.0775391 65:0 66:0 67:0 68:0 69:0 70:0 71:0.0253966 72:0.759451 73:0.0243241 74:0 75:0 76:0 77:0 78:0.010135 79:0.0189187 80:0.18716 81:0.636603 82:0.292756 83:0.0159834 84:0 85:0 86:0 87:0 88:0 89:0.0546441 90:0.0672091 91:0 92:0 93:0.0526471 94:0.771581 95:0.108553 96:0 97:0 98:0 99:0 100:0.00395254 101:0.0276678 102:0.440445 103:0.501973 104:0.0124505 105:0.0111989 106:0.00230565 107:0 108:0.0520597 109:0.238061 110:0.378463 111:0.316899 112:0.014513 113:0 114:0 115:0 116:0 117:0.174913 118:0.564858 119:0.231355 120:0.0119415 121:0.00661506 122:0 123:0 124:0 125:0.0103092 126:0.0624995 127:0.405814 128:0.454085 129:0.0775937 130:0 131:0 132:0 133:0 134:0 135:0.0033222 136:0 137:0 138:0 139:0.821415 140:0.161957 141:0.00996661 142:0.0033222 143:0 144:0 145:0 146:0 147:0.33179 148:0.62453 149:0.043667 150:0 151:0 152:0 153:0 154:0 155:0.131432 156:0.76027 157:0.108289 158:0 159:0 160:0 161:0 162:0 163:0.0157218 164:0.426629 165:0.525505 166:0.0321389 167:0 168:0 169:0 170:0 171:0 172:0 173:0.161128 174:0.5728 175:0.111129 176:0.0965311 177:0.0233572 178:0.0350359 179:0 
1 0:0.408578 1:0.302332 2:0 3:0 4:0 5:0 6:0 7:0.089059 8:0.199992 9:0.867436 10:0.132549 11:0 12:0 13:0 14:0 15:0 16:0 17:0 18:0.885961 19:0.0813065 20:0.0257003 21:0.00700918 22:0 23:0 24:0 25:0 26:0 27:0.226656 28:0.0857102 29:0.0414266 30:0.0366649 31:0 32:0.0133327 33:0.0533308 34:0.0799962 35:0.462835 36:0.503295 37:0 38:0 39:0 40:0 41:0 42:0 43:0 44:0.496672 45:0.272722 46:0.0450584 47:0.0697615 48:0.1664 49:0.0488133 50:0.0375487 51:0.179048 52:0.124503 53:0.0561254 54:0 55:0.167862 56:0.185724 57:0.00367044 58:0 59:0 60:0 61:0.21574 62:0.426995 63:0.164703 64:0.169347 65:0.165942 66:0.0325072 67:0.0263154 68:0.00464389 69:0 70:0 71:0.436526 72:0.423535 73:0.263862 74:0.0996742 75:0 76:0.00967711 77:0.0225799 78:0 79:0.00193542 80:0.178704 81:0.0792066 82:0.153958 83:0.0887774 84:0.011386 85:0 86:0 87:0 88:0.137126 89:0.529529 90:0 91:0 92:0.0506061 93:0.592988 94:0.335982 95:0.0204177 96:0 97:0 98:0 99:0 100:0.0046587 101:0.473508 102:0.517386 103:0.00444201 104:0 105:0 106:0 107:0 108:0.00337588 109:0.0807474 110:0.23987 111:0.470707 112:0.108576 113:0.0314778 114:0.0260034 115:0.0392332 116:0 117:0.0761835 118:0.378211 119:0.411635 120:0.0866029 121:0 122:0 123:0.00811903 124:0.0121785 125:0.0270634 126:0 127:0 128:0.438206 129:0.369786 130:0.112525 131:0.0794728 132:0 133:0 134:0 135:0 136:0 137:0 138:0.276443 139:0.723538 140:0 141:0 142:0 143:0 144:0 145:0.0150213 146:0.12575 147:0.64098 148:0.196779 149:0 150:0 151:0.00965655 152:0.0118024 153:0 154:0.0657959 155:0.554174 156:0.380024 157:0 158:0 159:0 160:0 161:0 162:0 163:0.073476 164:0.537898 165:0.388617 166:0 167:0 168:0 169:0 170:0 171:0.00378135 172:0.0214277 173:0.526028 174:0.247048 175:0.0752069 176:0.126465 177:0 178:0 179:0 
1 0:0 1:0 2:0 3:0 4:0.0530263 5:0.144686 6:0.32043 7:0.454511 8:0.0272707 9:0.210489 10:0.210489 11:0.106495 12:0.0624969 13:0.0349982 14:0.099995 15:0.131993 16:0.142993 17:0 18:0.855583 19:0.14441 20:0 21:0 22:0 23:0 24:0 25:0 26:0 27:0.839645 28:0 29:0 30:0 31:0 32:0 33:0 34:0 35:0.160334 36:0.536793 37:0.45244 38:0.0107359 39:0 40:0 41:0 42:0 43:0 44:0 45:0.016806 46:0.050418 47:0.0294105 48:0.148733 49:0.025209 50:0.276039 51:0.376035 52:0.0773077 53:0 54:0.0166663 55:0.24657 56:0.377389 57:0.154563 58:0.185841 59:0.0189493 60:0 61:0 62:0 63:0.723598 64:0.276396 65:0 66:0 67:0 68:0 69:0 70:0 71:0 72:0.73537 73:0.0146151 74:0 75:0 76:0 77:0 78:0 79:0.030384 80:0.219611 81:0.506306 82:0.487123 83:0.00655932 84:0 85:0 86:0 87:0 88:0 89:0 90:0 91:0.00197627 92:0.00770743 93:0.00415016 94:0.685072 95:0.301084 96:0 97:0 98:0 99:0 100:0.0102739 101:0.177796 102:0.699711 103:0.112214 104:0 105:0 106:0 107:0 108:0.0520894 109:0.267722 110:0.426932 111:0.234054 112:0.00216717 113:0.000851387 114:0.0161763 115:0 116:0 117:0.113801 118:0.408849 119:0.292574 120:0.135285 121:0 122:0 123:0 124:0.00468744 125:0.0447911 126:0.282202 127:0.506842 128:0.176726 129:0.034224 130:0 131:0 132:0 133:0 134:0 135:0 136:0.0052815 137:0.0158445 138:0 139:0.57005 140:0.324284 141:0.0845041 142:0 143:0 144:0.0213898 145:0.0120318 146:0.216037 147:0.616294 148:0.118179 149:0 150:0 151:0.00160424 152:0.0144381 153:0 154:0.308379 155:0.498645 156:0.16377 157:0.0291912 158:0 159:0 160:0 161:0 162:0 163:0.0569945 164:0.679478 165:0.263522 166:0 167:0 168:0 169:0 170:0 171:0 172:0.065492 173:0.484078 174:0.448022 175:0.00239433 176:0 177:0 178:0 179:0 
1 0:0.0733089 1:0.05998 2:0 3:0 4:0.173276 5:0.35988 6:0.14995 7:0.109963 8:0.0733089 9:0.744726 10:0.110947 11:0.068092 12:0 13:0.0223799 14:0.0157135 15:0 16:0 17:0.0380934 18:0.979032 19:0.0209598 20:0 21:0 22:0 23:0 24:0 25:0 26:0 27:0.896351 28:0.0344285 29:0 30:0 31:0 32:0 33:0 34:0.00432518 35:0.0648778 36:0.928374 37:0.0716143 38:0 39:0 40:0 41:0 42:0 43:0 44:0 45:0.0124983 46:0.245799 47:0.213859 48:0.0499931 49:0.188863 50:0.208304 51:0.0666574 52:0.013887 53:0 54:0.640281 55:0.308733 56:0.0121357 57:0 58:0.0129448 59:0 60:0.00485429 61:0.00355981 62:0.0174754 63:0.735156 64:0.264838 65:0 66:0 67:0 68:0 69:0 70:0 71:0 72:0.592431 73:0.355248 74:0.0144956 75:0 76:0 77:0 78:0 79:0.0170166 80:0.0207981 81:0.829529 82:0.170462 83:0 84:0 85:0 86:0 87:0 88:0 89:0 90:0 91:0.00464675 92:0.0473969 93:0.345718 94:0.555752 95:0.0427501 96:0.00278805 97:0.000929351 98:0 99:0.13135 100:0.106119 101:0.237123 102:0.458889 103:0.0646648 104:0.00184756 105:0 106:0 107:0 108:0.367816 109:0.313438 110:0.207141 111:0.099308 112:0 113:0.00983095 114:0.00245774 115:0 116:0 117:0.258051 118:0.45823 119:0.236357 120:0.0473555 121:0 122:0 123:0 124:0 125:0 126:0.29894 127:0.570885 128:0.103403 129:0.0150233 130:0.00821587 131:0.00352109 132:0 133:0 134:0 135:0 136:0 137:0 138:0.255989 139:0.703815 140:0.027789 141:0.0123966 142:0 143:0 144:0 145:0 146:0.222023 147:0.653103 148:0.124866 149:0 150:0 151:0 152:0 153:0 154:0 155:0.424053 156:0.52972 157:0.04471 158:0.00151133 159:0 160:0 161:0 162:0 163:0.054173 164:0.462271 165:0.454824 166:0.0287232 167:0 168:0 169:0 170:0 171:0.0686007 172:0.344166 173:0.261613 174:0 175:0.00465089 176:0.041858 177:0.0372071 178:0.125574 179:0.116272 
1 0:0.0736009 1:0.162477 2:0.124983 3:0 4:0.0416609 5:0.262464 6:0.22358 7:0.0985974 8:0.0124983 9:0.0263146 10:0.223236 11:0.248673 12:0.0105259 13:0 14:0.113591 15:0.0793825 16:0.19122 17:0.107013 18:0.0974835 19:0 20:0 21:0 22:0 23:0 24:0 25:0 26:0.902509 27:0.0080643 28:0.0188167 29:0.00483858 30:0.0298379 31:0.00833311 32:0 33:0.0080643 34:0.0413967 35:0.880621 36:0.0030211 37:0 38:0 39:0 40:0 41:0 42:0 43:0.0543798 44:0.942584 45:0.179295 46:0.191363 47:0.0258598 48:0.0930954 49:0.0103439 50:0.0344798 51:0.180157 52:0.118093 53:0.167227 54:0.34676 55:0 56:0 57:0 58:0.0161284 59:0 60:0.0366921 61:0.111689 62:0.48869 63:0.333842 64:0.0122605 65:0 66:0 67:0 68:0 69:0 70:0 71:0.653891 72:0.268192 73:0.155852 74:0.0316451 75:0 76:0.00822772 77:0.0170883 78:0.000632901 79:0.0120251 80:0.506321 81:0.798101 82:0.170527 83:0.0313598 84:0 85:0 86:0 87:0 88:0 89:0 90:0.104609 91:0 92:0.00992899 93:0.150531 94:0.609569 95:0.111169 96:0 97:0.00673753 98:0.00744674 99:0 100:0.00422075 101:0.0366881 102:0.57649 103:0.372075 104:0.0105194 105:0 106:0 107:0 108:0.129391 109:0.193013 110:0.274899 111:0.360328 112:0.0423651 113:0 114:0 115:0 116:0 117:0.177533 118:0.491049 119:0.195028 120:0.0250495 121:0.0168984 122:0.00298208 123:0 124:0 125:0.0914504 126:0.0877137 127:0.58421 128:0.328069 129:0 130:0 131:0 132:0 133:0 134:0 135:0 136:0 137:0 138:0 139:0.838133 140:0.154442 141:0.00740727 142:0 143:0 144:0.0138233 145:0.0214703 146:0.0339701 147:0.474993 148:0.455729 149:0 150:0 151:0 152:0 153:0.00595231 154:0.113927 155:0.46559 156:0.334758 157:0.072142 158:0.00761896 159:0 160:0 161:0 162:0 163:0.0651252 164:0.621857 165:0.313012 166:0 167:0 168:0 169:0 170:0 171:0 172:0.233461 173:0.364448 174:0.344527 175:0.0575513 176:0 177:0 178:0 179:0 
1 0:0.0794001 1:0.164682 2:0.138215 3:0.101456 4:0.0455815 5:0 6:0.204382 7:0.252904 8:0.0132333 9:0.349152 10:0.24916 11:0.0737645 12:0 13:0.0163921 14:0 15:0.0458979 16:0.193427 17:0.0721252 18:0.362495 19:0.0412495 20:0.0137498 21:0 22:0 23:0 24:0 25:0.0172498 26:0.565243 27:0.88008 28:0.0752788 29:0.00436237 30:0 31:0 32:0 33:0 34:0 35:0.040268 36:0.991149 37:0.00884078 38:0 39:0 40:0 41:0 42:0 43:0 44:0 45:0.110405 46:0.103114 47:0.393709 48:0.176023 49:0.0499948 50:0.0416623 51:0.0458286 52:0.0791584 53:0 54:0.0959952 55:0.246488 56:0.112494 57:0.0709964 58:0.0289986 59:0.20099 60:0.118994 61:0.0979951 62:0.0269986 63:0.694923 64:0.271276 65:0.012714 66:0 67:0.0210802 68:0 69:0 70:0 71:0 72:0.839303 73:0.0507754 74:0.0172412 75:0.00301722 76:0 77:0.00301722 78:0.0172412 79:0.00387928 80:0.0655167 81:0.955564 82:0.0444289 83:0 84:0 85:0 86:0 87:0 88:0 89:0 90:0 91:0 92:0 93:0.00710696 94:0.70777 95:0.285115 96:0 97:0 98:0 99:0 100:0 101:0.00488369 102:0.540927 103:0.44709 104:0.00709298 105:0 106:0 107:0 108:0.014163 109:0.149838 110:0.379773 111:0.320975 112:0.125804 113:0.00944201 114:0 115:0 116:0 117:0.0511196 118:0.278918 119:0.448153 120:0.117061 121:0.0415017 122:0.0175229 123:0.00092226 124:0.010079 125:0.0347165 126:0.351892 127:0.395667 128:0.202096 129:0.050338 130:0 131:0 132:0 133:0 134:0 135:0 136:0 137:0 138:0.0729953 139:0.832912 140:0 141:0.0830996 142:0.0109754 143:0 144:0 145:0.0136362 146:0.0496406 147:0.235524 148:0.677145 149:0.0240428 150:0 151:0 152:0 153:0 154:0 155:0.088872 156:0.72774 157:0.183381 158:0 159:0 160:0 161:0 162:0.00193686 163:0.138378 164:0.422953 165:0.291318 166:0.145408 167:0 168:0 169:0 170:0 171:0.0224993 172:0.176244 173:0.482172 174:0.279366 175:0.00843724 176:0 177:0 178:0.00781226 179:0.0234368 
1 0:0.240995 1:0.0153826 2:0 3:0 4:0 5:0.044866 6:0.261505 7:0.437123 8:0 9:0.420547 10:0.222527 11:0.00392118 12:0 13:0 14:0 15:0 16:0.00588178 17:0.347025 18:0.960598 19:0.0393936 20:0 21:0 22:0 23:0 24:0 25:0 26:0 27:0.938904 28:0.0264431 29:0 30:0 31:0 32:0 33:0.00173208 34:0.00346416 35:0.0294454 36:0.967381 37:0.0326084 38:0 39:0 40:0 41:0 42:0 43:0 44:0 45:0.0626625 46:0.25665 47:0.240651 48:0.186654 49:0.0666622 50:0 51:0.029998 52:0.156656 53:0 54:0.325562 55:0.471484 56:0.133132 57:0 58:0 59:0 60:0.00872042 61:0.00290681 62:0.0581362 63:0.947687 64:0.0523064 65:0 66:0 67:0 68:0 69:0 70:0 71:0 72:0.884453 73:0.0889389 74:0.0265994 75:0 76:0 77:0 78:0 79:0 80:0 81:0.987025 82:0.012966 83:0 84:0 85:0 86:0 87:0 88:0 89:0 90:0 91:0 92:0.0218889 93:0.260593 94:0.518882 95:0.122578 96:0.0760351 97:0 98:0 99:0.00342463 100:0.05214 101:0.1988 102:0.632529 103:0.109674 104:0 105:0 106:0.00154108 107:0.00188355 108:0.185302 109:0.373087 110:0.29841 111:0.119364 112:0 113:0 114:0.00953322 115:0.0142998 116:0 117:0.117931 118:0.535003 119:0.274784 120:0.0257648 121:0 122:0 123:0.00440634 124:0.0102815 125:0.0318235 126:0.344959 127:0.468932 128:0.176957 129:0.00914171 130:0 131:0 132:0 133:0 134:0 135:0 136:0 137:0 138:0.0666963 139:0.831118 140:0.102177 141:0 142:0 143:0 144:0 145:0 146:0.0632467 147:0.672369 148:0.264376 149:0 150:0 151:0 152:0 153:0.0173143 154:0.152384 155:0.540985 156:0.279238 157:0.0100706 158:0 159:0 160:0 161:0 162:0.003008 163:0.387096 164:0.575197 165:0.0346923 166:0 167:0 168:0 169:0 170:0 171:0 172:0.225414 173:0.277107 174:0.270328 175:0.167789 176:0 177:0.0207618 178:0.0385577 179:0 
1 0:0 1:0.027171 2:0.0815129 3:0.139115 4:0.29562 5:0.0695577 6:0.256494 7:0.0489077 8:0.0815129 9:0.0174408 10:0.0406953 11:0.0174408 12:0.282542 13:0.420906 14:0 15:0.0261613 16:0.0261613 17:0.168595 18:0.0560337 19:0.182469 20:0.0344823 21:0.0239939 22:0.111062 23:0.114079 24:0.199997 25:0.170112 26:0.107757 27:0.157856 28:0.365622 29:0.137231 30:0 31:0 32:0 33:0.032589 34:0.21107 35:0.0956241 36:0 37:0 38:0 39:0.0418318 40:0.135057 41:0.0661341 42:0.677676 43:0.0792813 44:0 45:0.0666608 46:0.0210508 47:0.0552583 48:0.0675379 49:0.243838 50:0.0894658 51:0 52:0.249978 53:0.206122 54:0 55:0.00203244 56:0.00609731 57:0.101622 58:0.389009 59:0.369904 60:0.0922727 61:0.0390228 62:0 63:0.294326 64:0.300371 65:0.146342 66:0.0765666 67:0.00626861 68:0 69:0 70:0.0461937 71:0.129924 72:0.324672 73:0.316278 74:0.269607 75:0.0793048 76:0 77:0 78:0 79:0 80:0.0101302 81:0.264768 82:0.226295 83:0.00535706 84:0.00681807 85:0.100648 86:0.0180192 87:0.213146 88:0.0560056 89:0.108927 90:0.00876557 91:0.0180678 92:0.00357779 93:0 94:0.424146 95:0.430944 96:0.0858669 97:0 98:0.0286223 99:0 100:0 101:0 102:0.0988792 103:0.750394 104:0.150719 105:0 106:0 107:0 108:0.175839 109:0.231855 110:0.269215 111:0.246874 112:0.0258394 113:0 114:0 115:0.00839548 116:0.0419774 117:0.392145 118:0.39607 119:0.198138 120:0.00743794 121:0 122:0 123:0 124:0.00526854 125:0.000929742 126:0.0942066 127:0.460972 128:0.330409 129:0.114405 130:0 131:0 132:0 133:0 134:0 135:0.00483862 136:0.0274189 137:0 138:0.0501783 139:0.491389 140:0.223652 141:0.19928 142:0.00322575 143:0 144:0 145:0 146:0 147:0.104372 148:0.829777 149:0.0658385 150:0 151:0 152:0 153:0 154:0.00431029 155:0.150368 156:0.593958 157:0.224258 158:0.0149013 159:0.012192 160:0 161:0 162:0 163:0.160226 164:0.556881 165:0.240774 166:0.0274062 167:0 168:0 169:0 170:0.0147058 171:0 172:0.0584756 173:0.628661 174:0.282664 175:0.0275235 176:0.00266664 177:0 178:0 179:0 
1 0:0.139437 1:0.228887 2:0 3:0.0947119 4:0.0105235 5:0 6:0.197316 7:0.247303 8:0.0815575 9:0.341126 10:0.166152 11:0.222026 12:0.0352889 13:0 14:0 15:0.0661667 16:0.0573445 17:0.111748 18:0.95622 19:0.043771 20:0 21:0 22:0 23:0 24:0 25:0 26:0 27:0.597914 28:0.0851937 29:0.0209088 30:0.0305191 31:0.000519474 32:0 33:0 34:0 35:0.264932 36:0.94668 37:0.0533072 38:0 39:0 40:0 41:0 42:0 43:0 44:0 45:0.0322186 46:0.141095 47:0.0211088 48:0.172203 49:0.0333296 50:0.206644 51:0.299967 52:0.093323 53:0 54:0.273676 55:0.480688 56:0.222216 57:0.0233911 58:0 59:0 60:0 61:0 62:0 63:0.736141 64:0.263853 65:0 66:0 67:0 68:0 69:0 70:0 71:0 72:0.429899 73:0.317861 74:0.0211648 75:0 76:0 77:0 78:0 79:0 80:0.231066 81:0.711737 82:0.288254 83:0 84:0 85:0 86:0 87:0 88:0 89:0 90:0 91:0 92:0 93:0.166605 94:0.788982 95:0.0290611 96:0.0153428 97:0 98:0 99:0 100:0.00243552 101:0.132569 102:0.70907 103:0.155921 104:0 105:0 106:0 107:0 108:0.00844386 109:0.244812 110:0.495835 111:0.208081 112:0.0138721 113:0.00506631 114:0.00217128 115:0.0217128 116:0 117:0.0107692 118:0.240409 119:0.587433 120:0.153179 121:0 122:0 123:0 124:0.00369229 125:0.0045128 126:0.0756118 127:0.450117 128:0.382838 129:0.0914204 130:0 131:0 132:0 133:0 134:0 135:0.00759484 136:0 137:0 138:0.35759 139:0.628979 140:0.00582271 141:0 142:0 143:0 144:0 145:0 146:0.0169654 147:0.680961 148:0.293791 149:0 150:0 151:0.00372411 152:0.00455169 153:0 154:0 155:0.186968 156:0.744657 157:0.0683693 158:0 159:0 160:0 161:0 162:0 163:0.0207609 164:0.625249 165:0.33944 166:0.0145326 167:0 168:0 169:0 170:0 171:0.0185168 172:0.0796223 173:0.114804 174:0.0611055 175:0.0536987 176:0.288862 177:0.318489 178:0.0648088 179:0 
1 0:0.123067 1:0.134605 2:0.209984 3:0.253827 4:0.0323052 5:0 6:0 7:0.112299 8:0.133836 9:0.0163035 10:0.0380414 11:0.22064 12:0.370089 13:0.103255 14:0.0760828 15:0.0538014 16:0.0456497 17:0.0760828 18:0.115384 19:0 20:0 21:0 22:0 23:0 24:0 25:0.111345 26:0.773262 27:0.420716 28:0.0766032 29:0 30:0 31:0.0112298 32:0.0475929 33:0 34:0.0812823 35:0.362562 36:0.377446 37:0 38:0 39:0 40:0 41:0 42:0 43:0.0617639 44:0.560777 45:0.0452972 46:0.0743558 47:0.0893124 48:0.0329046 49:0.0230759 50:0.105551 51:0.351694 52:0.125636 53:0.15213 54:0.0484571 55:0 56:0.157265 57:0.175767 58:0.187661 59:0.171142 60:0.080615 61:0.174225 62:0.00484571 63:0.240364 64:0.301826 65:0.228238 66:0.0878179 67:0 68:0 69:0 70:0 71:0.141749 72:0.683949 73:0.128637 74:0.00792903 75:0.00783575 76:0 77:0 78:0 79:0 80:0.17164 81:0.77226 82:0.227732 83:0 84:0 85:0 86:0 87:0 88:0 89:0 90:0 91:0 92:0 93:0.0396278 94:0.900137 95:0.0602285 96:0 97:0 98:0 99:0 100:0 101:0.0372232 102:0.617308 103:0.345463 104:0 105:0 106:0 107:0 108:0 109:0.0551767 110:0.349589 111:0.546658 112:0.0485692 113:0 114:0 115:0 116:0 117:0.0513438 118:0.0957522 119:0.21301 120:0.555051 121:0.063333 122:0.00752684 123:0.0139784 124:0 125:0 126:0.199998 127:0.425193 128:0.244093 129:0.114015 130:0.0166928 131:0 132:0 133:0 134:0 135:0 136:0 137:0 138:0.098777 139:0.892557 140:0.00865572 141:0 142:0 143:0 144:0 145:0 146:0.00643831 147:0.401093 148:0.592462 149:0 150:0 151:0 152:0 153:0 154:0 155:0.235878 156:0.650894 157:0.113221 158:0 159:0 160:0 161:0 162:0 163:0.077548 164:0.262036 165:0.534593 166:0.125812 167:0 168:0 169:0 170:0 171:0.0245443 172:0.00272715 173:0.0236353 174:0.412709 175:0.329985 176:0.13363 177:0 178:0.00272715 179:0.0699968 
1 0:0 1:0.171848 2:0.228089 3:0.407749 4:0.0984221 5:0 6:0 7:0.00937354 8:0.0843618 9:0.327567 10:0.43101 11:0 12:0 13:0.10804 14:0.114361 15:0.0189644 16:0 17:0 18:0.99999 19:0 20:0 21:0 22:0 23:0 24:0 25:0 26:0 27:0.686687 28:0.0136084 29:0 30:0 31:0.00122322 32:0.0305806 33:0.00489289 34:0.00275225 35:0.260241 36:0.999989 37:0 38:0 39:0 40:0 41:0 42:0 43:0 44:0 45:0.0964114 46:0.0374933 47:0.0803428 48:0.187467 49:0.391002 50:0.0642742 51:0.107124 52:0.0357079 53:0 54:0.329631 55:0.355702 56:0.150352 57:0.0128567 58:0.011071 59:0.0267848 60:0.0332131 61:0.00892825 62:0.071426 63:0.858639 64:0.133573 65:0.00778092 66:0 67:0 68:0 69:0 70:0 71:0 72:0.766131 73:0.142509 74:0.0628685 75:0.00738389 76:0 77:0 78:0.00210968 79:0.0158226 80:0.00316452 81:0.925826 82:0.074166 83:0 84:0 85:0 86:0 87:0 88:0 89:0 90:0 91:0 92:0.00781241 93:0.367664 94:0.544104 95:0.0659848 96:0.0108172 97:0.00360573 98:0 99:0 100:0.0343371 101:0.190119 102:0.631803 103:0.143734 104:0 105:0 106:0 107:0 108:0.0885491 109:0.381295 110:0.275698 111:0.234859 112:0.0195928 113:0 114:0 115:0 116:0 117:0.219055 118:0.456199 119:0.238694 120:0.0485785 121:0.0103359 122:0 123:0.0067829 124:0.0203487 125:0 126:0.222878 127:0.48489 128:0.270581 129:0.0216429 130:0 131:0 132:0 133:0 134:0 135:0.00332321 136:0.00422954 137:0.00453165 138:0.288213 139:0.699687 140:0 141:0 142:0 143:0 144:0 145:0.0042997 146:0.0222356 147:0.546553 148:0.402821 149:0.0174445 150:0.00663382 151:0 152:0 153:0 154:0.107322 155:0.478447 156:0.294526 157:0.0932652 158:0.00454542 159:0 160:0 161:0.0218853 162:0 163:0.0711684 164:0.646619 165:0.280128 166:0.00207791 167:0 168:0 169:0 170:0 171:0.0163393 172:0.228097 173:0.353583 174:0.359465 175:0.0424823 176:0 177:0 178:0 179:0 
1 0:0 1:0 2:0 3:0 4:0.493972 5:0.329315 6:0.161717 7:0.0147016 8:0 9:0.288012 10:0.10325 11:0 12:0 13:0 14:0.0456472 15:0.0358657 16:0.0782524 17:0.448864 18:0.0192305 19:0 20:0 21:0 22:0 23:0 24:0 25:0.00624992 26:0.974508 27:0.119599 28:0 29:0 30:0 31:0 32:0 33:0 34:0.0569758 35:0.823408 36:0 37:0 38:0 39:0 40:0 41:0 42:0 43:0.0144412 44:0.985545 45:0 46:0 47:0 48:0 49:0.722766 50:0.245782 51:0.0312435 52:0 53:0 54:0.0157132 55:0.101421 56:0.265695 57:0.128562 58:0.0585672 59:0.0728519 60:0.048568 61:0.255696 62:0.0528534 63:0.111711 64:0 65:0 66:0 67:0 68:0 69:0.00936928 70:0.0545941 71:0.824317 72:0.383023 73:0 74:0 75:0 76:0.00045871 77:0.0087155 78:0.0119265 79:0.0270639 80:0.568801 81:0 82:0 83:0 84:0 85:0 86:0 87:0 88:0.0342823 89:0.965707 90:0 91:0.000664885 92:0.00199465 93:0 94:0.588024 95:0.394676 96:0.0139626 97:0.000664885 98:0 99:0.00219559 100:0.00229539 101:0.0122753 102:0.460075 103:0.491412 104:0.0317362 105:0 106:0 107:0 108:0.165587 109:0.241858 110:0.305595 111:0.220258 112:0.0666972 113:0 114:0 115:0 116:0 117:0.24244 118:0.477612 119:0.215114 120:0.0539723 121:0.0108526 122:0 123:0 124:0 125:0 126:0.377736 127:0.447152 128:0.175105 129:0 130:0 131:0 132:0 133:0 134:0 135:0 136:0 137:0 138:0 139:0.595676 140:0.397118 141:0 142:0.000719416 143:0.00647474 144:0 145:0 146:0.000796453 147:0.360528 148:0.599464 149:0.0338935 150:0 151:0.00451323 152:0.000796453 153:0 154:0.0695954 155:0.322205 156:0.443819 157:0.160806 158:0.0035629 159:0 160:0 161:0 162:0 163:0.0438542 164:0.509185 165:0.410141 166:0.0368136 167:0 168:0 169:0 170:0 171:0 172:0.224764 173:0.505042 174:0.265231 175:0.00495322 176:0 177:0 178:0 179:0 
1 0:0.153774 1:0.0106664 2:0 3:0 4:0 5:0 6:0 7:0.219106 8:0.616431 9:0.0382766 10:0.13349 11:0.388029 12:0.0248798 13:0.147365 14:0.11794 15:0.0734432 16:0.0574149 17:0.0191383 18:0.39649 19:0.199802 20:0.107975 21:0 22:0 23:0.0420225 24:0.024124 25:0.0690648 26:0.160503 27:0.0859021 28:0 29:0 30:0 31:0 32:0 33:0 34:0.0417396 35:0.872347 36:0.882689 37:0 38:0 39:0 40:0 41:0 42:0.03611 43:0.0811703 44:0 45:0.119689 46:0 47:0 48:0 49:0 50:0 51:0.206367 52:0.347098 53:0.326828 54:0.0577683 55:0.0249992 56:0.0050674 57:0.133779 58:0.345259 59:0.267559 60:0.0456066 61:0.0773622 62:0.0425661 63:0.0559228 64:0.0414682 65:0.176062 66:0.199284 67:0.0462074 68:0.104737 69:0.142888 70:0.100709 71:0.132698 72:0.189919 73:0.011671 74:0 75:0 76:0 77:0.0155171 78:0.0710207 79:0.432955 80:0.278911 81:0.742237 82:0.0105164 83:0 84:0 85:0 86:0 87:0.00221398 88:0.154979 89:0.0900352 90:0 91:0 92:0 93:0 94:0.200837 95:0.650345 96:0.128072 97:0.0207401 98:0 99:0 100:0 101:0 102:0.0223755 103:0.841154 104:0.136463 105:0 106:0 107:0 108:0.0253356 109:0.0754574 110:0.110073 111:0.468556 112:0.259827 113:0.0119047 114:0.0109889 115:0.027045 116:0.0108058 117:0.128946 118:0.246951 119:0.440856 120:0.166619 121:0.0166204 122:0 123:0 124:0 125:0 126:0.434358 127:0.156838 128:0.163515 129:0.146903 130:0.0625397 131:0.0268725 132:0.00895751 133:0 134:0 135:0 136:0 137:0 138:0 139:0.448794 140:0.551195 141:0 142:0 143:0 144:0 145:0 146:0 147:0.00792675 148:0.886678 149:0.105385 150:0 151:0 152:0 153:0 154:0 155:0.0866167 156:0.448436 157:0.434725 158:0.0302132 159:0 160:0 161:0 162:0 163:0.00208632 164:0.1582 165:0.708988 166:0.114891 167:0.00474817 168:0.0110791 169:0 170:0 171:0 172:0 173:0 174:0.337381 175:0.293689 176:0.0598617 177:0.193002 178:0.0685772 179:0.0474765 
0.4047537808721874 0:0.339513 1:0.441575 2:0.218704 3:0 4:0 5:0 6:0 7:0 8:0 9:0.196465 10:0.180269 11:0.263362 12:0.340821 13:0.0190127 14:0 15:0 16:0 17:0 18:0.844945 19:0.155045 20:0 21:0 22:0 23:0 24:0 25:0 26:0 27:0.951895 28:0.00978703 29:0 30:0 31:0 32:0 33:0 34:0 35:0.0382971 36:0.855548 37:0 38:0 39:0 40:0 41:0 42:0 43:0 44:0.144443 45:0.255095 46:0.385848 47:0.128189 48:0 49:0 50:0 51:0.0576849 52:0.0922959 53:0.0807589 54:0.142852 55:0.0789258 56:0.26749 57:0.0649977 58:0.0914253 59:0.0399986 60:0.0303561 61:0.0392843 62:0.244634 63:0.775593 64:0.20811 65:0.0162898 66:0 67:0 68:0 69:0 70:0 71:0 72:0.910949 73:0.0634696 74:0.000456616 75:0.00376708 76:0.00308216 77:0 78:0 79:0.00821908 80:0.0100455 81:0.570748 82:0.0754809 83:0 84:0 85:0 86:0 87:0 88:0 89:0.353762 90:0 91:0 92:0 93:0.217431 94:0.737395 95:0.019255 96:0.0112519 97:0.0102218 98:0.00443737 99:0.00180722 100:0.0143574 101:0.0924694 102:0.658079 103:0.233282 104:0 105:0 106:0 107:0 108:0.00193298 109:0.234341 110:0.474932 111:0.278478 112:0.00386595 113:0 114:0 115:0.00161081 116:0.00483244 117:0.198461 118:0.225568 119:0.382173 120:0.191514 121:0.00227789 122:0 123:0 124:0 125:0 126:0.223523 127:0.545078 128:0.18713 129:0.0442619 130:0 131:0 132:0 133:0 134:0 135:0 136:0 137:0 138:0.337947 139:0.61885 140:0.0431808 141:0 142:0 143:0 144:0 145:0 146:0.0698329 147:0.595005 148:0.331587 149:0.0035629 150:0 151:0 152:0 153:0 154:0 155:0.216704 156:0.691731 157:0.0915594 158:0 159:0 160:0 161:0 162:0 163:0.0320797 164:0.585595 165:0.361517 166:0.00935993 167:0.00823993 168:0.00319997 169:0 170:0 171:0 172:0.157295 173:0.0438178 174:0.374698 175:0.365148 176:0.0589854 177:0 178:0 179:0 
1 0:0 1:0.166597 2:0.499792 3:0 4:0.249896 5:0 6:0.062474 7:0.0208247 8:0 9:0 10:0.0258598 11:0.0775795 12:0 13:0.0551677 14:0.0310318 15:0.0646496 16:0.0215499 17:0.724075 18:0 19:0 20:0 21:0 22:0 23:0 24:0 25:0 26:0.999989 27:0.462538 28:0.00936312 29:0 30:0 31:0 32:0 33:0 34:0.00187262 35:0.526207 36:0 37:0 38:0 39:0 40:0 41:0 42:0 43:0.0203829 44:0.9796 45:0.0646964 46:0.1191 47:0.2779 48:0.286723 49:0.074989 50:0 51:0.0529334 52:0.123511 53:0 54:0 55:0.015243 56:0.0567039 57:0.111579 58:0.121334 59:0 60:0 61:0.0457289 62:0.649351 63:0.245496 64:0.0104265 65:0 66:0 67:0 68:0 69:0 70:0.00236965 71:0.7417 72:0.23376 73:0.000773186 74:0 75:0 76:0 77:0 78:0 79:0.0288656 80:0.736588 81:0.121709 82:0 83:0 84:0 85:0 86:0 87:0 88:0.0124998 89:0.865775 90:0.0482396 91:0 92:0 93:0 94:0.363361 95:0.556515 96:0.0318772 97:0 98:0 99:0 100:0.0171649 101:0.0400884 102:0.366886 103:0.534493 104:0.0413619 105:0 106:0 107:0 108:0.0447512 109:0.152301 110:0.344381 111:0.405569 112:0.0529924 113:0 114:0 115:0 116:0 117:0.194602 118:0.228774 119:0.392921 120:0.178175 121:0.00551552 122:0 123:0 124:0 125:0 126:0.221329 127:0.35145 128:0.310013 129:0.117201 130:0 131:0 132:0 133:0 134:0 135:0 136:0 137:0 138:0 139:0.607194 140:0.392792 141:0 142:0 143:0 144:0 145:0 146:0 147:0.295812 148:0.64768 149:0.0564972 150:0 151:0 152:0 153:0 154:0 155:0.0362303 156:0.613506 157:0.340961 158:0.00929424 159:0 160:0 161:0 162:0 163:0 164:0.235103 165:0.636403 166:0.128489 167:0 168:0 169:0 170:0 171:0 172:0 173:0.337566 174:0.634595 175:0.0278291 176:0 177:0 178:0 179:0 
1 0:0.0466644 1:0.019999 2:0.0990429 3:0.35046 4:0.100471 5:0.135708 6:0 7:0.0485691 8:0.199038 9:0.134318 10:0.0410417 11:0.245504 12:0.232818 13:0.182076 14:0.0313409 15:0.0582046 16:0.0417879 17:0.0328334 18:0.480577 19:0.118679 20:0.00146517 21:0 22:0 23:0 24:0.013736 25:0.0472519 26:0.338272 27:0.186425 28:0.00382826 29:0.0125289 30:0.00835257 31:0 32:0 33:0 34:0.072853 35:0.716001 36:0.333329 37:0 38:0 39:0 40:0 41:0 42:0 43:0.101723 44:0.564934 45:0.122298 46:0 47:0 48:0.0248193 49:0.0327326 50:0.0946009 51:0.570123 52:0.128413 53:0.0269774 54:0.0538906 55:0 56:0 57:0.0191611 58:0.0987994 59:0.246699 60:0.147301 61:0.151492 62:0.282626 63:0.577512 64:0.046511 65:0.00387592 66:0 67:0.010465 68:0.0236431 69:0.00658906 70:0.0277774 71:0.303614 72:0.674525 73:0.0882014 74:0.0499995 75:0.0161047 76:0.00449434 77:0.0184455 78:0.0171347 79:0.0175092 80:0.113576 81:0.552967 82:0.00509908 83:0 84:0 85:0 86:0 87:0 88:0.0430589 89:0.398861 90:0.0716783 91:0.0298822 92:0 93:0.0914045 94:0.167575 95:0.300385 96:0.271674 97:0.0673815 98:0 99:0.135205 100:0.114495 101:0.0838745 102:0.181802 103:0.250144 104:0.0894957 105:0.0177512 106:0.0184909 107:0.108726 108:0.455796 109:0.284092 110:0.00826003 111:0.0304039 112:0.00615109 113:0.00263618 114:0 115:0.0286465 116:0.184005 117:0.529604 118:0.164989 119:0.00586587 120:0.00716939 121:0.0104282 122:0.0052141 123:0.0104282 124:0 125:0.266292 126:0.547193 127:0.43568 128:0.017116 129:0 130:0 131:0 132:0 133:0 134:0 135:0 136:0 137:0 138:0.0270327 139:0.647795 140:0.275931 141:0.0492302 142:0 143:0 144:0 145:0 146:0 147:0.162908 148:0.799582 149:0.0374996 150:0 151:0 152:0 153:0.0136183 154:0.198551 155:0.267893 156:0.490128 157:0.0298024 158:0 159:0 160:0 161:0 162:0.302781 163:0.429437 164:0.19204 165:0.0545086 166:0 167:0 168:0 169:0 170:0.0212199 171:0.191748 172:0.653992 173:0.154248 174:0 175:0 176:0 177:0 178:0 179:0 
1 0:0.68246 1:0.219517 2:0.0978048 3:0 4:0 5:0 6:0 7:0 8:0 9:0.755472 10:0.00555494 11:0.0166648 12:0 13:0.0666593 14:0 15:0 16:0 17:0.155538 18:0.99999 19:0 20:0 21:0 22:0 23:0 24:0 25:0 26:0 27:0.999988 28:0 29:0 30:0 31:0 32:0 33:0 34:0 35:0 36:0.999986 37:0 38:0 39:0 40:0 41:0 42:0 43:0 44:0 45:0.121605 46:0.0945818 47:0.024321 48:0.154033 49:0.193217 50:0.087826 51:0.0405351 52:0.0864748 53:0.197271 54:0.137493 55:0.0259603 56:0 57:0.0692274 58:0.0783616 59:0.030287 60:0.0504783 61:0.107687 62:0.500457 63:0.488855 64:0.00357632 65:0 66:0 67:0 68:0 69:0 70:0.00997242 71:0.497589 72:0.620027 73:0 74:0 75:0 76:0 77:0 78:0 79:0 80:0.379965 81:0.781463 82:0.00712581 83:0 84:0 85:0 86:0 87:0 88:0 89:0.211399 90:0.41806 91:0.0111442 92:0.0280112 93:0.246077 94:0.16114 95:0.117466 96:0.0135538 97:0.00451794 98:0 99:0 100:0.0549713 101:0.504217 102:0.415287 103:0.0142588 104:0.00281423 105:0.0084427 106:0 107:0 108:0.150552 109:0.284672 110:0.426782 111:0.121909 112:0 113:0.0048241 114:0.0112562 115:0 116:0 117:0.248907 118:0.47494 119:0.235573 120:0.0164367 121:0 122:0 123:0 124:0.00482756 125:0.0193102 126:0.485047 127:0.271131 128:0.168761 129:0.0750508 130:0 131:0 132:0 133:0 134:0 135:0 136:0 137:0 138:0.145413 139:0.732761 140:0.121819 141:0 142:0 143:0 144:0 145:0 146:0.0983622 147:0.63226 148:0.260367 149:0.00900403 150:0 151:0 152:0 153:0.0443673 154:0.304939 155:0.470799 156:0.154251 157:0.00264365 158:0.01954 159:0.00344824 160:0 161:0 162:0.0479484 163:0.622817 164:0.329229 165:0 166:0 167:0 168:0 169:0 170:0 171:0 172:0 173:0 174:0.313373 175:0.383056 176:0.291721 177:0.0118106 178:0 179:0 
1 0:0.402579 1:0.281542 2:0.0526247 3:0 4:0 5:0.0526247 6:0.0526247 7:0.0749901 8:0.0828838 9:0.181982 10:0.177982 11:0.129987 12:0.069993 13:0 14:0 15:0.134987 16:0.185981 17:0.118988 18:0.999989 19:0 20:0 21:0 22:0 23:0 24:0 25:0 26:0 27:0.998484 28:0.00150461 29:0 30:0 31:0 32:0 33:0 34:0 35:0 36:0.987419 37:0.0125674 38:0 39:0 40:0 41:0 42:0 43:0 44:0 45:0.416958 46:0.148985 47:0.111989 48:0.0419958 49:0.0039996 50:0.0359964 51:0.029997 52:0.0349965 53:0.174983 54:0 55:0.0663606 56:0.220899 57:0.215445 58:0.0281805 59:0.144084 60:0.139085 61:0.0913595 62:0.0945412 63:0.477195 64:0.150548 65:0.0755489 66:0 67:0 68:0 69:0 70:0.00631864 71:0.290383 72:0.721501 73:0.0634185 74:0 75:0 76:0 77:0 78:0 79:0.0016544 80:0.213417 81:0.656973 82:0.113574 83:0 84:0 85:0 86:0 87:0 88:0 89:0.229443 90:0.00796805 91:0 92:0.00358562 93:0.0278882 94:0.718021 95:0.230177 96:0.00438243 97:0.00358562 98:0.00438243 99:0 100:0.0164666 101:0.190402 102:0.636638 103:0.156488 104:0 105:0 106:0 107:0 108:0 109:0.106763 110:0.65317 111:0.223412 112:0 113:0.00780433 114:0.00884491 115:0 116:0 117:0.0691158 118:0.52105 119:0.368816 120:0.0337138 121:0.00729887 122:0 123:0 124:0 125:0 126:0.02052 127:0.262329 128:0.521768 129:0.142388 130:0.0251443 131:0.0278417 132:0 133:0 134:0 135:0 136:0 137:0 138:0 139:0.844739 140:0.155248 141:0 142:0 143:0 144:0 145:0 146:0.0156197 147:0.571813 148:0.406774 149:0.00578508 150:0 151:0 152:0 153:0 154:0 155:0.0296109 156:0.635941 157:0.334443 158:0 159:0 160:0 161:0 162:0 163:0.0923014 164:0.434161 165:0.450657 166:0.0228737 167:0 168:0 169:0 170:0 171:0 172:0.00624961 173:0.510593 174:0.278108 175:0.0499969 176:0.15499 177:0 178:0 179:0 
1 0:0 1:0 2:0 3:0 4:0 5:0 6:0 7:0 8:0.999815 9:0.0708319 10:0 11:0 12:0 13:0 14:0 15:0 16:0 17:0.929147 18:0.39269 19:0 20:0 21:0 22:0 23:0 24:0 25:0 26:0.607299 27:0.999967 28:0 29:0 30:0 31:0 32:0 33:0 34:0 35:0 36:0.999977 37:0 38:0 39:0 40:0 41:0 42:0 43:0 44:0 45:0 46:0 47:0 48:0 49:0.00823146 50:0.141764 51:0.419804 52:0.378342 53:0.0518277 54:0.87082 55:0.0994033 56:0.0282734 57:0.00148807 58:0 59:0 60:0 61:0 62:0 63:0.999992 64:0 65:0 66:0 67:0 68:0 69:0 70:0 71:0 72:0.816455 73:0.0607775 74:0 75:0 76:0 77:0 78:0 79:0 80:0.122753 81:0.489816 82:0.473325 83:0.0368415 84:0 85:0 86:0 87:0 88:0 89:0 90:0 91:0 92:0 93:0 94:0.386483 95:0.569153 96:0.0443558 97:0 98:0 99:0 100:0.0999994 101:0.136306 102:0.329206 103:0.423615 104:0.0108668 105:0 106:0 107:0 108:0.336052 109:0.317939 110:0.238773 111:0.081717 112:0 113:0.0035714 114:0.0015306 115:0.005102 116:0.015306 117:0.399212 118:0.509505 119:0.038333 120:0.0141175 121:0.00156861 122:0 123:0.00627445 124:0.0126469 125:0.0183332 126:0.0558817 127:0.507837 128:0.367275 129:0.0689943 130:0 131:0 132:0 133:0 134:0 135:0 136:0.00264543 137:0.0119044 138:0.0224862 139:0.670353 140:0.292585 141:0 142:0 143:0 144:0 145:0.00324668 146:0.00974005 147:0.190472 148:0.758209 149:0.0253241 150:0.00324668 151:0.00497825 152:0.0047618 153:0.0499991 154:0.0741246 155:0.312757 156:0.343525 157:0.209787 158:0.00979004 159:0 160:0 161:0 162:0.12315 163:0.595505 164:0.281336 165:0 166:0 167:0 168:0 169:0 170:0 171:0.0568552 172:0.547315 173:0.31354 174:0.0822729 175:0 176:0 177:0 178:0 179:0 
1 0:0.166528 1:0.166528 2:0.499584 3:0 4:0.166528 5:0 6:0 7:0 8:0 9:0.264602 10:0.125594 11:0 12:0 13:0 14:0 15:0.0341422 16:0.326789 17:0.24875 18:0.274269 19:0 20:0 21:0 22:0 23:0 24:0 25:0.0794893 26:0.64623 27:0.259394 28:0 29:0 30:0 31:0 32:0.00789459 33:0.00338339 34:0.0107141 35:0.718596 36:0 37:0 38:0 39:0 40:0 41:0 42:0 43:0.104121 44:0.895866 45:0.141627 46:0.191613 47:0 48:0 49:0.0777562 50:0.199944 51:0.0833102 52:0.219384 53:0.0860872 54:0.342975 55:0.00747629 56:0.014018 57:0.0168216 58:0.0205598 59:0 60:0.0700902 61:0.0476613 62:0.480351 63:0.00830317 64:0.0179601 65:0.00442234 66:0 67:0.000361008 68:0.00324907 69:0.0297831 70:0.0754506 71:0.860462 72:0.402718 73:0.00321778 74:0.0154701 75:0.0176978 76:0.00148513 77:0 78:0 79:0.00160889 80:0.55779 81:0.277104 82:0 83:0 84:0 85:0 86:0 87:0 88:0 89:0.722881 90:0.131659 91:0.000783687 92:0.00235106 93:0 94:0.211282 95:0.618642 96:0.0344822 97:0.000783687 98:0 99:0.0335361 100:0.000762183 101:0.00228655 102:0.220576 103:0.610661 104:0.0342983 105:0.0376519 106:0.0266764 107:0.0335361 108:0.17893 109:0.159197 110:0.255239 111:0.311175 112:0.0868979 113:0 114:0 115:0.00385025 116:0.00470586 117:0.566727 118:0.312005 119:0.061023 120:0.0346453 121:0.00885818 122:0.0103345 123:0.00639757 124:0 125:0 126:0.399819 127:0.44778 128:0.152392 129:0 130:0 131:0 132:0 133:0 134:0 135:0 136:0 137:0 138:0.0383606 139:0.583366 140:0.378262 141:0 142:0 143:0 144:0 145:0 146:0 147:0.179608 148:0.820383 149:0 150:0 151:0 152:0 153:0.0362958 154:0.153085 155:0.12148 156:0.504068 157:0.130739 158:0.0296293 159:0.0185183 160:0.00617276 161:0 162:0 163:0.035983 164:0.496928 165:0.440025 166:0.00892602 167:0 168:0.0135982 169:0.00453274 170:0 171:0 172:0.262289 173:0.46643 174:0.266709 175:0.00455795 176:0 177:0 178:0 179:0 
1 0:0.160835 1:0.0130406 2:0.0391219 3:0.169528 4:0.330363 5:0.0695501 6:0.0978048 7:0.0717235 8:0.0478157 9:0 10:0 11:0 12:0 13:0.0916603 14:0.383307 15:0.295813 16:0.145823 17:0.0833275 18:0.883052 19:0.00469383 20:0 21:0 22:0 23:0 24:0 25:0.0464281 26:0.0658157 27:0.973624 28:0.00298697 29:0 30:0 31:0 32:0 33:0 34:0.00467526 35:0.0187011 36:0.971512 37:0.0284765 38:0 39:0 40:0 41:0 42:0 43:0 44:0 45:0.0354781 46:0.0935333 47:0.362845 48:0.290276 49:0.0628931 50:0.0580551 51:0.0725689 52:0.0241896 53:0 54:0.196741 55:0.334394 56:0.23505 57:0.0519447 58:0.0129862 59:0 60:0.00259723 61:0.0727226 62:0.0935004 63:0.878096 64:0.121898 65:0 66:0 67:0 68:0 69:0 70:0 71:0 72:0.838569 73:0.144568 74:0 75:0.00308986 76:0.00252807 77:0 78:0 79:0.00112359 80:0.0101123 81:0.785976 82:0.214016 83:0 84:0 85:0 86:0 87:0 88:0 89:0 90:0 91:0 92:0 93:0.216799 94:0.758141 95:0.02505 96:0 97:0 98:0 99:0 100:0 101:0.0856025 102:0.673697 103:0.240695 104:0 105:0 106:0 107:0 108:0.0314813 109:0.261981 110:0.470586 111:0.2244 112:0.00811542 113:0.00343135 114:0 115:0 116:0 117:0.177625 118:0.328554 119:0.3506 120:0.131728 121:0.0114879 122:0 123:0 124:0 125:0 126:0.193528 127:0.538483 128:0.236889 129:0.0310922 130:0 131:0 132:0 133:0 134:0 135:0 136:0 137:0 138:0.185448 139:0.76972 140:0.0351165 141:0.00802662 142:0.00167221 143:0 144:0 145:0 146:0.0516124 147:0.604127 148:0.344251 149:0 150:0 151:0 152:0 153:0 154:0.00114285 155:0.28697 156:0.641711 157:0.070171 158:0 159:0 160:0 161:0 162:0 163:0.00140844 164:0.558236 165:0.436687 166:0.00366195 167:0 168:0 169:0 170:0 171:0 172:0.153325 173:0.397756 174:0.277762 175:0.13777 176:0 177:0 178:0.00333315 179:0.0299983 
1 0:0.0612883 1:0.0806426 2:0.043547 3:0.0661269 4:0 5:0 6:0.0116125 7:0.232896 8:0.503855 9:0.123283 10:0.0119859 11:0.063354 12:0.0397247 13:0.00136982 14:0 15:0.297935 16:0.252046 17:0.210267 18:0.478836 19:0.32307 20:0.086964 21:0 22:0 23:0 24:0.00769214 25:0.0222217 26:0.0811948 27:0.171873 28:0 29:0 30:0 31:0 32:0 33:0.0970039 34:0.38424 35:0.34687 36:0.0645644 37:0.0377938 38:0 39:0 40:0 41:0 42:0.174009 43:0.517303 44:0.206291 45:0.29138 46:0.0494373 47:0 48:0 49:0 50:0 51:0 52:0 53:0.659164 54:0.253201 55:0.0366981 56:0.0145831 57:0 58:0 59:0 60:0.00560888 61:0.320347 62:0.369545 63:0.181096 64:0.152867 65:0.0813378 66:0.0621995 67:0.0392335 68:0.0777493 69:0.150953 70:0.194254 71:0.0602856 72:0.465485 73:0.0761769 74:0 75:0 76:0 77:0.0560683 78:0.110416 79:0.148821 80:0.143024 81:0.628152 82:0.0530556 83:0 84:0 85:0 86:0 87:0 88:0.0366804 89:0.28209 90:0.137769 91:0.00971214 92:0 93:0 94:0 95:0.477154 96:0.236778 97:0.053147 98:0.0854309 99:0 100:0 101:0.02646 102:0.0474219 103:0.0560128 104:0.225082 105:0.307898 106:0.133331 107:0.203777 108:0.084614 109:0.0993294 110:0 111:0.0165549 112:0.220398 113:0.289126 114:0.211033 115:0.0698985 116:0.00902995 117:0.022857 118:0.179142 119:0.135142 120:0 121:0 122:0.0202856 123:0.163856 124:0.272498 125:0.206213 126:0.187828 127:0.203833 128:0.0818772 129:0 130:0 131:0 132:0.0190474 133:0.217325 134:0.290076 135:0 136:0 137:0 138:0.0351779 139:0.111631 140:0.801212 141:0.0519695 142:0 143:0 144:0 145:0 146:0 147:0 148:0.37186 149:0.52688 150:0.101255 151:0 152:0 153:0 154:0 155:0 156:0.505092 157:0.494903 158:0 159:0 160:0 161:0 162:0 163:0 164:0.168031 165:0.709903 166:0.114927 167:0.00713337 168:0 169:0 170:0 171:0.00434774 172:0.16225 173:0.49999 174:0.333393 175:0 176:0 177:0 178:0 179:0 
1 0:0.297091 1:0.255425 2:0.244556 3:0.00724611 4:0 5:0.0481867 6:0.00398536 7:0.0797072 8:0.0637658 9:0.079748 10:0.156246 11:0.154996 12:0.0239994 13:0 14:0 15:0.0827479 16:0.152746 17:0.349491 18:0.0985767 19:0.00369308 20:0 21:0 22:0.00454533 23:0.0409079 24:0.0647709 25:0.407091 26:0.380387 27:0.254234 28:0 29:0 30:0 31:0 32:0 33:0.110027 34:0.469344 35:0.166382 36:0.539266 37:0.126781 38:0.0482126 39:0 40:0 41:0 42:0 43:0.114282 44:0.171422 45:0.37026 46:0.094592 47:0 48:0 49:0 50:0.0659442 51:0.275128 52:0.162428 53:0.0316208 54:0.079655 55:0.0507156 56:0.0833799 57:0.029799 58:0.0988525 59:0.29885 60:0.214897 61:0.0770763 62:0.0667612 63:0.0881663 64:0.0874029 65:0.0578233 66:0.0381672 67:0.137974 68:0.269842 69:0 70:0.0654568 71:0.255148 72:0.313041 73:0.48835 74:0.122515 75:0 76:0 77:0 78:0 79:0.0131987 80:0.0628877 81:0.283558 82:0.575913 83:0.0937478 84:0.009722 85:0.000925904 86:0.00833314 87:0 88:0.0124997 89:0.0152774 90:0 91:0 92:0 93:0 94:0.722436 95:0.215878 96:0.0616794 97:0 98:0 99:0 100:0 101:0.0282024 102:0.266632 103:0.70516 104:0 105:0 106:0 107:0 108:0 109:0 110:0.210271 111:0.577288 112:0.205387 113:0.00669684 114:0.000352465 115:0 116:0 117:0 118:0.0292351 119:0.434703 120:0.435233 121:0.0972935 122:0 123:0 124:0.00299998 125:0.000529409 126:0 127:0.0133497 128:0.341283 129:0.618414 130:0.0269467 131:0 132:0 133:0 134:0 135:0 136:0 137:0 138:0.310975 139:0.654449 140:0.0345648 141:0 142:0 143:0 144:0 145:0 146:0 147:0.245596 148:0.754397 149:0 150:0 151:0 152:0 153:0 154:0 155:0.010968 156:0.592788 157:0.396239 158:0 159:0 160:0 161:0 162:0 163:0.00824602 164:0.0910334 165:0.622378 166:0.253467 167:0.00870413 168:0.0161648 169:0 170:0 171:0 172:0 173:0.0961009 174:0.482655 175:0.373516 176:0.0259405 177:0.0217739 178:0 179:0 
1 0:0.360551 1:0.0863506 2:0.0681715 3:0.0545372 4:0.0121194 5:0.0545372 6:0.0908953 7:0.139373 8:0.133313 9:0.575491 10:0.0598927 11:0 12:0 13:0.00208322 14:0.018749 15:0.0156242 16:0.0177074 17:0.3104 18:0.70826 19:0.0551049 20:0 21:0 22:0 23:0 24:0 25:0.00777952 26:0.228847 27:0.390771 28:0.21475 29:0.10758 30:0 31:0 32:0 33:0.00819655 34:0.0575808 35:0.221102 36:0.707308 37:0.292682 38:0 39:0 40:0 41:0 42:0 43:0 44:0 45:0.0477219 46:0.0431769 47:0.0681741 48:0.0409044 49:0.077264 50:0.0409044 51:0.072719 52:0.185206 53:0.423815 54:0.577761 55:0.0450279 56:0.00877167 57:0.0181281 58:0.0345019 59:0.0318704 60:0.112277 61:0.0997047 62:0.0719277 63:0.729008 64:0.11052 65:0 66:0 67:0 68:0 69:0 70:0 71:0.160467 72:0.683506 73:0.16621 74:0.0559938 75:0.0152586 76:0.00817428 77:0.0089917 78:0.0516342 79:0.0102178 80:0 81:0.997369 82:0.00262265 83:0 84:0 85:0 86:0 87:0 88:0 89:0 90:0.0196069 91:0.0588206 92:0.183815 93:0.0808784 94:0.0504877 95:0.326455 96:0.19901 97:0.0808784 98:0 99:0.154468 100:0.323367 101:0.0400398 102:0.0674783 103:0.0121949 104:0.00487795 105:0.0418691 106:0.0792667 107:0.276417 108:0.228146 109:0.254115 110:0.075847 111:0 112:0 113:0 114:0 115:0 116:0.441886 117:0.517779 118:0.366663 119:0.050372 120:0 121:0.0093109 122:0 123:0.0142457 124:0.0343572 125:0.0072625 126:0.725639 127:0.274352 128:0 129:0 130:0 131:0 132:0 133:0 134:0 135:0 136:0.0244765 137:0.0299157 138:0.232213 139:0.401247 140:0.278655 141:0.0334721 142:0 143:0 144:0 145:0.342082 146:0.480076 147:0.154814 148:0.023021 149:0 150:0 151:0 152:0 153:0.0578373 154:0.237115 155:0.592607 156:0.105224 157:0 158:0.00360357 159:0.00360357 160:0 161:0 162:0.147851 163:0.69174 164:0.160402 165:0 166:0 167:0 168:0 169:0 170:0 171:0.0671474 172:0.352679 173:0.452263 174:0.0783042 175:0.0206607 176:0 177:0 178:0.028925 179:0 
1 0:0 1:0.129647 2:0.113858 3:0.56613 4:0.190348 5:0 6:0 7:0 8:0 9:0.0430323 10:0 11:0 12:0 13:0 14:0.234321 15:0.436778 16:0.158195 17:0.127663 18:0.089755 19:0.120364 20:0.0735357 21:0.021951 22:0.0187803 23:0.0781698 24:0.234509 25:0.233534 26:0.129389 27:0.327008 28:0.356821 29:0.0490668 30:0 31:0 32:0.025465 33:0.0180119 34:0 35:0.223596 36:0.415497 37:0.0751317 38:0.0441165 39:0 40:0 41:0 42:0 43:0.0374322 44:0.427796 45:0 46:0.0101885 47:0.0916964 48:0.0796211 49:0.549235 50:0.152261 51:0.0452822 52:0.0645271 53:0.00716968 54:0.0869557 55:0.0484873 56:0.255669 57:0.244232 58:0.10756 59:0.0165405 60:0.157276 61:0.0832695 62:0 63:0.094666 64:0.310131 65:0.124866 66:0.0156666 67:0 68:0 69:0.0373331 70:0.148799 71:0.268532 72:0.538203 73:0.235357 74:0.0325089 75:0.00760442 76:0.0114066 77:0 78:0.00855497 79:0.0123572 80:0.153989 81:0.316077 82:0.559587 83:0.124323 84:0 85:0 86:0 87:0 88:0 89:0 90:0 91:0 92:0 93:0.151815 94:0.848175 95:0 96:0 97:0 98:0 99:0 100:0 101:0.0534058 102:0.657451 103:0.289137 104:0 105:0 106:0 107:0 108:0 109:0.0818754 110:0.588701 111:0.325771 112:0 113:0 114:0.00273222 115:0.000910738 116:0 117:0.0652994 118:0.347997 119:0.382596 120:0.188798 121:0.0152998 122:0 123:0 124:0 125:0 126:0.276757 127:0.441261 128:0.223377 129:0.0585907 130:0 131:0 132:0 133:0 134:0 135:0 136:0 137:0 138:0.0164381 139:0.858033 140:0.125512 141:0 142:0 143:0 144:0 145:0 146:0.00085994 147:0.26953 148:0.725175 149:0.00442255 150:0 151:0 152:0 153:0 154:0 155:0.101046 156:0.654357 157:0.244588 158:0 159:0 160:0 161:0 162:0 163:0 164:0.239142 165:0.66337 166:0.0729159 167:0.00263155 168:0.0164472 169:0.0054824 170:0 171:0.251417 172:0.186658 173:0 174:0.182848 175:0.217132 176:0 177:0 178:0.0214275 179:0.140469 
1 0:0 1:0 2:0 3:0.138408 4:0.261438 5:0.138408 6:0.346021 7:0.11534 8:0 9:0.0536938 10:0.299944 11:0.268469 12:0.288835 13:0.0888724 14:0 15:0 16:0 17:0 18:0.963627 19:0 20:0 21:0 22:0 23:0 24:0 25:0 26:0.0363633 27:0.65041 28:0.0060055 29:0 30:0 31:0 32:0 33:0.0167595 34:0.0241617 35:0.302649 36:0 37:0 38:0 39:0 40:0 41:0 42:0 43:0.108316 44:0.891674 45:0 46:0.017854 47:0.0535619 48:0.117836 49:0.603464 50:0.0642742 51:0.107124 52:0.0357079 53:0 54:0.010869 55:0.0217379 56:0.273355 57:0.294006 58:0.176077 59:0.106516 60:0.0576056 61:0.0190207 62:0.0407587 63:0.622979 64:0.259297 65:0.100175 66:0.0175438 67:0 68:0 69:0 70:0 71:0 72:0.679506 73:0.204743 74:0.0464115 75:0.0346061 76:0.00231479 77:0 78:0 79:0 80:0.032407 81:0.389867 82:0.311501 83:0.0842478 84:0 85:0 86:0 87:0 88:0 89:0.214378 90:0 91:0 92:0 93:0.158271 94:0.737183 95:0.104538 96:0 97:0 98:0 99:0 100:0 101:0.00869127 102:0.565032 103:0.426272 104:0 105:0 106:0 107:0 108:0 109:0.100489 110:0.472878 111:0.406954 112:0.0196738 113:0 114:0 115:0 116:0 117:0.0261779 118:0.126919 119:0.583942 120:0.250741 121:0.00488654 122:0.00732981 123:0 124:0 125:0 126:0 127:0.274998 128:0.561959 129:0.143749 130:0.0121428 131:0 132:0 133:0 134:0.00714279 135:0 136:0 137:0.00199554 138:0.0689571 139:0.880478 140:0.0415738 141:0.0069844 142:0 143:0 144:0 145:0 146:0 147:0.390062 148:0.609931 149:0 150:0 151:0 152:0 153:0 154:0 155:0.112814 156:0.715042 157:0.172139 158:0 159:0 160:0 161:0 162:0 163:0.0741268 164:0.51976 165:0.263659 166:0.018023 167:0.0761617 168:0.0162788 169:0.00087208 170:0.0311042 171:0 172:0.0187477 173:0.056243 174:0 175:0.352456 176:0.172478 177:0.24372 178:0.0887389 179:0.0674916 
1 0:0.841105 1:0.144676 2:0 3:0 4:0.0141839 5:0 6:0 7:0 8:0 9:0.0142846 10:0.080946 11:0.00714229 12:0.245219 13:0.180144 14:0.20792 15:0.049996 16:0.123006 17:0.0912626 18:0.0699276 19:0 20:0 21:0 22:0.0027971 23:0.0251739 24:0 25:0.249642 26:0.652425 27:0.276836 28:0.0176378 29:0.00920231 30:0 31:0 32:0 33:0.0207052 34:0.0308277 35:0.644775 36:0.30542 37:0.0240305 38:0 39:0 40:0 41:0 42:0.0213174 43:0.0550377 44:0.594175 45:0 46:0 47:0 48:0 49:0.0177512 50:0.0878685 51:0.591116 52:0.271298 53:0.0319522 54:0 55:0.0335932 56:0.0901548 57:0.195622 58:0.184997 59:0.125154 60:0.200466 61:0.129373 62:0.0406244 63:0.135315 64:0.00357136 65:0.136307 66:0.437095 67:0.220234 68:0 69:0.00595226 70:0.0168647 71:0.044642 72:0.208751 73:0.0190645 74:0.0129495 75:0.0582727 76:0.0212228 77:0.0517979 78:0.112708 79:0.211748 80:0.303474 81:0.290153 82:0.0509742 83:0 84:0 85:0 86:0 87:0 88:0.233331 89:0.425532 90:0 91:0 92:0 93:0 94:0.600606 95:0.353046 96:0.0463412 97:0 98:0 99:0 100:0 101:0 102:0.0875792 103:0.815654 104:0.0905515 105:0.00621016 106:0 107:0 108:0 109:0 110:0 111:0.316425 112:0.676383 113:0 114:0.00251539 115:0.00467143 116:0 117:0 118:0.0544941 119:0.258375 120:0.479415 121:0.207711 122:0 123:0 124:0 125:0 126:0.026582 127:0.26356 128:0.30497 129:0.345205 130:0.059674 131:0 132:0 133:0 134:0 135:0.00479569 136:0.000532855 137:0 138:0.01119 139:0.421666 140:0.561807 141:0 142:0 143:0 144:0 145:0 146:0 147:0.0506345 148:0.767454 149:0.181903 150:0 151:0 152:0 153:0.0153152 154:0.00270269 155:0.0321748 156:0.612673 157:0.303666 158:0.0334618 159:0 160:0 161:0 162:0 163:0 164:0 165:0.617245 166:0.382749 167:0 168:0 169:0 170:0 171:0 172:0 173:0.060677 174:0.712071 175:0.227244 176:0 177:0 178:0 179:0 
1 0:0.274341 1:0.571758 2:0 3:0.0211525 4:0.0224345 5:0.0461509 6:0 7:0.0448689 8:0.0192295 9:0.767668 10:0.09687 11:0 12:0 13:0.00208322 14:0.018749 15:0 16:0.0265611 17:0.0880162 18:0.990835 19:0.00915611 20:0 21:0 22:0 23:0 24:0 25:0 26:0 27:0.847967 28:0.0603765 29:0.0323446 30:0 31:0 32:0 33:0 34:0 35:0.0592984 36:0.852525 37:0.147464 38:0 39:0 40:0 41:0 42:0 43:0 44:0 45:0.605685 46:0.0609495 47:0 48:0 49:0 50:0 51:0 52:0.13047 53:0.202847 54:0.611747 55:0 56:0 57:0 58:0 59:0 60:0.0482339 61:0.141761 62:0.198229 63:0.97127 64:0.0287245 65:0 66:0 67:0 68:0 69:0 70:0 71:0 72:0.789596 73:0.0920596 74:0.0139885 75:0.00226841 76:0 77:0.00803395 78:0.00141776 79:0 80:0.0926267 81:0.979276 82:0.0207125 83:0 84:0 85:0 86:0 87:0 88:0 89:0 90:0 91:0.0199576 92:0.0165963 93:0.277095 94:0.432344 95:0.144745 96:0.0508393 97:0.0584021 98:0 99:0.0650896 100:0.129128 101:0.229653 102:0.411859 103:0.162011 104:0.00225224 105:0 106:0 107:0 108:0.314876 109:0.365142 110:0.268436 111:0.0409137 112:0 113:0 114:0.00212539 115:0.00850155 116:0 117:0.461698 118:0.379537 119:0.111444 120:0.0241686 121:0.010358 122:0 123:0.00959073 124:0.00319691 125:0 126:0.563459 127:0.333954 128:0.077985 129:0.0175642 130:0.00702568 131:0 132:0 133:0 134:0 135:0 136:0 137:0 138:0.159561 139:0.704092 140:0.136338 141:0 142:0 143:0 144:0.0119771 145:0.0184409 146:0.0875467 147:0.5499 148:0.311214 149:0.0209123 150:0 151:0 152:0 153:0 154:0.0446651 155:0.389237 156:0.492762 157:0.0679017 158:0.00542491 159:0 160:0 161:0 162:0 163:0.130085 164:0.521198 165:0.344912 166:0.003799 167:0 168:0 169:0 170:0 171:0 172:0.470118 173:0.503003 174:0 175:0 176:0 177:0.0201336 178:0.00671118 179:0 
1 0:0 1:0 2:0 3:0.13552 4:0.354809 5:0.062278 6:0.122802 7:0.324547 8:0 9:0.17804 10:0.423469 11:0.140432 12:0.14804 13:0.109998 14:0 15:0 16:0 17:0 18:0.818769 19:0.0432122 20:0 21:0 22:0 23:0 24:0 25:0.0302033 26:0.107804 27:0.502882 28:0.0353299 29:0.027892 30:0 31:0.0123964 32:0.00371893 33:0.0334704 34:0.0316109 35:0.352679 36:0.967417 37:0.0325723 38:0 39:0 40:0 41:0 42:0 43:0 44:0 45:0.0865343 46:0.0557665 47:0.0596125 48:0 49:0.0144224 50:0.10288 51:0.382674 52:0.19326 53:0.104803 54:0.221025 55:0.195275 56:0.0557928 57:0.0789683 58:0.0111586 59:0.0768224 60:0.0991395 61:0.0991395 62:0.162657 63:0.588334 64:0.109912 65:0 66:0 67:0 68:0 69:0 70:0.00466469 71:0.297082 72:0.307687 73:0.0622699 74:0 75:0.0058607 76:0.0164832 77:0.0481676 78:0.0027472 79:0.0805846 80:0.476182 81:0.193888 82:0.153785 83:0 84:0 85:0 86:0 87:0 88:0.0126505 89:0.639667 90:0.128543 91:0 92:0 93:0.0238183 94:0.663793 95:0.138468 96:0.0266538 97:0.0187144 98:0 99:0.00935329 100:0.0225172 101:0.0806 102:0.624361 103:0.263162 104:0 105:0 106:0 107:0 108:0.109163 109:0.28591 110:0.412763 111:0.165253 112:0.0131355 113:0.0137711 114:0 115:0 116:0 117:0.108698 118:0.201416 119:0.435629 120:0.215076 121:0.0128221 122:0.0158504 123:0.00405925 124:0 125:0.00644326 126:0.0440737 127:0.629995 128:0.217776 129:0.0399997 130:0 131:0.0295553 132:0.00155554 133:0.0185184 134:0.0185184 135:0.0119353 136:0.0374188 137:0.0674183 138:0.148546 139:0.614668 140:0.0458057 141:0 142:0 143:0.0741924 144:0.0262913 145:0.0248153 146:0.142619 147:0.479424 148:0.326842 149:0 150:0 151:0 152:0 153:0 154:0.00780375 155:0.227201 156:0.614935 157:0.150055 158:0 159:0 160:0 161:0 162:0 163:0.0209015 164:0.682208 165:0.27426 166:0.0177048 167:0.00491799 168:0 169:0 170:0 171:0 172:0.210423 173:0.467777 174:0.28036 175:0.0414098 176:0 177:0 178:0 179:0 
1 0:0.808764 1:0.0294096 2:0.101463 3:0.0573487 4:0.00294096 5:0 6:0 7:0 8:0 9:0.134753 10:0.0499891 11:0.0326016 12:0 13:0.226038 14:0.0782439 15:0.0326016 16:0.206477 17:0.239078 18:0.970566 19:0.0294199 20:0 21:0 22:0 23:0 24:0 25:0 26:0 27:0.961113 28:0.0388723 29:0 30:0 31:0 32:0 33:0 34:0 35:0 36:0.808968 37:0.107559 38:0.0227238 39:0 40:0.00605969 41:0.0545372 42:0 43:0 44:0 45:0.307075 46:0 47:0 48:0.0141727 49:0.165348 50:0.0960592 51:0.21259 52:0.0708634 53:0.133853 54:0.0576551 55:0.00540516 56:0.159452 57:0.422954 58:0.111256 59:0 60:0.0270258 61:0.114409 62:0.101797 63:0.546683 64:0.272159 65:0.13257 66:0.0485801 67:0 68:0 69:0 70:0 71:0 72:0.617807 73:0.27854 74:0.0287446 75:0.0218621 76:0.0145748 77:0 78:0.00607281 79:0.0126517 80:0.0197366 81:0.0872707 82:0.448853 83:0.284312 84:0.170451 85:0 86:0 87:0 88:0.00409082 89:0.00499989 90:0 91:0 92:0 93:0 94:0.32506 95:0.6634 96:0.0115336 97:0 98:0 99:0 100:0 101:0 102:0.436376 103:0.544105 104:0.0195134 105:0 106:0 107:0 108:0.00156249 109:0.0263019 110:0.364946 111:0.528695 112:0.0784892 113:0 114:0 115:0 116:0 117:0.0316157 118:0.165573 119:0.335947 120:0.415923 121:0.0326696 122:0.0151053 123:0.00316157 124:0 125:0 126:0 127:0.226077 128:0.460509 129:0.313408 130:0 131:0 132:0 133:0 134:0 135:0 136:0 137:0 138:0.0941294 139:0.776513 140:0.129346 141:0 142:0 143:0 144:0 145:0 146:0 147:0.156987 148:0.832374 149:0.0106298 150:0 151:0 152:0 153:0 154:0 155:0.15265 156:0.584275 157:0.263069 158:0 159:0 160:0 161:0 162:0.00353127 163:0.0506416 164:0.218457 165:0.659385 166:0.067977 167:0 168:0 169:0 170:0 171:0 172:0 173:0.261319 174:0.636723 175:0.0820419 176:0.019889 177:0 178:0 179:0 
1 0:0.0999792 1:0.524891 2:0.041658 3:0.0749844 4:0.141637 5:0.0749844 6:0.0312435 7:0.0104145 8:0 9:0.299833 10:0.144364 11:0.333148 12:0 13:0.111049 14:0 15:0.0832871 16:0.0277624 17:0 18:0.999985 19:0 20:0 21:0 22:0 23:0 24:0 25:0 26:0 27:0.90323 28:0.0967592 29:0 30:0 31:0 32:0 33:0 34:0 35:0 36:0.461714 37:0.0135798 38:0 39:0 40:0 41:0 42:0 43:0.220364 44:0.304312 45:0.192372 46:0.0457121 47:0 48:0.0342841 49:0.121899 50:0.31189 51:0.25094 52:0.0219037 53:0.0209514 54:0.0149031 55:0.0331715 56:0.026441 57:0.408634 58:0.260084 59:0.06442 60:0.0288448 61:0.0600933 62:0.10336 63:0.461282 64:0.255902 65:0.150373 66:0.132435 67:0 68:0 69:0 70:0 71:0 72:0.669443 73:0.267887 74:0.0409171 75:0.0129357 76:0.00880726 77:0 78:0 79:0 80:0 81:0.247523 82:0.563404 83:0.0744782 84:0.0257809 85:0.0210935 86:0.0166665 87:0.00416661 88:0.0140623 89:0.0328121 90:0 91:0 92:0 93:0 94:0.498477 95:0.483282 96:0.0182343 97:0 98:0 99:0 100:0 101:0.00256848 102:0.421173 103:0.574369 104:0.00188355 105:0 106:0 107:0 108:0.00123873 109:0.0249436 110:0.259683 111:0.60985 112:0.0986481 113:0 114:0.00112612 115:0.00450448 116:0 117:0.0199437 118:0.126797 119:0.365054 120:0.449211 121:0.0389885 122:0 123:0 124:0 125:0 126:0 127:0.120181 128:0.414802 129:0.432329 130:0.0263965 131:0.00628487 132:0 133:0 134:0 135:0 136:0 137:0 138:0.0529296 139:0.729388 140:0.217673 141:0 142:0 143:0 144:0 145:0 146:0 147:0.225522 148:0.774471 149:0 150:0 151:0 152:0 153:0 154:0 155:0.0160122 156:0.566438 157:0.417543 158:0 159:0 160:0 161:0 162:0.00526311 163:0.00204676 164:0.286547 165:0.678941 166:0.0271927 167:0 168:0 169:0 170:0 171:0.195692 172:0.492045 173:0.0738398 174:0.144368 175:0.0211917 176:0.0291386 177:0.0437079 178:0 179:0 
1 0:0.0987593 1:0.12777 2:0.106784 3:0.0617246 4:0.172829 5:0.0641936 6:0.142584 7:0.183322 8:0.0419727 9:0 10:0 11:0 12:0.158851 13:0.618315 14:0.199987 15:0.0227834 16:0 17:0 18:0.690153 19:0.0728303 20:0.0173405 21:0 22:0.0219647 23:0.0748533 24:0.0303459 25:0 26:0.0924829 27:0.926894 28:0.0730944 29:0 30:0 31:0 32:0 33:0 34:0 35:0 36:0.678687 37:0.172331 38:0 39:0 40:0 41:0.0212755 42:0.0212755 43:0 44:0.106377 45:0.121737 46:0.00869549 47:0 48:0 49:0 50:0 51:0 52:0.425898 53:0.443651 54:0 55:0 56:0.0241061 57:0.0562475 58:0.204455 59:0.232579 60:0.320968 61:0.1616 62:0 63:0.800967 64:0.0225486 65:0 66:0 67:0 68:0.0107841 69:0.0472214 70:0.0142155 71:0.104247 72:0.97595 73:0.0240402 74:0 75:0 76:0 77:0 78:0 79:0 80:0 81:0.567042 82:0.306462 83:0.00882327 84:0 85:0 86:0 87:0 88:0.0420576 89:0.075586 90:0.0972213 91:0 92:0 93:0 94:0.0283727 95:0.349004 96:0.294838 97:0.0962292 98:0.134324 99:0.0257497 100:0.00674992 101:0 102:0 103:0.846239 104:0.0562493 105:0.0144998 106:0.0181248 107:0.0323746 108:0.221283 109:0.189395 110:0.166562 111:0.255571 112:0.167181 113:0 114:0 115:0 116:0 117:0.432461 118:0.468532 119:0.0947886 120:0.00420837 121:0 122:0 123:0 124:0 125:0 126:0.418739 127:0.0395823 128:0 129:0 130:0 131:0 132:0.00703107 133:0.135413 134:0.399208 135:0.00694432 136:0 137:0.00624989 138:0.0145831 139:0.294266 140:0.527248 141:0.097915 142:0.0527769 143:0 144:0 145:0 146:0 147:0.0198042 148:0.980184 149:0 150:0 151:0 152:0 153:0 154:0 155:0.020876 156:0.239688 157:0.697285 158:0.0215203 159:0 160:0.0154637 161:0.00515457 162:0 163:0.210544 164:0.480581 165:0.235227 166:0.0609692 167:0.00886057 168:0.00379739 169:0 170:0 171:0 172:0.275777 173:0.526554 174:0.197653 175:0 176:0 177:0 178:0 179:0 
1 0:0.0974756 1:0.504874 2:0.0474881 3:0 4:0 5:0 6:0 7:0.217446 8:0.132467 9:0.312934 10:0.131469 11:0 12:0 13:0 14:0 15:0 16:0.0981391 17:0.457365 18:0.659031 19:0 20:0 21:0 22:0 23:0 24:0 25:0 26:0.340957 27:0.901558 28:0.000943381 29:0 30:0 31:0 32:0.00660367 33:0.00283014 34:0.00283014 35:0.0852188 36:0.984084 37:0.0159031 38:0 39:0 40:0 41:0 42:0 43:0 44:0 45:0.059994 46:0.0249975 47:0.0749925 48:0 49:0.119988 50:0.207979 51:0.265973 52:0.227977 53:0.0179982 54:0.371963 55:0.107989 56:0.0779922 57:0.0419958 58:0.0679932 59:0.0669933 60:0.0649935 61:0.0539946 62:0.145985 63:0.249998 64:0 65:0 66:0 67:0 68:0 69:0 70:0.00197783 71:0.748016 72:0.247804 73:0.00986831 74:0.0054824 75:0 76:0 77:0 78:0 79:0.00307014 80:0.733764 81:0.492445 82:0.010313 83:0 84:0 85:0 86:0 87:0 88:0.0220992 89:0.475134 90:0.103746 91:0.16291 92:0.00833299 93:0.0704137 94:0.502896 95:0.0933295 96:0.0016666 97:0.0529145 98:0.00374984 99:0.0362698 100:0.0610643 101:0.162497 102:0.42704 103:0.231962 104:0.0073769 105:0.0073769 106:0.030942 107:0.0354501 108:0.366762 109:0.26501 110:0.281015 111:0.0872074 112:0 113:0 114:0 115:0 116:0 117:0.39921 118:0.280547 119:0.0800581 120:0.0282905 121:0.00756378 122:0.00176816 123:0.0159134 124:0.00235754 125:0.184281 126:0.482132 127:0.32181 128:0.180699 129:0.01535 130:0 131:0 132:0 133:0 134:0 135:0.0443128 136:0 137:0 138:0 139:0.750068 140:0.205611 141:0 142:0 143:0 144:0 145:0 146:0 147:0.452821 148:0.547173 149:0 150:0 151:0 152:0 153:0.0123022 154:0.06485 155:0.179436 156:0.552719 157:0.153953 158:0.0173988 159:0 160:0 161:0.019332 162:0.00983391 163:0.160919 164:0.675666 165:0.147636 166:0.00593866 167:0 168:0 169:0 170:0 171:0 172:0.0679331 173:0.533718 174:0.398339 175:0 176:0 177:0 178:0 179:0 
1 0:0 1:0 2:0 3:0 4:0 5:0.309678 6:0.396496 7:0.28371 8:0.0100771 9:0.0285704 10:0.0296418 11:0.284633 12:0.188208 13:0.167494 14:0.166423 15:0.0349987 16:0.0678547 17:0.0321417 18:0.315458 19:0.219216 20:0 21:0.110837 22:0.0823688 23:0.182512 24:0.0520224 25:0.00187859 26:0.0356931 27:0.550604 28:0.0327232 29:0 30:0 31:0 32:0 33:0 34:0.0129064 35:0.403756 36:0.548233 37:0.0461522 38:0.0139855 39:0.0139855 40:0.0349638 41:0.0297192 42:0.00524457 43:0 44:0.307682 45:0.14215 46:0.14215 47:0.0774472 48:0.0715651 49:0.091172 50:0.0759767 51:0.0269595 52:0.150973 53:0.221558 54:0.0510403 55:0.0218744 56:0 57:0.240358 58:0.366918 59:0.132288 60:0.0179683 61:0.149215 62:0.020312 63:0 64:0.0504286 65:0.233152 66:0.127145 67:0.106437 68:0.0128754 69:0.0289696 70:0.251285 71:0.189698 72:0.363064 73:0 74:0 75:0 76:0 77:0 78:0 79:0.0779337 80:0.558994 81:0.664062 82:0.0592219 83:0 84:0.00873765 85:0.00097085 86:0.00849494 87:0.0303391 88:0.00485425 89:0.223296 90:0 91:0 92:0 93:0.038313 94:0.677801 95:0.150737 96:0.0792888 97:0.0538454 98:0 99:0.00467284 100:0.0140185 101:0.0207941 102:0.393687 103:0.53469 104:0.00782701 105:0.0242988 106:0 107:0 108:0.0679278 109:0.154913 110:0.339772 111:0.403517 112:0.0282867 113:0.00557765 114:0 115:0 116:0 117:0.406164 118:0.254932 119:0.14013 120:0.0244241 121:0.0220393 122:0.0190788 123:0.0235195 124:0.0294405 125:0.0802625 126:0.0203006 127:0.307516 128:0.493228 129:0.178946 130:0 131:0 132:0 133:0 134:0 135:0 136:0 137:0 138:0.0328686 139:0.900321 140:0.0668027 141:0 142:0 143:0 144:0 145:0 146:0 147:0.0798542 148:0.885001 149:0.0351385 150:0 151:0 152:0 153:0.0698812 154:0.105314 155:0.03248 156:0.42972 157:0.275982 158:0.0665348 159:0.0200785 160:0 161:0 162:0 163:0.042388 164:0.534703 165:0.401115 166:0.0217876 167:0 168:0 169:0 170:0 171:0 172:0 173:0.324721 174:0.640987 175:0.0342828 176:0 177:0 178:0 179:0 
1 0:0.0173044 1:0.18458 2:0.509517 3:0.198039 4:0.0519131 5:0 6:0.0288406 7:0.00961354 8:0 9:0.115262 10:0.302736 11:0.0791557 12:0.158311 13:0.0111096 14:0 15:0.109707 16:0.211082 17:0.0124983 18:0.202081 19:0 20:0 21:0 22:0 23:0 24:0 25:0 26:0.797908 27:0.747957 28:0 29:0 30:0 31:0 32:0 33:0 34:0.00325199 35:0.248777 36:0.235711 37:0 38:0 39:0 40:0 41:0 42:0 43:0 44:0.764277 45:0 46:0.0170435 47:0.0965799 48:0.127258 49:0.00908988 50:0.0454494 51:0.243154 52:0.34996 53:0.111351 54:0.303827 55:0.216012 56:0.174989 57:0.0999936 58:0 59:0 60:0.00256394 61:0.0640984 62:0.138453 63:0.854355 64:0.0463906 65:0 66:0 67:0 68:0 69:0 70:0 71:0.0992474 72:0.800469 73:0.0109523 74:0 75:0 76:0 77:0 78:0 79:0 80:0.18857 81:0.772004 82:0.0148405 83:0 84:0 85:0 86:0 87:0 88:0 89:0.213145 90:0.128879 91:0.0545117 92:0.000722009 93:0 94:0.609014 95:0.184112 96:0.0227433 97:0 98:0 99:0.0273463 100:0.0565879 101:0.226893 102:0.574092 103:0.115071 104:0 105:0 106:0 107:0 108:0.174056 109:0.32133 110:0.36787 111:0.136739 112:0 113:0 114:0 115:0 116:0 117:0.417816 118:0.279998 119:0.257893 120:0.0121804 121:0.00203006 122:0 123:0 124:0.0165412 125:0.0135337 126:0.362635 127:0.346048 128:0.247154 129:0.0441545 130:0 131:0 132:0 133:0 134:0 135:0 136:0 137:0 138:0.0100934 139:0.884571 140:0.105326 141:0 142:0 143:0 144:0 145:0 146:0 147:0.331085 148:0.5823 149:0.0407464 150:0.0273537 151:0.0185063 152:0 153:0.00602144 154:0.0667735 155:0.417953 156:0.474404 157:0.0348383 158:0 159:0 160:0 161:0 162:0 163:0.0855551 164:0.554149 165:0.350056 166:0.0102339 167:0 168:0 169:0 170:0 171:0 172:0.178011 173:0.534388 174:0.254783 175:0.0292548 176:0 177:0.00265953 178:0.000886509 179:0 
1 0:0 1:0.0441047 2:0.132314 3:0.308733 4:0.514555 5:0 6:0 7:0 8:0 9:0.0188661 10:0.150929 11:0.0565984 12:0 13:0 14:0.0396189 15:0.144326 16:0.329214 17:0.260353 18:0.567212 19:0.0279452 20:0 21:0 22:0 23:0 24:0 25:0 26:0.404828 27:0.535534 28:0.0548185 29:0 30:0 31:0 32:0 33:0.0265056 34:0.0765049 35:0.306622 36:0 37:0 38:0 39:0 40:0 41:0 42:0 43:0.268892 44:0.731091 45:0.0070307 46:0.099211 47:0.00312476 48:0 49:0.462464 50:0.250762 51:0.0117178 52:0.158581 53:0.0070307 54:0.0457422 55:0.0340407 56:0.0319132 57:0.146269 58:0.135099 59:0.367534 60:0.192011 61:0.0473379 62:0 63:0.682718 64:0.0981805 65:0.00350645 66:0 67:0 68:0 69:0 70:0 71:0.215582 72:0.20642 73:0.0087155 74:0.00045871 75:0 76:0.00550452 77:0.0231649 78:0.0121558 79:0.0737377 80:0.669832 81:0.0666654 82:0.044705 83:0.00235289 84:0 85:0 86:0 87:0 88:0.034117 89:0.85214 90:0.0917707 91:0 92:0 93:0 94:0.166453 95:0.54651 96:0.162972 97:0.032278 98:0 99:0 100:0 101:0 102:0.302909 103:0.533581 104:0.0625757 105:0.0165642 106:0.0487723 107:0.0355823 108:0.126002 109:0.187718 110:0.351627 111:0.313344 112:0.0213031 113:0 114:0 115:0 116:0 117:0.200308 118:0.561358 119:0.146176 120:0.0591936 121:0.0102272 122:0.00681811 123:0.0159089 124:0 125:0 126:0.321236 127:0.364903 128:0.272688 129:0.017414 130:0 131:0 132:0 133:0.0142478 134:0.00949856 135:0.0268945 136:0 137:0 138:0 139:0.514541 140:0.458552 141:0 142:0 143:0 144:0 145:0 146:0 147:0.218818 148:0.779487 149:0.00168538 150:0 151:0 152:0 153:0.00804279 154:0.124663 155:0.103618 156:0.618758 157:0.139542 158:0 159:0.00402139 160:0.00134046 161:0 162:0.0105404 163:0.0960352 164:0.601256 165:0.29216 166:0 167:0 168:0 169:0 170:0 171:0 172:0.0940961 173:0.563535 174:0.340158 175:0.00219905 176:0 177:0 178:0 179:0 
1 0:0 1:0 2:0.0692175 3:0.49029 4:0.376851 5:0.0634493 6:0 7:0 8:0 9:0 10:0.0249937 11:0.174956 12:0.182454 13:0.177456 14:0.0899775 15:0.0374906 16:0.0424894 17:0.269933 18:0.995554 19:0.00443454 20:0 21:0 22:0 23:0 24:0 25:0 26:0 27:0.742537 28:0 29:0 30:0 31:0 32:0 33:0.00609748 34:0.00447148 35:0.24688 36:0.999989 37:0 38:0 39:0 40:0 41:0 42:0 43:0 44:0 45:0.131209 46:0.103093 47:0.140581 48:0 49:0.249922 50:0 51:0.187441 52:0.118713 53:0.0687285 54:0.208999 55:0.275387 56:0.286042 57:0.0590116 58:0.00983526 59:0.0295058 60:0 61:0.06229 62:0.0688468 63:0.851744 64:0.148249 65:0 66:0 67:0 68:0 69:0 70:0 71:0 72:0.926169 73:0.0665755 74:0 75:0 76:0 77:0 78:0 79:0 80:0.00724631 81:0.872197 82:0.127795 83:0 84:0 85:0 86:0 87:0 88:0 89:0 90:0.0249099 91:0.0145159 92:0 93:0.0689952 94:0.750345 95:0.138349 96:0.00286733 97:0 98:0 99:0.00405403 100:0.00337836 101:0.156756 102:0.672968 103:0.157431 104:0 105:0.000270268 106:0.0051351 107:0 108:0.071693 109:0.368886 110:0.365028 111:0.194388 112:0 113:0 114:0 115:0 116:0 117:0.148341 118:0.357304 119:0.379635 120:0.0929529 121:0 122:0 123:0.0163212 124:0.00544039 125:0 126:0.127157 127:0.470949 128:0.317893 129:0.083992 130:0 131:0 132:0 133:0 134:0 135:0 136:0.00941693 137:0.0161433 138:0.046412 139:0.84304 140:0.0849766 141:0 142:0 143:0 144:0 145:0.0102739 146:0.152053 147:0.559584 148:0.27808 149:0 150:0 151:0 152:0 153:0 154:0 155:0.340195 156:0.57493 157:0.0848679 158:0 159:0 160:0 161:0 162:0 163:0.0517591 164:0.672649 165:0.275584 166:0 167:0 168:0 169:0 170:0 171:0 172:0.0704492 173:0.310583 174:0.41815 175:0.0704492 176:0.0545413 177:0.0227256 178:0.0462086 179:0.00681767 
