svm_type c_svc
kernel_type rbf
gamma 0.015873
nr_class 2
total_sv 322
rho -0.476708
label 1 0
probA -5.75263
probB -0.755865
nr_sv 155 167
SV
1 1:-1 2:1 3:1 4:1 5:1 6:-0.125 7:-1 8:1 9:1 10:1 11:1 12:1 13:1 14:1 16:1 17:-0.125 18:-0.5 19:-0.375 21:0.75 22:1 23:0.875 24:1 25:-1 26:-1 27:-1 28:-1 29:-1 31:1 32:1 33:-0.375 34:-1 35:-1 36:-1 37:-1 38:-0.5 39:1 40:1 41:1 42:0.875 43:0.5 45:-0.625 46:0.375 47:1 48:0.5 49:1 50:1 51:1 52:1 53:1 54:1 55:1 57:1 58:1 59:0.25 60:-0.25 62:0.75 63:-0.25 
0.2274697532893449 0:-1 1:-1 2:-0.5 3:0.25 4:1 5:1 6:1 7:1 8:-1 9:-0.875 10:0.875 11:1 12:1 13:1 14:1 15:1 16:-0.5 17:1 18:1 19:1 20:1 21:1 22:-0.75 23:0.25 24:1 25:1 26:0.875 27:-0.375 28:1 29:0.125 30:-1 31:-1 32:1 33:1 34:-0.25 35:-1 36:1 37:0.25 38:-1 39:-1 40:1 41:0.5 42:-1 43:-1 44:1 45:1 46:0.5 47:0.5 48:-1 49:-1 50:-1 51:-1 52:0.5 53:1 54:1 55:1 56:-1 57:-1 58:-1 59:-1 60:-0.625 61:0.875 62:1 63:1 
0.7381393942796015 0:-1 1:-1 2:-1 3:-0.375 4:1 5:1 6:1 7:1 8:-1 9:-1 11:1 12:1 13:1 14:1 15:1 16:-1 17:-0.375 18:1 19:1 20:1 21:1 22:0.25 23:0.375 24:0.25 25:1 26:1 28:1 29:0.25 30:-1 31:-1 32:1 33:1 34:0.125 35:-1 36:1 37:0.75 38:-0.5 39:-0.75 40:1 41:0.75 42:-0.875 43:-1 44:1 45:1 46:1 47:0.625 48:1 49:-0.25 50:-1 51:-1 52:-0.5 53:1 54:1 55:1 56:-1 57:-1 58:-1 59:-1 60:-0.125 61:1 62:1 63:0.875 
0.2251532529066715 0:-1 1:-1 2:-1 3:-0.75 4:1 5:1 6:1 7:1 8:-1 9:-1 11:1 12:1 13:1 14:1 15:1 16:-1 17:0.25 18:1 19:1 20:1 21:1 23:0.5 24:0.75 25:1 26:1 27:0.5 28:1 29:0.375 30:-1 31:-1 32:1 33:1 34:0.75 35:-1 36:1 37:0.25 38:-1 39:-1 40:1 41:1 42:-0.5 43:-1 44:1 45:1 46:-0.25 48:1 49:0.25 50:-1 51:-1 52:0.5 53:1 54:1 55:1 56:-0.875 57:-0.875 58:-1 59:-1 60:-0.5 61:1 62:1 63:1 
1 0:-1 1:-1 2:-1 3:-1 4:0.375 5:0.75 6:0.75 7:0.125 8:-1 9:-1 10:-1 11:0.375 12:1 13:0.75 14:1 15:1 16:-1 17:-0.875 18:0.5 19:1 20:1 21:1 22:1 23:1 24:-0.75 26:1 27:1 28:1 29:0.875 31:0.375 32:1 33:1 34:0.75 35:-0.875 36:1 37:0.5 38:-1 39:-0.875 40:1 41:1 42:-0.375 43:-1 44:1 45:0.875 46:-0.375 47:0.25 48:0.125 49:0.375 50:-1 51:-1 52:0.25 53:1 54:1 55:1 56:-1 57:-0.75 58:-1 59:-1 60:-0.75 61:0.75 62:1 63:1 
0.607643284532057 0:-1 1:-1 2:-0.5 3:-0.625 4:0.5 5:1 6:0.75 7:-0.875 8:-1 9:0.125 10:1 11:1 12:1 13:1 14:1 15:0.625 16:-0.375 17:1 18:0.875 19:1 20:0.625 21:-0.5 22:0.5 23:1 24:1 25:1 27:1 28:-0.5 29:-1 30:-0.75 31:0.875 32:0.875 33:-0.25 34:-1 35:1 36:0.5 37:-0.625 38:0.125 39:0.75 41:-1 42:-1 43:0.625 44:1 45:0.875 46:1 47:1 48:-1 49:-1 50:-1 51:-0.125 52:1 53:1 54:1 55:1 56:-1 57:-1 58:-1 59:-1 60:-0.375 61:1 62:0.5 63:1 
1 0:-1 1:-1 2:-1 3:-0.25 4:1 5:1 6:0.75 7:-1 8:-1 9:-1 10:-0.375 11:1 12:1 13:1 14:1 15:-0.375 16:-1 17:-0.25 18:1 19:1 20:0.75 21:0.5 22:1 23:1 24:-0.75 25:1 26:1 27:1 28:-0.25 29:-0.25 30:1 31:1 32:0.25 33:1 34:1 35:1 36:-1 37:-0.25 38:1 39:1 40:1 41:0.75 43:1 44:-0.5 45:0.5 46:1 47:0.125 48:1 49:-0.375 50:-0.5 51:1 52:1 53:1 54:0.625 55:-1 56:0.875 57:-1 58:-1 59:0.875 60:1 61:0.875 62:-0.5 63:-1 
0.6656962858627803 0:-1 1:-1 2:-1 3:-0.5 4:0.5 5:1 6:0.375 7:-0.5 8:-1 9:-0.875 10:-0.125 11:0.875 12:1 13:1 14:1 15:1 16:-1 18:1 19:1 20:0.75 21:0.5 22:1 23:1 24:-0.375 25:1 26:1 27:1 28:-0.5 29:-0.25 30:1 31:1 32:0.75 33:1 34:0.75 35:1 36:-1 37:-0.125 38:1 39:1 40:1 41:0.125 42:-0.5 43:1 44:0.25 45:0.5 46:1 47:0.75 48:1 49:-0.625 50:-0.625 51:1 52:1 53:1 54:0.625 55:-1 56:0.125 57:-1 58:-1 59:0.75 60:1 61:0.875 62:-0.5 63:-1 
1 0:-1 1:-1 2:-1 3:-0.625 4:0.5 5:1 6:1 7:-0.25 8:-1 9:-1 10:-0.75 11:0.625 12:1 13:1 14:1 15:0.375 16:-1 17:-0.875 18:0.75 19:1 20:1 22:1 23:1 24:-1 25:0.375 26:1 27:1 28:0.25 29:-1 30:1 31:1 32:-0.875 33:1 34:1 35:1 37:-1 38:1 39:1 40:0.375 41:1 42:-0.125 43:0.75 44:0.5 45:-0.125 46:1 47:0.25 48:1 49:0.625 50:-1 51:0.5 52:1 53:1 54:1 55:-0.625 56:1 57:-0.125 58:-1 59:-0.125 60:1 61:1 62:0.25 63:-1 
0.6306700656146981 0:-1 1:-1 2:-1 3:-0.5 4:1 5:1 6:1 7:1 8:-1 9:-1 10:-0.25 11:1 12:1 13:1 14:1 15:1 16:-0.5 17:0.125 18:1 19:1 20:1 21:0.125 22:-0.5 23:0.125 24:1 25:1 26:1 27:1 28:1 29:-0.875 30:-1 31:-0.875 32:1 33:1 34:0.25 36:1 37:-1 38:-1 39:-0.75 40:1 41:1 42:-0.75 44:1 46:-1 47:0.5 48:-0.875 49:-0.125 50:-1 51:-0.625 52:1 53:1 54:1 55:1 56:-1 57:-1 58:-1 59:-1 60:0.75 61:1 62:1 63:1 
1 0:-1 1:-0.75 2:0.75 3:1 4:1 5:1 6:1 7:0.75 8:-0.375 9:0.75 10:1 11:1 12:0.5 13:0.625 14:1 15:1 16:1 17:1 18:1 19:0.875 20:-1 21:-0.875 22:0.25 23:0.5 24:1 26:0.75 27:0.25 28:-1 29:-1 30:-1 32:-0.125 33:-1 34:0.5 35:0.625 36:-1 37:-1 38:-0.125 39:0.5 40:-1 41:-1 42:0.25 43:1 44:0.25 45:0.125 46:0.875 47:1 48:-1 49:-1 50:-0.375 51:1 52:1 53:1 54:1 55:1 56:-1 57:-1 58:-1 59:0.5 60:1 61:1 62:1 63:0.75 
1 0:-1 1:-1 2:-0.5 3:0.75 4:1 5:1 6:1 7:-0.5 8:-1 9:0.375 10:1 11:1 12:0.75 13:0.25 14:1 15:1 16:0.375 17:1 18:0.25 19:1 20:-0.75 21:-1 22:-0.375 23:1 24:1 25:0.125 26:-1 27:1 28:-0.75 29:-1 30:-0.375 31:0.5 32:-0.625 33:-1 34:-1 35:0.625 36:0.625 38:0.875 39:1 40:-1 41:-1 42:-1 43:-0.75 44:0.75 45:0.625 46:0.625 48:0.5 49:0.5 50:0.625 51:1 52:1 53:1 54:1 55:0.25 56:1 57:1 58:1 59:1 60:1 61:1 62:0.75 63:0.875 
0.4762026897144831 0:-1 1:-1 2:-1 3:-0.375 4:1 5:1 6:1 7:1 8:-1 9:-0.75 10:0.75 11:1 12:1 13:0.75 14:0.5 15:1 16:-0.875 17:0.625 18:1 19:0.25 20:0.875 21:-0.875 22:-1 23:-0.125 25:0.875 26:-0.375 27:-0.75 28:0.75 29:-1 30:-1 31:-0.375 32:0.375 33:-0.625 34:-1 35:-0.875 36:0.875 37:0.5 38:0.125 39:0.875 40:-0.625 41:-1 42:-1 43:-1 44:-0.375 45:0.5 46:0.5 47:0.25 48:0.75 49:1 50:1 51:1 52:1 53:1 54:1 55:1 56:0.875 57:1 58:1 59:1 60:1 61:1 62:1 63:0.875 
0.1436519967610596 0:-1 1:-0.75 2:0.25 3:1 4:1 5:1 6:1 7:-0.125 8:-0.25 9:0.875 10:0.875 11:1 12:0.375 13:-0.375 14:0.625 15:1 16:1 17:0.625 18:-0.75 19:1 20:-1 21:-1 22:-0.5 23:1 24:0.125 25:-1 26:-1 27:1 28:-0.125 29:-1 30:-0.125 31:1 32:-1 33:-1 34:-1 36:1 37:1 38:1 39:1 41:0.375 42:0.5 43:0.375 44:1 45:1 46:0.5 47:0.125 48:1 49:1 50:1 51:1 52:1 53:1 54:1 55:0.5 56:0.125 57:1 58:1 59:0.25 63:1 
0.2368229174419534 0:-1 1:-1 2:-0.625 3:0.5 4:1 5:1 6:1 7:-0.125 8:-1 10:1 11:1 12:0.75 13:0.25 14:1 15:1 16:-0.125 17:1 18:0.375 19:1 20:-0.75 21:-1 22:-0.375 23:0.875 24:1 25:0.5 26:-1 27:1 28:-1 29:-1 30:-0.375 31:0.625 32:-0.25 33:-1 34:-1 35:0.625 36:0.75 37:0.5 38:0.875 39:0.875 40:-1 41:-1 42:-1 43:-0.625 44:0.75 45:1 46:0.875 47:-0.25 48:-0.5 49:0.5 50:1 51:1 52:1 53:1 54:1 55:0.75 56:1 57:1 58:1 59:1 60:1 61:1 62:0.75 63:0.875 
1 0:-1 1:-1 2:-0.625 3:0.75 4:1 5:1 6:1 7:1 8:-1 9:0.125 10:1 11:0.875 12:1 13:-0.125 14:-0.375 15:0.375 16:-0.25 17:1 18:0.5 19:-0.625 20:0.625 21:-1 22:-1 23:-0.5 24:0.25 25:0.25 26:-1 27:-0.625 28:1 30:-0.5 31:0.625 32:0.375 33:-1 34:-1 35:-1 36:0.5 37:1 38:1 39:0.875 40:-0.125 41:0.5 42:0.375 43:0.5 44:0.5 45:0.625 46:0.375 47:0.5 48:1 49:1 50:1 51:1 52:1 53:1 54:1 55:1 56:0.25 59:0.25 60:1 61:1 62:1 63:0.625 
0.2416216734509911 0:-1 1:-1 2:-0.25 3:0.75 4:1 5:1 6:1 7:0.75 8:-0.625 9:0.625 10:1 11:0.75 12:1 13:0.125 14:0.25 15:1 16:1 17:0.875 18:-0.375 19:-0.5 20:0.375 21:-1 22:-1 23:0.25 24:0.375 25:-0.875 26:-1 27:-0.125 28:0.75 29:-1 30:-1 31:0.375 32:-1 33:-1 34:-1 35:-0.75 36:0.875 37:0.25 38:0.25 39:1 40:1 41:1 42:0.5 43:0.5 44:0.375 45:0.625 46:0.875 47:-0.25 48:1 49:1 50:1 51:1 52:1 53:1 54:1 55:0.625 56:0.5 57:0.5 58:0.875 59:0.5 61:0.125 62:0.5 63:0.25 
0.2704404630696313 0:-1 1:-1 2:-1 3:-0.75 4:0.5 5:1 6:1 7:-0.125 8:-1 9:-0.5 10:0.75 11:1 12:1 13:1 14:0.875 15:1 16:-0.625 17:1 18:1 19:0.5 20:0.75 21:-1 22:-0.5 23:0.75 24:1 25:0.375 26:-0.875 27:-0.25 28:0.25 29:-1 30:-1 31:0.25 32:-0.25 33:-1 34:-1 35:-0.625 36:1 38:0.25 39:1 40:-0.875 41:-0.5 42:-0.875 43:-1 44:0.25 45:1 46:1 47:0.125 48:1 49:1 50:1 51:1 52:1 53:1 54:1 55:0.5 56:0.75 57:1 58:1 59:1 60:1 61:1 62:1 63:0.875 
0.8763651800257307 0:-1 1:-1 2:-1 3:-0.875 4:1 5:1 6:1 7:0.25 8:-1 9:-1 10:-1 11:0.25 12:1 13:1 14:1 15:1 16:-1 17:-1 19:1 20:1 21:1 22:0.875 23:0.875 24:-1 25:-0.875 26:0.875 27:1 28:1 29:-0.375 30:-0.25 31:1 32:0.5 33:0.5 34:1 35:0.375 36:1 37:-0.5 38:-0.5 39:1 40:0.875 41:1 42:0.75 43:-0.5 44:1 45:-0.125 46:0.625 47:1 48:0.25 49:1 50:-0.625 51:-0.625 52:1 53:1 54:1 55:0.75 56:-0.25 57:0.75 58:-1 59:-1 60:1 61:1 62:1 
0.03931486977547925 0:-1 1:-1 2:-1 3:-1 4:0.5 5:1 6:1 7:1 8:-1 9:-1 10:-1 11:0.5 12:1 13:1 14:1 15:1 16:-1 17:-0.875 18:0.5 19:1 20:1 21:1 22:0.125 23:0.75 24:-1 25:0.125 26:1 27:0.75 28:1 29:0.625 30:-1 32:0.5 33:0.875 34:1 35:-0.5 36:0.25 37:0.25 38:-1 39:-0.875 40:1 41:1 42:0.25 43:-1 44:1 45:0.625 46:-1 47:-0.75 48:0.25 49:1 50:-0.625 51:-1 52:0.25 53:1 54:-1 55:-0.125 56:-0.875 57:0.25 58:-1 59:-1 60:-0.125 61:1 62:1 63:1 
0.540636247974215 0:-1 1:-1 2:-1 3:-0.75 4:0.5 5:1 6:1 7:1 8:-1 9:-1 10:-0.375 11:0.875 12:1 13:1 14:0.5 15:1 16:-1 17:-0.5 18:0.875 19:0.875 20:0.75 21:0.625 22:-1 23:-0.125 24:-1 25:0.75 26:1 27:-0.5 29:0.25 30:-1 31:-0.875 32:-0.5 33:1 34:-0.375 35:-1 37:1 38:-1 39:0.125 40:0.75 41:0.125 42:-1 43:-1 44:0.125 45:1 46:1 47:1 48:0.75 49:-0.75 50:-1 51:-1 52:1 53:0.625 54:-0.125 55:1 56:-1 57:-1 58:-1 59:-1 60:0.5 61:1 62:1 63:0.875 
0.8791547528078406 0:-1 1:-1 2:-0.625 3:0.25 4:1 5:0.125 6:-1 7:-1 8:-1 9:-0.125 10:1 11:1 12:1 13:1 14:-0.125 15:-1 16:0.125 17:1 18:1 19:1 20:0.5 21:1 22:0.5 23:-1 24:1 25:1 26:0.625 27:0.875 28:-1 29:-0.125 30:1 31:0.625 32:1 35:0.5 36:-1 37:-0.875 38:1 39:1 40:0.375 41:-1 42:-0.5 43:1 44:-0.75 45:-0.125 46:1 47:1 48:-1 49:-1 50:-0.75 51:1 52:1 53:1 54:1 55:0.75 56:-1 57:-1 58:-1 59:0.25 60:1 61:1 62:0.625 63:0.25 
0.8184991021399196 0:-1 1:-1 2:-0.375 3:0.5 4:1 5:1 6:-0.625 7:-1 8:-1 9:0.25 10:1 11:1 12:1 13:1 14:0.625 15:-0.75 17:1 18:1 19:1 20:-1 21:0.125 22:1 23:0.125 24:1 25:0.875 26:0.375 27:0.5 28:-1 29:-0.875 30:1 31:0.75 32:1 33:-0.375 34:-0.25 35:1 36:-1 37:-0.25 38:1 39:1 40:-0.25 41:-1 42:-0.75 43:1 44:0.875 45:1 46:0.375 47:1 48:-1 49:-1 50:-1 51:0.375 52:1 53:1 55:0.5 56:-1 57:-1 58:-1 59:-0.875 60:0.75 61:1 62:1 63:-0.625 
0.4683532161116654 0:1 1:1 2:1 3:1 4:-1 5:0.875 6:0.125 7:-1 8:1 9:0.5 10:0.875 11:0.625 12:-1 14:1 15:-0.25 16:1 17:-0.75 18:0.5 19:0.625 20:-1 22:1 23:0.75 24:-0.625 25:-1 27:1 28:0.125 29:0.875 30:1 31:1 32:-1 33:-1 34:-0.25 35:1 36:1 37:1 38:0.5 39:1 40:-1 41:-1 42:-1 43:-0.125 44:1 45:0.375 46:0.375 47:1 48:-1 49:-1 50:-1 51:-0.5 52:1 53:1 54:1 55:0.75 56:-1 57:-1 58:-1 59:-1 60:0.125 61:1 62:1 63:0.125 
1 0:1 1:1 2:1 3:1 4:-1 5:0.875 6:0.125 7:-1 8:1 9:0.5 10:0.875 11:0.625 12:-1 14:1 15:-0.25 16:1 17:-0.75 18:0.5 19:0.625 20:-1 22:1 23:0.75 24:-0.625 25:-1 27:1 28:0.125 29:0.875 30:1 31:1 32:-1 33:-1 34:-0.25 35:1 36:1 37:1 38:0.5 39:1 40:-1 41:-1 42:-1 43:-0.125 44:1 45:0.375 46:0.375 47:1 48:-1 49:-1 50:-1 51:-0.5 52:1 53:1 54:1 55:0.75 56:-1 57:-1 58:-1 59:-1 60:0.125 61:1 62:1 63:0.125 
0.159723415250525 0:-1 1:-1 2:-1 3:-0.75 4:1 5:1 6:0.75 7:-0.75 8:-1 9:-1 10:-1 12:1 13:1 14:1 15:0.125 16:-0.875 17:-0.875 18:-0.25 19:1 20:1 21:1 22:1 23:1 24:0.125 25:0.625 26:1 27:1 28:1 29:0.875 30:0.25 31:1 32:1 33:1 34:1 36:1 37:0.375 38:-1 39:0.375 40:0.375 41:1 42:0.5 43:-1 44:1 45:0.125 46:-1 48:-0.75 49:0.5 50:-0.75 51:-1 52:1 53:0.625 54:-1 55:0.5 56:-1 57:-1 58:-1 59:-1 60:0.75 61:1 62:1 63:1 
1 0:-1 1:0.125 2:1 3:1 4:1 5:0.875 6:1 7:-0.375 8:-0.625 9:1 10:1 11:1 12:-0.75 13:-0.75 14:1 15:0.875 16:0.75 17:1 18:0.25 19:1 20:-1 21:-1 22:0.625 23:1 24:1 25:0.625 26:-0.5 27:1 28:-1 29:-1 30:0.125 31:1 32:0.875 33:-0.625 34:-0.75 35:1 36:-0.375 37:-0.5 38:1 39:1 40:-0.25 41:-1 42:-1 43:0.75 44:0.875 45:0.75 46:0.875 47:1 48:-1 49:-1 50:-1 52:1 53:1 54:0.25 55:1 56:-1 57:-1 58:-1 59:-1 60:0.375 61:1 62:1 63:0.25 
1 0:-1 1:0.625 2:1 3:1 4:0.375 5:-1 7:0.125 8:-0.25 9:1 10:0.375 11:0.625 13:-1 14:-0.375 15:0.875 16:0.75 17:1 18:-0.625 19:0.5 21:-1 22:-0.125 23:1 24:1 25:0.25 26:-1 27:0.5 28:0.625 29:-1 30:0.625 31:1 32:0.875 33:-0.75 34:-1 35:-0.25 36:1 37:0.625 38:1 39:0.75 40:-0.625 41:-1 42:-1 43:-0.875 44:1 45:1 46:1 47:0.5 48:-1 49:-1 50:-1 51:-1 52:1 53:0.75 54:1 55:1 56:-1 57:-1 58:-1 59:-1 60:0.375 61:1 62:1 63:0.375 
0.5091729522643633 0:-1 1:-1 4:1 5:1 6:1 7:-0.375 8:-1 9:-0.125 10:1 11:1 12:0.875 13:0.875 14:1 15:0.75 16:-0.75 17:1 18:1 19:1 20:-0.5 21:-0.75 22:1 23:1 24:0.5 25:1 26:0.75 27:1 28:-1 29:-1 30:0.5 31:1 32:1 33:0.875 34:-0.25 35:1 36:-1 37:-1 38:0.125 39:0.5 40:1 41:-0.25 42:-0.5 43:1 44:-0.75 45:-0.75 46:0.75 47:1 48:0.75 49:-1 50:-0.75 51:1 52:0.375 53:0.375 54:1 55:1 56:-0.25 57:-1 58:-1 59:0.5 60:1 61:1 62:0.5 63:0.875 
1 0:-1 1:-1 2:-1 3:-1 4:-1 5:-1 6:0.5 7:-0.125 8:-1 9:-1 10:-0.75 11:-0.5 12:-0.375 13:0.25 14:1 15:0.875 16:-1 17:0.375 18:1 19:1 20:0.875 21:0.875 22:1 23:1 25:1 26:1 27:1 28:-0.75 29:-0.875 30:0.5 31:0.75 32:1 33:0.875 34:-0.5 35:1 36:-1 37:-1 38:0.125 39:1 40:1 41:-0.375 42:-0.5 43:1 44:-1 45:-1 46:0.875 47:1 48:0.25 49:-1 50:-0.875 51:1 52:0.5 53:0.25 54:1 55:0.625 56:-1 57:-1 58:-1 59:0.125 60:1 61:1 62:0.5 63:-1 
1 0:1 1:1 2:1 3:0.875 4:-1 5:0.5 6:0.875 7:-1 8:1 9:0.875 10:1 11:0.375 12:-1 14:1 15:-0.625 16:1 17:-0.5 18:0.5 19:0.375 20:-1 22:1 23:0.875 24:0.5 25:-1 26:0.5 27:0.625 28:-1 30:1 31:1 32:-1 33:-1 34:0.25 35:1 36:0.25 37:0.625 38:1 39:1 40:-1 41:-1 42:-0.375 43:1 44:1 45:1 46:1 47:1 48:-1 49:-1 50:-1 51:0.625 52:1 53:1 54:0.25 55:0.625 56:-1 57:-1 58:-1 59:-0.75 60:0.75 61:1 62:0.625 63:-0.5 
1 0:0.25 1:1 2:1 3:1 4:1 5:1 6:1 7:-0.375 8:1 9:1 10:1 11:1 12:1 13:1 14:1 15:1 16:1 17:1 18:1 19:1 20:0.875 21:-0.375 22:0.5 23:1 24:1 25:1 26:1 27:1 28:0.375 29:-1 30:-1 31:1 32:1 33:0.5 34:-0.75 35:0.625 36:0.25 37:-1 38:-1 39:1 40:1 41:-0.75 42:-1 43:0.375 44:0.875 45:-0.625 46:-0.25 47:1 48:0.125 49:-1 50:-1 52:1 53:1 54:1 55:1 56:-1 57:-1 58:-1 59:-0.25 60:1 61:1 62:1 63:0.5 
1 0:-0.25 1:1 2:1 3:1 6:1 7:-0.5 8:0.75 9:1 10:1 11:1 12:-0.75 13:-0.625 14:1 15:-0.125 16:1 17:0.875 18:0.125 19:1 20:-1 21:-1 22:1 23:0.625 24:1 25:0.125 26:-0.5 27:1 28:-1 29:-1 30:1 31:1 32:1 33:-0.625 34:-0.5 35:1 36:-0.25 37:-1 38:1 39:1 41:-1 42:-0.625 43:1 44:0.75 45:0.25 46:1 47:1 48:-1 49:-1 50:-1 51:0.75 52:1 53:1 54:1 55:1 56:-1 57:-1 58:-1 60:1 61:1 62:0.5 63:0.75 
1 0:-0.375 1:1 2:1 3:1 4:1 5:1 6:1 7:-0.5 8:0.75 9:1 10:1 11:1 12:0.125 14:1 15:-0.5 16:1 17:0.75 19:1 20:-1 21:-0.875 22:1 23:0.5 24:1 25:-0.25 26:-0.5 27:1 28:-1 29:-1 30:1 31:1 32:0.5 33:-1 34:-0.5 35:1 36:-0.25 37:-1 38:1 39:1 40:-1 41:-1 42:-0.875 43:1 44:0.875 45:0.5 46:1 47:1 48:-1 49:-1 50:-1 51:0.75 52:1 53:1 54:1 55:1 56:-1 57:-1 58:-1 59:-0.125 60:1 61:1 62:0.75 63:-0.25 
1 0:1 1:1 2:-0.75 3:-1 4:-1 6:1 7:0.875 8:1 9:1 10:-0.5 11:-1 12:-1 14:1 15:0.75 16:1 17:1 18:0.875 19:-0.25 21:1 22:1 23:1 24:0.75 25:1 26:1 27:1 28:1 29:1 30:1 31:1 32:-0.5 33:1 34:1 35:1 36:1 37:1 38:0.625 39:-0.5 40:-1 41:-0.25 42:1 43:1 44:1 45:0.75 46:-0.75 47:-1 48:-1 49:1 50:1 51:1 52:1 53:1 54:0.875 55:-0.625 56:-1 57:0.5 58:1 59:1 60:1 61:1 62:0.375 63:-0.875 
1 0:0.25 1:1 2:1 3:1 4:1 5:1 6:1 7:1 8:1 9:1 10:1 11:1 12:1 13:0.125 14:0.875 15:1 16:1 17:1 18:1 19:1 20:0.5 21:-1 22:-0.75 23:1 24:1 25:1 26:-0.5 27:0.875 28:0.375 29:-1 30:-1 31:1 32:1 34:-1 35:0.5 36:0.5 37:-1 38:-1 39:1 40:0.625 41:-1 42:-1 43:0.25 44:1 45:0.625 46:0.75 47:1 48:-1 49:-1 50:-1 52:1 53:1 54:1 55:1 56:-1 57:-1 58:-1 59:-0.5 60:1 61:1 62:1 63:0.25 
1 0:1 1:1 2:1 3:1 4:0.875 5:-0.125 6:1 7:-0.25 8:1 9:1 10:1 11:1 12:0.25 13:-0.875 14:1 15:0.75 16:1 17:0.875 18:-0.375 19:1 21:-1 23:1 24:1 25:0.125 26:-1 27:1 29:-1 31:1 32:0.875 33:-0.75 34:-1 35:1 36:0.625 37:-1 38:0.25 39:1 40:-0.625 41:-1 42:-1 43:0.75 44:1 45:0.5 46:1 47:1 48:-1 49:-1 50:-1 51:0.375 52:1 53:1 54:1 55:1 56:-1 57:-1 58:-1 59:-0.5 60:1 61:1 62:1 63:-0.375 
1 0:-0.25 1:1 2:1 3:1 4:1 5:-0.125 7:1 8:0.75 9:1 10:1 11:1 12:1 13:-0.75 14:-0.625 15:1 16:1 17:1 18:0.5 19:0.5 20:1 21:-1 22:-1 23:1 24:1 25:0.875 26:-0.5 28:1 29:-1 30:-1 31:1 32:0.75 33:0.125 34:-1 36:1 37:-0.125 38:-0.75 39:1 40:-0.625 41:-0.75 42:-1 43:-0.25 44:1 45:0.875 46:0.625 47:1 48:-1 49:-1 50:-1 51:-0.5 52:1 53:1 54:1 55:1 56:-1 57:-1 58:-1 59:-1 60:0.75 61:1 62:1 63:0.375 
1 0:1 1:1 2:-0.5 3:-1 4:-0.375 5:1 6:1 7:-1 8:1 9:1 10:-0.5 11:-1 13:1 14:1 15:-0.375 16:1 17:1 18:0.25 19:-1 21:1 22:1 23:1 24:0.75 25:1 26:1 27:0.5 28:1 29:1 30:1 31:1 32:-0.25 33:1 34:1 35:1 36:1 37:1 38:1 39:1 40:-1 41:-0.375 42:1 43:1 44:1 45:-0.375 46:1 47:1 48:-1 49:-1 50:-0.875 51:-0.5 52:-0.75 53:-1 54:1 55:0.625 56:-1 57:-1 58:-1 61:0.25 62:0.875 63:-0.75 
1 0:0.25 1:1 2:1 3:1 4:1 5:1 6:1 7:-0.375 8:1 9:1 10:1 11:1 12:1 13:1 14:1 15:0.75 16:1 17:1 18:1 19:1 20:0.875 21:-0.375 22:0.375 23:1 24:1 25:1 26:0.25 27:0.875 28:0.25 29:-1 30:-1 31:1 32:1 34:-1 35:0.5 36:0.5 37:-1 38:-1 39:1 40:0.375 41:-1 42:-1 43:0.25 44:1 46:0.125 47:1 48:-1 49:-1 50:-1 52:1 53:1 54:1 55:0.875 56:-1 57:-1 58:-1 59:-0.875 60:0.375 61:1 62:1 63:-0.125 
1 0:1 1:1 2:1 3:0.5 4:-1 5:0.5 6:1 7:-1 8:1 9:1 10:1 11:0.375 12:-1 14:1 15:-0.875 16:1 17:0.5 18:1 19:0.125 20:-1 22:1 23:0.375 24:1 25:-0.75 26:0.5 27:0.5 28:-1 30:1 31:1 32:0.625 33:-1 34:0.5 35:0.875 36:-0.875 37:0.5 38:1 39:1 40:-0.375 41:-1 42:0.25 43:1 44:0.625 45:1 46:1 47:1 48:-1 49:-1 50:-0.125 51:1 52:1 53:1 54:0.25 55:1 56:-1 57:-1 58:-0.625 59:1 60:1 61:1 62:-0.875 63:1 
1 0:-1 1:-0.875 2:-0.5 3:0.25 4:1 6:-0.25 7:-0.75 8:-1 9:0.5 10:1 11:1 12:0.875 13:0.875 14:0.875 15:0.25 16:0.25 17:1 18:1 19:1 21:-0.375 22:1 23:0.625 24:1 25:0.625 26:0.25 27:1 28:-1 29:-1 30:1 31:1 32:1 33:-0.375 34:-0.5 35:1 36:-0.75 37:-0.875 38:1 39:1 40:-0.125 41:-1 42:-0.625 43:1 44:0.875 45:0.875 46:1 47:1 48:-1 49:-1 50:-1 51:0.375 52:1 53:1 54:0.75 55:1 56:-1 57:-1 58:-1 59:-1 60:0.5 61:1 62:1 63:0.5 
1 0:-1 1:-1 2:-1 3:-1 4:-1 5:-1 6:-1 7:0.5 8:-1 9:-1 10:-0.75 11:-0.5 12:-0.5 13:-0.25 14:-1 15:0.125 16:-1 17:-0.5 18:0.875 19:1 20:1 21:1 22:0.375 23:0.5 24:-0.125 25:0.875 26:1 27:1 28:1 29:0.875 30:1 31:1 32:1 33:1 34:-0.25 35:1 36:0.25 37:-1 38:0.25 39:1 40:1 41:0.125 42:-1 43:1 45:-1 47:1 49:-0.875 50:-1 51:1 52:0.75 53:-0.375 54:0.625 55:0.875 56:-1 57:-1 58:-1 59:0.25 60:1 61:1 62:1 
0.2437102084356427 0:-1 1:-1 2:-1 3:-1 4:-1 5:-1 6:-1 7:0.25 8:-1 9:-1 10:-1 11:-1 12:-0.75 14:0.125 15:-0.375 16:-1 17:-1 18:-0.625 19:0.875 20:1 21:1 22:1 23:1 24:-1 25:-0.375 26:0.875 27:1 28:1 29:1 30:0.125 31:1 32:1 33:1 34:1 35:0.375 36:1 37:-0.25 38:-1 39:0.25 40:1 41:1 42:0.375 43:-1 44:1 46:-1 47:0.125 48:0.125 49:0.75 50:-0.75 51:-1 52:1 53:1 54:0.5 55:1 56:-1 57:-1 58:-1 59:-1 60:0.125 61:0.875 62:0.5 63:0.625 
0.1475760661294687 0:-1 1:-0.625 2:0.75 3:1 4:1 5:1 6:1 7:-0.25 8:-0.5 9:1 10:0.875 11:1 12:0.5 13:-0.25 14:1 15:0.25 16:1 17:1 19:1 21:-1 22:0.5 23:0.75 24:1 25:0.625 26:-0.875 27:1 29:-1 30:0.5 31:0.75 32:1 33:-0.75 34:-1 35:0.875 36:0.625 37:-0.625 38:0.75 39:0.75 40:0.875 41:-1 42:-1 43:0.25 44:1 45:0.75 46:1 47:1 48:-1 49:-1 50:-1 51:-0.5 52:1 53:-0.875 54:1 55:1 56:-1 57:-1 58:-1 59:-0.875 60:1 61:-0.125 62:0.875 63:0.625 
1 0:-1 1:-0.375 2:0.5 3:0.75 4:1 5:1 6:1 7:-0.375 8:0.375 9:1 10:0.875 11:1 12:-0.125 14:1 15:0.625 16:1 17:1 19:1 20:-0.5 21:-1 22:0.875 23:1 24:1 25:0.125 26:-0.25 27:1 28:-0.5 29:-1 30:0.625 31:1 32:0.75 33:-1 34:-1 35:1 36:-0.25 37:-0.5 38:1 39:1 40:0.125 41:-1 42:-1 43:0.5 44:1 45:0.75 46:1 47:1 48:-1 49:-1 50:-1 51:-0.625 52:1 53:-0.875 54:0.5 55:1 56:-1 57:-1 58:-1 59:-1 60:0.625 61:-0.25 62:0.5 63:1 
1 0:0.25 1:1 2:1 3:1 4:1 5:1 6:0.5 7:1 8:1 9:1 10:1 11:1 12:1 13:1 14:1 15:1 16:1 17:1 18:1 19:1 20:0.625 21:1 22:1 23:1 24:0.75 25:-0.25 26:1 27:0.25 28:-0.875 29:0.375 30:0.625 31:-0.5 32:-0.625 33:-1 34:1 36:-1 37:0.375 38:0.125 39:0.5 40:-1 41:-1 42:1 43:0.75 45:1 46:0.75 47:1 48:-1 49:-1 50:1 51:1 52:1 53:1 54:1 55:1 56:-1 57:-1 58:-0.125 59:1 60:1 61:0.75 62:1 63:0.875 
1 0:-1 1:-0.75 2:-0.5 3:0.5 4:1 5:-0.125 6:-1 7:-1 8:0.25 9:1 10:1 11:1 12:1 13:1 14:0.25 15:-0.75 16:1 17:1 18:1 19:0.875 20:0.375 21:1 22:1 23:0.75 24:1 25:0.375 26:1 28:-1 29:0.625 30:1 31:0.875 32:-0.25 33:-1 34:1 35:0.125 36:-0.25 37:0.75 38:1 39:0.25 40:-1 41:-1 42:0.625 43:1 44:1 45:1 46:1 47:0.625 48:-1 49:-1 50:-0.5 51:0.75 52:1 53:1 54:1 55:1 56:-1 57:-1 58:-1 59:-1 60:0.75 61:1 62:1 63:0.625 
1 0:-1 1:-0.875 2:-0.5 3:-0.25 6:0.125 7:1 8:-1 9:0.125 10:1 11:1 12:1 13:1 14:1 15:1 16:-0.25 17:1 18:1 19:1 20:1 21:1 22:1 23:0.125 24:1 25:1 26:1 27:1 28:-0.25 29:-0.75 30:1 31:-0.25 32:1 33:0.625 34:0.25 35:1 36:-0.625 37:-1 38:0.5 39:0.625 40:1 41:-0.625 42:-1 43:1 44:-0.5 45:-0.75 46:0.875 47:1 48:0.625 49:-1 50:-1 51:1 52:0.875 53:1 54:1 55:0.875 56:-1 57:-1 58:-1 59:0.75 60:1 61:1 62:1 63:-0.25 
1 0:-1 1:-0.625 2:0.125 3:-0.125 4:0.5 5:0.375 6:-1 7:-1 8:0.375 9:1 10:1 11:1 12:1 13:1 14:-0.125 15:-0.875 16:1 17:1 18:1 19:0.625 20:0.125 21:1 22:1 23:0.25 24:1 25:0.375 26:1 27:-0.625 28:-1 29:0.625 30:1 31:0.625 32:-0.25 33:-1 34:1 35:0.125 36:-0.25 37:1 38:1 39:-0.25 40:-1 41:-1 42:0.625 43:1 44:1 45:1 46:1 48:-1 49:-1 50:-0.375 51:0.875 52:1 53:1 54:1 55:1 56:-1 57:-1 58:-1 59:-0.75 60:1 61:1 62:1 63:0.125 
0.6893699611806836 0:-0.625 1:0.75 2:1 3:1 4:1 5:1 6:1 7:-0.125 8:0.75 9:1 10:1 11:1 12:1 13:1 14:1 15:0.75 16:1 17:1 18:1 19:0.875 20:0.625 21:1 22:1 23:0.875 24:1 25:0.375 26:1 27:-0.375 28:-1 29:0.625 31:0.5 32:-0.25 33:-1 34:1 35:-0.375 36:-0.875 37:0.75 38:0.125 39:0.5 40:-1 41:-1 42:1 43:0.75 44:0.625 45:1 46:1 47:0.875 48:-1 49:-1 50:0.625 51:1 52:1 53:1 54:1 55:0.875 56:-1 57:-1 58:-0.375 59:0.875 60:1 61:1 62:0.875 63:0.125 
1 0:0.25 1:0.75 2:0.5 3:1 4:1 5:1 6:1 7:-1 8:1 9:1 10:1 11:1 12:1 13:1 14:0.125 15:-0.5 16:1 17:1 18:1 19:0.75 20:0.625 21:1 22:0.25 23:0.5 24:1 25:-0.375 26:1 28:-1 29:0.875 30:1 31:1 32:-0.625 33:-1 34:0.75 35:0.125 36:-1 37:0.5 38:1 39:1 40:-1 41:-1 42:0.5 43:0.625 44:-1 45:0.5 46:1 47:0.75 48:-1 49:-1 50:0.375 51:1 52:0.75 53:1 54:1 55:0.5 56:-1 57:-1 58:-0.25 59:1 60:0.625 61:1 62:1 63:-0.375 
1 0:1 1:1 2:-1 3:-1 4:-1 5:-1 6:1 7:1 8:1 9:1 11:-1 12:-1 13:-1 14:1 15:1 16:0.5 17:1 18:1 20:-0.5 22:1 23:1 25:1 26:1 27:1 28:1 29:1 30:1 31:0.5 32:1 33:1 34:1 35:1 36:1 37:1 38:1 40:1 41:1 42:1 43:1 44:1 45:1 46:1 47:0.5 48:1 49:1 50:1 51:1 52:1 53:1 54:1 55:-0.5 56:-0.5 57:0.5 58:1 59:1 60:1 61:0.5 62:-0.75 63:-1 
1 0:1 1:1 2:1 3:1 4:1 5:1 6:1 7:-1 8:1 9:0.5 10:1 12:-0.75 13:0.875 14:1 15:-0.25 16:0.125 17:-1 18:0.875 19:-0.125 20:-1 21:0.5 22:1 23:0.75 24:-1 25:-1 26:0.5 27:0.5 28:-1 29:0.625 30:1 31:1 32:-1 33:-1 34:0.375 35:1 36:1 37:1 38:0.875 39:1 40:-1 41:-1 42:-0.5 43:0.875 44:1 45:1 46:0.75 47:0.625 48:-1 49:-1 50:-1 51:-0.5 52:1 53:1 54:1 56:-1 57:-1 58:-1 59:-1 60:-0.25 61:0.875 62:0.5 63:-1 
1 0:1 1:1 2:1 3:1 4:1 6:1 7:1 8:1 9:1 10:0.625 11:1 12:-0.25 13:-1 15:1 16:1 17:-0.125 18:-1 19:1 21:-1 22:-0.5 23:1 25:-1 26:-1 27:0.75 28:1 29:-0.375 30:0.125 31:1 32:-1 33:-1 34:-1 35:0.5 36:1 37:1 38:1 39:1 40:-1 41:-1 42:-1 43:0.5 44:1 45:1 46:1 47:0.75 48:-1 49:-1 50:-1 51:0.875 52:1 53:1 54:1 55:0.125 56:-1 57:-1 58:-1 59:-0.5 60:0.875 61:1 62:0.25 63:-0.875 
0.3299409907815188 0:1 1:1 2:-0.5 3:-1 4:-1 6:1 7:1 8:1 9:1 11:-1 12:-1 13:-1 14:1 15:1 16:0.75 17:1 18:1 19:-0.25 20:-1 21:-0.75 22:1 23:1 25:1 26:1 27:1 28:1 29:0.75 30:1 31:1 32:-0.25 33:1 34:1 35:1 36:1 37:1 38:1 39:1 40:-0.25 41:0.5 42:1 43:1 44:1 45:1 46:1 47:-0.75 48:1 49:1 50:1 51:1 52:1 53:1 54:1 55:-1 56:-0.5 57:0.75 58:1 59:1 60:1 61:0.5 62:-0.75 63:-1 
1 0:1 1:1 2:1 3:0.5 4:0.75 5:1 6:1 7:-1 8:1 9:0.5 10:1 11:-0.125 12:-1 13:0.75 14:1 15:-0.25 16:0.25 17:-1 18:1 20:-1 21:0.5 22:1 23:0.75 24:-1 25:-1 26:0.5 27:0.75 28:-0.625 29:0.75 30:1 31:1 32:-1 33:-1 34:0.375 35:1 36:1 37:1 38:0.5 39:1 40:-1 41:-1 42:-0.625 43:0.875 44:1 45:1 46:0.5 47:0.625 48:-1 49:-1 50:-1 51:-0.5 52:1 53:1 54:1 56:-1 57:-1 58:-1 59:-1 60:-0.25 61:1 62:0.5 63:-0.875 
1 0:0.25 1:0.75 2:0.5 3:1 4:1 5:1 6:1 7:-1 8:1 9:1 10:1 11:1 12:1 13:1 14:0.125 15:-0.5 16:1 17:1 18:1 19:0.75 20:0.625 21:1 22:0.25 23:0.5 24:1 25:-0.375 26:1 28:-1 29:0.875 30:1 31:1 32:-0.625 33:-1 34:0.75 35:0.125 36:-1 37:0.5 38:1 39:1 40:-1 41:-1 42:0.5 43:0.625 44:-1 45:0.5 46:1 47:0.75 48:-1 49:-1 50:0.375 51:1 52:0.75 53:1 54:1 55:0.5 56:-1 57:-1 58:-0.25 59:1 60:0.625 61:1 62:1 63:-0.375 
0.9940081768350377 0:1 1:1 2:1 3:1 4:1 5:1 6:1 7:1 8:1 9:1 10:0.75 11:1 12:-0.5 13:-0.875 14:0.75 15:1 16:0.875 17:-0.5 18:-0.75 19:1 20:-0.5 21:-1 23:1 24:-0.125 25:-1 26:-1 27:1 28:0.5 29:-0.875 30:0.375 31:1 32:-1 33:-1 34:-1 35:0.5 36:1 37:1 38:1 39:0.875 40:-1 41:-1 42:-1 44:1 45:1 46:1 47:0.5 48:-1 49:-1 50:-1 51:-0.125 52:1 53:1 54:1 55:0.5 56:-1 57:-1 58:-1 59:-0.875 60:0.375 61:1 62:0.75 63:-0.625 
1 0:1 1:1 2:-0.5 3:-1 4:-1 6:1 7:1 8:1 9:1 11:-1 12:-1 13:-1 14:1 15:1 16:0.75 17:1 18:1 19:-0.25 20:-1 21:-0.75 22:1 23:1 25:1 26:1 27:1 28:1 29:0.75 30:1 31:1 32:-0.25 33:1 34:1 35:1 36:1 37:1 38:1 39:1 40:-0.25 41:0.5 42:1 43:1 44:1 45:1 46:1 47:-0.75 48:1 49:1 50:1 51:1 52:1 53:1 54:1 55:-1 56:-0.5 57:0.75 58:1 59:1 60:1 61:0.5 62:-0.75 63:-1 
1 0:1 1:1 2:1 3:1 4:1 5:1 6:-0.375 7:-1 8:1 9:0.625 10:1 11:0.375 12:-0.125 13:1 14:0.5 15:-0.375 16:0.75 17:-1 18:1 20:-1 21:0.75 22:1 23:0.625 24:-1 25:-1 26:0.625 27:0.25 28:-1 29:0.5 30:1 31:1 32:-1 33:-1 34:0.5 35:0.75 36:-0.5 37:0.75 38:1 39:1 40:-1 41:-1 42:0.125 43:1 44:1 45:1 46:1 47:0.75 48:-1 49:-1 50:-0.75 51:0.875 52:1 53:1 54:0.875 55:0.375 56:-1 57:-1 58:-1 59:-0.625 60:0.75 61:0.625 62:0.875 63:-0.5 
0.8562669318820458 0:-0.75 1:0.5 2:1 3:1 4:1 5:0.375 6:-1 7:-1 8:1 9:1 10:1 11:1 12:1 13:1 14:-0.375 15:0.125 16:1 17:1 18:1 19:1 21:1 22:0.875 23:0.75 24:0.875 25:-0.25 26:0.75 27:0.25 28:-1 29:0.375 30:1 31:1 32:-0.5 33:-1 34:0.5 35:0.5 36:-1 38:1 39:1 40:-1 41:-1 42:0.5 43:1 44:-0.5 45:0.5 46:1 47:1 48:-1 49:-1 50:0.125 51:1 52:1 53:1 54:1 55:0.75 56:-1 57:-1 58:-0.875 59:0.75 60:1 61:1 62:1 63:-0.125 
0.2552188324526604 0:-0.625 1:1 2:1 3:1 4:0.375 5:1 6:-0.75 7:-1 8:1 9:1 10:1 11:1 12:1 13:1 14:0.75 15:0.125 16:1 17:1 18:1 19:1 20:0.125 21:1 22:1 23:0.75 24:1 25:0.625 26:0.25 27:1 28:-1 29:0.25 30:1 31:0.875 32:0.875 33:-1 35:1 36:-1 38:1 39:1 40:-0.5 41:-1 43:1 44:1 45:1 46:1 47:1 48:-1 49:-1 50:-0.75 51:0.875 52:1 53:1 54:1 55:0.875 56:-1 57:-1 58:-1 59:-0.5 60:0.5 61:0.5 62:1 63:0.375 
1 0:-1 1:-1 2:-0.625 3:-0.5 4:-0.5 5:-0.875 6:1 7:0.25 8:-1 9:0.375 10:1 11:1 12:1 13:1 14:1 15:0.75 16:0.5 17:1 18:1 19:1 20:1 21:1 22:0.875 23:1 24:1 25:1 26:0.875 27:0.75 28:-0.75 29:0.75 30:0.5 31:1 32:1 33:0.125 35:0.625 36:-1 38:1 39:1 40:1 41:-1 43:1 44:-0.5 45:0.375 46:1 47:0.75 48:0.125 49:-1 50:-0.125 51:1 52:1 53:1 54:0.75 56:-1 57:-1 58:-0.75 59:0.75 60:1 61:1 62:-0.125 63:-1 
1 0:0.75 1:0.5 2:1 3:1 4:1 5:1 6:1 7:0.5 8:1 9:1 10:1 11:1 12:1 13:0.25 14:0.75 15:0.5 16:0.5 17:1 18:1 19:0.75 20:1 21:-0.75 22:-0.25 23:1 25:1 26:0.75 27:-0.5 28:1 29:-0.75 30:-0.5 31:1 32:1 33:1 34:-0.375 35:-0.5 36:1 37:-0.25 39:0.625 40:0.125 41:1 42:-0.875 43:-0.5 44:1 45:0.875 46:0.875 47:1 48:-0.875 49:-0.5 50:-1 51:-0.5 52:1 53:1 54:1 55:1 56:-1 57:-1 58:-1 59:-0.875 60:0.625 61:1 62:1 63:1 
1 0:-1 1:-1 2:-1 3:-0.75 4:1 5:1 6:1 7:-0.5 8:-1 9:-1 10:-1 11:0.5 12:1 13:0.875 15:-1 16:-1 17:0.375 18:0.75 19:1 20:1 21:1 22:-0.25 23:-0.25 24:0.625 25:1 26:1 27:1 28:0.75 29:1 30:0.75 32:1 33:0.75 34:-0.25 35:1 36:-0.25 37:0.625 38:1 39:0.5 40:1 41:-0.875 42:-0.5 43:1 44:-1 45:-0.375 46:1 47:1 48:-0.375 49:-1 50:-0.5 51:1 52:-0.25 53:-0.25 54:1 55:1 56:-1 57:-1 58:-0.625 59:1 60:0.75 61:0.75 62:1 63:-0.25 
1 0:-1 1:-1 2:-1 3:-0.625 4:1 5:1 6:1 7:-0.5 8:-1 9:-1 10:-0.875 11:0.875 12:1 13:1 14:-0.125 15:-1 16:-1 17:0.375 18:1 19:1 20:1 21:1 22:0.375 23:-0.25 24:0.375 25:1 26:1 27:1 28:0.25 29:0.75 30:0.75 31:0.25 32:1 33:0.625 34:-0.5 35:1 36:-1 37:-0.125 38:1 39:1 40:1 41:-0.875 42:-0.5 43:1 44:-1 45:-0.5 46:1 47:1 48:-0.375 49:-1 50:-0.5 51:1 53:-0.25 54:1 55:1 56:-1 57:-1 58:-0.875 59:1 60:1 61:1 62:1 63:-0.375 
0.2210392277046829 0:-0.875 1:1 2:1 3:1 4:1 6:-1 7:0.5 8:-0.25 9:1 10:1 11:0.375 12:1 14:-1 15:0.5 17:1 18:0.75 19:-0.75 20:1 21:0.375 22:-0.875 23:0.75 24:0.5 25:1 26:-0.5 27:-0.75 28:1 29:1 30:1 31:1 32:1 33:-1 34:-1 36:1 37:-1 38:-0.5 39:1 40:1 41:-0.75 42:-1 44:1 45:-0.125 46:0.375 47:1 48:0.25 49:-0.75 50:-1 51:-0.25 52:1 53:1 54:1 55:0.75 56:-1 57:-1 58:-1 59:-0.5 60:1 61:1 62:1 63:0.125 
1 0:1 1:1 2:-1 3:-1 4:0.5 5:1 6:1 7:-1 8:1 9:1 10:-0.75 11:-1 12:0.5 13:1 14:1 16:1 17:1 18:0.25 19:-0.5 20:0.875 21:1 22:1 23:0.75 24:0.75 25:1 26:1 27:1 28:1 29:0.875 30:0.875 31:1 32:-1 33:-0.75 34:1 35:0.5 36:-1 37:-1 38:0.5 39:1 40:-1 41:-1 42:1 43:1 44:-0.125 45:-0.125 46:0.875 47:1 48:-1 49:-1 50:0.5 51:1 52:1 53:1 54:1 55:0.75 56:-1 57:-1 59:1 60:1 61:1 62:1 63:-0.25 
0.8568619531356022 0:-0.5 1:1 2:0.5 3:1 5:-1 6:1 7:-0.5 8:0.5 9:1 10:-0.125 11:1 13:-1 14:1 15:-0.25 16:1 17:0.75 18:-1 19:0.5 20:0.75 21:0.25 22:1 23:0.125 24:1 25:-0.25 26:-1 27:0.375 28:1 29:1 30:1 31:0.75 32:-1 33:-1 34:-1 35:-0.5 36:1 37:-0.5 38:-0.5 39:1 40:-1 41:-1 42:-1 43:-0.5 44:1 45:0.125 46:0.375 47:1 48:-1 49:-1 50:-1 51:-0.75 52:1 53:1 54:1 55:0.75 56:-1 57:-1 58:-1 59:-1 60:1 61:1 62:1 63:0.125 
0.5211029226171063 0:-0.875 1:1 2:1 3:1 4:1 5:0.5 6:-0.5 7:1 8:-0.375 9:1 10:1 11:0.375 12:1 13:0.125 14:-0.875 15:0.75 16:-0.25 17:1 18:0.625 19:-0.5 20:1 22:-1 23:0.5 25:1 26:-0.75 27:-0.875 28:1 29:0.625 30:-0.625 31:0.625 32:1 33:1 34:-1 35:-1 36:1 37:1 38:1 39:1 40:1 41:0.625 42:-1 43:-0.5 44:1 45:0.25 46:1 47:0.875 49:-0.625 50:-1 51:-0.25 52:1 53:0.5 54:1 55:0.75 56:-1 57:-1 58:-1 59:-0.75 60:1 61:1 62:1 63:0.125 
1 0:0.25 1:1 2:1 3:1 4:1 5:1 6:-0.375 7:-1 8:1 9:0.875 10:0.625 11:0.875 12:-0.25 13:0.875 14:0.625 16:0.875 17:-0.625 19:0.5 20:-1 22:1 23:1 24:-0.625 25:-1 27:0.625 28:-1 29:-0.5 30:1 31:0.75 32:-1 33:-1 34:-0.5 35:1 36:-0.75 37:0.125 38:1 39:1 40:-1 41:-1 42:-0.75 43:1 44:1 45:0.875 46:1 47:1 48:-1 49:-1 50:-1 52:1 53:1 54:1 55:0.625 56:-1 57:-1 58:-1 59:-1 60:-0.375 61:0.625 62:1 63:-0.625 
1 0:1 1:0.5 2:-1 3:-1 4:0.5 5:1 6:0.5 7:-1 8:1 9:0.75 10:-1 11:-1 12:-0.25 13:1 14:1 16:1 17:1 18:-0.25 19:-1 20:0.625 21:1 22:1 23:1 25:1 26:1 27:0.625 28:1 29:1 30:1 31:1 32:-1 33:0.5 34:1 35:1 36:1 37:0.375 38:0.5 39:1 40:-1 41:-1 42:1 43:1 44:1 45:0.125 46:1 47:1 48:-1 49:-1 50:0.25 51:1 52:1 53:1 54:1 55:0.625 56:-1 57:-1 58:-0.875 59:0.125 60:1 61:1 62:0.5 63:-0.875 
1 0:1 1:1 2:-0.5 3:-1 4:-1 5:1 6:1 7:1 8:1 9:0.5 10:-1 11:-1 12:-1 13:-0.5 14:1 15:1 16:1 17:0.75 18:-0.75 19:-1 20:-1 21:-1 22:1 23:1 24:1 25:1 26:0.75 27:-0.375 28:-0.75 30:1 31:1 32:0.25 33:1 34:1 35:1 36:1 37:1 38:1 39:1 40:-0.875 41:0.375 42:1 43:1 44:1 45:1 46:1 47:0.5 48:-0.625 49:0.875 50:1 51:1 52:1 53:1 54:1 55:1 56:-1 57:-0.5 58:0.5 59:1 60:1 61:1 62:0.5 63:-0.5 
1 0:1 1:0.5 2:-1 3:-1 4:0.5 5:1 6:0.5 7:-1 8:1 9:0.75 10:-1 11:-1 12:-0.25 13:1 14:1 16:1 17:1 18:-0.25 19:-1 20:0.625 21:1 22:1 23:1 25:1 26:1 27:0.625 28:1 29:1 30:1 31:1 32:-1 33:0.5 34:1 35:1 36:1 37:0.375 38:0.5 39:1 40:-1 41:-1 42:1 43:1 44:1 45:0.125 46:1 47:1 48:-1 49:-1 50:0.25 51:1 52:1 53:1 54:1 55:0.625 56:-1 57:-1 58:-0.875 59:0.125 60:1 61:1 62:0.5 63:-0.875 
1 0:1 1:1 2:0.375 5:-1 6:-0.5 7:1 8:1 9:0.5 10:-0.75 13:-1 14:-0.75 15:1 16:0.875 17:-0.75 18:-1 19:-0.125 20:0.25 21:-1 22:-1 23:1 24:-0.625 25:-1 26:-1 27:-0.5 28:1 29:0.125 30:-0.25 31:1 32:-1 33:-1 34:-1 35:-1 36:1 37:1 38:1 39:1 40:-1 41:-1 42:-1 43:-1 44:0.5 45:0.875 46:1 47:0.75 48:-1 49:-1 50:-1 51:-1 52:0.875 53:1 54:1 55:1 56:-1 57:-1 58:-1 59:-1 60:-0.25 61:0.875 62:1 
1 1:1 2:1 3:1 4:1 5:1 6:0.75 7:-1 8:1 9:1 10:0.5 11:1 12:0.5 13:0.25 14:1 15:-0.375 16:1 17:0.375 18:-0.875 19:1 20:-1 21:-1 22:1 23:0.875 24:0.875 25:-0.75 26:-1 27:1 28:-1 29:-1 30:0.5 31:0.25 32:-0.625 33:-1 34:-1 35:0.625 36:0.5 37:-0.875 38:0.875 39:0.375 40:-1 41:-1 42:-1 43:0.375 44:1 45:0.875 46:1 47:1 48:-1 49:-1 50:-1 51:-0.625 52:1 53:1 54:1 55:0.75 56:-1 57:-1 58:-1 59:-1 60:-0.25 61:0.875 62:1 63:-0.375 
0.5594503366572804 0:1 1:-0.5 2:-1 3:-1 4:-1 5:-1 6:-1 7:-1 8:1 9:-0.25 10:-1 11:-1 12:-1 13:-1 14:-1 15:-1 16:1 17:-0.25 18:-1 19:-0.75 21:0.25 22:0.25 23:1 24:1 25:0.125 26:0.125 27:1 28:1 29:1 30:1 31:1 32:1 33:1 34:1 35:1 36:0.375 37:-0.5 38:-0.875 39:-0.75 40:1 41:1 42:0.125 44:0.375 45:0.875 46:1 47:1 48:0.25 50:-1 51:0.25 52:1 54:-0.375 55:1 56:-1 57:-1 58:-1 59:0.125 60:0.75 61:-1 62:-0.5 63:0.5 
0.4320709973012744 0:0.5 1:-1 2:-0.25 3:1 4:1 5:1 6:1 7:1 8:0.5 9:-0.5 10:0.875 11:1 12:1 13:1 14:0.5 15:0.875 16:0.5 17:0.5 18:1 19:1 20:1 22:-1 23:0.5 24:1 25:1 26:1 27:1 28:0.5 29:0.25 30:0.75 31:0.5 32:1 33:1 34:1 35:0.25 36:1 37:1 38:1 39:0.125 40:1 41:1 42:0.375 43:-0.5 44:1 45:0.75 46:1 47:-1 48:1 49:1 50:-0.75 51:0.5 52:0.5 53:0.25 54:1 55:-1 56:1 57:0.25 58:-1 59:-0.25 61:-0.25 62:1 63:-1 
0.9913998200447552 0:1 1:-0.875 2:-1 3:1 4:1 5:1 6:1 7:1 8:1 9:-0.5 10:0.5 11:1 12:1 13:1 14:1 15:0.75 16:1 17:0.375 18:1 19:1 20:1 21:0.625 22:-0.25 23:-0.375 24:1 25:1 26:1 27:1 28:1 29:-0.375 30:0.75 31:0.625 32:1 33:1 34:1 35:0.75 36:0.5 37:1 38:1 39:0.5 40:1 41:1 42:0.5 43:-0.5 44:0.5 45:1 46:1 48:1 49:1 50:-0.75 51:-0.5 52:0.75 53:-0.5 54:0.5 56:1 58:-1 59:-1 60:-0.75 61:-0.75 62:-0.25 
0.6038326605209207 0:0.5 2:1 3:0.25 4:-0.25 5:-0.5 6:-0.5 7:-0.625 8:0.5 9:-0.5 10:0.875 11:1 12:1 13:1 14:1 15:0.5 16:0.5 17:-1 18:-0.75 19:-0.5 20:-0.25 21:-0.25 22:-0.25 23:0.5 24:0.5 25:-1 26:-0.375 27:0.625 28:1 29:1 30:1 31:1 32:0.75 33:0.875 34:1 35:1 36:1 37:1 38:1 39:1 40:1 41:1 42:1 43:0.75 44:-0.25 45:-0.375 46:0.375 47:0.375 48:1 49:0.125 50:0.25 51:0.875 52:1 53:1 54:1 55:1 56:-0.5 57:-1 58:0.5 59:1 60:0.75 61:0.75 62:0.625 63:0.75 
1 0:-0.75 1:-1 2:-0.875 3:1 4:-0.25 5:-1 6:-1 7:-1 8:0.5 9:-0.375 10:0.625 11:0.625 12:-0.125 13:0.25 14:-1 15:-1 16:0.5 17:-0.5 18:1 19:1 20:1 21:1 22:0.25 23:-1 24:0.25 25:-1 26:-1 27:-0.5 28:-0.125 29:-0.5 30:0.125 31:0.25 33:-0.5 34:0.5 35:1 36:1 37:1 38:1 39:1 40:1 41:1 42:1 43:1 44:1 45:0.5 46:0.5 48:0.875 49:0.25 50:0.25 51:0.125 52:-0.125 53:0.625 54:0.625 55:0.625 56:-1 57:-1 59:0.5 60:0.375 61:1 62:1 63:1 
1 0:1 1:-0.25 2:1 3:0.375 5:0.5 6:0.5 7:-0.5 8:1 9:-0.5 10:1 11:1 12:1 13:1 14:1 15:0.375 16:1 17:-1 19:0.25 21:-0.25 22:-0.25 23:0.25 24:1 25:-1 26:-1 27:-0.125 28:0.5 29:0.5 30:1 31:1 32:1 33:-0.75 34:0.625 35:1 36:1 37:1 38:1 39:1 40:1 41:0.875 42:1 43:1 44:1 45:0.625 46:-0.25 47:-0.125 48:1 49:1 50:0.875 51:0.75 52:0.125 54:1 55:1 56:0.75 57:0.375 58:-1 59:0.75 60:0.5 61:0.875 62:0.5 63:1 
1 0:0.5 1:0.5 2:1 3:0.5 4:0.25 5:1 6:1 7:-0.5 8:0.5 9:-0.5 10:1 11:1 12:0.875 13:-0.25 14:-0.25 15:-0.5 16:0.5 17:-1 18:-1 19:-0.75 20:0.5 21:0.75 22:1 23:1 24:0.5 25:-0.375 27:0.75 28:1 29:1 30:1 31:1 32:0.75 33:1 34:1 35:1 36:0.75 37:0.375 39:-0.375 40:1 41:1 42:0.75 43:0.375 44:0.5 45:0.625 46:1 47:1 48:1 49:-0.375 50:-0.375 51:1 52:1 53:1 54:1 55:1 56:-1 57:-1 58:-0.75 59:0.75 60:0.875 61:0.5 62:0.5 63:1 
1 0:1 2:1 3:0.125 4:-0.75 5:-0.5 6:-0.5 7:-0.875 8:1 9:-0.75 10:0.75 11:0.875 12:0.875 13:1 14:1 15:1 16:0.5 17:-1 18:-0.5 19:-0.125 20:0.5 21:0.25 23:0.25 24:0.5 25:-0.625 26:-0.375 27:0.25 28:1 29:1 30:1 31:1 32:0.875 33:1 34:1 35:1 36:1 37:1 38:1 39:1 40:1 41:1 42:0.75 43:0.875 44:0.25 45:0.125 46:0.875 47:0.75 48:0.25 49:-0.875 50:0.375 51:1 52:1 53:1 54:1 55:1 56:-1 57:-0.5 58:0.875 59:0.75 61:0.375 62:0.625 63:1 
0.9763575595901095 0:-1 1:-1 2:-0.5 3:1 4:-1 5:-1 6:-1 7:-1 9:-0.75 10:-0.25 11:0.75 12:-0.75 13:-0.375 14:-1 15:-1 17:0.375 18:0.875 19:0.875 20:0.125 21:1 22:0.25 23:-1 25:-0.875 26:0.5 27:0.5 28:0.25 29:-0.5 30:-0.75 31:-0.875 33:-1 34:-1 35:-0.5 36:0.5 37:0.625 38:1 39:1 41:-0.125 42:0.875 43:1 44:1 45:1 46:1 47:1 48:0.75 49:1 50:1 51:1 52:0.375 53:-0.25 54:-0.5 55:-0.5 56:1 57:0.875 58:0.375 59:-0.5 60:-1 61:-1 62:-1 63:-1 
0.1474038696626232 0:0.5 1:-1 2:-1 3:-0.875 4:-0.5 5:-0.5 6:0.625 7:1 8:0.5 9:-1 10:-0.75 11:0.625 12:1 13:1 14:1 15:1 16:0.5 17:-0.5 18:0.5 19:1 20:1 21:1 22:1 23:1 24:0.75 25:0.75 26:1 27:1 28:1 29:1 30:1 31:1 32:1 33:1 34:1 35:1 36:1 37:0.75 38:-0.625 39:-0.625 40:1 41:1 42:1 43:0.875 45:-0.25 46:0.875 47:0.875 48:1 49:1 50:0.5 51:0.75 52:0.5 53:1 54:1 55:0.5 56:1 57:0.25 58:-0.5 59:1 61:-0.25 62:-1 63:-1 
1 0:0.5 2:1 3:-0.25 4:-0.25 5:0.625 6:-1 7:-1 8:0.5 9:-0.75 10:0.875 11:1 12:1 13:1 14:0.25 15:-1 16:0.5 17:-1 18:-1 19:-0.75 20:-0.5 21:-0.75 22:-0.625 23:-0.125 25:-0.875 27:0.625 28:1 29:0.875 30:1 31:1 32:0.75 33:1 34:1 35:1 36:1 37:1 38:1 39:0.75 40:1 41:1 42:1 43:0.25 45:-0.25 46:0.25 47:-0.375 48:0.375 49:-0.5 51:0.5 52:0.375 53:0.875 54:0.875 55:0.875 56:-1 57:-1 59:0.5 60:0.375 61:1 62:1 63:1 
1 0:0.5 1:-1 2:-1 3:-0.875 4:-0.25 5:0.25 6:1 7:1 8:0.5 9:-1 10:-1 11:-0.125 12:1 13:1 14:1 15:1 16:0.5 17:-0.375 18:0.625 19:1 20:1 21:1 22:0.5 23:0.5 24:1 25:1 26:1 27:1 28:0.375 29:-0.375 30:1 31:0.625 32:1 33:1 34:0.375 35:-0.5 37:1 38:1 39:1 40:1 41:0.125 42:-1 43:-1 44:-0.625 45:1 46:1 47:1 48:-0.5 49:-1 50:-1 51:-1 52:-1 53:0.875 54:0.875 55:1 56:-1 57:-1 58:-1 59:-1 60:-0.625 61:0.5 62:0.625 63:1 
1 0:0.375 1:-1 2:-1 3:-1 4:-1 5:-1 7:1 9:-1 10:-1 11:-0.875 12:-0.625 14:0.5 15:1 17:-1 18:-0.75 19:0.375 20:0.875 21:1 22:1 23:1 25:-0.375 26:0.75 27:1 28:1 29:1 30:1 31:1 32:0.25 33:0.75 34:1 35:1 36:1 37:1 38:1 39:1 40:1 41:1 42:1 43:1 44:1 45:1 46:1 47:1 48:1 49:1 50:1 51:0.5 52:-0.5 54:1 55:1 56:1 57:0.25 58:-1 59:-1 60:-1 61:-1 62:0.25 63:0.5 
0.857090958644631 0:0.375 1:-1 2:-1 3:-1 4:-1 5:-1 6:-0.75 7:1 9:-1 10:-1 11:-1 12:-0.75 14:0.5 15:0.625 17:-1 18:-0.75 19:0.5 20:0.75 21:1 22:1 23:0.875 25:-0.375 26:0.75 27:1 28:1 29:1 30:1 31:1 32:0.25 33:0.75 34:1 35:1 36:1 37:1 38:1 39:1 40:1 41:1 42:1 43:1 44:1 45:1 46:1 47:1 48:1 49:1 50:0.25 51:-0.5 52:-1 53:0.5 54:0.75 55:0.5 56:1 57:0.25 58:-1 59:-1 60:-1 61:-0.5 62:1 63:0.75 
0.3809395609060168 0:-0.875 1:1 2:-0.875 3:-1 4:-1 5:-1 6:-1 7:-1 8:0.5 9:1 10:-0.75 11:-1 12:-1 13:-1 14:-1 15:-1 16:1 17:1 18:-1 19:-1 20:-1 21:-1 22:-1 23:-1 24:1 25:1 26:-1 27:-0.75 28:-0.25 29:0.5 31:-0.25 32:1 33:1 34:1 35:1 36:1 37:1 38:1 39:1 40:-0.25 41:1 42:1 43:0.875 44:0.25 47:0.5 48:-0.375 49:1 51:-0.875 52:-1 53:-1 54:-1 55:-1 57:0.625 58:-1 59:-1 60:-1 61:-1 62:-1 63:-1 
1 0:0.5 1:-0.875 2:0.125 3:1 4:1 5:1 6:-0.75 7:-1 8:0.5 9:0.25 10:1 11:1 12:1 13:1 14:0.25 15:-0.875 16:1 17:1 18:1 19:1 20:1 21:1 22:1 23:-0.5 24:1 25:1 26:0.75 27:0.125 29:-0.5 30:-0.375 31:-0.625 32:1 33:1 34:0.75 37:-0.125 38:-0.125 39:0.75 40:1 41:1 42:1 43:1 44:1 45:1 46:0.875 47:0.875 48:1 49:1 50:0.875 51:-0.5 52:-1 53:-1 54:-1 55:-0.125 56:0.75 57:0.875 58:-0.5 59:-1 60:-1 61:-1 62:-1 63:-1 
0.7946572112971742 0:1 1:-0.125 2:-1 3:-1 4:-1 5:-1 6:-1 7:-1 8:1 9:-0.875 10:-1 11:-1 12:-1 13:-1 14:-1 15:-1 16:1 17:-0.5 18:-1 19:-1 20:-1 21:-1 22:-1 23:-1 24:1 25:-0.625 26:-1 27:-1 28:-1 29:-1 30:-1 31:0.25 32:1 33:-1 34:-1 35:-1 36:-1 37:-1 38:-1 39:1 40:1 41:0.5 42:1 43:1 44:1 45:1 46:1 47:1 48:1 49:1 50:1 51:1 52:1 53:1 54:1 55:0.375 56:1 57:1 58:1 59:1 60:1 61:1 62:1 63:-1 
0.58060977920697 0:1 2:-1 3:-1 4:-1 5:-1 6:-1 7:-1 8:1 9:0.75 10:-1 11:-1 12:-1 13:-1 14:-1 15:-1 16:1 17:1 18:-1 19:-1 20:-1 21:-1 22:-1 23:-1 24:1 25:0.875 26:-1 27:-1 28:-1 29:-1 30:-1 31:-1 32:1 33:0.75 34:-0.625 40:1 41:1 42:0.875 43:1 44:1 45:1 46:1 47:1 48:1 49:1 50:1 51:1 52:1 53:1 54:1 55:1 56:1 57:0.75 60:-0.375 61:-0.625 62:-0.25 63:-0.25 
1 0:1 1:0.125 2:-1 3:-1 4:-1 5:-1 6:-1 7:-1 8:1 9:0.875 10:-1 11:-1 12:-1 13:-1 14:-1 15:-1 16:1 17:1 18:-1 19:-1 20:-1 21:-1 22:-1 23:-1 24:1 25:0.875 26:-1 27:-1 28:-1 29:-1 30:-1 31:-1 32:1 33:0.625 34:-1 35:-0.5 36:-0.5 37:-0.5 38:-0.5 39:-0.5 40:1 41:1 42:0.875 43:1 44:1 45:1 46:1 47:1 48:1 49:1 50:1 51:1 52:1 53:1 54:1 55:1 56:1 57:0.875 58:0.5 59:0.5 60:0.375 61:0.5 62:0.625 63:0.75 
0.1715287138379539 0:-1 1:-1 2:1 3:1 4:0.75 5:1 6:-1 7:0.75 8:-1 9:-1 10:0.375 11:1 12:0.875 13:0.125 14:0.875 15:1 16:-1 17:-1 18:0.5 19:1 20:1 21:-0.25 22:1 23:1 24:-1 25:-1 26:0.125 27:0.5 28:-0.75 29:-1 30:1 31:0.75 32:-1 33:-1 34:-1 35:-1 36:0.25 37:1 38:1 39:1 40:-1 41:0.375 42:1 43:1 44:1 45:1 46:1 47:1 48:1 49:1 50:1 51:1 52:1 53:1 54:0.75 56:1 57:1 58:0.75 59:-0.5 60:0.25 61:-0.5 62:-0.875 63:-1 
1 0:-1 1:-1 2:-1 3:-0.5 5:-0.5 6:0.875 7:-0.625 8:-1 9:-1 10:-0.25 11:1 12:1 13:0.875 14:-0.875 15:0.875 16:-1 17:-1 18:0.75 19:1 20:1 21:0.125 22:0.625 23:1 24:-1 25:-1 26:0.5 27:1 28:0.5 30:1 31:0.75 32:-1 33:-1 35:0.25 36:-0.5 37:-0.5 38:1 39:1 40:-1 41:-0.75 42:0.25 43:1 44:1 45:1 46:1 47:1 48:0.25 49:0.875 50:1 51:1 52:1 53:1 54:0.625 55:-1 56:1 57:0.875 58:0.375 59:-0.375 60:-0.125 61:-0.875 62:-1 63:-1 
1 0:-1 1:-1 2:-1 3:-0.625 4:1 5:1 6:0.625 7:-1 8:-1 9:-1 10:0.125 11:0.875 12:1 13:1 14:1 15:-0.625 16:-0.5 17:-0.5 18:1 19:1 20:1 21:1 22:1 23:-0.5 24:0.5 25:0.75 26:1 27:1 28:1 29:1 30:1 31:0.125 32:1 33:1 34:1 35:1 36:1 37:1 38:1 39:1 40:1 41:1 42:1 43:0.625 44:0.5 45:-0.625 46:-0.5 47:1 48:1 49:1 50:0.625 51:-0.875 52:-1 53:-1 54:-0.875 55:1 56:1 57:0.5 58:-0.75 59:-1 60:-1 61:-1 62:-1 63:1 
0.5227909475257808 0:-0.5 1:-0.5 2:-1 3:-0.875 4:0.125 5:1 6:1 7:1 8:-0.375 9:-0.5 10:-0.125 11:1 12:1 13:1 14:1 15:1 16:0.75 17:0.75 18:1 19:1 20:1 21:1 22:1 23:1 24:1 25:1 26:1 27:0.75 29:-0.125 30:-0.5 31:-0.625 32:1 33:1 34:1 35:1 36:-0.125 37:-0.375 38:-0.375 39:-0.625 40:1 41:1 42:1 43:1 44:0.75 45:0.5 46:0.5 47:0.125 48:1 49:1 50:0.5 51:-0.5 52:-1 53:-1 54:-1 55:-1 56:1 57:0.125 58:-0.875 59:-1 60:-1 61:-1 62:-1 63:-1 
0.2735037321886151 0:1 2:0.75 3:1 4:1 5:1 6:0.75 7:0.75 8:1 9:1 10:1 11:1 12:1 13:1 14:1 15:1 16:1 17:1 18:1 19:1 20:1 21:1 22:1 23:1 24:1 25:1 26:1 27:0.125 28:-1 31:0.75 32:0.25 33:1 34:1 35:-1 36:-1 37:-1 38:-1 39:-1 40:1 41:1 42:1 43:-1 44:-1 45:-1 46:-1 47:-1 48:1 49:1 50:0.75 51:-1 52:-1 53:-1 54:-1 55:-1 56:1 57:0.625 58:-1 59:-1 60:-1 61:-1 62:-1 63:-1 
1 1:-1 2:-1 3:-0.75 4:-0.5 5:-0.5 6:-0.75 7:1 9:-1 10:-0.25 11:0.5 12:1 13:1 14:0.5 15:1 17:0.125 18:1 19:1 20:1 21:1 22:1 23:1 24:0.25 25:0.75 26:1 27:1 28:1 29:1 30:1 31:1 32:1 33:1 34:1 35:1 36:1 37:1 38:1 40:1 41:1 42:1 43:1 44:1 45:1 46:1 48:1 49:1 50:1 51:1 52:1 53:1 54:1 55:-0.5 56:1 57:1 58:1 59:0.5 62:0.5 63:-0.5 
0.245576980543047 1:0.5 2:-1 3:-1 4:-1 5:-1 6:-1 7:-1 9:0.5 10:-1 11:-1 12:-1 13:-1 14:-1 15:-1 17:0.5 18:-1 19:-1 20:-1 21:-1 22:-1 23:-0.75 25:0.375 26:-1 27:-0.5 29:0.125 30:0.5 31:0.375 32:0.75 33:1 34:0.625 35:1 36:1 37:1 38:1 39:0.25 40:1 41:1 42:1 43:1 44:1 45:1 46:1 47:1 48:1 49:1 50:1 51:1 52:1 53:1 54:1 55:1 56:1 57:1 58:0.875 59:0.5 60:0.25 61:-0.5 63:0.5 
0.2313697215264686 0:1 1:-0.5 2:-1 3:-1 4:-1 5:-1 6:-1 7:-1 8:1 9:0.375 10:-1 11:-1 12:-1 13:-1 14:-1 15:-1 16:1 17:0.875 18:-1 19:-1 20:-1 21:-1 22:-1 23:-1 24:1 25:1 26:-1 27:-1 28:-1 29:-1 30:-1 31:-1 32:1 33:0.5 34:-1 35:-1 36:-0.5 37:-0.5 38:-0.625 39:-1 40:-0.25 41:1 42:-0.375 43:0.75 44:1 45:1 46:1 47:1 48:-0.5 49:1 50:1 51:1 52:1 53:1 54:1 55:1 56:-0.625 57:1 58:1 59:0.5 60:-0.5 61:-0.375 63:-0.5 
0.5280106415171937 2:-1 3:-1 4:-1 5:-1 6:-1 7:-1 10:-1 11:-1 12:-0.25 13:-0.5 14:-1 15:-1 17:0.25 18:-0.625 19:0.375 20:1 21:0.75 22:0.875 23:0.75 24:1 25:1 26:1 27:1 28:1 29:1 30:1 31:1 32:1 33:1 34:1 35:0.75 40:1 41:1 42:1 43:0.75 48:1 49:0.75 50:0.875 51:1 52:1 53:1 54:1 55:1 56:1 57:1 58:0.5 59:-0.75 60:-1 61:-1 62:-1 63:-1 
0.9853266523360783 0:1 2:-1 3:-1 4:-1 5:-1 6:-1 7:-1 8:1 10:-1 11:-1 12:-1 13:-1 14:-1 15:-1 16:1 17:-0.5 18:-1 19:-1 20:-1 21:-1 22:-1 23:-1 24:1 25:-0.875 26:-1 27:-0.25 28:-1 29:-1 30:-1 31:-1 32:1 33:-0.375 34:0.125 35:1 36:1 37:1 38:1 39:-0.5 40:1 41:1 42:1 43:1 44:1 45:1 46:1 47:1 48:1 49:1 50:1 51:1 52:1 53:1 54:1 55:1 56:1 57:1 58:1 59:1 60:1 61:1 62:1 63:1 
0.4724078272732543 0:-1 1:-1 2:-1 3:-1 4:-1 5:-1 6:-0.5 7:1 8:-1 9:-0.625 10:0.25 11:-0.5 12:-0.5 13:0.25 14:0.125 15:1 16:-1 17:0.75 18:1 19:1 20:1 21:1 22:1 23:1 24:0.25 25:1 26:1 27:1 28:1 29:1 30:1 31:1 32:1 33:1 34:1 35:1 36:1 37:1 38:0.875 39:0.5 40:1 41:1 42:1 43:1 44:1 45:1 46:0.5 47:-1 48:1 49:1 50:1 51:1 52:1 53:1 54:0.5 55:-1 56:1 57:0.5 58:-1 59:-1 60:-1 61:-0.25 63:-1 
0.35172008465239 0:1 1:-0.5 2:-1 3:-1 4:-1 5:-1 6:-1 7:-1 8:1 9:-0.5 10:-1 11:-1 12:-1 13:-1 14:-1 15:-1 16:1 17:-0.5 18:-1 19:-1 20:-1 21:-1 22:-1 23:-1 24:1 25:-0.5 26:-1 27:-1 28:-1 29:-1 30:-1 31:-1 32:1 33:-0.5 34:-1 35:-1 36:-1 37:-1 38:-1 39:-1 40:1 41:-0.375 42:0.125 43:0.5 44:0.25 45:0.875 46:0.875 47:0.375 48:1 49:1 50:1 51:1 52:1 53:1 54:1 55:1 56:0.25 57:1 58:0.75 62:0.25 63:0.875 
1 0:-0.25 1:-0.875 2:-0.375 3:-0.75 4:-1 5:0.5 6:0.125 7:0.625 8:0.5 9:0.375 10:1 11:0.5 12:0.25 13:0.875 14:0.75 15:-0.5 16:0.5 17:-0.75 18:0.75 19:0.75 20:0.875 21:0.5 22:0.125 23:-0.625 24:0.5 25:-1 26:-0.75 27:-0.375 28:0.25 29:0.5 30:0.75 31:1 32:0.5 33:0.125 34:1 35:1 36:1 37:1 38:1 39:1 40:1 41:1 42:1 43:0.75 44:0.25 46:0.5 48:1 49:0.5 50:0.25 51:0.5 52:1 53:1 54:1 55:1 56:-0.5 57:-1 58:-0.875 59:0.875 60:0.875 61:0.5 62:0.625 63:1 
0.1431828622934096 0:-0.375 1:1 2:1 3:1 4:1 5:1 6:1 7:1 8:1 9:1 10:1 11:1 12:1 13:1 14:1 15:1 16:1 17:1 18:1 19:1 20:0.5 21:0.75 22:1 23:1 24:1 25:1 26:1 27:0.875 28:-1 29:-1 30:0.5 31:1 32:1 33:1 34:1 35:0.625 36:-1 37:-1 38:0.125 39:1 40:0.625 42:0.625 43:1 44:0.375 45:0.375 46:1 47:1 48:-1 49:-1 50:0.375 51:1 52:1 53:1 54:1 55:1 56:-1 57:-1 58:-0.625 59:0.75 60:1 61:1 62:1 63:1 
1 0:-0.375 1:0.75 2:1 3:1 4:1 5:1 6:1 7:1 8:1 9:1 10:1 11:1 12:1 13:1 14:1 15:1 16:1 17:1 18:1 19:1 20:0.5 21:0.75 22:1 23:1 24:1 25:1 26:1 27:0.875 28:-1 29:-0.75 30:0.625 31:1 32:1 33:1 34:0.875 35:0.75 36:-1 37:-1 38:0.125 39:1 40:0.25 41:-0.125 42:0.875 43:1 44:0.375 45:0.375 46:1 47:1 48:-1 49:-1 50:0.375 51:1 52:1 53:1 54:1 55:1 56:-1 57:-1 58:-0.75 59:0.75 60:1 61:1 62:1 63:1 
0.7688041781100812 0:0.25 1:1 2:1 3:1 4:1 5:1 6:1 7:1 8:1 9:1 10:1 11:1 12:1 13:1 14:1 15:1 16:1 17:1 18:1 19:1 20:1 21:1 22:1 23:1 24:1 25:1 26:1 27:1 29:-0.625 30:0.5 31:1 32:1 33:0.875 34:0.125 35:1 36:1 37:1 38:0.75 39:1 40:1 42:-1 43:0.625 44:1 45:1 46:1 47:1 48:-0.25 49:-0.875 50:-1 51:0.125 52:1 53:1 54:1 55:1 56:-1 57:-1 58:-1 59:-1 60:0.25 61:1 62:1 63:1 
1 0:-0.25 1:0.75 2:1 3:1 4:1 5:1 6:1 7:1 8:1 9:1 10:1 11:1 12:1 13:1 14:1 15:1 16:1 17:1 18:1 19:1 20:-1 21:-0.125 22:1 23:1 24:1 25:1 26:1 27:1 28:-1 29:-1 30:-0.125 31:1 32:1 33:1 34:1 35:1 36:-1 37:-0.75 38:0.75 39:1 40:1 41:0.125 42:0.125 43:1 44:0.25 45:0.25 46:1 47:1 48:-0.5 49:-0.875 50:-0.25 51:1 52:1 53:1 54:1 55:1 56:-1 57:-1 58:-1 59:-0.125 60:1 61:1 62:1 63:1 
0.463174394433481 0:-0.375 1:1 2:1 3:1 4:1 5:1 6:1 7:1 8:0.75 9:1 10:1 11:1 12:1 13:1 14:1 15:1 16:1 17:1 18:1 19:1 20:1 21:0.625 22:1 23:1 24:1 25:1 26:1 27:1 28:-1 29:-0.875 30:0.25 31:1 32:1 33:1 34:1 35:1 36:-0.125 37:-0.5 38:0.75 39:1 40:0.75 41:-0.75 42:1 43:1 44:0.875 45:0.75 46:1 47:1 48:-1 49:-1 50:0.25 51:1 52:1 53:1 54:1 55:1 56:-1 57:-1 58:-1 59:0.375 60:1 61:1 62:1 63:1 
1 0:-0.375 1:0.75 2:1 3:1 4:1 5:1 6:1 7:1 8:1 9:1 10:1 11:1 12:1 13:1 14:1 15:1 16:1 17:1 18:1 19:1 20:0.875 21:0.25 22:1 23:1 24:1 25:1 26:1 27:1 28:-1 29:-1 30:-0.5 31:1 32:1 33:1 34:1 35:1 36:-0.5 37:-0.625 38:0.25 39:1 40:1 41:0.875 42:1 43:1 44:1 45:0.75 46:1 47:1 48:0.25 49:-0.75 50:-0.375 51:1 52:1 53:1 54:1 55:1 56:-1 57:-1 58:-1 59:-0.125 60:1 61:1 62:1 63:0.5 
1 0:-0.375 1:0.75 2:1 3:1 4:1 5:1 6:1 7:1 8:1 9:1 10:1 11:1 12:1 13:1 14:1 15:1 16:1 17:1 18:1 19:1 20:0.875 21:0.25 22:1 23:1 24:1 25:1 26:1 27:1 28:-1 29:-1 30:-0.5 31:1 32:1 33:1 34:1 35:1 36:-0.5 37:-0.625 38:0.25 39:1 40:1 41:0.875 42:1 43:1 44:1 45:0.75 46:1 47:1 48:0.25 49:-0.75 50:-0.375 51:1 52:1 53:1 54:1 55:1 56:-1 57:-1 58:-1 59:-0.125 60:1 61:1 62:1 63:0.5 
1 0:-0.375 1:0.75 2:1 3:1 4:1 5:1 6:1 7:1 8:1 9:1 10:1 11:1 12:1 13:1 14:1 15:1 16:1 17:1 18:1 19:1 20:0.875 21:0.25 22:1 23:1 24:1 25:1 26:1 27:1 28:-1 29:-1 30:-0.5 31:1 32:1 33:1 34:1 35:1 36:-0.5 37:-0.625 38:0.25 39:1 40:1 41:0.875 42:1 43:1 44:1 45:0.75 46:1 47:1 48:0.25 49:-0.75 50:-0.375 51:1 52:1 53:1 54:1 55:1 56:-1 57:-1 58:-1 59:-0.125 60:1 61:1 62:1 63:0.5 
1 0:-0.375 1:0.75 2:1 3:1 4:1 5:1 6:1 7:1 8:1 9:1 10:1 11:1 12:1 13:1 14:1 15:1 16:1 17:1 18:1 19:1 20:0.875 21:0.25 22:1 23:1 24:1 25:1 26:1 27:1 28:-1 29:-1 30:-0.5 31:1 32:1 33:1 34:1 35:1 36:-0.5 37:-0.625 38:0.25 39:1 40:1 41:0.875 42:1 43:1 44:1 45:0.75 46:1 47:1 48:0.25 49:-0.75 50:-0.375 51:1 52:1 53:1 54:1 55:1 56:-1 57:-1 58:-1 59:-0.125 60:1 61:1 62:1 63:0.5 
1 0:-1 1:-1 2:-0.875 3:-0.5 4:1 5:1 6:1 7:1 8:-1 9:-0.875 10:0.375 11:1 12:1 13:1 14:1 15:1 16:-0.5 17:0.875 18:1 19:1 20:1 21:1 22:1 23:1 24:1 25:1 26:1 27:1 28:1 29:0.625 30:0.5 31:1 32:1 33:1 34:1 35:1 36:1 37:0.125 38:0.5 39:1 40:1 41:1 42:0.75 44:1 45:1 46:1 47:1 48:1 49:1 50:-0.375 51:-0.5 52:1 53:1 54:1 55:1 56:0.125 57:-0.125 58:-1 59:-1 60:0.75 61:1 62:1 63:1 
1 0:-1 1:-1 2:-0.875 3:-0.375 4:1 5:1 6:1 7:1 8:-1 9:-0.875 10:0.375 11:1 12:1 13:1 14:1 15:1 16:-0.75 17:0.75 18:1 19:1 20:1 21:1 22:1 23:1 24:0.5 25:1 26:1 27:1 28:1 29:0.875 30:0.5 31:1 32:1 33:1 34:1 35:1 36:1 37:0.75 38:0.5 39:1 40:1 41:1 42:0.75 43:0.125 44:1 45:1 46:1 47:1 48:0.75 49:1 50:-0.375 51:-0.75 52:1 53:1 54:1 55:1 56:-0.625 57:-0.75 58:-1 59:-1 60:0.5 61:1 62:1 63:0.75 
1 0:-1 1:-1 2:-0.5 4:0.875 5:0.875 6:1 7:0.375 8:-1 9:-0.25 10:1 11:1 12:1 13:1 14:1 15:1 16:-0.125 17:1 18:1 19:1 20:1 21:1 22:1 23:1 24:1 25:1 26:1 27:1 28:1 29:0.75 30:0.875 31:1 32:1 33:1 34:1 35:1 36:1 37:0.75 38:1 39:1 40:1 41:1 42:1 43:1 44:1 45:1 46:1 47:1 48:1 49:1 50:0.375 51:0.25 52:1 53:1 54:1 55:1 56:1 57:1 58:-1 59:-0.75 60:1 61:1 62:1 63:0.75 
0.1378194261464318 0:-1 1:-1 2:-0.75 5:0.75 6:1 7:-0.375 8:-1 9:-0.25 10:0.625 11:1 12:1 13:1 14:1 15:0.625 16:-0.375 17:1 18:1 19:1 20:1 21:0.75 22:1 23:1 24:0.5 25:1 26:1 27:1 28:0.75 30:1 31:1 32:1 33:1 34:0.5 35:1 36:0.75 38:1 39:1 40:1 41:0.5 42:-0.5 43:0.5 44:1 45:1 46:1 47:1 48:1 49:-0.25 50:-1 51:0.5 52:1 53:1 54:1 55:1 56:-0.5 57:-1 58:-1 59:-0.625 60:1 61:1 62:1 63:0.25 
1 0:-1 1:-1 2:-0.75 3:-0.5 4:-0.5 5:0.625 6:1 7:1 8:-1 9:-0.75 10:0.75 11:1 12:1 13:1 14:1 15:1 16:-0.5 17:0.75 18:1 19:1 20:1 21:0.875 22:0.875 23:1 24:1 25:1 26:1 27:1 28:0.875 29:0.5 30:0.5 31:1 32:1 33:1 34:1 35:1 36:1 37:0.375 38:0.75 39:1 40:1 41:1 42:1 43:0.75 44:1 45:1 46:1 47:1 48:1 49:1 50:0.125 51:0.25 52:1 53:1 54:1 55:1 56:1 57:0.875 58:-1 59:-0.5 60:1 61:1 62:1 63:1 
1 0:-1 1:-1 2:-0.25 4:1 5:1 6:1 7:0.75 8:-1 9:-0.5 10:0.875 11:1 12:1 13:1 14:1 15:1 16:0.125 17:1 18:1 19:1 20:1 21:1 22:1 23:1 24:1 25:1 26:1 27:1 28:1 29:0.875 30:1 31:1 32:1 33:1 34:1 35:1 36:1 37:0.5 38:0.75 39:1 40:1 41:1 42:1 43:1 44:1 45:1 46:1 47:1 48:1 49:0.625 50:-0.25 51:0.625 52:1 53:1 54:1 55:1 56:0.25 57:-0.75 58:-1 59:-0.25 60:1 61:1 62:1 63:0.875 
1 0:-1 1:-0.875 2:-0.5 3:-0.5 4:-0.5 5:1 6:1 7:1 8:-0.75 9:0.25 10:1 11:1 12:1 13:1 14:1 15:1 16:1 17:1 18:1 19:1 20:1 21:1 22:1 23:1 24:1 25:1 26:1 27:1 28:0.875 29:0.625 30:1 31:1 32:1 33:1 34:1 35:1 36:0.75 37:0.75 38:1 39:1 40:1 41:1 42:1 43:1 44:1 45:1 46:1 47:1 48:1 49:1 50:0.25 51:0.75 52:1 53:1 54:1 55:1 56:1 57:0.5 58:-1 59:-0.25 60:1 61:1 62:1 63:0.875 
1 0:-1 1:-1 2:-0.75 3:-0.5 4:-0.5 5:0.625 6:1 7:1 8:-1 9:-0.75 10:0.75 11:1 12:1 13:1 14:1 15:1 16:-0.5 17:0.75 18:1 19:1 20:1 21:0.875 22:0.875 23:1 24:1 25:1 26:1 27:1 28:0.875 29:0.5 30:0.5 31:1 32:1 33:1 34:1 35:1 36:1 37:0.375 38:0.75 39:1 40:1 41:1 42:1 43:0.75 44:1 45:1 46:1 47:1 48:1 49:1 50:0.125 51:0.25 52:1 53:1 54:1 55:1 56:1 57:0.875 58:-1 59:-0.5 60:1 61:1 62:1 63:1 
1 0:-1 1:-1 2:-0.875 3:-0.5 4:-0.5 5:0.625 6:1 7:-0.875 8:-1 9:-0.5 10:0.25 11:1 12:1 13:1 14:1 15:0.25 16:-0.625 17:0.75 18:1 19:1 20:1 21:0.75 22:1 23:1 24:0.25 25:1 26:1 27:1 28:0.625 30:1 31:1 32:1 33:1 34:0.75 35:1 36:0.625 38:1 39:1 40:1 41:1 43:0.625 44:1 45:0.75 46:1 47:1 48:1 49:0.875 50:-1 51:0.5 52:1 53:1 54:1 55:0.75 56:0.5 57:-0.75 58:-1 59:-0.25 60:1 61:1 62:1 63:-0.25 
1 0:-0.375 1:1 2:1 3:1 4:1 5:1 6:1 7:1 8:0.75 9:1 10:1 11:1 12:1 13:1 14:1 15:1 16:1 17:1 18:1 19:1 20:1 21:0.625 22:1 23:1 24:1 25:1 26:1 27:1 28:-1 29:-0.875 30:-0.125 31:1 32:1 33:1 34:1 35:1 37:-0.375 39:1 40:1 41:1 42:1 43:1 44:1 45:1 46:1 47:1 48:0.875 49:-0.875 50:0.125 51:1 52:1 53:1 54:1 55:1 56:-1 57:-1 58:-1 59:0.375 60:1 61:1 62:1 63:0.625 
1 0:-0.25 1:0.75 2:1 3:1 4:1 5:1 6:1 7:1 8:1 9:1 10:1 11:1 12:1 13:1 14:1 15:1 16:1 17:1 18:1 19:1 20:0.5 21:0.25 22:1 23:1 24:1 25:1 26:1 27:1 28:-1 29:-1 30:-0.5 31:1 32:1 33:1 34:1 35:1 37:0.25 38:1 39:1 40:1 41:1 42:1 43:1 44:1 45:1 46:1 47:1 48:1 49:0.375 50:0.125 51:1 52:1 53:1 54:1 55:1 56:0.125 57:-0.875 58:-1 59:-0.125 60:1 61:1 62:1 63:1 
1 0:-0.375 1:0.75 2:1 3:1 4:1 5:1 6:1 7:1 8:1 9:1 10:1 11:1 12:1 13:1 14:1 15:1 16:1 17:1 18:1 19:1 20:0.75 21:0.25 22:1 23:1 24:1 25:1 26:1 27:1 28:-1 29:-1 30:-0.5 31:1 32:1 33:1 34:1 35:1 36:0.5 37:0.25 38:1 39:1 40:1 41:1 42:1 43:1 44:1 45:1 46:1 47:1 48:1 49:0.375 50:-0.25 51:1 52:1 53:1 54:1 55:1 56:0.125 57:-0.875 58:-1 59:-0.25 60:1 61:1 62:1 63:0.5 
1 0:-0.25 1:1 2:1 3:1 4:1 5:1 6:1 7:1 8:0.75 9:1 10:1 11:1 12:1 13:1 14:1 15:1 16:1 17:1 18:1 19:1 20:1 21:0.25 22:1 23:1 24:1 25:1 26:1 27:1 28:-1 29:-0.875 30:-0.125 31:1 32:1 33:1 34:1 35:1 37:-0.375 38:0.25 39:1 40:1 41:1 42:1 43:1 44:1 45:1 46:1 47:1 48:1 49:-0.625 50:0.25 51:1 52:1 53:1 54:1 55:1 56:-1 57:-1 58:-1 59:0.375 60:1 61:1 62:1 63:1 
1 0:-1 1:-0.375 2:1 3:1 4:1 5:1 6:1 7:0.75 8:-0.25 9:1 10:1 11:1 12:1 13:1 14:1 15:1 16:1 17:1 18:1 19:1 20:1 21:0.5 22:1 23:1 24:1 25:1 26:1 27:1 28:-0.25 29:-1 30:-0.5 31:1 32:1 33:1 34:1 35:1 36:0.375 37:-0.5 39:1 40:1 41:1 42:1 43:1 44:1 45:1 46:1 47:1 48:1 49:1 50:0.25 51:0.75 52:1 53:1 54:1 55:1 56:1 57:-0.125 58:-1 59:-0.375 60:1 61:1 62:1 63:0.625 
1 0:-1 1:-1 3:1 4:0.25 5:1 6:1 7:1 8:-0.875 9:0.375 10:1 11:1 12:1 13:1 14:1 15:1 16:0.375 17:1 18:1 19:1 20:1 21:1 22:1 23:1 24:1 25:1 26:1 27:1 28:1 29:1 30:1 31:1 32:1 33:1 34:1 35:1 36:0.75 37:0.75 38:1 39:1 40:1 41:0.75 42:1 43:1 44:0.875 45:1 46:1 47:1 48:0.25 49:-0.5 50:-0.25 51:0.875 52:1 53:1 54:1 55:1 56:-1 57:-1 58:-1 59:-0.25 60:1 61:1 62:1 63:1 
1 0:-1 1:-0.875 2:0.5 3:1 4:0.25 5:1 6:1 7:0.5 8:-0.875 9:0.5 10:1 11:1 12:1 13:1 14:1 15:1 16:0.75 17:1 18:1 19:1 20:1 21:1 22:1 23:1 24:1 25:1 26:1 27:1 28:1 29:1 30:1 31:1 32:1 33:1 34:1 35:1 36:0.75 37:1 38:1 39:1 40:1 41:0.875 42:1 43:1 44:1 45:1 46:1 47:1 48:-0.25 49:-0.5 50:-0.25 51:0.875 52:1 53:1 54:1 55:1 56:-1 57:-1 58:-1 59:-0.25 60:1 61:1 62:1 63:1 
1 0:-1 1:-1 2:-0.625 3:-0.5 4:0.25 5:1 6:1 7:-0.5 8:-1 9:-0.875 10:0.625 11:1 12:1 13:1 14:1 15:1 16:-0.75 17:0.25 18:1 19:1 20:1 21:1 22:1 23:1 24:0.25 25:1 26:1 27:1 28:1 29:-0.25 31:1 32:1 33:1 34:1 35:1 36:1 39:1 40:1 41:0.875 42:0.375 43:0.75 44:1 45:0.5 46:0.75 47:1 49:-0.25 50:-1 52:1 53:1 54:1 55:1 56:-1 57:-1 58:-1 59:-0.75 60:0.5 61:1 62:1 63:0.5 
1 0:-1 1:0.5 2:1 3:1 4:1 5:1 6:1 7:1 9:0.875 10:1 11:1 12:1 13:1 14:1 15:1 16:1 17:1 18:1 19:1 20:0.875 21:0.875 22:1 23:1 24:1 25:1 26:1 27:1 29:-1 30:0.5 31:1 32:1 33:1 34:1 35:1 36:1 37:0.75 38:0.75 39:1 40:1 41:0.875 42:0.375 43:1 44:1 45:1 46:1 47:1 48:1 49:0.875 50:-1 51:0.625 52:1 53:1 54:1 55:1 56:1 57:0.25 58:-1 59:-0.75 60:1 61:1 62:1 63:1 
0.5468498759168901 0:-1 1:0.5 2:1 3:1 4:1 5:1 6:1 7:1 9:0.875 10:1 11:1 12:1 13:1 14:1 15:1 16:1 17:1 18:1 19:1 20:0.875 21:1 22:1 23:1 24:1 25:1 26:1 27:1 29:-1 30:0.5 31:1 32:1 33:1 34:1 35:1 36:1 37:0.75 38:0.75 39:1 40:1 41:0.75 42:0.75 43:1 44:1 45:1 46:1 47:1 48:1 49:0.5 50:-1 51:0.125 52:1 53:1 54:1 55:1 56:1 57:-0.625 58:-1 59:-0.75 60:1 61:1 62:1 
1 0:-1 1:0.5 2:1 3:1 4:1 5:1 6:1 7:1 9:0.875 10:1 11:1 12:1 13:1 14:1 15:1 16:1 17:1 18:1 19:1 20:0.875 21:1 22:1 23:1 24:1 25:1 26:1 27:1 29:-1 30:0.5 31:1 32:1 33:1 34:1 35:1 36:1 37:0.75 38:0.75 39:1 40:1 41:0.75 42:0.75 43:1 44:1 45:1 46:1 47:1 48:1 49:0.5 50:-1 51:0.125 52:1 53:1 54:1 55:1 56:1 57:-0.625 58:-1 59:-0.75 60:1 61:1 62:1 
1 0:-0.375 1:1 2:1 3:1 4:1 5:1 6:1 7:1 8:1 9:1 10:1 11:1 12:1 13:1 14:1 15:1 16:1 17:1 18:1 19:1 20:1 21:1 22:1 23:1 24:1 25:1 26:1 27:1 28:-0.5 29:-0.25 30:0.75 31:1 32:1 33:1 34:1 35:1 36:-0.5 37:0.25 38:0.5 39:1 40:1 41:1 42:0.625 43:1 44:0.75 45:0.75 46:1 47:1 48:1 49:0.25 50:0.75 51:1 52:1 53:1 54:1 55:1 56:-0.75 57:-1 58:-0.5 59:1 60:1 61:1 62:1 63:1 
1 0:-0.375 1:1 2:1 3:1 4:1 5:1 6:1 7:1 8:0.5 9:1 10:1 11:1 12:1 13:1 14:1 15:1 16:1 17:1 18:1 19:1 20:0.875 21:0.75 22:1 23:1 24:1 25:1 26:1 27:1 28:-1 29:-0.75 30:0.375 31:1 32:1 33:1 34:1 35:1 36:1 37:0.5 38:1 39:1 40:1 41:1 42:1 43:1 44:1 45:1 46:1 47:1 48:1 49:0.625 50:-0.125 51:1 52:1 53:1 54:1 55:1 56:-0.25 57:-1 58:-1 60:1 61:1 62:1 
1 0:-0.375 1:1 2:1 3:1 4:1 5:1 6:1 7:1 8:1 9:1 10:1 11:1 12:1 13:1 14:1 15:1 16:1 17:1 18:1 19:1 20:0.75 21:0.25 22:1 23:1 24:1 25:1 26:1 27:1 28:-1 29:-1 30:-0.25 31:1 32:1 33:1 34:1 35:1 36:0.625 37:-0.125 38:1 39:1 40:1 41:1 42:1 43:1 44:1 45:1 46:1 47:1 48:1 49:0.875 50:0.25 51:0.875 52:1 53:1 54:1 55:1 56:-0.125 57:-1 58:-1 59:-0.375 60:1 61:1 62:1 63:1 
1 0:-1 1:0.125 2:1 3:1 4:1 5:1 6:1 7:1 8:0.625 9:1 10:1 11:1 12:1 13:1 14:1 15:1 16:1 17:1 18:1 19:1 20:0.5 21:0.5 22:1 23:1 24:1 25:1 26:1 27:1 28:-1 29:-1 30:-0.125 31:1 32:1 33:1 34:0.875 35:1 36:0.125 37:-0.5 38:0.875 39:1 40:1 41:1 42:0.5 43:1 44:0.875 45:0.5 46:0.75 47:1 48:1 49:1 51:1 52:1 53:1 54:1 55:1 56:0.375 57:-0.5 58:-1 59:0.5 60:1 61:1 62:1 63:1 
1 0:-0.625 1:0.75 2:1 3:1 4:1 5:1 6:1 7:1 8:0.75 9:1 10:1 11:1 12:1 13:1 14:1 15:1 16:1 17:1 18:1 19:1 20:1 21:0.625 22:1 23:1 24:1 25:1 26:1 27:1 28:-0.625 29:-0.75 30:0.5 31:1 32:1 33:1 34:1 35:1 36:0.25 38:1 39:1 40:1 41:1 42:1 43:1 44:0.75 45:0.75 46:1 47:1 48:1 49:0.875 50:0.875 51:1 52:1 53:1 54:1 55:1 56:0.625 57:-0.625 58:-1 59:1 60:1 61:1 62:1 63:1 
1 0:-0.375 1:1 2:1 3:1 4:1 5:1 6:1 7:1 8:1 9:1 10:1 11:1 12:1 13:1 14:1 15:1 16:1 17:1 18:1 19:1 20:1 21:1 22:1 23:1 24:1 25:1 26:1 27:1 28:-0.5 29:-0.25 30:0.75 31:1 32:1 33:1 34:1 35:1 36:-0.5 37:0.25 38:0.5 39:1 40:1 41:1 42:0.625 43:1 44:0.75 45:0.75 46:1 47:1 48:1 49:0.25 50:0.75 51:1 52:1 53:1 54:1 55:1 56:-0.75 57:-1 58:-0.5 59:1 60:1 61:1 62:1 63:1 
1 0:-1 1:0.125 2:1 3:1 4:1 5:1 6:1 7:1 8:0.125 9:0.875 10:1 11:1 12:1 13:1 14:1 15:1 16:1 17:1 18:1 19:1 20:1 21:-0.125 22:1 23:1 24:1 25:1 26:1 27:1 28:-0.75 29:-1 30:-0.25 31:1 32:1 33:1 34:1 35:1 36:-0.75 37:-1 38:-0.5 39:1 40:1 41:0.75 42:1 43:1 44:1 45:0.5 46:1 47:1 48:1 50:-0.375 51:1 52:1 53:1 54:1 55:1 56:0.75 57:-0.75 58:-1 60:1 61:1 62:1 63:0.75 
0.9286342014757193 0:-1 2:1 3:1 4:1 5:1 6:1 7:1 9:0.625 10:1 11:1 12:1 13:1 14:1 15:1 16:1 17:1 18:1 19:1 20:-1 21:-0.125 22:1 23:1 24:1 25:1 26:1 27:1 28:-1 29:-1 30:-0.375 31:1 32:1 33:1 34:1 35:1 37:-1 38:-0.875 39:1 40:1 41:0.5 42:0.375 43:1 44:1 45:0.5 46:1 47:1 48:1 50:-0.625 51:1 52:1 53:1 54:1 55:1 56:0.75 57:-0.75 58:-1 60:1 61:1 62:1 63:0.75 
0.24282820612861 0:-1 1:0.5 2:1 3:1 4:1 5:1 6:1 7:1 8:-0.375 9:0.875 10:1 11:1 12:0.5 13:0.625 14:1 15:1 16:1 17:1 18:1 19:1 20:-0.25 21:-0.75 22:0.75 23:1 24:1 25:1 26:1 27:1 28:-0.5 29:-1 30:-1 31:0.75 32:1 33:1 34:1 35:1 36:0.625 37:-1 38:-0.625 39:0.75 40:1 41:0.875 42:-1 43:1 44:1 45:0.625 46:1 47:1 48:1 49:0.375 50:-1 51:0.75 52:1 53:1 54:1 55:1 56:0.625 57:-0.75 58:-1 59:-0.5 60:1 61:1 62:1 63:1 
1 0:-1 1:0.5 2:1 3:1 4:1 5:1 6:1 7:1 8:-0.375 9:0.875 10:1 11:1 12:0.5 13:0.625 14:1 15:1 16:1 17:1 18:1 19:1 20:-0.25 21:-0.75 22:0.75 23:1 24:1 25:1 26:1 27:1 28:-0.5 29:-1 30:-1 31:0.75 32:1 33:1 34:1 35:1 36:0.625 37:-1 38:-0.625 39:0.75 40:1 41:0.875 42:-1 43:1 44:1 45:0.625 46:1 47:1 48:1 49:0.375 50:-1 51:0.75 52:1 53:1 54:1 55:1 56:0.625 57:-0.75 58:-1 59:-0.5 60:1 61:1 62:1 63:1 
0.9470224670446906 0:-1 1:-1 2:-0.625 3:0.5 4:1 5:1 6:1 7:1 8:-1 9:-0.625 10:1 11:1 12:1 13:1 14:1 15:1 16:0.5 17:1 18:1 19:1 20:1 21:1 22:1 23:1 24:1 25:1 26:1 27:1 28:1 29:1 30:1 31:1 32:1 33:1 34:1 35:1 36:1 37:1 38:1 39:1 40:1 41:1 42:0.875 43:1 44:1 45:1 46:1 47:1 48:1 49:0.375 50:-1 51:0.125 52:1 53:1 54:1 55:1 56:0.25 57:-0.875 58:-1 59:-1 60:1 61:1 62:1 63:0.75 
1 0:-1 1:-1 2:-0.875 3:0.625 4:1 5:1 6:1 7:1 8:-1 9:-0.875 10:0.125 11:1 12:1 13:1 14:1 15:1 16:-0.875 17:0.125 18:1 19:1 20:1 21:1 22:1 23:1 24:0.25 25:1 26:1 27:1 28:0.875 29:-0.625 30:-0.5 31:1 32:1 33:1 34:1 35:1 36:1 37:-1 38:-0.75 39:1 40:1 41:1 42:0.875 43:1 44:1 45:0.875 46:1 47:1 48:1 49:1 50:-0.25 51:0.625 52:1 53:1 54:1 55:1 56:1 57:0.5 58:-1 59:-0.5 60:1 61:1 62:1 63:1 
0.8246361508973895 0:-1 1:-1 2:-1 3:-0.25 4:0.25 5:1 6:0.25 7:-0.5 8:-1 9:-0.75 11:0.75 12:1 13:1 14:1 15:0.75 16:-1 17:0.25 18:1 19:1 20:1 21:-0.5 22:0.25 23:1 24:-0.25 25:0.875 26:1 27:1 28:0.375 29:-1 30:-0.5 31:1 32:1 33:1 34:1 35:1 36:0.125 37:-1 38:-0.5 39:1 40:1 41:1 42:-0.375 43:0.5 44:0.75 45:-0.25 47:1 48:1 49:-0.375 50:-1 51:0.5 52:1 53:0.75 54:1 55:1 56:1 57:-0.625 58:-1 59:-0.25 60:1 61:1 62:1 63:1 
1 0:-1 1:-1 2:-1 3:-0.5 4:-0.5 5:0.25 6:1 7:-0.375 8:-1 9:-0.75 11:1 12:1 13:1 14:1 15:0.625 16:-1 17:0.625 18:1 19:1 20:1 21:0.875 22:0.875 23:1 24:0.375 25:1 26:1 27:1 28:0.875 29:0.25 30:0.5 31:1 32:1 33:1 34:1 35:0.75 36:1 37:0.125 38:0.5 39:1 40:1 41:1 43:0.125 44:1 45:0.875 46:0.875 47:1 48:1 49:0.625 50:-1 52:1 53:1 54:1 55:0.875 56:0.375 57:-0.75 58:-1 59:-0.5 60:1 61:1 62:1 63:-0.25 
1 0:-1 1:-1 2:-0.625 3:-0.5 4:0.25 5:1 6:1 7:-0.5 8:-1 9:-0.875 10:0.625 11:1 12:1 13:1 14:1 15:1 16:-0.75 17:0.25 18:1 19:1 20:1 21:1 22:1 23:1 24:0.25 25:1 26:1 27:1 28:1 29:-0.25 31:1 32:1 33:1 34:1 35:1 36:1 39:1 40:1 41:0.875 42:0.375 43:0.75 44:1 45:0.5 46:0.75 47:1 49:-0.25 50:-1 52:1 53:1 54:1 55:1 56:-1 57:-1 58:-1 59:-0.75 60:0.5 61:1 62:1 63:0.5 
1 0:1 1:1 2:1 3:1 4:1 5:1 6:1 7:1 8:1 9:1 10:1 11:1 12:1 13:1 14:1 15:1 16:1 17:1 18:1 19:1 20:1 21:1 22:1 23:1 24:1 25:1 26:1 27:1 28:1 29:1 30:1 31:1 32:1 33:1 34:1 35:1 36:1 37:1 38:1 39:1 40:1 41:1 42:1 43:1 44:1 45:1 46:1 47:1 48:1 49:1 50:1 51:1 52:1 53:1 54:1 55:1 56:1 57:1 58:1 59:1 60:1 61:1 62:1 63:1 
0.1824890344276068 0:0.5 1:-1 2:-1 3:-1 5:1 6:1 7:1 8:1 9:0.75 10:-0.5 11:1 12:1 13:1 14:1 15:1 16:1 17:1 18:1 19:1 20:1 21:1 22:1 23:1 24:1 25:1 26:1 27:1 28:1 30:-1 31:-1 32:1 33:1 34:1 35:0.625 36:-1 37:-1 38:-1 39:-1 40:1 41:1 42:1 43:0.25 44:-1 45:-1 46:-1 47:-1 48:1 49:1 50:1 51:-0.875 52:-1 53:-1 54:-1 55:-1 56:1 57:1 58:0.375 59:-1 60:-1 61:-1 62:-1 63:-1 
-1 0:-1 1:-1 2:-1 3:-1 4:-1 5:-0.25 6:1 7:1 8:-1 9:-1 10:-1 11:-0.25 12:0.75 13:1 14:1 15:1 16:-1 17:-0.875 19:1 20:1 21:1 22:1 23:1 24:-0.5 25:0.625 26:1 27:1 28:1 29:0.875 30:0.75 31:1 32:1 33:1 34:1 35:1 36:0.25 37:-1 39:1 40:1 41:1 42:1 43:1 44:-0.5 45:-1 47:1 48:1 49:1 50:1 51:1 52:0.875 53:-0.5 54:0.75 55:1 57:0.875 58:1 59:1 60:1 61:1 62:1 63:1 
-0.07803739573116067 0:-1 1:-1 2:-1 3:-1 4:-1 5:0.5 6:1 7:-0.5 8:-1 9:-1 10:-1 11:-1 13:1 14:1 15:-0.5 16:-1 17:-1 18:-1 19:-0.375 20:1 21:1 22:1 23:-0.5 24:-1 25:-1 26:-0.25 27:1 28:1 29:1 30:1 32:-1 33:-0.5 34:1 35:1 36:0.25 37:-0.75 38:1 39:-0.375 40:0.25 41:0.75 42:1 43:0.75 44:0.125 45:0.5 46:1 47:0.5 48:1 49:1 50:1 51:1 52:1 53:1 54:1 55:1 56:1 57:1 58:0.875 59:0.875 60:1 61:1 62:1 63:0.25 
-0.1417038845135643 0:-1 1:-1 2:-1 3:-1 4:-1 5:0.25 6:1 7:-0.5 8:-1 9:-1 10:-1 11:-1 12:0.125 13:1 14:1 15:-0.5 16:-1 17:-1 18:-0.875 19:0.125 20:1 21:1 22:1 23:-0.25 24:-1 25:-1 26:0.5 27:1 28:1 29:0.25 30:1 32:-0.75 33:0.375 34:1 35:1 37:-0.625 38:1 39:0.5 40:1 41:1 42:1 43:0.75 44:1 45:1 46:1 47:1 48:1 49:1 50:1 51:1 52:1 53:1 54:1 55:1 56:-1 57:0.125 58:-0.25 62:1 63:-0.625 
-1 0:-1 1:-1 2:-1 3:-1 4:-1 6:1 7:-0.25 8:-1 9:-1 10:-1 11:-1 12:-0.125 13:1 14:1 16:-1 17:-1 18:-1 19:-0.375 20:1 21:1 22:1 24:-1 25:-1 26:-0.375 27:1 28:1 29:0.375 30:0.625 32:-1 33:-0.375 34:1 35:1 36:0.5 37:-1 38:0.5 39:0.125 41:1 42:1 43:0.625 44:0.5 45:0.5 46:1 47:1 48:1 49:1 50:1 51:1 52:1 53:1 54:1 55:1 56:1 57:0.75 58:0.5 59:0.5 60:0.5 61:0.75 62:0.625 63:0.75 
-0.6988929032682796 0:-1 1:-1 2:-1 3:-1 4:-1 5:-0.875 6:0.5 7:0.375 8:-1 9:-1 10:-1 11:-1 12:-0.25 13:0.625 14:1 15:1 16:-1 17:-1 18:-0.75 20:1 21:1 22:1 23:1 24:-0.875 25:-0.25 26:0.875 27:1 28:0.5 29:0.375 30:0.75 31:0.875 32:1 33:1 34:1 35:0.625 36:-1 37:-1 38:0.625 39:0.75 40:1 41:1 42:1 43:1 44:1 45:0.625 46:1 47:0.75 48:0.75 49:0.75 50:1 51:1 52:1 53:1 54:1 55:1 56:-0.75 57:-1 58:-0.875 59:-0.5 61:0.375 62:1 63:0.25 
-1 0:-1 1:-1 2:-1 3:-1 4:-0.75 5:-0.125 6:1 7:0.75 8:-1 9:-1 10:-1 11:-0.375 12:1 13:1 14:1 15:0.5 16:-1 17:-0.875 18:0.625 19:1 20:1 21:0.25 22:0.625 23:0.5 24:-0.625 25:0.75 26:1 27:0.625 28:-0.625 29:-1 30:0.625 31:0.5 32:1 33:1 34:1 35:1 36:1 37:1 38:1 39:1 40:1 41:1 42:1 43:1 44:1 45:1 46:1 47:1 48:0.375 49:-1 50:-1 51:-0.5 52:-0.5 53:-0.375 54:1 55:0.625 56:-0.75 57:-1 58:-1 59:-1 60:-1 61:-0.5 62:1 63:-0.25 
-0.6334027476935262 0:-1 1:-1 2:-1 3:-1 4:0.25 5:1 6:1 7:0.5 8:-1 9:-1 10:-0.875 11:0.375 12:1 13:1 14:1 15:0.5 16:-1 17:-0.25 18:0.75 19:1 20:1 21:1 22:1 23:0.5 24:0.125 25:1 26:1 27:1 28:-0.5 29:-0.875 30:0.5 31:0.5 32:1 33:1 34:1 35:1 36:-0.25 37:-1 38:0.75 39:0.75 40:0.875 41:0.875 42:1 43:1 44:1 45:1 46:1 47:0.75 48:-1 49:-1 50:-1 51:0.25 52:1 53:1 54:1 55:1 56:-1 57:-1 58:-1 59:-1 60:-0.875 61:-0.25 62:1 63:1 
-0.3200813875684537 0:-1 1:-1 2:-1 4:1 5:1 6:1 7:-0.5 8:-1 9:-1 10:0.25 11:1 12:1 13:1 14:1 15:-0.5 16:-1 17:-0.75 18:1 19:1 20:1 21:1 22:1 23:-0.5 24:-0.75 25:0.75 26:1 27:1 28:0.25 30:1 31:0.25 32:1 33:1 34:1 36:-1 37:0.25 38:1 39:1 40:1 41:1 42:1 43:-0.375 44:-0.75 45:0.875 46:1 47:1 48:1 49:1 50:1 51:0.75 52:0.75 53:1 54:1 55:1 56:1 57:1 58:1 59:1 60:1 61:1 62:1 63:1 
-1 0:-1 1:-1 2:-1 3:-1 4:-0.25 5:1 6:1 7:0.5 8:-1 9:-1 10:-0.875 11:0.125 12:1 13:1 14:1 15:0.5 16:-1 17:-0.75 18:0.5 19:1 20:1 21:-0.125 22:0.625 23:0.5 24:-0.625 25:1 26:1 27:1 28:-1 29:-1 30:0.375 31:0.875 32:-0.25 33:1 34:1 35:1 36:0.5 37:0.5 38:1 39:0.875 40:1 41:0.25 44:1 45:1 46:1 47:1 48:1 49:-0.5 50:-1 51:-1 52:-1 53:-0.875 54:0.375 55:0.625 56:-0.5 57:-0.875 58:-1 59:-1 60:-1 61:-0.125 62:1 63:1 
-0.7162523508970428 0:-1 1:-1 2:-1 3:-1 4:0.75 5:1 6:-0.5 7:-1 8:-1 9:-1 10:-1 11:0.125 12:1 13:1 14:-0.5 15:-1 16:-1 17:-0.75 18:0.75 19:1 20:1 21:1 22:-0.5 23:-1 24:-0.875 25:0.875 26:1 27:0.875 28:-0.125 29:1 30:-0.5 31:-1 32:0.25 33:1 34:1 35:-0.5 36:-0.5 37:1 38:-0.5 39:-1 40:1 41:1 42:-0.375 43:-1 44:-0.375 45:1 46:-0.375 47:0.875 48:1 49:1 50:0.5 51:-0.25 52:1 53:1 54:0.75 55:1 56:1 57:1 58:1 59:1 60:1 61:1 62:1 63:0.625 
-1 0:-1 1:-1 2:-1 3:-0.75 4:0.75 5:1 6:-0.5 7:-1 8:-1 9:-1 10:-0.625 11:0.5 12:1 13:1 14:-0.5 15:-1 16:-1 17:-0.375 18:0.875 19:1 20:1 21:1 22:-0.5 23:-1 24:-0.75 25:1 26:1 27:1 29:1 30:-0.5 31:-1 32:0.25 33:1 34:0.75 35:-0.375 36:-0.5 37:1 38:-0.5 39:-0.5 40:1 41:1 42:-0.375 43:-1 44:-0.5 45:1 46:-0.5 47:1 48:1 49:1 50:0.5 51:-0.25 52:0.5 53:1 54:0.375 55:1 56:1 57:1 58:1 59:1 60:1 61:1 62:1 63:0.625 
-0.7069698716585956 0:-1 1:-1 2:-1 3:-0.5 4:1 5:1 6:-0.5 7:-1 8:-1 9:-0.875 10:0.375 11:1 12:1 13:1 14:-0.5 15:-1 16:-0.875 17:1 18:1 19:1 20:0.5 21:1 22:-0.5 23:-1 24:1 25:1 26:0.375 27:-1 28:-0.5 29:1 30:-0.5 31:-1 32:1 33:1 35:-1 36:-0.25 37:1 38:-0.5 39:-1 40:1 41:1 42:1 43:1 44:1 45:1 46:0.5 48:1 49:1 52:0.875 53:1 54:1 55:1 56:0.5 57:0.375 58:-1 59:-1 60:0.125 61:0.625 62:1 63:0.625 
-1 0:-1 1:-1 2:-0.5 3:1 4:1 5:1 6:-0.5 7:-1 8:-1 9:0.125 10:1 11:1 12:0.625 13:0.875 14:-0.5 15:-1 16:0.75 17:1 18:1 19:0.75 20:-1 21:0.375 22:-0.25 23:-1 24:1 25:1 26:1 27:0.75 28:-0.5 29:0.75 30:0.5 31:-1 32:1 33:1 34:1 35:1 36:1 37:1 38:1 42:-0.5 43:-0.5 44:-0.5 45:0.25 46:1 47:0.375 48:-1 49:-1 50:-1 51:0.5 52:1 53:1 54:1 55:1 56:-1 57:-1 58:-1 59:-1 60:-1 61:-0.5 62:1 63:0.25 
-0.8720411213166603 0:-1 1:-1 2:0.375 3:1 4:1 5:0.5 6:-1 7:-1 8:-0.625 9:0.75 10:1 11:1 12:0.75 13:0.5 14:-1 15:-1 16:1 17:1 18:1 19:-0.125 20:-0.625 21:0.625 22:-1 23:-1 24:1 25:1 26:1 29:1 30:-0.75 31:-1 32:1 33:1 34:1 35:1 36:1 37:1 38:1 39:-1 40:-0.5 42:0.375 44:0.125 45:1 46:1 47:0.375 48:-1 49:-1 50:-0.625 51:0.75 52:1 53:1 54:1 55:1 56:-1 57:-1 58:-1 59:-1 60:-1 61:-0.5 62:1 63:0.25 
-0.4409950872081602 0:-1 1:-1 2:-1 3:-1 4:-0.75 5:0.75 6:0.5 7:-1 8:-1 9:-1 10:-1 11:-0.375 12:1 13:1 14:0.5 15:-1 16:-1 17:-1 18:-0.5 19:0.875 20:1 21:0.875 22:-0.75 23:-1 24:-0.375 25:0.625 26:1 27:1 28:1 29:1 30:-1 31:-1 32:1 33:1 34:1 35:0.5 36:-0.25 37:0.75 38:-1 39:-1 40:1 41:1 42:1 43:-0.375 44:-0.75 45:0.75 46:-1 47:0.25 48:1 49:1 50:1 51:1 52:0.625 53:1 54:0.125 55:1 57:0.375 58:-0.125 59:0.5 60:1 61:1 62:1 63:0.25 
-0.8990139790852029 0:-1 1:-1 2:-0.25 3:1 4:1 5:1 6:-0.5 7:-1 8:-1 9:0.125 10:1 11:1 12:0.625 13:0.875 14:-0.5 15:-1 16:0.75 17:1 18:1 19:0.75 20:-1 21:0.5 22:-0.25 23:-1 24:1 25:1 26:1 27:0.875 28:-0.125 29:0.875 30:0.75 31:-0.875 32:1 33:1 34:1 35:1 36:1 37:1 38:1 42:-0.25 43:1 44:1 45:1 46:1 47:0.25 48:-1 49:-1 50:-1 51:0.375 52:1 53:1 54:1 55:1 56:-1 57:-1 58:-1 59:-1 60:-1 61:-0.5 62:1 63:0.25 
-1 0:-1 1:-0.875 2:0.5 3:1 4:1 5:0.875 6:1 7:-0.5 8:-0.625 9:0.875 10:1 11:1 13:-1 14:0.25 15:-0.5 17:1 18:1 19:1 20:-1 21:-1 22:0.25 23:-0.25 24:0.75 25:1 26:1 27:1 28:1 29:0.625 30:1 31:0.75 32:0.875 33:0.5 34:0.5 35:0.75 36:0.625 38:0.5 39:1 40:0.5 41:-1 42:0.75 43:1 44:0.75 45:0.5 46:1 47:0.875 48:-0.25 49:-1 50:0.75 51:1 52:1 53:1 54:1 55:1 56:-1 57:-1 58:-1 59:-0.25 61:0.5 62:1 63:0.875 
-1 0:-1 1:-1 2:-1 3:0.125 4:1 5:1 6:1 7:-0.5 8:-1 9:-0.375 10:0.75 11:1 12:1 13:1 14:1 15:-0.5 16:0.625 17:1 18:1 19:0.875 20:-0.25 21:-1 22:0.625 23:-0.5 24:1 25:1 26:1 27:0.625 28:-0.625 29:-1 30:0.75 31:-0.125 32:1 33:1 34:1 35:1 36:1 37:1 38:1 39:1 40:-0.25 44:-0.125 46:1 47:1 48:-1 49:-1 50:-1 51:0.5 52:1 53:1 54:1 55:1 56:-1 57:-1 58:-1 59:-1 60:-1 61:0.125 62:1 63:0.125 
-0.6776990680204104 0:-1 1:-1 2:-1 3:-1 4:-0.875 5:0.75 6:1 7:-0.5 8:-1 9:-1 10:-1 11:-0.625 12:1 13:1 14:1 15:-0.5 16:-1 17:-1 18:-1 19:-0.25 20:1 21:1 22:1 23:-0.5 24:-0.875 25:-0.125 26:0.75 27:1 28:1 29:1 30:1 31:-0.125 32:1 33:1 34:1 35:1 36:0.5 37:-0.75 38:1 39:-0.5 40:1 41:1 42:1 43:1 44:-0.75 45:-1 46:0.625 47:-0.25 48:1 49:1 50:1 51:1 52:0.875 53:0.5 54:1 55:0.25 56:-0.25 58:0.25 59:-0.25 60:0.75 61:1 62:1 63:1 
-1 0:-1 1:-1 2:-0.5 3:0.75 4:1 5:-0.375 6:-1 7:-1 8:-1 9:-0.375 10:0.875 11:1 12:1 14:-1 15:-1 17:1 18:1 19:1 20:1 22:-1 23:-1 24:1 25:1 26:0.75 27:-0.5 28:1 29:-0.5 30:-1 31:-1 32:1 33:1 34:0.75 36:1 37:0.25 38:-1 39:-0.375 40:1 41:1 42:1 43:1 44:1 45:1 46:0.125 48:0.25 49:1 50:1 51:1 52:1 53:1 54:1 55:1 56:-1 57:-0.5 59:0.25 60:1 61:0.875 62:0.75 63:1 
-1 0:-1 1:-1 2:-1 3:0.75 4:1 5:-0.5 6:-1 7:-1 8:-1 9:-0.875 10:0.75 11:1 12:1 13:-0.5 14:-1 15:-1 16:-0.625 17:0.5 18:1 19:0.875 20:1 21:-0.375 22:-1 23:-0.625 24:0.75 25:1 26:1 27:-0.375 28:1 30:-1 32:1 33:1 34:0.625 35:-0.5 36:1 37:0.25 38:-0.625 39:0.75 40:1 41:1 42:1 43:1 44:1 45:1 46:1 47:1 48:1 49:1 50:1 51:1 52:1 53:1 54:1 55:1 56:-0.5 57:-0.5 58:-0.5 59:-0.5 60:1 61:1 62:0.75 63:0.625 
-0.5110218159416434 0:-1 1:-1 2:-1 3:-0.5 4:1 5:0.5 6:-1 7:-1 8:-1 9:-0.75 10:0.5 11:1 12:1 13:0.5 14:-1 15:-1 16:-0.25 17:1 18:1 19:0.875 20:0.375 21:0.5 22:-1 23:-1 24:1 25:1 26:0.75 27:-0.875 28:-0.375 29:0.5 30:-1 31:-1 32:1 33:1 34:1 35:1 36:1 37:1 39:-0.625 40:0.625 41:1 42:0.875 43:0.875 44:1 45:1 46:1 47:0.375 48:1 49:1 50:0.5 51:-1 52:0.375 53:1 54:-0.125 55:1 56:-0.375 58:-0.5 59:-0.5 60:0.5 61:1 62:0.875 63:0.75 
-0.1433932949273052 0:-1 1:-1 2:-1 3:-0.5 4:1 5:0.5 6:-1 7:-1 8:-1 9:-1 10:-0.375 11:0.875 12:1 13:0.5 14:-1 15:-1 16:-1 17:-0.125 18:1 19:1 20:0.75 21:0.5 22:-1 23:-0.75 24:0.25 25:1 26:1 27:0.5 28:-0.375 29:0.5 30:-1 32:1 33:1 34:1 35:-0.5 36:-0.125 37:1 38:-1 39:0.5 40:1 41:1 42:1 43:1 44:1 45:1 46:0.75 47:1 48:1 49:1 50:1 51:1 52:1 53:1 54:1 55:0.75 56:-0.125 57:1 58:0.75 59:-0.375 60:0.625 61:1 62:0.875 63:0.375 
-1 0:1 1:1 2:1 4:-0.5 5:1 6:0.75 7:-1 8:0.25 9:0.5 10:1 12:-1 13:0.25 14:1 15:-0.375 16:-1 17:-0.5 18:1 19:-0.5 20:-1 21:-1 22:0.75 23:1 24:-1 25:-0.5 26:1 27:-0.125 28:-1 29:-0.875 30:0.875 31:1 32:-1 33:-1 34:0.5 35:1 36:1 37:1 38:1 39:1 40:-1 41:-1 42:-0.25 43:0.875 44:0.25 45:0.375 46:0.75 47:1 48:-1 49:-1 50:-1 51:0.875 52:1 53:0.875 54:1 55:1 56:-1 57:-1 58:-1 59:-0.625 60:0.75 61:0.875 62:1 
-0.1452425457704907 0:-1 1:-0.5 3:-0.625 4:-0.5 5:1 6:-0.125 7:-1 8:0.5 9:1 10:1 12:-0.5 13:1 14:0.875 15:-0.5 16:1 17:1 18:1 19:0.375 20:-0.875 21:0.625 22:1 23:0.625 24:0.75 25:0.5 26:1 27:-0.125 28:-1 29:-0.75 30:0.875 31:1 33:-1 34:1 35:-0.375 36:-1 37:-1 38:0.75 39:1 41:-1 42:1 43:0.25 45:0.125 46:1 47:1 49:-1 50:0.125 51:1 52:1 53:1 54:1 55:-0.375 56:0.375 57:-1 58:-0.375 59:1 60:1 61:1 62:0.25 63:-1 
-0.2256449315924167 0:1 1:1 2:1 3:0.125 4:-1 6:-0.875 7:-1 8:1 9:0.75 10:1 11:0.5 12:-0.75 13:1 14:0.375 15:-1 16:0.5 17:-1 18:0.75 19:0.5 20:-1 21:0.375 22:1 23:-0.625 24:0.5 25:-1 26:0.75 28:-1 29:-0.875 30:1 31:0.875 32:0.5 33:-1 34:0.5 35:0.25 36:-1 37:-0.875 38:1 39:1 40:0.5 41:-1 43:1 44:0.875 45:0.625 46:1 47:1 48:-0.5 49:-1 50:-0.75 51:0.75 52:1 53:1 54:0.875 55:0.75 56:-1 57:-1 58:-1 59:-1 60:-0.25 61:0.75 62:-0.5 63:-0.375 
-1 0:1 1:1 2:1 3:1 5:0.25 6:1 7:-0.75 8:1 9:-0.25 10:0.25 11:1 13:0.375 14:1 15:0.25 16:1 17:-0.875 18:-1 19:1 21:-0.75 22:0.25 23:0.5 24:1 25:-1 26:-1 27:1 28:-0.5 29:-1 30:-0.75 31:1 32:1 33:-1 34:-1 35:0.625 36:0.375 37:-0.625 38:-0.5 39:1 40:0.75 41:-1 42:-1 43:0.375 44:1 45:1 46:1 47:0.625 48:-1 49:-1 50:-1 51:-0.375 52:1 53:1 54:1 55:0.25 56:-1 57:-1 58:-1 59:-1 60:0.5 61:1 62:1 63:1 
-0.3624083524634452 0:-0.875 1:-0.5 2:0.625 3:1 4:-0.25 5:-1 6:-1 7:0.625 8:1 9:1 10:1 11:0.875 12:-1 14:0.375 15:1 16:0.875 17:1 18:1 19:1 20:-1 21:0.875 22:1 23:1 24:0.25 25:-0.75 26:1 27:0.75 28:-1 29:-0.375 30:0.875 31:0.75 32:-1 33:-1 34:1 35:0.375 36:-1 37:-1 38:0.5 39:1 40:-1 41:-1 42:1 43:0.75 44:-1 45:-1 46:0.625 47:1 48:-1 49:-1 50:0.5 51:1 52:1 53:0.75 54:1 55:1 56:-1 57:-1 58:-0.75 59:0.75 60:1 61:1 62:0.875 63:-0.75 
-0.9569994671855042 0:-0.875 1:-0.5 2:0.625 3:1 4:-0.25 5:-1 6:-1 7:0.625 8:1 9:1 10:1 11:0.875 12:-1 14:0.375 15:1 16:0.875 17:1 18:1 19:1 20:-1 21:0.875 22:1 23:1 24:0.25 25:-0.75 26:1 27:0.75 28:-1 29:-0.375 30:0.875 31:0.75 32:-1 33:-1 34:1 35:0.375 36:-1 37:-1 38:0.5 39:1 40:-1 41:-1 42:1 43:0.75 44:-1 45:-1 46:0.625 47:1 48:-1 49:-1 50:0.5 51:1 52:1 53:0.75 54:1 55:1 56:-1 57:-1 58:-0.75 59:0.75 60:1 61:1 62:0.875 63:-0.75 
-1 0:1 1:1 2:1 3:0.5 4:-0.625 5:1 6:1 7:-1 8:0.75 9:0.25 10:1 11:0.5 12:-1 13:-0.625 14:1 15:0.75 17:-1 18:1 19:0.375 20:-1 21:-1 22:0.5 23:1 24:-1 25:-1 26:1 27:0.25 28:-1 29:-1 30:0.5 31:1 32:-1 33:-1 34:0.625 35:1 36:0.5 37:0.5 38:1 39:1 40:-1 41:-1 42:-0.5 43:1 44:1 45:1 46:0.875 47:1 48:-1 49:-1 50:-1 51:-0.375 52:1 53:1 54:-0.125 55:1 56:-1 57:-1 58:-1 59:-0.75 60:0.75 61:1 62:1 63:0.75 
-0.2426974522925726 0:-0.625 1:0.75 2:1 3:1 5:0.5 6:1 7:-0.125 8:1 9:1 10:1 11:1 13:0.25 14:1 15:0.5 16:1 17:0.75 18:0.75 19:1 21:-0.625 22:0.75 23:0.625 24:1 25:-0.5 26:-0.125 27:1 28:-1 29:-1 31:1 32:1 33:-0.625 35:1 36:-0.5 37:-0.875 38:1 39:1 40:1 41:-1 42:-0.125 43:1 44:0.75 45:0.625 46:1 47:0.125 48:0.25 49:-0.125 50:-0.875 51:1 52:1 53:1 54:0.875 55:-0.875 57:0.25 58:-1 59:-0.25 60:1 61:0.625 62:-0.75 63:-1 
-1 0:-1 1:-1 2:-1 3:-0.75 4:-0.75 6:1 7:0.75 8:-0.75 9:0.25 10:1 11:1 12:0.5 13:-0.375 14:1 15:1 17:1 18:1 19:1 20:0.375 21:-1 22:-0.375 23:1 24:0.25 25:0.75 26:-0.375 27:1 29:-1 30:-0.5 31:1 32:1 33:0.375 34:-1 35:1 36:0.25 37:-0.75 38:0.5 39:0.875 40:1 42:-1 43:0.875 44:1 45:1 46:1 47:0.125 48:1 50:-0.875 51:0.875 52:1 53:1 54:1 55:-1 56:1 57:-0.25 58:-0.875 59:0.625 60:1 61:0.25 62:-0.375 63:-1 
-0.2668800933387787 0:-1 1:-1 2:-1 3:-1 4:-0.5 5:1 6:0.625 7:0.625 8:-0.375 10:0.5 11:0.75 12:-0.5 13:1 14:1 15:1 16:1 17:1 18:1 19:1 20:-0.75 21:0.75 22:1 23:1 24:1 25:0.75 26:1 27:0.5 28:-1 29:-0.5 30:1 31:1 32:0.75 33:-1 34:1 36:-1 37:-0.5 38:1 39:1 40:0.5 41:-0.75 42:1 43:0.125 44:-1 45:-0.25 46:1 47:0.75 48:0.5 49:-0.625 50:1 51:1 53:1 54:1 55:-1 56:0.5 57:-1 58:0.75 59:1 60:1 61:1 62:0.25 63:-1 
-0.8268654074338323 0:-1 1:-1 2:-1 3:-1 4:-1 5:0.5 6:1 7:0.5 8:-1 9:-1 10:-1 11:-1 12:-1 13:-0.625 14:1 15:0.25 16:-0.125 17:0.625 18:1 19:1 20:0.25 21:-0.5 22:1 23:0.875 24:1 25:1 26:1 27:1 28:0.5 29:-0.625 30:0.875 31:1 32:1 33:0.5 34:0.375 35:1 36:-0.375 37:-1 38:-0.25 39:1 40:1 41:-0.5 43:1 44:-1 45:-1 46:-0.25 47:1 48:1 49:-0.625 51:1 52:-0.125 53:-1 54:0.5 55:1 56:1 57:-1 58:-0.25 59:1 60:1 61:1 62:1 63:0.75 
-1 0:-0.5 1:-0.5 2:0.25 3:1 4:-0.5 5:1 6:1 7:-0.375 8:1 9:1 10:1 11:0.875 12:-1 13:0.125 14:1 15:0.625 16:0.875 17:0.125 18:1 19:0.25 20:-1 21:-0.5 22:1 23:1 24:0.5 25:-1 26:1 28:-1 29:-0.25 30:1 31:0.625 32:0.5 33:-1 34:1 35:1 36:0.25 37:1 38:0.75 39:-0.5 40:0.5 41:-1 42:0.125 43:1 44:1 45:1 46:0.5 47:-0.125 48:0.375 49:-0.5 50:-1 51:0.75 52:1 53:0.875 54:1 55:0.25 58:-1 59:-0.375 60:0.75 61:0.75 63:-0.875 
-0.6442592734287544 0:-1 1:-1 2:-1 3:-1 4:-1 5:-0.75 6:1 7:0.875 8:-1 9:-1 10:-1 11:-1 12:-1 13:-0.125 14:1 15:0.375 16:-0.25 17:0.5 18:0.625 19:1 22:1 23:0.875 24:1 25:1 26:1 27:1 29:-0.625 30:0.875 31:1 32:1 33:0.375 34:0.25 35:1 36:-0.25 37:-1 38:-0.5 39:1 40:1 41:-0.5 42:-0.125 43:1 44:-0.5 45:-1 47:1 48:1 49:-0.5 51:1 52:-0.125 53:-0.5 54:0.875 55:0.875 56:0.875 57:-0.75 58:-0.25 59:1 60:1 61:1 62:1 
-1 0:-1 1:-1 2:-1 3:-0.5 4:-1 5:1 6:1 7:0.125 8:-0.375 9:0.75 10:1 11:1 13:0.125 14:1 15:0.75 16:1 17:1 18:1 19:1 21:-1 22:0.5 23:1 24:1 25:0.125 27:1 28:-1 29:-1 30:0.5 31:0.875 32:1 33:-0.5 35:1 36:-0.375 38:1 40:1 41:-0.5 42:-0.375 43:1 44:1 45:1 46:0.875 47:-0.75 48:1 49:-0.5 50:-1 51:0.75 52:1 53:1 54:0.75 55:-0.75 56:0.25 58:-1 59:-0.25 60:1 61:0.75 63:-0.875 
-1 0:-1 1:-1 2:-1 3:-0.75 4:-1 5:0.5 6:1 7:-0.25 8:-0.75 9:0.625 10:1 11:1 13:0.5 14:1 15:1 16:1 17:1 18:1 19:1 21:-0.625 22:1 23:1 24:1 25:0.75 26:0.75 27:1 28:-0.5 29:-1 31:1 32:1 33:-0.5 34:-0.125 35:1 36:-1 37:-0.875 38:1 39:0.625 40:1 41:-0.5 43:1 44:0.25 45:0.375 46:1 47:-0.125 48:1 49:-0.5 50:-0.5 51:1 52:1 53:1 54:0.875 55:-0.875 56:0.75 57:-0.75 58:-1 60:1 61:0.625 62:-0.375 63:-1 
-0.1166201866842441 0:-0.25 1:1 2:1 3:0.75 4:-0.5 5:1 6:1 7:-0.375 8:1 9:1 10:1 11:1 12:-0.625 13:1 14:1 15:0.75 16:1 17:1 18:1 19:1 20:-1 21:0.625 22:1 23:1 24:0.75 25:-1 26:1 27:0.25 28:-1 29:-0.5 30:1 31:1 32:0.5 33:-0.5 34:1 36:-1 37:-0.375 38:1 39:1 40:0.5 41:-0.5 42:1 43:0.75 44:-0.5 45:0.375 46:1 47:0.75 48:0.25 49:-1 50:1 51:1 52:1 53:1 54:0.75 55:-0.5 56:-1 57:-1 58:-0.125 59:1 60:1 61:1 63:-1 
-1 0:-1 1:-1 2:-1 3:-1 4:-1 5:0.75 6:1 7:0.125 8:-1 9:-0.625 10:-0.25 12:-0.5 13:0.75 14:1 15:1 16:0.625 17:1 18:1 19:1 22:1 23:1 24:1 25:1 26:1 27:1 29:-1 30:0.25 31:1 32:1 33:-0.125 35:1 36:-1 37:-1 38:0.5 39:0.75 40:1 41:-0.5 43:1 44:-1 45:-0.75 46:1 47:0.25 48:1 49:-0.5 50:-0.125 51:1 52:0.75 53:0.75 54:1 55:-0.25 56:1 57:-0.5 58:-0.625 59:1 60:1 61:1 62:0.625 63:-0.875 
-1 0:1 1:1 2:1 3:1 5:0.125 6:0.75 7:-0.875 8:1 9:0.625 10:0.75 11:1 13:0.5 14:1 15:0.25 16:1 17:-1 18:-0.375 19:1 20:-0.5 21:-0.375 22:1 23:0.75 24:0.25 25:-1 27:0.625 28:-1 29:-1 31:1 32:-0.5 33:-1 35:0.75 36:-0.75 37:-0.875 38:0.5 39:1 40:-1 41:-1 42:-0.375 43:1 44:1 45:1 46:1 47:0.625 48:-1 49:-1 50:-0.75 51:0.875 52:1 53:1 54:1 55:-0.25 56:-1 57:-1 58:-1 59:-0.5 60:1 61:1 62:1 63:-1 
-1 0:-1 3:-0.375 4:-0.5 5:1 6:0.375 7:-0.75 8:1 9:1 10:1 11:0.5 12:-0.5 13:1 14:1 15:0.75 16:1 17:1 18:1 19:0.5 20:-0.875 21:0.75 22:1 23:1 24:0.125 25:-0.875 26:1 27:0.125 28:-1 29:-0.375 30:1 31:1 32:-1 33:-0.5 34:1 36:-1 37:-0.5 38:1 39:0.75 40:-1 41:-0.75 42:1 43:0.625 44:-0.5 45:0.5 46:1 48:-1 49:-1 50:0.75 51:1 52:1 53:1 54:1 55:-0.375 56:-1 57:-1 58:-0.125 59:1 60:1 61:1 62:0.375 63:-0.875 
-0.5150835888999437 0:-1 3:-0.5 4:-0.5 5:1 6:0.375 7:-0.75 8:0.5 9:1 10:1 11:0.375 12:-0.5 13:1 14:1 15:0.75 16:1 17:1 18:1 19:0.5 20:-0.75 21:1 22:1 23:1 24:0.375 25:-0.375 26:1 27:0.25 28:-1 29:-0.25 30:1 31:1 32:-0.75 33:-0.625 34:1 36:-1 37:-0.5 38:1 39:1 40:-1 41:-0.5 42:1 43:0.125 44:-1 46:1 48:-1 49:-1 50:1 51:1 52:0.5 53:1 54:1 55:-0.125 56:-1 57:-1 58:0.5 59:1 60:1 61:1 62:1 63:-0.625 
-0.07888779428006081 0:-0.25 1:-0.25 2:1 3:-0.5 4:-0.875 5:1 6:0.625 7:-1 8:1 9:1 10:1 11:0.5 12:-0.5 13:1 14:1 15:0.25 16:1 17:1 18:1 19:0.5 20:-0.875 21:0.25 22:1 23:1 24:0.875 25:0.25 26:1 27:0.125 28:-1 29:-1 30:0.375 31:1 32:-0.75 33:-1 34:1 36:-1 37:-1 38:0.375 39:0.75 40:-1 41:-1 42:1 43:0.625 44:0.375 45:0.25 46:1 47:0.5 48:-1 49:-1 50:0.625 51:1 52:1 53:1 54:1 55:-0.875 56:-1 57:-1 59:1 60:1 61:1 62:0.5 63:-1 
-0.2066917795426563 0:1 1:1 2:0.5 3:1 4:-0.75 5:-0.25 6:1 7:0.25 8:0.875 9:0.875 10:1 11:1 12:-0.25 14:1 15:1 16:0.125 17:-1 18:-0.375 19:1 20:-1 21:-0.75 22:0.125 23:1 25:-1 27:1 28:-1 29:-1 30:-0.5 31:1 33:-1 34:-0.25 35:1 36:0.375 37:-0.5 38:0.75 39:1 40:-1 41:-1 42:-0.625 43:1 44:1 45:1 46:1 47:1 48:-1 49:-1 50:-1 51:-0.625 52:1 53:0.75 54:0.875 55:0.875 56:-1 57:-1 58:-1 59:-1 60:0.75 61:0.75 62:1 
-1 0:-1 1:-1 2:0.25 3:0.75 4:-1 6:1 7:-0.375 8:0.5 9:0.875 10:1 11:1 12:-1 13:0.25 14:1 15:0.625 16:0.75 17:0.5 18:0.75 19:1 20:-1 21:-0.5 22:0.375 23:1 25:-1 27:1 28:-1 29:-1 30:-0.5 31:1 33:-1 34:-0.5 35:1 36:-0.375 37:-1 38:0.625 39:1 41:-1 42:-0.625 43:1 44:1 45:1 46:1 47:1 48:-0.5 49:-1 50:-1 51:0.125 52:1 53:1 54:1 55:0.25 56:-1 57:-1 58:-1 59:-0.875 60:0.75 61:0.75 62:1 63:-0.125 
-1 0:-0.5 1:1 2:1 3:1 4:1 5:-1 6:-0.875 7:-0.75 8:1 9:0.875 10:-0.125 11:0.875 12:1 13:-0.75 14:0.25 15:0.875 16:1 17:0.5 18:-1 19:0.5 20:1 21:-0.625 22:0.125 23:1 24:1 25:0.375 26:-1 27:0.5 28:1 29:-1 30:-1 31:0.25 32:1 33:0.375 34:-1 35:0.375 36:1 37:-0.625 38:-1 40:0.625 41:-0.875 42:-1 43:-0.75 44:1 45:1 46:0.5 47:0.75 48:0.875 49:-1 50:-1 51:-0.875 52:0.375 53:1 54:1 55:1 56:-1 57:-1 58:-1 59:-0.875 60:0.25 61:0.75 62:1 63:0.5 
-0.7192077094496999 0:-0.5 1:1 2:1 3:1 4:0.75 5:-1 6:-1 7:-1 8:1 9:0.875 10:-0.125 11:0.875 12:1 13:-0.75 14:0.125 15:0.75 16:1 17:0.5 18:-1 19:0.5 20:1 21:-0.625 22:0.125 23:1 24:1 25:0.375 26:-1 27:0.5 28:1 29:-1 30:-1 31:0.375 32:1 33:-0.125 34:-1 35:0.375 36:1 37:-0.625 38:-1 40:0.625 41:-1 42:-1 43:-0.75 44:1 45:0.875 46:0.25 47:0.5 48:0.875 49:-1 50:-1 51:-0.875 52:0.5 53:1 54:1 55:1 56:-1 57:-1 58:-1 59:-0.875 60:0.25 61:0.75 62:1 63:0.5 
-0.2312171549526315 0:-1 1:-1 2:-0.75 3:1 4:0.75 5:-1 6:-1 7:-1 8:0.5 9:0.5 10:1 11:1 12:1 13:-1 14:-1 15:-1 16:1 17:1 18:1 19:1 20:1 21:-1 22:-1 23:-1 24:1 25:1 26:0.5 27:0.5 28:1 29:-1 30:-1 31:-0.5 32:1 33:0.5 34:-1 36:1 37:-1 38:-0.25 39:1 40:1 41:0.5 42:-1 44:1 45:1 46:1 47:1 48:1 49:0.375 50:-1 52:1 53:1 54:1 55:1 56:1 57:0.5 58:-1 59:-0.375 60:1 61:1 62:0.875 63:0.375 
-1 0:-1 1:-0.375 2:0.25 3:1 4:1 5:-1 6:-1 7:-1 8:-0.25 9:0.875 10:1 11:1 12:1 13:-1 14:-1 15:-1 16:0.625 17:1 18:0.5 19:0.875 20:1 21:-1 22:-1 23:-0.875 24:1 25:0.375 26:-1 28:1 29:-0.875 30:-0.5 31:0.5 32:1 34:-1 36:1 37:1 38:1 39:1 40:1 42:-1 43:-0.25 44:1 45:1 46:1 47:0.875 48:1 49:-0.125 50:-1 52:0.875 53:1 54:1 55:1 56:1 57:-1 58:-1 59:0.375 60:1 61:0.75 62:0.75 63:0.375 
-0.5221146845595804 0:-1 1:-1 2:-1 3:-1 4:-1 5:0.625 6:0.625 7:-1 8:-1 9:-0.375 10:0.5 11:-0.25 12:-0.625 13:1 14:1 15:-0.125 16:0.625 17:1 18:1 19:0.25 20:-1 21:-0.25 22:0.625 23:1 24:0.875 25:0.5 26:1 28:-1 29:-1 30:0.125 31:1 32:-1 33:-1 34:1 35:0.375 36:-0.25 37:0.375 38:1 39:0.75 40:-1 41:-1 42:0.75 43:1 44:1 45:1 46:0.875 47:0.875 48:-1 49:-1 50:-0.5 51:1 52:0.75 54:1 55:1 56:-1 57:-1 58:-1 59:0.5 60:1 61:0.75 62:0.875 63:0.375 
-1 1:1 2:1 3:1 4:0.25 5:0.5 6:1 7:0.75 8:0.5 9:1 10:1 11:1 12:0.5 13:0.25 14:1 15:1 16:1 17:0.875 18:0.75 19:1 20:0.375 21:-0.5 22:0.75 23:1 24:1 26:-0.5 27:1 28:-1 29:-1 30:-0.25 31:1 32:1 34:-0.5 35:1 36:-0.25 37:-1 38:-0.125 39:1 40:0.5 42:-0.75 43:1 44:0.75 45:0.5 46:0.75 47:1 48:-0.25 49:0.25 50:-1 51:0.5 52:1 53:1 54:1 55:0.75 56:-0.625 57:0.375 58:-1 60:1 61:1 62:1 63:-0.125 
-0.6891104180453718 1:1 2:1 3:1 4:0.25 5:0.5 6:1 8:0.5 9:1 10:1 11:1 12:0.5 14:1 15:1 16:1 17:0.75 18:0.375 19:1 20:-0.125 21:-0.875 22:0.5 23:1 24:1 26:-0.5 27:1 28:-1 29:-1 30:-0.375 31:1 32:1 34:-0.5 35:1 36:-0.5 37:-1 38:-0.25 39:1 40:0.5 42:-0.75 43:1 44:0.75 46:0.75 47:1 48:-0.375 49:0.125 50:-1 51:0.5 52:1 53:1 54:1 55:1 56:-0.625 57:0.5 58:-1 60:1 61:1 62:1 63:0.375 
-1 1:0.75 2:1 3:-0.5 4:1 5:1 6:0.25 7:-0.75 8:1 9:1 10:1 12:0.5 13:1 14:1 15:0.75 16:1 17:1 18:1 19:-0.125 20:-0.875 21:0.625 22:1 23:1 24:-0.5 25:0.125 26:1 27:-0.625 28:-1 29:0.125 30:1 31:1 32:-1 33:-0.5 34:1 35:-1 36:-1 38:1 39:1 40:-1 41:-0.5 42:1 43:0.5 45:0.75 46:1 47:1 48:-1 49:-1 50:0.875 51:1 52:1 53:1 54:1 55:1 56:-1 57:-1 58:0.375 59:1 60:1 61:1 62:0.25 63:0.625 
-1 0:1 1:1 2:1 4:1 5:1 6:-0.25 7:-1 8:1 9:1 10:1 12:0.375 13:1 14:1 15:-0.5 16:0.5 17:0.75 18:1 19:-0.125 20:-0.875 21:0.5 22:1 23:0.875 24:-1 25:-0.5 26:1 27:-1 28:-1 30:1 31:1 32:-1 33:-0.5 34:1 35:-0.5 36:-1 37:-0.125 38:1 39:1 40:-1 41:-0.75 42:1 43:0.5 45:0.625 46:1 47:1 48:-1 49:-1 50:0.375 51:1 52:1 53:1 54:0.875 55:1 56:-1 57:-1 58:-0.375 59:1 60:1 61:0.875 62:-0.125 63:0.875 
-1 0:1 1:1 2:1 3:-0.25 4:1 5:1 6:1 7:1 8:1 9:1 10:1 12:0.5 13:1 14:1 15:1 16:0.875 17:0.75 18:1 19:-0.125 20:-0.875 21:0.5 22:1 23:1 24:-0.625 25:-0.375 26:1 27:-0.625 28:-1 29:-0.125 30:1 31:1 32:-1 33:-0.5 34:1 35:-0.5 36:-1 38:1 39:1 40:-1 41:-0.5 42:1 43:0.5 45:0.75 46:1 47:1 48:-1 49:-1 50:0.875 51:1 52:1 53:1 54:0.875 55:0.125 56:-1 57:-1 58:0.375 59:1 60:1 61:1 63:-1 
-1 1:1 2:1 3:1 4:0.5 6:1 7:-0.25 8:0.5 9:1 10:1 11:1 12:0.5 13:-0.125 14:1 15:1 16:1 17:0.75 18:0.125 19:1 20:0.125 21:-0.875 22:0.5 23:1 24:1 26:-0.5 27:1 28:-1 29:-1 30:-0.25 31:1 32:1 34:-0.5 35:1 36:-0.125 37:-1 39:1 40:0.25 42:-0.875 43:1 44:0.875 45:0.5 46:0.875 47:1 48:-0.5 49:0.25 50:-1 51:0.375 52:1 53:1 54:1 55:0.875 56:-0.875 57:-0.125 58:-1 59:-0.5 60:1 61:1 62:0.875 63:-0.125 
-0.1597802763494109 0:1 1:1 2:1 3:0.25 5:1 6:-0.5 7:1 8:1 9:1 10:1 11:0.5 13:1 14:1 15:1 16:0.5 17:0.75 18:1 19:0.125 20:-0.5 21:0.875 22:1 23:1 24:-1 25:-0.5 26:1 27:-0.75 28:-1 29:-0.25 30:1 31:1 32:-1 33:-0.5 34:1 35:-0.375 36:-1 37:-0.125 38:1 39:1 40:-1 41:-0.75 42:1 43:0.75 45:0.625 46:1 47:1 48:-1 49:-1 50:0.75 51:1 52:1 53:1 54:0.875 55:-0.125 56:-1 57:-1 59:1 60:1 61:1 62:-0.125 63:-1 
-0.7866671771743576 1:1 2:1 3:1 6:1 7:0.5 8:1 9:0.75 10:0.375 11:1 13:-1 14:0.125 15:1 16:1 17:-0.5 18:-0.5 19:1 20:-0.5 21:-1 22:-0.75 23:1 24:1 25:-0.5 26:-0.5 27:1 28:-0.5 29:-1 30:-0.625 31:1 32:1 33:-0.375 34:-0.75 35:1 36:0.5 38:0.75 39:0.75 40:1 41:-0.125 42:-1 43:-0.375 44:1 45:1 46:1 49:-0.75 50:-1 51:-1 52:1 53:1 54:1 55:0.5 56:-1 57:-1 58:-1 59:-1 60:0.625 61:1 62:1 63:0.25 
-0.0809475566718736 0:-0.125 1:-0.125 2:0.5 3:-0.25 5:1 6:0.625 7:-1 8:1 9:1 10:1 11:0.5 12:-0.25 13:1 14:1 15:-0.375 16:1 18:1 19:0.5 20:-1 21:-0.5 22:1 23:0.75 24:0.5 25:-1 26:1 27:0.375 28:-1 29:-1 30:1 31:1 32:0.75 33:-1 34:0.875 35:0.625 36:-0.625 38:1 39:0.625 40:1 41:-1 42:0.375 43:1 44:0.875 45:1 46:1 47:0.25 48:1 49:-1 50:-0.75 51:0.875 52:1 53:1 54:0.375 55:-0.25 56:-0.25 57:-1 58:-1 59:-0.625 60:0.875 61:1 63:-1 
-1 1:1 2:1 3:1 5:-1 6:1 7:0.25 8:0.75 9:1 11:1 13:-1 14:1 15:0.875 16:1 17:0.5 18:-1 19:0.5 20:-0.125 21:-1 22:-0.125 23:1 24:0.5 25:0.5 26:-1 27:0.5 28:-0.5 29:-1 30:-1 31:1 33:0.5 34:-1 35:0.5 36:0.25 37:-0.625 38:-0.25 39:1 41:0.375 42:-1 43:-0.125 44:1 45:0.875 46:0.875 47:1 48:-0.875 49:-0.75 50:-1 51:-0.875 52:1 53:1 54:1 55:0.375 56:-1 57:-1 58:-1 59:-1 60:0.625 61:1 62:0.625 63:-0.875 
-0.9780963811233203 0:-1 1:-1 2:1 3:1 4:-1 5:-1 6:-1 7:-1 8:0.5 9:0.75 11:1 12:-1 13:-1 14:-1 15:-1 16:0.75 17:1 18:1 19:1 20:-0.25 22:1 24:1 25:1 26:1 27:1 30:1 31:0.625 32:1 33:0.375 34:0.375 35:1 37:-0.875 38:0.75 39:1 40:1 42:-0.5 43:1 44:-0.75 45:-1 47:1 48:1 50:-0.5 51:1 52:-0.25 53:-1 54:-0.375 55:1 56:1 58:-0.5 59:1 60:0.625 61:-0.375 62:0.75 63:1 
-0.153164542560188 0:-1 2:1 3:1 4:-0.625 5:-1 6:-1 7:-1 9:-0.625 10:1 11:0.375 12:-0.75 14:-0.75 15:-1 16:1 17:1 18:1 19:0.875 20:-0.5 21:1 22:0.625 23:-0.25 24:1 25:1 26:1 27:1 28:-0.625 29:1 30:1 31:0.125 32:1 34:1 35:0.875 36:-1 37:0.375 38:1 39:0.875 40:1 41:-1 42:1 43:0.5 44:-1 45:-0.5 46:1 47:1 48:1 49:-1 50:1 51:0.875 52:-1 53:-0.875 54:1 55:1 56:1 57:-1 58:1 59:1 60:0.25 61:0.875 62:1 63:1 
-0.2325496443005192 0:-1 2:1 3:1 4:-0.625 5:-0.5 6:1 7:-0.25 8:1 9:-0.625 10:1 11:0.125 12:-1 13:-1 14:1 16:1 17:1 18:1 19:0.75 20:-0.5 21:1 22:0.625 23:-0.125 24:1 25:1 26:1 27:1 28:-0.5 29:1 30:1 31:0.125 32:1 34:1 35:1 36:-0.875 37:0.75 38:1 39:0.75 40:1 41:-1 42:1 43:0.625 44:-1 45:-0.25 46:1 47:1 48:1 49:-1 50:1 51:0.625 52:-1 53:-0.875 54:1 55:1 56:1 57:-1 58:1 59:1 60:-0.625 61:0.5 62:1 63:1 
-0.7037063365148982 0:-0.75 1:-0.5 2:1 3:1 4:-0.875 5:1 6:1 7:-0.875 8:1 9:1 10:1 11:1 12:-0.5 13:1 14:1 15:-0.5 16:1 17:1 18:1 19:1 20:-0.5 21:0.75 22:1 23:0.25 24:1 25:0.375 26:0.75 27:1 28:-0.5 29:-0.875 30:1 31:0.875 32:1 33:-0.5 34:0.5 35:1 36:-0.625 37:-1 38:0.5 39:1 40:1 41:-0.5 43:1 44:-0.5 45:-0.875 46:0.625 47:1 48:1 49:-0.5 51:1 52:0.75 53:0.875 54:1 55:1 56:0.375 57:0.375 58:-0.5 59:0.875 60:1 61:1 62:1 63:0.75 
-1 0:-1 1:-1 2:-0.25 4:-0.5 5:0.5 6:1 7:-0.125 8:0.25 9:1 10:1 11:1 12:0.375 13:0.25 14:1 15:0.75 16:1 17:1 18:1 19:1 20:0.25 21:-1 22:0.25 23:1 24:1 25:-0.625 26:-0.5 27:1 28:-1 29:-1 30:-1 31:0.75 32:1 33:-0.5 34:-1 35:1 36:-0.125 37:-1 38:0.375 39:1 40:1 41:-0.5 42:-1 43:0.875 44:1 45:1 46:1 47:1 48:1 49:-0.5 50:-1 51:-0.125 52:1 53:1 54:1 55:0.375 56:-0.5 57:-0.875 58:-1 59:-1 60:0.125 61:1 62:1 63:0.625 
-0.1916956576698324 0:-0.875 1:-0.5 2:-0.25 3:1 5:0.5 6:1 7:-0.25 8:1 9:1 10:1 11:1 13:0.5 14:1 15:0.625 16:1 17:1 18:1 19:1 21:-0.125 22:0.75 23:1 24:1 25:-0.5 27:1 28:-1 29:-1 30:-0.5 31:1 32:1 33:-0.5 35:1 36:-1 37:-1 38:-0.75 39:1 40:1 41:-0.5 42:-1 43:1 45:-1 46:0.25 47:1 48:1 49:-0.5 50:-1 51:1 52:1 53:1 54:1 55:1 56:1 57:-0.5 58:-1 59:0.25 60:1 61:1 62:1 63:0.625 
-1 0:-1 1:-1 2:-0.25 4:-0.5 5:-0.25 6:1 7:-0.25 8:0.625 9:1 10:1 11:1 12:0.5 13:0.25 14:1 15:0.625 16:1 17:0.125 19:1 20:0.25 21:-0.875 22:0.375 23:1 24:1 25:-0.5 26:-0.25 27:1 28:-1 29:-1 30:-1 31:0.75 32:1 33:-0.5 34:-1 35:1 37:-1 38:0.125 39:1 40:1 41:-0.5 42:-1 43:0.75 44:0.875 45:0.5 46:1 47:1 48:0.5 49:-0.75 50:-1 51:-0.375 52:1 53:1 54:1 55:0.375 56:-1 57:-1 58:-1 59:-1 60:0.125 61:1 62:1 63:0.625 
-1 0:1 1:1 2:1 3:0.5 4:-1 5:1 6:0.625 7:-1 8:0.75 10:1 11:0.375 12:-1 13:0.75 14:1 15:-0.625 16:0.5 17:-0.5 18:1 19:-0.125 20:-1 21:-0.125 22:1 23:0.75 24:0.5 25:-0.5 26:1 27:0.125 28:-1 29:-0.375 30:1 31:1 32:0.5 33:-1 34:1 35:1 36:1 37:1 38:1 39:1 40:-0.25 41:-1 42:-0.375 43:1 44:1 45:0.75 46:1 47:1 48:-1 49:-1 50:-1 51:0.625 52:0.875 53:0.25 54:1 55:1 56:-1 57:-1 58:-1 59:-0.625 60:0.375 61:0.75 62:1 63:0.125 
-1 0:1 1:1 2:1 3:0.5 4:-0.5 5:1 6:0.125 7:-1 8:1 9:0.875 10:1 11:0.5 12:-0.5 13:1 14:0.875 15:-0.125 16:0.625 17:-0.875 18:1 19:0.25 20:-1 21:0.375 22:1 23:0.875 24:0.375 25:-1 26:1 27:0.125 28:-1 29:-0.25 30:1 31:1 32:-0.5 33:-1 34:0.75 35:0.625 36:-1 37:-0.375 38:1 39:1 40:-1 41:-1 42:0.375 43:1 44:1 45:1 46:1 47:1 48:-1 49:-1 50:-0.375 51:1 52:1 53:1 54:1 55:1 56:-1 57:-1 58:-1 60:0.5 61:0.375 62:0.75 63:0.875 
-1 0:1 1:1 2:1 3:1 4:1 5:-1 6:1 7:0.25 8:1 9:1 10:0.75 11:1 12:1 13:-1 14:1 15:1 16:1 17:0.875 18:-1 19:0.625 20:1 21:-1 22:-0.375 23:1 24:0.75 25:0.5 26:-1 28:1 29:-1 30:-1 31:0.75 33:0.5 34:-1 36:1 37:-0.875 38:-1 39:0.5 40:-0.25 41:0.5 42:-1 43:-0.125 44:1 45:0.5 47:1 48:-0.625 49:-0.375 50:-1 51:-0.5 52:1 53:1 54:1 55:1 56:-1 57:-1 58:-1 59:-1 60:0.75 61:1 62:1 63:1 
-1 0:1 1:1 2:0.5 3:-0.5 4:1 5:1 6:0.375 7:-1 9:1 10:0.125 11:-1 13:1 14:1 17:1 18:0.125 19:-1 20:-0.875 21:1 22:1 23:0.875 24:-0.25 25:1 26:0.625 27:-1 28:-0.875 29:1 30:1 31:1 32:-0.75 33:1 34:1 35:0.5 36:0.75 37:1 38:1 39:1 40:-1 41:-0.125 42:1 43:1 44:1 45:1 46:1 47:1 48:-1 49:-1 50:-0.75 51:-0.25 53:0.25 54:1 55:1 56:-1 57:-1 58:-1 59:1 60:1 61:1 62:1 63:0.625 
-1 0:-0.5 1:0.5 2:-0.5 3:1 4:-0.75 5:-1 6:-1 7:-1 8:-0.125 9:0.25 10:0.875 11:1 12:0.375 13:-1 14:-1 15:-1 16:1 17:1 18:1 19:1 20:-0.75 21:-0.5 22:0.125 23:-0.375 24:1 25:0.125 26:0.625 27:1 28:-1 29:0.25 30:1 31:0.875 32:1 33:-0.5 34:-0.5 35:1 36:-1 37:-0.75 38:1 39:1 40:1 41:-0.875 42:-0.5 43:1 44:-1 45:-1 46:0.5 47:1 48:0.375 49:-1 50:-0.625 51:1 52:0.375 53:-0.5 54:0.75 55:0.75 56:-1 57:-1 58:-1 59:0.75 60:1 61:1 62:1 63:-0.375 
-0.1609811195551934 0:1 1:1 2:1 3:0.5 4:-1 5:1 6:-0.625 7:-1 8:1 9:0.875 10:1 11:0.5 12:-0.5 13:1 14:0.625 15:-0.125 16:0.625 17:-0.875 18:1 19:0.5 20:-0.875 21:0.75 22:1 23:0.875 24:0.5 25:-1 26:1 27:0.25 28:-1 30:1 31:1 32:-0.25 33:-1 34:0.875 35:0.5 36:-1 37:-0.375 38:1 39:1 40:-1 41:-1 42:0.5 43:1 44:0.5 45:0.75 46:1 47:1 48:-1 49:-1 50:-0.25 51:1 52:1 53:1 54:1 55:1 56:-1 57:-1 58:-0.875 59:0.25 60:1 61:1 62:1 63:0.875 
-0.3612664031498625 0:1 1:1 2:-0.5 3:1 4:-0.5 5:-1 6:-0.25 7:-0.375 8:0.25 9:1 10:1 11:1 12:0.5 13:-0.625 14:1 15:1 17:1 18:0.25 19:1 20:0.5 21:-1 22:0.75 23:1 24:-0.125 25:0.5 26:-1 27:1 28:0.5 29:-1 30:-0.375 31:1 32:-0.5 33:0.5 34:-1 35:0.75 36:0.75 37:-0.875 38:-1 39:1 40:-0.5 41:0.5 42:-1 43:0.5 44:1 46:-0.375 47:1 48:-0.875 49:0.5 50:-1 51:-0.125 52:1 53:1 54:1 55:1 56:-1 57:-1 58:-1 59:-0.75 60:0.75 61:1 62:1 63:0.875 
-1 0:1 1:1 3:-1 5:1 6:1 7:0.5 8:1 9:1 11:-1 12:-1 13:0.375 14:1 15:0.5 16:1 17:1 18:0.25 19:-1 20:-1 21:-0.5 22:1 23:0.625 25:1 26:1 28:-0.5 29:0.125 30:1 31:1 32:-1 33:0.875 34:1 35:1 36:1 37:1 38:1 39:0.75 40:-1 41:0.125 42:1 43:1 44:1 45:1 46:1 47:0.875 48:-1 49:0.875 50:1 51:1 52:1 53:1 54:1 55:0.875 56:-1 57:-0.875 58:0.75 59:1 60:1 61:1 62:0.75 63:-0.375 
-1 0:1 1:1 2:-0.625 3:1 4:0.5 5:-1 6:1 7:1 8:1 9:0.625 10:-1 11:1 12:0.5 13:-1 14:-0.25 15:1 16:1 17:0.5 18:-1 19:0.875 20:0.625 21:-1 22:-1 23:1 24:-0.125 25:0.5 26:-1 27:0.5 28:1 29:-0.5 30:-0.875 31:1 32:-0.75 34:-1 35:-0.125 36:1 37:1 38:1 39:1 40:-1 41:-1 42:-1 43:-0.75 44:1 45:1 46:1 47:1 48:-1 49:-1 50:-1 51:-0.75 52:0.25 53:1 54:1 56:-1 57:-1 58:-1 59:-0.5 60:1 61:1 62:1 63:-0.25 
-1 0:1 1:1 3:-1 4:-0.25 5:1 6:1 7:0.5 8:1 9:1 11:-1 12:-1 14:1 15:0.5 16:0.75 17:1 18:0.25 19:-1 20:-1 21:-0.5 22:1 23:0.625 25:1 26:1 27:-0.375 28:-1 29:0.125 30:1 31:1 32:-0.75 33:0.75 34:1 35:1 36:1 37:1 38:1 39:0.75 40:-1 42:1 43:1 44:1 45:1 46:1 48:-1 49:1 50:1 51:1 52:1 53:1 54:1 55:1 56:-1 57:-0.5 58:1 59:1 60:1 61:1 62:1 63:-0.125 
-1 0:1 1:1 2:1 3:-0.5 4:-0.125 5:1 6:0.25 7:-1 8:0.75 9:0.5 10:1 11:-0.5 12:-0.75 13:1 14:1 15:-0.125 16:0.25 17:-0.375 18:1 19:-0.5 20:-1 21:0.25 22:1 23:0.5 24:-0.5 25:-0.5 26:1 27:-0.25 28:-1 30:1 31:0.75 32:-1 33:-1 34:0.875 35:0.875 37:0.75 38:1 39:1 40:-1 41:-1 42:0.25 43:1 44:1 45:1 46:0.875 47:1 48:-1 49:-1 50:-0.875 51:0.75 52:1 53:1 54:-0.375 55:1 56:-1 57:-1 58:-1 59:-0.875 60:1 61:1 62:1 63:0.125 
-0.3902940089284601 0:1 1:0.625 3:0.5 4:-1 5:-0.875 6:-0.5 7:-1 8:1 9:1 10:1 11:1 12:-0.5 13:0.25 14:1 15:0.25 16:1 17:1 18:1 19:1 20:0.5 21:-0.75 22:1 23:1 24:1 25:0.875 26:-0.375 27:1 28:0.5 29:-1 30:0.5 31:1 32:0.375 33:0.5 34:-1 35:0.5 36:0.5 37:-1 38:-1 39:1 40:-0.5 41:0.5 42:-1 43:0.5 44:0.875 45:-0.875 46:-1 47:1 48:-0.75 49:0.5 50:-1 51:0.125 52:1 53:0.75 54:0.625 55:1 56:-1 57:-1 58:-1 59:-0.625 60:1 61:0.875 62:1 63:0.75 
-0.09724829314169114 1:1 2:1 3:1 4:0.75 5:-0.875 6:-1 7:-1 8:1 9:1 10:1 11:1 12:1 13:-0.5 14:-1 15:-1 16:1 17:0.25 18:-1 19:-0.125 20:1 21:-0.75 22:-1 23:-1 24:1 26:-1 28:0.75 29:-1 30:-1 31:-1 32:1 34:-1 36:0.625 37:-1 38:-1 39:-1 40:1 42:-1 43:-0.375 44:1 45:-0.25 46:-1 47:-1 48:-0.25 49:-0.625 50:-1 51:-1 52:1 53:1 54:0.625 55:0.625 56:-1 57:-1 58:-1 59:-1 60:-0.375 61:1 62:1 63:1 
-1 0:-0.5 1:-0.5 2:1 3:1 4:-0.25 5:-1 6:-1 7:-0.625 8:1 9:1 10:1 11:0.25 12:-1 13:0.5 14:-0.875 15:0.875 16:1 17:1 18:1 19:0.5 20:-0.5 21:1 22:0.625 23:1 24:0.25 25:-0.375 26:0.875 27:0.5 28:-0.875 29:0.625 30:1 31:1 32:-1 33:-1 34:0.625 35:0.25 36:-1 37:-0.75 38:1 39:1 40:-1 41:-1 42:1 44:-1 45:-1 46:0.75 47:1 48:-1 49:-1 50:0.75 51:0.75 52:-1 53:-1 54:1 55:1 56:-1 57:-1 58:0.5 59:1 60:0.5 61:0.625 62:1 63:0.75 
-0.6843770742217687 1:1 2:1 3:1 4:1 5:-0.5 6:0.375 7:1 8:1 9:1 10:-0.625 12:1 13:-0.625 14:-0.875 15:0.5 17:1 18:-1 19:-0.5 20:1 21:-1 22:-1 24:0.5 25:1 26:-1 27:-0.5 28:1 29:-0.75 30:-1 31:0.125 32:1 33:1 34:-1 35:-0.5 36:1 37:1 38:1 39:1 40:1 41:1 42:-1 43:0.125 44:0.875 45:0.125 46:0.125 47:1 48:1 49:0.125 50:-1 51:0.5 52:1 53:0.5 54:0.625 55:1 56:0.5 57:-0.25 58:-1 59:-0.375 60:1 61:1 62:1 63:0.75 
-1 0:1 2:-0.5 3:0.25 4:0.125 5:-1 6:1 7:-0.5 8:1 9:1 10:1 11:1 12:1 13:-0.875 14:0.25 15:0.5 16:1 17:1 18:1 19:1 20:1 21:-0.5 22:0.5 23:1 24:1 25:1 26:-0.25 27:0.25 28:1 29:-0.5 30:-0.375 31:0.875 33:1 34:-1 35:-0.5 36:1 37:-0.75 38:-1 39:0.25 41:1 42:-1 44:1 45:-1 46:-1 48:0.75 49:1 50:-1 51:-0.375 52:1 53:-0.25 54:-1 56:0.75 57:1 58:-1 59:-0.5 60:1 61:1 62:0.5 63:1 
-1 0:1 1:1 2:1 3:0.5 4:-0.625 5:1 6:0.5 7:-1 8:-0.125 9:-0.75 10:0.875 11:0.375 12:-1 13:-0.25 14:1 15:-0.375 16:-1 17:-1 18:0.5 20:-1 21:-1 22:1 23:0.75 24:-1 25:-1 26:0.5 27:0.375 28:-1 29:-0.875 30:1 31:1 32:-1 33:-1 34:0.5 35:1 36:1 37:1 38:1 39:1 40:-1 41:-1 42:-0.625 43:1 44:0.875 45:0.125 47:1 48:-1 49:-1 50:-1 51:0.5 52:1 53:0.625 54:0.625 55:1 56:-1 57:-1 58:-1 59:-0.375 60:1 61:1 62:1 63:0.75 
-1 0:-0.375 1:0.75 2:1 3:1 4:0.75 5:-1 6:0.5 7:1 8:0.5 9:1 10:1 11:1 12:1 13:-0.625 15:1 16:-0.125 17:1 18:-0.875 19:-0.25 20:1 21:-0.75 22:-1 23:0.25 25:0.875 26:-1 27:-0.5 28:1 29:-1 30:-1 32:0.5 33:1 34:-1 35:-0.5 36:1 37:-0.375 38:-1 39:0.375 40:0.5 41:1 42:-1 43:-0.75 44:1 45:1 46:0.625 47:1 48:1 49:0.875 50:-1 51:-0.125 52:1 53:1 54:1 56:0.5 57:-0.125 58:-1 59:-0.5 60:1 61:1 62:1 63:-0.875 
-0.05146139597192327 0:0.5 1:1 2:1 3:1 4:0.5 5:-1 7:1 8:1 9:0.125 10:-0.25 11:1 12:0.5 13:-1 14:-0.875 15:0.625 16:1 18:-1 19:0.5 20:0.5 21:-1 22:-1 24:1 25:-0.375 26:-1 27:0.5 28:0.75 29:-1 30:-1 32:1 33:-1 34:-1 35:0.375 36:1 37:1 38:0.5 39:0.75 40:1 41:-1 42:-1 43:-0.5 44:0.625 45:0.75 46:1 47:-0.25 48:0.875 49:-1 50:-1 52:1 53:1 54:1 55:0.5 56:-0.75 57:-1 58:-1 59:-0.25 60:0.75 61:1 62:0.5 63:-1 
-0.03087034448601379 0:1 1:1 2:1 3:-0.5 4:-1 5:1 6:0.125 7:-1 8:0.125 9:-0.125 10:1 11:-0.5 12:-1 13:0.125 14:0.875 15:-0.375 16:-1 17:-1 18:0.625 19:-0.5 20:-1 21:-1 22:1 23:0.75 24:-1 25:-1 26:1 27:0.125 28:-1 29:-0.75 30:1 31:0.625 32:-1 33:-1 34:0.75 35:1 36:1 37:1 38:1 39:1 40:-1 41:-1 42:-0.625 43:0.875 44:1 45:1 46:0.75 47:1 48:-1 49:-1 50:-1 51:0.375 52:1 53:1 54:1 55:1 56:-1 57:-1 58:-1 59:-0.625 60:1 61:1 62:1 63:0.625 
-0.6250123488100078 0:0.75 1:-0.5 2:-0.5 3:1 4:0.25 5:-1 6:-1 7:-1 8:1 9:1 10:1 11:1 12:0.875 13:-0.75 14:-1 15:-1 16:1 17:1 18:1 19:1 20:1 21:-0.5 22:-1 23:-1 24:1 25:0.875 26:0.5 27:0.75 28:1 29:-0.625 30:-1 31:-1 32:0.5 33:0.5 34:-1 35:-0.375 36:1 37:-1 38:-1 39:-1 41:0.5 42:-1 43:-0.5 44:1 45:-1 46:-1 47:-1 49:0.5 50:-1 51:-0.5 52:1 53:-0.5 54:-1 55:-1 57:0.5 58:-1 59:-0.5 60:1 61:0.875 62:0.5 63:0.875 
-1 0:1 1:1 2:1 3:-0.5 4:1 5:1 6:-0.875 7:-1 8:1 9:1 10:0.5 11:-0.75 12:0.75 13:1 14:0.75 15:-1 16:1 17:1 18:-0.5 19:-1 20:-0.25 21:1 22:1 23:-1 24:1 25:1 26:0.625 27:-1 28:-0.75 29:0.75 30:1 31:0.25 32:0.5 33:1 34:1 35:0.5 36:0.25 37:1 38:1 39:1 40:-0.75 41:0.375 42:0.625 43:1 44:1 45:1 46:1 47:1 48:-1 49:-1 50:-0.75 51:0.25 52:1 53:1 54:0.125 55:1 56:-1 57:-1 58:-1 59:0.25 60:1 61:1 62:1 63:0.5 
-0.6982067041989212 1:1 3:-1 4:-1 5:-1 6:-1 7:-1 8:1 9:1 10:0.875 11:-0.125 12:-0.75 13:0.25 14:-1 15:-1 16:1 17:1 18:1 19:0.5 20:-0.5 21:1 22:0.375 23:0.375 24:0.375 25:-0.125 26:1 27:0.5 28:-0.75 29:0.875 30:1 31:1 32:0.5 33:-0.5 34:1 35:0.125 36:-1 37:-0.25 38:1 39:1 40:-1 41:-0.5 42:1 43:0.875 44:-0.75 45:-0.125 46:1 47:1 48:-1 49:-0.875 50:0.75 51:1 52:1 53:1 54:1 55:-0.25 56:-1 57:-1 58:-0.375 59:0.75 60:0.625 61:1 62:0.75 63:-1 
-0.9680099100453088 1:1 2:0.75 3:-0.5 4:-1 5:-1 6:-1 7:-1 8:1 9:1 10:1 11:1 12:0.25 13:-0.875 15:-0.875 16:1 17:0.375 18:-0.125 19:1 20:0.5 21:-0.5 22:1 24:1 26:-0.5 27:1 29:-0.875 30:0.75 31:0.875 32:1 34:-0.5 35:1 37:-1 38:-0.5 39:1 41:-0.5 42:-0.875 43:1 44:0.875 45:-0.25 47:1 48:-1 49:-1 50:-1 51:0.375 52:1 53:1 54:1 55:1 56:-1 57:-1 58:-1 59:-0.75 60:0.625 61:0.125 62:1 63:0.125 
-1 1:1 2:1 3:1 4:1 5:-1 6:0.75 7:1 9:0.75 10:-0.625 11:0.625 12:1 13:-1 14:-0.875 15:0.75 17:0.5 18:-1 20:1 21:-1 22:-1 23:0.5 24:1 25:0.625 26:-1 28:1 29:0.125 30:-0.25 31:1 32:1 33:0.75 34:-1 35:-0.5 36:1 37:1 38:0.75 40:1 42:-1 44:0.75 45:-0.125 46:0.375 48:1 49:-0.625 50:-1 51:0.875 52:0.875 54:1 55:0.875 56:0.875 57:-1 58:-1 60:1 61:1 62:1 63:0.25 
-1 0:1 1:1 2:1 3:1 5:-0.5 6:1 7:1 8:1 9:-0.25 10:0.125 11:1 12:-0.5 13:-0.75 14:0.875 15:1 16:1 17:-0.5 18:-0.5 19:1 20:-0.5 21:-1 22:-0.625 23:1 24:1 25:-0.5 26:-0.5 27:1 29:-1 30:-0.625 31:1 32:1 33:-0.5 34:-0.75 35:1 36:1 37:0.75 38:1 39:1 40:1 41:-1 42:-1 43:-0.25 44:1 45:1 46:1 47:1 48:1 49:-0.5 50:-1 51:-1 52:-0.25 55:0.125 56:1 57:-0.625 58:-1 59:-1 60:-1 61:-1 62:-1 63:-1 
-1 0:1 1:1 2:1 3:1 5:-1 6:1 7:1 8:1 9:-0.25 10:-0.375 11:1 13:-1 14:-0.375 15:1 16:1 17:-0.5 18:-1 19:1 20:0.125 21:-1 22:-1 23:0.625 24:1 25:-0.5 26:-1 27:1 28:0.75 29:-0.375 30:-0.125 31:1 32:1 33:-0.75 34:-1 35:0.125 36:1 37:1 38:1 39:0.875 40:0.375 41:-1 42:-1 44:1 45:0.5 46:0.75 47:0.875 48:-1 49:-1 50:-1 51:0.5 52:1 53:-0.25 54:0.75 55:1 56:-1 57:-1 58:-1 59:-0.5 60:1 61:1 62:1 63:1 
-1 0:1 1:1 2:-0.5 3:-0.5 4:1 5:1 6:0.5 7:-1 8:1 9:1 10:-0.625 11:-0.875 12:0.125 13:1 14:0.75 15:-0.75 16:1 17:1 18:-1 19:-1 20:-0.75 21:0.75 22:1 23:0.875 24:1 25:1 26:-0.125 27:-1 28:-0.375 29:1 30:0.75 31:-0.125 32:-0.25 33:1 34:1 35:1 36:1 37:1 38:0.25 39:-0.125 40:-0.875 42:1 43:0.75 44:-0.5 45:-0.5 46:0.25 47:1 48:-1 49:-1 50:0.75 51:1 52:1 53:1 54:1 55:1 56:-1 57:-1 58:-0.5 59:0.75 60:1 61:1 62:0.875 
-0.2055782134100825 0:1 1:1 3:-1 4:1 5:1 6:0.5 7:-1 8:0.25 9:1 10:-0.25 11:-1 12:-0.5 13:1 14:0.875 15:-0.75 17:1 18:-0.375 19:-1 20:-1 21:1 22:1 23:0.875 25:1 26:0.5 27:-0.5 28:-0.375 29:1 30:0.625 31:-0.5 32:-0.75 33:0.75 34:1 35:1 36:1 37:1 38:0.25 39:-0.125 40:-1 41:-0.5 42:0.875 43:1 44:-0.375 45:-0.5 47:1 48:-1 49:-1 50:0.25 51:1 52:1 53:1 54:1 55:1 56:-1 57:-1 58:-0.75 59:0.625 60:1 61:1 62:0.875 
