svm_type c_svc
kernel_type rbf
gamma 0.015873
nr_class 2
total_sv 43
rho 0.0200442
label 0 1
probA -5.41451
probB -0.0904872
nr_sv 26 17
SV
0.9479673285182689 0:0.5 2:-0.125 3:0.375 4:1 5:1 6:0.625 7:0.5 8:1 9:1 10:1 11:1 12:1 13:1 14:0.875 16:1 17:1 18:1 19:1 20:1 21:1 22:1 23:1 24:0.75 25:1 26:0.25 28:0.75 29:0.875 30:0.5 31:0.5 33:1 34:-0.5 35:-1 36:1 37:0.875 38:-1 39:-1 40:0.25 41:1 42:-0.5 43:-1 44:1 45:1 46:-1 47:-1 48:1 49:1 50:-0.5 51:-1 52:1 53:1 54:-1 55:-1 56:0.375 57:1 58:-1 59:-1 60:1 61:0.5 62:-1 63:-1 
1 0:-0.25 1:1 2:1 3:1 4:1 5:1 6:1 7:1 9:1 10:1 11:1 12:1 13:1 14:1 15:1 17:1 18:0.625 19:0.5 20:1 21:0.875 22:-0.25 23:-0.5 25:0.75 26:-1 27:-1 28:1 29:0.5 30:-1 31:-1 32:1 33:1 34:-1 35:-1 36:1 37:1 38:-1 39:-1 40:1 41:1 42:-1 43:-1 44:0.75 45:1 46:-1 47:-1 48:1 49:1 50:-1 51:-1 52:0.5 53:1 54:-1 55:-1 56:1 57:1 58:-1 59:-1 60:0.125 61:0.375 62:-1 63:-1 
0.1277872196666199 0:-1 1:-1 2:-0.25 3:-1 4:-0.5 6:1 7:0.25 8:0.875 9:0.875 10:1 11:1 12:1 13:1 14:1 15:1 16:1 17:1 18:1 19:1 20:1 21:1 22:1 23:1 24:1 25:0.75 26:0.75 27:0.75 28:-0.125 29:-0.5 30:-0.5 31:-0.125 32:-1 33:-1 34:0.5 35:0.875 36:-1 37:-1 38:-1 39:-1 40:-1 41:-1 42:0.5 43:1 44:-1 45:-1 46:-1 47:-1 48:-1 49:-1 50:0.5 51:1 52:-1 53:-1 54:-1 55:-1 56:-1 57:-1 58:0.5 59:1 60:-1 61:-1 62:-1 63:-1 
0.285204253115137 0:0.5 1:1 2:1 3:1 4:1 5:1 6:1 7:1 8:1 9:1 10:1 11:1 12:1 13:1 14:1 15:1 16:1 17:1 18:1 19:1 20:0.875 21:1 22:0.875 23:0.875 24:-0.5 25:-0.5 26:0.5 27:1 28:-1 29:-1 30:-1 31:-1 32:-1 33:-1 34:0.5 35:1 36:-1 37:-1 38:-1 39:-1 40:-1 41:-1 42:0.5 43:1 44:-1 45:-1 46:-1 47:-1 48:-1 49:-1 50:0.5 51:1 52:-1 53:-1 54:-1 55:-1 56:-1 57:-1 58:0.5 59:1 60:-0.625 61:-1 62:-1 63:-1 
0.9032106667174321 0:1 1:1 2:1 3:1 4:1 5:1 6:1 7:1 8:1 9:1 10:1 11:1 12:1 13:1 14:1 15:0.75 16:1 17:0.75 19:1 20:0.5 21:-1 22:-0.5 23:-0.75 24:1 26:-1 27:0.75 28:1 30:0.75 31:-0.5 32:1 33:0.5 34:-0.625 35:1 36:1 37:0.625 38:0.125 39:-1 40:1 41:0.875 42:0.875 43:1 44:1 45:0.5 46:-0.125 47:-1 48:1 49:1 50:1 51:1 52:1 53:0.875 54:-0.625 55:-1 56:1 57:1 58:0.375 59:0.625 60:0.75 61:-0.125 62:-1 63:-1 
0.9317400176295053 0:1 1:1 2:1 3:1 4:1 5:1 6:1 7:1 8:1 9:1 10:1 11:1 12:1 13:1 14:1 16:1 17:0.5 18:0.5 19:1 20:-0.25 21:-0.75 22:-0.5 23:1 24:1 25:-0.5 26:-1 27:1 29:0.25 30:1 31:1 32:1 34:-0.25 35:1 36:0.5 37:0.625 38:-0.625 39:0.625 40:1 41:0.375 43:1 44:0.25 45:-0.25 46:-1 47:0.125 48:1 49:0.5 51:1 52:0.625 53:-0.5 54:-1 55:0.25 56:1 57:0.375 58:-0.25 59:0.5 60:0.875 61:-0.875 62:-1 63:0.125 
0.5186614888309965 0:-1 1:-1 2:-1 3:-1 4:-1 5:-0.625 7:0.5 8:0.25 13:0.5 14:1 15:0.625 16:1 17:1 18:1 19:1 20:1 21:1 22:1 23:1 24:1 25:1 26:0.5 27:1 28:0.875 29:0.875 30:1 31:1 32:1 33:0.5 34:-1 35:0.5 36:0.5 37:-0.5 39:0.625 40:0.5 41:0.75 42:-1 43:0.75 44:0.5 45:1 46:0.5 47:-0.625 49:1 50:-1 51:1 52:0.5 53:0.625 54:-1 55:-1 57:0.875 58:-0.125 59:1 60:1 61:-0.125 62:-1 63:-1 
1 0:1 1:1 2:1 3:1 4:1 5:1 6:1 7:1 8:1 9:1 10:1 11:1 12:1 13:1 14:1 15:1 16:1 17:0.375 19:1 20:0.75 21:1 22:1 23:1 24:1 25:-0.5 26:-1 27:1 29:-0.5 30:-0.5 31:0.75 32:1 33:-0.5 34:-1 35:1 37:-1 39:0.5 40:1 42:-0.5 43:1 44:0.5 45:1 46:0.5 48:1 49:0.5 51:1 52:0.25 53:1 54:-0.5 55:-1 56:1 57:0.5 58:0.25 59:1 60:0.75 62:-1 63:-1 
0.2695400952899671 2:1 3:0.5 4:0.75 5:1 6:1 7:0.5 8:1 9:1 10:1 11:1 12:1 13:1 14:1 15:0.75 16:1 17:0.75 18:0.875 19:1 20:0.75 21:0.625 22:0.875 23:1 24:1 25:-0.75 26:0.375 27:1 28:-0.75 29:-0.875 30:0.125 31:0.875 32:1 33:-1 34:0.25 35:1 36:0.5 37:1 38:1 39:1 40:1 41:-0.75 42:0.5 43:1 44:0.25 45:0.75 46:-0.5 47:1 48:1 49:-0.5 50:0.5 51:1 52:0.5 53:-1 54:-1 55:-0.625 56:1 57:-0.5 58:0.375 59:1 60:1 61:-0.625 62:-1 63:-1 
0.1608901465466096 2:0.5 3:1 4:1 5:1 6:1 7:1 8:1 9:1 10:1 11:1 12:1 13:1 14:1 15:1 16:1 17:1 18:0.75 19:1 20:0.75 21:0.5 22:0.5 23:0.75 24:1 25:0.25 26:-0.75 27:1 29:-1 30:-1 31:-0.25 32:1 34:-1 35:1 36:0.5 37:1 38:-0.5 39:-1 40:1 41:0.5 42:-1 43:1 44:0.25 45:0.75 46:-0.5 47:-1 48:1 49:1 50:-0.875 51:1 52:0.75 53:0.375 54:-1 55:-1 56:0.75 57:1 58:-0.625 59:0.75 60:1 61:0.375 62:-1 63:-1 
0.001141262079567877 0:-1 1:-1 2:-1 3:-1 4:-1 5:-1 6:-0.5 7:0.25 8:-0.75 11:0.375 13:0.5 14:1 15:1 16:1 17:1 18:1 19:1 20:1 21:1 22:1 23:1 24:1 25:1 26:0.625 27:1 28:0.75 29:0.875 30:0.5 31:1 32:1 34:-1 35:1 36:0.125 37:-0.375 39:0.875 40:1 41:0.25 42:-0.25 43:1 44:0.875 45:0.75 46:-0.5 47:-0.375 48:1 49:0.5 50:0.875 51:1 52:0.875 53:0.125 54:-1 55:-1 56:0.75 57:0.5 58:0.5 59:1 60:1 61:-0.625 62:-1 63:-1 
0.6810948724628334 0:1 1:1 2:1 3:1 4:1 5:1 6:1 7:1 8:1 9:1 10:1 11:1 12:1 13:1 14:1 15:1 16:1 17:-0.25 19:1 20:0.875 21:0.875 22:1 23:1 24:1 25:-1 26:-1 27:1 28:0.25 29:-1 30:-1 31:0.5 32:1 33:-0.625 35:1 36:0.875 37:0.875 38:0.5 39:1 40:1 41:-0.5 43:1 44:0.875 45:0.75 46:-1 47:-0.125 48:1 49:-0.5 50:0.125 51:1 52:1 53:0.5 54:-1 55:-1 56:0.25 57:-0.875 58:-1 59:-0.5 60:0.75 61:0.5 62:-1 63:-1 
0.3470423873831866 0:1 1:1 2:1 3:1 4:1 5:1 6:1 7:1 8:1 9:1 10:1 11:1 12:1 13:1 14:1 15:1 16:1 17:0.75 18:-0.25 19:1 20:0.25 21:0.25 22:0.5 23:1 24:1 26:-1 27:1 29:-1 30:-1 31:-0.5 32:1 34:-1 35:1 37:-1 38:-1 39:-1 40:1 41:0.5 42:-0.5 43:1 44:0.25 45:-0.25 46:-1 47:-1 48:1 49:0.75 50:-0.5 51:1 52:0.875 53:0.5 54:-1 55:-1 56:0.75 57:-0.125 58:-0.875 59:0.5 60:0.75 61:0.375 62:-1 63:-1 
0.6843435210696909 0:1 1:1 2:1 3:0.875 4:1 5:1 6:1 7:1 8:1 9:1 10:1 11:-0.25 12:1 13:1 14:1 15:1 16:1 17:1 19:-1 20:0.5 22:1 23:1 24:1 25:1 26:0.75 27:-0.375 28:1 29:0.25 30:1 31:1 32:1 33:1 34:1 35:0.5 36:1 37:1 38:1 39:1 40:1 41:1 42:1 43:1 44:-1 45:0.125 46:0.5 47:0.5 48:1 49:1 50:1 51:0.625 52:-1 53:-1 54:-1 55:-1 56:0.5 57:1 58:0.5 59:-0.75 60:-1 61:-1 62:-1 63:-1 
0.03376563563822275 0:1 1:1 2:1 3:1 4:1 5:1 6:1 7:1 8:1 9:1 10:1 11:1 12:1 13:1 14:1 15:1 16:1 17:1 18:0.5 19:-0.5 20:0.25 21:1 22:1 23:1 24:1 25:1 26:0.5 27:-1 28:-0.625 29:0.5 30:0.625 31:1 32:1 33:1 34:0.5 35:-1 36:-1 37:-1 38:-0.5 39:1 40:1 41:1 42:0.5 43:-1 44:-1 45:-1 46:-1 47:0.125 48:1 49:1 50:-0.25 51:-1 52:-1 53:-1 54:-1 55:-1 56:1 57:0.75 58:-0.75 59:-1 60:-1 61:-1 62:-1 63:-1 
0.1125893818937881 1:1 2:1 3:1 4:1 5:1 6:1 7:0.5 8:-0.75 9:1 10:1 11:1 12:1 13:1 14:1 15:1 16:-1 17:0.5 18:1 19:1 20:1 21:1 22:1 23:1 24:-0.25 25:1 26:0.25 27:0.5 28:1 29:1 30:1 31:1 32:1 33:1 34:-1 35:-0.5 36:1 37:0.125 39:0.625 40:1 41:1 42:-1 43:-0.5 44:1 45:-0.5 46:-1 47:-0.625 48:1 49:1 50:-1 51:-0.5 52:1 53:-0.5 54:-1 55:-1 56:0.125 57:1 58:-1 59:-0.5 60:1 61:-0.5 62:-1 63:-1 
0.07211552992356843 1:1 2:0.5 3:-0.5 4:1 5:1 6:1 7:1 8:0.25 9:1 11:-0.375 12:1 13:0.5 15:0.5 16:1 17:1 20:1 22:-1 23:-1 24:0.625 25:1 26:0.5 28:1 29:-0.125 30:-1 31:-1 32:-1 33:0.625 34:0.25 35:-0.625 37:-0.875 38:-1 39:-1 40:-1 41:0.625 42:-1 43:-1 44:-1 45:-1 46:-1 47:-1 48:-1 49:0.5 51:-1 52:-1 53:-1 54:-1 55:-1 56:-0.625 57:0.875 58:0.625 59:0.375 60:-0.5 61:-1 62:-1 63:-1 
0.345651720351169 0:1 1:1 2:1 3:1 4:1 5:0.5 6:0.25 7:-0.625 8:1 9:0.75 10:0.875 11:1 12:1 13:1 14:1 15:0.875 16:1 18:-0.625 19:0.25 20:1 21:1 22:1 23:1 24:0.25 26:-1 27:-0.5 28:0.5 29:-1 30:-0.5 31:-0.5 34:-1 35:-0.5 36:0.5 37:-1 38:-1 39:-1 42:-1 43:-0.5 44:0.5 45:-1 46:-1 47:-1 50:-1 51:-0.5 52:0.5 53:-1 54:-1 55:-1 58:-1 59:-0.5 60:0.5 61:-1 62:-1 63:-1 
0.2728273382364518 0:1 1:1 2:1 3:1 4:1 5:1 6:1 8:1 9:1 10:1 11:1 12:0.5 13:0.75 14:0.875 15:0.5 16:1 17:-0.125 18:0.875 19:1 20:-1 21:-0.75 22:-0.625 23:1 24:1 25:-0.5 26:0.5 27:1 28:-1 29:-1 30:-1 31:0.75 32:1 33:-0.5 34:0.5 35:1 36:-1 37:-1 38:-1 40:1 41:-0.5 42:0.5 43:1 44:-1 45:-1 46:-1 48:1 49:-0.5 51:1 52:-1 53:-1 54:-1 56:1 57:-0.5 58:-0.5 59:-0.25 60:-1 61:-1 62:-1 
0.4158066432116394 1:1 2:-0.625 3:-0.125 4:1 5:1 6:1 7:1 9:0.5 10:-1 11:-1 12:1 13:-1 14:-0.75 15:-0.25 17:0.5 18:-1 19:-0.875 20:1 21:-1 22:-1 23:-1 25:0.75 26:-1 27:-0.5 28:1 29:-1 30:-1 31:-1 32:0.5 33:1 34:-1 35:-0.5 36:1 37:-1 38:-1 39:-1 40:0.5 41:0.875 42:-1 43:-0.875 44:0.375 45:-1 46:-1 47:-1 48:1 49:0.375 50:-1 51:-1 52:-1 53:-1 54:-1 55:-1 56:1 57:-0.125 58:-1 59:-1 60:-1 61:-1 62:-1 63:-1 
0.4658813396325985 0:1 1:1 2:1 3:1 4:1 5:1 6:1 7:-1 8:0.75 9:-1 10:0.25 11:1 12:-0.5 13:0.5 14:1 15:0.75 16:0.5 17:-1 19:0.625 20:-1 21:-1 23:1 24:0.5 25:-1 27:1 28:-1 29:-1 31:1 32:0.5 33:-1 35:1 36:-1 37:-1 38:-0.25 39:1 40:0.5 41:-1 43:1 44:-1 45:-1 46:-1 47:-1 48:0.875 49:-1 51:1 52:-1 53:-1 54:-1 55:-1 56:1 57:-1 59:1 60:-1 61:-1 62:-1 63:-1 
0.2145471678943448 0:0.25 1:0.75 2:1 3:-0.375 4:-0.625 5:-1 6:-1 7:-1 8:1 9:1 10:1 11:1 12:1 13:1 14:1 15:1 16:1 17:0.875 18:-0.5 19:0.75 20:1 21:1 22:1 23:1 24:1 26:-1 27:-0.5 28:1 29:-0.875 30:-0.25 31:0.875 32:1 34:-1 35:-0.5 36:1 37:-1 38:-1 39:-1 40:1 42:-1 43:-0.25 44:1 45:-1 46:-1 47:-1 48:1 50:-1 52:1 53:-1 54:-1 55:-1 56:1 58:-1 59:-0.375 60:0.75 61:-1 62:-1 63:-1 
0.3263411078176069 0:1 1:1 2:1 3:1 4:1 5:0.75 6:-0.25 7:-0.5 8:1 9:0.875 10:-0.5 11:0.5 12:1 13:1 14:1 15:1 16:1 18:-1 19:-0.5 20:1 21:-0.625 22:0.25 23:1 24:1 26:-1 27:-0.5 28:1 29:-1 30:-1 31:-0.625 32:1 34:-1 35:-0.375 36:1 37:-1 38:-1 39:-1 40:1 42:-1 44:1 45:-1 46:-1 47:-1 48:1 50:-1 51:-0.375 52:0.625 53:-1 54:-1 55:-1 56:0.5 57:-0.875 58:-1 59:-1 60:-1 61:-1 62:-1 63:-1 
0.003232675444177399 0:0.25 1:1 2:1 3:1 4:1 5:1 6:1 7:1 8:1 9:1 10:1 11:1 12:1 13:1 14:1 15:1 16:1 17:1 18:0.5 19:0.625 20:1 21:0.875 22:0.625 23:0.625 24:1 25:0.5 26:-1 27:-1 28:1 29:-0.25 30:-1 31:-1 32:1 33:0.5 34:-1 35:-1 36:1 38:-1 39:-1 40:1 41:0.5 42:-1 43:-1 44:1 46:-1 47:-1 48:1 49:0.5 50:-1 51:-1 52:1 54:-1 55:-1 56:1 57:0.5 58:-1 59:-1 60:0.875 61:-0.25 62:-1 63:-1 
0.6386964173948538 0:-1 1:-1 2:-1 3:-1 4:-1 5:-1 7:0.5 8:1 9:0.75 10:0.875 11:1 12:1 13:1 14:1 15:0.875 16:1 17:1 18:1 19:1 20:1 21:1 22:1 23:1 24:1 25:0.625 26:-0.125 27:1 28:-0.125 29:0.25 30:-0.25 31:0.875 32:1 33:-0.5 34:-1 35:1 38:1 39:1 40:1 41:-0.375 42:-0.5 43:1 44:0.375 45:1 46:0.875 47:0.875 48:1 50:-0.25 51:1 52:0.5 54:-1 55:-1 56:1 58:-0.25 59:1 60:1 62:-1 63:-1 
0.1634695625419516 0:1 1:1 2:1 3:1 4:1 5:1 6:1 7:1 8:1 9:1 10:1 11:1 12:1 13:0.5 14:0.5 15:0.5 16:1 17:0.375 18:-1 19:-0.125 20:1 21:-0.625 22:-1 23:-1 24:1 26:-1 27:-0.5 28:1 29:-1 30:-1 31:-1 32:1 33:0.125 34:-1 35:-0.5 36:1 37:-0.875 38:-1 39:-1 40:1 41:0.5 42:-1 43:-0.5 44:1 45:-0.5 46:-1 47:-1 48:1 49:0.5 50:-1 51:-0.5 52:1 53:-0.5 54:-1 55:-1 56:1 57:0.5 58:-1 59:-0.625 60:0.5 61:-0.625 62:-1 63:-1 
-0.9481818280523432 0:-0.375 1:1 2:1 3:1 4:1 5:1 6:0.375 7:-1 8:0.75 9:1 10:1 11:1 12:1 13:1 14:1 15:-0.75 16:1 17:0.75 18:0.5 19:0.5 20:0.875 21:0.75 22:1 23:0.375 24:1 25:-0.625 26:-1 27:0.5 28:-0.5 29:-1 30:0.75 31:1 32:1 33:-0.875 34:-1 35:1 36:-0.5 37:-1 38:0.375 39:1 40:1 41:0.375 42:-1 43:1 44:0.25 46:0.875 47:0.625 48:1 49:1 50:-1 51:1 52:1 53:1 54:1 55:-0.625 56:0.375 57:1 58:-1 59:1 60:1 61:1 62:0.625 63:-1 
-0.8720869156675248 0:-0.625 1:0.5 2:1 3:1 5:-0.375 6:-0.5 7:-0.125 8:1 9:1 10:1 11:1 12:1 13:1 14:1 15:1 16:1 17:1 18:-0.375 19:-0.375 21:0.25 22:0.75 23:0.5 24:1 25:0.25 26:-1 27:-1 28:-0.125 30:-0.625 31:-0.75 32:1 34:-1 35:-1 36:1 37:1 38:-1 39:-1 40:1 41:0.875 42:-0.875 43:-1 44:1 45:1 46:-1 47:-1 48:1 49:1 50:0.375 51:-1 52:1 53:0.875 54:-1 55:-1 56:-0.5 57:0.875 58:0.75 59:-1 60:1 61:1 62:1 63:1 
-0.1785023682683739 0:0.5 1:1 2:1 3:1 4:1 5:1 6:1 7:0.25 8:1 9:0.625 12:0.25 13:0.5 14:0.5 15:1 16:1 17:-0.625 18:-1 19:-0.625 21:-1 22:-1 23:0.375 24:0.875 25:-1 26:-1 28:1 29:-0.5 30:-1 31:-1 32:1 33:-0.125 34:-1 36:1 37:-0.5 38:-1 39:-1 40:1 41:1 42:-0.625 44:1 45:0.75 46:0.5 47:-0.25 48:0.125 49:1 50:-0.25 51:-0.125 52:1 53:1 54:1 55:1 56:-0.875 57:0.25 58:-0.25 59:-0.75 60:1 61:0.25 
-0.7110443771120065 0:0.5 1:1 2:1 3:1 4:1 5:1 6:1 7:0.75 8:1 9:1 10:1 11:1 12:1 13:1 14:1 15:1 16:1 17:-0.375 18:-0.75 19:-0.25 21:0.5 22:0.25 23:0.875 24:0.5 25:-1 26:-1 27:0.125 28:0.25 29:-1 30:-1 31:-1 32:0.125 33:-1 34:-1 35:1 36:0.75 37:-1 38:-1 39:-1 40:1 41:-0.25 42:-1 43:1 44:0.625 45:-1 46:-1 47:-0.75 48:1 49:1 50:-1 51:1 52:1 53:1 54:1 55:1 57:-0.125 58:-1 59:0.875 60:0.5 61:0.5 62:0.375 
-0.5556794681385255 0:-0.375 1:1 2:1 3:1 4:1 5:1 6:1 7:1 9:1 10:0.25 11:0.5 12:0.5 13:1 14:1 15:1 17:0.375 18:-1 19:-1 20:-0.5 21:-0.625 22:-0.75 23:-0.5 24:0.5 25:-0.25 26:-1 27:-0.75 28:1 29:0.25 30:-1 31:-1 32:1 33:0.25 34:-1 35:-0.5 36:1 38:-1 39:-1 40:1 41:1 42:-0.375 43:-0.5 44:1 45:0.375 46:-0.5 47:-0.5 48:-0.125 49:1 51:-0.5 52:1 53:1 54:1 55:1 56:-1 57:0.875 59:-0.75 60:1 
-0.9276744121355595 0:0.5 1:1 2:1 3:1 4:1 5:1 6:1 7:1 8:1 9:1 10:1 11:1 12:1 13:1 14:1 15:1 16:1 18:-0.5 19:-0.5 23:0.5 24:0.75 25:-1 26:-1 27:-0.125 29:-1 30:-1 31:-0.875 32:0.25 33:-1 34:-1 35:1 36:1 37:-1 38:-1 39:-1 40:0.875 41:-0.875 42:-1 43:1 44:0.5 45:-1 46:-1 47:-1 48:1 49:0.625 50:-1 51:1 52:0.875 53:-0.125 54:0.25 55:0.5 56:1 57:1 58:-1 59:1 60:1 61:1 62:1 63:1 
-1 0:-1 1:-0.875 2:-0.25 3:0.25 4:0.875 5:0.625 6:1 7:0.25 8:-0.25 9:0.625 10:1 11:1 12:1 13:1 14:1 15:0.625 17:1 18:0.75 19:0.625 20:1 21:1 22:1 23:0.875 24:0.75 25:0.875 26:-0.875 27:-1 28:-0.75 29:-0.375 30:-0.125 31:-1 32:1 33:0.5 34:-1 35:-1 36:1 37:1 38:-1 39:-1 40:1 41:0.75 42:-0.625 43:-1 44:1 45:1 46:-1 47:-1 48:0.5 49:1 50:0.375 51:-1 52:1 53:0.75 54:-0.875 55:-1 56:-0.75 57:0.75 58:0.875 59:-1 60:0.75 61:1 62:1 63:1 
-0.9632065567953507 0:-1 1:-0.625 3:0.625 4:0.5 5:0.75 6:0.875 7:-0.25 8:-0.625 9:1 10:1 11:1 12:1 13:1 14:1 15:1 17:1 18:0.625 19:0.875 20:1 21:1 22:1 23:1 24:0.75 25:0.375 26:-1 27:-1 28:-0.5 29:-0.375 30:-0.125 32:1 33:-0.5 34:-1 35:-0.5 36:1 37:0.5 38:-1 39:-1 40:1 41:0.25 42:-1 43:-0.375 44:1 45:0.125 46:-1 47:-0.75 48:1 49:1 50:-0.25 51:-0.25 52:1 53:0.125 54:-1 55:-0.25 56:-0.125 57:1 59:-0.25 60:1 61:1 62:1 63:1 
-1 0:1 1:1 2:1 3:1 4:1 5:1 6:1 7:-1 8:1 9:1 10:1 11:1 12:1 13:1 14:1 15:0.125 16:1 17:0.5 18:0.125 21:0.125 22:1 23:1 24:0.625 25:-1 27:0.5 28:-0.75 29:-1 30:0.75 31:1 33:-1 34:0.875 35:1 36:-0.5 37:-1 38:0.625 39:1 40:1 41:-0.625 42:0.5 43:1 44:0.25 45:0.75 46:1 47:0.5 48:1 49:0.375 50:0.5 51:1 52:1 53:1 54:1 55:-0.75 56:1 57:0.5 59:1 60:1 61:1 62:-0.125 63:-1 
-0.8109654617429193 0:1 1:1 2:1 3:1 4:1 5:1 6:1 7:-0.25 8:0.75 9:-0.5 10:-0.5 11:0.25 12:0.5 13:0.625 14:1 15:0.5 16:-1 17:-1 18:-0.5 19:0.5 20:-1 21:-1 22:0.75 23:1 24:-1 25:-1 27:1 28:-1 29:-1 31:1 32:-1 33:-1 35:1 36:-1 37:-1 38:0.25 39:1 40:-1 41:-1 43:1 44:0.625 45:0.625 46:1 47:0.625 48:-1 49:-1 51:1 52:1 53:1 54:1 55:1 56:-1 57:-1 58:-0.875 59:-0.5 60:-0.5 61:-0.5 62:-0.125 63:1 
-0.3911239280468706 0:0.75 1:1 2:1 3:1 4:1 5:1 6:1 7:1 8:1 9:1 10:1 11:1 12:1 13:1 14:1 15:1 16:1 17:1 18:1 19:1 20:1 21:1 22:1 23:1 24:1 25:0.875 26:1 27:1 28:1 29:1 30:1 31:1 32:1 33:1 34:1 35:1 36:0.625 37:-0.625 38:0.625 39:1 40:1 41:1 42:1 43:1 44:1 45:1 46:1 47:1 48:1 49:1 50:1 51:1 52:1 53:1 54:1 55:1 56:1 57:1 58:1 59:1 60:1 61:1 62:1 63:1 
-0.1793066033377453 0:1 1:1 2:1 3:1 4:1 5:1 6:1 7:1 8:1 9:1 10:1 11:1 12:1 13:1 14:1 15:1 16:1 17:1 18:1 19:1 20:1 21:1 22:1 23:1 24:1 26:-1 27:0.625 28:0.875 29:0.375 30:0.75 31:1 32:1 33:0.125 34:-1 35:1 36:0.625 37:-0.5 38:0.375 39:1 40:1 41:0.875 42:-1 43:1 44:1 45:1 46:1 47:1 48:1 49:0.875 50:-1 51:1 52:1 53:1 54:1 55:1 56:1 57:0.875 58:-1 59:0.875 60:1 61:1 62:1 63:1 
-0.1350623719970062 0:1 1:1 2:1 3:1 4:1 5:1 6:1 7:1 8:1 9:1 10:1 11:1 12:1 13:1 14:1 15:1 16:1 17:1 18:1 19:1 20:1 21:1 22:1 23:1 24:1 25:0.125 27:1 28:0.75 29:0.5 30:0.875 31:1 32:1 33:-0.625 34:-0.75 35:1 36:0.25 37:-0.5 38:0.625 39:1 40:1 41:0.375 42:-1 43:1 44:1 45:1 46:1 47:1 48:1 49:1 50:-1 51:1 52:1 53:1 54:1 55:1 56:1 57:1 58:-1 59:0.625 60:1 61:1 62:1 63:1 
-0.3050254435029831 0:0.75 1:0.75 2:1 3:1 4:1 5:1 6:1 7:0.75 8:1 9:1 10:1 11:1 12:1 13:1 14:1 15:1 16:1 17:0.875 18:-0.625 19:-1 20:-1 21:-1 22:0.25 23:1 24:1 25:0.5 26:-1 27:-1 28:-1 29:-1 30:-1 31:1 32:1 33:0.625 34:-1 36:1 37:0.5 38:1 39:1 40:1 41:1 42:-0.375 44:1 45:1 46:1 47:1 48:1 49:1 51:0.375 52:1 53:1 54:1 55:1 56:0.625 57:1 59:-0.625 60:-0.5 61:-0.5 62:-0.5 63:-0.5 
-0.9270146083721739 1:1 2:1 3:1 4:1 5:1 6:1 7:1 8:0.75 9:1 10:1 11:1 12:0.75 13:1 14:1 15:1 16:1 17:1 18:1 19:1 20:0.25 21:0.375 22:1 23:1 24:1 25:0.875 26:0.375 27:0.625 28:0.125 29:-0.875 30:0.875 31:1 32:1 33:1 34:0.75 35:1 36:1 37:1 38:1 39:1 40:1 41:1 42:1 43:1 44:1 45:1 46:1 47:1 48:1 49:1 50:1 51:1 52:1 53:1 54:1 55:0.875 56:1 57:1 58:1 59:0.375 60:1 61:1 62:0.625 63:-0.75 
-0.01867343612080562 0:0.75 1:1 2:1 3:1 4:1 5:1 6:1 7:0.75 8:1 9:1 10:1 11:1 12:1 13:1 14:1 15:1 16:1 17:1 18:-0.125 19:-0.625 20:-1 21:-1 22:-0.25 23:1 24:1 25:0.5 26:-1 27:-1 28:-1 29:-1 30:-1 31:1 32:1 33:0.75 34:-1 36:1 37:0.75 38:0.625 39:1 40:1 41:1 42:-0.125 44:1 45:1 46:1 47:1 48:1 49:1 50:0.5 52:1 53:1 54:1 55:1 56:-0.25 57:1 58:0.5 59:-0.75 60:-0.5 61:-0.5 62:-0.5 63:-0.5 
-1 0:0.75 1:1 2:1 3:1 4:1 5:1 6:1 7:0.5 8:1 9:1 10:0.875 11:0.5 12:0.5 13:0.5 14:0.875 15:1 16:1 17:1 19:-0.75 20:-0.625 21:-1 23:1 24:1 25:1 26:-0.875 28:0.5 29:-1 30:-0.875 31:1 32:1 33:1 34:0.25 36:1 37:-1 38:-0.75 39:1 40:1 41:1 42:0.875 43:0.375 44:1 45:0.5 46:0.625 47:1 48:1 49:1 50:0.875 51:0.875 52:1 53:1 54:1 55:1 56:1 57:-0.125 58:-0.625 59:-0.625 60:-0.5 61:-0.5 62:-0.125 
