svm_type c_svc
kernel_type rbf
gamma 0.015873
nr_class 2
total_sv 40
rho -0.0288667
label 0 1
probA -5.65925
probB 1.04901
nr_sv 16 24
SV
0.5753183618505363 0:1 1:1 2:0.75 3:0.75 4:0.5 6:0.25 7:1 9:0.5 10:0.875 11:1 12:1 13:1 14:1 15:-1 16:-1 17:-1 18:-0.25 19:1 20:-1 22:0.625 23:1 24:-1 25:-1 26:-0.25 27:1 28:-1 29:-1 30:-0.5 31:1 32:1 33:1 34:1 35:1 36:-0.125 37:-0.125 38:-1 39:-1 40:0.5 41:0.5 42:0.75 43:1 44:1 45:1 46:1 47:-0.125 48:-1 49:-1 50:-1 51:-0.5 52:0.5 53:0.5 54:0.5 55:0.75 56:-1 57:-1 58:-1 59:-1 60:-1 61:-1 62:-1 63:0.75 
0.411809912217081 1:1 2:1 3:1 4:0.75 5:1 6:-0.75 7:-1 8:1 9:-0.125 10:0.75 11:1 12:1 13:1 14:1 15:0.875 16:1 17:-0.5 18:-1 19:-0.75 20:1 21:0.75 22:1 23:1 24:-0.5 25:-1 26:-1 27:-1 28:1 30:-0.625 32:-0.5 35:-0.75 36:1 38:-1 39:-1 41:1 42:1 43:1 44:1 45:0.5 46:-0.5 47:-1 48:-1 49:-0.75 51:1 52:1 53:1 54:1 55:0.75 56:-1 57:-1 58:-1 59:-0.875 60:0.5 61:0.875 62:1 63:1 
0.5960704351460398 0:1 1:0.25 2:-0.125 3:-0.5 4:-1 5:-1 6:-1 7:-1 8:1 9:1 10:1 11:1 12:0.75 13:-0.125 14:-0.75 15:-1 16:-0.75 17:0.125 18:0.75 19:1 20:1 21:1 22:1 23:0.75 24:-1 25:-1 26:-1 27:-0.75 28:1 29:0.625 30:0.625 31:1 33:-0.375 34:-0.5 35:-0.875 36:1 38:-1 39:-1 40:1 41:1 42:1 43:1 44:1 45:0.375 46:-0.5 47:-0.875 48:-0.5 49:0.5 50:0.5 51:1 52:1 53:1 54:1 55:0.5 56:-1 57:-1 58:-1 59:-0.75 60:0.25 61:0.875 62:1 63:1 
0.09792848934877116 0:-1 1:-1 2:-1 3:-0.5 4:0.5 5:1 6:1 7:1 9:0.375 10:1 11:1 12:1 13:1 14:1 15:1 16:1 17:1 18:1 19:1 20:0.25 22:-0.375 24:1 25:0.5 26:0.375 27:1 28:-1 29:-0.875 30:-0.5 31:-0.875 32:-1 33:-1 34:-0.5 35:1 36:-0.375 37:0.75 38:1 39:1 40:-1 41:-0.5 42:0.25 43:1 44:1 45:1 46:1 47:1 48:0.25 49:1 50:1 51:1 52:1 53:0.875 54:0.125 55:0.75 56:1 57:0.375 58:1 59:0.625 60:-0.5 61:-0.875 62:-1 63:-1 
0.2150174600330903 0:-1 1:-1 2:-1 3:-0.5 4:-0.375 5:0.25 6:1 7:1 8:-0.5 9:0.5 10:0.5 11:1 12:1 13:1 14:1 15:0.875 16:1 17:1 18:1 19:1 20:1 21:1 22:0.875 23:0.125 24:1 25:1 26:0.625 27:0.75 28:1 29:-0.875 30:-1 31:-0.875 32:-0.5 33:-0.5 34:-1 35:-0.5 36:1 37:-1 38:-0.5 39:0.625 40:-1 41:-1 42:-1 43:-0.5 44:1 45:0.5 46:1 47:1 48:-0.5 49:-0.125 50:0.75 51:1 52:1 53:1 54:1 55:0.875 56:1 57:1 58:1 59:0.875 60:0.375 62:0.5 63:-0.25 
1 0:-1 1:-1 2:-1 3:-1 4:-1 5:-1 6:0.25 7:1 8:-0.25 9:-0.5 11:0.375 12:0.5 13:1 14:1 15:1 16:1 17:1 18:1 19:1 20:1 21:1 22:1 24:1 25:1 26:1 27:1 28:0.375 29:0.375 30:0.375 31:-1 32:-0.5 33:-0.875 34:-0.5 35:1 36:-1 37:-1 38:-0.625 39:0.875 40:-1 41:-1 42:-0.5 43:1 44:-0.375 45:0.125 46:0.75 47:1 48:-0.5 49:0.75 50:1 51:1 52:1 53:1 54:1 55:0.875 56:1 57:1 58:0.875 59:0.5 60:0.25 61:0.75 62:0.375 63:-1 
0.5161357707413907 0:-1 1:-0.25 2:0.75 3:1 4:1 5:1 6:0.625 7:-0.5 8:1 9:1 10:1 11:1 12:0.5 13:0.125 14:0.25 15:1 16:1 17:0.625 18:0.375 19:1 20:-1 21:-1 22:-0.375 23:0.375 24:-1 25:-1 26:-0.5 27:1 28:-0.75 29:0.125 30:0.5 31:-0.625 32:-1 33:-0.75 34:0.25 35:1 36:1 37:1 38:1 40:0.625 41:1 42:1 43:1 44:1 45:0.5 46:-0.25 47:1 48:1 49:0.875 50:1 51:1 52:1 53:0.875 54:0.5 55:0.75 56:1 57:0.875 58:1 59:0.75 61:-0.125 62:-0.75 63:-1 
0.4158557887725375 0:1 1:-1 2:-1 3:-1 4:-1 5:-1 6:-1 7:-0.5 8:0.375 9:-0.75 12:0.5 13:0.5 14:0.625 15:1 16:1 17:1 18:1 19:1 20:1 21:1 22:1 23:0.625 24:1 25:0.875 26:0.75 27:1 28:-0.5 29:-0.5 30:-0.625 31:-1 32:-1 33:-1 34:-0.5 35:1 36:-1 37:-1 38:-0.75 39:-0.25 40:-1 41:-0.625 43:1 44:0.25 45:0.75 46:1 47:1 48:0.75 49:1 50:1 51:1 52:1 53:1 54:1 55:0.875 56:1 57:0.75 58:0.875 59:0.125 61:-0.25 62:-0.625 63:-1 
0.6605459933406311 0:-1 1:-0.625 2:-0.625 4:1 5:1 6:1 7:1 9:1 10:1 11:1 12:1 13:1 14:1 15:0.625 16:1 17:1 18:1 19:1 20:1 21:0.25 22:-1 23:-1 24:0.75 26:-0.375 27:-1 28:1 29:-0.25 30:-0.625 31:-0.5 32:-1 33:-1 34:-1 35:-0.875 36:1 37:0.75 38:1 39:1 40:-0.625 42:0.625 43:1 44:1 45:1 46:1 47:1 48:1 49:1 50:1 51:1 52:1 53:1 54:0.625 55:-0.5 56:1 57:0.625 58:0.875 59:0.75 62:-0.875 63:-1 
0.2449828274572603 0:1 1:1 2:1 3:0.5 4:0.5 5:1 6:1 7:1 8:1 9:1 10:1 11:1 12:1 13:1 14:1 15:1 16:0.25 18:0.5 19:1 20:1 21:0.875 22:0.5 23:0.5 24:0.125 25:-1 26:-0.75 27:0.375 28:1 29:-0.25 30:-1 31:-0.75 32:1 33:0.625 34:0.25 35:1 36:1 37:-0.125 39:0.75 40:1 41:1 42:1 43:1 44:1 45:1 46:1 47:1 48:1 49:1 50:1 51:1 52:1 53:1 54:1 55:1 56:1 57:1 58:1 59:1 60:1 61:1 62:1 63:1 
0.2268430150965141 0:1 1:1 2:1 3:1 4:1 5:1 6:1 7:1 8:-0.5 9:-0.125 10:1 11:1 12:1 13:0.75 14:0.5 15:1 16:-1 17:-1 18:0.125 19:1 20:0.875 21:-0.375 22:-0.25 23:0.875 24:-1 25:-1 26:-0.5 27:1 29:-1 30:-1 31:0.875 32:-1 33:-0.75 34:1 35:1 37:-0.875 38:-0.75 39:1 40:0.5 41:0.625 42:1 43:1 44:1 45:0.75 46:1 47:1 48:1 49:1 50:1 51:1 52:1 53:1 54:1 55:1 56:1 57:1 58:1 59:1 60:1 61:1 62:1 63:1 
0.7684563273084812 0:1 1:1 2:1 3:1 4:1 5:1 6:1 7:1 10:0.125 11:1 15:0.375 16:-1 17:-1 18:-0.5 19:1 20:-0.5 21:-1 22:-1 23:-0.25 24:-1 25:-1 26:-0.5 27:1 28:-1 29:-1 30:-1 31:1 32:-1 33:-1 34:-0.5 35:1 36:-0.75 37:-1 38:-1 39:0.625 42:0.25 43:1 44:0.5 47:1 48:1 49:1 50:1 51:1 52:1 53:1 54:1 55:1 56:1 57:0.875 58:1 59:0.875 60:0.625 61:1 62:1 63:1 
0.9578867325243908 0:1 1:1 2:1 3:0.75 4:0.625 5:1 6:1 7:1 8:1 9:1 10:1 11:1 12:1 13:1 14:1 15:1 16:1 17:1 18:1 19:1 20:1 21:1 22:1 23:1 24:-1 25:-0.5 26:-0.125 27:0.75 28:1 29:0.75 30:0.75 31:0.5 32:1 33:1 34:1 35:1 36:1 37:-0.25 38:-1 39:-1 40:1 41:1 42:1 43:1 44:1 45:0.875 46:0.75 47:0.5 48:1 49:1 50:1 51:1 52:1 53:1 54:1 55:1 56:1 57:1 58:1 59:1 60:1 61:1 62:1 63:1 
0.4829349750635953 0:1 1:1 2:1 3:1 4:1 5:1 6:1 7:1 8:1 9:1 10:1 11:1 12:1 13:1 14:1 15:1 16:-0.5 17:-0.125 19:0.375 20:1 21:1 22:1 23:1 24:-1 25:-1 26:-1 27:-1 28:0.75 29:1 30:1 31:0.5 32:-1 33:-1 34:-0.75 35:-0.625 36:0.5 37:1 38:1 39:-1 40:1 41:1 42:1 43:1 44:1 45:1 46:1 48:1 49:1 50:1 51:1 52:1 53:1 54:1 55:1 56:1 57:1 58:1 59:1 60:1 61:1 62:1 63:1 
0.354827881026965 0:1 1:1 2:1 3:1 4:1 5:1 6:1 7:1 8:1 9:1 10:1 11:1 12:1 13:1 14:1 15:1 16:0.25 20:1 21:1 22:1 23:1 24:-1 25:-1 26:-1 27:-1 28:-0.375 29:1 30:1 31:0.375 32:-1 33:-1 34:-1 35:-1 36:-0.25 37:1 38:0.5 39:-0.75 40:1 41:0.75 42:0.5 43:0.625 44:1 45:1 46:1 47:0.625 48:1 49:1 50:1 51:1 52:1 53:1 54:1 55:1 56:1 57:1 58:1 59:1 60:1 61:1 62:1 63:1 
0.2535546303998241 0:1 1:1 2:1 3:1 4:1 5:1 6:1 7:1 11:0.625 12:0.625 16:-1 17:-1 18:-1 19:0.25 20:0.25 21:-1 22:-1 23:-1 24:-1 25:-1 26:-1 29:-1 30:-1 31:-1 32:-1 33:-1 34:-1 35:0.125 37:-1 38:-1 39:-1 40:-0.5 41:-0.625 42:-0.5 43:0.5 44:0.5 45:-1 46:-1 47:-1 48:1 49:0.875 50:1 51:0.875 52:0.75 53:0.5 54:0.5 55:0.5 56:1 57:0.625 58:0.5 59:0.5 60:0.5 61:0.5 62:0.75 63:1 
-1 0:-1 1:-1 2:-1 4:1 5:1 6:-0.5 7:-1 8:-1 9:-1 10:-1 11:-0.375 12:1 13:1 14:1 15:-0.5 16:-1 17:-1 18:-1 19:-1 20:1 21:0.75 22:1 23:0.875 24:-1 25:-1 26:-1 27:-0.5 28:1 29:0.5 30:1 31:1 32:-1 33:-0.5 34:0.625 35:1 36:1 37:0.5 38:-0.375 39:1 40:-1 41:-0.75 43:0.5 44:0.25 45:-0.625 46:0.375 47:1 48:1 49:1 50:1 51:1 52:1 53:1 54:1 55:0.75 56:1 57:1 58:1 59:1 60:1 61:1 62:1 63:-0.125 
-0.1141834145408616 0:-1 1:-1 2:-1 3:-1 4:1 5:1 6:-0.25 7:-1 8:-1 9:-1 10:-1 11:-1 12:-1 13:1 14:1 15:-0.75 16:-1 17:-1 18:-1 19:-1 20:-1 21:0.75 22:1 23:-0.25 24:-1 25:-1 26:-1 27:-1 28:-1 29:-0.5 30:1 31:0.75 32:-1 33:-1 34:-1 35:-1 36:-1 37:-1 38:1 39:1 40:-1 41:-1 42:-1 43:-1 44:-1 45:-0.5 46:1 47:1 48:-0.5 49:0.5 50:0.5 51:0.5 52:0.5 53:0.75 54:1 55:1 56:1 57:1 58:1 59:1 60:1 61:1 62:0.375 63:0.625 
-0.07600020865526604 0:-1 1:-1 2:-1 3:-1 4:1 5:1 6:-0.5 7:-1 8:-1 9:-1 10:-1 11:-1 12:1 13:1 14:1 15:-0.5 16:-1 17:-1 18:-1 19:-1 20:1 21:0.375 22:1 23:0.625 24:-1 25:-0.75 27:0.25 28:1 29:0.5 30:1 31:1 32:-1 33:1 34:1 35:1 36:1 37:0.875 38:-0.375 39:1 40:-1 41:-0.5 42:-0.375 43:-0.25 44:-0.5 45:-0.125 46:-0.25 47:1 50:1 51:1 52:1 54:1 55:0.875 56:1 57:1 58:1 59:1 60:1 61:1 62:1 63:-0.125 
-0.01730324625259443 0:-1 1:-1 2:-1 3:-1 4:-0.5 5:1 6:0.5 7:-0.75 8:-1 9:-1 10:-1 11:-1 12:-0.5 13:0.875 14:1 15:0.5 16:-1 17:-1 18:-1 19:-1 20:-0.875 22:1 23:1 24:-1 25:-1 26:-1 27:-1 28:-1 29:-1 30:0.25 31:1 32:-1 33:-1 34:-1 35:-1 36:-1 37:-1 38:-1 39:1 40:-1 41:-1 42:-1 43:-1 44:-1 45:-1 46:-0.5 47:1 50:0.25 51:1 52:1 53:1 54:1 55:0.875 56:1 57:1 58:1 59:1 60:1 61:1 62:1 
-0.1184266013949287 0:-1 1:-1 2:-1 3:-1 4:-1 6:1 7:0.25 8:-1 9:-1 10:-1 11:-1 12:-1 13:-0.5 14:0.75 15:0.75 16:-1 17:-1 18:-1 19:-1 20:-1 21:-1 23:1 24:-1 25:-1 26:-1 27:-1 28:-1 29:-1 30:0.375 31:1 32:-1 33:-1 34:-1 35:-0.375 36:0.25 37:1 38:1 39:0.5 42:0.75 43:1 44:1 45:1 46:0.875 47:-0.75 48:1 49:1 50:1 51:0.75 54:-0.5 55:-1 56:1 57:1 58:0.625 59:0.5 60:0.25 62:-0.375 63:-1 
-0.1810861850466963 0:-1 1:-1 2:-1 3:-1 4:-1 5:-0.5 6:1 7:-0.125 8:-1 9:-1 10:-1 11:-1 12:-1 13:-0.625 14:1 15:1 16:-1 17:-1 18:-1 19:-1 20:-1 21:-1 23:1 24:-1 25:-1 26:-1 27:-1 28:-1 29:-1 30:-0.75 31:1 32:-1 33:-1 34:-1 35:-1 36:-1 37:-0.875 38:0.25 39:1 40:-1 41:-1 42:-1 43:-0.25 44:0.625 45:1 46:1 47:0.625 48:-0.25 49:0.875 50:1 51:1 52:1 53:1 54:1 55:-0.25 56:1 57:1 58:1 59:0.75 60:0.125 61:-0.125 62:-0.625 63:-1 
-0.1244028200846969 0:-1 1:-1 2:-1 3:-1 4:-1 5:-0.5 6:1 7:-0.375 8:-1 9:-1 10:-1 11:-1 12:-1 13:-0.875 14:1 15:0.375 16:0.375 17:-0.25 18:-0.625 19:-1 20:-1 21:-0.75 22:1 23:1 24:1 25:1 26:1 27:0.25 30:1 31:1 32:0.625 33:1 35:0.25 36:1 37:1 38:0.75 39:1 40:-0.875 41:1 42:0.125 43:0.5 44:1 45:0.875 46:0.875 47:1 48:-1 49:1 50:1 51:1 52:1 53:0.625 54:1 55:0.875 56:-1 57:-0.5 58:0.125 59:0.5 60:1 61:1 62:1 63:0.375 
-0.3394392580135607 0:-1 1:-1 2:-1 3:-1 4:-1 5:-1 6:1 7:1 8:-1 9:-1 10:-1 11:-1 12:-1 13:-1 14:-0.25 15:1 16:0.75 17:0.25 18:-0.5 19:-0.875 20:-1 21:-1 22:-0.75 23:1 24:1 25:1 26:1 27:0.75 28:-0.5 29:-1 30:-0.5 31:1 32:0.5 33:1 34:1 35:1 36:1 37:0.75 38:0.5 39:1 40:0.5 41:1 42:0.625 43:0.625 44:1 45:1 46:1 47:1 48:1 49:1 50:0.125 51:-0.25 52:0.75 53:1 54:1 55:0.5 56:-0.375 58:0.5 59:0.75 60:1 61:1 62:1 63:0.375 
-0.3703382749578379 0:-1 1:-1 2:-1 3:-1 4:-1 5:-1 6:1 7:0.625 8:-1 9:-1 10:-1 11:-1 12:-1 13:-1 14:0.5 15:1 16:-1 17:-1 18:-1 19:-1 20:-1 21:-1 22:-0.375 23:1 24:1 25:0.25 26:-0.75 27:-1 28:-1 29:-1 30:-1 31:0.75 32:1 33:1 34:1 35:0.625 37:-0.5 38:-1 39:0.5 40:1 41:1 42:1 43:1 44:1 45:0.875 46:0.125 47:1 48:-0.875 49:0.75 50:1 51:1 52:1 53:1 54:1 55:1 56:-1 57:0.375 58:-0.625 59:-0.75 60:0.25 61:1 62:1 63:1 
-0.3146636346354409 0:-1 1:-1 2:-1 3:-1 4:-1 5:-1 6:-1 7:0.875 8:-1 9:-1 10:-1 11:-1 12:-1 13:-1 14:-1 15:0.5 16:-0.375 17:0.375 18:-0.125 19:-0.5 20:-1 21:-1 22:-1 23:0.625 25:1 26:1 27:1 28:1 29:1 31:1 32:0.625 33:1 34:1 35:0.125 37:0.875 38:1 39:1 40:0.5 41:-0.125 42:1 43:0.25 45:-0.5 46:0.5 47:1 48:0.5 49:-0.5 50:1 51:1 52:1 53:0.625 54:0.75 55:0.875 56:-1 57:-0.75 58:0.5 59:0.75 60:1 61:1 62:1 63:0.375 
-0.05900657144267795 0:-1 1:-1 2:-1 3:-1 4:-0.5 5:1 6:0.625 7:-1 8:-1 9:-1 10:-1 11:-1 12:-0.875 13:1 14:1 15:-0.625 16:-1 17:-1 18:-1 19:-1 20:-1 21:-0.125 22:1 23:0.375 24:-1 25:-1 26:-1 27:-1 28:-1 29:-0.625 30:1 31:0.875 35:-0.125 36:-0.125 37:-0.125 38:1 39:0.625 40:1 41:1 42:1 43:1 44:1 45:0.875 46:1 47:0.875 48:1 49:1 50:1 51:0.625 52:-0.5 54:1 55:0.5 56:1 57:1 58:1 59:-0.625 60:-1 61:-1 62:0.875 63:0.125 
-0.1295336740784231 0:-1 1:-1 2:-1 3:-1 4:-1 5:-1 6:-1 7:1 8:-1 9:-1 10:-1 11:-1 12:-1 13:-1 14:-1 15:0.625 16:-1 17:-0.5 18:-0.875 19:-0.875 20:-0.625 21:-1 22:-0.875 23:0.875 24:-1 25:0.625 26:1 27:0.875 28:1 29:0.875 30:0.5 31:1 32:-1 33:0.375 34:1 35:1 36:1 37:0.75 38:1 39:1 40:1 41:0.5 42:0.25 43:1 44:0.125 45:-0.125 46:0.75 47:0.75 48:1 49:1 50:1 51:1 52:1 53:1 54:1 55:0.25 57:-0.375 59:0.25 60:0.625 61:-1 62:1 63:-0.625 
-0.07582188051283167 0:-1 1:-1 2:-1 3:-1 4:-1 5:-1 7:1 8:-1 9:-1 10:-1 11:-1 12:-1 13:-1 14:-0.875 15:0.875 16:-0.75 17:0.25 18:-0.5 19:-0.75 20:-1 21:-1 22:-1 23:0.625 24:-0.5 25:1 26:1 27:0.875 28:0.875 29:0.375 30:-0.125 31:1 33:1 34:1 35:1 36:1 37:0.625 38:0.875 39:1 40:1 41:1 42:1 43:0.5 44:1 45:-0.375 46:0.5 47:0.875 48:1 49:1 50:1 51:1 52:1 53:0.75 54:1 55:0.25 57:-0.375 59:0.25 60:0.75 61:-0.75 62:1 63:-0.625 
-0.3777242885819648 0:-1 1:-1 2:-1 3:-1 4:1 5:0.125 6:0.375 7:-1 8:-1 9:-1 10:-1 11:-1 12:1 13:1 14:1 15:-0.25 16:-1 17:-1 18:-1 19:-1 20:0.75 21:1 22:1 23:0.75 24:-1 25:-1 26:-1 27:-1 28:-0.875 29:0.875 30:1 31:0.75 32:-1 33:-1 34:-1 35:-1 36:-1 37:0.625 38:1 39:1 40:0.75 41:0.5 42:0.75 43:0.25 44:-0.25 45:1 46:1 47:0.75 48:1 49:1 50:1 51:1 52:1 53:1 54:1 55:0.375 57:-0.375 59:-0.125 60:-0.875 61:-0.5 62:1 63:-0.625 
-0.03324977248713398 0:-1 1:-1 2:-1 3:-1 4:-1 5:1 6:1 7:0.25 8:-1 9:-1 10:-1 11:-1 12:-1 13:0.5 14:1 15:0.875 16:-1 17:-1 18:-1 19:-1 20:-1 21:-1 22:0.5 23:1 24:-1 25:-1 26:-1 27:-1 28:-1 29:-1 30:-0.375 31:1 32:1 33:0.5 37:0.75 38:1 39:1 40:1 41:1 42:1 43:1 44:1 45:1 46:1 47:0.5 51:0.25 52:1 53:1 54:1 55:-0.25 56:-1 57:-1 58:-1 59:-0.5 60:1 61:1 62:1 63:0.25 
-0.2626817066993663 0:-1 1:-1 2:-1 3:-0.75 4:1 5:1 6:-1 7:-1 8:-1 9:-1 10:-1 11:-0.5 12:1 13:1 14:0.25 15:-1 16:-1 17:-1 18:-1 19:-1 20:0.5 21:1 22:0.75 23:-1 24:-0.5 25:-0.75 26:-1 27:-1 28:-0.25 29:1 30:1 31:0.5 32:1 33:0.75 35:-0.25 36:-0.75 37:1 38:1 39:0.5 40:1 41:1 42:1 43:1 44:1 45:1 46:1 47:0.5 48:1 49:1 50:1 51:1 52:1 53:1 54:1 55:1 56:-0.5 57:0.25 58:1 59:1 60:1 61:1 62:0.5 63:1 
-0.7446898178475103 0:-1 1:-1 2:-1 3:-0.5 4:1 5:0.625 7:0.625 8:-1 9:-1 10:-1 11:-0.5 12:1 13:1 14:0.75 15:1 16:-1 17:-1 18:-1 19:-0.625 20:1 21:1 22:1 23:1 24:-1 25:-1 26:-1 27:-1 28:0.125 29:1 30:1 31:1 33:-1 34:-1 35:-1 36:-0.5 37:1 38:1 39:1 40:1 41:1 42:1 43:1 44:1 45:1 46:1 47:1 48:1 49:1 50:1 51:1 52:1 53:1 54:0.75 55:-0.25 56:1 57:1 58:1 59:1 60:1 61:1 62:-0.5 63:-1 
-0.6368166617225084 0:-1 1:-1 2:-1 3:-1 4:-1 5:-1 6:-0.5 7:1 8:-1 9:-1 10:-1 11:-1 12:-1 13:-1 14:-0.5 15:1 16:-1 17:-1 18:-1 19:-1 20:-1 21:-1 22:-1 24:-1 25:-1 26:-1 27:-1 28:-1 29:-1 30:-1 31:-0.375 32:-0.5 34:-0.375 35:-0.5 36:-1 37:-1 38:-1 40:0.75 41:1 42:1 43:1 44:1 45:0.875 46:0.5 47:0.75 48:0.75 49:1 50:1 51:1 52:1 53:1 54:1 55:1 56:1 57:1 58:1 59:0.375 61:0.5 62:0.5 63:0.375 
-0.2205219314983719 0:-1 1:-1 2:-1 3:-1 4:-1 5:-1 6:0.5 7:-0.125 8:-1 9:-1 10:-1 11:-1 12:-1 13:-1 14:0.5 15:1 16:-1 17:-1 18:-1 19:-1 20:-1 21:-1 22:-0.5 23:1 24:-1 25:-1 26:-1 27:-1 28:-1 29:-1 30:-0.75 31:0.75 32:-1 33:-1 34:-1 35:-1 36:-1 37:-1 38:-1 39:-0.25 40:0.625 41:-0.25 42:-1 43:-1 44:-1 45:-1 46:-1 47:-0.25 48:1 49:1 50:0.875 51:0.625 52:0.375 53:-0.125 54:-0.625 55:0.25 57:0.875 58:1 59:1 60:1 61:1 62:1 63:1 
-0.2517727622478702 0:-1 1:-1 2:-1 3:-1 4:-1 5:1 6:1 7:1 8:-1 9:-1 10:-1 11:-1 12:-1 13:0.5 14:1 15:1 16:-1 17:-1 18:-1 19:-1 20:-1 21:-0.75 22:0.75 23:1 24:-1 25:-1 26:-1 27:-1 28:-1 29:-1 30:-0.25 31:1 32:-1 33:-1 34:-1 35:-1 36:-1 37:-1 38:-0.25 39:1 40:-1 41:-1 42:-1 43:-1 44:-1 45:-0.25 46:0.625 47:1 48:-0.75 49:-0.5 50:-0.5 52:0.375 53:0.625 54:1 55:0.875 56:1 57:1 58:1 59:1 60:1 61:1 62:1 63:1 
-0.3243639765690319 0:-1 1:-1 2:-1 3:-1 4:-1 5:-1 6:1 7:1 8:-1 9:-1 10:-1 11:-1 12:-1 13:-1 14:0.625 15:1 16:-1 17:-1 18:-1 19:-1 20:-1 21:-1 22:-0.625 23:1 24:-1 25:-1 26:-1 27:-1 28:-1 29:-1 30:-1 31:1 32:-1 33:-1 34:-1 35:-1 36:-1 37:-1 38:-1 39:1 40:-1 41:-1 42:-1 43:-1 44:-1 45:-1 46:-0.25 47:1 48:-0.5 49:-0.5 50:-0.5 51:-0.5 52:-0.5 53:-0.5 54:0.75 55:1 56:1 57:1 58:1 59:1 60:1 61:1 62:1 63:1 
-0.006141913057535026 0:-1 1:-1 2:-1 3:-1 4:-1 5:0.5 6:1 7:0.75 8:-1 9:-1 10:-1 11:-1 12:-1 13:0.5 14:1 15:1 16:-1 17:-1 18:-1 19:-1 20:-1 21:-0.75 22:0.875 23:1 24:-1 25:-1 26:-1 27:-1 28:-1 29:-1 31:1 32:-1 33:-1 34:-1 35:-1 36:-1 37:-0.625 38:0.25 39:1 40:1 41:1 42:1 43:1 44:1 45:1 46:1 47:1 48:1 49:1 50:1 51:1 52:1 53:1 54:1 55:1 56:-0.25 57:-0.5 58:-0.5 59:-0.5 60:0.25 61:1 62:1 63:0.75 
-1 0:1 1:1 2:1 3:1 4:1 5:1 6:1 7:1 8:1 9:1 10:1 11:1 12:1 13:1 14:1 15:1 16:1 17:1 18:1 19:1 20:1 21:1 22:1 23:1 24:1 25:1 26:1 27:1 28:1 29:1 30:1 31:1 32:1 33:1 34:1 35:1 36:1 37:1 38:1 39:1 40:1 41:1 42:1 43:1 44:1 45:1 46:1 47:1 48:1 49:1 50:1 51:1 52:1 53:1 54:1 55:1 56:1 57:1 58:1 59:1 60:1 61:1 62:1 63:1 
-1 0:1 1:1 2:1 3:1 4:1 5:1 6:1 7:1 8:1 9:1 10:1 11:1 12:1 13:1 14:1 15:1 16:1 17:1 18:1 19:1 20:1 21:1 22:1 23:1 24:1 25:1 26:1 27:1 28:1 29:1 30:1 31:1 32:1 33:1 34:1 35:1 36:1 37:1 38:1 39:1 40:1 41:1 42:1 43:1 44:1 45:1 46:1 47:1 48:1 49:1 50:1 51:1 52:1 53:1 54:1 55:1 56:1 57:1 58:1 59:1 60:1 61:1 62:1 63:1 
