svm_type c_svc
kernel_type rbf
gamma 0.015873
nr_class 2
total_sv 67
rho 0.149604
label 0 1
probA -5.71713
probB 0.0267078
nr_sv 31 36
SV
0.3291736694120483 0:-1 1:-1 2:-1 3:1 4:1 5:1 6:0.5 7:0.625 8:-1 9:-1 10:-0.375 11:1 12:1 13:1 14:1 15:1 16:-1 17:-1 18:1 19:1 20:1 21:0.375 22:-0.75 23:-1 24:-1 25:-1 26:0.375 27:1 28:1 29:0.125 30:-1 31:-1 34:0.75 35:1 36:1 37:1 38:0.25 43:0.5 44:0.5 45:0.875 46:1 47:1 51:1 52:1 53:1 54:1 55:1 56:0.75 57:0.75 58:0.5 59:0.875 60:1 61:1 62:1 63:1 
0.9910323595638094 1:0.5 2:-1 3:-1 4:-1 5:-1 6:-1 7:-1 8:1 10:-1 11:-1 12:-1 13:-1 14:-1 15:-1 16:1 17:1 18:0.625 19:0.25 20:-0.5 21:-0.875 22:-0.75 23:0.5 24:0.25 25:0.125 26:0.125 27:1 28:1 29:1 30:0.875 31:1 32:-1 33:-0.5 34:-0.125 35:1 36:1 37:1 38:1 39:-0.75 40:-1 41:0.5 42:1 43:1 44:1 45:-0.25 46:-0.5 47:-1 49:0.25 50:1 51:1 52:1 53:0.25 54:-0.125 55:0.875 56:1 57:1 58:1 59:1 60:1 61:1 62:1 63:1 
0.2726133166960464 0:-1 1:-1 2:-1 3:-0.375 4:1 5:1 6:-0.125 7:-0.25 8:-1 9:-1 10:-1 11:0.25 12:1 13:1 14:1 15:1 16:-1 17:-1 18:-0.25 19:1 20:1 21:0.75 22:-0.25 23:-1 24:-1 25:-1 26:-0.625 27:1 28:1 29:0.75 30:-1 31:-1 32:-0.5 35:1 36:1 37:1 38:0.75 40:-0.625 42:0.625 43:0.875 44:0.5 45:0.625 46:1 47:1 50:0.75 51:1 52:1 53:1 54:1 55:1 56:0.625 57:0.625 58:0.5 59:1 60:1 61:1 62:1 63:0.75 
1 0:1 1:-0.375 2:-1 3:-1 4:-1 5:-1 6:-1 7:-1 8:1 9:0.375 10:-0.875 11:0.125 12:-1 13:-1 14:-1 15:-1 16:1 17:1 18:1 19:0.625 20:-0.5 21:-0.875 22:-1 23:-1 24:-0.25 25:0.75 26:1 27:0.875 28:1 29:0.875 30:0.375 31:-0.375 32:-1 33:0.5 34:1 35:0.75 36:1 37:1 38:1 39:1 40:-1 41:0.375 42:1 43:1 44:1 45:0.625 47:-0.375 49:0.25 50:1 51:1 52:1 53:0.5 54:-0.75 55:-0.25 56:1 57:1 58:1 59:1 60:1 61:1 62:1 63:1 
0.5083812899415069 0:1 1:-0.125 2:-1 3:-1 4:-1 5:-1 6:-1 7:-1 8:1 9:1 10:0.75 11:-1 12:-1 13:-1 14:-1 15:-1 16:0.5 17:1 18:1 19:0.625 20:0.25 22:-0.25 23:-0.5 24:-0.5 25:1 26:1 27:1 28:1 29:1 30:1 31:1 32:-1 33:-0.5 34:1 35:0.75 36:1 37:1 38:1 39:0.875 40:-1 41:-1 42:1 43:1 44:1 45:1 47:-1 48:1 49:-0.375 50:0.375 51:1 52:1 53:1 54:1 55:0.5 56:0.75 57:1 58:1 59:1 60:1 61:1 62:1 63:1 
1 0:1 1:1 2:1 3:-0.375 4:-1 5:-1 6:-1 7:-1 8:-0.375 9:-0.125 10:0.5 11:1 12:0.875 13:0.125 14:-0.75 15:-1 16:-1 17:-0.25 18:0.75 19:1 20:1 21:1 22:1 23:-0.375 24:-1 25:-0.125 26:1 27:1 28:1 31:-0.875 32:-0.5 33:-0.625 34:1 35:1 36:1 37:-0.875 38:-1 39:-1 40:1 41:1 42:1 43:1 44:1 45:0.875 47:-1 48:0.5 49:1 50:1 51:0.875 52:1 53:1 54:1 55:0.75 56:-0.75 58:-0.25 59:-0.875 61:0.625 62:1 63:1 
0.7769316240421065 0:1 1:1 2:1 3:-0.75 4:-1 5:-1 6:-1 7:-1 8:0.5 9:1 10:1 11:1 12:0.75 13:-0.125 14:-0.75 15:-1 16:-1 17:-0.5 18:-0.5 19:0.5 20:1 21:1 22:1 23:0.5 24:-0.375 25:1 26:1 27:1 28:1 29:1 30:1 31:1 32:-1 33:-1 34:-1 35:0.75 36:1 37:0.875 38:-1 39:-1 40:1 41:1 42:0.75 43:1 44:1 45:1 46:0.25 47:-0.5 48:0.75 49:1 50:1 51:1 52:1 53:1 54:1 55:1 56:-1 57:-0.875 58:-0.5 59:-0.5 60:-0.5 62:0.75 63:1 
0.1092514777011581 0:-1 1:-1 2:-1 3:0.625 4:1 5:1 6:1 8:-0.25 9:1 10:1 11:1 12:1 13:0.75 14:-0.5 15:-1 16:-0.75 18:0.25 19:1 20:1 21:-0.5 22:-1 23:-0.25 24:-0.375 26:-0.375 27:1 28:1 29:0.625 30:0.5 31:0.875 32:1 33:1 34:0.875 35:0.75 36:0.5 37:0.5 38:1 39:0.625 40:0.5 41:0.75 42:0.5 43:-1 44:-0.5 45:-0.5 46:1 47:0.5 48:-1 50:1 51:0.25 52:1 53:1 54:1 55:1 56:-0.625 57:0.75 58:1 59:1 60:1 61:1 62:1 63:1 
0.1628612463303784 0:1 1:1 2:0.625 3:-0.75 4:-1 5:-1 6:-1 7:-1 9:1 10:1 11:1 12:0.25 13:-0.375 14:-1 15:-1 16:-1 17:-0.5 18:-0.5 19:0.75 20:1 21:1 22:0.625 23:-0.375 24:-0.625 25:1 26:1 27:1 28:1 29:1 30:1 31:1 32:-1 33:-1 34:-0.75 35:1 36:1 37:0.75 39:-0.5 40:1 41:1 42:0.75 43:1 44:1 45:0.75 46:-0.5 47:-0.875 48:0.625 49:1 50:1 51:1 52:1 53:1 54:1 55:0.875 56:-1 57:-1 58:-0.5 59:-0.5 60:-0.25 61:0.625 62:1 63:0.75 
0.2160222133207377 0:-1 1:-1 2:-0.375 3:1 4:1 5:1 6:1 7:-1 8:0.75 9:1 10:1 11:1 12:1 14:-0.75 15:-1 16:-0.25 18:1 19:1 20:0.5 21:-1 22:-0.75 23:0.5 25:-0.25 26:0.5 27:1 28:0.875 29:0.5 30:0.625 31:1 32:1 33:1 34:0.5 35:0.75 36:0.5 37:0.75 38:1 39:-0.375 40:0.625 41:1 42:-0.125 43:-1 44:-0.75 46:1 47:-0.125 48:-1 49:1 50:0.75 51:0.125 52:1 53:1 54:1 55:1 56:-0.625 57:1 58:1 59:1 60:1 61:1 62:1 63:1 
1 0:1 1:1 2:1 3:0.5 4:-1 5:-1 6:-1 7:-1 8:1 9:1 10:1 11:1 15:-0.375 16:0.5 17:0.75 18:1 19:1 20:1 21:1 22:1 23:0.75 24:-1 25:-0.375 26:0.625 27:1 28:1 29:1 30:1 31:1 34:0.375 35:0.875 36:1 37:1 38:1 39:1 40:1 41:1 42:1 43:1 44:1 45:1 46:1 47:0.875 48:1 49:1 50:0.875 51:0.75 53:-0.25 54:-0.375 55:-0.625 56:1 57:1 58:0.625 59:-0.75 60:-1 61:-1 62:-1 63:-1 
0.5789588926762123 0:1 1:0.5 4:-1 5:-1 6:-1 7:-1 8:1 9:1 10:1 11:1 15:-0.75 16:-0.5 17:1 18:1 19:0.625 20:0.75 21:1 22:1 23:0.5 24:-1 25:-1 26:-1 27:-1 29:1 30:1 31:1 32:-1 33:-1 34:-0.5 35:1 36:1 37:1 38:0.25 39:0.375 40:-0.5 41:1 42:1 43:1 44:1 46:-0.75 47:-1 48:1 49:1 50:1 51:-0.5 52:-0.5 53:-1 54:-1 55:-1 56:1 57:1 58:-0.25 59:-1 60:-1 61:-1 62:-1 63:-1 
0.7223000942740843 0:1 1:1 2:1 3:0.25 4:-0.625 5:-1 6:-1 7:-1 8:1 9:1 10:1 11:1 12:0.375 13:-0.125 14:0.25 16:1 17:1 18:1 19:1 20:1 21:1 22:1 23:1 25:0.25 26:1 27:0.875 28:1 29:1 30:1 31:1 32:-1 33:-0.875 34:0.25 35:1 36:1 37:1 38:1 39:0.25 40:0.5 41:0.75 42:1 43:1 44:1 45:0.75 46:0.125 47:-1 48:1 49:1 50:1 51:1 53:-0.75 54:-1 55:-1 56:1 57:1 58:1 59:0.125 60:-1 61:-1 62:-1 63:-1 
0.4746890200700245 0:1 1:1 2:1 3:1 4:1 5:-0.25 6:-1 7:-1 8:1 9:1 10:1 11:1 12:1 13:0.625 14:0.5 15:0.375 17:0.5 18:1 19:1 20:1 21:1 22:1 23:1 24:-1 25:-0.875 26:0.5 27:1 28:1 29:1 30:1 31:1 32:1 33:1 34:0.5 35:0.5 36:1 37:1 38:1 39:1 40:1 41:1 42:1 43:1 44:1 45:1 46:1 47:1 48:1 49:1 50:0.75 51:0.375 52:-0.25 53:-0.875 54:-0.75 55:-1 56:1 57:1 59:-1 60:-1 61:-1 62:-1 63:-1 
0.3090962855095965 0:1 1:1 2:0.875 4:-1 5:-1 6:-1 7:-1 8:1 9:1 10:1 11:1 15:-0.75 16:0.5 17:0.5 18:0.75 19:1 20:1 21:1 22:1 23:0.625 24:-1 25:-1 26:-0.125 27:0.75 28:1 29:1 30:1 31:1 32:-0.875 33:-0.5 34:0.25 35:0.875 36:1 37:1 38:1 39:1 40:0.625 41:1 42:1 43:1 44:1 45:1 46:1 47:0.5 48:1 49:1 50:0.75 51:0.5 53:-0.5 54:-0.5 55:-1 56:1 57:1 58:0.375 59:-1 60:-1 61:-1 62:-1 63:-1 
1 0:1 1:1 2:1 3:0.5 4:-1 5:-1 6:-1 7:-1 8:1 9:1 10:1 11:1 15:-0.375 16:0.5 17:0.75 18:1 19:1 20:1 21:1 22:1 23:0.75 24:-1 25:-0.375 26:0.625 27:1 28:1 29:1 30:1 31:1 34:0.375 35:0.875 36:1 37:1 38:1 39:1 40:1 41:1 42:1 43:1 44:1 45:1 46:1 47:0.875 48:1 49:1 50:0.875 51:0.75 53:-0.25 54:-0.375 55:-0.625 56:1 57:1 58:0.625 59:-0.75 60:-1 61:-1 62:-1 63:-1 
0.9057224873538773 0:1 1:0.75 4:-1 5:-1 6:-1 7:-1 8:1 9:1 10:1 11:1 12:0.5 13:0.125 14:-1 15:-1 16:0.25 20:1 21:1 22:1 23:0.875 24:-1 25:-1 26:-1 27:-1 28:0.625 29:1 30:1 31:1 32:-1 33:-0.25 36:1 37:1 38:1 39:1 40:0.5 41:0.875 42:1 43:1 44:0.75 45:0.5 46:-1 47:-0.625 48:1 49:1 50:0.5 52:-0.5 53:-1 54:-1 55:-1 56:1 57:0.5 58:-0.75 59:-1 60:-1 61:-1 62:-1 63:-1 
0.1692167803890186 0:1 1:1 2:1 3:1 5:0.25 6:0.625 7:-1 8:1 9:1 10:1 11:1 12:1 13:0.75 14:1 15:1 16:1 17:1 18:1 19:1 20:1 21:1 22:1 23:1 24:-0.5 25:-0.375 26:0.375 27:-1 28:-0.5 29:1 30:1 31:1 32:-1 33:-0.875 34:0.75 35:1 36:1 37:1 38:1 39:0.5 40:0.75 41:1 42:1 43:1 44:1 45:0.625 46:-0.125 47:-0.75 48:1 49:1 50:1 51:0.75 52:-0.25 53:-0.75 54:-1 55:-1 56:1 57:1 58:1 59:-0.375 60:-1 61:-1 62:-1 63:-1 
0.04379436500805336 0:1 1:1 2:0.75 4:-0.25 5:-1 6:-1 7:-1 8:1 9:1 10:1 11:1 12:0.75 15:-1 16:0.5 17:0.5 18:0.5 19:0.625 20:1 21:1 22:1 23:0.5 24:-1 25:-1 26:-0.75 27:0.5 28:1 29:1 30:1 31:1 32:-1 33:-1 34:0.5 35:1 36:1 37:1 38:0.25 39:-0.75 40:1 41:1 42:1 43:1 44:0.75 46:-0.75 47:-1 48:1 49:1 50:1 51:0.25 52:-0.625 53:-1 54:-1 55:-1 56:1 57:1 58:0.5 59:-0.75 60:-1 61:-1 62:-1 63:-1 
1 0:1 1:1 2:0.25 4:-1 5:-1 6:-1 7:-1 8:1 9:1 10:1 11:1 12:0.5 13:0.5 14:-0.25 15:-1 16:0.5 17:0.5 18:0.75 19:1 20:1 21:1 22:1 23:0.875 24:-1 25:-1 26:-0.375 27:1 28:0.75 29:1 30:1 31:1 32:-0.5 33:1 34:0.25 35:0.75 36:1 37:1 38:1 39:0.75 40:1 41:1 42:1 43:1 44:0.875 45:0.5 46:0.5 47:-0.375 48:1 49:1 50:0.875 51:0.25 52:-0.25 53:-1 54:-1 55:-1 56:1 57:0.25 58:-0.375 59:-1 60:-1 61:-1 62:-1 63:-1 
1 0:1 1:1 2:0.25 4:-1 5:-1 6:-1 7:-1 8:1 9:1 10:1 11:1 12:0.5 13:0.5 14:-0.25 15:-1 16:0.5 17:0.5 18:0.75 19:1 20:1 21:1 22:1 23:0.875 24:-1 25:-1 26:-0.375 27:1 28:0.75 29:1 30:1 31:1 32:-0.5 33:1 34:0.25 35:0.75 36:1 37:1 38:1 39:0.75 40:1 41:1 42:1 43:1 44:0.875 45:0.5 46:0.5 47:-0.375 48:1 49:1 50:0.875 51:0.25 52:-0.25 53:-1 54:-1 55:-1 56:1 57:0.25 58:-0.375 59:-1 60:-1 61:-1 62:-1 63:-1 
0.5086507690818743 0:1 1:1 2:1 3:0.75 4:-0.5 5:-0.75 6:-1 7:-1 8:1 9:1 10:1 11:1 12:0.75 13:0.5 14:-0.25 15:-1 16:0.25 17:0.625 18:1 19:1 20:1 21:1 22:1 23:0.75 24:-1 25:-0.5 26:0.875 27:1 28:1 29:1 30:1 31:1 32:-0.5 33:1 34:1 35:1 36:1 37:1 38:1 39:1 40:1 41:1 42:1 43:1 44:1 45:1 46:1 47:0.875 48:1 49:1 50:0.875 51:0.625 52:0.375 53:-0.125 54:-0.5 55:-1 56:1 57:1 58:0.25 59:-0.75 60:-1 61:-1 62:-1 63:-1 
0.3456363140393641 0:1 1:1 2:1 3:1 4:0.75 5:0.125 6:1 7:1 8:1 9:1 10:1 11:1 12:0.5 13:0.5 14:0.875 15:1 16:1 17:1 18:1 19:1 20:1 21:1 22:1 23:1 24:0.25 25:1 26:1 27:1 28:1 29:1 30:1 31:1 32:-0.75 33:1 34:1 35:1 36:1 37:1 38:1 39:1 40:1 41:1 42:1 43:1 44:1 45:1 46:1 47:1 48:1 49:1 50:1 51:1 52:1 53:1 54:1 55:1 56:1 57:1 58:1 59:1 60:0.5 61:1 62:1 63:1 
0.9727021199211188 0:1 1:1 2:1 3:1 4:1 5:0.75 6:1 7:1 8:1 9:1 10:1 11:1 12:1 13:1 14:1 15:1 16:1 17:1 18:1 19:1 20:1 21:1 22:1 23:1 24:0.25 25:1 26:1 27:1 28:1 29:1 30:1 31:1 32:1 33:1 34:1 35:1 36:1 37:1 38:1 39:1 40:1 41:1 42:1 43:1 44:1 45:1 46:1 47:1 48:1 49:1 50:1 51:1 52:1 53:1 54:1 55:1 56:1 57:1 58:1 60:0.625 61:1 62:1 63:1 
0.09125130144819552 0:1 1:1 2:1 3:1 4:-0.5 5:-0.5 6:1 7:1 8:1 9:1 10:1 11:1 12:1 13:1 14:1 15:1 16:-0.5 17:0.25 18:0.875 19:1 20:1 21:1 22:1 23:1 24:-0.75 25:0.625 26:1 27:1 28:1 29:1 30:1 31:0.5 32:-0.625 33:0.5 34:0.875 35:1 36:1 37:1 38:1 39:-1 40:-1 41:-1 42:0.5 43:1 44:1 45:1 46:0.625 47:0.5 48:1 49:1 50:1 51:1 52:1 53:1 54:1 55:1 56:1 57:1 58:1 59:1 60:1 61:1 62:1 63:1 
1 0:1 1:1 2:1 3:1 4:1 5:0.625 6:1 7:1 8:1 9:1 10:1 11:1 12:1 13:1 14:1 15:1 16:1 17:1 18:1 19:1 20:1 21:1 22:1 23:1 24:0.25 25:1 26:1 27:1 28:1 29:1 30:1 31:1 32:1 33:1 34:1 35:1 36:1 37:1 38:1 39:1 40:1 41:1 42:1 43:1 44:1 45:1 46:1 47:1 48:1 49:1 50:1 51:1 52:1 53:1 54:1 55:1 56:1 57:1 58:1 60:0.625 61:1 62:1 63:1 
1 0:1 1:1 2:1 3:1 4:0.875 5:0.5 6:1 7:1 8:1 9:1 10:1 11:1 12:1 13:1 14:1 15:1 16:1 17:1 18:1 19:1 20:1 21:1 22:1 23:1 24:0.5 25:1 26:1 27:1 28:1 29:1 30:1 31:1 32:0.5 33:1 34:1 35:1 36:1 37:1 38:1 39:1 40:1 41:1 42:1 43:1 44:1 45:1 46:1 47:1 48:1 49:1 50:1 51:1 52:1 53:1 54:1 55:1 56:1 57:1 58:1 59:0.375 60:0.125 61:1 62:1 63:1 
0.8735944196824738 0:1 1:0.75 4:-1 5:-1 6:-1 7:-1 8:1 9:1 10:1 11:1 12:0.5 13:0.5 14:0.5 15:0.5 17:0.375 18:0.875 19:1 20:1 21:1 22:1 23:1 24:-0.75 25:0.75 26:1 27:1 28:1 29:1 30:1 31:1 32:-0.625 33:0.625 34:0.875 35:1 36:1 37:-1 38:-1 39:-1 40:-0.5 41:-0.125 42:0.625 43:1 44:1 45:1 46:1 47:1 48:1 49:1 50:1 51:1 52:1 53:1 54:1 55:1 56:1 57:1 58:0.5 59:0.5 60:0.5 61:0.5 62:1 63:1 
0.859116866180347 0:1 1:0.75 4:-1 5:-1 6:-1 7:-1 8:1 9:1 10:1 11:1 12:0.5 13:0.5 14:0.5 15:0.5 16:0.5 17:0.75 18:1 19:1 20:1 21:1 22:1 23:1 24:-0.75 25:0.75 26:1 27:1 28:1 29:1 30:1 31:1 32:-0.625 33:1 34:1 35:1 36:1 37:1 38:-1 39:-1 40:-0.5 41:-0.125 42:0.625 43:1 44:1 45:1 46:1 47:0.875 48:1 49:1 50:1 51:1 52:1 53:1 54:1 55:1 56:1 57:1 58:1 59:0.75 60:0.5 61:0.5 62:1 63:0.875 
1 0:1 1:1 2:1 3:1 4:0.875 5:0.5 6:1 7:1 8:1 9:1 10:1 11:1 12:1 13:1 14:1 15:1 16:1 17:1 18:1 19:1 20:1 21:1 22:1 23:1 24:0.75 25:1 26:1 27:1 28:1 29:1 30:1 31:1 32:0.5 33:1 34:1 35:1 36:1 37:1 38:1 39:1 40:1 41:1 42:1 43:1 44:1 45:1 46:1 47:1 48:1 49:1 50:1 51:1 52:1 53:1 54:1 55:1 56:1 57:1 58:1 59:0.375 60:0.125 61:0.875 62:1 63:1 
1 0:1 1:1 2:1 3:1 4:0.75 5:0.375 6:1 7:1 8:1 9:1 10:1 11:1 12:1 13:1 14:1 15:1 16:1 17:1 18:1 19:1 20:1 21:1 22:1 23:1 24:0.75 25:1 26:1 27:1 28:1 29:1 30:1 31:1 32:0.5 33:1 34:1 35:1 36:1 37:1 38:1 39:1 40:1 41:1 42:1 43:1 44:1 45:1 46:1 47:1 48:1 49:1 50:1 51:1 52:1 53:1 54:1 55:1 56:1 57:1 58:1 59:0.625 61:0.75 62:1 63:1 
-0.2299727404919542 1:1 3:-1 4:-1 5:-1 6:-0.5 7:1 8:1 9:1 10:1 11:0.25 12:-1 13:-0.25 14:1 15:1 16:1 17:1 18:1 19:1 21:1 22:1 23:1 24:1 25:-0.75 26:0.75 27:1 28:1 29:1 30:1 31:0.75 33:-0.875 34:0.25 35:1 36:1 37:1 38:0.75 39:-1 40:-0.75 41:-0.125 42:1 43:1 44:0.5 45:1 46:1 47:0.25 49:1 50:1 51:0.375 52:-1 53:0.25 54:1 55:1 56:0.25 57:1 58:0.25 59:-0.875 60:-1 61:-1 62:0.5 63:1 
-0.5301177393017953 0:1 1:-0.625 2:-1 3:-1 4:-1 5:-1 6:-1 7:-1 8:1 9:0.875 10:-0.375 11:-1 12:-1 13:-1 14:-1 15:-1 16:-0.125 17:0.875 18:0.875 19:-0.625 20:-0.375 22:0.625 23:1 24:-1 25:-0.25 26:1 27:1 28:1 29:1 30:1 31:0.875 32:1 33:1 34:0.875 35:0.625 36:1 37:0.375 38:-0.625 39:-1 40:0.875 41:0.125 42:-0.375 43:-0.875 44:1 45:0.875 46:-0.125 47:-1 48:-1 49:-1 50:-1 51:-1 52:-0.75 53:0.875 54:1 55:0.75 56:-1 57:-1 58:-1 59:-1 60:-1 61:-0.625 62:0.75 63:1 
-0.09314636392148612 0:1 1:0.375 2:-0.875 3:-1 4:-1 5:-0.5 6:0.75 7:-0.625 8:0.75 9:1 10:0.25 11:-0.625 12:0.5 13:0.875 14:1 15:0.75 16:-0.75 17:0.75 18:1 19:0.875 20:1 21:1 22:0.5 23:1 25:0.875 26:1 27:1 28:1 29:-0.875 30:-0.75 31:-0.25 32:1 33:1 34:-0.125 35:0.125 36:1 37:0.875 38:-0.5 39:-1 40:0.25 41:-0.875 42:-1 43:-1 44:0.625 45:1 46:1 47:-0.5 48:-1 49:-1 50:-1 51:-1 52:-1 54:1 55:1 56:-1 57:-1 58:-1 59:-1 60:-1 61:-1 63:1 
-0.3727883190738436 0:1 1:0.375 2:-0.75 3:-1 4:-1 5:-1 6:-1 7:-1 8:1 9:1 10:0.625 11:-1 12:-1 13:-1 14:-1 15:-1 16:0.625 17:1 18:1 19:0.125 20:-0.5 21:-0.5 22:-0.75 23:-1 24:-0.75 25:0.625 26:1 27:1 28:1 29:1 30:0.75 31:1 32:-0.875 34:1 35:1 36:1 37:1 38:1 39:1 40:0.625 41:1 42:1 43:1 44:0.875 45:0.75 46:1 47:0.25 48:1 49:1 50:0.5 51:-0.125 53:0.75 54:-0.125 55:-1 56:1 57:0.25 58:-1 59:-1 60:-1 61:-1 62:-1 63:-1 
-0.1595484463235971 0:-0.25 1:0.75 2:-0.75 3:-1 4:-1 5:-1 6:-1 7:-1 8:1 9:1 10:0.125 11:-0.875 12:-1 13:-1 14:-1 15:-1 16:1 17:1 18:1 19:0.375 20:-1 21:-1 22:-1 23:-1 26:1 27:1 28:0.5 29:0.125 32:-1 33:-1 34:0.5 35:1 36:1 37:1 38:1 39:1 40:-0.625 41:1 42:1 43:1 44:0.25 45:0.5 46:0.5 47:0.5 48:0.75 49:1 50:1 51:0.125 52:-1 53:-1 54:-1 55:-1 56:0.75 57:1 58:-0.375 59:-1 60:-1 61:-1 62:-1 63:-1 
-0.3555075534431424 0:1 1:-0.875 2:-1 3:-1 4:-1 5:-1 6:-1 8:1 9:-0.5 10:-1 11:-1 12:-1 13:-1 14:-1 16:1 17:-0.625 18:-1 19:-1 20:-1 21:-1 22:-1 23:-0.25 24:1 25:0.625 26:-0.875 27:-1 28:-1 29:-1 30:-0.625 31:0.5 32:0.75 33:1 34:0.875 35:0.75 36:1 37:0.5 38:0.75 39:1 41:1 42:1 43:1 44:1 45:1 46:1 47:0.625 48:1 49:1 50:0.75 51:0.5 52:0.5 53:0.5 54:0.125 55:-0.5 56:1 57:0.625 58:-0.875 59:-1 60:-1 61:-1 62:-1 
-0.3069429065319273 0:1 1:1 2:0.75 3:-0.875 4:-1 5:-1 6:-1 7:-0.5 8:0.625 9:0.75 10:1 11:1 12:0.5 13:0.5 14:0.25 15:0.375 16:-0.625 17:-0.125 18:1 19:1 20:1 21:1 22:1 23:1 24:-0.625 25:1 26:1 27:0.75 28:0.5 29:1 30:1 31:1 32:1 33:1 34:0.375 35:-0.875 36:-1 37:-1 38:-1 39:-0.125 40:1 41:0.75 42:-0.75 43:-1 44:-1 45:-1 46:-1 47:-0.75 48:1 49:1 51:-1 52:-1 53:-1 54:-1 55:-1 56:1 57:0.25 58:-0.875 59:-1 60:-1 61:-1 62:-1 63:-1 
-0.3807740229356799 0:1 1:1 2:0.75 3:-0.5 4:-0.5 5:-0.5 6:-0.375 7:0.75 8:-0.25 9:1 10:1 11:1 12:1 13:1 14:1 15:1 16:-1 17:0.125 18:1 19:1 20:1 21:1 22:1 23:1 24:-0.875 25:1 26:1 27:0.75 28:0.5 31:-0.25 33:1 34:0.375 35:-0.875 36:-1 37:-1 38:-1 39:-0.5 40:0.25 41:0.625 42:-0.875 43:-1 44:-1 45:-1 46:-1 47:-0.5 48:1 49:-0.75 50:-1 51:-1 52:-1 53:-1 54:-1 55:-0.5 56:1 57:-0.25 58:-1 59:-1 60:-1 61:-1 62:-1 63:-0.125 
-1 0:1 1:-0.25 2:-1 3:-1 4:-1 5:-1 6:-1 7:-1 8:1 9:0.75 10:-1 11:-1 12:-1 13:-1 14:-1 15:-1 16:1 17:1 18:-0.25 19:-1 20:-1 21:-1 22:-1 23:-1 24:1 25:1 26:1 27:0.25 29:-1 30:-1 31:-1 32:-0.25 33:1 34:1 35:1 36:1 37:0.5 40:1 41:1 42:1 43:1 44:1 45:1 46:1 47:1 48:1 49:1 50:1 51:1 52:1 53:1 54:1 55:1 56:1 57:1 58:-0.75 59:-0.5 61:1 62:1 63:0.75 
-0.8851358420453651 0:1 1:0.75 2:-1 3:-1 4:-1 5:-1 6:-1 7:-1 8:1 9:1 10:0.75 11:-0.75 12:-1 13:-1 14:-1 15:-1 16:0.125 17:1 18:1 19:0.75 20:-0.5 21:-0.5 22:-0.875 23:-1 24:-1 25:-0.125 26:0.75 27:1 28:1 29:1 30:0.625 31:0.5 32:-1 33:-0.625 34:0.875 35:1 36:1 37:1 38:1 39:1 40:1 41:1 42:1 43:1 44:0.125 46:-0.25 47:-1 48:1 49:1 50:1 51:0.125 52:-1 53:-1 54:-1 55:-1 56:1 57:1 58:-0.25 59:-1 60:-1 61:-1 62:-1 63:-1 
-0.2155441513679303 0:-0.625 1:-1 2:-1 3:-1 5:1 6:1 7:-0.25 8:0.5 9:-1 10:-1 11:-0.375 12:1 13:0.875 14:1 15:0.875 16:0.5 17:-1 18:-0.625 19:1 20:0.875 21:-0.25 22:1 23:1 24:0.5 25:-0.625 26:1 27:0.875 28:-0.75 29:-0.5 30:1 31:1 32:1 33:1 34:0.875 35:-0.75 36:-1 37:-0.25 38:1 39:1 40:1 41:0.875 42:-0.75 43:-1 44:-1 45:-0.375 46:1 47:1 49:1 50:-0.375 51:-1 52:-1 53:-1 55:0.5 56:-0.5 57:1 58:-0.25 59:-1 60:-1 61:-1 62:-0.75 63:-0.625 
-0.4303369293196019 0:-1 1:-1 2:-1 3:-1 4:-1 5:-0.875 6:0.25 7:0.625 8:-1 9:-1 10:-1 11:-1 12:-0.875 13:0.625 14:1 15:1 16:-0.625 17:-1 18:-1 19:-1 20:0.5 21:1 22:1 23:1 24:0.5 25:-1 26:-1 28:1 29:0.75 30:1 31:1 32:0.5 33:-1 34:-0.25 35:1 36:0.625 37:-0.5 38:1 39:1 40:0.5 41:-0.5 42:1 43:0.625 44:-1 45:-0.5 46:1 47:1 48:1 49:0.75 50:1 51:-0.75 52:-1 54:1 55:0.5 56:1 57:0.875 58:-0.375 59:-1 60:-1 61:-0.5 62:0.875 63:-0.5 
-0.1208284473429604 0:-1 1:-1 2:-1 3:-1 4:-1 5:-1 6:0.25 7:1 8:-0.75 9:-0.75 10:-1 11:-1 12:-1 13:0.375 14:1 15:1 17:0.5 18:-1 19:-1 20:-0.375 21:1 22:1 23:1 25:0.5 26:-1 27:-0.375 28:1 29:0.75 30:-0.5 31:1 32:0.5 33:0.375 34:-0.875 35:1 36:1 37:-0.75 38:-1 39:1 40:1 41:0.75 42:0.5 43:0.875 44:-0.375 45:-1 46:-1 47:0.75 48:1 49:1 50:1 51:0.25 52:-1 53:-1 54:-1 55:-0.5 56:1 57:1 58:0.5 59:-1 60:-1 61:-1 62:-1 63:-1 
-0.4431162221969866 0:1 1:1 2:1 3:-0.375 4:-1 6:1 7:1 8:1 9:1 10:1 11:0.75 12:0.25 13:1 14:1 15:1 16:1 17:1 18:1 19:1 20:1 21:1 22:1 23:1 24:-0.375 25:1 26:1 27:1 28:1 29:1 30:1 31:0.75 32:-0.375 33:1 34:1 35:1 36:1 37:1 38:1 39:0.25 40:1 41:1 42:1 43:1 44:1 45:1 46:1 47:1 48:1 49:1 50:1 51:0.25 52:1 53:1 54:1 55:1 56:1 57:1 58:0.75 59:-0.875 60:-0.75 61:1 62:1 63:1 
-0.5317536035419139 0:1 1:1 2:1 3:-0.25 4:-1 5:-1 6:0.25 7:1 8:1 9:1 10:1 11:0.875 12:0.125 13:0.5 14:1 15:1 16:0.625 17:1 18:1 19:1 20:1 21:1 22:1 23:1 24:-1 25:0.5 26:1 27:1 28:1 29:1 30:1 31:0.625 32:-0.375 33:1 34:1 35:1 36:1 37:1 38:1 39:-0.25 40:1 41:1 42:1 43:1 44:1 45:1 46:1 47:0.5 48:1 49:1 50:1 51:1 52:1 53:1 54:1 55:1 56:1 57:0.75 58:-0.75 59:-1 60:-0.25 61:1 62:1 63:1 
-1 0:1 1:1 2:1 3:-0.25 4:-0.625 5:0.75 6:1 7:1 8:1 9:1 10:1 11:1 12:1 13:1 14:1 15:1 16:1 17:1 18:1 19:1 20:1 21:1 22:1 23:1 24:-0.875 25:1 26:1 27:1 28:1 29:1 30:1 31:0.25 32:-0.375 33:1 34:1 35:1 36:1 37:1 38:1 39:0.75 40:1 41:1 42:1 43:1 44:1 45:1 46:1 47:1 48:1 49:1 50:1 51:0.5 53:1 54:1 55:1 56:1 57:1 58:0.875 59:-1 60:-1 61:0.25 62:1 63:1 
-1 0:1 1:1 2:1 3:0.375 4:-0.75 5:0.375 6:1 7:1 8:1 9:1 10:1 11:1 12:0.75 13:1 14:1 15:1 16:0.75 17:1 18:1 19:1 20:1 21:1 22:1 23:1 24:-0.875 25:1 26:1 27:1 28:1 29:1 30:1 31:0.5 32:0.25 33:1 34:1 35:1 36:1 37:1 38:1 39:0.5 40:1 41:1 42:1 43:1 44:1 45:1 46:1 47:1 48:1 49:1 50:1 51:0.375 52:0.75 53:1 54:1 55:1 56:1 57:1 58:0.375 59:-1 60:-0.875 61:0.875 62:1 63:1 
-1 0:1 1:1 2:0.625 3:-0.875 4:-0.875 5:0.625 6:1 7:1 8:1 9:1 10:1 11:0.625 12:0.75 13:1 14:1 15:1 16:1 17:1 18:1 19:1 20:1 21:1 22:1 23:0.625 24:0.125 25:1 26:1 27:1 28:1 29:1 30:1 32:-1 33:0.75 34:1 35:1 36:1 37:1 38:1 39:0.625 40:0.375 41:1 42:1 43:1 44:1 45:1 46:1 47:1 48:1 49:1 50:1 51:1 52:0.25 53:1 54:1 55:1 56:1 57:1 58:1 59:-0.25 60:-1 61:0.625 62:1 63:1 
-1 0:1 1:1 2:1 3:-0.25 4:-0.375 5:1 6:1 7:1 8:1 9:1 10:1 11:1 12:1 13:1 14:1 15:1 16:1 17:1 18:1 19:1 20:1 21:1 22:1 23:1 24:-0.375 25:1 26:1 27:1 28:1 29:1 30:1 31:0.25 32:-0.375 33:1 34:1 35:1 36:1 37:1 38:1 39:0.75 40:1 41:1 42:1 43:1 44:1 45:1 46:1 47:1 48:1 49:1 50:1 51:0.875 53:1 54:1 55:1 56:1 57:1 58:1 59:-0.875 60:-1 61:0.25 62:1 63:1 
-0.2705373382126196 0:1 1:1 2:0.75 3:-0.625 4:0.25 5:1 6:1 7:1 8:1 9:1 10:1 11:1 12:1 13:1 14:1 15:1 16:1 17:1 18:1 19:1 20:1 21:1 22:1 23:0.75 24:0.25 25:1 26:1 27:1 28:1 29:1 30:1 31:-0.75 33:1 34:1 35:1 36:1 37:1 38:1 39:-0.25 40:1 41:1 42:1 43:1 44:1 45:1 46:1 47:1 48:1 49:1 50:1 51:0.75 53:0.875 54:1 55:1 56:1 57:1 58:0.375 59:-1 60:-1 61:-0.25 62:0.75 63:1 
-1 0:1 1:1 2:1 4:-1 5:-0.75 6:0.75 7:1 8:1 9:1 10:1 11:0.375 12:-0.5 13:0.25 14:1 15:1 16:1 17:1 18:1 19:1 20:1 21:1 22:1 23:1 24:-0.25 25:0.75 26:1 27:1 28:1 29:1 30:1 31:0.875 33:0.75 34:1 35:1 36:1 37:1 38:1 39:-0.25 40:1 41:1 42:1 43:1 44:1 45:1 46:1 47:0.875 48:1 49:1 50:1 51:0.75 52:1 53:1 54:1 55:1 56:1 57:1 58:0.25 59:-1 61:1 62:1 63:1 
-0.1469315509209806 0:1 1:1 2:1 3:0.5 4:-1 5:-1 7:0.5 8:0.625 9:1 10:1 11:1 12:0.875 13:0.125 14:1 15:1 16:-1 17:0.25 18:1 19:1 20:1 21:1 22:1 23:1 24:-1 25:-0.5 26:1 27:1 28:1 29:1 30:1 32:1 33:1 34:1 35:1 36:1 37:1 38:0.75 39:-0.25 40:1 41:1 42:1 43:1 44:1 45:1 46:1 47:1 48:1 49:0.375 51:-0.375 52:-0.125 53:0.875 54:1 55:1 56:-1 57:-1 58:-1 59:-1 60:-1 61:-0.625 62:0.875 63:1 
-0.4282883142139959 0:1 1:1 3:-1 4:-1 5:-1 6:-0.5 7:-0.25 8:1 9:1 10:0.75 12:-0.375 13:0.5 14:0.75 15:1 16:1 17:1 18:1 19:1 20:1 21:1 22:1 23:1 24:0.375 25:1 26:1 27:1 28:1 29:1 30:1 31:0.125 32:-0.5 33:1 34:1 35:1 36:1 37:1 38:1 39:-0.75 40:0.625 41:1 42:1 43:1 44:1 45:1 46:1 47:0.875 48:1 49:1 50:1 51:1 52:1 53:1 54:1 55:1 56:1 57:0.875 58:-0.5 59:-1 60:0.75 61:1 62:1 63:1 
-1 0:1 1:0.75 2:-0.25 3:-1 4:-1 5:-1 6:-0.75 7:-0.5 8:1 9:1 10:0.875 12:-0.375 13:0.5 14:0.75 15:1 16:1 17:1 18:1 19:1 20:1 21:1 22:1 23:1 24:-0.5 25:0.125 26:1 27:1 28:1 29:1 30:0.875 31:0.75 32:-0.375 33:0.5 34:1 35:1 36:1 37:1 38:-0.625 39:-1 40:0.75 41:1 42:1 43:1 44:1 45:1 46:1 47:0.875 48:1 49:1 50:1 51:1 52:1 53:1 54:1 55:1 56:1 57:0.25 58:-1 59:-1 60:-0.125 61:1 62:1 63:1 
-0.7610646237637115 0:1 1:1 3:-1 4:-1 5:-1 6:-0.5 7:-0.25 8:1 9:1 10:0.75 12:-0.375 13:0.5 14:0.75 15:1 16:1 17:1 18:1 19:1 20:1 21:1 22:1 23:1 24:0.375 25:1 26:1 27:1 28:1 29:1 30:1 31:0.125 32:-0.5 33:1 34:1 35:1 36:1 37:1 38:1 39:-0.75 40:0.625 41:1 42:1 43:1 44:1 45:1 46:1 47:0.875 48:1 49:1 50:1 51:1 52:1 53:1 54:1 55:1 56:1 57:0.875 58:-0.5 59:-1 60:0.75 61:1 62:1 63:1 
-1 0:1 1:1 2:1 3:0.5 4:-1 5:-1 7:0.5 8:0.625 9:1 10:1 11:1 12:0.875 13:0.125 14:1 15:1 16:-1 17:0.25 18:1 19:1 20:1 21:1 22:1 23:1 24:-1 25:-0.625 26:1 27:1 28:1 29:1 30:0.75 31:0.25 32:0.5 33:1 34:1 35:1 36:1 37:1 38:0.25 39:-0.5 40:1 41:1 42:1 43:1 44:1 45:1 46:1 47:1 48:1 49:0.5 51:-0.375 52:-0.125 53:0.75 54:1 55:1 56:-1 57:-1 58:-1 59:-1 60:-1 61:-0.25 62:1 63:1 
-0.001780232248956494 0:1 1:1 2:1 4:-1 5:-1 6:-0.75 7:0.625 8:1 9:1 10:1 11:0.75 12:0.375 13:-0.25 14:0.75 15:1 16:-0.875 17:0.875 18:1 19:1 20:1 21:0.875 22:1 23:1 24:-1 25:0.125 26:1 27:1 28:1 29:1 30:1 31:0.75 32:-0.25 33:0.75 34:1 35:1 36:1 37:1 39:-0.75 40:1 41:1 42:1 43:1 44:1 45:1 46:1 47:0.75 48:1 49:0.875 50:0.5 51:0.125 52:0.375 53:1 54:1 55:1 56:-0.5 57:-0.875 58:-1 59:-1 60:-1 61:-0.125 62:1 63:1 
-1 0:1 1:1 2:1 3:0.5 4:-1 5:-1 6:-1 7:-1 8:1 9:1 10:1 11:0.75 12:-0.625 13:-1 14:-1 15:-0.875 16:0.625 17:1 18:1 19:1 20:1 21:-0.125 22:1 23:1 24:-1 25:-0.375 26:1 27:1 28:1 29:1 30:1 31:1 33:0.25 34:1 35:1 36:1 37:1 38:1 39:1 40:1 41:1 42:1 43:1 45:0.25 46:0.5 47:1 48:1 49:1 50:0.875 51:-0.625 52:-1 53:-1 54:-1 55:-1 56:1 57:0.875 58:-0.25 59:-1 60:-1 61:-1 62:-1 63:-1 
-0.7605170237568478 0:1 1:1 2:1 3:0.5 4:-1 5:-1 6:-1 7:-1 8:1 9:1 10:1 11:0.875 13:-0.75 14:-1 15:-1 16:1 17:1 18:1 19:1 20:1 21:0.625 22:0.5 23:0.5 24:0.5 25:0.75 26:1 27:1 28:1 29:1 30:1 31:1 32:-0.5 33:0.625 34:1 35:1 36:1 37:1 38:1 39:1 40:1 41:1 42:1 43:1 44:-1 45:-1 46:-0.75 47:-0.625 48:1 49:1 50:1 51:-0.125 52:-1 53:-1 54:-1 55:-1 56:1 57:1 58:1 59:-0.875 60:-1 61:-1 62:-1 63:-1 
-0.08795729530875676 0:1 1:1 2:1 3:1 4:-1 5:-1 6:-1 7:-1 8:1 9:1 10:1 11:1 12:0.25 13:-0.625 14:-1 15:-1 16:1 17:1 18:1 19:1 20:1 21:0.75 22:-0.25 23:-0.5 24:0.25 25:0.875 26:1 27:1 28:1 29:1 30:1 31:1 32:1 33:1 34:1 35:1 36:1 37:1 38:1 39:1 40:1 41:1 42:1 43:0.875 44:-0.5 45:-0.5 46:-0.125 48:1 49:1 50:1 51:-1 52:-1 53:-1 54:-1 55:-1 56:1 57:0.875 58:-0.25 59:-1 60:-1 61:-1 62:-1 63:-1 
-0.8083290113378262 0:1 1:1 2:0.75 3:-0.375 4:-1 5:-1 6:-1 7:-1 8:1 9:1 10:1 11:0.75 13:-0.75 14:-1 15:-1 16:1 17:1 18:1 19:1 20:1 21:0.875 22:1 23:1 24:0.75 25:0.875 26:1 27:1 28:1 29:1 30:1 31:1 32:0.5 33:0.875 34:1 35:1 36:1 37:1 38:1 39:0.875 40:1 41:1 42:1 43:1 44:-1 45:-1 46:-1 47:-1 48:1 49:1 50:1 51:0.625 52:-1 53:-1 54:-1 55:-1 56:1 57:1 58:1 59:-0.375 60:-1 61:-1 62:-1 63:-1 
-0.4469382949211798 0:1 1:1 2:0.25 3:-1 4:-1 5:-1 6:-1 7:-1 8:1 9:1 10:1 11:0.5 12:-0.5 13:-0.875 14:-1 15:-1 16:1 17:1 18:1 19:1 20:1 21:0.25 22:0.75 23:0.5 24:1 25:1 26:1 27:1 28:1 29:1 30:1 31:1 32:0.5 33:0.875 34:1 35:1 36:1 37:1 38:1 39:1 40:1 41:1 42:1 43:1 45:-0.5 46:-0.5 47:-0.625 48:1 49:1 50:1 51:0.875 52:-1 53:-1 54:-1 55:-1 56:1 57:1 58:1 59:-0.25 60:-1 61:-1 62:-1 63:-1 
-1 0:1 1:1 2:1 3:0.25 4:-1 5:-1 6:-1 7:-1 8:1 9:1 10:1 11:0.625 12:-0.75 13:-1 14:-1 15:-0.25 16:0.625 17:1 18:1 19:1 20:1 21:-0.125 22:1 23:1 24:-1 25:-0.375 26:1 27:1 28:1 29:1 30:1 31:1 33:0.25 34:1 35:1 36:1 37:1 38:1 39:1 40:1 41:1 42:1 43:0.625 47:0.5 48:1 49:1 50:1 51:-0.375 52:-1 53:-1 54:-1 55:-1 56:1 57:1 58:0.5 59:-1 60:-1 61:-1 62:-1 63:-1 
-1 0:1 1:1 2:1 3:0.25 4:-1 5:-1 6:-1 7:-1 8:1 9:1 10:1 11:0.625 12:-0.75 13:-1 14:-1 15:-0.25 16:0.625 17:1 18:1 19:1 20:1 21:-0.125 22:1 23:1 24:-1 25:-0.375 26:1 27:1 28:1 29:1 30:1 31:1 33:0.25 34:1 35:1 36:1 37:1 38:1 39:1 40:1 41:1 42:1 43:0.625 47:0.5 48:1 49:1 50:1 51:-0.375 52:-1 53:-1 54:-1 55:-1 56:1 57:1 58:0.5 59:-1 60:-1 61:-1 62:-1 63:-1 
-0.3860168369777327 0:-0.625 1:-1 2:-1 3:-1 4:-0.875 5:1 6:1 7:1 8:1 9:-1 10:-1 11:-1 12:0.5 13:1 14:1 15:1 16:0.625 17:-1 18:-1 19:-0.5 20:1 21:1 22:1 23:1 24:1 25:-1 26:-0.875 27:0.75 28:1 29:0.75 30:0.875 31:1 32:1 33:0.75 34:0.75 35:1 36:0.875 37:-1 38:-1 39:1 40:1 41:1 42:1 43:1 44:-0.75 45:-1 46:-1 47:1 48:1 49:1 50:1 51:0.5 52:-1 53:-1 54:-1 55:0.75 56:1 57:1 58:0.75 59:-0.75 60:-1 61:-1 62:-1 
-0.06712310314123984 0:0.75 1:-0.875 2:-1 3:-1 4:-1 5:0.5 6:1 7:1 8:1 9:-0.5 10:-1 11:-1 12:-0.625 13:1 14:1 15:1 16:1 17:-0.625 18:-1 19:-1 20:0.75 21:1 22:1 23:1 24:1 25:-0.5 26:-1 27:0.125 28:1 29:0.875 30:0.375 31:0.75 32:1 33:0.25 34:0.125 35:1 36:1 37:-1 38:-1 39:0.5 40:1 41:1 42:1 43:1 44:-0.375 45:-1 46:-1 47:0.5 48:1 49:1 50:1 51:0.5 52:-1 53:-1 54:-1 55:0.5 56:1 57:1 58:1 59:-0.375 60:-1 61:-1 62:-1 63:0.125 
