svm_type c_svc
kernel_type rbf
gamma 0.015873
nr_class 2
total_sv 73
rho -0.318236
label 0 1
probA -4.8267
probB 0.149075
nr_sv 35 38
SV
0.7577249809060297 0:-0.0666667 1:-0.6 2:-1 3:-1 4:-1 5:-1 6:-1 7:-1 8:-0.0666667 9:-0.6 10:-1 11:-1 12:-1 13:-1 14:-1 15:-1 16:-0.0666667 17:-0.6 18:-1 19:-1 20:-1 21:-1 22:-1 23:-1 24:-0.0666667 25:-0.6 26:-1 27:-1 28:-1 29:-0.733333 30:-0.0666667 31:-1 32:-0.0666667 33:-0.6 34:-1 35:-1 36:0.0666667 37:0.733333 38:1 39:-0.6 40:-0.0666667 41:-0.6 42:-1 43:0.466667 44:1 45:1 46:1 47:-0.6 48:-0.0666667 49:-0.6 50:0.0666667 51:1 52:-0.0666667 53:-0.6 54:-0.6 55:-1 56:-0.0666667 57:-0.466667 58:1 59:0.0666667 60:-1 61:-1 62:-1 63:-1 
1 0:-0.6 1:-1 2:-1 3:-1 4:-1 5:-1 6:-1 7:-1 8:0.2 9:-0.866667 10:-1 11:-1 12:-1 13:-1 14:-1 15:-1 16:-0.0666667 17:-1 18:-1 19:-1 20:-1 21:-1 22:-1 23:-1 24:-0.0666667 25:-1 26:-1 27:-0.0666667 28:0.333333 29:1 30:1 31:-0.6 32:-0.0666667 33:-1 34:0.733333 35:0.866667 36:-0.0666667 37:-0.6 38:-1 39:-1 40:-0.0666667 41:0.466667 42:0.2 43:-1 44:-1 45:-1 46:-1 47:-1 48:-0.0666667 49:-0.333333 50:-1 51:-1 52:-1 53:-1 54:-1 55:-1 56:-1 57:-1 58:-1 59:-1 60:-1 61:-1 62:-1 63:-1 
1 0:-0.6 1:-0.6 2:-1 3:-1 4:-1 5:-1 6:-0.733333 7:-1 8:-0.6 9:-0.6 10:-1 11:-1 12:0.333333 13:0.466667 14:0.866667 15:-0.6 16:-0.0666667 17:-0.6 18:-0.866667 19:0.733333 20:0.733333 21:0.466667 22:0.466667 23:-0.733333 24:-0.0666667 25:-0.2 26:0.733333 27:0.0666667 28:-1 29:-1 30:-1 31:-1 32:-0.0666667 33:0.333333 34:-0.0666667 35:-1 36:-1 37:-1 38:-1 39:-1 40:-0.0666667 41:-0.2 42:-1 43:-1 44:-1 45:-1 46:-1 47:-1 48:-1 49:-1 50:-1 51:-1 52:-1 53:-1 54:-1 55:-1 56:-1 57:-1 58:-1 59:-1 60:-1 61:-1 62:-1 63:-1 
1 0:-0.466667 1:-0.333333 2:-1 3:-1 4:-1 5:-1 6:-1 7:-1 8:-0.2 9:-0.0666667 10:-1 11:-1 12:-1 13:-1 14:-1 15:-1 16:-0.6 17:-0.466667 18:-1 19:-1 20:-0.866667 21:-0.6 22:-0.0666667 23:-0.866667 24:-0.333333 25:-0.6 26:-1 27:0.333333 28:1 29:1 30:1 31:-0.333333 32:-0.0666667 33:0.466667 34:0.6 35:0.6 36:-0.466667 37:-1 38:-1 39:-1 40:-0.2 41:0.866667 42:-0.333333 43:-1 44:-1 45:-1 46:-1 47:-1 48:-1 49:-0.733333 50:-1 51:-1 52:-1 53:-1 54:-1 55:-1 56:-1 57:-1 58:-1 59:-1 60:-1 61:-1 62:-1 63:-1 
1 0:-1 1:-1 2:-1 3:-1 4:-1 5:-1 6:-1 7:-1 8:-0.6 9:0.2 10:-1 11:-1 12:-1 13:-1 14:-1 15:-1 16:-0.6 17:1 18:-1 19:-1 20:-1 21:-1 22:-1 23:-1 24:-0.6 25:0.0666667 26:-1 27:-1 28:-1 29:-1 30:-1 31:-1 32:-0.6 33:-0.0666667 34:-1 35:-1 36:-1 37:-0.2 38:1 39:1 40:-0.6 41:0.2 42:-1 43:0.2 44:0.866667 45:1 46:0.6 47:-0.2 48:-0.6 49:1 50:0.6 51:1 52:0.333333 53:-0.6 54:-1 55:-1 56:-0.6 57:1 58:0.0666667 59:-1 60:-1 61:-1 62:-1 63:-1 
1 0:-0.333333 1:-0.333333 2:-1 3:-1 4:-1 5:-1 6:-1 7:-1 8:-0.2 9:-0.0666667 10:-1 11:-1 12:-1 13:-1 14:-1 15:-1 16:-0.6 17:-0.466667 18:-1 19:-1 20:-0.733333 21:-0.6 22:-0.0666667 23:-0.6 24:-0.333333 25:-0.6 26:-0.733333 27:0.333333 28:1 29:1 30:1 31:-0.333333 32:-0.0666667 33:0.466667 34:0.866667 35:0.6 36:-0.466667 37:-1 38:-1 39:-1 40:-0.2 41:0.866667 42:-0.333333 43:-1 44:-1 45:-1 46:-1 47:-1 48:-1 49:-0.733333 50:-1 51:-1 52:-1 53:-1 54:-1 55:-1 56:-1 57:-1 58:-1 59:-1 60:-1 61:-1 62:-1 63:-1 
0.3070360632627243 0:-0.6 1:-0.0666667 2:-1 3:-1 4:-1 5:-1 6:-1 7:-1 8:-0.6 9:-0.0666667 10:-1 11:-1 12:-1 13:-0.6 14:0.733333 15:-0.0666667 16:-0.6 17:-0.0666667 18:-1 19:-0.733333 20:1 21:1 22:1 23:-0.2 24:-0.6 25:-0.333333 26:-0.866667 27:0.866667 28:0.866667 29:0.0666667 30:-0.866667 31:-1 32:-0.6 33:-0.466667 34:0.466667 35:0.733333 36:-0.6 37:-1 38:-1 39:-1 40:-0.6 41:0.466667 42:1 43:-0.733333 44:-1 45:-1 46:-1 47:-1 48:-0.6 49:1 50:0.0666667 51:-1 52:-1 53:-1 54:-1 55:-1 56:-0.6 57:0.466667 58:-1 59:-1 60:-1 61:-1 62:-1 63:-1 
1 0:-1 1:-0.0666667 2:-1 3:-1 4:-1 5:-1 6:-1 7:-1 8:-0.866667 9:-0.0666667 10:-1 11:-1 12:-0.466667 13:0.466667 14:0.866667 15:-0.0666667 16:-1 17:-0.0666667 18:-1 19:-0.466667 20:0.866667 21:1 22:1 23:-0.0666667 24:-1 25:-0.0666667 26:-0.866667 27:0.866667 28:1 29:-0.466667 30:-1 31:-1 32:-1 33:-0.0666667 34:0.2 35:0.6 36:-1 37:-1 38:-1 39:-1 40:-1 41:0.333333 42:1 43:-0.733333 44:-1 45:-1 46:-1 47:-1 48:-1 49:1 50:-0.466667 51:-1 52:-1 53:-1 54:-1 55:-1 56:-1 57:0.0666667 58:-1 59:-1 60:-1 61:-1 62:-1 63:-1 
0.4144808081902117 0:-1 1:-0.6 2:-1 3:-1 4:-1 5:-1 6:-1 7:-1 8:-0.6 9:0.333333 10:-1 11:-1 12:-1 13:-1 14:-1 15:-1 16:-0.6 17:0.466667 18:-1 19:-1 20:-1 21:-1 22:-0.866667 23:-0.6 24:-0.6 25:0.0666667 26:-1 27:-0.866667 28:-0.0666667 29:1 30:1 31:0.333333 32:-0.6 33:0.0666667 34:-0.6 35:0.733333 36:1 37:0.866667 38:-0.6 39:-0.866667 40:-0.6 41:0.733333 42:0.6 43:0.2 44:-0.866667 45:-1 46:-1 47:-1 48:-0.6 49:1 50:-0.2 51:-1 52:-1 53:-1 54:-1 55:-1 56:-1 57:-0.333333 58:-1 59:-1 60:-1 61:-1 62:-1 63:-1 
0.9462773490609076 0:-0.6 1:-0.866667 2:-1 3:-1 4:-1 5:-1 6:-1 7:-1 8:-0.0666667 9:-0.0666667 10:-1 11:-1 12:-1 13:-1 14:-1 15:-1 16:-0.0666667 17:-0.0666667 18:-1 19:-1 20:-1 21:-1 22:-1 23:-1 24:-0.0666667 25:-0.0666667 26:-1 27:-1 28:-1 29:-0.733333 30:-0.6 31:-0.0666667 32:-0.0666667 33:-0.0666667 34:-1 35:-0.333333 36:0.466667 37:0.866667 38:1 39:1 40:-0.0666667 41:0.2 42:0.2 43:0.866667 44:0.2 45:-0.6 46:-0.6 47:-0.6 48:-0.0666667 49:1 50:-0.333333 51:-0.733333 52:-1 53:-1 54:-1 55:-1 56:-0.866667 57:-0.6 58:-1 59:-1 60:-1 61:-1 62:-1 63:-1 
0.8878264430599608 0:-0.6 1:-0.333333 2:-1 3:-1 4:-1 5:-0.0666667 6:-0.0666667 7:0.333333 8:-0.6 9:-0.6 10:-1 11:-1 12:0.466667 13:1 14:1 15:0.466667 16:-0.6 17:-0.6 18:-0.6 19:1 20:1 21:1 22:1 23:0.333333 24:-0.6 25:-0.333333 26:0.2 27:1 28:0.733333 29:-0.866667 30:-1 31:-1 32:-0.6 33:1 34:1 35:0.2 36:-0.866667 37:-1 38:-1 39:-1 40:-0.6 41:1 42:0.733333 43:-1 44:-1 45:-1 46:-1 47:-1 48:-0.6 49:0.466667 50:-1 51:-1 52:-1 53:-1 54:-1 55:-1 56:-0.866667 57:-0.6 58:-1 59:-1 60:-1 61:-1 62:-1 63:-1 
1 0:0.466667 1:-1 2:-1 3:-1 4:-1 5:-1 6:-1 7:-1 8:0.0666667 9:-1 10:-1 11:-1 12:-1 13:-1 14:-1 15:-1 16:-0.733333 17:-1 18:-1 19:-1 20:-1 21:-1 22:-0.866667 23:-0.733333 24:-0.733333 25:-1 26:-0.733333 27:-0.333333 28:0.466667 29:0.466667 30:0.866667 31:0.466667 32:0.333333 33:-0.2 34:1 35:0.6 36:-0.0666667 37:-0.6 38:-0.6 39:-0.733333 40:1 41:1 42:-0.333333 43:-1 44:-1 45:-1 46:-1 47:-1 48:-0.0666667 49:-1 50:-1 51:-1 52:-1 53:-1 54:-1 55:-1 56:-1 57:-1 58:-1 59:-1 60:-1 61:-1 62:-1 63:-1 
1 0:-0.6 1:-1 2:-1 3:-1 4:-1 5:-1 6:-1 7:-1 8:-0.6 9:-0.6 10:-1 11:-1 12:-1 13:-1 14:-1 15:-1 16:-0.6 17:-0.6 18:-1 19:-1 20:-1 21:-1 22:-1 23:-1 24:-0.6 25:-0.6 26:-1 27:-1 28:-1 29:-0.6 30:-0.6 31:-0.6 32:-0.6 33:-1 34:-1 35:0.2 36:0.866667 37:1 38:1 39:-0.0666667 40:-0.6 41:-0.333333 42:0.866667 43:0.733333 44:-0.333333 45:-0.733333 46:-1 47:-1 48:0.0666667 49:0.866667 50:-0.2 51:-1 52:-1 53:-1 54:-1 55:-0.333333 56:-0.2 57:-0.866667 58:-1 59:-1 60:-1 61:-0.733333 62:-0.733333 63:-0.866667 
1 0:-1 1:-0.866667 2:-1 3:-1 4:-1 5:-1 6:-1 7:-1 8:0.466667 9:-0.0666667 10:-1 11:-1 12:-1 13:-1 14:-1 15:-1 16:-0.0666667 17:-0.6 18:-1 19:-1 20:-1 21:-1 22:-0.6 23:-1 24:-0.0666667 25:-1 26:-1 27:-0.466667 28:0.466667 29:0.466667 30:1 31:0.333333 32:0.0666667 33:-1 34:-0.0666667 35:0.733333 36:0.466667 37:0.466667 38:0.466667 39:-0.466667 40:0.466667 41:0.6 42:0.6 43:-0.733333 44:-1 45:-1 46:-1 47:-1 48:0.466667 49:0.466667 50:-1 51:-1 52:-1 53:-1 54:-1 55:-1 56:-0.6 57:-1 58:-1 59:-1 60:-1 61:-1 62:-1 63:-1 
1 0:-0.733333 1:-1 2:-1 3:-1 4:-1 5:-1 6:-1 7:-1 8:0.466667 9:-1 10:-1 11:-1 12:-1 13:-1 14:-1 15:-1 16:0.333333 17:-1 18:-1 19:-1 20:-1 21:-0.6 22:-0.6 23:-0.866667 24:-0.0666667 25:-1 26:-0.866667 27:0.466667 28:1 29:1 30:1 31:0.2 32:-0.2 33:-0.466667 34:1 35:0.733333 36:-0.0666667 37:-0.6 38:-1 39:-1 40:0.866667 41:0.733333 42:-0.333333 43:-1 44:-1 45:-1 46:-1 47:-1 48:0.733333 49:-0.866667 50:-1 51:-1 52:-1 53:-1 54:-1 55:-1 56:-0.866667 57:-1 58:-1 59:-1 60:-1 61:-1 62:-1 63:-1 
1 0:-0.866667 1:-1 2:-1 3:-1 4:-1 5:-1 6:-1 7:-1 8:0.333333 9:-1 10:-1 11:-1 12:-1 13:-1 14:-1 15:-1 16:0.466667 17:-1 18:-1 19:-1 20:-1 21:-1 22:-1 23:-1 24:0.333333 25:-1 26:-1 27:-1 28:-0.6 29:-0.2 30:0.466667 31:-0.333333 32:-0.0666667 33:-1 34:-0.733333 35:0.466667 36:1 37:1 38:1 39:-0.0666667 40:-0.0666667 41:-0.333333 42:1 43:0.2 44:-0.866667 45:-1 46:-1 47:-1 48:0.866667 49:0.733333 50:-0.6 51:-1 52:-1 53:-1 54:-1 55:-1 56:1 57:-0.733333 58:-1 59:-1 60:-1 61:-1 62:-1 63:-1 
1 0:-0.733333 1:-1 2:-1 3:-1 4:-1 5:-1 6:-1 7:-0.333333 8:-1 9:-1 10:-1 11:-1 12:-1 13:-0.866667 14:-0.866667 15:-1 16:-1 17:-1 18:-1 19:-1 20:0.466667 21:0.733333 22:0.6 23:-1 24:-1 25:-1 26:-0.733333 27:0.733333 28:1 29:1 30:1 31:-1 32:-1 33:-1 34:0.2 35:1 36:1 37:0.2 38:-0.0666667 39:-1 40:-1 41:-1 42:0.466667 43:0.733333 44:-0.6 45:-1 46:-1 47:-1 48:-1 49:-1 50:0.2 51:-0.6 52:-1 53:-1 54:-1 55:-1 56:-1 57:-1 58:-0.866667 59:-1 60:-1 61:-1 62:-1 63:-1 
1 0:-0.6 1:-1 2:-1 3:-1 4:-1 5:-0.733333 6:-0.733333 7:-1 8:-0.6 9:-1 10:-1 11:-1 12:0.466667 13:0.866667 14:0.866667 15:-1 16:-1 17:-1 18:-0.6 19:1 20:1 21:1 22:1 23:-1 24:-1 25:-1 26:0.866667 27:1 28:1 29:0.2 30:-0.6 31:-1 32:-0.866667 33:0.2 34:1 35:0.6 36:-0.733333 37:-1 38:-1 39:-1 40:0.0666667 41:1 42:0.6 43:-1 44:-1 45:-1 46:-1 47:-1 48:0.466667 49:0.733333 50:-1 51:-1 52:-1 53:-1 54:-1 55:-1 56:-0.733333 57:-1 58:-1 59:-1 60:-1 61:-1 62:-1 63:-1 
1 0:-1 1:-0.0666667 2:-1 3:-1 4:-1 5:-1 6:-1 7:-1 8:-0.6 9:-0.0666667 10:-1 11:-1 12:-1 13:-1 14:-1 15:-1 16:-0.6 17:-0.0666667 18:-1 19:-1 20:-1 21:-0.866667 22:-0.6 23:-1 24:-0.6 25:-0.0666667 26:-1 27:-0.333333 28:0.466667 29:0.733333 30:1 31:-0.6 32:-0.6 33:0.733333 34:-0.0666667 35:1 36:1 37:0.6 38:0.866667 39:-0.733333 40:-0.6 41:1 42:1 43:0.333333 44:-0.6 45:-1 46:-0.733333 47:-1 48:-0.733333 49:0.733333 50:-1 51:-1 52:-1 53:-1 54:-1 55:-1 56:-1 57:-1 58:-1 59:-1 60:-1 61:-1 62:-1 63:-1 
0.2087081378907028 0:0.6 1:-1 2:-1 3:-1 4:-1 5:-1 6:-0.0666667 7:-0.333333 8:0.466667 9:-1 10:-1 11:-0.866667 12:0.2 13:0.866667 14:1 15:1 16:0.466667 17:-1 18:-0.733333 19:0.733333 20:1 21:1 22:1 23:0.733333 24:0.466667 25:-1 26:0.733333 27:1 28:0.2 29:-0.866667 30:-1 31:-1 32:0.733333 33:0.466667 34:1 35:-0.733333 36:-1 37:-1 38:-1 39:-1 40:1 41:0.866667 42:-0.733333 43:-1 44:-1 45:-1 46:-1 47:-1 48:1 49:0.0666667 50:-1 51:-1 52:-1 53:-1 54:-1 55:-1 56:-0.333333 57:-1 58:-1 59:-1 60:-1 61:-1 62:-1 63:-1 
0.01189702220491838 0:-0.0666667 1:-1 2:-1 3:-0.733333 4:-1 5:-1 6:-1 7:-1 8:-0.0666667 9:-1 10:-1 11:-1 12:-1 13:-1 14:-1 15:-1 16:-0.0666667 17:-1 18:-1 19:-1 20:-1 21:-0.333333 22:-0.0666667 23:-1 24:-0.0666667 25:-1 26:-0.866667 27:0.466667 28:1 29:1 30:1 31:-1 32:0.2 33:-0.866667 34:0.866667 35:0.733333 36:-0.333333 37:-0.6 38:-0.6 39:-1 40:0.466667 41:1 42:-0.2 43:-1 44:-1 45:-1 46:-1 47:-1 48:0.333333 49:-0.2 50:-1 51:-1 52:-1 53:-1 54:-1 55:-1 56:-1 57:-1 58:-1 59:-1 60:-1 61:-1 62:-1 63:-1 
1 0:-1 1:0.466667 2:-1 3:-1 4:-1 5:-1 6:-1 7:-1 8:-1 9:1 10:-1 11:-1 12:-1 13:-1 14:-1 15:-1 16:-1 17:1 18:-1 19:-1 20:-1 21:-1 22:-1 23:-1 24:-1 25:0.466667 26:-1 27:-1 28:-0.466667 29:0.333333 30:0.6 31:1 32:-1 33:0.466667 34:-1 35:0.333333 36:1 37:0.733333 38:0.466667 39:0.333333 40:-1 41:0.733333 42:0.333333 43:0.6 44:-0.466667 45:-1 46:-1 47:-1 48:-1 49:1 50:0.466667 51:-1 52:-1 53:-1 54:-1 55:-1 56:-1 57:-0.6 58:-1 59:-1 60:-1 61:-1 62:-1 63:-1 
1 0:-1 1:-1 2:-1 3:-1 4:-1 5:-1 6:-1 7:-1 8:-0.6 9:-0.333333 10:-1 11:-1 12:-1 13:-1 14:-1 15:-1 16:-0.0666667 17:-0.0666667 18:-1 19:-1 20:-1 21:-1 22:-1 23:-1 24:-0.0666667 25:-0.466667 26:-1 27:0.0666667 28:0.466667 29:0.466667 30:0.466667 31:-1 32:-0.0666667 33:-0.2 34:0.466667 35:1 36:0.466667 37:0.466667 38:0.2 39:-1 40:-0.333333 41:1 42:0.733333 43:0.2 44:-1 45:-1 46:-1 47:-1 48:-0.733333 49:-0.0666667 50:-0.866667 51:-1 52:-1 53:-1 54:-1 55:-1 56:-0.6 57:-1 58:-1 59:-1 60:-1 61:-1 62:-1 63:-1 
0.5491590322134003 0:0.0666667 1:-1 2:-1 3:-1 4:-1 5:-1 6:-1 7:-1 8:0.466667 9:-0.6 10:-1 11:-1 12:-1 13:-1 14:-1 15:-1 16:0.466667 17:-0.6 18:-1 19:-1 20:0.2 21:0.466667 22:0.0666667 23:-1 24:0.466667 25:-1 26:-0.6 27:0.466667 28:1 29:1 30:0.466667 31:-1 32:0.466667 33:-0.2 34:0.866667 35:0.466667 36:-0.333333 37:-1 38:-1 39:-1 40:0.466667 41:0.733333 42:-0.0666667 43:-1 44:-1 45:-1 46:-1 47:-1 48:-0.466667 49:-0.6 50:-1 51:-1 52:-1 53:-1 54:-1 55:-1 56:-1 57:-1 58:-1 59:-1 60:-1 61:-1 62:-1 63:-1 
1 0:0.2 1:-1 2:-1 3:-1 4:-1 5:-1 6:-1 7:-1 8:0.466667 9:-1 10:-1 11:-1 12:-1 13:-1 14:-1 15:-1 16:0.466667 17:-1 18:-1 19:-1 20:-1 21:-1 22:-1 23:-1 24:0.466667 25:-1 26:-1 27:-1 28:-1 29:-0.6 30:-0.2 31:-0.733333 32:0.2 33:-1 34:-1 35:-0.466667 36:0.466667 37:1 38:0.466667 39:-0.2 40:0.0666667 41:-0.866667 42:0.6 43:1 44:-0.333333 45:-0.733333 46:-1 47:-1 48:0.866667 49:0.333333 50:-1 51:-1 52:-1 53:-1 54:-1 55:-1 56:0.866667 57:-1 58:-1 59:-1 60:-1 61:-0.866667 62:-0.866667 63:-0.866667 
0.09529570229165953 0:-1 1:-1 2:-1 3:-1 4:-1 5:-1 6:-1 7:-1 8:-1 9:-1 10:-1 11:-1 12:-1 13:-1 14:-1 15:-1 16:-0.0666667 17:-1 18:-0.733333 19:-1 20:-1 21:-1 22:-1 23:-1 24:-0.6 25:-1 26:-1 27:-1 28:-1 29:-1 30:-1 31:-0.0666667 32:-0.733333 33:-1 34:-1 35:-0.733333 36:-0.6 37:0.866667 38:1 39:1 40:-1 41:-0.466667 42:0.466667 43:0.866667 44:1 45:0.733333 46:-0.0666667 47:1 48:0.0666667 49:1 50:0.6 51:0.2 52:-1 53:-1 54:-1 55:-1 56:1 57:-0.6 58:-1 59:-1 60:-1 61:-1 62:-1 63:-1 
0.4062991054837982 0:-1 1:-1 2:-1 3:-1 4:-1 5:-1 6:-1 7:-1 8:-1 9:-1 10:-1 11:-1 12:-1 13:-1 14:-1 15:-1 16:-0.733333 17:0.466667 18:-1 19:-1 20:-1 21:-1 22:-1 23:-1 24:-0.0666667 25:1 26:-1 27:-1 28:-1 29:-1 30:-0.466667 31:-1 32:-0.466667 33:1 34:-1 35:-1 36:-0.466667 37:0.733333 38:1 39:-1 40:-0.6 41:1 42:-1 43:-0.0666667 44:1 45:1 46:0.333333 47:-1 48:-0.6 49:1 50:0.733333 51:1 52:-0.0666667 53:-1 54:-1 55:-1 56:-0.6 57:1 58:1 59:-0.333333 60:-1 61:-1 62:-1 63:-1 
1 0:0.466667 1:-1 2:-1 3:-1 4:-1 5:-0.6 6:-0.0666667 7:1 8:0.466667 9:-1 10:-1 11:-0.6 12:0.6 13:1 14:1 15:1 16:0.466667 17:-1 18:-0.333333 19:1 20:1 21:1 22:0.6 23:0.466667 24:0.466667 25:-0.466667 26:1 27:1 28:0.733333 29:-0.333333 30:-1 31:-1 32:1 33:0.733333 34:1 35:-0.333333 36:-1 37:-1 38:-1 39:-1 40:1 41:1 42:-0.333333 43:-1 44:-1 45:-1 46:-1 47:-1 48:1 49:0.0666667 50:-1 51:-1 52:-1 53:-1 54:-1 55:-1 56:0.333333 57:-1 58:-1 59:-1 60:-1 61:-1 62:-1 63:-1 
1 0:-1 1:-1 2:-0.0666667 3:-1 4:-1 5:-1 6:-1 7:-1 8:1 9:-1 10:-0.0666667 11:-1 12:-1 13:-1 14:-1 15:-1 16:1 17:-0.6 18:-0.6 19:-1 20:-1 21:-1 22:-1 23:-1 24:1 25:-0.6 26:-1 27:-1 28:-1 29:-1 30:-1 31:-1 32:0.466667 33:-1 34:-1 35:-1 36:-1 37:-0.6 38:-0.0666667 39:0.466667 40:0.466667 41:-1 42:-0.6 43:0.333333 44:1 45:1 46:1 47:0.733333 48:1 49:-0.733333 50:0.733333 51:0.466667 52:-0.0666667 53:-0.866667 54:-1 55:-1 56:1 57:1 58:-0.0666667 59:-1 60:-1 61:-1 62:-1 63:-1 
1 0:-0.0666667 1:-0.0666667 2:-1 3:-1 4:-1 5:-1 6:-0.6 7:-0.6 8:-0.0666667 9:-0.0666667 10:-0.733333 11:-1 12:-1 13:-1 14:-1 15:-1 16:-0.0666667 17:-0.0666667 18:-1 19:-1 20:-1 21:-1 22:-0.733333 23:-1 24:-0.0666667 25:-0.0666667 26:-1 27:-1 28:-1 29:0.466667 30:0.733333 31:-0.2 32:-0.0666667 33:-0.0666667 34:-0.333333 35:0.733333 36:1 37:1 38:1 39:-0.0666667 40:-0.0666667 41:0.733333 42:0.866667 43:0.2 44:-0.0666667 45:-0.0666667 46:-0.0666667 47:-0.733333 48:-0.333333 49:0.333333 50:-1 51:-1 52:-1 53:-1 54:-1 55:-1 56:-1 57:-1 58:-1 59:-1 60:-1 61:-1 62:-1 63:-1 
1 0:-0.2 1:-1 2:-1 3:-1 4:-1 5:-1 6:-1 7:-1 8:0.733333 9:-1 10:-1 11:-1 12:-1 13:-1 14:-1 15:-1 16:0.0666667 17:-1 18:-1 19:-1 20:-0.6 21:-0.6 22:-0.6 23:-1 24:0.466667 25:-1 26:-0.466667 27:0.466667 28:1 29:1 30:1 31:-0.733333 32:0.466667 33:-0.466667 34:0.866667 35:0.466667 36:-0.0666667 37:-0.0666667 38:-0.0666667 39:-1 40:0.466667 41:1 42:0.466667 43:-0.866667 44:-1 45:-1 46:-1 47:-1 48:0.466667 49:-0.6 50:-1 51:-1 52:-1 53:-1 54:-1 55:-0.6 56:-0.866667 57:-1 58:-1 59:-1 60:-1 61:-1 62:-1 63:-1 
0.3592996433659613 0:-1 1:-1 2:-1 3:-1 4:-1 5:-1 6:-1 7:-1 8:-1 9:-0.866667 10:-1 11:-1 12:-1 13:-1 14:-1 15:-1 16:0.466667 17:-0.866667 18:-1 19:-1 20:-1 21:-1 22:-1 23:-1 24:0.466667 25:-1 26:-1 27:-1 28:-1 29:-1 30:-1 31:-1 32:0.2 33:-1 34:-1 35:-1 36:-0.466667 37:0.466667 38:1 39:0.466667 40:-0.0666667 41:-1 42:-0.6 43:0.866667 44:1 45:0.733333 46:0.466667 47:-0.0666667 48:0.466667 49:-0.6 50:1 51:0.333333 52:-0.733333 53:-1 54:-1 55:-1 56:1 57:1 58:-0.333333 59:-1 60:-1 61:-1 62:-1 63:-1 
0.854543975003957 0:-0.333333 1:-0.866667 2:-0.866667 3:-1 4:-1 5:-1 6:-1 7:-1 8:0.466667 9:-0.6 10:-0.6 11:-1 12:-1 13:-1 14:-1 15:-1 16:0.466667 17:-0.6 18:-1 19:-1 20:-1 21:-1 22:-1 23:-1 24:0.333333 25:-0.6 26:-1 27:-1 28:-0.6 29:0.2 30:0.6 31:-0.333333 32:-0.0666667 33:-0.6 34:-0.866667 35:0.6 36:1 37:0.466667 38:0.466667 39:-0.6 40:-0.0666667 41:-0.2 42:0.333333 43:0.2 44:-0.6 45:-1 46:-1 47:-1 48:-0.333333 49:1 50:-0.333333 51:-1 52:-1 53:-1 54:-1 55:-1 56:0.2 57:0.466667 58:-1 59:-0.333333 60:-0.0666667 61:1 62:1 63:1 
1 0:-0.866667 1:-0.866667 2:-1 3:-1 4:-1 5:-1 6:-1 7:-1 8:-0.6 9:-0.333333 10:-0.866667 11:-0.866667 12:-1 13:-1 14:-1 15:-1 16:-0.333333 17:-0.0666667 18:-1 19:-1 20:-1 21:-1 22:-1 23:-1 24:-0.6 25:-0.333333 26:-1 27:-1 28:-1 29:-0.6 30:-0.0666667 31:-0.333333 32:-0.6 33:-0.0666667 34:-1 35:-0.0666667 36:1 37:1 38:1 39:0.466667 40:-0.6 41:0.2 42:0.466667 43:1 44:-0.0666667 45:-1 46:-1 47:-1 48:0.2 49:1 50:0.2 51:-0.866667 52:-1 53:-1 54:-1 55:-1 56:0.2 57:-0.333333 58:-1 59:-1 60:-1 61:-1 62:-1 63:-1 
1 0:-0.6 1:-1 2:-1 3:-1 4:-1 5:-1 6:-1 7:-1 8:0.466667 9:-0.2 10:-1 11:-1 12:-1 13:-1 14:-1 15:-1 16:0.0666667 17:-0.0666667 18:-1 19:-1 20:-1 21:-1 22:-0.0666667 23:-1 24:-0.6 25:-0.0666667 26:-1 27:-0.2 28:0.466667 29:0.6 30:1 31:-0.6 32:-0.6 33:-0.0666667 34:-0.0666667 35:0.733333 36:0.466667 37:-0.6 38:-1 39:-1 40:-0.6 41:0.733333 42:0.466667 43:-0.733333 44:-1 45:-1 46:-1 47:-1 48:-0.733333 49:0.333333 50:-1 51:-1 52:-1 53:-1 54:-1 55:-1 56:-1 57:-1 58:-1 59:-1 60:-1 61:-0.733333 62:0.466667 63:0.466667 
-0.06552625161519755 0:-0.733333 1:-1 2:-0.6 3:-1 4:-1 5:-1 6:-1 7:-1 8:0.466667 9:-0.6 10:-1 11:-1 12:-1 13:-1 14:-1 15:-1 16:0.466667 17:-0.6 18:-1 19:-1 20:-1 21:-1 22:-1 23:-1 24:0.466667 25:-0.466667 26:-0.733333 27:-0.6 28:-0.6 29:-0.6 30:-0.0666667 31:-0.6 32:0.466667 33:0.866667 34:0.866667 35:1 36:1 37:1 38:1 39:0.333333 40:0.466667 41:-0.466667 42:-0.866667 43:-0.6 44:-1 45:-1 46:-0.866667 47:-0.6 48:0.466667 49:-1 50:-1 51:-1 52:-1 53:-1 54:-1 55:-1 56:0.466667 57:-1 58:-1 59:-1 60:-1 61:-1 62:-0.6 63:-0.6 
-1 0:-0.866667 1:-0.6 2:-1 3:-1 4:-1 5:-1 6:-1 7:-1 8:-0.0666667 9:-0.6 10:-1 11:-1 12:-1 13:-1 14:-1 15:-1 16:-0.0666667 17:-0.6 18:-1 19:-1 20:-1 21:-1 22:-1 23:-1 24:-0.0666667 25:-0.333333 26:-1 27:-1 28:-1 29:-1 30:-0.0666667 31:-0.866667 32:-0.0666667 33:0.466667 34:0.733333 35:1 36:1 37:1 38:1 39:-0.333333 40:-0.0666667 41:-0.2 42:-0.6 43:-0.6 44:-0.6 45:-0.6 46:-0.6 47:-1 48:0.0666667 49:-0.6 50:-1 51:-1 52:-1 53:-1 54:-1 55:-1 56:0.2 57:-0.6 58:-1 59:-1 60:-1 61:-1 62:-1 63:-1 
-1 0:-1 1:-1 2:-0.466667 3:-1 4:-1 5:-1 6:-1 7:-1 8:-0.466667 9:-1 10:-0.466667 11:-1 12:-1 13:-1 14:-1 15:-1 16:-0.0666667 17:-0.866667 18:-1 19:-1 20:-1 21:-1 22:-1 23:-1 24:-0.0666667 25:-1 26:-1 27:-1 28:-1 29:-1 30:-1 31:-1 32:-0.0666667 33:0.333333 34:0.333333 35:0.466667 36:0.466667 37:0.466667 38:0.466667 39:-0.466667 40:-0.0666667 41:0.2 42:-0.0666667 43:-0.0666667 44:-0.0666667 45:-0.0666667 46:-0.0666667 47:-0.733333 48:-0.0666667 49:-1 50:-1 51:-1 52:-1 53:-1 54:-1 55:-1 56:-0.0666667 57:-1 58:-1 59:-1 60:-1 61:-1 62:-1 63:-1 
-1 0:0.333333 1:-1 2:-0.6 3:-1 4:-1 5:-1 6:-1 7:-1 8:0.466667 9:-1 10:-0.866667 11:-1 12:-1 13:-1 14:-1 15:-1 16:0.466667 17:-1 18:-1 19:-1 20:-1 21:-1 22:-1 23:-1 24:0.466667 25:0.333333 26:-0.333333 27:0.333333 28:0.466667 29:0.0666667 30:0.466667 31:-0.733333 32:0.466667 33:0.333333 34:-0.333333 35:0.466667 36:0.466667 37:0.466667 38:0.6 39:-0.2 40:0.466667 41:-1 42:-1 43:-1 44:-1 45:-1 46:-1 47:-1 48:0.466667 49:-0.866667 50:-1 51:-1 52:-1 53:-1 54:-1 55:-1 56:0.2 57:-1 58:-1 59:-1 60:-1 61:-1 62:-1 63:-1 
-1 0:-0.6 1:-0.6 2:-1 3:-1 4:-1 5:-1 6:-0.6 7:-1 8:-0.6 9:-0.333333 10:-1 11:-0.0666667 12:-0.0666667 13:0.2 14:1 15:-0.6 16:-0.6 17:0.2 18:-0.0666667 19:1 20:1 21:1 22:1 23:-0.6 24:-0.6 25:1 26:1 27:1 28:1 29:1 30:0.2 31:-1 32:-0.6 33:0.333333 34:-0.0666667 35:0.0666667 36:-1 37:-1 38:-1 39:-1 40:-0.6 41:-0.2 42:-1 43:-1 44:-1 45:-1 46:-1 47:-1 48:-0.6 49:-0.6 50:-1 51:-1 52:-1 53:-1 54:-1 55:-1 56:-0.6 57:-0.6 58:-1 59:-1 60:-1 61:-1 62:-1 63:-1 
-0.3988722531659077 0:-1 1:-1 2:-1 3:-1 4:-1 5:-1 6:-1 7:-1 8:-0.2 9:-0.333333 10:-1 11:-1 12:-1 13:-1 14:-1 15:-1 16:-0.0666667 17:-0.0666667 18:-1 19:-1 20:-1 21:-1 22:-1 23:-1 24:-0.0666667 25:0.466667 26:-0.733333 27:-0.0666667 28:-0.0666667 29:-0.0666667 30:-0.0666667 31:-0.866667 32:-0.0666667 33:1 34:1 35:1 36:1 37:1 38:1 39:-0.2 40:-0.0666667 41:0.2 42:-0.6 43:-0.6 44:-0.6 45:-0.6 46:-0.6 47:-1 48:-0.0666667 49:-0.0666667 50:-1 51:-1 52:-1 53:-1 54:-1 55:-1 56:-0.0666667 57:-0.333333 58:-1 59:-1 60:-1 61:-1 62:-1 63:-1 
-1 0:-1 1:-1 2:-1 3:-1 4:-1 5:-1 6:-1 7:-1 8:-0.2 9:-0.333333 10:-1 11:-1 12:-1 13:-1 14:-1 15:-1 16:-0.0666667 17:-0.0666667 18:-1 19:-1 20:-1 21:-1 22:-1 23:-1 24:-0.0666667 25:0.466667 26:-0.733333 27:-0.0666667 28:-0.0666667 29:-0.0666667 30:-0.0666667 31:-0.866667 32:-0.0666667 33:1 34:1 35:1 36:1 37:1 38:1 39:-0.2 40:-0.0666667 41:0.2 42:-0.6 43:-0.6 44:-0.6 45:-0.6 46:-0.6 47:-1 48:-0.0666667 49:-0.0666667 50:-1 51:-1 52:-1 53:-1 54:-1 55:-1 56:-0.0666667 57:-0.333333 58:-1 59:-1 60:-1 61:-1 62:-1 63:-1 
-0.3901910354242765 0:1 1:-0.466667 2:-0.6 3:-0.6 4:-1 5:-1 6:-1 7:-1 8:1 9:1 10:1 11:1 12:0.0666667 13:-0.0666667 14:-0.0666667 15:-0.0666667 16:1 17:1 18:1 19:1 20:1 21:1 22:1 23:1 24:0.6 25:-1 26:-0.466667 27:0.466667 28:0.466667 29:0.733333 30:1 31:1 32:-0.0666667 33:-1 34:-1 35:-1 36:-1 37:-0.733333 38:-0.0666667 39:-0.0666667 40:-0.0666667 41:-1 42:-1 43:-1 44:-1 45:-1 46:-1 47:-1 48:-0.0666667 49:-1 50:-1 51:-1 52:-1 53:-1 54:-1 55:-1 56:-0.0666667 57:-1 58:-1 59:-1 60:-1 61:-1 62:-1 63:-1 
-1 0:-1 1:-1 2:-1 3:-1 4:-1 5:-1 6:-1 7:-1 8:-0.333333 9:-1 10:-1 11:-1 12:-1 13:-1 14:-1 15:-1 16:-0.0666667 17:-1 18:-1 19:-1 20:-1 21:-1 22:-1 23:-1 24:-0.0666667 25:-1 26:-1 27:-1 28:-1 29:-1 30:-1 31:-1 32:-0.0666667 33:0.466667 34:0.2 35:1 36:0.333333 37:1 38:1 39:0.333333 40:0.333333 41:-0.2 42:-0.333333 43:-0.0666667 44:-0.0666667 45:-0.6 46:-0.2 47:-0.6 48:0.466667 49:-0.866667 50:-1 51:-1 52:-1 53:-1 54:-1 55:-1 56:0.466667 57:-0.6 58:-1 59:-1 60:-1 61:-1 62:-1 63:-1 
-0.2969485295415587 0:-0.0666667 1:-0.866667 2:-0.6 3:-1 4:-1 5:-1 6:-1 7:-1 8:0.466667 9:-1 10:-0.6 11:-1 12:-1 13:-1 14:-1 15:-1 16:0.466667 17:-1 18:-1 19:-1 20:-1 21:-1 22:-1 23:-1 24:0.466667 25:0.0666667 26:-0.0666667 27:-0.0666667 28:-0.0666667 29:-0.0666667 30:-0.0666667 31:-0.6 32:0.466667 33:0.466667 34:0.333333 35:0.6 36:0.6 37:-0.0666667 38:0.0666667 39:-0.6 40:0.466667 41:-1 42:-1 43:-1 44:-1 45:-1 46:-1 47:-1 48:0.466667 49:-0.6 50:-0.733333 51:-1 52:-1 53:-1 54:-1 55:-1 56:0.466667 57:-1 58:-0.866667 59:-1 60:-1 61:-1 62:-1 63:-1 
-0.5287225825047239 0:-0.0666667 1:-1 2:-1 3:-1 4:-1 5:-1 6:-1 7:-1 8:0.466667 9:-1 10:-1 11:-1 12:-1 13:-1 14:-1 15:-1 16:0.466667 17:-0.866667 18:-1 19:-1 20:-1 21:-1 22:-1 23:-1 24:0.466667 25:0.6 26:0.466667 27:0.466667 28:0.466667 29:0.466667 30:0.466667 31:-0.333333 32:0.466667 33:-0.333333 34:-0.6 35:-0.6 36:-0.6 37:0.333333 38:0.466667 39:-0.6 40:0.466667 41:-1 42:-1 43:-1 44:-1 45:-1 46:-1 47:-1 48:0.466667 49:-1 50:-1 51:-1 52:-1 53:-1 54:-1 55:-1 56:-0.333333 57:-1 58:-1 59:-1 60:-1 61:-1 62:-1 63:-1 
-1 0:-1 1:-0.733333 2:-1 3:-1 4:-1 5:-1 6:-1 7:-1 8:-0.0666667 9:-1 10:-1 11:-1 12:-1 13:-1 14:-1 15:-1 16:0.333333 17:-1 18:-1 19:-1 20:-1 21:-1 22:-1 23:-1 24:0.333333 25:-1 26:-1 27:-1 28:-1 29:-1 30:-1 31:-1 32:0.466667 33:-0.333333 34:-0.0666667 35:-0.0666667 36:-0.0666667 37:-0.0666667 38:-0.0666667 39:-0.866667 40:0.733333 41:-0.6 42:-0.0666667 43:-0.0666667 44:-0.0666667 45:-0.0666667 46:0.866667 47:-0.6 48:1 49:-1 50:-1 51:-1 52:-1 53:-1 54:-1 55:-1 56:1 57:-1 58:-1 59:-1 60:-1 61:-1 62:-1 63:-1 
-0.9825556069371916 0:-1 1:-1 2:-1 3:-1 4:-1 5:-1 6:-1 7:-1 8:0.0666667 9:-0.866667 10:-1 11:-1 12:-1 13:-1 14:-1 15:-1 16:0.466667 17:-0.6 18:-1 19:-1 20:-1 21:-1 22:-1 23:-1 24:0.2 25:0.2 26:-0.0666667 27:-0.0666667 28:-0.0666667 29:-0.0666667 30:0.466667 31:-0.733333 32:-0.0666667 33:0.733333 34:0.333333 35:0.866667 36:-0.0666667 37:-0.0666667 38:-0.0666667 39:-1 40:0.2 41:-0.6 42:-1 43:-1 44:-1 45:-1 46:-1 47:-1 48:0.466667 49:-0.6 50:-1 51:-1 52:-1 53:-1 54:-1 55:-1 56:-0.733333 57:-1 58:-1 59:-1 60:-1 61:-1 62:-1 63:-1 
-0.9700904191693742 0:-0.0666667 1:-0.0666667 2:-1 3:-1 4:-1 5:-1 6:-1 7:-1 8:-0.0666667 9:-0.0666667 10:-1 11:-1 12:-1 13:-1 14:-1 15:-1 16:-0.0666667 17:0.333333 18:-0.6 19:0.466667 20:0.466667 21:0.466667 22:0.466667 23:-0.733333 24:-0.0666667 25:1 26:1 27:1 28:1 29:1 30:1 31:-0.6 32:-0.0666667 33:0.733333 34:-1 35:-0.0666667 36:-1 37:-1 38:-1 39:-1 40:-0.333333 41:0.2 42:-1 43:-1 44:-1 45:-1 46:-1 47:-1 48:-0.6 49:-0.0666667 50:-1 51:-1 52:-1 53:-1 54:-1 55:-1 56:-0.6 57:0.0666667 58:-1 59:-1 60:-1 61:-1 62:-1 63:-1 
-0.1427214410371923 0:-0.333333 1:-1 2:-1 3:-1 4:-1 5:-1 6:-1 7:-1 8:-0.0666667 9:-1 10:-1 11:-1 12:-1 13:-1 14:-1 15:-1 16:-0.0666667 17:-1 18:-1 19:-1 20:-1 21:-1 22:-1 23:-1 24:-0.0666667 25:-0.333333 26:0.2 27:0.466667 28:0.466667 29:0.466667 30:0.466667 31:-0.6 32:-0.0666667 33:-0.333333 34:0.2 35:0.466667 36:0.466667 37:0.2 38:-0.333333 39:-1 40:0.333333 41:-1 42:-1 43:-1 44:-1 45:-1 46:-1 47:-1 48:0.466667 49:-1 50:-1 51:-1 52:-1 53:-1 54:-1 55:-1 56:-0.0666667 57:-1 58:-1 59:-1 60:-1 61:-1 62:-1 63:-1 
-1 0:-0.6 1:-1 2:-1 3:-1 4:-1 5:-1 6:-1 7:-1 8:1 9:-1 10:-1 11:-1 12:-1 13:-1 14:-1 15:-1 16:0.6 17:-1 18:-1 19:-1 20:-1 21:-1 22:-1 23:-1 24:0.6 25:-0.866667 26:-0.6 27:-0.6 28:-0.6 29:-0.6 30:-0.333333 31:-1 32:1 33:-0.333333 34:0.466667 35:0.6 36:0.866667 37:0.466667 38:0.466667 39:-1 40:0.733333 41:-1 42:-1 43:-1 44:-0.733333 45:-1 46:-1 47:-1 48:-0.0666667 49:-1 50:-1 51:-1 52:-1 53:-1 54:-1 55:-1 56:-0.0666667 57:-1 58:-1 59:-1 60:-1 61:-1 62:-1 63:-1 
-1 0:-0.6 1:-0.0666667 2:-1 3:-1 4:-1 5:-0.733333 6:-0.6 7:-0.866667 8:-0.6 9:-0.0666667 10:-0.2 11:0.466667 12:0.466667 13:0.866667 14:1 15:-0.0666667 16:-0.6 17:0.0666667 18:0.733333 19:0.6 20:0.466667 21:0.466667 22:-0.733333 23:-1 24:-1 25:0.466667 26:-0.866667 27:-1 28:-1 29:-1 30:-1 31:-1 32:-1 33:0.466667 34:-1 35:-1 36:-1 37:-1 38:-1 39:-1 40:-0.333333 41:0.466667 42:-1 43:-1 44:-1 45:-1 46:-1 47:-1 48:-1 49:0.466667 50:-0.733333 51:-1 52:-1 53:-1 54:-1 55:-1 56:-1 57:-0.733333 58:-1 59:-1 60:-1 61:-1 62:-1 63:-1 
-1 0:-0.866667 1:-0.6 2:-1 3:-1 4:-1 5:-1 6:-1 7:-1 8:-0.2 9:-0.0666667 10:-1 11:-1 12:-1 13:-1 14:-1 15:-1 16:-0.0666667 17:-0.0666667 18:-1 19:-1 20:-0.6 21:-0.6 22:-0.6 23:-1 24:-0.0666667 25:0.466667 26:-0.0666667 27:0.333333 28:1 29:1 30:1 31:-0.0666667 32:-0.0666667 33:0.733333 34:0.6 35:-0.0666667 36:-0.0666667 37:-0.0666667 38:-0.0666667 39:-0.6 40:-0.0666667 41:-0.0666667 42:-1 43:-1 44:-1 45:-1 46:-1 47:-1 48:-0.0666667 49:-0.2 50:-1 51:-1 52:-1 53:-1 54:-1 55:-1 56:-0.0666667 57:-0.6 58:-1 59:-1 60:-1 61:-1 62:-1 63:-1 
-0.1254751111710395 0:-0.733333 1:-0.6 2:-1 3:-1 4:-1 5:-1 6:-1 7:-1 8:-0.2 9:-0.6 10:-1 11:-1 12:-1 13:-1 14:-1 15:-1 16:-0.0666667 17:-0.6 18:-1 19:-1 20:-1 21:-1 22:-1 23:-1 24:-0.0666667 25:0.2 26:-0.2 27:-0.0666667 28:-0.0666667 29:-0.0666667 30:0.466667 31:-0.0666667 32:-0.0666667 33:0.866667 34:1 35:1 36:0.866667 37:0.466667 38:1 39:-0.0666667 40:-0.0666667 41:-0.466667 42:-1 43:-1 44:-1 45:-1 46:-1 47:-0.6 48:-0.0666667 49:-0.333333 50:-0.866667 51:-1 52:-1 53:-1 54:-0.733333 55:0.333333 56:-0.0666667 57:-0.333333 58:-0.0666667 59:0.2 60:0.2 61:-0.0666667 62:0.866667 63:0.466667 
-1 0:-0.6 1:-0.0666667 2:-1 3:-1 4:-1 5:-1 6:-1 7:-1 8:-0.6 9:-0.0666667 10:-1 11:-1 12:-1 13:-1 14:-1 15:-1 16:-0.6 17:-0.0666667 18:-1 19:-1 20:-1 21:-1 22:-1 23:-1 24:-0.6 25:1 26:-0.6 27:-0.6 28:-0.6 29:-0.6 30:-0.6 31:-0.866667 32:-0.6 33:1 34:1 35:1 36:1 37:1 38:1 39:-0.0666667 40:-0.6 41:0.733333 42:-0.733333 43:0.466667 44:0.466667 45:0.466667 46:0.466667 47:-0.333333 48:-0.6 49:-0.333333 50:-1 51:-1 52:-1 53:-1 54:-1 55:-1 56:-0.6 57:-0.6 58:-1 59:-1 60:-1 61:-1 62:-1 63:-1 
-1 0:-1 1:-0.733333 2:-1 3:-1 4:-1 5:-1 6:-1 7:-1 8:-1 9:0.733333 10:-0.733333 11:-1 12:-1 13:-1 14:-1 15:-0.866667 16:-1 17:0.0666667 18:0.466667 19:-0.866667 20:-1 21:-1 22:-1 23:-1 24:-1 25:-1 26:-0.6 27:0.733333 28:0.2 29:-0.0666667 30:0.2 31:-1 32:-1 33:-1 34:-0.866667 35:1 36:0.466667 37:0.466667 38:0.466667 39:-0.733333 40:-1 41:-0.333333 42:0.466667 43:-0.466667 44:-1 45:-1 46:-1 47:-1 48:-1 49:0.733333 50:-0.6 51:-1 52:-1 53:-1 54:-1 55:-1 56:-1 57:-0.866667 58:-1 59:-1 60:-1 61:-1 62:-1 63:-1 
-1 0:-1 1:-1 2:-1 3:-1 4:-1 5:-1 6:-1 7:-0.466667 8:-0.466667 9:-0.866667 10:-1 11:-1 12:-1 13:-1 14:-1 15:-0.733333 16:-0.0666667 17:0.6 18:-1 19:-1 20:-1 21:-1 22:-1 23:-1 24:-0.866667 25:-0.0666667 26:0.333333 27:-1 28:-1 29:-1 30:-1 31:-1 32:-1 33:-1 34:-0.0666667 35:1 36:0.466667 37:0.733333 38:1 39:-0.0666667 40:-1 41:-1 42:0.466667 43:-0.333333 44:-0.6 45:-0.6 46:-0.333333 47:-0.466667 48:-0.333333 49:0.733333 50:0.2 51:-1 52:-1 53:-1 54:-1 55:-1 56:-0.0666667 57:0.333333 58:-1 59:-1 60:-0.2 61:-0.0666667 62:0.2 63:0.0666667 
-0.4431955978920896 0:-1 1:-1 2:-1 3:-1 4:-1 5:-1 6:-1 7:-0.733333 8:-0.866667 9:-0.866667 10:-1 11:-1 12:-1 13:-1 14:-1 15:-1 16:-0.2 17:0.733333 18:-1 19:-1 20:-1 21:-1 22:-1 23:-1 24:-1 25:0.2 26:0.733333 27:-0.6 28:-0.6 29:-0.6 30:-0.0666667 31:0.2 32:-1 33:-1 34:0.466667 35:1 36:1 37:1 38:1 39:0.466667 40:-1 41:-0.6 42:0.866667 43:-0.2 44:-0.6 45:-0.6 46:0.2 47:0.466667 48:-0.333333 49:1 50:-0.0666667 51:-1 52:-1 53:-1 54:0.0666667 55:0.466667 56:0.466667 57:0.6 58:-1 59:-1 60:-1 61:-1 62:0.333333 63:0.466667 
-0.6728277015423858 0:-1 1:-1 2:-1 3:-1 4:-1 5:-1 6:-1 7:-1 8:-0.6 9:0.2 10:-1 11:-1 12:-1 13:-1 14:-1 15:-1 16:-0.866667 17:0.733333 18:-0.333333 19:-1 20:-1 21:-1 22:-1 23:-1 24:-1 25:-0.866667 26:0.333333 27:0.6 28:0.6 29:1 30:1 31:-0.2 32:-1 33:-0.866667 34:0.466667 35:0.6 36:-0.0666667 37:-0.0666667 38:-0.0666667 39:-0.733333 40:-0.733333 41:0.866667 42:-0.2 43:-1 44:-1 45:-1 46:-1 47:-1 48:-0.0666667 49:0.0666667 50:-1 51:-1 52:-1 53:-1 54:-1 55:-1 56:-0.866667 57:-1 58:-1 59:-1 60:-1 61:-1 62:-1 63:-1 
-0.4390296910059279 0:0.2 1:1 2:0.733333 3:-1 4:-1 5:-1 6:-1 7:-1 8:-1 9:0.333333 10:1 11:0.733333 12:0.466667 13:0.333333 14:0.2 15:-0.0666667 16:-1 17:-0.6 18:1 19:1 20:1 21:1 22:1 23:1 24:-0.866667 25:0.333333 26:1 27:0.733333 28:0.6 29:0.866667 30:1 31:1 32:0.6 33:1 34:0.466667 35:-1 36:-1 37:-1 38:-1 39:-1 40:1 41:0.333333 42:-1 43:-1 44:-1 45:-1 46:-1 47:-1 48:0.6 49:-1 50:-1 51:-1 52:-1 53:-1 54:-1 55:-1 56:-0.866667 57:-1 58:-1 59:-1 60:-1 61:-1 62:-1 63:-1 
-0.2890101918250018 0:0.866667 1:-0.733333 2:-1 3:-1 4:-1 5:-1 6:-1 7:-1 8:0.866667 9:0.866667 10:-0.466667 11:-1 12:-1 13:-1 14:-1 15:-1 16:-0.733333 17:0.733333 18:1 19:-0.333333 20:-1 21:-1 22:-1 23:-1 24:-1 25:-1 26:0.466667 27:1 28:0.6 29:0.466667 30:0.466667 31:-0.0666667 32:-1 33:-0.733333 34:0.333333 35:1 36:1 37:1 38:1 39:1 40:0.0666667 41:1 42:0.866667 43:-0.466667 44:-1 45:-0.6 46:-0.6 47:-0.6 48:1 49:0.2 50:-1 51:-1 52:-1 53:-1 54:-1 55:-1 56:-0.466667 57:-1 58:-1 59:-1 60:-1 61:-1 62:-1 63:-1 
-1 0:-1 1:0.733333 2:-1 3:-1 4:-1 5:-1 6:-1 7:-0.6 8:-0.733333 9:1 10:0.333333 11:-1 12:-1 13:-1 14:-1 15:-1 16:-1 17:-0.6 18:0.333333 19:0.2 20:0.0666667 21:0.466667 22:0.733333 23:-0.733333 24:-1 25:-1 26:-0.466667 27:0.733333 28:0.866667 29:0.466667 30:0.333333 31:-1 32:-1 33:-0.733333 34:0.466667 35:-0.866667 36:-0.866667 37:-1 38:-1 39:-1 40:-1 41:1 42:-0.466667 43:-1 44:-1 45:-1 46:-1 47:-1 48:-0.6 49:-0.0666667 50:-1 51:-1 52:-1 53:-1 54:-1 55:-1 56:-1 57:-1 58:-1 59:-1 60:-1 61:-1 62:-1 63:-1 
-0.606722931504515 0:-0.6 1:-1 2:-1 3:-1 4:-1 5:-1 6:-1 7:-1 8:-0.0666667 9:0.733333 10:-1 11:-1 12:-1 13:-1 14:-1 15:-1 16:-1 17:-0.2 18:0.333333 19:-1 20:-0.866667 21:-1 22:-0.866667 23:-0.866667 24:-1 25:-1 26:-0.466667 27:1 28:1 29:1 30:1 31:-0.2 32:-1 33:-0.333333 34:0.0666667 35:-1 36:-1 37:-1 38:-1 39:-1 40:-0.0666667 41:0.6 42:-1 43:-1 44:-1 45:-1 46:-1 47:-1 48:-0.333333 49:-0.866667 50:-1 51:-1 52:-1 53:-1 54:-1 55:-1 56:-1 57:-1 58:-1 59:-1 60:-1 61:-1 62:-1 63:-1 
-1 0:-1 1:-0.866667 2:-1 3:-1 4:-1 5:-1 6:-1 7:-0.6 8:0.0666667 9:-0.866667 10:-1 11:-1 12:-1 13:-1 14:-1 15:-0.6 16:-0.2 17:0.333333 18:-0.466667 19:-1 20:-1 21:-1 22:-1 23:-0.6 24:-1 25:-1 26:0.2 27:-0.0666667 28:-0.0666667 29:0.333333 30:0.2 31:-0.0666667 32:-1 33:-1 34:-0.733333 35:-0.866667 36:-0.0666667 37:-0.466667 38:-0.733333 39:-0.2 40:-1 41:0.466667 42:-0.2 43:-1 44:-1 45:-1 46:-1 47:-0.6 48:0.2 49:-0.333333 50:-1 51:-1 52:-1 53:-1 54:-1 55:-0.333333 56:0.0666667 57:-1 58:-1 59:-1 60:-1 61:-1 62:-1 63:-0.6 
-0.2774887671319611 0:0.866667 1:-0.333333 2:-1 3:-1 4:-1 5:-1 6:-1 7:-1 8:0.333333 9:1 10:0.0666667 11:-1 12:-1 13:-1 14:-1 15:-1 16:-1 17:-0.333333 18:0.866667 19:0.6 20:0.333333 21:0.466667 22:0.733333 23:1 24:-1 25:-1 26:0.466667 27:1 28:1 29:0.6 30:0.466667 31:0.466667 32:-1 33:-0.0666667 34:1 35:-0.333333 36:-1 37:-1 38:-1 39:-1 40:0.0666667 41:1 42:-0.333333 43:-1 44:-1 45:-1 46:-1 47:-1 48:0.733333 49:-0.2 50:-1 51:-1 52:-1 53:-1 54:-1 55:-1 56:-0.333333 57:-1 58:-1 59:-1 60:-1 61:-1 62:-1 63:-1 
-1 0:-1 1:-1 2:-1 3:-1 4:-1 5:-1 6:-1 7:-1 8:-1 9:-1 10:-1 11:-1 12:-1 13:-1 14:-1 15:-1 16:-0.0666667 17:0.2 18:-1 19:-1 20:-1 21:-1 22:-1 23:-1 24:-0.733333 25:0.6 26:0.333333 27:-0.866667 28:-1 29:-0.0666667 30:-0.0666667 31:-0.866667 32:-1 33:-1 34:0.733333 35:1 36:1 37:1 38:1 39:-0.2 40:-1 41:-0.466667 42:1 43:-0.466667 44:-0.6 45:-0.6 46:-0.6 47:-1 48:-0.733333 49:0.6 50:-0.866667 51:-1 52:-1 53:-1 54:-1 55:-1 56:-0.6 57:-0.733333 58:-1 59:-1 60:-1 61:-1 62:-1 63:-1 
-1 0:-1 1:-1 2:0.466667 3:-1 4:-1 5:-1 6:-1 7:-1 8:-1 9:-1 10:0.466667 11:1 12:-0.2 13:-0.466667 14:1 15:-1 16:-1 17:-1 18:0.466667 19:1 20:1 21:1 22:1 23:-0.0666667 24:-1 25:-1 26:0.866667 27:1 28:1 29:1 30:1 31:-0.6 32:-1 33:-0.0666667 34:0.6 35:-1 36:-1 37:-1 38:-1 39:-1 40:-0.6 41:1 42:-0.466667 43:-1 44:-1 45:-1 46:-1 47:-1 48:-0.0666667 49:0.6 50:-1 51:-1 52:-1 53:-1 54:-1 55:-1 56:-0.0666667 57:-0.466667 58:-1 59:-1 60:-1 61:-1 62:-1 63:-1 
-1 0:-0.6 1:-0.466667 2:-1 3:-1 4:-1 5:-1 6:-1 7:-1 8:-0.0666667 9:0.866667 10:-0.466667 11:-1 12:-1 13:-1 14:-1 15:-1 16:-1 17:-0.6 18:0.466667 19:-0.2 20:-0.6 21:-0.6 22:-0.6 23:-0.6 24:-1 25:-1 26:-0.466667 27:1 28:1 29:1 30:1 31:0.866667 32:-1 33:-0.866667 34:0.466667 35:-0.0666667 36:-0.6 37:-0.6 38:-0.6 39:-0.733333 40:-0.333333 41:0.866667 42:-0.0666667 43:-1 44:-1 45:-1 46:-1 47:-1 48:-0.2 49:0.466667 50:-1 51:-1 52:-1 53:-0.0666667 54:0.333333 55:-0.2 56:-1 57:-1 58:-1 59:-1 60:-1 61:-1 62:-1 63:-1 
-1 0:-1 1:-1 2:-1 3:-1 4:-1 5:-1 6:-1 7:-1 8:0.333333 9:-0.2 10:-1 11:-1 12:-1 13:-1 14:-1 15:-1 16:-0.466667 17:0.6 18:0.333333 19:-1 20:-1 21:-1 22:-1 23:-0.6 24:-1 25:-1 26:-0.2 27:0.6 28:0.466667 29:0.466667 30:0.6 31:0.866667 32:-1 33:-1 34:-0.466667 35:0.733333 36:-0.2 37:-0.0666667 38:-0.466667 39:0.0666667 40:-0.866667 41:-0.0666667 42:0.6 43:-0.866667 44:-1 45:-1 46:-1 47:-1 48:-0.0666667 49:1 50:-0.466667 51:-1 52:-1 53:-0.333333 54:0.0666667 55:-0.0666667 56:-0.466667 57:0.0666667 58:-1 59:-0.6 60:-0.6 61:-0.0666667 62:-0.0666667 63:-0.733333 
-1 0:-1 1:-1 2:-1 3:-1 4:-1 5:-1 6:-1 7:-1 8:-1 9:-0.333333 10:-1 11:-1 12:-1 13:-1 14:-1 15:-1 16:-1 17:1 18:-0.6 19:-1 20:-1 21:-1 22:-1 23:-1 24:-1 25:-0.6 26:0.333333 27:-0.6 28:-1 29:-1 30:-1 31:-0.866667 32:-1 33:-1 34:-0.6 35:1 36:1 37:1 38:1 39:-0.6 40:-1 41:-1 42:0.2 43:0.0666667 44:-0.6 45:-0.6 46:-0.2 47:-0.866667 48:-1 49:0.866667 50:0.333333 51:-1 52:-1 53:-1 54:-1 55:-1 56:-0.6 57:0.733333 58:-1 59:-1 60:-1 61:-1 62:-0.733333 63:-0.733333 
-1 0:-0.6 1:-0.866667 2:-1 3:-1 4:-1 5:-1 6:-1 7:-0.6 8:-0.6 9:0.733333 10:-0.866667 11:-1 12:-1 13:-1 14:-1 15:-0.6 16:-0.733333 17:0.2 18:0.466667 19:-0.866667 20:-0.6 21:-0.6 22:-0.333333 23:-0.466667 24:-1 25:-1 26:-0.6 27:1 28:1 29:1 30:1 31:-0.2 32:-1 33:-1 34:0.0666667 35:-0.0666667 36:-1 37:-1 38:-1 39:-0.6 40:-1 41:0.6 42:0.0666667 43:-1 44:-1 45:-1 46:-1 47:-0.6 48:-1 49:0.466667 50:-1 51:-1 52:-1 53:-1 54:-1 55:-0.0666667 56:-1 57:-0.866667 58:-1 59:-1 60:-1 61:-1 62:-1 63:-0.6 
-0.1691701514658884 0:0.866667 1:-0.2 2:-1 3:-1 4:-1 5:-1 6:-1 7:-1 8:0.6 9:1 10:0.0666667 11:-1 12:-1 13:-1 14:-1 15:-1 16:-1 17:0.466667 18:1 19:0.733333 20:0.466667 21:0.866667 22:1 23:1 24:-1 25:-1 26:1 27:1 28:1 29:1 30:1 31:1 32:-1 33:0.0666667 34:1 35:0.2 36:-0.6 37:-0.6 38:-1 39:-0.866667 40:-0.2 41:1 42:0.2 43:-1 44:-1 45:-1 46:-1 47:-1 48:0.733333 49:0.2 50:-1 51:-1 52:-1 53:-1 54:-1 55:-1 56:-0.333333 57:-1 58:-1 59:-1 60:-1 61:-1 62:-1 63:-1 
-1 0:-0.2 1:-1 2:-1 3:-1 4:-0.0666667 5:0.466667 6:-0.466667 7:-1 8:1 9:0.2 10:-1 11:-1 12:-0.466667 13:0.6 14:-0.0666667 15:-1 16:0.733333 17:1 18:0.2 19:-1 20:-1 21:-1 22:-0.866667 23:-1 24:-0.6 25:-0.0666667 26:1 27:0.333333 28:-0.0666667 29:-0.0666667 30:-0.0666667 31:-0.6 32:-0.6 33:-1 34:0.733333 35:1 36:1 37:1 38:1 39:1 40:-0.466667 41:-0.0666667 42:0.866667 43:0.0666667 44:-0.0666667 45:-0.0666667 46:-0.0666667 47:-0.2 48:0.733333 49:0.866667 50:-0.466667 51:-1 52:-1 53:-1 54:-1 55:-1 56:-0.2 57:-0.733333 58:-1 59:-1 60:-1 61:-1 62:-1 63:-1 
