svm_type c_svc
kernel_type rbf
gamma 0.015873
nr_class 2
total_sv 36
rho 0.00782183
label 0 1
probA -4.60891
probB -0.233801
nr_sv 22 14
SV
0.05511815168906527 0:-1 1:-1 2:-1 3:-1 4:-1 5:-0.875 6:-0.875 7:-1 8:-1 9:-1 10:-1 11:-1 12:-1 13:-0.25 14:0.125 15:-1 16:-1 17:-1 18:-1 19:-1 20:-1 21:-0.875 22:0.125 23:-0.625 24:-1 25:-0.625 26:-1 27:-1 28:-1 29:-1 30:-0.375 31:-0.5 32:-1 33:-0.75 34:-1 35:-1 36:-1 37:-1 39:-0.5 40:-1 41:-1 42:-1 43:-1 44:-1 45:-1 46:0.25 47:-0.75 48:-0.25 50:0.25 51:1 52:1 53:1 54:1 55:-1 56:0.25 57:0.5 62:-0.75 63:-1 
0.03201902327733804 0:-1 1:-1 2:-1 3:-1 4:-1 5:-1 6:-0.5 7:-1 8:-1 9:-1 10:-1 11:-1 12:-1 13:-0.5 14:0.75 15:-0.75 16:-1 17:-1 18:-1 19:-1 20:-1 21:-0.75 22:0.5 23:-0.25 24:-1 25:-1 26:-1 27:-1 28:-1 29:-1 30:-0.5 32:-1 33:-1 34:-1 35:-1 36:-1 37:-1 38:-0.5 40:-0.75 41:0.25 44:-0.25 45:-1 46:0.25 47:-0.5 48:-0.5 49:0.75 51:0.5 52:1 53:1 54:0.75 55:-1 56:-1 57:-1 58:-1 59:-1 60:-1 61:-1 62:-1 63:-1 
1 0:-1 1:-1 2:-1 3:-1 4:-1 5:-1 6:-0.875 7:-1 8:-1 9:-1 10:-1 11:-1 12:-1 13:0.5 14:0.375 15:-1 16:-1 17:-1 18:-1 19:-1 20:-1 21:-0.625 22:0.5 23:-1 24:-1 25:-1 26:-1 27:-1 28:-1 29:-1 30:0.625 31:-0.5 32:-1 33:-1 34:-1 35:-1 36:-1 37:-1 38:0.5 40:-0.875 42:-0.5 43:-0.875 44:-1 45:-1 46:0.25 47:-0.875 48:-0.5 49:1 50:1 51:1 52:0.75 53:0.5 54:0.5 55:-1 56:-0.625 57:1 58:1 59:1 60:1 61:1 62:-0.5 63:-1 
1 0:-1 1:-0.75 2:-1 3:-1 4:-1 5:-1 6:-0.25 7:-1 8:-1 9:-0.5 10:-1 11:-1 12:-1 13:-0.5 14:1 15:-0.75 16:-1 17:-1 18:-1 19:-1 20:-1 21:-1 23:-0.25 24:-1 25:-1 26:-1 27:-1 28:-1 29:-1 30:-1 32:-1 33:-1 34:-1 35:-1 36:-1 37:-1 38:-1 40:-1 41:-0.25 44:-0.25 45:-0.5 46:-0.25 48:-1 49:0.75 50:1 51:1 52:1 53:1 54:1 55:-0.75 56:-1 57:-1 58:-1 59:-1 60:-1 61:-0.75 62:-0.75 63:-1 
0.3749106920883767 0:-1 1:-1 2:-1 3:-1 4:-1 5:-0.875 6:-1 7:-0.5 8:-1 9:-1 10:-1 11:-1 12:-1 13:-0.125 14:-0.375 15:-0.5 16:-1 17:-1 18:-1 19:-1 20:-1 21:-0.5 22:0.375 23:-0.625 24:-1 25:-1 26:-1 27:-1 28:-1 29:-1 30:0.25 31:-0.5 32:-1 33:-1 34:-1 35:-1 36:-1 37:-1 38:-0.375 39:-0.5 40:-1 41:-1 42:-1 43:-1 44:-1 45:-1 46:0.25 47:-0.375 49:0.875 50:0.5 51:0.5 52:0.25 53:-0.5 54:0.75 55:-0.875 56:-0.5 60:0.25 61:0.5 62:-0.375 63:-1 
0.04744671103805803 1:-1 2:-1 3:-1 4:-1 5:-0.75 6:-0.5 7:-1 8:-0.625 9:-1 10:-1 11:-1 12:-1 13:-0.5 14:0.875 15:-0.875 16:-0.25 17:-1 18:-1 19:-1 20:-1 21:-1 22:-0.25 24:-0.25 25:-1 26:-1 27:-1 28:-1 29:-1 30:-1 33:-1 34:-1 35:-1 36:-1 37:-1 38:-0.75 40:-0.625 41:-1 42:-1 43:-1 44:-1 45:-1 46:0.5 47:-0.5 48:-0.5 49:1 50:1 51:1 52:1 53:1 54:0.75 55:-1 56:-0.625 57:-0.25 58:-0.5 59:-0.5 60:-0.5 61:-0.5 62:-0.875 63:-0.875 
1 0:-1 1:-1 2:-1 3:-1 4:-1 5:-0.5 6:-0.25 7:-0.5 8:-0.875 9:-1 10:-1 11:-1 12:-1 13:-0.625 14:0.75 15:-1 16:-1 17:-1 18:-1 19:-1 20:-1 21:-1 22:-0.5 23:-0.25 24:-1 25:-1 26:-1 27:-1 28:-1 29:-1 30:-1 31:-0.125 32:-1 33:-0.75 34:-1 35:-1 36:-1 37:-1 38:-1 40:-0.875 41:-0.5 42:-0.5 43:-0.5 44:-0.5 45:-0.75 46:0.125 47:-0.5 48:-0.5 49:1 50:1 51:1 52:1 53:1 54:0.75 55:-1 56:-1 57:-1 58:-1 59:-1 60:-1 61:-1 62:-1 63:-0.875 
0.154677711052561 0:-1 1:-1 2:-1 3:-1 4:-1 5:-0.75 6:-0.25 7:-1 8:-0.25 9:-1 10:-1 11:-1 12:-1 13:-0.5 14:1 15:-0.75 16:-1 17:-1 18:-1 19:-1 20:-1 21:-1 22:-0.25 23:0.25 24:-1 25:-1 26:-1 27:-1 28:-1 29:-1 30:-0.875 31:0.375 32:-1 33:-1 34:-1 35:-1 36:-1 37:-1 38:-1 40:-0.5 41:-0.75 42:-1 43:-1 44:-1 45:-1 46:-0.5 49:1 50:1 51:1 52:1 53:0.875 54:0.875 55:-0.625 56:-0.75 57:-0.5 58:-0.5 59:-0.5 60:-0.5 61:-0.5 62:-0.5 63:-1 
0.1104157924237338 0:-1 1:-1 2:-1 3:-1 4:-1 5:-1 6:-1 7:-1 8:-1 9:-1 10:-1 11:-1 12:-1 13:-0.5 14:0.25 15:-1 16:-1 17:-1 18:-1 19:-1 20:-1 21:-0.75 22:0.75 23:-0.75 24:-1 25:-1 26:-1 27:-1 28:-1 29:-1 30:-0.375 31:-0.375 32:-1 33:-1 34:-1 35:-1 36:-1 37:-1 38:-0.5 40:-1 41:-1 42:-1 43:-1 44:-1 45:-1 47:-0.5 48:-0.5 53:0.25 54:1 55:-1 56:0.25 57:1 58:1 59:0.875 60:0.5 61:0.5 62:-0.375 63:-1 
0.7722809511560455 0:-1 1:-1 2:-1 3:-1 4:-1 5:-1 6:-1 7:-1 8:-1 9:-1 10:-1 11:-1 12:-1 13:-1 14:-0.75 15:-1 16:-1 17:-1 18:-1 19:-1 20:-1 21:-0.625 22:0.875 23:-0.875 24:-1 25:-1 26:-1 27:-1 28:-1 29:-1 30:0.5 31:-0.375 32:-1 33:-1 34:-1 35:-1 36:-1 37:-1 38:-0.75 40:-1 41:-1 42:-1 43:-1 44:-1 45:-1 46:-1 48:-0.75 50:-0.5 51:-0.625 52:-1 53:-1 54:-0.25 55:-0.125 56:0.375 57:1 58:1 59:0.875 60:0.5 61:0.5 62:0.875 63:-0.5 
0.2072603887068005 0:-0.75 1:-1 2:-1 3:-1 4:-1 5:-0.5 6:0.25 7:-1 8:-0.5 9:-1 10:-1 11:-1 12:-1 13:-1 14:0.75 15:-1 16:-0.625 17:-1 18:-1 19:-1 20:-1 21:-1 22:-0.875 23:0.125 24:-0.5 25:-1 26:-1 27:-1 28:-1 29:-0.875 30:-1 32:-0.75 33:-1 34:-1 35:-1 36:-1 37:-1 38:-1 40:-0.5 41:-1 42:-1 43:-1 44:-1 45:-1 46:0.25 47:-0.75 48:-0.125 49:1 50:0.625 51:0.5 52:0.5 53:0.5 55:-1 56:-0.875 57:-0.5 58:-0.875 59:-1 60:-1 61:-1 62:-1 63:-0.875 
0.9234076579045532 0:-1 2:-1 3:-0.5 4:-0.5 5:-1 6:-1 7:-1 8:-0.75 9:-1 10:-1 11:-1 12:-1 13:-1 14:0.25 15:-0.75 16:-0.5 17:-1 18:-1 19:-1 20:-1 21:-1 22:0.5 23:0.5 24:-0.75 25:-1 26:-1 27:-1 28:-1 29:-1 30:-0.75 31:0.5 32:-1 33:-1 34:-1 35:-1 36:-1 37:-1 38:-1 39:0.5 40:-0.75 41:-0.75 42:-1 43:-1 44:-1 45:-1 46:-0.25 47:0.5 48:-0.5 49:1 50:1 51:1 52:1 53:1 54:1 55:0.5 56:-0.75 57:0.5 63:-1 
0.35044430511938 0:-1 1:-1 2:-1 3:-1 4:-1 5:-1 6:0.75 7:0.75 8:-1 9:-1 10:-1 11:-1 12:-1 13:-1 14:-1 15:0.875 16:-1 17:-1 18:-1 19:-1 20:-1 21:-1 22:-1 23:0.625 24:-1 25:-1 26:-1 27:-1 28:-1 29:-1 30:-0.75 31:0.625 32:-0.75 33:0.5 34:-0.25 35:-0.5 36:0.25 37:0.5 38:0.75 39:0.375 40:1 41:1 42:1 43:1 44:1 45:1 46:0.75 47:-0.375 48:-0.375 49:-0.5 50:-0.5 52:-0.25 53:-0.5 54:-0.75 55:-1 56:-1 57:-1 58:-1 59:-1 60:-1 61:-1 62:-1 63:-1 
0.2251706720227472 0:-1 1:-1 2:-1 3:-1 4:-1 5:0.5 6:-0.25 7:-1 8:-1 9:-1 10:-1 11:-1 12:-1 13:0.125 14:0.875 15:-0.875 16:-1 17:-1 18:-1 19:-1 20:-1 21:-1 22:0.75 23:-0.5 24:-1 25:-1 26:-1 27:-1 28:-1 29:-1 31:-0.5 32:-1 33:-1 34:-1 35:-1 36:-1 37:-1 38:0.125 39:-0.5 41:-0.25 43:-0.25 44:0.5 45:-0.5 46:0.875 47:-0.625 48:1 49:1 50:1 51:1 52:1 53:1 54:0.75 55:-1 62:-1 63:-1 
0.6881868072356251 0:-1 1:-1 2:-1 3:-1 4:-1 5:-0.75 6:1 7:-0.5 8:-1 9:-1 10:-1 11:-1 12:-1 13:-1 14:-0.375 16:-1 17:-1 18:-1 19:-1 20:-1 21:-1 22:-0.5 24:-1 25:-1 26:-1 27:-1 28:-1 29:-1 30:-0.5 31:-0.125 32:-1 33:-0.75 34:-1 35:-1 36:-1 37:-1 38:0.25 39:-0.5 40:-0.25 41:1 42:1 43:1 44:1 45:1 46:0.875 47:-0.875 48:-1 49:-1 50:-1 51:-1 52:-1 53:-1 54:-1 55:-1 56:-1 57:-1 58:-1 59:-1 60:-1 61:-1 62:-1 63:-1 
0.5941026664220828 0:-1 1:-1 2:-1 3:-1 4:-1 5:-1 6:-1 7:-1 8:-1 9:-1 10:-1 11:-1 12:-1 13:-1 15:-0.75 16:-1 17:-1 18:-1 19:-1 20:-1 21:-1 22:0.625 23:-0.125 24:-1 25:-1 26:-1 27:-1 28:-1 29:-1 30:-0.75 31:0.25 32:-1 33:-1 34:-1 35:-1 36:-1 37:-1 38:-1 39:0.5 40:-1 41:-1 42:-1 43:-1 44:-1 45:-1 46:-1 47:0.5 48:-0.75 49:-0.5 50:-0.5 51:-0.5 52:-0.5 53:-0.5 55:0.125 56:0.125 57:1 58:1 59:1 60:1 61:1 62:1 63:-0.625 
1 1:-1 2:-1 3:-1 4:-1 5:-1 6:-0.75 7:-0.75 8:-0.25 9:-1 10:-1 11:-1 12:-1 13:-0.625 14:0.5 15:-1 16:-0.75 17:-1 18:-1 19:-1 20:-1 21:-1 23:-0.625 24:-0.75 25:-1 26:-1 27:-1 28:-1 29:-1 30:-1 31:-0.25 32:-0.875 33:-1 34:-1 35:-1 36:-1 37:-0.875 38:-1 40:-0.75 41:-1 42:-1 43:-1 44:-1 45:-1 46:-0.75 48:0.25 54:0.875 55:-0.75 56:-0.375 57:-0.25 58:-0.25 59:-0.25 60:0.5 61:-0.5 62:-0.625 63:-1 
0.7079926274207584 0:-0.5 1:-1 2:-1 3:-1 4:-1 5:-0.375 6:-0.875 7:-1 8:-0.75 9:-1 10:-1 11:-1 12:-1 13:-0.125 14:-0.125 15:-1 16:-0.875 17:-1 18:-1 19:-1 20:-1 21:-0.875 22:-0.375 23:-0.25 24:-0.625 25:-1 26:-1 27:-1 28:-1 29:-0.75 30:-0.125 31:-0.375 32:-0.5 33:-1 34:-1 35:-1 36:-1 37:-1 39:-0.75 41:-0.5 42:-0.25 43:-0.25 46:0.75 47:-1 48:0.75 49:1 50:1 51:1 52:1 53:0.5 54:-0.5 55:-1 56:-1 57:-1 58:-1 59:-1 60:-1 61:-1 62:-0.75 
0.1352511527681341 0:-1 1:-1 2:-1 3:-1 4:-1 5:-1 6:-1 7:0.625 8:-1 9:-1 10:-1 11:-1 12:-1 13:-1 14:-1 15:0.75 16:-1 17:-1 18:-1 19:-1 20:-1 21:-1 22:-1 24:-1 25:-1 26:-1 27:-1 28:-1 29:-1 30:-1 31:0.5 32:-1 33:-0.875 34:-0.5 35:-0.5 36:-0.125 37:1 38:1 39:1 40:-0.5 41:0.625 42:1 43:1 44:1 45:1 46:1 47:0.5 48:-0.25 49:1 50:1 51:1 52:1 53:1 54:1 55:-0.5 56:-1 57:-1 58:-1 62:-0.5 63:-1 
0.05012314249473556 0:-1 1:-1 2:-1 3:-1 4:-1 5:-1 6:-1 7:-1 8:-1 9:-1 10:-1 11:-1 12:-1 13:-0.5 14:-0.125 15:-1 16:-1 17:-1 18:-1 19:-1 20:-1 21:-0.75 22:0.75 23:-0.75 24:-1 25:-1 26:-1 27:-1 28:-1 29:-1 30:0.125 31:-0.5 32:-1 33:-1 34:-1 35:-1 36:-1 37:-1 39:-0.5 40:-1 41:-0.875 42:-1 43:-1 44:-1 45:-0.875 46:0.25 47:-0.625 48:-1 49:0.25 53:0.25 54:0.5 55:-1 56:-1 57:0.625 58:0.625 59:0.25 60:-0.5 61:-0.5 62:-0.75 63:-1 
1 0:-1 1:-1 2:-1 3:-1 4:-1 5:-1 6:-1 7:-1 8:-1 9:-1 10:-1 11:-1 12:-1 13:1 14:-0.75 15:-1 16:-0.75 17:-1 18:-1 19:-1 20:-1 22:0.25 23:-1 24:-1 25:-1 26:-1 27:-1 28:-1 29:-1 31:-1 32:-1 33:-1 34:-1 35:-1 36:-1 37:-1 39:-0.75 40:-1 41:-1 42:-1 43:-1 44:-1 45:-0.75 46:0.25 47:-0.25 48:-0.75 49:0.5 50:1 51:1 52:1 53:1 55:-0.25 56:-0.75 61:-0.75 62:-1 63:-0.75 
0.6691331805929163 0:0.5 1:-1 2:-1 3:-1 4:-1 5:-1 6:-0.5 7:-1 8:0.5 9:-1 10:-1 11:-1 12:-1 13:-0.25 14:-0.25 15:-1 16:0.5 17:-1 18:-1 19:-1 20:-1 21:0.375 22:1 23:-0.5 24:0.5 25:-1 26:-1 27:-1 28:-1 29:-0.5 30:0.5 31:-0.5 32:-0.25 33:-1 34:-1 35:-1 36:-1 37:-1 39:-0.5 41:-1 42:-1 43:-1 44:-1 45:-1 46:0.25 47:-0.5 48:1 49:1 50:1 51:1 52:1 53:1 54:0.5 55:-1 56:1 62:-0.25 63:-1 
-1 0:-0.5 1:-0.75 2:-0.5 3:-0.75 4:-0.75 5:-1 6:-1 7:-1 8:-0.875 9:-0.25 10:0.5 11:0.25 12:0.75 13:0.5 14:0.5 15:-0.875 16:-1 17:-1 18:-1 19:-1 20:-0.5 21:-0.5 22:0.5 23:-0.5 24:-1 25:-1 26:-1 27:-1 28:-1 29:-1 31:-0.125 32:-1 33:-1 34:-1 35:-1 36:-1 37:-1 40:-1 41:-0.5 44:-0.25 45:-1 46:0.25 47:-0.25 48:-1 49:0.25 50:1 51:1 52:1 53:1 54:0.75 55:-1 56:-1 57:-1 58:-1 59:-1 60:-0.75 61:-1 62:-1 63:-1 
-1 1:0.25 6:-0.25 7:-1 8:-0.25 14:0.75 15:-0.75 16:-1 17:-1 18:-1 19:-1 20:-1 21:-1 22:-1 24:-1 25:-1 26:-1 27:-1 28:-1 29:-1 30:-1 32:-1 33:-1 34:-1 35:-1 36:-1 37:-1 38:-1 39:0.25 40:-1 41:-0.75 42:-1 43:-1 44:-1 45:-1 46:-0.25 47:-0.25 48:0.5 49:1 50:1 51:1 52:1 53:1 54:0.5 55:-1 56:-1 57:-1 58:-1 59:-1 60:-1 61:-1 62:-1 63:-1 
-0.5801053760590146 0:-0.875 1:-0.625 2:-0.5 3:-0.75 4:-0.5 5:-0.5 6:-0.625 7:-1 8:-0.25 9:0.5 10:0.5 11:0.25 12:0.5 13:0.5 14:0.5 15:-0.625 16:-0.875 17:-0.875 18:-1 19:-1 20:-1 21:-1 22:-0.875 23:-0.375 24:-1 25:-0.75 26:-1 27:-1 28:-1 29:-1 30:-1 31:-0.125 32:-1 34:-1 35:-1 36:-1 37:-1 38:-1 39:0.5 40:-1 41:-0.75 42:-1 43:-1 44:-1 45:-1 46:-1 47:0.25 48:-0.25 49:0.75 50:1 51:1 52:0.25 53:0.25 54:1 55:-0.5 56:-0.5 57:-0.5 58:-1 59:-1 60:-1 61:-1 62:-1 63:-1 
-0.5019685388158096 0:1 1:0.25 2:-0.5 3:-0.5 4:-1 5:-1 6:-1 7:-0.5 8:-0.5 10:0.5 11:0.5 12:0.5 13:0.5 15:-0.125 16:-1 17:-1 18:-1 19:-1 20:-0.5 21:-0.5 22:0.5 23:-0.125 24:-1 25:-0.25 26:-0.75 27:-1 28:-1 29:-1 30:-0.5 31:-0.625 32:-1 33:-0.25 34:-1 35:-1 36:-1 37:-1 38:-1 39:0.25 41:-0.5 42:-0.75 43:-1 44:-1 45:-1 46:-0.75 47:0.25 49:1 50:1 51:1 54:0.5 55:-0.75 56:-1 57:-1 58:-1 59:-1 62:-0.25 63:-0.75 
-1 0:-0.75 4:-0.25 5:-0.5 6:-0.75 7:-0.75 8:-0.5 9:0.5 12:0.25 13:1 14:0.75 15:-0.75 16:-0.875 17:-1 18:-1 19:-1 20:-1 21:-1 22:-0.5 24:-0.5 25:-1 26:-0.875 27:-0.875 28:-1 29:-1 30:-1 32:-0.5 33:-1 34:-0.75 35:-1 36:-1 37:-1 38:-1 39:0.5 40:-0.75 41:-1 42:-1 43:-1 44:-1 45:-1 46:-0.75 47:0.125 48:-0.5 49:0.75 50:0.5 51:0.5 52:0.5 53:0.5 54:0.75 55:-0.5 56:-0.25 63:-1 
-1 0:-1 1:-0.625 2:-0.5 3:-0.75 4:-1 5:-1 6:-1 7:-1 8:-1 9:-0.125 10:0.5 11:0.25 12:0.25 13:0.5 14:-0.625 15:-1 16:-1 17:-1 18:-1 19:-1 20:-0.5 23:-1 24:-1 25:-1 26:-1 27:-1 28:-1 29:-1 30:-1 31:-1 32:-0.75 33:-1 34:-1 35:-1 36:-1 37:-1 38:-1 39:-0.75 40:0.5 41:-0.5 43:-0.5 44:-0.625 45:-1 46:-0.375 47:-0.375 48:0.5 49:0.75 50:1 51:1 52:0.75 54:0.75 55:-0.75 56:-1 57:-1 58:-0.25 59:-1 60:-0.25 62:-0.25 63:-1 
-0.9835048932096132 0:-1 1:1 2:0.5 3:1 4:0.5 5:1 6:0.25 7:-1 8:-1 9:0.5 10:0.25 14:0.75 15:-0.5 16:-1 17:-1 18:-1 19:-1 20:-1 21:-1 22:-0.25 23:-0.5 24:-1 25:-1 26:-1 27:-1 28:-1 29:-1 30:-0.5 32:-1 33:-1 34:-1 35:-1 36:-1 37:-1 39:-0.375 40:-1 41:0.5 43:0.25 44:0.5 45:0.5 46:0.75 47:-0.625 48:-1 49:0.5 52:0.5 53:0.5 54:-0.625 55:-1 56:-1 57:-1 58:-1 59:-1 60:-1 61:-1 62:-1 63:-1 
-0.5342286558971721 0:-0.5 4:0.75 5:1 6:0.5 7:-1 9:1 10:0.25 14:0.75 15:-0.5 16:-1 17:-1 18:-1 19:-1 20:-1 21:-1 22:-0.25 24:-1 25:-1 26:-1 27:-1 28:-1 29:-1 30:-1 31:-0.5 32:-1 33:-1 34:-1 35:-1 36:-1 37:-1 38:-0.25 40:-1 46:0.75 47:-0.5 49:1 50:1 51:1 52:0.25 54:-0.25 55:-1 56:-1 57:-1 58:-1 59:-1 60:-1 61:-1 62:-1 63:-1 
-0.2244036446881168 0:-1 1:-1 2:-1 3:-1 4:-1 5:-1 6:-1 7:-1 8:-0.5 9:1 10:0.5 11:0.25 12:0.25 15:-1 16:-0.5 17:0.5 22:0.5 23:-0.25 24:-1 25:-1 26:-1 27:-1 28:-1 29:-1 30:-0.5 31:0.5 32:-1 33:-1 34:-1 35:-1 36:-1 37:-1 38:-1 39:0.5 40:-1 41:-1 42:-1 43:-1 44:-1 45:-1 46:-0.625 47:0.5 48:-0.875 49:-0.5 50:-0.5 51:-0.5 52:-0.5 53:-0.5 54:0.125 55:0.125 56:-0.125 57:1 58:1 59:1 60:1 61:1 62:0.875 63:-0.5 
-0.9403421268603427 0:-1 1:-1 2:-1 3:-1 4:-1 5:-1 6:-1 7:-1 8:-1 9:0.25 12:1 13:0.75 14:-0.125 15:-1 16:-1 17:0.25 19:-0.5 20:-0.5 21:-0.5 22:0.75 23:-0.625 24:-1 25:-1 26:-1 27:-1 28:-1 29:-1 31:-0.5 32:-1 33:-1 34:-1 35:-1 36:-1 37:-1 39:-0.5 40:-1 41:-1 42:-1 43:-1 44:-1 45:-1 46:0.625 47:-0.875 48:-0.875 51:0.75 52:1 53:0.5 54:0.25 55:-1 56:-0.625 57:0.875 58:0.625 59:0.5 60:0.5 61:0.25 62:-0.875 63:-1 
-1 0:-1 1:-1 2:-1 3:-1 4:-1 5:-1 6:-1 7:-1 8:-1 9:-0.625 10:-0.5 11:-0.5 12:-0.5 13:-0.5 14:-0.5 15:-1 16:-1 17:0.5 18:1 19:1 20:1 21:0.5 22:1 23:-0.5 24:-1 25:-0.75 26:-1 27:-1 28:-1 29:-1 32:-0.75 33:-1 34:-1 35:-1 36:-1 37:-1 38:-0.5 41:-1 42:-1 43:-1 44:-1 45:-1 46:-0.375 47:-0.375 48:-0.5 49:-0.75 52:0.25 54:0.75 55:-1 56:-0.875 57:0.5 58:1 59:0.5 60:0.5 61:0.5 63:-1 
-1 0:-1 1:-1 2:-1 3:-1 4:-1 5:-1 6:-1 7:-1 8:-0.5 15:-1 16:-0.25 17:0.5 18:0.5 19:0.5 20:-0.625 21:-1 22:0.375 23:-0.5 24:-1 25:-1 26:-1 27:-1 28:-1 29:-1 30:-0.5 31:-0.5 32:-1 33:-1 34:-1 35:-1 36:-1 37:-1 38:-0.75 39:-0.5 40:-1 41:-1 42:-1 43:-1 44:-1 45:-1 47:-0.5 48:-0.75 49:0.625 50:0.25 51:1 52:1 53:1 54:0.75 55:-1 56:-0.5 57:0.75 62:-0.5 63:-1 
-0.333388397882842 0:-1 1:-0.625 2:-1 3:-1 4:-1 5:-1 6:-1 7:-1 8:-1 9:0.5 10:0.5 11:0.125 12:0.5 13:0.25 14:0.375 15:-0.75 16:-1 17:-0.25 19:-0.75 21:-0.5 22:0.25 24:-1 25:-1 26:-1 27:-1 28:-1 29:-1 30:-0.5 31:0.25 32:-0.625 33:-1 34:-1 35:-1 36:-1 37:-1 38:-0.5 40:0.375 41:-0.5 42:-0.5 43:-0.5 44:-0.5 45:-1 46:-0.25 48:-0.25 49:1 50:1 51:1 52:1 54:0.75 55:-0.25 56:-1 57:-0.25 62:-0.25 63:-1 
-1 0:-1 1:-1 2:-1 3:-1 4:-1 5:-1 6:-1 7:-1 8:-0.75 9:-0.5 10:-0.5 11:-0.5 12:-0.5 13:-0.5 14:-0.75 15:-1 17:0.5 18:0.5 19:0.5 20:0.5 21:0.5 22:0.625 23:-1 24:-0.75 25:-1 26:-1 27:-1 28:-1 29:-1 30:0.375 31:-0.625 32:-1 33:-1 34:-1 35:-1 36:-1 37:-1 39:-0.5 40:-1 41:-1 42:-1 43:-1 44:-1 45:-1 47:-0.5 48:-0.5 49:-1 50:-1 51:-1 52:-1 53:-1 54:0.75 55:-1 57:1 58:1 59:1 60:1 61:1 62:0.25 63:-1 
