svm_type c_svc
kernel_type rbf
gamma 0.015873
nr_class 2
total_sv 30
rho -0.534327
label 0 1
probA -5.80627
probB -0.943104
nr_sv 18 12
SV
0.1287786182608858 0:1 1:1 2:1 3:0.5 6:0.75 7:-0.5 8:1 9:0.5 10:0.625 11:0.875 12:1 13:1 14:1 15:1 16:1 17:-1 18:-1 19:-0.5 20:0.625 21:-0.625 22:-0.5 23:-0.5 24:1 25:-1 26:-1 27:-0.5 28:0.5 29:-1 30:-1 31:-1 32:1 33:-0.875 34:-1 35:-0.5 36:0.375 37:-1 38:-1 39:-1 40:1 41:0.75 43:0.75 44:-0.125 45:-1 46:-1 47:-1 48:0.5 49:1 50:1 51:0.75 52:-0.875 53:-1 54:-1 55:-1 56:0.25 57:0.875 58:1 59:0.5 60:-1 61:-1 62:-1 63:-1 
0.06573488357234814 0:-0.25 3:-0.375 4:0.25 5:1 6:1 7:0.125 8:1 9:1 10:1 11:1 12:0.875 13:0.75 14:0.5 15:0.875 16:0.875 17:-0.5 18:-0.5 19:0.625 21:-1 22:-1 23:0.25 24:0.5 25:-1 26:-1 27:0.5 29:-1 30:-1 31:-1 32:1 33:-1 34:-1 35:0.5 36:-0.25 37:-1 38:-1 39:-1 40:1 41:-0.5 42:-0.625 43:0.875 44:-1 45:-1 46:-1 47:-1 48:0.5 49:1 50:1 51:0.75 52:-1 53:-1 54:-1 55:-1 56:-0.875 57:0.625 58:1 59:1 60:-1 61:-1 62:-1 63:-1 
0.3434097721538152 0:-0.75 1:1 2:1 3:1 4:1 5:0.75 6:1 7:1 8:1 9:1 10:1 11:1 12:0.5 14:1 15:0.625 16:1 17:0.75 18:0.25 19:0.875 20:1 21:1 22:1 23:0.75 24:1 25:0.5 26:-1 27:-1 28:0.75 29:0.5 30:0.375 31:0.625 32:1 33:0.5 34:-1 35:-1 36:0.5 37:-0.5 38:-1 39:-1 41:0.5 42:-1 43:-1 44:0.875 45:-0.5 46:-1 47:-1 49:0.75 50:-0.5 51:-0.75 52:1 53:-0.5 54:-1 55:-1 56:-0.375 57:1 58:1 59:0.875 60:1 61:-0.5 62:-1 63:-1 
0.2719816558860493 0:-0.125 1:1 2:0.75 3:-0.75 4:-0.5 5:-1 6:-1 7:-1 8:1 9:1 10:1 11:1 12:1 13:0.625 14:0.875 15:0.625 16:1 17:-0.25 18:-0.25 20:1 21:0.5 22:1 23:1 24:1 25:-0.375 26:-1 27:-0.5 28:1 29:-1 30:-0.75 31:-0.5 32:1 34:-1 35:-0.5 36:1 37:-1 38:-1 39:-1 40:1 42:-1 43:-0.25 44:1 45:-1 46:-1 47:-1 48:1 49:1 50:1 51:0.75 52:1 53:-1 54:-1 55:-1 56:-0.5 57:0.875 58:1 59:1 60:0.375 61:-1 62:-1 63:-1 
0.06525798352820868 1:1 2:1 3:1 4:1 5:1 6:1 7:1 8:1 9:0.75 10:-0.125 11:-0.125 12:1 14:-0.125 16:1 17:0.5 18:-1 19:-1 20:0.625 21:-0.5 22:-1 23:-1 24:1 25:0.5 26:-1 27:-1 28:0.875 29:-0.5 30:-1 31:-1 32:1 33:0.5 34:-1 35:-1 36:1 37:-0.5 38:-1 39:-1 40:0.125 41:1 42:0.5 43:0.5 44:1 45:-0.5 46:-1 47:-1 48:-0.75 49:1 50:1 51:1 52:1 53:-0.75 54:-1 55:-1 56:-1 57:0.125 58:1 59:1 60:0.375 61:-1 62:-1 63:-1 
0.8274744630265088 0:-1 1:-1 2:-1 3:-1 5:1 6:1 7:-1 8:-1 9:-1 10:-1 11:-1 13:1 14:1 15:-1 16:-1 17:-1 18:-1 19:-1 21:1 22:1 23:-1 25:0.375 26:0.375 27:0.125 28:0.75 29:1 30:1 31:-1 32:1 33:1 34:1 35:1 36:1 37:1 38:1 39:-0.5 40:0.625 41:0.875 42:0.5 43:0.875 44:1 45:1 46:1 47:1 48:-0.125 49:1 50:1 51:1 52:1 53:1 54:1 55:1 56:-0.375 59:0.5 60:1 61:1 62:1 63:0.75 
0.1524199410567387 0:1 1:1 2:1 3:1 4:1 5:0.5 6:1 7:1 8:1 9:1 10:1 11:1 12:1 13:0.875 14:1 15:0.375 16:-1 17:-1 18:0.125 19:1 21:0.25 22:0.875 23:-0.625 24:-1 25:-1 27:1 28:-0.75 29:-1 30:-1 31:-1 32:-1 33:-1 35:1 36:-1 37:-1 38:-1 39:-1 42:0.375 43:1 44:-1 45:-1 46:-1 47:-1 48:1 49:1 50:1 51:0.875 52:-1 53:-1 54:-1 55:-1 56:-0.125 58:1 60:-1 61:-1 62:-1 63:-1 
1 0:1 1:1 2:-1 3:-1 4:-1 5:-1 6:-1 7:0.5 8:1 9:1 10:-1 11:-1 12:-1 13:-1 14:-1 15:0.5 16:1 17:1 18:-0.75 19:-1 20:-1 21:-1 22:-0.5 23:1 24:1 25:0.75 26:0.5 27:-0.5 28:-0.5 29:-0.75 30:0.125 31:1 32:1 33:1 34:1 35:1 36:1 37:1 38:1 39:1 40:1 41:0.5 43:1 44:0.875 45:0.875 46:1 47:0.75 48:0.5 49:1 50:0.5 51:0.5 52:1 53:1 54:1 55:0.5 56:0.5 57:0.5 58:0.5 59:1 60:0.875 61:0.875 62:1 63:-0.5 
1 0:1 1:1 2:1 3:1 4:1 5:1 6:1 7:1 8:1 9:0.75 10:1 11:1 12:1 13:1 14:1 15:0.25 16:1 17:1 18:1 19:1 20:1 21:1 22:1 23:0.75 24:-1 25:-1 26:-1 27:-1 29:1 30:1 31:-0.75 32:-1 33:-1 34:-1 35:-1 37:1 38:1 39:-1 40:-1 41:-1 42:-1 43:-1 45:1 46:1 47:-1 48:-0.5 49:-0.125 51:-0.25 52:0.5 53:1 54:1 55:-1 56:1 57:1 58:1 59:1 60:1 61:1 62:0.75 63:-1 
0.2370579608978744 1:1 2:0.5 3:-1 5:1 6:1 7:0.75 9:1 10:0.5 11:-1 12:-1 13:1 14:1 15:1 17:1 18:0.625 19:-0.875 20:-1 21:1 22:1 23:0.5 25:1 26:1 27:0.25 28:0.5 29:1 30:1 31:0.5 32:1 33:1 34:1 35:1 36:1 37:1 38:1 40:1 41:1 42:1 43:1 44:1 45:1 46:0.875 47:-0.625 48:0.25 49:-0.75 50:0.875 51:1 52:1 53:1 54:-0.25 55:-1 56:-0.75 57:-1 58:-0.5 59:0.75 60:1 61:0.75 62:-0.875 63:-1 
0.3224554005283622 0:-0.75 1:1 2:1 3:1 4:1 5:1 6:1 7:1 8:-0.25 9:1 10:1 11:1 12:1 13:1 14:1 15:0.5 17:1 18:0.75 19:0.875 20:1 21:1 22:-0.25 23:-1 24:1 25:0.75 26:-1 27:-0.75 28:1 29:1 30:0.25 31:-1 32:1 33:0.5 34:-1 35:-1 36:1 37:1 38:-1 39:-1 40:1 41:0.875 42:-0.75 43:-0.5 44:1 45:1 46:-1 47:-1 48:1 49:1 50:1 51:0.875 52:1 53:1 54:-1 55:-1 56:-1 57:0.75 58:1 59:0.875 60:1 61:0.75 62:-1 63:-1 
0.4690751244395813 0:1 1:-1 2:1 3:1 4:1 5:1 6:1 7:1 8:0.5 9:-1 10:1 11:1 12:0.375 14:0.25 15:1 16:0.625 17:-1 18:0.75 19:1 20:-0.75 21:-1 22:-0.5 23:1 24:1 25:0.25 26:1 27:1 28:-1 29:-1 30:-1 31:-1 32:1 33:1 34:1 35:0.875 36:-1 37:-1 38:-1 39:-1 40:1 41:1 42:1 43:0.875 44:-0.75 45:-1 46:-1 47:-1 48:0.125 49:1 50:1 51:1 52:0.875 53:-1 54:-1 55:-1 56:-0.875 57:0.625 58:1 59:1 60:0.5 61:-1 62:-1 63:-1 
1 0:1 1:1 2:1 3:1 4:1 5:1 6:1 7:1 8:1 9:1 10:1 11:1 12:1 13:1 14:1 15:0.625 16:1 17:1 18:1 19:1 20:0.625 21:0.875 22:1 23:0.625 24:1 25:1 26:1 27:0.25 28:-1 29:-0.25 30:1 31:1 32:1 33:1 34:1 36:-1 37:-1 38:0.5 39:1 40:0.25 41:1 42:1 43:0.5 44:-0.875 45:-0.375 46:0.875 47:1 48:-1 49:1 50:1 51:1 52:1 53:1 54:1 55:1 56:-1 57:0.25 58:1 59:1 60:0.625 61:0.875 62:1 63:1 
0.02492829757794086 1:1 2:1 3:1 4:1 5:1 6:1 7:1 8:0.75 9:1 10:0.875 11:0.125 12:1 13:1 14:0.75 15:-0.75 16:1 17:1 19:-1 20:0.75 21:1 22:-0.25 23:-1 24:1 25:0.5 26:-1 27:-0.5 28:1 29:1 30:1 31:0.375 32:1 34:-1 35:-0.5 36:1 37:0.75 38:-1 39:-1 40:1 41:0.75 42:-0.875 43:-0.375 44:1 46:-1 47:-1 48:1 49:1 50:0.875 51:1 52:1 54:-1 55:-1 56:0.5 57:1 58:1 59:1 60:1 62:-1 63:-1 
0.3179645785218955 0:1 1:1 2:1 3:1 4:0.5 5:-0.625 6:-0.375 7:1 8:1 9:1 10:1 11:1 12:1 13:1 14:1 15:1 16:0.75 17:-1 18:-1 19:-0.375 20:0.75 21:-0.625 22:-0.5 24:0.5 25:-1 26:-1 27:-0.5 28:0.5 29:-1 30:-1 31:-1 32:0.75 33:-1 34:-1 35:-0.5 36:0.5 37:-1 38:-1 39:-1 40:1 41:0.25 42:-0.125 44:0.5 45:-1 46:-1 47:-1 48:1 49:1 50:1 51:1 52:0.25 53:-1 54:-1 55:-1 56:-0.75 57:-0.5 58:-0.125 59:1 60:-0.25 61:-1 62:-1 63:-1 
0.4371368099358349 0:1 1:1 2:1 3:1 4:1 5:1 6:1 7:1 8:1 9:1 10:1 11:1 12:1 13:1 14:0.75 16:1 17:1 18:-0.75 19:-0.25 20:1 21:1 22:1 23:-0.25 24:1 25:1 26:-1 27:-1 28:1 29:1 30:0.125 31:-0.625 32:1 33:1 34:-1 35:-1 36:1 37:1 38:-0.5 39:-1 40:1 41:1 42:0.75 43:0.75 44:1 45:0.5 46:-1 47:-1 48:1 49:1 50:0.875 51:0.875 52:1 53:0.5 54:-1 55:-1 56:0.5 57:1 58:0.75 59:0.5 60:1 61:0.25 62:-1 63:-1 
0.01881451824548346 0:1 1:1 2:1 3:1 4:1 5:1 6:1 7:1 8:1 9:1 10:1 11:1 12:1 13:1 14:1 15:1 16:1 17:-0.5 18:-0.125 19:1 20:-0.25 21:-1 22:-1 23:-0.625 24:1 25:-1 26:-1 27:1 28:-1 29:-1 30:-1 31:-1 32:1 33:-0.75 34:-0.5 35:1 36:-0.5 37:-1 38:-1 39:-1 40:1 41:0.875 42:0.625 43:1 45:-1 46:-1 47:-1 48:1 49:1 50:1 51:1 53:-1 54:-1 55:-1 57:1 58:1 59:0.625 60:-0.75 61:-1 62:-1 63:-1 
0.3467893110247178 0:1 1:1 2:1 3:1 4:1 5:1 6:1 7:1 8:1 9:1 10:1 11:1 12:1 13:1 14:1 15:1 16:1 17:-1 18:-1 19:1 20:0.5 21:-1 22:0.5 23:1 24:1 25:-1 26:-1 27:1 28:-1 29:-1 30:-1 31:-0.625 32:1 33:-0.5 34:-0.25 35:1 36:-1 37:-1 38:-1 39:-1 40:1 41:0.5 42:0.25 43:1 44:-1 45:-1 46:-1 47:-1 48:1 49:1 50:1 51:1 52:-1 53:-1 54:-1 55:-1 56:1 57:1 58:1 59:1 60:-1 61:-1 62:-1 63:-1 
-1 0:0.5 1:1 2:1 3:0.5 4:-0.5 5:-0.875 6:-1 7:-1 8:1 9:1 10:1 11:1 12:1 13:0.75 14:-0.375 15:-1 16:1 17:-0.875 18:-0.5 19:0.75 20:1 21:1 22:1 23:-0.125 24:1 25:-1 26:-1 27:-1 28:-0.75 29:0.25 30:1 31:0.75 32:1 33:0.125 34:-0.75 35:-1 36:-1 37:-0.5 38:0.625 39:1 40:1 41:1 42:1 43:0.5 44:-0.25 46:1 47:1 48:-0.75 49:0.375 50:0.875 51:1 52:1 53:1 54:1 55:1 56:-1 57:-1 58:-0.5 59:0.125 60:0.75 61:1 62:1 63:1 
-1 0:-1 2:1 3:1 4:1 5:1 6:1 7:1 9:1 10:1 11:1 12:1 13:1 14:0.25 15:1 16:1 17:1 18:0.75 20:-1 21:-1 22:-1 23:-1 24:1 25:1 26:0.75 27:-0.25 28:-1 29:-1 30:-1 31:-0.25 32:1 33:1 34:0.25 35:-1 36:-1 37:-1 38:-1 39:1 40:1 41:1 42:0.25 43:-0.5 44:-1 45:-1 46:-1 47:1 48:0.25 49:1 50:1 51:1 52:0.75 53:0.5 54:1 55:1 56:-0.5 57:1 58:1 59:1 60:1 61:1 62:1 63:1 
-0.1004007521643156 0:-1 1:0.5 2:1 3:1 4:1 5:1 6:1 7:1 8:0.5 9:1 10:1 11:1 12:1 13:1 14:1 15:1 16:1 17:1 18:0.75 20:-1 21:-1 22:-1 23:-0.5 24:1 25:1 26:0.5 27:-0.5 28:-1 29:-1 30:-1 31:-1 32:1 33:1 35:-1 36:-1 37:-1 38:-1 39:1 40:1 41:1 42:0.25 43:-0.5 44:-1 45:-1 46:-1 47:1 48:0.25 49:1 50:1 51:1 52:0.75 53:0.5 54:1 55:1 56:-0.75 57:1 58:1 59:1 60:1 61:1 62:1 63:1 
-0.9523474118440428 0:-0.5 1:0.5 2:1 3:1 4:1 5:0.5 6:-0.25 7:-1 8:0.5 9:1 10:1 11:1 12:1 13:1 14:1 15:1 16:1 17:1 18:0.5 19:0.25 22:0.5 23:1 24:1 25:1 26:0.5 27:-0.5 28:-1 29:-1 30:-1 32:1 33:0.75 34:-0.625 35:-1 36:-1 37:-1 38:-0.875 39:-0.5 40:1 41:1 42:0.25 43:-0.75 44:-1 45:-1 46:-0.5 47:1 48:0.25 49:1 50:1 51:0.75 52:0.5 53:-0.25 54:0.125 55:1 56:-0.5 57:1 58:1 59:1 60:1 61:1 62:1 63:1 
-0.2595292918893831 0:-0.75 1:0.75 2:1 3:1 4:1 5:1 7:-0.5 9:1 10:0.75 11:0.5 12:1 13:1 14:1 15:1 16:1 17:1 18:-0.75 19:-1 20:-0.5 21:-0.5 22:-0.5 23:0.75 24:1 25:1 26:-1 27:-1 28:-1 29:-1 30:-1 31:-1 32:1 33:1 34:-0.25 35:-0.875 36:-1 37:-1 38:-0.625 39:0.875 40:0.25 41:1 42:1 43:0.625 46:0.25 47:1 48:-0.5 49:0.25 50:1 51:1 52:1 53:1 54:1 55:1 56:-1 57:-1 58:1 59:1 60:0.875 61:1 62:1 63:0.875 
-0.7044101963344623 0:1 1:1 2:1 3:1 4:1 5:1 6:0.375 7:-1 8:1 9:1 10:1 11:1 12:1 13:1 14:1 15:-0.375 16:1 17:-0.5 18:-0.5 19:-0.5 20:-0.5 21:-0.375 22:1 23:0.5 24:0.5 25:-1 26:-1 27:-1 28:-0.625 29:0.5 30:0.875 31:1 32:0.875 33:-0.75 34:-1 35:-1 36:-0.875 37:1 38:1 39:1 40:1 41:1 42:1 43:1 44:1 45:1 46:1 47:1 48:0.75 49:1 50:1 51:1 52:1 53:1 54:0.75 55:0.875 56:-0.625 57:1 58:1 59:1 60:0.375 62:-1 63:-0.25 
-0.493600555529337 0:-0.625 2:1 3:1 4:1 5:1 6:1 7:-0.25 8:1 9:1 10:1 11:1 12:1 13:1 14:1 15:0.75 16:1 17:0.625 20:-0.25 21:-1 22:0.375 23:1 24:1 25:-0.75 26:-1 27:-1 28:-1 30:1 31:1 32:1 33:-0.625 34:-1 35:-1 36:-0.75 37:0.25 38:1 39:1 40:1 41:1 42:1 43:1 44:1 45:1 46:1 47:1 48:0.75 49:1 50:1 51:1 52:1 53:1 54:0.5 55:-0.5 56:-1 59:1 60:1 61:1 62:1 63:-0.625 
-0.2074378887794071 0:1 1:1 2:1 3:1 4:1 5:1 7:1 8:1 9:0.625 10:1 11:1 12:1 13:1 14:1 15:1 16:-0.5 17:-0.875 18:-0.5 19:-0.5 20:-0.5 21:0.375 22:1 23:0.875 24:-1 25:-1 26:-1 27:-1 28:-1 29:-1 30:0.75 31:0.75 32:-1 33:-1 34:-1 35:-1 36:-1 37:-0.125 38:0.25 39:1 40:-0.5 41:-1 42:-1 43:-1 44:-1 45:0.5 46:1 47:1 48:0.75 51:-0.25 52:-0.5 53:0.625 54:1 55:1 56:1 57:1 58:1 59:1 60:1 61:1 62:1 63:0.375 
-0.08519568841639183 0:-0.5 1:1 2:1 3:1 4:1 5:1 6:1 7:0.125 8:0.5 9:1 10:1 11:1 12:1 13:1 14:1 15:1 16:1 17:-0.375 18:-1 19:-1 20:-1 21:-1 22:-0.125 23:1 24:1 25:-1 26:-1 27:-1 28:-1 29:-1 30:-0.25 31:0.625 32:1 33:-0.75 34:-1 35:-1 36:-1 37:-1 38:0.5 39:1 40:1 41:0.75 46:0.75 47:1 48:0.75 49:1 50:1 51:1 52:1 53:1 54:1 55:1 56:0.125 57:1 58:0.625 60:-1 61:-1 62:0.5 63:-0.125 
-1 0:1 1:1 2:1 3:1 4:1 5:1 7:1 8:1 9:0.625 10:1 11:1 12:1 13:1 14:1 15:1 16:-0.5 17:-0.875 18:-0.5 19:-0.5 20:-0.5 21:0.375 22:1 23:0.875 24:-1 25:-1 26:-1 27:-1 28:-1 29:-1 30:0.75 31:0.75 32:-1 33:-1 34:-1 35:-1 36:-1 37:-0.125 38:0.25 39:1 40:-0.5 41:-1 42:-1 43:-1 44:-1 45:0.5 46:1 47:1 48:0.75 51:-0.25 52:-0.5 53:0.625 54:1 55:1 56:1 57:1 58:1 59:1 60:1 61:1 62:1 63:0.375 
-0.5709326925460466 0:1 1:1 2:1 3:0.25 4:1 5:1 6:1 7:1 8:1 9:1 10:1 11:1 12:1 13:1 14:1 15:1 16:1 17:1 18:0.625 19:0.125 20:0.5 21:0.875 22:1 23:1 24:1 25:0.375 26:-0.75 27:-1 28:-1 29:0.75 30:1 31:1 32:1 33:-0.5 34:-1 35:-1 36:-0.75 37:0.625 38:1 39:1 40:1 41:1 42:0.625 43:-0.5 44:0.75 45:1 46:1 47:1 48:1 49:1 50:1 51:1 52:1 53:1 54:1 55:1 56:1 57:1 58:1 59:1 60:1 61:1 62:1 63:1 
-0.655424841152859 0:1 1:1 2:1 3:1 4:1 5:1 6:1 7:0.75 8:1 9:1 10:0.5 12:0.25 13:0.875 14:1 15:1 16:1 17:0.5 18:-0.625 19:-1 20:-1 21:0.75 22:1 23:1 24:1 26:-1 27:-1 28:-1 29:0.5 30:1 31:1 32:1 33:1 35:-1 36:-0.25 37:0.75 38:1 39:1 40:1 41:1 42:0.875 44:0.75 45:1 46:1 47:1 48:0.625 49:1 50:1 51:1 52:1 53:1 54:1 55:1 56:-0.875 57:0.75 58:1 59:1 60:1 61:1 62:1 63:0.875 
