svm_type c_svc
kernel_type rbf
gamma 0.015873
nr_class 2
total_sv 26
rho -0.1895
label 0 1
probA -5.83183
probB -0.0774701
nr_sv 12 14
SV
0.5464595232786622 1:1 3:-0.25 4:-0.25 5:-0.75 6:-1 7:-0.625 8:0.5 9:1 10:1 11:1 12:1 13:1 14:1 15:1 16:0.25 17:1 18:1 19:1 20:1 21:1 22:1 23:1 24:-0.625 25:1 26:1 27:1 28:1 29:1 30:1 31:1 33:1 35:-0.25 36:-0.5 37:-1 38:-1 39:-1 40:0.25 41:1 42:-0.625 43:-1 44:-1 45:-1 46:-1 47:-1 48:1 49:0.75 50:-1 51:-1 52:-1 53:-1 54:-1 55:-1 56:1 57:0.125 58:-1 59:-1 60:-1 61:-1 62:-1 63:-1 
0.4503586841240986 0:0.25 1:1 2:-0.5 3:-1 4:-1 5:-1 6:-1 7:-1 8:1 9:1 10:-0.25 11:-0.875 12:-1 13:-1 14:-1 15:-1 16:-0.25 17:1 18:1 19:1 20:1 21:0.625 23:0.25 24:-0.875 25:1 26:1 27:1 28:1 29:1 30:1 31:1 32:-0.75 33:1 34:1 35:1 36:1 37:1 38:1 39:1 40:-0.5 41:1 42:0.75 43:1 44:1 45:1 46:1 47:1 48:1 49:1 50:-0.375 51:-1 52:-1 53:-1 54:-1 55:-1 56:1 57:0.875 58:-0.75 59:-1 60:-1 61:-1 62:-1 63:-1 
0.04128678237730001 0:1 1:1 2:1 3:0.5 7:-1 8:1 9:1 10:1 11:1 12:1 13:1 14:1 15:-0.5 16:1 17:1 18:1 19:1 20:1 21:1 22:1 23:0.5 24:0.875 29:0.375 30:0.375 31:1 32:0.625 33:-1 34:-1 35:-1 36:-1 37:-1 38:-1 39:1 40:1 41:0.375 42:-1 43:-1 44:-1 45:-1 46:-1 47:-0.25 48:1 49:0.5 50:-1 51:-1 52:-1 53:-1 54:-1 55:-1 56:1 57:-0.25 58:-1 59:-1 60:-1 61:-1 62:-1 63:-1 
1 0:1 1:-0.875 2:-1 3:-1 4:-1 5:-1 6:-1 7:-1 8:1 9:-0.5 10:-1 11:-1 12:-1 13:-1 14:-1 15:-1 16:1 17:-0.5 18:-1 19:-1 20:-1 21:-1 22:-1 23:-1 24:1 25:-0.5 26:-1 27:-1 28:-1 29:-1 30:-1 31:-1 32:1 33:0.375 35:0.375 36:0.5 37:0.5 38:1 39:0.875 40:1 41:1 42:1 43:1 44:1 45:1 46:1 47:1 48:1 49:1 50:1 51:1 52:1 53:1 54:1 55:1 56:1 57:-0.25 58:-0.5 59:-0.5 60:-0.5 61:-0.5 62:-0.5 63:-0.75 
0.001305325391981443 0:1 1:-0.75 2:-1 3:-1 4:-1 5:-1 6:-1 7:-1 8:1 9:-0.5 10:-1 11:-1 12:-1 13:-1 14:-1 15:-1 16:1 17:0.125 18:-0.5 19:-0.5 20:-0.625 21:-1 22:-1 23:-1 24:1 25:1 26:1 27:1 28:1 29:1 30:1 31:0.5 32:1 33:1 34:1 35:1 36:1 37:1 38:1 39:1 40:1 41:-0.375 42:-1 43:-1 44:-1 45:-1 46:-0.5 48:1 49:-0.625 50:-1 51:-1 52:-1 53:-1 54:-1 55:-1 56:1 57:-0.375 58:-1 59:-1 60:-1 61:-1 62:-1 63:-1 
0.3220267910237446 0:1 1:0.25 5:-0.5 6:-0.625 7:-1 8:1 9:1 10:1 11:1 12:1 13:1 14:0.875 15:0.5 16:1 17:1 18:1 19:1 20:1 21:1 22:1 23:1 24:0.875 25:0.5 26:0.625 27:1 28:1 29:1 30:1 31:0.875 32:0.25 33:-1 34:-1 35:-1 36:-1 37:-1 38:-1 39:-1 41:-1 42:-1 43:-1 44:-1 45:-1 46:-1 47:-1 48:0.875 49:-0.25 50:-1 51:-1 52:-1 53:-1 54:-1 55:-1 56:1 57:-0.125 58:-1 59:-1 60:-1 61:-1 62:-1 63:-1 
1 0:1 1:1 2:1 3:1 4:1 5:1 6:1 7:-1 8:1 9:1 10:1 11:1 12:1 13:1 14:1 15:0.125 16:1 17:1 18:1 19:1 20:1 21:1 22:1 23:1 24:0.75 25:-0.5 26:-0.5 27:-0.875 28:-1 29:-1 30:-1 31:0.75 32:0.5 33:-1 34:-1 35:-1 36:-1 37:-1 38:-1 39:-0.625 40:0.5 41:-1 42:-1 43:-1 44:-1 45:-1 46:-1 47:-1 48:1 49:-0.5 50:-1 51:-1 52:-1 53:-1 54:-1 55:-1 56:1 57:-0.125 58:-1 59:-1 60:-1 61:-1 62:-1 63:-1 
0.5794737368858892 0:1 1:0.5 6:-0.25 7:-1 8:1 9:1 10:1 11:1 12:1 13:1 14:0.75 15:-1 16:1 17:1 18:1 19:1 20:1 21:1 22:1 23:-0.125 24:1 25:0.25 30:0.5 31:1 32:1 33:-0.5 34:-1 35:-1 36:-1 37:-1 38:-0.125 39:0.875 40:1 41:0.125 42:-1 43:-1 44:-1 45:-1 46:-0.875 47:-0.75 49:1 50:-1 51:-1 52:-1 53:-1 54:-1 55:-1 56:-0.125 57:0.875 58:-1 59:-1 60:-1 61:-1 62:-1 63:-1 
0.06833048358759077 0:1 1:-0.5 2:-1 3:-1 4:-1 5:-1 6:-1 7:-1 8:1 9:-0.5 10:-1 11:-1 12:-1 13:-1 14:-1 15:-1 16:1 17:0.75 18:0.5 19:0.5 21:-0.5 22:-0.875 23:-1 24:1 25:1 26:1 27:1 28:1 29:1 30:1 31:0.875 32:1 33:0.75 34:1 35:1 36:1 37:0.875 38:1 39:1 40:1 41:-1 42:-1 43:-1 44:-1 45:-1 46:-1 47:-0.5 48:1 49:-0.75 50:-1 51:-1 52:-1 53:-1 54:-1 55:-1 56:-0.125 57:0.5 58:-1 59:-1 60:-1 61:-1 62:-1 63:-1 
0.07393523068942681 0:1 1:-0.5 2:-1 3:-1 4:-1 5:-1 6:-1 7:-1 8:1 9:-0.5 10:-1 11:-1 12:-1 13:-1 14:-1 15:-1 16:1 18:-1 19:-1 20:-1 21:-1 22:-1 23:-1 24:1 25:1 27:-0.5 28:-0.875 29:-1 30:-1 31:-1 32:1 33:1 34:1 35:1 36:1 37:0.75 38:-0.375 39:-0.875 40:1 41:1 42:1 43:1 44:1 45:1 46:1 47:0.875 48:1 49:0.375 50:-0.125 51:0.625 52:1 53:1 54:1 55:1 56:1 57:-0.5 58:-1 59:-1 60:-0.25 61:0.625 62:1 63:1 
0.2398664222183149 0:1 1:-0.5 2:-1 3:-1 4:-1 5:-1 6:-1 7:-1 8:1 9:0.375 10:-1 11:-1 12:-1 13:-1 14:-1 15:-1 16:1 17:1 18:-1 19:-1 20:-1 21:-1 22:-1 23:-1 24:1 25:1 26:0.625 27:-0.375 28:-1 29:-1 30:-1 31:-1 32:1 33:1 34:1 35:1 36:1 37:0.75 38:-0.5 39:-1 40:0.25 41:1 42:1 43:1 44:1 45:1 46:1 47:0.75 49:0.875 50:-0.5 51:0.375 52:1 53:1 54:1 55:1 57:0.375 58:-1 59:-1 60:-0.625 61:0.625 62:0.625 63:0.125 
0.8469226586994051 0:1 1:-0.5 2:-1 3:-1 4:-1 5:-1 6:-1 7:-1 8:1 9:1 10:1 11:1 12:0.75 14:-0.75 15:-1 16:1 17:1 18:1 19:1 20:1 21:1 22:0.5 23:-1 24:1 25:1 26:1 27:1 28:1 29:1 30:1 31:-0.25 32:1 33:1 34:1 35:1 36:1 37:1 38:1 39:1 40:1 41:1 42:1 43:1 44:1 45:1 46:1 47:1 48:1 49:-0.5 51:0.75 52:1 53:1 54:1 55:1 56:1 57:-1 58:-1 59:-0.75 60:0.5 61:1 63:1 
-0.07998863115959447 0:0.5 2:0.75 3:1 4:1 5:0.75 6:-0.875 7:-1 8:1 9:1 10:1 11:1 12:1 13:1 14:0.5 15:-0.875 16:-0.5 17:-0.5 18:-0.5 19:-0.5 20:-0.5 21:0.375 22:1 23:0.25 24:-1 25:-1 26:-1 27:-1 28:-1 29:-0.25 30:1 31:0.875 32:-1 33:-1 34:-1 35:-1 36:-1 37:-0.25 38:1 39:1 40:1 41:1 42:0.875 43:-0.5 44:0.875 45:0.875 46:1 47:1 48:0.5 49:0.75 50:1 51:1 52:1 53:1 54:0.875 55:0.75 56:-1 57:-0.75 60:0.5 61:0.75 62:1 63:-0.125 
-0.5736763712818396 0:1 2:-0.5 3:1 4:0.5 5:0.5 6:-1 7:-1 8:1 9:1 10:1 11:1 12:0.875 13:0.5 14:-0.375 15:-1 16:0.75 17:1 18:1 19:1 20:1 21:1 22:0.875 23:-0.875 24:-1 25:-0.25 26:0.375 27:0.5 28:0.5 29:0.625 30:1 31:0.25 32:-1 33:-1 34:-1 35:-1 36:-1 37:-1 38:0.5 39:1 40:-0.5 41:-0.875 42:-1 43:-1 44:-1 45:-1 47:1 48:1 49:1 50:0.5 51:-0.5 52:-1 53:-1 54:0.125 55:1 56:0.75 57:1 58:1 59:1 60:1 61:0.625 62:0.875 63:0.5 
-0.02849916887365609 0:-0.5 1:-0.5 2:-0.5 3:0.375 4:1 5:1 6:-0.125 7:-1 8:1 9:1 10:1 11:1 12:1 13:1 14:1 15:-0.375 21:0.375 22:0.875 23:0.5 24:-1 25:-1 26:-1 27:-1 28:-1 29:-1 30:0.125 31:1 32:-1 33:-1 34:-1 35:-1 36:-1 37:-1 39:1 40:0.5 41:0.75 42:0.5 43:0.375 44:-0.375 46:0.75 47:1 48:0.875 49:0.5 50:0.75 51:1 52:1 53:1 54:1 55:0.5 56:-0.5 57:-1 58:-0.625 60:0.5 61:0.5 62:1 
-0.1571729619892807 0:0.25 1:1 2:0.125 3:-0.5 4:-0.5 5:0.5 6:0.375 7:-1 8:1 9:1 10:1 11:1 12:1 13:1 14:1 16:0.375 20:-0.125 21:-0.5 22:0.75 23:0.5 24:-1 25:-1 26:-1 27:-1 28:-1 29:-1 31:1 32:-1 33:-1 34:-1 35:-1 36:-1 37:-1 38:0.125 39:1 40:0.25 41:0.5 42:0.5 43:0.5 44:0.5 45:0.5 46:0.875 47:0.875 48:0.875 49:0.5 50:0.75 51:1 52:1 53:1 54:1 55:0.25 56:-0.375 57:-1 58:-0.625 60:0.5 61:0.75 62:1 63:-0.125 
-0.842577801427036 0:1 1:0.75 2:-0.5 3:-0.5 4:-0.5 5:-0.75 6:-1 7:-1 8:1 9:1 10:1 11:1 12:1 13:0.875 14:-0.5 15:-0.5 16:1 17:1 18:1 19:1 20:1 21:1 22:0.875 23:0.625 24:0.5 25:0.5 26:0.375 27:0.25 29:0.625 30:1 31:1 32:-1 33:-1 34:-1 35:-1 36:-1 37:-0.375 38:1 39:1 40:-1 41:-1 42:-1 43:-1 44:-1 45:-0.375 46:1 47:1 48:0.5 49:0.5 50:0.25 52:0.5 53:0.75 54:1 55:0.875 56:1 57:1 58:1 59:1 60:1 61:1 62:0.75 63:-0.625 
-0.2428291715379391 0:0.5 1:1 2:1 3:1 4:1 5:0.25 6:0.375 7:-1 8:0.75 9:0.375 10:0.625 11:1 12:1 13:1 14:1 16:-0.25 17:-1 18:-1 19:-1 20:-1 21:-0.625 22:0.625 23:0.875 24:-1 25:-1 26:-1 27:-1 28:-1 29:-1 31:1 32:1 33:0.5 34:-0.125 35:-0.5 36:-0.625 37:-1 38:0.125 39:1 40:1 41:1 42:1 43:1 44:1 45:0.875 46:0.875 47:1 48:1 49:1 50:1 51:0.375 52:1 53:1 54:1 55:0.25 56:1 57:1 58:0.375 60:0.5 61:0.75 62:1 63:-0.25 
-0.8922794423887671 0:1 1:0.25 2:-0.5 3:-0.625 4:-1 5:-1 6:-1 7:-1 8:1 9:1 10:1 11:1 12:1 13:1 14:1 15:0.625 16:0.375 17:1 18:1 19:1 20:1 21:1 22:1 23:1 24:-1 26:-0.75 29:0.25 30:0.375 31:0.75 32:-1 33:-1 34:-1 35:-1 36:-1 37:-1 38:-1 39:-0.75 40:0.125 41:-0.75 42:-1 43:-1 44:-1 45:-1 46:-1 47:-0.75 48:1 49:1 50:0.625 51:0.25 52:-0.5 53:-0.5 54:-0.5 55:0.5 56:0.5 57:1 58:1 59:1 60:1 61:1 62:1 63:1 
-0.5071534511198468 0:-0.375 1:1 2:1 3:1 7:-0.375 8:1 9:1 10:1 11:1 12:1 13:1 14:1 15:1 16:1 17:-0.125 18:-0.5 19:-0.5 22:0.25 23:0.75 24:-0.75 25:-1 26:-1 27:-1 28:-1 29:-1 30:-1 31:-0.75 32:-0.875 33:-0.75 34:-1 35:-1 36:-1 37:-1 38:-1 39:-0.75 40:0.75 41:1 42:0.75 43:0.5 44:0.5 46:0.375 47:0.75 48:1 49:1 50:1 51:1 52:1 53:1 54:1 55:1 56:0.5 57:0.5 58:0.5 59:0.875 60:-1 61:-1 62:-0.25 63:0.625 
-0.2790043472253955 0:1 1:1 2:1 3:1 4:1 5:1 6:1 7:-0.5 8:0.5 9:0.25 10:0.375 11:0.25 14:0.875 15:0.375 16:-1 17:-1 18:-1 19:-1 20:-1 21:-1 22:0.125 23:1 24:-1 25:-1 26:-1 27:-1 28:-1 29:-1 30:0.375 31:1 32:-0.5 33:-0.375 34:0.5 35:0.75 36:1 37:0.75 38:1 39:1 40:1 41:1 42:1 43:1 44:0.625 45:0.875 46:1 47:1 49:1 50:1 51:0.75 52:1 53:0.625 54:1 55:1 56:-1 57:0.625 58:0.875 59:0.875 62:1 63:0.5 
-0.46603037661459 0:1 1:1 2:1 3:1 4:1 5:1 6:1 7:1 8:0.5 9:0.375 10:0.375 11:0.5 15:0.875 16:-1 17:-1 18:-1 19:-1 20:-1 21:-1 22:-1 23:0.125 24:-1 25:-1 26:-1 27:-1 28:-1 29:-1 30:-1 31:0.375 32:-0.5 34:0.5 35:0.5 36:1 37:1 38:1 39:1 40:1 41:1 42:1 43:1 44:1 45:0.625 46:1 47:1 48:0.75 49:1 50:1 51:1 52:1 53:0.375 54:1 55:1 56:1 57:1 58:1 59:1 60:1 61:1 62:1 63:0.5 
-0.3041094588451271 0:1 1:0.5 2:0.25 3:1 4:1 5:0.75 6:-0.5 7:-1 8:1 9:1 10:1 11:1 12:1 13:1 14:1 16:-0.5 17:-0.5 18:0.125 19:0.25 20:0.25 21:0.5 22:1 23:0.875 24:-1 25:-1 26:-1 27:-1 28:-1 29:-1 30:-0.25 31:1 32:-1 33:-1 34:-1 35:-1 36:-1 37:-1 38:-0.75 39:1 40:0.5 41:0.5 42:0.875 43:0.75 44:0.5 46:0.75 47:1 48:1 49:1 50:1 51:1 52:1 53:1 54:1 55:1 56:0.125 57:1 58:-0.875 59:-0.875 60:-1 61:-0.25 62:0.5 63:0.5 
-0.2028411584190485 0:1 1:1 2:1 3:1 4:1 5:1 6:1 7:0.625 8:0.5 9:0.25 10:0.375 11:0.5 12:0.375 13:0.5 14:0.625 15:1 16:-1 17:-1 18:-1 19:-1 20:-1 21:-1 22:-0.875 23:0.75 24:-1 25:-1 26:-1 27:-1 28:-1 29:-1 30:-1 31:0.625 32:-0.375 33:-0.25 34:0.5 35:0.25 36:0.75 38:0.75 39:1 40:1 41:1 42:1 43:1 44:1 45:1 46:1 47:0.75 48:1 49:1 50:0.875 51:1 52:1 53:0.875 54:1 55:1 56:0.375 57:1 58:0.125 59:-0.125 60:-0.5 61:-0.125 62:1 63:0.5 
-0.1604977865356747 0:-0.75 1:-0.5 2:1 3:1 4:1 5:1 6:0.25 7:-1 8:1 9:1 10:1 11:1 12:1 13:1 14:0.625 15:-0.5 16:1 17:1 18:1 19:1 20:1 21:1 22:1 23:0.875 24:-0.5 26:0.25 27:0.5 28:0.5 29:0.5 30:0.875 31:1 32:-1 33:-1 34:-1 35:-1 36:-1 37:-1 38:-0.875 39:0.875 40:-1 41:-1 42:-1 43:-1 44:-1 45:-1 46:-1 47:0.5 48:0.5 49:0.5 50:0.5 51:0.625 52:0.375 53:-0.625 54:-0.375 55:1 56:1 57:1 58:1 59:1 60:1 61:1 62:1 63:1 
-0.4333055108586176 0:-1 1:1 2:1 3:1 4:1 5:1 6:1 7:1 8:-1 10:0.5 11:0.5 12:0.5 13:0.5 14:0.625 15:1 16:-1 17:-1 18:-1 19:-1 20:-1 21:-1 22:-0.75 23:0.75 24:-1 25:-1 26:-1 27:-1 28:-1 29:-1 30:-1 31:0.5 32:-1 33:-1 34:-1 35:-1 36:-1 37:-1 38:-1 39:0.5 40:-1 41:-1 42:-1 43:-1 44:-1 45:-1 46:-1 47:0.5 48:0.5 49:-0.5 50:-0.5 51:-0.5 52:-0.5 53:-0.5 54:0.5 55:0.875 56:1 57:1 58:1 59:1 60:1 61:1 62:1 63:0.625 
