svm_type c_svc
kernel_type rbf
gamma 0.00392157
nr_class 29
total_sv 1882
rho -0.389717 -0.967386 -0.84145 -0.963289 -0.515771 -0.845064 -0.628507 -0.677284 -0.406054 -0.00534513 -0.936668 -0.883594 -0.600707 -0.708622 -0.485465 -0.513822 -0.990103 -0.963982 -0.566269 -0.572107 -0.6947 -0.979767 -0.755773 -0.799342 -0.56283 -0.916969 -0.858564 -0.882442 -0.806967 -0.406523 -0.964275 -0.00993612 -0.280157 -0.225139 -0.552346 -0.561509 0.635908 -0.964543 -0.145747 0.141576 -0.703872 0.176502 -0.337966 -0.829216 -0.954143 -0.195766 -0.161605 -0.247592 -0.909901 -0.504697 -0.195871 0.557606 -0.737452 -0.00951005 -0.852142 0.526698 -0.892113 0.529496 0.524564 0.459211 0.293301 0.371959 0.958983 -0.870453 0.508858 0.875547 0.0765585 0.855704 0.364688 -0.404873 -0.883756 0.576177 0.593045 0.597387 -0.719478 0.466986 0.771181 0.95507 -0.0321875 0.789411 -0.660143 -0.918783 0.294059 0.147178 0.110856 -0.327476 -0.0748065 1.02752 -0.957499 0.101224 0.690228 -0.485084 0.522689 0.031238 -0.706575 -0.93958 0.139054 0.2888 0.216727 -0.848201 -0.0803781 0.330899 0.939242 -0.603171 0.420037 -0.810266 0.933236 0.912498 0.9411 0.892301 0.913529 0.972654 0 0.909978 0.946267 0.908778 0.954254 0.904608 0.888457 0 0.943086 0.931728 0.94116 0.881517 0.925149 0.936715 0.944996 0.894452 0.943623 0.816422 -0.117181 -0.0912291 -0.565021 -0.257568 0.654342 -0.962118 0.0510861 0.771304 -0.727435 0.234817 -0.244282 -0.798318 -0.939679 -0.0702949 -0.0381097 -0.0212294 -0.891108 -0.309378 0.0258662 0.996175 -0.826705 0.00552851 -0.796253 0.06742 -0.391325 -0.128759 1.24692 -0.923185 0.0634515 0.683828 -0.447644 0.339051 -0.197068 -0.758314 -0.940102 0.197234 0.175689 0.140957 -0.859612 -0.205969 0.129106 0.768304 -0.613936 0.180619 -0.787792 -0.507422 -0.179067 0.83987 -0.952558 0.0727627 0.586974 -0.535118 0.413094 -0.135253 -0.858298 -0.936288 0.0867522 0.0768881 0.0115589 -0.849001 -0.198201 0.226543 0.623037 -0.617 0.199521 -0.797367 0.0425306 0.879801 -0.928161 0.280986 0.685807 -0.26065 0.705351 0.191869 -0.673859 -0.898984 0.321964 0.402131 0.385332 -0.808326 0.230096 0.525432 1.03099 -0.36128 0.395285 -0.6861 0.710437 -0.910818 0.0723545 0.58978 -0.254713 0.433492 0.104259 -0.625263 -0.890463 0.178112 0.259973 0.23543 -0.757624 0.0393729 0.443199 0.722333 -0.391692 0.386948 -0.684985 -0.983789 -0.678501 -0.53887 -1.26027 -0.746968 -0.973537 -1.02337 -0.992602 -0.765909 -1.03263 -0.857951 -0.976528 -1.05074 -0.844291 -0.152891 -1.28138 -0.946094 -0.968563 0.896649 0.973404 0.920421 0.955862 0.941628 0.876834 0 0.937899 0.939754 0.9355 0.871861 0.920976 0.938573 0.987459 0.914499 0.928717 0.82196 0.228512 -0.325778 0.27693 -0.13721 -0.715794 -0.906442 0.124538 0.0904209 0.015285 -0.871126 -0.203481 0.114024 0.488327 -0.559511 0.0628585 -0.707496 -0.837104 -0.222749 -0.718511 -0.980658 -0.958548 -0.459157 -0.496905 -0.461335 -0.924078 -0.643799 -0.35776 0.346989 -1.10064 -0.301948 -0.929545 0.718575 0.397435 -0.397784 -0.900302 0.544788 0.563569 0.552007 -0.76665 0.422324 0.632824 0.914644 -0.161109 0.533391 -0.62347 -0.307185 -1.0077 -0.964842 -0.202896 -0.0758404 -0.266054 -0.943879 -0.637522 -0.228963 0.613049 -0.879501 -0.171632 -0.910392 -0.656185 -0.908499 0.15189 0.277905 0.290544 -0.79366 0.0245078 0.320179 0.841523 -0.617404 0.199754 -0.749737 -0.872468 0.764661 0.815157 0.774518 -0.699096 0.760382 0.874962 0.96836 0.379088 0.79357 -0.571304 0.965175 0.950917 0.957578 0.902819 0.944435 0.959664 0.980563 0.879102 0.948432 0.789208 0.109888 0.0467741 -0.884982 -0.217238 0.0632182 0.565062 -0.575903 0.108545 -0.788214 -0.125613 -0.911116 -0.407535 -0.130375 0.675646 -0.835233 0.118701 -0.836948 -0.891227 -0.290703 0.074563 0.681143 -0.735931 0.20662 -0.816521 0.860893 0.911799 0.981766 0.750015 0.912907 0.524051 0.449737 0.870454 -0.541053 0.428274 -0.836298 0.875765 -0.828072 0.0595536 -0.854131 -1.0622 -0.37806 -0.955371 0.778955 -0.623882 -0.863932
label 56 50 61 47 57 41 42 36 35 37 34 66 39 48 38 46 63 62 54 60 43 45 51 55 49 52 58 44 40
probA -5.90891 -4.92184 -4.98759 -36.9049 -5.323 -5.02965 -5.63471 -5.54785 -7.22262 -5.33853 -28.5035 -5.77052 -5.18581 -4.98587 -5.39497 -4.78479 -27.6432 -36.9199 -5.16538 -5.1929 -5.15974 -67.2901 -5.43526 -5.20684 -5.02074 -4.97964 -5.31732 -14.1764 -4.5985 -4.61377 -14.7065 -4.79187 -4.93441 -4.90408 -4.92016 -8.41194 -5.04421 -8.27136 -4.79537 -5.46505 -4.55503 -5.1523 -4.52354 -14.8017 -6.18867 -4.99922 -5.25882 -4.9055 -39.7828 -4.87415 -4.90151 -5.53085 -4.51609 -5.17274 -10.1837 -4.49614 -3.70208 -4.51532 -4.55995 -4.60494 -4.59908 -4.05313 -4.75912 -42.0065 -4.75459 -4.65493 -4.50024 -4.65145 -4.1392 -7.98255 -10.2974 -4.82669 -4.73154 -4.57905 -20.0582 -4.64826 -4.58074 -4.92678 -4.63757 -4.61353 -9.58569 -14.0724 -4.63396 -4.6284 -4.97811 -4.83827 -5.50413 -5.06845 -12.3048 -4.69568 -5.0302 -4.41622 -4.74448 -4.54621 -13.0595 -12.3236 -4.88797 -4.95376 -4.86541 -39.0627 -4.68639 -5.05574 -5.32043 -4.40672 -4.93487 -14.827 -21.1197 -42.8185 -19.275 -21.4586 26.5217 -29.5 0.693147 -29.406 -22.5902 -14.4045 -26.1181 12.4754 36.5392 0.693147 -37.2169 -25.2246 -28.8754 16.5849 -53.1882 -27.911 -41.6885 -7.5484 -37.0378 43.4684 -4.63989 -4.48113 -4.91185 -6.70001 -5.39699 -16.4792 -4.74206 -4.76809 -4.5232 -4.66095 -4.54911 -11.5052 -25.7664 -4.85586 -5.05656 -4.84558 -41.3913 -4.829 -4.65202 -5.06735 -4.38781 -4.89743 -12.7548 -4.81003 -4.95617 -6.67707 -5.05763 -23.3937 -4.76071 -5.19498 -4.53735 -4.83165 -5.19629 -16.1732 -20.0969 -5.01044 -4.90178 -4.7093 -27.2589 -4.94278 -4.87936 -5.35714 -4.46081 -5.07178 -15.3521 -5.07793 -6.98182 -5.79744 -13.5013 -4.85795 -5.49117 -4.43283 -4.49316 -4.44345 -17.4621 -13.2503 -5.00551 -5.16683 -5.04626 -26.5947 -4.8914 -5.40071 -6.86085 -4.49782 -5.32489 -11.4271 -5.57922 -5.67356 -21.5163 -4.78865 -5.76418 -4.60019 -5.20118 -4.40051 -14.0628 -22.4296 -5.14101 -5.43083 -4.98689 -31.9644 -4.96278 -5.58313 -6.30542 -4.59429 -5.20812 -11.4147 -8.19227 28.415 -5.37561 -10.3289 -4.13308 -7.90364 -5.52244 -7.35774 20.7731 -6.24222 -7.32642 -6.3265 -18.4929 -6.28979 -8.497 -12.7949 -4.60087 -7.67881 -6.2916 -22.6124 -5.08321 -5.25402 -4.712 -5.4795 -5.90537 -25.3219 -23.1584 -5.02357 -5.53381 -4.99026 -56.9162 -5.3992 -5.20548 -5.86722 -4.35377 -5.05292 -19.0763 -17.5134 -21.9972 -9.83684 -17.7383 -1.59451 35.7107 0.693147 -20.9359 -48.3271 -30.9051 16.5831 -11.6425 -21.9662 -34.1539 -7.49281 -23.3584 66.3947 -5.0957 -4.61981 -5.04609 -4.34601 -17.5906 -30.27 -4.88936 -4.85187 -4.7313 -40.9992 -4.76214 -4.86525 -5.74186 -4.64785 -5.33066 -8.03313 -4.81241 -5.29506 -6.08816 -34.7724 -27.45 -4.94068 -5.31563 -5.23462 -60.0074 -5.27972 -5.34354 -6.24148 -4.54147 -5.12398 -27.5264 -4.53349 -4.10313 -7.31045 -2.74285 -4.82661 -4.61848 -4.62465 -17.1471 -4.5929 -4.56714 -4.9272 -4.48278 -4.60252 -8.84203 -4.60073 -24.6551 -16.1493 -4.65357 -5.48551 -4.89044 -21.5945 -4.8441 -4.87664 -7.22807 -4.48069 -5.09675 -12.9559 -11.3713 10.837 -4.47456 -5.1095 -5.15986 -30.4506 -4.60278 -4.8859 -6.20657 -3.8039 -4.67912 -19.0564 38.6354 -13.762 -24.5465 -16.7282 -18.4334 -16.1978 -18.2415 -49.4133 -10.4649 -18.1228 0.911604 -17.0486 -38.7242 -18.3774 16.208 -8.16527 -11.5778 -30.497 -1.55751 -20.3501 104.651 -4.91 -4.87225 -40.9449 -4.89709 -4.78088 -4.99524 -4.71592 -5.00299 -10.3685 -5.14858 -45.2987 -5.11865 -5.13914 -5.68018 -4.525 -5.07945 -12.0607 -25.9332 -4.85295 -5.01918 -5.57794 -4.44568 -5.01604 -11.2977 -25.5585 -52.3413 -48.3063 -20.7308 -15.9581 -0.627441 -4.98131 -6.03059 -4.56219 -5.10541 -18.6594 -6.07801 -4.42204 -5.08496 -16.1238 -4.67192 -5.39819 -16.2625 -4.56193 -9.31103 -18.7489
probB 1.1642 0.335093 0.0255364 31.9852 0.635915 -0.362075 0.851985 0.826745 1.94042 -0.0304479 23.4423 1.53146 -0.241572 0.000911406 0.374334 -0.487051 22.9356 31.9162 0.430699 0.0213254 0.24368 62.8289 0.704626 0.11516 -0.344098 0.128724 0.196376 9.20868 0.733006 -0.522451 10.5671 -0.138252 -0.973162 -0.170478 0.412212 3.85017 -0.90467 4.11325 -0.368089 -1.28446 0.3411 -0.719936 -0.448899 10.4922 2.00263 -0.426413 -1.13196 -0.372195 35.5655 0.544375 -0.595337 -1.47813 0.316074 -1.05281 5.64716 -0.592738 -0.425829 -0.502713 -0.595348 -0.482953 -0.265241 -0.721282 -0.569232 38.1596 -0.511806 -0.953256 -0.31352 -0.560192 -0.812496 3.50699 6.21331 -0.320128 -0.52426 -0.655966 16.2272 -0.586778 -0.752479 -0.638423 -0.0973758 -0.617661 5.11057 10.0243 0.310265 -0.374176 0.686427 0.951298 1.16013 -0.356935 8.30183 0.159786 -0.408103 0.392141 0.128773 -0.170655 8.74945 8.2854 0.101406 -0.206315 -0.211029 34.8144 0.404751 -0.24561 -0.698807 0.525542 -0.47873 10.691 -17.0438 -38.802 -15.1898 -17.3939 28.2032 -24.8282 2.3919e-016 -25.3124 -18.0668 -10.3647 -21.9166 15.2642 37.2018 2.3919e-016 -32.6684 -20.8274 -24.6555 16.0793 -49.305 -23.801 -36.823 -3.45266 -32.8524 44.2937 -0.639974 0.0583249 0.980534 2.15453 -1.15273 12.3582 -0.406894 -0.90442 0.577082 -0.36365 -0.44412 8.16635 21.7338 0.0450438 -0.893726 -0.614136 37.4255 0.0573202 -0.688091 -1.45655 0.346669 -0.957846 8.40449 0.894133 1.09893 2.22057 -0.0268109 19.4224 0.495883 -0.35171 0.469568 0.709506 0.641858 11.9015 16.0718 0.626864 0.0638985 0.343217 23.7718 1.04335 0.406766 -0.45827 0.552237 0.140629 11.3372 0.967396 2.46964 -1.81634 9.37106 -0.160866 -1.88263 0.397412 -0.386822 -0.612622 13.4686 9.10604 -0.557935 -0.886206 -0.803282 23.0021 -0.392074 -1.35281 -2.95875 0.12423 -1.47209 7.01266 0.952212 -1.42241 17.4661 -0.409529 -1.64473 0.23176 -1.17138 -0.909758 9.8403 18.4314 -0.579454 -1.30612 -0.827939 27.6306 -0.552339 -1.8757 -2.08972 -0.0905664 -1.05272 7.05847 -3.25545 -29.9302 -0.780661 -5.57636 0.455389 -3.3886 -2.08242 4.16365 -22.3928 -1.28379 -2.63744 -1.86747 15.0669 -1.70481 -4.04175 -8.07102 -0.337131 -3.16193 3.1387 17.8796 0.183351 -0.204429 0.42556 1.40277 0.824942 20.5959 18.5634 0.504637 -0.314201 0.166217 52.7787 1.19817 0.248073 -0.919396 0.422431 -0.101792 14.3823 -13.3423 -17.4924 -5.76855 -13.5348 1.20875 36.3516 2.3919e-016 -16.2754 -44.0925 -26.7946 16.078 -7.54335 -17.842 -29.2853 -3.41163 -19.1232 67.0762 -0.480058 0.158172 -0.42834 -0.31829 13.5885 26.1401 0.235554 -0.213962 -0.174481 37.5512 0.267029 -0.501238 -1.138 0.243688 -1.12526 3.4856 0.46188 1.32132 1.45621 31.0471 22.9167 0.427839 0.1133 0.470653 55.569 1.12679 0.861614 -2.4152 0.422473 0.0666851 23.0747 -0.288469 -0.758451 3.35372 -1.37981 -0.137789 -0.498257 -0.435376 13.0776 -0.10737 -0.520635 -0.327041 0.224962 -0.291876 4.56757 -0.355419 20.6481 11.8931 -0.00449304 -1.04609 -0.211877 17.9686 0.672067 -0.431637 -3.31449 0.409304 -0.634704 8.64276 7.47446 -13.6146 0.593817 -0.410475 -0.558752 26.8581 0.206373 -0.173089 -1.25258 0.779137 -0.0675378 15.9064 -39.331 -8.74064 -20.038 -12.264 15.4798 -11.9256 -14.6863 -44.4231 -6.27623 -13.7341 -0.391411 -12.3447 -34.4759 -14.1285 15.7325 -4.02045 -7.35801 -25.6016 2.55964 -16.0449 105.227 -0.287256 -0.240997 36.2291 0.119031 -0.35408 -0.38188 0.224633 -0.503017 5.54016 0.412426 41.3004 0.976209 0.357175 -0.815173 0.488442 0.020821 7.36244 22.3792 0.445876 0.0567008 -0.898629 0.57303 -0.550791 6.85231 -21.9017 -48.2716 -44.0628 -16.8527 -12.3661 0.0118621 -0.834936 -1.80111 0.342005 -0.897868 14.5014 -1.3191 0.51008 -0.354844 12.0003 0.297678 -0.0668694 11.1152 -0.42131 4.81138 14.452
nr_sv 146 68 39 73 1 67 77 47 42 11 125 1 58 131 48 69 26 6 1 89 115 84 3 60 92 250 40 108 5
SV
0.312654323916005 0 0 0 0 0 0 0 0 0 0 0 0 0 0 0 0 0 0 0 0 0 0 0 0 0 0 0 1:-1 2:-1 3:-1 4:-1 5:-0.333333 6:-0.333333 7:-1 9:-1 10:-0.6 11:-0.2 12:-1 13:-1 14:-1 17:-1 18:-1 19:-0.2 21:-1 22:-1 23:-0.2 24:-0.6 25:-1 26:-0.666667 27:-0.2 28:-0.5 29:-1 30:-1 31:-0.5 32:-1 33:-1 34:-1 35:0.666667 36:-1 37:-1 38:-1 39:-1 40:-0.428571 41:-1 42:-1 43:1 44:-0.666667 45:-1 46:-1 47:-1 48:-0.714286 49:-1 50:-1 51:0.333333 52:-0.142857 53:-1 54:-1 55:-0.666667 56:-0.428571 57:-1 58:-1 59:-0.142857 60:-0.6 61:-1 62:-1 64:-0.6 65:-1 66:-1 67:-0.333333 68:-0.714286 69:-1 70:-1 71:-0.666667 72:-0.142857 73:-1 74:-1 75:-0.142857 76:-0.333333 77:-1 78:-1 79:-0.666667 80:0.2 81:-0.75 82:-1 83:-0.333333 84:-1 85:-1 86:-1 87:1 88:0.142857 89:-1 90:-1 91:-0.714286 92:-0.333333 93:-1 94:-1 95:-0.333333 97:-1 98:-1 99:-0.666667 100:-1 101:-1 102:-1 103:-1 104:-0.6 105:-1 106:-1 107:-0.142857 108:-1 109:-1 110:-1 111:0.666667 112:-1 113:-1 114:-1 115:0.428571 116:0.333333 117:-1 118:-1 119:-1 120:-0.428571 121:-1 122:-1 123:-0.428571 124:-1 125:-0.333333 126:-0.5 127:-0.666667 128:-0.714286 129:-1 130:-1 131:0.333333 132:-1 133:-1 134:-1 135:-0.666667 136:-0.333333 137:-1 138:-1 139:-0.2 140:-0.6 141:-1 142:-1 143:0.2 144:-0.333333 145:-1 146:-1 147:-0.333333 148:-1 149:-1 150:-1 151:0.333333 152:-0.714286 153:-1 154:-1 155:0.6 156:-1 157:-1 158:-1 159:-1 161:-1 162:-1 163:-0.6 164:-1 165:-1 166:-1 167:-1 168:-1 169:-1 170:-1 171:0.333333 172:-0.6 173:-1 174:-1 176:-0.333333 177:-1 178:-1 179:-0.333333 180:-0.333333 181:-1 182:-1 183:-0.428571 184:-1 185:-1 186:-1 188:-1 189:-1 190:-1 191:-0.6 192:-0.333333 193:-1 194:-1 195:-0.333333 196:-1 197:-1 198:-1 199:-1 200:-0.666667 201:-1 202:-1 203:0.2 204:-0.142857 205:-1 206:-1 207:-0.333333 209:-1 210:-1 211:-0.2 212:-1 213:-1 214:-1 215:1 216:-1 217:-1 218:-1 219:-1 220:-0.333333 221:-1 222:-1 223:-0.2 224:-1 225:-1 226:-1 227:-1 228:-1 229:-0.5 230:-0.333333 231:-1 232:-0.2 233:-1 234:-1 235:-1 236:-1 237:-0.75 238:-0.666667 239:-0.5 240:-0.6 241:-0.75 242:-1 243:-1 244:-0.6 245:-1 246:-1 247:-0.6 248:-1 249:-0.5 250:-0.666667 251:-1 252:-1 253:-1 254:-1 255:1 
0 0 0 0 0 0 0 0 0 0 0 0 1 0 0 0 0 0 0 0 0 0 0 0 0 0 0 0 0:-1 2:-1 3:-1 4:-1 5:-1 6:-0.333333 8:-1 9:-1 10:-1 11:-1 12:-1 14:-0.6 15:-1 16:-1 17:-1 18:-1 19:-1 20:-1 21:-1 22:-1 23:-0.6 24:-0.2 25:-0.714286 26:-0.666667 27:-1 28:-1 29:-1 30:-0.2 32:-1 33:-1 34:-1 35:-1 36:-1 37:-1 38:-1 39:0.333333 40:-0.714286 41:-1 42:-1 43:-1 44:-0.666667 45:-1 46:-0.6 47:-0.666667 48:-1 49:-1 50:-1 51:0.333333 52:-1 53:-1 54:-1 55:-1 56:-1 57:-1 58:-1 59:0.142857 60:-1 61:-1 62:-1 63:-1 64:-1 65:-1 66:-1 67:-1 68:-1 69:-1 70:-1 71:1 72:-1 73:-1 74:-1 75:-1 76:0.333333 77:-1 78:-1 79:-1 80:-1 81:-1 82:-1 83:0.333333 84:-1 85:-1 86:-1 87:-1 88:-0.428571 89:-1 90:-1 91:-0.428571 92:-1 93:-1 94:-1 95:-1 96:-1 97:-1 98:-1 99:-1 100:-1 101:-1 102:-1 103:0.428571 104:-0.6 105:-1 106:-1 107:-0.428571 108:-0.142857 109:-1 110:-1 111:-0.666667 113:-1 114:-1 115:-0.142857 116:-0.666667 117:-1 118:-1 119:-0.666667 120:-0.142857 121:-1 122:-1 123:-0.714286 124:-1 125:-1 126:-1 127:-1 128:-1 129:-1 130:-1 131:-1 132:-0.428571 133:-1 134:-1 135:-0.333333 136:-0.333333 137:-1 138:-1 139:-1 140:-0.6 141:-1 142:-1 143:0.6 144:-0.333333 145:-1 146:-1 147:-0.333333 148:-0.666667 149:-1 150:-1 151:-1 152:-0.428571 153:-1 154:-1 155:0.2 156:-1 157:-1 158:-1 159:-1 160:-0.333333 161:-1 162:-1 163:-1 164:0.333333 165:-1 166:-1 167:-1 168:-1 169:-1 170:-1 171:-1 172:-0.2 173:-1 174:-1 175:-0.333333 176:-1 177:-1 178:-1 179:0.333333 180:-1 181:-1 182:-1 183:-1 184:-0.714286 185:-1 186:-1 188:-1 189:-1 190:-1 191:-1 192:-1 193:-1 194:-1 195:-1 196:0.428571 197:-1 198:-1 199:-1 200:-1 201:-1 202:-1 203:-1 204:-1 205:-0.5 206:-0.714286 207:-0.666667 208:-0.666667 209:-0.555556 210:-1 211:-1 212:-1 213:-1 214:-1 215:-1 217:-1 218:-1 219:-0.666667 220:-1 221:-1 222:-1 223:-1 224:-1 225:0.333333 226:-1 227:-1 228:-1 229:-1 230:-1 231:-1 232:-1 233:-1 234:-1 235:-1 236:-1 237:-1 238:-1 239:-1 240:-0.6 241:-1 242:-1 243:-1 244:-1 245:-1 246:-1 247:-1 248:-1 249:-0.5 250:-0.333333 251:-1 252:-1 254:-1 255:-1 
0 0.3668856806415741 0 0 0 0 0 0 0.01561106596147426 0 0.02008025292739931 0.7561107428949387 0 0 0.07916687563240069 0 0 0 0 0 0 0 0 0 0 0 0 0 0:-1 1:-1 2:-0.6 3:1 4:-1 5:-1 6:-1 7:-1 8:-0.5 9:-0.75 10:-1 11:-1 12:-1 13:-1 14:0.2 15:-0.5 16:-1 17:-1 18:-1 19:-1 20:0.5 21:-0.75 22:-1 23:-1 24:-1 25:-1 26:-0.666667 27:0.2 28:-1 29:-1 30:-1 31:-1 32:-1 33:-1 34:-1 35:-1 36:-0.428571 37:-1 38:-1 39:-0.333333 40:-0.142857 41:-1 42:-1 43:-0.666667 44:-0.333333 45:-1 46:-1 47:-0.333333 48:-1 49:-1 50:-1 51:-1 52:-0.428571 53:-1 54:-1 55:-0.333333 56:-1 57:-1 58:-1 59:0.142857 60:-1 61:-1 62:-1 63:-1 64:-1 65:-1 66:-1 67:-1 68:-1 69:-1 70:-1 71:0.333333 72:-0.428571 73:-1 74:-1 75:-0.428571 76:-1 77:-1 78:-1 79:0.333333 80:-1 81:-1 82:-1 83:-1 85:-1 86:-1 87:-0.6 88:-0.142857 89:-1 90:-1 91:-0.714286 92:-1 93:-1 94:-1 95:-1 96:-0.666667 97:-1 98:-1 99:-1 100:-0.428571 101:-1 102:-1 103:-0.428571 104:0.6 105:-1 106:-1 107:-0.428571 108:0.142857 109:-1 110:-1 111:-0.666667 112:-1 113:-1 114:-1 115:-1 116:-1 117:-1 118:-1 119:0.666667 120:-1 121:-1 122:-1 123:0.428571 124:-1 125:-1 126:-1 127:-1 128:-1 129:-1 130:-1 131:-1 132:-0.428571 133:-1 134:-1 135:-0.333333 136:-0.333333 137:-1 138:-1 139:-0.2 140:-1 141:-1 142:-1 143:0.6 144:-1 145:-1 146:-1 147:-0.666667 148:0.333333 149:-1 150:-1 151:-0.666667 152:-0.428571 153:-1 154:-1 155:-0.2 156:-1 157:-1 158:-1 159:-1 161:-1 162:-1 163:-1 164:-0.666667 165:-1 166:-1 167:-1 168:-0.333333 169:-1 170:-1 171:-0.333333 172:-0.6 173:-1 174:-1 176:-1 177:-1 178:-1 179:-1 180:-1 181:-1 182:-1 183:0.142857 184:-0.714286 185:-1 186:-1 188:-1 189:-1 190:-1 191:-1 192:0.333333 193:-1 194:-1 195:-1 196:-1 197:-0.75 198:-1 199:-1 200:-1 201:-0.714286 202:-1 203:-0.6 204:-0.714286 205:-0.25 206:-0.428571 207:-1 208:-1 209:-1 210:-1 211:-1 212:-0.333333 213:-1 214:-1 215:-0.333333 216:-1 217:-1 218:-1 219:-0.333333 220:-0.666667 221:-1 222:-1 223:-0.2 224:-1 225:0.333333 226:-1 227:-1 228:-1 229:1 230:-1 231:-1 232:-1 233:0.25 234:-1 235:-1 236:-1 237:0.25 238:-1 239:-1 240:-1 241:0.5 242:-0.666667 243:-1 244:-1 246:-1 247:-1 248:-1 250:-1 251:-1 252:-1 254:-0.2 255:-1 
0 0 0 0 0 0 0 0 0 0 0 0 0 0.201768854428945 0 0 0 0 0 0 0 0 0 0 0 0 0 0 1:-0.666667 2:-1 3:-0.5 4:-1 5:-1 6:-1 7:-1 8:0.5 9:-1 10:-1 11:-1 12:-0.6 13:-0.666667 14:-1 15:-0.5 16:-0.5 17:-1 18:-0.333333 19:-0.6 20:-1 21:-1 22:-1 23:-0.6 24:-0.6 25:-1 26:-1 27:-0.2 28:-1 29:-1 30:-1 31:-0.5 32:-0.2 33:-1 34:-1 35:-0.333333 36:0.142857 37:-1 38:-1 39:-1 40:-1 41:-1 42:-1 43:-1 45:-1 46:-1 47:-0.333333 48:-0.714286 49:-1 50:-1 51:0.333333 52:-1 53:-1 54:-1 55:-1 56:-0.428571 57:-1 58:-1 59:-0.428571 60:-0.6 61:-1 62:-1 63:-0.666667 64:0.2 65:-1 66:-1 67:-0.666667 68:-0.428571 69:-1 70:-1 71:-0.333333 72:-0.714286 73:-1 74:-1 75:-1 76:-0.333333 77:-1 78:-1 79:-0.333333 80:1 81:-1 82:-1 83:-1 84:-1 85:-1 86:-1 87:-1 88:0.428571 89:-1 90:-1 91:-1 93:-1 94:-1 95:-0.666667 97:-1 98:-1 99:-0.333333 100:0.428571 101:-1 102:-1 103:-1 104:-1 105:-1 106:-1 107:-1 108:0.142857 109:-1 110:-1 111:-1 113:-1 114:-1 115:-0.714286 116:-1 117:-1 118:-1 119:-1 120:-0.428571 121:-1 122:-1 123:-0.428571 125:-1 126:-1 127:-0.666667 128:0.142857 129:-1 130:-1 131:-1 132:0.142857 133:-1 134:-1 135:-1 136:-1 137:-1 138:-1 139:-0.6 140:-0.2 141:-1 142:-1 143:-0.2 145:-1 146:-1 147:-0.333333 148:-0.666667 149:-1 150:-1 151:-1 152:0.142857 153:-1 154:-1 155:-1 156:-0.2 157:-1 158:-1 159:-0.333333 161:-1 162:-1 163:-1 164:0.666667 165:-1 166:-1 167:-1 168:-1 169:-1 170:-1 171:-1 172:0.6 173:-1 174:-1 175:-1 176:-0.666667 177:-1 178:-1 180:-1 181:-1 182:-1 183:-1 184:-0.142857 185:-1 186:-1 187:-0.333333 188:0.333333 189:-1 190:-1 191:-1 192:-0.666667 193:-1 194:-1 195:-1 196:0.142857 197:-1 198:-1 199:-1 200:-0.333333 201:-1 202:-1 203:-1 204:-1 205:-0.75 206:-0.142857 207:-1 208:-0.666667 209:-0.777778 210:-1 211:-1 213:-1 214:-1 215:-1 216:-0.666667 217:-1 218:-1 219:-1 220:-1 221:-1 222:-1 223:0.6 224:-1 225:0.333333 226:-1 227:-1 228:-1 230:-1 231:-1 232:-1 234:-1 235:-1 236:-1 238:-1 239:-1 240:-1 241:-0.25 242:-1 243:-0.6 244:-0.2 245:-1 246:-1 247:-1 248:-1 249:-0.25 250:-0.333333 251:-1 252:-1 253:-0.333333 254:-1 255:-0.333333 
0.1102704794707058 0 0 0.0328560171488821 0 0 0 0 0 0 0 0 0 0 0 0 0 0 0 0 0 0 0 0 0 0 0 0 0:-1 1:-1 2:-0.6 3:1 4:-1 5:-1 6:-1 7:-1 9:-1 10:-1 11:-1 12:-1 13:-1 14:0.2 15:-0.5 16:-1 17:-1 18:-1 19:-0.6 20:-0.5 21:-1 22:-1 23:-0.2 24:-1 25:-1 26:-0.666667 27:0.2 28:-1 29:-1 30:-1 31:-1 32:-1 33:-1 34:-1 35:-0.666667 36:-1 37:-1 38:-1 39:0.333333 40:-0.714286 41:-1 42:-1 44:-1 45:-1 46:-1 47:0.666667 48:-1 49:-1 50:-1 51:-1 52:-0.714286 53:-1 54:-1 56:-1 57:-1 58:-1 59:0.714286 60:-1 61:-1 62:-1 63:-1 64:-1 65:-1 66:-1 67:-1 68:-1 69:-1 70:-1 71:0.333333 72:-0.714286 73:-1 74:-1 75:0.142857 76:-1 77:-1 78:-1 79:-0.333333 80:-1 81:-1 82:-1 84:-0.333333 85:-1 86:-1 87:0.2 88:-1 89:-1 90:-1 91:0.142857 92:-1 93:-1 94:-1 95:-1 96:-1 97:-1 98:-1 99:-1 100:-1 101:-1 102:-1 103:0.142857 104:-0.6 105:-1 106:-1 107:-0.142857 108:-1 109:-1 110:-1 111:-1 112:-1 113:-1 114:-1 115:0.142857 116:-1 117:-1 118:-1 119:0.333333 120:-1 121:-1 122:-1 123:-0.428571 124:-1 125:-1 126:-1 127:-0.333333 128:-1 129:-1 130:-1 131:-1 132:-0.714286 133:-1 134:-1 136:-1 137:-1 138:-1 139:1 140:-1 141:-1 142:-1 143:-1 144:-1 145:-1 146:-1 147:0.333333 148:-1 149:-1 150:-1 151:0.333333 152:-1 153:-1 154:-1 155:-1 156:-1 157:-1 158:-1 159:0.333333 160:-1 161:-1 162:-1 163:-1 165:-1 166:-1 167:-0.714286 169:-1 170:-1 171:-0.666667 172:-1 173:-1 174:-1 175:-1 176:-1 177:-1 178:-1 179:0.333333 181:-1 182:-1 183:-0.428571 184:-1 185:-1 186:-1 187:-1 188:-1 189:-1 190:-1 191:0.6 192:-0.666667 193:-1 194:-1 195:-1 196:0.142857 197:-1 198:-1 199:-1 200:-1 201:-1 202:-1 203:-0.2 204:-1 205:-0.5 206:-0.142857 207:-1 208:-0.666667 209:-1 210:-1 211:-0.2 212:-0.666667 213:-1 214:-1 216:-1 217:-1 218:-1 219:-1 220:-1 221:-1 222:-1 223:0.6 224:-0.6 226:-1 227:-1 228:-1 229:-0.75 230:-1 231:-1 232:-1 234:-1 235:-1 236:-1 238:-1 239:-1 240:-1 241:-0.5 242:-1 243:-1 244:-1 245:-1 246:-0.6 247:-0.2 248:-1 249:-0.5 250:-0.333333 251:-1 253:-0.666667 254:-1 255:-1 
0.04397420664018487 0 0 0 0 0 0 0 0 0 0 0 0 0 0.04287823800138987 0 0 0 0 0 0 0 0 0.4449949231720509 0.5749547993333979 0 0 0 0:-0.5 1:-0.666667 2:-1 3:-1 4:-1 5:-0.666667 6:-0.333333 7:-0.5 8:-1 9:-0.5 10:-1 11:-1 12:-0.6 14:-1 15:-1 16:-1 17:-1 18:-0.666667 19:-0.6 20:-1 21:-1 22:-1 23:-0.6 24:0.2 25:-1 26:-0.666667 27:-0.6 28:-1 29:-1 30:-0.2 31:-1 32:-1 33:-1 34:-1 35:0.666667 36:-0.142857 37:-1 38:-1 39:-0.666667 40:-1 41:-1 42:-1 44:-0.333333 45:-1 46:-1 47:-0.333333 48:-0.428571 49:-1 50:-1 51:-0.333333 52:-0.714286 53:-1 54:-1 55:-1 56:-0.428571 57:-1 58:-1 59:-0.428571 60:-0.2 61:-1 62:-1 63:-1 64:-0.2 65:-1 66:-1 67:-0.666667 68:-0.142857 69:-1 70:-1 71:-0.666667 72:-1 73:-1 74:-1 75:-1 76:0.333333 77:-1 78:-1 79:-0.666667 80:0.2 81:-1 82:-1 84:-1 85:-1 86:-1 87:-1 88:0.142857 89:-1 90:-1 91:-0.714286 92:-0.333333 93:-1 94:-1 95:-0.333333 96:-0.666667 97:-1 98:-1 99:-0.333333 100:0.142857 101:-1 102:-1 103:-0.714286 104:-1 105:-1 106:-1 107:-1 108:-0.142857 109:-1 110:-1 111:-0.666667 113:-1 114:-1 115:-0.428571 116:-1 117:-1 118:-1 119:-1 120:-0.428571 121:-1 122:-1 123:-0.428571 124:-0.333333 125:-1 126:-1 127:-0.333333 128:-0.428571 129:-1 130:-1 131:-1 132:-0.142857 133:-1 134:-1 135:-0.333333 136:-0.666667 137:-1 138:-1 139:-0.6 140:-0.6 141:-1 142:-1 143:-0.6 144:-0.666667 145:-1 146:-1 148:-0.666667 149:-1 150:-1 151:-1 152:0.142857 153:-1 154:-1 155:-1 156:-0.2 157:-1 158:-1 159:-0.333333 160:-1 161:-1 162:-1 163:-1 165:-1 166:-1 167:-0.714286 169:-1 170:-1 171:-0.666667 172:-0.2 173:-1 174:-1 175:-1 177:-1 178:-1 179:-0.666667 181:-1 182:-1 183:-1 184:-0.428571 185:-1 186:-1 187:-1 188:-0.666667 189:-1 190:-1 191:0.2 192:-1 193:-1 194:-1 195:-1 196:0.142857 197:-0.75 198:-1 199:-1 200:-0.333333 201:-1 202:-1 203:-0.6 204:-1 205:-0.75 206:-0.714286 207:-1 209:-1 210:-1 211:-0.6 212:0.333333 213:-1 214:-1 215:-1 216:-1 217:-1 218:-1 219:-1 220:0.333333 221:-1 222:-1 223:-0.6 224:0.2 225:-0.666667 226:-1 227:-1 228:-1 229:-1 230:-1 231:-1 232:-1 233:-1 234:-1 235:-1 236:-1 237:-0.5 238:-1 239:-1 240:-1 241:-1 242:-1 243:-1 244:0.2 245:-1 246:-1 247:-0.6 248:-0.6 249:-1 250:-1 251:-1 252:0.5 253:-1 254:-1 255:-1 
0 0 0 0 0 0 0 0 0.09824758481904272 0 0 0 0 0 0 0 0 0 0 0 0 0 0 0 0 0 0 0 1:-0.666667 2:-1 3:-1 4:-1 5:-1 6:-0.333333 7:0.5 8:-1 9:-1 10:-1 11:-1 12:-0.6 14:-1 15:-1 16:-1 17:-1 18:-0.333333 19:-0.6 20:-1 21:-1 22:-0.666667 23:-0.2 24:-1 25:-1 26:-1 27:-0.6 28:-0.5 29:-1 30:-1 31:1 32:-1 33:-1 34:-1 35:0.333333 36:-0.714286 37:-1 38:-1 39:-0.666667 40:-1 41:-1 42:-1 44:-0.333333 45:-1 46:-1 48:-1 49:-1 50:-1 51:0.333333 52:-1 53:-1 54:-1 55:-0.666667 56:-1 57:-1 58:-1 59:0.142857 60:-1 61:-1 62:-1 63:0.333333 64:-0.6 65:-1 66:-1 68:-1 69:-1 70:-1 71:-1 72:-0.714286 73:-1 74:-1 75:-0.142857 76:-0.666667 77:-1 78:-1 80:-0.6 81:-1 82:-1 83:0.333333 84:-1 85:-1 86:-1 87:-1 88:-0.714286 89:-1 90:-1 91:-0.142857 92:-1 93:-1 94:-1 95:0.333333 96:-0.666667 97:-1 98:-1 100:-1 101:-1 102:-1 103:-0.714286 104:-0.6 105:-1 106:-1 107:-0.142857 108:-1 109:-1 110:-1 111:0.333333 112:-1 113:-1 114:-1 115:0.142857 116:-1 117:-1 118:-1 119:-1 120:-1 121:-1 122:-1 123:0.142857 124:-0.666667 125:-1 126:-0.5 127:-0.666667 128:-0.428571 129:-1 130:-1 131:0.333333 132:-1 133:-1 134:-1 135:-1 136:-1 137:-1 138:-1 139:1 140:-1 141:-1 142:-1 143:0.6 144:-1 145:-1 146:-1 147:-0.666667 148:-1 149:-1 150:-1 152:-1 153:-1 154:-1 155:0.6 156:-1 157:-1 158:-1 159:-1 160:-0.333333 161:-1 162:-1 163:-0.2 164:-1 165:-1 166:-1 167:-0.714286 169:-1 170:-1 171:-0.333333 172:-0.6 173:-1 174:-1 176:-1 177:-1 178:-1 179:-1 180:-0.666667 181:-1 182:-1 183:-0.142857 184:-1 185:-1 186:-1 187:0.333333 188:-1 189:-1 190:-1 191:-1 192:0.333333 193:-1 194:-1 195:-1 196:-1 197:-1 198:-1 199:-1 200:0.333333 201:-1 202:-1 203:-1 204:-0.428571 205:-1 206:-1 207:-0.666667 208:-0.666667 209:-1 210:-0.714286 211:-1 212:-0.333333 213:-1 214:-1 215:-0.333333 216:0.333333 217:-1 218:-1 219:-0.666667 220:-1 221:-1 222:-1 223:-1 224:-0.6 225:-0.666667 226:-1 227:-1 228:-0.666667 230:-1 231:-1 232:-0.6 233:-1 234:-1 235:-1 236:-1 237:-1 238:-1 239:-1 240:-1 241:-0.5 242:-0.333333 243:-1 244:-1 245:-1 246:-1 247:-1 248:-1 249:-1 250:-1 252:-1 253:-0.333333 254:-0.6 255:-1 
0 0 0 0 0 0 0 0 0 0 0 0 0 0 0 0.004392118225987953 0 0.02374488770484948 0 0 0 0 0 0 0 0 0 0 1:-1 2:-1 3:-0.5 4:-1 5:-0.666667 6:-0.666667 7:-0.5 8:-1 9:-1 10:-1 11:-0.2 12:-1 13:-0.666667 14:-1 16:-1 17:-0.666667 18:-0.333333 19:-0.2 20:-1 21:-1 22:-1 23:-0.6 24:-0.6 25:-1 26:-1 27:-0.2 28:-1 29:-1 30:-1 31:0.5 32:-0.2 33:-1 34:-1 36:-1 37:-1 38:-1 39:-0.666667 40:-1 41:-1 42:-1 43:0.333333 44:-0.333333 45:-1 46:-1 48:-1 49:-1 50:-1 51:-0.333333 52:-1 53:-1 54:-1 55:-0.333333 56:-1 57:-1 58:-1 59:0.428571 60:-1 61:-1 62:-1 63:0.333333 64:-1 65:-1 66:-1 67:0.333333 68:-1 69:-1 70:-1 71:-1 72:-1 73:-1 74:-1 75:0.428571 76:-1 77:-1 78:-1 79:0.333333 80:-1 81:-1 82:-1 83:-0.666667 84:-1 85:-1 86:-1 87:0.6 88:-1 89:-1 90:-1 91:0.428571 92:-1 93:-1 94:-1 95:-1 96:-1 97:-1 98:-1 99:0.333333 100:-1 101:-1 102:-1 103:-1 104:-1 105:-1 106:-1 107:0.142857 108:-1 109:-1 110:-1 111:0.333333 112:-1 113:-1 114:-1 115:-1 116:-1 117:-1 118:-1 119:0.333333 120:-1 121:-1 122:-1 123:0.142857 124:-1 125:-1 126:-1 127:-1 128:-1 129:-1 130:-1 131:-0.666667 132:-1 133:-1 134:-1 135:0.333333 136:-0.666667 137:-1 138:-1 139:0.6 140:-0.6 141:-1 142:-1 143:0.2 144:-1 145:-1 146:-1 147:-1 148:-1 149:-1 150:-1 151:0.333333 152:-1 153:-1 154:-1 155:0.6 156:-1 157:-1 158:-1 159:-1 160:-1 161:-1 162:-1 163:-1 165:-1 166:-1 167:-0.428571 168:-0.666667 169:-1 170:-1 171:0.333333 172:-1 173:-1 174:-1 175:-1 176:-1 177:-1 178:-1 179:0.333333 180:-1 181:-1 182:-1 183:0.142857 184:-1 185:-1 186:-1 187:0.333333 188:-1 189:-1 190:-1 191:-1 193:-1 194:-1 195:-1 196:-0.428571 197:-0.75 198:-1 199:-1 200:0.333333 201:-1 202:-1 203:-1 204:-1 205:-1 206:-1 207:-1 208:0.333333 209:-0.777778 210:-1 211:-1 212:-1 213:-1 214:-1 215:0.333333 216:-1 217:-1 218:-1 219:-0.666667 220:-0.666667 221:-1 222:-1 223:0.2 224:-0.2 225:-1 226:-1 227:-1 228:-1 229:0.25 230:-1 231:-1 232:-0.2 233:-1 234:-1 235:-1 236:-1 237:-1 238:-1 239:-1 240:-1 241:-0.75 242:-0.666667 243:-1 244:-1 245:-0.5 246:-1 247:-1 248:-1 249:-1 250:-1 251:-1 252:-0.5 253:-1 254:-0.2 255:0.333333 
0 0 0 0 0 0.05822261792429144 0 0 0 0 0 0 0 0 0 0 0 0 0.3306574739236098 0 0 0 0 0 0 0 1 0 0:1 1:-1 2:-1 3:-1 4:-0.5 5:-1 6:-1 7:-1 8:0.5 9:-1 10:-1 11:-1 12:0.2 13:-1 14:-1 15:-1 17:-0.666667 18:-0.666667 19:-1 20:-0.5 21:-1 22:-1 23:-1 24:0.6 25:-1 26:-1 27:-1 28:-1 29:-1 30:-1 31:-0.5 32:0.6 33:-1 34:-1 35:-1 36:-1 37:-1 38:-1 39:0.333333 40:-1 41:-1 42:-1 43:-0.666667 44:0.333333 45:-1 46:-1 47:-0.666667 48:-0.142857 49:-1 50:-1 51:-0.666667 52:-1 53:-1 54:-1 55:-1 56:-0.142857 57:-1 58:-1 59:-0.714286 60:-1 61:-1 62:-1 63:-0.666667 64:0.2 65:-1 66:-1 67:-0.666667 68:-0.428571 69:-1 70:-1 71:-0.333333 72:-0.714286 73:-1 74:-1 75:-1 77:-1 78:-1 79:-0.666667 80:0.2 81:-1 82:-1 83:-0.666667 84:-1 85:-1 86:-1 87:-0.6 88:0.142857 89:-1 90:-1 91:-0.714286 92:-0.666667 93:-1 94:-1 95:-1 96:0.666667 97:-1 98:-1 99:-1 100:0.142857 101:-1 102:-1 103:-1 104:-1 105:-1 106:-1 107:-1 108:0.142857 109:-1 110:-1 111:-0.666667 112:-0.666667 113:-1 114:-1 115:0.142857 116:-1 117:-1 118:-1 119:-1 120:0.142857 121:-1 122:-1 123:-0.714286 125:-1 126:-1 127:-0.666667 128:0.142857 129:-1 130:-1 131:-1 132:-0.142857 133:-1 134:-1 135:-0.333333 136:-1 137:-1 138:-1 139:-1 140:0.6 141:-1 142:-1 143:-1 145:-1 146:-1 147:-0.333333 148:-1 149:-1 150:-1 151:-1 152:0.142857 153:-1 154:-1 155:-1 156:-1 157:-1 158:-1 159:0.333333 161:-1 162:-1 163:-1 164:0.333333 165:-1 166:-1 167:-1 168:-0.666667 169:-1 170:-1 171:-1 172:0.2 173:-1 174:-1 175:-0.666667 176:-0.666667 177:-1 178:-1 180:-0.666667 181:-1 182:-1 183:-1 184:-0.428571 185:-1 186:-1 187:-0.333333 188:-0.333333 189:-1 190:-1 191:-0.2 192:-1 193:-0.6 194:-1 195:-1 196:0.428571 197:-1 198:-1 199:-1 200:-0.666667 201:-1 202:-1 203:-1 204:-0.714286 205:-0.75 206:-0.428571 207:-1 208:-0.666667 209:-0.555556 210:-1 211:-1 212:-0.666667 213:-1 214:-1 215:-1 217:-1 218:-1 219:-1 220:-0.333333 221:-1 222:-1 223:-1 224:-1 225:0.333333 226:-1 227:-1 228:-1 230:-1 231:-1 232:-1 234:-1 235:-1 236:-1 238:-1 239:-1 240:-1 241:-0.5 242:-1 243:-1 244:-0.6 245:-1 246:-1 247:-1 248:-1 249:-0.5 250:-0.333333 251:-0.5 252:-0.5 253:-0.333333 254:-1 255:-1 
0.3823903505435262 0 0.5394612815035214 0 0 0.6480424156144161 0 0.2562587060457904 0 1 0.08675242983507819 1 1 0 0.7103072923216944 0.1960398738224722 0.007115216667666811 0 0.9062182825742483 0.9057678899265462 1 0.05980438650021153 0.8665376925899635 0.5704681323863616 1 0 0.6468861418459891 0.2309884039024334 0:-1 1:-1 2:-1 3:-1 4:0.5 5:-1 6:-1 7:-1 8:0.5 9:-1 10:-1 11:-1 12:-0.6 13:-1 14:-1 15:-1 16:-0.5 17:-0.666667 18:-1 19:-1 20:-1 21:-0.75 23:-0.6 24:-1 25:-0.714286 27:-1 29:-0.333333 30:-1 31:-1 32:-1 33:-1 34:-1 35:-1 36:0.428571 37:-1 38:-1 39:-1 40:0.142857 41:-1 42:-1 43:-1 44:-1 45:-1 46:-1 47:-1 48:0.428571 49:-1 50:-1 51:-1 52:-0.142857 53:-1 54:-1 55:-0.666667 56:-1 57:-1 58:-1 59:-0.428571 60:-0.2 61:-1 62:-1 63:-1 64:-1 65:-1 66:-1 67:-1 68:0.142857 69:-1 70:-1 71:-0.666667 72:0.142857 73:-1 74:-1 75:-1 76:-1 77:-1 78:-1 79:-1 80:0.6 81:-1 82:-1 83:-1 84:0.666667 85:-1 86:-1 87:-1 88:-0.142857 89:-1 90:-1 91:-0.714286 92:-1 93:-1 94:-1 95:-1 96:-1 97:-1 98:-1 99:-1 100:0.428571 101:-1 102:-1 103:-1 104:0.6 105:-1 106:-1 107:-1 108:-0.142857 109:-1 110:-1 111:-1 112:-0.333333 113:-1 114:-1 115:-1 117:-1 118:-1 119:-0.666667 120:-0.714286 121:-1 122:-1 123:-1 124:-1 125:-1 126:-1 127:-1 128:-0.142857 129:-1 130:-1 131:-1 132:-0.428571 133:-1 134:-1 135:-1 136:0.666667 137:-1 138:-1 139:-1 140:1 141:-1 142:-1 143:-1 144:-1 145:-1 146:-1 147:-1 148:0.333333 149:-1 150:-1 151:-1 152:0.142857 153:-1 154:-1 155:-1 156:-1 157:-1 158:-1 159:-1 160:-0.333333 161:-1 162:-1 163:0.2 165:-1 166:-1 167:-1 168:-0.333333 169:-1 170:-1 171:-1 172:0.6 173:-1 174:-1 175:-1 176:-1 177:-1 178:-1 179:-1 180:0.666667 181:-1 182:-1 183:-1 184:-0.714286 185:-1 186:-1 187:0.333333 188:-1 189:-0.666667 190:-1 191:-1 192:-0.666667 193:-1 194:-1 196:-1 197:-1 198:-1 199:-1 200:-0.666667 201:-1 202:-1 203:-0.2 204:-0.714286 205:-1 206:-1 207:-0.333333 208:-0.666667 209:-0.333333 210:-1 211:-1 212:-0.333333 213:-1 214:-1 215:-1 216:-1 217:0.142857 218:-0.714286 219:-1 220:-1 221:0.333333 222:-1 223:-1 224:-0.2 225:-1 226:-1 227:-1 228:-1 229:-1 230:0.333333 231:-1 232:-1 233:-0.75 234:-0.333333 235:-1 236:-1 237:-0.75 238:-0.666667 239:-1 240:-1 241:-0.5 242:-0.666667 243:-1 244:-1 245:-0.25 246:-0.6 247:-1 248:-1 250:-1 251:-1 252:-1 253:-0.666667 254:-0.2 255:-1 
0 0 0 0 0 0 0 0 0 0 0 0 0 0 0 0 0 0 0 0 0 0 0 0 0 0.0521091913389878 0 0 0:-1 1:-1 2:-1 3:0.5 4:-1 5:-1 6:-1 7:-0.5 8:-1 9:-0.5 10:-1 11:-1 12:-1 14:-1 15:-1 16:-1 17:-1 18:-1 19:-0.6 21:-0.75 22:-1 23:-0.6 24:-0.6 25:-1 26:-0.666667 27:-0.2 28:-0.5 29:-1 30:-1 31:-1 32:0.2 33:-1 34:-1 35:-0.666667 36:-1 37:-1 38:-1 39:-0.333333 40:-0.428571 41:-1 42:-1 43:-0.333333 44:-1 45:-1 46:-1 47:0.333333 48:-0.428571 49:-1 50:-1 51:-0.333333 52:-0.428571 53:-1 54:-1 55:-0.666667 56:-0.428571 57:-1 58:-1 59:-0.142857 60:-1 61:-1 62:-1 63:-1 64:-1 65:-1 66:-1 67:0.333333 68:-0.714286 69:-1 70:-1 71:-0.666667 72:-1 73:-1 74:-1 75:0.142857 77:-1 78:-1 79:-0.666667 80:-1 81:-1 82:-1 83:-1 84:-0.666667 85:-1 86:-1 87:0.2 88:-0.714286 89:-1 90:-1 91:0.142857 92:-1 93:-1 94:-1 95:-1 96:-0.333333 97:-1 98:-1 99:-0.666667 100:-0.142857 101:-1 102:-1 103:-0.142857 104:-0.2 105:-1 106:-1 107:-0.142857 108:-0.428571 109:-1 110:-1 111:-0.333333 112:-0.666667 113:-0.777778 114:-1 115:-0.714286 116:0.666667 117:-1 118:-1 119:-0.666667 120:-1 121:-1 122:-1 123:-0.428571 124:-1 125:-1 126:-1 128:-0.714286 129:-1 130:-1 131:0.333333 132:-1 133:-1 134:-1 135:-1 136:0.333333 137:-1 138:-1 139:-0.6 140:-0.6 141:-1 142:-1 143:-1 144:0.333333 145:-1 146:-1 147:-1 149:-1 150:-1 151:-0.666667 152:-1 153:-1 154:-1 155:-1 156:-1 157:-1 158:-1 159:0.333333 161:-1 162:-1 163:-0.6 164:-0.666667 165:-1 166:-1 167:-1 169:-1 170:-1 171:-0.666667 172:-1 173:-1 174:-1 175:-0.333333 176:-1 177:-0.5 178:-0.666667 180:-0.333333 181:-1 182:-1 183:-1 184:-1 185:-1 186:-1 187:-0.666667 189:-1 190:-1 191:-0.2 192:-0.333333 193:-0.6 194:-1 195:-0.333333 196:-0.428571 197:-1 198:-1 199:-0.666667 200:-0.666667 201:-1 202:-0.666667 203:-0.2 204:-1 205:-0.25 206:-1 207:-1 209:-1 210:-1 211:-0.6 212:-0.333333 213:-1 214:-1 216:-1 217:-1 218:-1 219:-1 220:-0.333333 221:-1 222:-0.666667 223:-0.2 224:-0.6 225:-1 226:-1 227:-1 228:-1 229:-1 230:-1 231:-1 232:-1 233:-0.75 234:-1 235:-1 236:-1 237:-0.75 238:-1 239:-1 240:-1 241:-1 242:-0.666667 243:-1 244:-1 245:-1 246:-0.6 247:-0.6 248:-1 249:-0.5 250:-0.666667 251:-1 252:-0.5 253:-1 254:-1 255:-1 
0.2274369486548694 0 0.08558504542410217 0 0 0 0.4926425653791514 0.04062735371296779 0 0 0 0 0 0.01054153097359582 0.7345623862792124 0 0 0.02468155610982085 0 0 0 0 0 0 1 0 0 0 0:-1 2:-1 3:-1 4:-0.5 5:-1 6:-0.333333 7:-1 8:-1 9:-1 10:0.2 11:-1 12:-1 13:-0.666667 14:-0.2 15:-1 16:-1 17:-1 19:-1 20:-1 21:-0.5 22:-1 23:-1 24:-1 25:-0.142857 26:-0.666667 27:-1 28:-1 29:-0.666667 30:-0.2 31:-0.5 32:-1 33:-1 34:-1 35:-0.333333 36:0.142857 37:-1 38:-1 39:-1 40:-1 41:-1 42:-1 43:-1 44:0.333333 45:-1 46:-1 47:-1 48:-1 49:-1 50:-1 52:-0.142857 53:-0.75 54:-1 55:-1 56:-1 57:-1 58:-1 59:-1 60:-0.2 61:-1 62:-1 63:-0.666667 64:-1 65:-1 66:-1 67:-0.333333 68:0.142857 69:-1 70:-1 71:-0.666667 72:-0.142857 73:-1 74:-1 75:-1 76:-0.666667 77:-1 78:-1 79:-1 80:0.2 81:-1 82:-1 83:-0.666667 84:-1 85:-1 86:-1 87:0.6 88:-1 89:-1 90:-1 91:-1 93:-1 94:-1 95:-0.666667 97:-1 98:-1 99:-0.333333 100:-1 101:-1 102:-1 103:-0.142857 104:-0.6 105:-1 106:-1 107:-0.714286 108:-1 109:-1 110:-1 111:-0.333333 112:0.333333 113:-1 114:-1 115:-0.428571 116:-1 117:-1 118:-1 119:0.333333 120:-1 121:-1 122:-1 123:-0.428571 124:-0.666667 125:-1 126:-1 127:-0.333333 128:0.428571 129:-1 130:-1 131:-1 132:-0.714286 133:-1 134:-1 135:0.333333 136:-1 137:-1 138:-1 139:-1 140:-0.6 141:-1 142:-1 143:0.2 145:-1 146:-1 147:-0.333333 148:-1 149:-1 150:-1 152:-0.428571 153:-1 154:-1 155:-0.6 156:0.2 157:-1 158:-1 159:-0.666667 160:-1 161:-0.666667 162:-1 163:-1 164:0.333333 165:-1 166:-1 167:-1 168:-1 169:-0.5 170:-0.428571 171:-1 172:-1 173:-0.555556 174:0.2 175:-1 176:-0.666667 177:-0.5 178:-1 179:-1 180:0.666667 181:-1 182:-1 183:-1 184:-1 185:-1 186:-1 187:-1 188:0.333333 189:-1 190:-1 191:-1 192:-1 193:0.6 194:-1 195:-1 196:-1 197:-0.5 198:-1 199:-1 200:-1 201:-1 202:-1 203:-1 204:-1 205:-1 206:-1 207:-1 208:-1 209:-0.555556 210:-1 211:-1 212:-1 213:-1 214:-1 215:-0.333333 216:-1 217:-0.714286 218:0.142857 219:-1 221:-0.666667 222:-1 223:-1 224:-1 225:-1 226:-1 227:-1 228:-1 229:-1 230:-1 231:-1 232:-1 233:-1 234:-1 235:-1 236:-1 237:-1 238:-1 239:-1 240:-1 241:-1 242:-1 243:-1 244:-1 245:-1 246:-1 247:-1 248:-1 249:-1 250:-0.666667 251:-1 252:-1 253:-1 254:-1 255:-1 
0 0 0 0 0.03426481162859746 0.8527458729665883 0 0 0 0.1208466093023784 0 0 0.2388965682698757 0 0 0.1814025499103913 0 0.01230899594719839 0 0.1083627588364669 0 0 0 0 0.7080085226778857 0 0 0 0:-1 1:-1 2:-0.6 4:-1 5:-1 6:-1 7:-1 8:-1 9:-0.25 10:-0.2 11:-1 12:-1 13:-1 14:-0.6 15:-1 16:-0.5 17:-1 18:-1 19:-0.6 20:-1 21:-0.5 22:-0.666667 23:-1 24:-1 25:-1 26:-1 27:0.2 28:-1 29:-1 30:-1 31:-1 32:-0.2 33:-1 34:-1 36:-0.714286 37:-1 38:-1 39:-0.333333 40:-0.714286 41:-1 42:-1 43:-1 44:-0.666667 45:-1 46:-1 48:-1 49:-1 50:-1 51:0.666667 52:-1 53:-1 54:-1 55:-1 56:-1 57:-1 58:-1 59:0.428571 60:-1 61:-1 62:-1 63:-1 64:-1 65:-1 66:-1 67:0.666667 68:-0.714286 69:-1 70:-1 72:-1 73:-1 74:-1 75:-0.428571 76:-0.666667 77:-1 78:-1 79:0.333333 80:-1 81:-1 82:-1 83:-0.333333 84:-1 85:-1 86:-1 87:-0.2 88:-1 89:-1 90:-1 91:0.142857 92:-1 93:-1 94:-1 95:-1 96:-1 97:-1 98:-1 99:0.333333 100:-1 101:-1 102:-1 103:-1 104:-1 105:-1 106:-1 107:0.142857 108:-1 109:-1 110:-1 111:0.333333 112:-1 113:-1 114:-1 115:-1 116:-1 117:-1 118:-1 119:0.333333 120:-1 121:-1 122:-1 123:0.142857 124:-1 125:-1 126:-1 127:-1 128:-1 129:-1 130:-1 131:0.666667 132:-1 133:-1 134:-1 135:-1 136:-1 137:-1 138:-1 139:0.6 140:-1 141:-1 142:-1 143:0.6 144:-1 145:-1 146:-1 147:-1 148:-1 149:-1 150:-1 151:0.333333 152:-1 153:-1 154:-1 155:-0.6 156:-0.6 157:-1 158:-1 160:-0.666667 161:-1 162:-1 163:0.2 164:-1 165:-1 166:-1 167:-0.714286 168:-1 169:-1 170:-1 171:0.333333 172:-1 173:-1 174:-1 176:-0.666667 177:-1 178:-1 179:-1 180:-1 181:-1 182:-1 183:0.142857 184:-1 185:-1 186:-1 187:-1 188:-0.666667 189:-1 190:-1 191:0.6 192:0.333333 193:-1 194:-1 195:-1 196:-1 197:-1 198:-1 199:-1 200:-0.666667 201:-1 202:-1 203:0.6 204:0.428571 205:-1 206:-1 207:-1 208:-1 209:-1 210:-1 211:-1 212:-0.333333 213:-1 214:-1 215:-0.333333 216:-1 217:-1 218:-1 219:-1 220:-0.666667 221:-1 222:-1 223:0.2 224:0.2 225:-0.666667 226:-1 227:-1 228:-1 229:-1 230:-1 231:-1 232:-1 233:-1 234:-0.666667 235:-1 236:-1 237:-0.75 239:-1 240:-1 241:-1 242:-1 243:-1 244:-0.6 245:-1 246:-0.6 247:-0.2 248:-1 249:-0.5 250:-0.666667 251:-1 252:-0.5 253:-1 254:-1 255:-0.333333 
0 0 0 0 0 0 0 0 0 0 0 0 0 0 0 0 0 0 0 0 0 0 0 0 0.02191985278131505 0 0 0 1:-1 2:-1 3:-1 4:-1 5:-0.333333 6:-0.666667 7:-1 8:-1 9:-1 10:-1 11:-0.2 12:-0.6 13:-1 14:-1 15:-1 16:-1 18:-0.666667 19:-1 20:-1 21:-1 22:-1 23:-0.6 24:-0.2 25:-1 26:-1 27:-0.2 28:-1 29:-1 30:-1 31:-1 32:-0.2 33:-1 34:-1 35:-0.333333 36:-1 37:-1 38:-1 39:-0.666667 40:0.142857 41:-1 42:-1 43:-0.666667 44:-0.333333 45:-1 46:-1 47:-0.333333 48:-1 49:-1 50:-1 51:-1 52:-0.714286 53:-1 54:-1 56:0.142857 57:-1 58:-1 59:-1 60:-1 61:-1 62:-1 63:-1 64:0.2 65:-1 66:-1 67:-0.666667 68:-1 69:-1 70:-1 71:-1 72:-0.142857 73:-1 74:-1 75:-0.714286 76:0.333333 77:-1 78:-1 79:-1 80:-1 81:-1 82:-1 83:-1 84:-1 85:-1 86:-1 87:1 88:0.142857 89:-1 90:-1 91:-1 92:-1 93:-1 94:-1 95:-1 97:-1 98:-1 99:-0.666667 100:-0.714286 101:-1 102:-1 103:-0.714286 104:-0.2 105:-1 106:-1 107:0.142857 108:-0.714286 109:-1 110:-1 111:0.666667 112:-0.666667 113:-1 114:-1 115:-1 116:0.333333 117:-1 118:-1 119:-0.666667 120:-1 121:-1 122:-1 123:0.428571 124:-1 125:-1 126:-1 127:-1 128:-0.428571 129:-1 130:-1 131:0.333333 132:-0.714286 133:-1 134:-1 135:-1 136:-0.333333 137:-1 138:-1 139:0.2 140:-0.2 141:-1 142:-1 143:-0.2 144:-1 145:-1 146:-1 147:-1 149:-1 150:-1 151:-0.666667 152:-0.714286 153:-1 154:-1 155:0.6 156:-1 157:-1 158:-1 159:-1 160:0.333333 161:-1 162:-1 163:-1 164:-0.666667 165:-1 166:-1 167:-1 169:-1 170:-1 171:-0.333333 172:0.2 173:-1 174:-1 175:-0.666667 176:-1 177:-1 178:-1 179:-1 180:-0.666667 181:-1 182:-1 183:-0.142857 184:-0.142857 185:-1 186:-1 187:-0.666667 188:-1 189:-1 190:-1 191:-1 193:-1 194:-1 195:-1 196:-0.142857 197:-0.75 198:-0.714286 199:-1 200:-0.666667 201:-1 202:-1 203:-1 204:-1 205:-1 206:-1 207:-0.666667 208:-1 209:-0.111111 210:-0.714286 211:-1 212:-0.666667 213:-1 214:-1 215:-1 217:-1 218:-1 219:-0.666667 220:-1 221:-1 222:-1 223:-1 224:-1 225:-0.666667 226:-0.6 227:-1 228:-1 229:-0.5 230:-1 231:-1 232:-1 233:-1 234:-1 235:-1 236:-1 237:-1 238:-1 239:-1 240:-1 241:-0.5 242:-1 243:-1 244:-1 245:-1 246:-1 247:-1 248:-1 249:-1 250:-0.666667 251:-0.5 252:-1 253:0.333333 254:-1 255:-1 
0 0 0 0 0 0 0 0 0 1 0 0 0 0 0 0 0 0 0 0 0 0 0 0 1 0 0.01123731998940018 0 0:-1 1:-1 2:-1 3:-1 4:-1 5:-1 6:-1 7:-1 8:-1 9:-1 10:-1 11:-1 12:-1 13:-1 14:-1 15:-1 16:-1 17:-1 18:-1 19:-1 20:-1 21:-1 22:-1 23:-1 24:-0.6 25:-1 26:-1 27:-0.2 28:-1 29:-1 30:-1 31:-0.5 32:-1 33:-0.666667 35:-0.666667 36:-1 37:-1 38:-1 39:-0.666667 40:-1 41:-0.75 42:-1 43:-1 44:-1 45:-1 46:1 47:-1 48:-1 49:-1 50:-1 51:-0.666667 52:-1 53:-0.25 54:-1 55:-0.333333 56:-1 57:-0.75 58:-0.333333 59:-1 60:-1 61:-0.666667 62:-0.6 63:-0.333333 64:-1 65:-1 66:-1 67:-0.666667 68:-0.714286 69:-1 70:-1 72:-0.714286 73:-1 74:-1 75:0.142857 76:-1 77:-1 78:-1 79:-0.333333 80:-1 81:-1 82:-1 84:-1 85:-1 86:-1 87:1 88:-1 89:-1 90:-1 91:-0.714286 92:-1 93:-1 94:-1 95:0.333333 96:-1 97:-1 98:-1 99:-1 100:-1 101:-1 102:-1 103:0.428571 104:-1 105:-1 106:-1 107:0.142857 108:-1 109:-1 110:-1 111:-1 112:-1 113:-1 114:-1 115:0.142857 116:-1 117:-1 118:-1 119:0.333333 120:-1 121:-1 122:-1 123:-1 124:-1 125:-1 126:-1 127:0.333333 128:-1 129:-1 130:-1 131:-0.333333 132:-1 133:-1 134:-1 135:0.666667 136:-1 137:-1 138:-1 139:0.6 140:-1 141:-1 142:-1 143:-1 144:-1 145:-1 146:-1 147:0.666667 148:-1 149:-1 150:-1 151:0.333333 152:-1 153:-1 154:-1 155:-1 156:-1 157:-1 158:-1 159:0.333333 161:-1 162:-1 163:-0.6 164:-1 165:-1 166:-1 167:0.428571 168:-1 169:-1 170:-1 171:-1 172:-1 173:-1 174:-1 175:0.333333 176:-1 177:-1 178:-1 179:0.333333 180:-1 181:-1 182:-1 183:-0.714286 184:-1 185:-1 186:-1 187:0.333333 188:-1 189:-1 190:-1 191:0.6 192:-0.333333 193:-1 194:-0.6 195:-1 196:0.142857 197:-1 198:-1 199:-1 200:-1 201:-1 202:-1 203:-1 204:-1 205:-1 206:-0.142857 207:-0.333333 208:-0.333333 209:-1 210:-0.714286 211:-0.6 212:-1 213:-0.75 214:-1 215:-0.666667 216:-1 217:-1 218:-1 219:0.666667 220:-1 221:-1 222:-1 223:-1 224:-1 225:-0.333333 226:-0.2 227:-1 228:-1 229:-0.5 230:-1 231:-1 232:-1 233:-1 234:-1 235:-1 236:-1 237:-1 238:-1 239:-1 240:-1 241:-0.75 242:-1 243:-1 244:-1 245:-1 246:-1 247:-1 248:-0.6 249:-1 251:-1 252:-1 254:-1 255:-1 
0 0 0 0 0 0 0.3865758691160962 0 0 0 0 1 0 0 0.003438249071030535 0 0 0 0 0 0 0 0 0 1 0 0.8610660033276876 0 0:-1 1:-1 2:-1 3:-1 5:-0.666667 6:-1 7:-1 8:-1 9:-1 10:-0.2 11:-0.2 12:-1 13:-1 14:-0.2 15:-0.5 16:-1 17:0.333333 18:-1 19:-1 20:-1 21:-1 22:-0.666667 23:-0.6 24:0.2 25:-1 26:-1 27:-1 28:0.5 29:-1 30:-1 31:-1 32:-1 33:-1 34:-1 35:-1 36:0.428571 37:-1 38:-1 39:-1 40:-1 41:-1 42:-1 43:-0.666667 44:-0.333333 45:-1 46:-1 47:-0.333333 48:-1 49:-1 50:-1 51:-0.666667 52:-0.428571 53:-1 54:-1 55:0.333333 56:0.142857 57:-1 58:-1 59:-0.428571 60:-1 61:-1 62:-1 63:-1 64:-0.6 65:-1 66:-1 67:-1 68:0.142857 69:-1 70:-1 71:-1 72:-1 73:-1 74:-1 75:-1 76:0.333333 77:-1 78:-1 79:-1 80:-0.6 81:-1 82:-1 83:-1 84:-0.333333 85:-1 86:-1 87:0.2 88:0.142857 89:-1 90:-1 91:-1 92:-1 93:-1 94:-1 95:-1 96:0.333333 97:-1 98:-1 99:-1 100:-1 101:-1 102:-1 103:-1 104:0.6 105:-1 106:-1 107:-1 108:-0.714286 109:-1 110:-1 111:-0.666667 112:-0.333333 113:-1 114:-1 115:-1 117:-1 118:-1 119:-1 120:0.142857 121:-1 122:-1 123:-1 124:-1 125:-1 126:-1 127:-1 128:0.142857 129:-1 130:-1 131:-1 132:-1 133:-1 134:-1 135:-1 137:-1 138:-1 139:-0.6 140:-0.6 141:-0.555556 142:-1 143:-1 144:-0.333333 145:-1 146:-1 148:-1 149:-1 150:-1 151:-1 152:0.142857 153:-1 154:-1 155:-0.6 156:-1 157:-1 158:-1 159:-1 160:0.666667 161:-1 162:-1 163:-1 164:-0.666667 165:-1 166:-1 167:-1 168:-0.333333 169:-0.25 170:-1 171:-0.666667 172:-1 173:-1 174:-0.6 176:-0.333333 177:-1 178:-1 179:-0.666667 180:-0.666667 181:-1 182:-1 183:-1 184:-0.142857 185:-1 186:-1 187:-1 188:-1 189:-1 190:-1 191:-1 192:-1 193:0.2 194:-0.6 195:-1 196:0.142857 197:-0.75 198:-1 199:-1 200:-1 201:-1 202:-1 203:-1 204:-1 205:-0.75 206:-0.714286 207:-1 208:-1 209:-0.333333 210:-0.714286 211:-1 212:-1 213:-1 214:-0.714286 215:0.333333 216:-1 217:-1 218:-1 219:-1 221:-1 222:-1 223:-1 224:-1 225:-0.666667 226:-1 227:-1 228:-1 229:-1 230:-1 231:-1 232:-1 233:-1 234:-1 235:-1 236:-1 237:-1 238:-1 239:-1 240:-1 241:-1 242:-1 243:-1 244:-1 245:-1 246:-1 247:-1 248:-1 249:-0.5 251:-1 252:-1 253:-0.333333 254:-1 255:-1 
0.5538961806762627 0.5908399975494126 1 0.03840874573909898 0.8527266685167256 1 1 0.5617322164540439 0.4912878609331959 1 0 0 1 0.1646872381063745 1 0.7505305332591258 0.3431584513657665 0.08105259162031599 0.5679746035398459 1 1 0.09048800526753387 0.6438422410943555 1 1 0.0994449334309741 1 0.09951522588567259 0:-1 1:-1 2:-0.2 3:-1 4:-1 5:-0.666667 7:-1 8:-1 9:-0.25 10:0.2 11:-1 12:-1 13:-1 14:0.6 15:-1 16:0.5 17:-1 18:-0.666667 19:-1 20:-0.5 21:-0.75 22:-1 23:-1 24:-1 25:-1 27:-0.6 28:-1 29:-1 30:-1 32:-0.2 33:-1 34:-1 35:-0.333333 36:-1 37:-1 38:-1 39:-1 40:-0.428571 41:-1 42:-1 43:-1 44:-1 45:-1 46:-0.6 47:-1 48:-0.714286 49:-1 50:-1 51:-0.666667 52:-1 53:-1 54:-1 55:-1 56:-1 57:-1 58:-1 59:-1 60:-0.6 61:-1 62:-1 63:0.333333 64:0.2 65:-1 66:-1 67:-1 68:-1 69:-1 70:-1 71:-1 72:-1 73:-1 74:-1 75:-1 76:-1 77:-1 78:-1 79:-1 80:-1 81:-1 82:-1 83:-1 84:-1 85:-1 86:-1 87:-1 88:-1 89:-1 90:-1 91:-0.714286 93:-1 94:-1 95:-1 96:-0.666667 97:-1 98:-1 99:-1 100:-1 101:-1 102:-1 103:-1 104:-1 105:-1 106:-1 107:-0.142857 108:-1 109:-1 110:-1 111:-1 112:-1 113:-1 114:-1 115:-1 116:-1 117:-1 118:-1 119:-1 120:-1 121:-1 122:-1 123:-0.428571 124:-0.333333 125:-1 126:-1 128:-0.428571 129:-1 130:-1 131:-0.666667 132:-1 133:-1 134:-1 135:-1 136:-1 137:-1 138:-1 139:0.2 140:-1 141:-1 142:-1 143:-1 144:-1 145:-1 146:-1 147:-1 148:-1 149:-1 150:-1 151:-1 152:0.142857 153:-1 154:-1 155:-1 156:-0.6 157:-1 158:-1 159:-1 160:0.666667 161:-1 162:-1 163:-1 164:-1 165:-1 166:-1 167:-0.714286 168:-0.333333 169:-1 170:-1 172:0.2 173:-1 174:-1 175:-1 176:-1 177:-1 178:-1 179:-1 180:-0.333333 181:-1 182:-1 183:-1 184:-0.142857 185:-1 186:-1 187:-0.333333 188:-1 189:-1 190:-1 191:-1 192:-1 193:0.2 194:-1 195:-1 196:-1 197:-0.75 198:-0.142857 199:-1 200:-1 201:-0.428571 203:-1 204:-1 205:0.25 206:-1 207:-1 208:-1 209:-0.777778 210:-0.714286 211:-0.2 212:-1 213:-0.75 214:-1 215:-0.666667 217:-1 218:-1 219:-1 220:-1 221:-1 222:-1 223:-1 224:-1 225:-1 226:-1 227:-1 228:-1 229:-1 230:-1 231:-1 232:-1 233:-1 234:-1 235:-1 236:-1 237:-1 238:-1 239:-1 240:-1 241:-1 242:-1 243:-1 244:-1 245:-0.5 246:-0.2 247:-1 248:-1 249:-0.75 250:-1 251:-1 252:-1 253:-1 254:-1 255:-1 
0.6593114568193835 0.7796706603249582 1 0.07782662701301475 1 1 1 0.967703857299989 0 1 0.047363273339122 0.1532579236854728 1 0.7772204814629985 1 1 0.003035422720843378 0.1918544542269372 1 1 1 0.1996115449652629 1 1 1 0.4218680806557911 1 0 0:-1 1:-1 2:0.2 3:-1 4:-1 5:-1 6:0.333333 7:-1 8:-1 9:-0.75 10:-1 11:-1 12:-1 13:-1 14:-1 15:-1 16:-0.5 17:-0.666667 18:-1 19:-1 20:-0.5 22:-1 23:-1 24:-1 25:-1 26:0.333333 27:-0.6 28:-1 29:-1 30:-1 31:-1 32:-1 33:-1 34:-1 35:-1 36:-1 37:-1 38:-0.666667 39:-1 40:-1 42:-1 43:-1 44:-1 45:-0.555556 46:0.6 47:-1 48:-1 49:-0.777778 50:-0.714286 51:-0.666667 52:-1 53:-1 54:-1 55:-0.666667 56:-1 57:-1 58:-1 59:-0.714286 60:-1 61:-1 62:-1 63:0.333333 64:-1 65:-1 66:-1 67:-1 68:-1 69:-1 70:-1 71:-1 72:-1 73:-1 74:-1 75:-1 76:-1 77:-1 78:-1 79:-1 80:-1 81:-1 82:-1 83:-1 84:-1 85:-1 86:-1 87:-1 88:-1 89:-1 90:-1 91:-1 92:-0.666667 93:-1 94:-1 96:-1 97:-1 98:-1 99:-1 100:-1 101:-1 102:-1 103:-1 104:-1 105:-1 106:-1 107:-1 108:-1 109:-1 110:-1 111:-1 112:-1 113:-1 114:-1 115:-1 116:-1 117:-1 118:-1 119:-1 120:-1 121:-1 122:-1 123:-1 124:-1 125:-1 126:-1 127:0.666667 128:-1 129:-1 130:-1 131:-1 132:-1 133:-1 134:-1 136:-1 137:-1 138:-1 139:-1 140:-1 141:-1 142:-1 143:-1 144:-1 145:-1 146:-1 147:-1 148:-1 149:-1 150:-1 151:-1 152:-1 153:-1 154:-1 155:-1 156:0.2 157:-1 158:-1 159:-0.666667 161:-1 162:-1 163:-1 164:-0.666667 165:-1 166:-1 167:-0.428571 169:-1 170:-1 171:-0.666667 172:-1 173:-1 174:-1 175:0.333333 176:-0.666667 177:-1 178:-1 179:-1 180:-1 181:-1 182:-0.666667 183:-1 184:-1 185:-1 186:-1 187:-1 188:-1 189:-1 190:-1 191:0.6 192:-1 193:0.2 194:-1 195:-1 196:-0.428571 197:-0.25 198:-1 199:-1 200:-0.666667 201:-1 202:-1 203:-1 204:-1 205:-0.5 206:-1 207:-0.333333 208:-0.333333 209:-0.555556 210:-0.714286 211:-1 212:-1 213:-1 214:-0.714286 216:-1 217:-1 218:-0.714286 219:-1 220:-0.666667 221:-0.666667 222:-1 223:-0.2 224:-1 225:-1 226:-1 227:-1 228:-1 229:-1 230:-1 231:-1 232:-1 233:-1 234:-1 235:-1 236:-1 237:-1 238:-1 239:-1 240:-1 241:-1 242:-1 243:-1 244:-1 245:-1 246:-1 247:-1 248:-1 249:-0.75 251:-1 252:-1 253:-0.333333 254:-1 255:-1 
1 0 0.9398525983000778 0.08094913932315508 1 1 1 1 1 1 0.1840262336488805 0.6439929889181353 1 0.3769511282070453 1 0.7153610808333185 0.6984135457169953 0 1 1 1 0.1967386862175868 0.8410069981488749 1 1 1 1 0.3576530501461183 0:-1 1:-1 2:0.2 3:-1 4:-1 5:-0.666667 7:-1 8:-1 9:-0.5 10:-0.2 11:-1 12:-1 13:-0.333333 14:0.2 15:-1 17:-0.666667 18:-1 19:-1 20:-0.5 21:-0.5 22:-1 23:-1 24:-1 25:-1 26:-0.333333 27:-0.2 28:-1 29:-0.666667 30:-1 32:-1 33:-1 34:-1 35:-1 36:-1 37:-0.75 38:-1 39:-1 40:-0.714286 41:-1 42:-1 43:-0.333333 44:-1 45:-1 46:-1 47:-1 48:-1 49:-1 50:-0.714286 52:-0.428571 53:-1 54:-1 55:-0.333333 56:-1 57:-1 58:-1 59:-1 60:-1 61:-1 62:-1 63:0.333333 64:-1 65:-1 66:-0.666667 67:-1 68:-1 69:-1 70:-1 71:-1 72:-1 73:-1 74:-0.714286 75:-0.142857 76:-1 77:-1 78:-1 79:-1 80:-1 81:-1 82:-1 83:-1 84:-0.333333 85:-1 86:-1 87:-0.2 88:-1 89:-1 90:-1 91:-1 92:-0.666667 93:-1 94:-1 95:0.333333 96:-0.666667 97:-1 98:0.6 99:-0.666667 100:-1 101:-1 102:-1 103:-1 104:-1 105:-1 106:-1 107:-1 108:-1 109:-1 110:-1 111:-1 112:-1 113:-1 114:-1 115:-1 116:-1 117:-1 118:-0.666667 119:-0.666667 120:-1 121:-1 122:-1 123:-1 124:-1 125:-1 126:-1 127:0.333333 128:0.428571 129:-1 130:-1 131:-1 132:-1 133:-1 135:-1 136:-1 137:-1 138:-1 139:-1 140:-1 141:-1 142:-1 143:-1 144:-1 145:-1 146:-1 147:-1 148:-1 149:-1 150:-1 151:-1 152:-1 153:-1 154:-1 155:0.2 156:-1 157:-1 158:-1 160:-0.666667 161:-1 162:-1 163:0.2 164:-0.666667 165:-0.5 166:-1 167:-1 168:-0.666667 169:-0.25 170:-0.714286 171:-1 172:-1 173:-0.333333 174:-0.2 175:-0.666667 176:-0.333333 178:-1 179:-1 180:-1 181:-1 183:-0.714286 184:-1 185:-1 186:-1 188:-1 189:-1 190:-1 191:-1 192:-1 193:-1 194:-0.2 195:-1 196:-1 197:-0.25 198:-1 199:-1 200:-1 201:-0.714286 202:-1 203:-1 204:-1 205:-1 206:-1 207:-1 208:-1 209:-1 210:-1 211:-1 212:-1 213:-1 214:-1 215:-0.666667 216:-1 217:-0.428571 218:-0.428571 219:-1 220:-1 221:0.333333 222:-1 223:-1 224:-1 225:-1 226:-1 227:-1 228:-1 229:-1 230:-1 231:-1 232:-1 233:-1 234:-1 235:-1 236:-1 237:-1 238:-1 239:-1 240:-1 241:-1 242:-1 243:-1 244:-1 245:-1 246:-1 247:-1 248:-1 249:-1 250:-1 251:-1 252:-1 253:-1 254:-1 255:-1 
0 0 0 0.01196596916906206 0 0 0 0 0 0 0 0 0.4721754473833004 0 0.9719080226414517 0 0.4689385400476281 0 0 0 0 0 0 0 1 0 0 0 0:-1 1:-1 2:-0.2 3:-1 4:-1 5:-1 6:-0.333333 7:-1 8:-1 10:-0.6 11:-1 12:-1 13:-1 14:-1 15:-1 17:-1 18:-1 19:-0.6 20:-1 21:-0.5 22:-0.333333 23:-1 24:-0.6 25:-1 26:-1 27:-0.2 28:-0.5 29:-1 30:-0.6 31:-1 32:-0.2 33:-1 34:-1 36:-0.142857 37:-1 38:-1 39:-1 40:-1 41:-1 42:-0.6 43:-1 44:-1 45:-1 46:-0.6 47:-0.333333 48:-0.142857 49:-1 50:-1 51:0.333333 52:-1 53:-1 54:-1 55:-1 56:-0.714286 57:-1 58:-1 59:-0.142857 60:-1 61:-1 62:-1 63:-1 64:0.2 65:-1 66:-1 67:-0.666667 68:-0.142857 69:-1 70:-1 71:-0.666667 72:-1 73:-1 74:-1 75:-1 76:-0.333333 77:-1 78:-1 80:-1 81:-1 82:-1 83:-0.333333 84:-0.333333 85:-1 86:-1 87:-1 88:-1 89:-1 90:-1 91:0.142857 92:-1 93:-1 94:-1 95:-1 96:-0.666667 97:-1 98:-1 99:0.666667 100:-0.428571 101:-1 102:-1 103:-0.142857 104:-1 105:-1 106:-1 107:-0.714286 108:-0.428571 109:-1 110:-1 112:-0.333333 113:-1 114:-1 115:-0.714286 116:-0.333333 117:-1 118:-1 119:-0.666667 120:-0.428571 121:-1 122:-1 123:-0.142857 124:-1 125:-1 126:-1 127:-0.666667 128:-0.714286 129:-1 130:-1 132:-1 133:-1 134:-1 135:-0.333333 136:-1 137:-1 138:-1 139:-0.2 140:-1 141:-1 142:-1 143:0.6 144:-1 145:-1 146:-1 147:-0.333333 148:-1 149:-1 150:-1 152:-1 153:-1 154:-1 155:1 156:-1 157:-1 158:-1 159:-0.666667 160:-0.666667 161:-1 162:-1 163:0.2 164:-0.666667 165:-1 166:-1 167:-1 168:-0.666667 169:-1 170:-1 172:-0.2 173:-1 174:-1 175:-0.666667 176:-0.666667 177:-1 178:-0.666667 179:-1 180:-1 181:-1 182:-1 183:-0.142857 184:-0.142857 185:-1 186:-1 187:-0.666667 188:-1 189:-1 190:-1 191:-1 193:-1 194:-1 195:-1 196:-1 197:-0.5 198:-1 199:-0.666667 200:-1 201:-0.142857 202:-0.666667 203:-1 204:-0.714286 205:-0.75 206:-1 207:-1 208:-1 209:-1 210:-1 211:-0.2 213:-1 214:-1 215:-0.666667 216:-0.333333 217:-1 218:-1 219:-0.333333 220:-1 221:-1 222:-1 223:-1 224:-0.6 225:-0.666667 226:-1 227:-1 228:-1 229:-1 230:-1 231:-1 232:-1 233:-0.75 234:-1 235:-1 236:-1 237:-1 238:-1 239:-1 240:-1 241:-1 242:-1 243:-0.6 244:-1 245:-0.25 246:-1 247:-0.6 248:-0.6 249:-0.5 250:-1 251:-1 252:-1 253:-1 254:-1 255:-1 
0 0 1 0 0 0 1 0 0 1 0 0.6922239791264039 1 0.558854019388253 1 0.5145303255806245 0 0.04760155032982968 0.7593042411536728 0 0.8056061982435094 0 0.1466955080467203 0.5480168568271246 0.1871480069210913 0.6158964545856528 1 0.08457013940972272 0:-1 2:-1 3:-1 4:-1 5:-1 6:0.333333 7:-1 8:-1 9:-0.25 10:-1 11:-1 12:-0.2 13:-1 14:-0.2 15:-1 16:-0.5 17:-1 18:-0.666667 19:-1 20:-1 21:-0.75 22:-0.333333 23:-0.6 24:-1 25:-0.142857 26:-0.666667 27:-1 28:-0.5 29:-0.666667 30:-0.6 31:-1 32:-1 33:-1 34:-1 35:-1 36:-0.142857 37:-1 38:-0.666667 39:-0.666667 40:-1 41:-1 42:-1 43:-1 44:-0.333333 45:-1 46:-1 47:-0.333333 48:-0.428571 49:-1 50:-1 51:-0.333333 52:-1 53:-1 54:-1 55:-1 56:-0.428571 57:-1 58:-1 59:-0.428571 60:-1 61:-1 62:-1 63:-0.666667 64:-1 65:-1 66:-1 67:-1 68:-0.428571 69:-1 70:-1 72:-1 73:-1 74:-1 75:-1 76:0.333333 77:-1 78:-1 79:-1 80:-1 81:-1 82:-1 83:0.333333 84:-1 85:-1 86:-1 87:-1 88:-0.142857 89:-1 90:-1 91:-0.714286 92:-1 93:-1 94:-1 95:-1 96:-1 97:-1 98:-1 99:-1 100:-1 101:-1 102:-1 103:0.142857 104:-0.2 105:-1 106:-1 107:-1 108:-0.142857 109:-1 110:-1 111:-1 113:-1 114:-1 115:-0.142857 116:-0.666667 117:-1 118:-1 119:-1 120:-0.142857 121:-1 122:-1 123:-0.714286 124:-1 125:-1 126:-1 127:-1 128:-1 129:-1 130:-1 131:-1 132:-0.142857 133:-1 134:-1 135:-0.666667 136:-0.666667 137:-1 138:-1 139:-0.6 140:-1 141:-1 142:-1 143:-0.2 144:0.666667 145:-1 146:-1 147:-1 148:-1 149:-1 150:-1 151:-1 152:0.142857 153:-1 154:-1 155:-1 156:-1 157:-1 158:-1 159:-1 160:-1 161:-1 162:-1 163:-1 164:0.333333 165:-0.75 166:-1 167:-1 168:-1 169:-1 170:-0.142857 171:-0.333333 172:-0.6 173:-1 174:-1 175:-0.666667 177:-1 178:-1 179:-0.333333 180:-0.666667 181:-1 182:-1 183:-0.142857 184:-1 185:-1 186:-1 187:-0.666667 188:-1 189:-1 190:-1 191:-1 192:-1 193:0.6 194:-1 195:-1 196:-0.428571 197:-0.75 198:-1 199:-1 200:-1 201:-1 202:-1 203:-1 204:-1 206:-0.714286 207:-1 208:-1 209:-0.777778 210:-1 211:-1 212:0.666667 213:-1 214:-1 215:-1 216:-1 217:-1 218:-1 219:-1 220:-0.333333 221:-1 222:-1 223:-1 224:-1 225:-1 226:-1 227:-1 228:-1 229:-1 230:-1 231:-1 232:-1 233:-1 234:-1 235:-1 236:-1 237:-1 238:-1 239:-1 240:-1 241:-1 242:-1 243:-1 244:-1 245:-1 246:-1 247:-1 248:-1 249:-0.75 250:0.333333 251:-1 252:-1 254:-1 255:-1 
0 0 0 0 0 0 0 0 0 0 0 0 0 0 0 0 0 0 0.1719843039506184 0 0 0 0 0 0 0 0 0 0:-1 1:-1 2:-1 3:-1 4:-1 5:-1 6:-1 7:0.5 8:0.5 9:-1 10:-1 11:-1 12:-1 13:-1 14:-1 15:-1 16:-0.5 17:-1 18:-1 19:-0.2 20:-1 21:-1 22:-0.666667 23:-0.2 24:-1 25:-1 26:-1 27:-1 28:-0.5 29:-1 30:-1 32:-1 33:-1 34:-1 35:-1 36:-0.428571 37:-1 38:-1 39:-0.666667 40:-0.428571 41:-1 42:-1 43:-0.333333 44:-1 45:-1 46:-1 47:-1 48:-0.142857 49:-1 50:-1 51:-0.666667 52:-0.714286 53:-1 54:-1 55:-0.333333 56:-1 57:-1 58:-1 59:-1 60:-0.2 61:-1 62:-1 63:-0.333333 64:-1 65:-1 66:-1 67:-1 68:-0.428571 69:-1 70:-1 71:-0.666667 72:-0.142857 73:-0.75 74:-0.428571 75:-1 76:-0.333333 77:-1 78:-1 79:-0.666667 80:1 81:-1 82:-1 83:-1 84:-0.666667 85:-1 86:-0.75 87:0.2 88:-1 89:-1 90:-1 91:-1 92:0.333333 93:-1 94:-1 95:-0.666667 96:-1 97:-1 98:-1 99:-1 100:-0.142857 101:-1 102:-1 103:-0.714286 104:-0.6 105:-1 106:-1 107:-0.714286 108:-1 109:-0.75 110:-0.714286 112:0.666667 113:-1 114:-1 115:-0.714286 116:-0.333333 117:-1 118:-0.666667 119:-1 120:-0.714286 121:-0.75 122:-1 123:-0.428571 124:-0.333333 125:-1 126:-1 128:-1 129:-1 130:-1 131:-1 132:-0.142857 133:-1 134:-1 135:0.333333 136:-0.666667 137:-1 138:-1 139:-0.6 140:0.2 141:-1 142:-1 143:-0.2 144:-1 145:-1 146:-1 147:0.666667 148:-0.666667 149:-1 150:-1 151:-1 152:0.142857 153:-1 154:-1 155:-1 156:-0.2 157:-1 158:-1 159:-0.333333 160:-1 161:-1 162:-1 163:-1 164:0.333333 165:-1 166:-1 167:-1 168:-0.333333 169:-1 170:-1 171:-1 172:0.2 173:-1 174:-1 175:-0.333333 176:-0.333333 177:-1 178:-1 179:0.333333 180:-1 181:-1 182:-1 183:-1 184:-0.428571 185:-1 186:-1 188:-0.666667 189:-1 190:-1 191:0.2 192:0.333333 193:-1 194:-1 195:-1 196:-0.714286 197:-0.75 198:-1 199:-1 200:-1 201:-1 202:-1 203:-1 204:-1 205:-0.25 206:-0.714286 207:-1 208:-1 209:-0.777778 210:-1 211:-1 212:-1 213:-1 214:-1 215:-1 216:-1 217:-1 218:-0.142857 219:-0.333333 220:-1 221:-1 222:-1 223:-0.2 224:-1 226:-1 227:-1 228:-1 229:-1 230:-1 231:-1 232:-1 233:-1 234:-1 235:-1 236:-1 237:-1 238:-1 239:-1 240:-1 241:-1 242:-1 243:-1 244:-1 245:-1 246:-1 247:-1 248:-1 249:-1 250:-0.666667 251:-1 252:-1 253:-1 254:-1 255:-1 
0 0 0 0 0 0 0 0 0.4051117106927918 1 0 0 0.5838335195738219 0 0.4378668762776178 0.1116234096223835 0 0 0 0 0 0 0 0 1 0.03109995440315733 0 0 0:-1 1:-1 2:-1 3:-1 4:-1 5:-1 7:-1 8:-1 9:-0.25 10:-0.6 11:-1 12:-1 13:0.666667 14:-0.6 15:-1 16:-1 17:-0.666667 18:-0.333333 19:-1 20:-1 21:-0.5 22:-1 23:-1 24:-1 25:0.142857 26:-0.666667 27:-1 28:-1 29:-1 30:0.2 31:-0.5 32:0.2 33:-1 34:-1 35:-1 36:-1 37:-1 39:-1 40:-0.714286 41:-1 42:-1 43:-0.333333 44:-1 45:-1 46:-1 47:-1 48:-0.714286 49:-1 50:-1 52:0.142857 53:-1 54:-1 55:-0.333333 56:-1 57:-1 58:-1 59:-1 60:-1 61:-1 62:-1 63:0.333333 64:-0.2 65:-1 66:-1 67:-0.333333 68:-1 69:-1 70:-1 71:-1 72:-0.714286 73:-1 74:-1 75:-0.428571 76:-1 77:-1 78:-1 79:-1 80:-1 81:-1 82:-1 83:-0.333333 84:-0.333333 85:-1 86:-1 87:-0.2 88:-1 89:-1 90:-1 91:-1 92:-1 93:-1 94:-1 95:0.333333 97:-1 98:-1 100:-1 101:-1 102:-1 103:-1 104:-1 105:-1 106:-1 107:-1 108:-1 109:-1 110:-0.428571 111:-1 112:-1 113:-1 114:-1 115:-1 116:-0.666667 117:-1 118:-1 119:-0.666667 120:-0.714286 121:-1 122:-1 123:-1 124:-1 125:-1 126:-1 127:-0.666667 128:-0.142857 129:-1 130:-1 131:-0.666667 132:-1 133:-1 134:-1 135:-1 136:-0.666667 137:-1 138:-1 139:-1 140:-1 141:-1 142:-1 143:0.2 144:-0.666667 145:-1 146:-0.6 147:-0.666667 148:-0.666667 149:-1 150:-0.333333 151:-1 152:-1 153:-1 154:-1 155:-0.2 156:-1 157:-1 158:-1 159:-1 160:0.333333 161:-1 162:-1 163:-1 164:-0.666667 165:-1 166:-1 167:-1 169:-0.75 170:-0.428571 171:-1 172:-0.6 173:-1 174:-0.2 175:-0.333333 176:0.333333 177:-0.75 178:-1 179:-1 180:-0.666667 181:-1 182:-0.666667 183:-0.428571 184:-0.142857 185:-1 186:-1 187:-0.333333 188:-1 189:-1 190:-1 191:-1 192:-1 193:-1 194:-0.6 195:-0.666667 196:-0.428571 197:-0.5 198:-1 199:-1 200:-1 201:-1 202:-1 203:-1 204:-1 205:-1 206:-0.714286 207:-1 208:-1 209:-0.333333 210:-1 211:-1 212:-1 213:-1 214:-1 215:0.333333 216:-1 217:-0.714286 218:-0.714286 219:-0.666667 220:-1 221:-1 222:-1 223:-1 224:-1 225:-1 226:-1 227:-1 228:-1 229:-1 230:-1 231:-1 232:-1 233:-1 234:-1 235:-1 236:-1 237:-1 238:-1 239:-1 240:-1 241:-1 242:-1 243:-1 244:-1 245:-1 246:-1 247:-1 248:-1 249:-0.75 250:-0.666667 251:-1 252:-1 253:0.333333 254:-1 255:-1 
0.1331228192332802 0.2531820347150829 0 0.007858460022835644 0 0.4984815062821925 0.652146374960253 0 0 0.4145298625935508 0 0.1612535440343046 1 0 0.5976678317915496 0 0 0 0 0.7683638460510014 1 0 0 0.1501715319374617 1 0.2691240989906347 1 0 0:-1 1:-1 2:-1 3:-1 4:0.5 5:-1 6:-1 7:-0.5 8:-1 9:-1 10:-1 11:-1 12:-0.6 13:-1 14:-1 16:0.5 17:-1 18:-1 19:-0.6 20:-1 21:-1 22:-1 23:-1 24:-0.2 25:-1 26:-1 27:-0.6 28:-1 29:-1 30:-1 31:-1 32:-1 33:-1 34:-1 35:-1 36:0.142857 37:-1 38:-1 39:-1 40:-1 41:-1 42:-1 43:-1 44:0.333333 45:-1 46:-1 47:-1 48:0.142857 49:-1 50:-1 51:-1 52:-0.714286 53:-1 54:-1 55:-1 56:-0.428571 57:-1 58:-1 59:-0.142857 60:-1 61:-1 62:-1 63:-1 64:-1 65:-1 66:-1 67:-1 68:-0.142857 69:-1 70:-1 71:-0.666667 72:-1 73:-1 74:-1 75:-1 77:-1 78:-1 79:-0.333333 80:0.2 81:-1 82:-1 83:-0.666667 84:-1 85:-1 86:-1 87:-1 88:-0.142857 89:-1 90:-1 91:-0.428571 92:-1 93:-1 94:-1 95:-1 96:-1 97:-1 98:-1 99:-1 100:0.428571 101:-1 102:-1 103:-1 104:-0.6 105:-1 106:-1 107:-1 108:-0.142857 109:-1 110:-1 111:-0.666667 113:-1 114:-1 115:-0.714286 116:-1 117:-1 118:-1 119:-1 120:-0.142857 121:-1 122:-1 123:-0.142857 124:-1 125:-1 126:-1 127:-1 128:-0.714286 129:-1 130:-1 131:-1 132:-0.142857 133:-1 134:-1 135:-0.666667 136:-1 137:-1 138:-1 139:-1 140:-0.6 141:-1 142:-1 143:0.2 145:-1 146:-1 147:-0.666667 148:-1 149:-1 150:-1 151:-1 152:0.142857 153:-1 154:-1 155:-0.6 156:-1 157:-1 158:-1 159:-1 160:-1 161:-1 162:-1 163:-1 164:-0.333333 165:-1 166:-1 167:-0.428571 168:-1 169:-1 170:-1 171:-1 172:0.2 173:-1 174:-1 175:-0.666667 177:-1 178:-1 179:-0.333333 180:-1 181:-1 182:-1 183:-0.714286 184:-0.142857 185:-1 186:-1 188:-1 189:-1 190:-1 191:-1 192:-1 193:-1 194:-1 195:-1 196:-0.428571 197:-0.5 198:-0.714286 199:-1 200:-0.666667 201:-0.714286 202:-0.666667 203:-1 204:-0.714286 205:-1 206:-1 207:-0.666667 209:-1 210:-1 211:-0.6 212:-1 213:-1 214:-1 215:-1 216:-0.333333 217:-1 218:-1 219:1 221:-1 222:-1 223:-1 224:-1 226:-0.6 227:-1 228:-1 230:-0.666667 231:-1 232:-1 233:0.5 234:-1 235:-1 236:-1 237:-0.75 238:-0.666667 239:-0.5 240:-1 241:-1 242:-0.333333 243:-0.2 244:-0.6 245:-0.25 246:-1 247:-1 248:-1 249:-0.75 250:-0.666667 251:-0.5 253:-0.333333 254:-1 255:-1 
0.457694533016091 0 0.1104245832795195 0.05601782268428091 0 0.406607570073698 0 0 0.1017095218545833 0 0 0 0.4517906120206261 0 0 0.09696263957944576 0.1468927399657154 0 0.9919583788021096 1 0 0 0.3393099453194663 0.490344169788146 0 0 0.7654392746354279 0.1169397695626357 1:-1 2:-1 3:-0.5 4:-1 5:-1 6:-1 7:-1 8:1 9:-1 10:-1 11:-0.6 12:-0.2 13:-0.666667 14:-1 15:-1 16:-1 17:-1 18:-0.333333 19:-0.2 20:-1 21:-1 22:-1 23:-1 24:-0.6 25:-1 26:-1 27:-0.2 28:-1 29:-1 30:-0.6 32:-0.2 33:-1 34:-1 36:0.142857 37:-1 38:-1 39:-1 40:-0.714286 41:-1 42:-1 43:-1 44:-0.333333 45:-1 46:-1 47:-0.333333 48:-0.428571 49:-1 50:-1 51:-0.333333 52:-1 53:-1 54:-1 55:-1 56:0.142857 57:-1 58:-1 59:-0.714286 60:-1 61:-1 62:-1 63:-1 64:-0.2 65:-1 66:-1 67:-1 68:-0.428571 69:-1 70:-1 71:-0.333333 72:-0.714286 73:-1 74:-1 75:-1 76:-0.333333 77:-1 78:-1 80:0.6 81:-1 82:-1 83:-1 84:-1 85:-1 86:-1 87:-1 88:-0.428571 89:-1 90:-1 91:-0.428571 92:-1 93:-1 94:-1 95:-1 96:-1 97:-1 98:-1 99:-1 100:0.428571 101:-1 102:-1 103:-1 104:-1 105:-1 106:-1 107:-1 108:-0.142857 109:-1 110:-1 111:-0.666667 112:-0.333333 113:-1 114:-1 115:0.428571 116:-1 117:-1 118:-1 119:-1 120:-0.142857 121:-1 122:-1 123:-0.714286 124:-1 125:-1 126:-1 127:-1 128:-0.428571 129:-1 130:-1 131:-0.333333 132:-0.428571 133:-1 134:-1 135:-0.333333 136:-1 137:-1 138:-1 139:-1 140:-0.2 141:-1 142:-1 143:0.2 144:-0.333333 145:-1 146:-1 147:-0.333333 148:-1 149:-1 150:-1 151:-1 152:-0.714286 153:-1 154:-1 155:1 156:-1 157:-1 158:-1 159:-1 160:-1 161:-1 162:-0.666667 163:-1 164:0.333333 165:-1 166:-1 167:-0.714286 168:-1 169:-1 170:-1 171:-1 172:-0.2 173:-1 174:-1 175:-0.333333 176:0.666667 177:-1 178:-1 179:-1 180:-1 181:-1 182:-1 183:-1 184:-0.142857 185:-1 186:-1 187:-0.666667 189:-1 190:-1 191:-1 192:-0.666667 193:-1 194:-1 195:-1 196:-0.142857 197:-0.5 198:-1 199:-1 200:0.333333 201:-1 202:-1 203:-1 204:-0.714286 205:-1 206:-1 207:-0.333333 208:0.333333 209:-0.777778 210:-1 211:-1 212:-0.666667 213:-1 214:-1 215:-1 216:-0.333333 217:-1 218:-1 220:0.666667 221:-1 222:-1 223:-1 224:1 225:-1 226:-1 227:-1 228:-0.333333 229:-1 230:-1 231:-1 232:-1 233:-1 234:-1 235:-1 236:-1 237:-0.25 238:-0.333333 239:-1 240:-1 241:-1 242:-1 243:-1 244:-0.6 245:-1 246:-1 247:-1 248:-0.6 249:-0.75 251:-1 252:-1 253:-0.666667 254:-1 255:-0.333333 
1 0.06722246570997244 1 0.08373109756173304 1 1 1 1 1 1 0.1354447456828171 1 1 1 1 0.975987773752193 0.7436777066444679 0.01087419104408849 1 1 1 0 1 1 1 0.8330848519706863 1 0.2160687786641582 0:-1 1:-1 2:-1 3:-1 4:-1 5:-0.666667 6:-0.666667 7:-1 8:-1 9:-1 10:-0.6 11:-1 12:-1 13:-1 14:-1 15:-1 16:-1 17:-1 18:-1 19:-1 20:-1 21:-1 22:-1 23:-1 24:-1 25:-0.142857 26:-1 27:-1 28:-1 29:0.333333 30:-1 31:-1 32:-0.2 33:-1 34:-1 35:-1 36:-0.428571 37:-0.5 38:-0.666667 39:-1 40:-1 41:-0.75 42:1 43:-1 45:-0.333333 46:-1 47:-1 48:-1 49:-0.777778 50:-0.142857 51:-0.666667 52:-0.428571 53:-0.5 54:-1 55:-0.666667 56:-0.142857 57:-0.75 58:-1 59:-1 60:-1 61:-1 62:-1 63:-1 64:0.6 65:-1 66:-1 67:-1 68:-1 69:-1 70:-1 71:-1 72:-1 73:-1 74:-0.428571 75:-0.714286 76:-0.666667 77:-1 78:-1 79:-1 80:-1 81:-1 82:-1 83:-0.666667 84:-1 85:-1 86:-1 87:0.6 88:-0.714286 89:-1 90:-1 91:-0.428571 92:-1 93:-1 94:-1 95:-1 96:1 97:-1 98:-1 99:-1 100:-1 101:-1 102:-1 103:-1 104:-1 105:-1 106:-0.333333 107:-1 108:-0.714286 109:-1 110:-1 111:-1 113:-1 114:-1 115:-1 116:-0.666667 117:-1 118:-0.333333 119:-1 120:-0.714286 121:-1 122:-1 123:-0.142857 124:-1 125:-1 126:-1 127:-1 128:-0.428571 129:-1 130:-1 131:-0.333333 132:-1 133:-1 134:-1 135:-1 136:-1 137:-1 138:-1 139:-1 140:-1 141:-1 142:-1 143:-1 144:-0.333333 145:-1 146:-1 147:-1 148:-0.666667 149:-0.75 150:-0.333333 151:-1 152:-0.142857 153:-1 154:-0.666667 155:-0.2 156:-1 157:-1 158:-1 159:-1 160:0.333333 161:-1 162:-1 163:-1 164:-1 165:-1 166:-1 167:-1 168:-1 169:-1 170:-1 171:-1 172:-1 173:-0.777778 174:-0.6 175:-1 176:-1 177:-1 178:-1 179:-0.666667 180:-0.666667 181:-0.75 182:-1 183:-1 184:-0.428571 185:-1 186:-1 187:-0.333333 188:-1 189:-1 190:-1 191:-1 192:-0.666667 193:-1 194:-1 195:-1 196:-1 197:-0.5 198:-1 199:-1 200:-1 201:0.142857 202:-1 203:-1 204:-1 205:-0.75 206:0.142857 207:-1 208:-1 209:0.111111 210:-0.714286 211:-1 212:-1 213:-0.5 214:-0.428571 215:-1 216:-1 217:-1 218:-1 219:1 220:-1 221:-1 222:-0.666667 223:-1 224:-1 225:0.333333 226:-1 227:-1 228:-1 229:-0.5 230:-1 231:-1 232:-1 233:-1 234:-1 235:-1 236:-1 237:-1 238:-1 239:-1 240:-1 241:-1 242:-1 243:-1 244:-1 245:-1 246:-1 247:-1 248:-1 249:-0.75 250:-0.666667 251:-1 252:-1 253:-0.333333 254:-0.6 255:-1 
1 0.4006950222940423 1 0.03223843625941272 1 1 1 1 0.0980991861081901 1 0.09747712978528753 0.9895432694930786 1 0.4369673527650538 1 1 0.9473307053875494 0.03391418441202849 1 1 1 0.3088387217891025 1 1 1 1 1 0.8088972216436743 0:-1 2:-1 3:-1 4:-1 5:0.666667 6:-1 7:-1 8:-1 9:-0.25 10:-0.6 11:-1 12:-1 13:-0.333333 14:0.6 15:-1 16:-1 18:-0.666667 19:-1 20:-1 21:-1 22:0.333333 23:-1 24:-1 25:-1 26:-1 27:-0.6 28:-1 29:-1 30:-1 31:-1 32:-1 33:-0.666667 34:-1 35:-1 36:-1 37:-1 38:-1 39:-1 40:-1 41:-1 42:-1 43:-1 44:-1 45:-1 46:-1 47:-1 48:-1 49:-1 50:-1 51:-1 52:-1 53:-1 54:-1 55:-1 56:-1 57:-1 58:-1 59:0.714286 60:-1 61:-1 62:-1 63:-1 64:-1 65:-1 66:-1 67:-1 68:-1 69:-1 70:-1 71:-1 72:-1 73:-1 74:-1 75:-0.714286 76:-1 77:-1 78:-1 79:-1 80:-1 81:-1 82:-0.714286 83:-1 84:-1 85:-1 86:-1 87:-1 88:-1 89:-1 90:-1 91:0.142857 92:-1 93:-1 94:-1 95:-1 96:-1 97:-1 98:-1 99:-1 100:-1 101:-1 102:-1 103:-1 104:-1 105:-1 106:-1 107:-1 108:-1 109:-1 110:-1 111:-1 112:-1 113:-1 114:-1 115:-1 116:-1 117:-1 118:-1 119:-1 120:-1 121:-1 122:-1 123:0.142857 124:-1 125:-1 126:-1 127:-0.666667 128:-1 129:-1 130:-1 131:-1 132:-1 133:-1 134:-1 135:-1 136:-1 137:-1 138:-1 139:-1 140:-1 141:-1 142:-1 143:-1 144:-1 145:-1 146:-1 147:-1 148:-1 149:-1 150:-1 151:-1 152:-1 153:-1 154:-0.666667 155:-1 156:-1 157:-1 158:-1 159:0.333333 160:-1 161:-1 162:-1 163:-1 164:-1 165:-1 166:-1 167:-1 168:-1 169:-1 170:-0.714286 171:-1 172:-1 173:-1 174:-1 175:-1 176:-1 177:-1 178:-1 179:-1 180:-0.666667 181:-1 182:-1 183:-0.428571 184:-1 185:-1 186:-1 187:-1 188:-1 189:-1 190:-1 191:1 192:-1 193:-0.6 194:-1 195:-1 196:-0.142857 197:-0.5 198:-1 199:-1 200:-1 201:-1 202:0.666667 203:-1 204:-1 205:-0.25 206:-0.428571 207:-1 208:-1 209:-0.111111 210:-1 211:-1 212:-1 213:-1 214:-0.428571 216:-1 217:-1 218:-1 219:-1 220:-0.666667 221:-1 222:-1 223:0.2 224:-1 225:0.333333 226:-1 227:-1 228:-1 229:-1 230:-1 231:-1 232:-1 233:-1 234:-1 235:-1 236:-1 237:-1 238:-1 239:-1 240:-1 241:-1 242:-1 243:-1 244:-1 245:-1 246:-0.6 247:-1 248:-1 249:-0.5 251:-1 252:-1 253:-0.666667 254:-1 255:-1 
0 0 0 0 0 0 0 0 0 0 0 0.2715492028760339 0 0 0 0 0 0 0 0 0 0 0 0 0 0 0 0 1:-1 2:-1 3:-0.5 4:-1 5:-0.333333 6:-1 8:-1 9:-1 10:-1 11:-1 12:0.2 13:-0.666667 14:-1 15:-1 16:-1 17:-1 18:-0.333333 19:-0.2 20:-1 21:-1 22:-1 23:-1 24:-0.6 25:-0.714286 26:-1 27:-0.6 28:-1 29:-1 30:0.2 31:-1 32:0.6 33:-1 34:-1 35:-0.666667 36:-1 37:-1 38:-1 39:-0.666667 40:-1 41:-1 42:-1 43:0.333333 45:-1 46:-1 47:-0.333333 48:-0.428571 49:-1 50:-1 51:-0.333333 52:-0.714286 53:-1 54:-1 55:-1 56:0.142857 57:-1 58:-1 59:-1 60:-1 61:-1 62:-1 63:-1 64:1 65:-1 66:-1 67:-1 68:-1 69:-1 70:-1 71:-1 72:-0.714286 73:-1 74:-1 75:0.142857 77:-1 78:-1 79:-0.333333 80:-1 81:-1 82:-1 83:0.333333 84:-1 85:-1 86:-1 87:-1 88:-0.142857 89:-1 90:-1 91:-0.428571 92:-1 93:-1 94:-1 95:-1 96:0.666667 97:-1 98:-1 99:-1 100:-1 101:-1 102:-1 103:-0.714286 104:-0.2 105:-1 106:-1 107:-0.428571 108:0.428571 109:-1 110:-1 111:-1 112:-0.333333 113:-1 114:-1 115:-0.142857 116:-1 117:-1 118:-1 119:-0.333333 120:-0.428571 121:-1 122:-1 123:-0.428571 124:-1 125:-1 126:-1 127:-1 128:0.142857 129:-1 130:-1 131:-1 132:-0.714286 133:-1 134:-1 135:-1 136:-0.333333 137:-1 138:-1 139:-0.2 140:0.2 141:-1 142:-1 143:-0.6 145:-1 146:-1 147:-0.666667 148:-1 149:-1 150:-1 151:-1 152:0.142857 153:-1 154:-1 155:-0.6 156:-1 157:-1 158:-1 159:-1 160:0.333333 161:-1 162:-1 163:-1 164:0.666667 165:-1 166:-1 167:-1 168:-1 169:-1 170:-1 171:-1 172:0.2 173:-1 174:-1 175:-0.666667 176:-0.333333 177:-1 178:-1 179:-0.333333 180:-1 181:-1 182:-1 183:-1 184:-0.428571 185:-1 186:-1 187:-0.333333 188:-1 189:-1 190:-1 191:-1 192:-0.666667 193:-1 194:-1 195:-1 196:0.142857 197:-0.75 198:-1 199:-1 200:-0.666667 201:-1 202:-1 203:-1 204:-0.714286 205:-1 206:-0.428571 207:-1 208:-0.666667 209:-0.333333 210:-1 211:-1 212:-0.333333 213:-1 214:-1 215:-1 216:0.666667 217:-1 218:-1 219:-1 220:-1 221:-1 222:-1 223:-1 224:-1 225:0.333333 226:-1 227:-1 228:-1 229:-0.75 230:-1 231:-1 232:-1 233:-1 234:-1 235:-1 236:-1 237:-0.75 239:-1 240:-1 241:-0.75 242:-1 243:-1 244:-1 245:-1 246:-0.6 247:-1 248:-0.6 249:-0.5 250:-0.666667 251:-1 252:-0.5 254:-1 255:-1 
0.1626450635819966 0 0 0 0.141628528983884 0 0 0 0 0 0 0 0 0 0 0 0 0 0 0 0 0 0 0 0.5579465687854094 0 0 0 0:-1 1:-1 2:-1 3:-1 5:-1 6:-1 7:-0.5 9:-1 10:-1 11:-1 12:-1 13:-0.666667 14:-0.2 15:-1 16:-0.5 17:-1 18:-1 19:-0.6 21:-1 22:-1 23:-0.6 24:-1 25:-1 26:-1 27:-1 28:0.5 29:-1 30:-1 31:-1 32:-1 33:-1 34:-1 35:-1 36:-0.428571 37:-1 38:-1 40:0.142857 41:-1 42:-1 43:-1 44:-1 45:-1 46:-1 47:-1 48:0.428571 49:-1 50:-1 51:-1 52:-0.142857 53:-1 54:-1 55:-0.666667 56:-1 57:-1 58:-1 59:-1 60:0.2 61:-1 62:-1 63:-0.666667 64:-1 65:-1 66:-1 67:-1 68:-0.714286 69:-1 70:-1 71:0.333333 72:0.142857 73:-1 74:-1 75:-1 76:-0.333333 77:-1 78:-1 79:-1 80:-1 81:-1 82:-1 84:0.666667 85:-1 86:-1 87:-1 88:-1 89:-1 90:-1 91:-1 92:0.666667 93:-1 94:-1 95:-1 96:-0.666667 97:-1 98:-1 99:-1 100:-0.142857 101:-1 102:-1 103:-0.142857 104:0.6 105:-1 106:-1 107:-1 108:-0.714286 109:-1 110:-1 111:-0.333333 112:-0.333333 113:-1 114:-1 115:-0.428571 117:-1 118:-1 119:-0.666667 120:-1 121:-1 122:-1 123:-1 124:0.333333 125:-1 126:-1 127:-1 128:-0.428571 129:-1 130:-1 131:-1 132:-0.142857 133:-1 134:-1 135:-0.666667 137:-1 138:-1 139:-0.6 140:0.2 141:-1 142:-1 143:-0.2 144:-1 145:-1 146:-1 147:-1 149:-1 150:-1 151:-0.333333 152:-0.142857 153:-1 154:-1 155:-0.6 156:-1 157:-1 158:-1 159:-1 160:0.666667 161:-1 162:-1 163:-1 164:-0.666667 165:-1 166:-1 167:-1 168:0.333333 169:-1 170:-1 171:-1 172:0.6 173:-1 174:-1 175:-1 176:-1 177:-1 178:-1 179:-1 180:0.333333 181:-1 182:-1 183:-1 184:-0.714286 185:-1 186:-1 187:0.333333 188:-1 189:-1 190:-1 191:-1 192:0.666667 193:-1 194:-1 195:-1 196:-1 197:-1 198:-1 199:-1 200:-0.333333 201:-1 202:-1 203:-0.6 204:-0.428571 205:-0.5 206:-1 207:-0.666667 208:-1 209:-1 210:-1 211:-0.6 212:-0.333333 213:-1 214:-1 215:-0.333333 216:0.333333 217:-1 218:-1 219:-1 220:-1 221:-1 222:-1 223:-1 224:-1 225:-1 226:-1 227:-1 228:-1 229:-1 230:-1 231:-1 232:-1 233:-0.75 234:-0.666667 235:-1 236:-1 237:-0.5 238:-1 239:-1 240:-1 241:-1 242:-1 243:-1 244:-1 245:-0.5 246:-0.6 247:-0.6 248:-0.6 249:-0.5 250:-1 251:-1 252:-1 253:-1 254:-1 255:-1 
0 0 0 0 0 0 0 0 0 0 0 0 0 0 0 0 0 0.008385492932328268 0 0 0 0 0 0 0 0 0 0 0:-1 1:-0.333333 2:-1 3:-0.5 4:-1 5:-1 6:-0.666667 9:-1 10:-1 11:-1 12:-1 13:-1 14:0.2 15:-1 16:-1 17:-1 18:-1 19:-0.2 21:-1 22:-1 23:-0.6 24:-1 25:-1 26:-1 27:-0.6 28:-1 29:-1 30:-1 31:0.5 32:-1 33:-1 34:-1 35:-1 36:-0.714286 37:-1 38:-1 40:0.142857 41:-1 42:-1 43:-1 44:-1 45:-1 46:-1 47:-0.333333 48:-0.714286 49:-1 50:-1 52:-0.428571 53:-1 54:-1 55:-0.333333 56:-1 57:-1 58:-1 59:-0.142857 60:-0.2 61:-1 62:-1 63:-0.333333 64:-1 65:-1 66:-1 67:-1 68:-1 69:-1 70:-1 71:0.333333 72:0.142857 73:-1 74:-1 75:-1 76:-1 77:-1 78:-1 79:-1 80:-1 81:-1 82:-1 83:0.333333 84:-0.333333 85:-1 86:-1 87:-0.2 88:-1 89:-1 90:-1 91:-1 92:-0.666667 93:-1 94:-1 96:-1 97:-1 98:-1 99:-1 100:-0.714286 101:-1 102:-1 103:1 104:0.2 105:-1 106:-1 107:-0.428571 108:-0.714286 109:-1 110:-1 111:-0.666667 112:-1 113:-1 114:-1 115:0.428571 117:-1 118:-1 119:-0.666667 120:-1 121:-1 122:-1 123:-1 124:-0.666667 125:-1 126:-1 128:-1 129:-1 130:-1 131:-1 132:-0.428571 133:-1 134:-1 135:-0.333333 136:-0.333333 137:-1 138:-1 139:0.2 140:-1 141:-1 142:-1 143:-1 144:-1 145:-1 146:-1 147:0.333333 148:0.666667 149:-1 150:-1 151:-0.666667 152:-1 153:-1 154:-1 155:-0.6 156:-0.6 157:-1 158:-1 159:0.333333 160:-1 161:-1 162:-1 163:-1 164:0.333333 165:-1 166:-1 167:-1 169:-1 170:-1 171:-0.666667 172:-0.6 173:-1 174:-1 175:-1 176:-0.333333 177:-1 178:-1 179:-0.333333 180:-1 181:-1 182:-1 183:0.142857 184:-1 185:-1 186:-1 187:-1 188:-1 189:-1 190:-1 191:0.6 192:-0.333333 193:-1 194:-1 195:-1 196:-0.142857 197:-1 198:-1 199:-1 200:-0.333333 201:-0.714286 202:-1 203:-0.6 204:-1 205:-0.25 206:-0.714286 207:-1 208:-0.666667 209:-1 210:-1 211:-0.6 212:0.333333 213:-1 214:-1 215:-1 216:-1 217:-1 218:-1 219:-0.666667 220:-1 221:-1 222:-1 223:0.6 224:-1 225:0.333333 226:-1 227:-1 228:-1 230:-1 231:-1 232:-1 234:-1 235:-1 236:-1 238:-1 239:-1 240:-1 242:-0.666667 243:-1 244:-0.2 245:-0.75 246:-1 247:-1 248:-1 250:-0.666667 251:-1 252:-0.5 253:-0.666667 254:-1 255:-1 
0 0 0 0 0 0 0 0 0 0 0 0 0.02226589975898316 0 0 0 0 0 0 0 0.4550790523050123 0 0 0 0 0 0 0 1:-1 2:-1 3:-1 4:0.5 5:-1 6:-1 7:-0.5 8:-1 9:-1 10:-1 11:-0.6 12:-0.6 13:-0.666667 14:-0.6 15:-0.5 16:-0.5 17:-1 18:-1 19:-0.2 20:-1 21:-1 22:-1 23:-1 24:0.2 25:-1 26:-1 27:-1 28:-1 29:-1 30:-1 31:0.5 32:-1 33:-1 34:-1 35:-1 36:-0.142857 37:-1 38:-1 39:-0.666667 40:-1 41:-1 42:-1 43:-1 44:0.333333 45:-1 46:-1 47:-0.666667 48:-0.428571 49:-1 50:-1 51:-0.333333 52:-1 53:-1 54:-1 55:-1 56:-0.428571 57:-1 58:-1 59:-0.428571 60:-0.6 61:-1 62:-1 64:-1 65:-1 66:-1 67:-1 68:-0.714286 69:-1 70:-1 72:-0.428571 73:-1 74:-1 75:-1 76:-0.333333 77:-1 78:-1 79:-1 80:-0.2 81:-1 82:-1 83:-0.333333 84:-1 85:-1 86:-1 87:-1 88:0.428571 89:-1 90:-1 91:-1 93:-1 94:-1 95:-0.666667 96:-1 97:-1 98:-1 99:-1 100:-0.142857 101:-1 102:-1 103:-0.142857 104:0.2 105:-1 106:-1 107:-0.714286 108:-0.714286 109:-1 110:-1 111:-1 113:-1 114:-1 115:0.142857 116:-1 117:-1 118:-1 119:-1 120:-0.142857 121:-0.75 122:-1 123:-0.714286 124:-0.333333 125:-1 126:-1 127:-0.333333 128:-1 129:-1 130:-1 131:-1 132:-0.428571 133:-1 134:-1 135:-0.333333 137:-1 138:-1 139:-0.2 140:-1 141:-1 142:-1 143:-1 144:-0.333333 145:-1 146:-1 147:-0.333333 148:-1 149:-1 150:-1 151:-0.666667 152:-0.428571 153:-1 154:-1 155:-0.2 156:0.6 157:-1 158:-1 159:-0.333333 160:-1 161:-1 162:-1 163:-1 164:0.333333 165:-1 166:-1 167:-1 169:-1 170:-1 171:-0.666667 172:-1 173:-1 174:-1 175:-1 176:0.333333 177:-1 178:-1 179:-0.666667 180:-0.333333 181:-1 182:-1 183:-0.714286 184:-0.714286 185:-1 186:-1 187:-0.666667 189:-1 190:-1 191:-0.6 193:-1 194:-1 195:-1 196:-0.428571 197:-1 198:-1 199:-1 200:-0.333333 201:-1 202:-1 203:-1 204:-1 205:-1 206:-0.428571 207:-0.666667 208:-0.333333 209:-0.777778 210:-1 211:-0.6 213:-1 214:-1 215:-0.666667 216:-1 217:-1 218:-1 219:-1 220:-0.333333 221:-1 222:-1 223:-0.2 224:-0.6 225:-0.333333 226:-1 227:-1 228:-1 229:-1 230:-1 231:-1 232:-1 233:-1 234:-1 235:-1 236:-1 237:-0.5 238:-1 239:-1 240:-1 241:-1 242:-1 243:-1 244:-1 245:-1 246:-1 247:-0.2 248:-1 249:-0.75 250:-0.333333 251:-1 253:-1 254:-1 255:-0.333333 
0 0 0 0 0 0 0 0 0 0 0 0 0 0 0 0 0 0 0 0 0 0.08274767341531554 0 0 0 0 0 0 0:-1 1:-1 2:-0.6 4:-1 5:-1 6:-0.666667 8:-1 9:-1 10:-1 11:-1 12:-1 14:-0.2 15:-1 16:-1 17:-1 18:-1 19:-1 20:-0.5 21:-1 22:-1 23:-0.2 24:-1 25:-0.714286 26:-1 27:-1 29:-0.666667 30:-0.2 31:-1 32:-1 33:-1 34:-1 35:-1 36:0.428571 37:-1 38:-1 39:-1 40:-0.714286 41:-0.75 42:-1 43:-0.333333 44:-1 45:-0.777778 46:-1 47:-1 48:-0.428571 49:-1 50:-1 51:-0.666667 52:0.142857 53:-1 54:-1 55:-1 56:-1 57:-1 58:-1 59:-1 60:0.2 61:-1 62:-1 63:-0.666667 64:-1 65:-1 66:-1 67:-1 68:-0.428571 69:-1 70:-1 71:0.333333 72:0.714286 73:-1 74:-1 75:-1 76:-1 77:-1 78:-1 79:-1 80:0.6 81:-1 82:-1 83:-0.666667 85:-1 86:-1 87:-0.6 88:-1 89:-1 90:-1 91:-1 92:-0.333333 93:-1 94:-1 95:-0.333333 96:-1 97:-1 98:-1 99:-0.333333 100:-0.142857 101:-1 102:-1 103:-0.714286 104:0.6 105:-1 106:-1 107:-0.428571 108:-0.714286 109:-1 110:-1 111:-1 112:0.333333 113:-1 114:-1 115:-0.714286 116:0.333333 117:-1 118:-1 119:-0.666667 120:-1 121:-1 122:-1 123:-1 124:-1 125:-1 126:-1 127:0.333333 128:-1 129:-1 130:-1 131:-1 132:0.142857 133:-1 134:-1 135:-1 137:-1 138:-1 139:-0.2 140:-1 141:-1 142:-1 143:-1 144:0.333333 145:-1 146:-1 147:-1 149:-1 150:-1 152:-0.714286 153:-1 154:-1 155:-1 156:0.2 157:-1 158:-1 159:-0.333333 160:0.333333 161:-1 162:-1 163:-0.6 164:-1 165:-1 166:-1 167:-1 169:-1 170:-1 171:-0.333333 172:-1 173:-1 174:-1 175:-1 176:-0.333333 177:-0.75 178:-1 180:-0.333333 181:-1 182:-1 183:-1 184:-1 185:-1 186:-1 187:-1 188:0.333333 189:-1 190:-1 191:-1 192:0.333333 193:-0.6 194:-1 195:-1 196:-1 197:-1 198:-1 199:-1 200:-1 201:-0.714286 202:-1 203:-0.2 204:-0.428571 205:-0.5 206:-0.714286 207:-0.666667 208:-1 209:-0.555556 210:-1 211:-1 213:-1 214:-1 215:-0.333333 216:-1 217:-1 218:-1 219:-0.666667 221:-1 222:-1 223:-0.6 224:-0.6 225:-0.666667 226:-1 227:-1 228:-1 229:-1 230:-1 231:-1 232:-1 233:-1 234:-1 235:-1 236:-1 237:-1 238:-1 239:-1 240:-1 241:-1 242:-1 243:-1 244:-1 245:-1 246:-1 247:-0.2 248:-0.6 250:-1 251:-1 252:-0.5 253:-1 254:-1 255:-1 
0 0 0 0 0 0 0 0 0 0 0 0.06298449557037383 0 0 0 0 0 0 0 0 0 0 0 0 0 0 0 0 0:-1 1:-1 2:0.2 3:-0.5 4:-1 5:-1 6:-1 7:-0.5 8:-1 9:-0.75 10:-1 11:-1 12:-1 13:-0.333333 14:0.2 15:-1 16:-1 17:-1 18:-1 19:-1 20:0.5 21:-1 22:-1 23:-1 24:-1 25:-0.428571 26:-0.666667 27:-1 28:-1 29:-1 30:-1 32:-1 33:-1 34:-1 35:-1 36:-0.714286 37:-1 38:-1 40:-0.428571 41:-1 42:-1 44:-1 45:-1 46:-1 47:-1 48:-0.428571 49:-1 50:-1 51:-0.333333 52:0.142857 53:-1 54:-1 55:-1 56:-1 57:-1 58:-1 59:-1 60:0.2 61:-1 62:-1 63:-0.666667 64:-1 65:-1 66:-1 67:-1 68:-1 69:-1 70:-1 71:0.333333 72:0.142857 73:-1 74:-1 75:-1 76:-1 77:-1 78:-1 79:-1 80:-0.6 81:-1 82:-1 84:-0.333333 85:-1 86:-1 87:-0.2 88:-1 89:-1 90:-1 91:-1 92:0.333333 93:-1 94:-1 95:-1 96:-1 97:-1 98:-1 99:-0.666667 100:-0.714286 101:-1 102:-1 103:0.428571 104:-0.6 105:-1 106:-1 107:0.142857 108:-1 109:-1 110:-1 111:-1 113:-1 114:-1 115:-0.428571 116:-0.666667 117:-1 118:-1 119:0.333333 120:-1 121:-1 122:-1 123:-1 125:-1 126:-1 127:-0.333333 128:-1 129:-1 130:-1 131:-1 132:-0.142857 133:-1 134:-1 135:-0.666667 136:0.666667 137:-1 138:-1 139:-1 140:-0.6 141:-1 142:-1 143:-0.6 144:-0.666667 145:-1 146:-1 148:1 149:-1 150:-1 151:-1 152:-1 153:-1 154:-1 155:-0.6 156:-0.2 157:-1 158:-1 159:-0.333333 160:-0.666667 161:-1 162:-1 163:-1 165:-1 166:-1 167:-1 168:0.333333 169:-1 170:-1 171:-1 172:-1 173:-1 174:-1 175:-1 177:-1 178:-1 179:-0.666667 180:0.333333 181:-1 182:-1 183:-1 184:-0.714286 185:-1 186:-1 187:-1 188:-0.333333 189:-1 190:-1 191:-0.2 192:1 193:-1 194:-1 195:-1 196:-1 197:-1 198:-1 199:-1 200:0.333333 201:-1 202:-1 203:-0.6 204:-0.714286 205:-1 206:-1 207:-1 208:-0.333333 209:-1 210:-1 211:-0.6 212:0.333333 213:-1 214:-1 215:-1 216:-1 217:-1 218:-1 219:-1 220:-0.666667 221:-1 222:-1 223:0.2 224:-0.2 225:-1 226:-1 227:-1 228:-1 229:-1 230:-1 231:-1 232:-1 233:-1 234:-0.666667 235:-1 236:-1 237:-0.75 238:-0.333333 239:-1 240:-1 241:-1 242:-1 243:-1 244:-0.6 245:-1 246:-0.6 247:-0.6 248:-0.6 249:-0.5 250:-1 251:-1 252:-0.5 253:-1 254:-1 255:-1 
0 0 0 0.01138602241179364 0 0 0 0 0.06675155231380919 0.4987697383989265 0 0 0 0 0 0 0 0 0 0 0 0 0 0 0 0 0 0 0:-1 1:-1 2:-1 3:1 4:-1 5:-1 6:-1 7:-1 8:-0.5 9:-0.75 10:-0.2 11:-0.6 12:-1 13:-1 14:-0.6 16:-1 17:-1 18:-1 19:-0.6 20:-0.5 21:-0.75 22:-0.666667 23:-0.2 24:-1 25:-1 26:-1 27:0.2 28:-1 29:-1 30:-1 31:-1 32:-1 33:-1 34:-1 35:0.666667 36:-1 37:-1 38:-1 39:-0.666667 40:-0.714286 41:-1 42:-1 44:-1 45:-1 46:-1 47:0.666667 48:-0.714286 49:-1 50:-1 51:-1 52:-1 53:-1 54:-1 55:0.333333 56:-1 57:-1 58:-1 59:0.428571 60:-1 61:-1 62:-1 63:-1 64:-1 65:-1 66:-1 67:0.333333 68:-1 69:-1 70:-1 71:-1 72:-1 73:-1 74:-1 75:0.428571 76:-1 77:-1 78:-1 79:0.333333 80:-1 81:-1 82:-1 83:-1 84:-1 85:-1 86:-1 87:0.6 88:-1 89:-1 90:-1 91:0.428571 92:-1 93:-1 94:-1 95:-1 96:-1 97:-1 98:-1 99:-0.333333 100:-1 101:-1 102:-1 103:-0.142857 104:-1 105:-1 106:-1 107:0.142857 108:-1 109:-1 110:-1 111:0.333333 112:-1 113:-1 114:-1 115:-1 116:-1 117:-1 118:-1 119:0.333333 120:-1 121:-1 122:-1 123:0.142857 124:-1 125:-1 126:-1 127:-1 128:-1 129:-1 130:-1 131:-1 132:-1 133:-1 134:-1 135:0.666667 136:-1 137:-1 138:-1 139:0.6 140:-1 141:-1 142:-1 143:0.2 144:-1 145:-1 146:-1 147:-0.666667 148:-1 149:-1 150:-1 151:0.333333 152:-1 153:-1 154:-1 155:0.6 156:-1 157:-1 158:-1 159:-1 160:-1 161:-1 162:-1 163:-1 165:-1 166:-1 167:-0.714286 168:-1 169:-1 170:-1 171:0.666667 172:-1 173:-1 174:-1 175:-1 176:-1 177:-1 178:-1 179:0.333333 180:-1 181:-1 182:-1 183:0.142857 184:-1 185:-1 186:-1 187:-0.333333 188:-1 189:-1 190:-1 191:-0.2 192:-0.333333 193:-1 194:-1 195:-1 196:-0.428571 197:-1 198:-1 199:-1 200:-0.666667 201:-0.714286 202:-1 203:-0.6 204:-1 205:-0.75 206:-0.142857 207:-1 208:-0.666667 209:-1 210:-1 211:-0.2 212:-1 213:-1 214:-1 215:0.666667 216:-1 217:-1 218:-1 219:-1 220:-1 221:-1 222:-1 223:1 224:-0.6 226:-1 227:-1 228:-1 229:-0.5 230:-0.333333 231:-1 232:-1 234:-1 235:-1 236:-1 237:-0.25 238:-0.666667 239:-1 240:-1 241:-0.5 242:-1 243:-1 244:-1 245:-1 246:-1 247:-0.6 248:-1 250:-0.666667 251:-1 252:-1 253:-1 254:-1 255:-0.333333 
0 0 0 0 0 0 0 0 0.05416881994425708 0 0 1 0 0 0 0 0 0 0 0 0 0 0 0.01346682379995363 0 0 0.2817449487646876 0 0:-1 1:-0.666667 2:-0.2 3:-1 4:-1 5:-1 6:-1 8:-1 9:-1 10:-1 11:-1 12:-1 13:-0.666667 14:0.2 15:-1 16:-1 17:-1 18:-1 19:-1 20:-0.5 21:-1 22:-1 23:-1 24:-1 25:-0.142857 26:-1 27:-0.6 28:-1 29:-1 30:-1 31:-1 32:-1 33:-1 34:-0.333333 35:-0.333333 36:-1 37:-1 38:-1 39:-0.333333 40:-0.142857 41:-1 42:-1 43:-1 44:-1 45:-1 46:-0.6 48:-1 49:-1 50:-1 51:-0.666667 52:0.142857 53:-1 54:-1 55:-1 56:-0.714286 57:-1 58:-1 59:-0.142857 60:-1 61:-1 62:-0.6 63:-0.333333 64:-0.6 65:-1 66:-1 67:-1 68:-0.428571 69:-1 70:-1 72:-0.714286 73:-1 74:-1 75:0.142857 76:-1 77:-1 78:-1 79:-0.666667 80:-1 81:-1 82:-1 83:0.333333 84:-0.333333 85:-1 86:-1 87:-0.2 88:-1 89:-1 90:-1 91:-1 92:-1 93:-1 94:-1 95:0.333333 96:-1 97:-1 98:-1 99:-1 100:-1 101:-1 102:-1 103:0.142857 104:0.2 105:-1 106:-1 107:-0.428571 108:-1 109:-1 110:-1 111:-1 112:-1 113:-1 114:-1 115:0.142857 116:0.333333 117:-1 118:-1 119:-1 120:-0.714286 121:-1 122:-1 123:-1 124:-1 125:-1 126:-1 127:0.333333 128:-1 129:-1 130:-1 131:-1 132:-0.714286 133:-1 134:-0.666667 135:0.333333 136:0.666667 137:-1 138:-1 139:-1 140:-0.6 141:-1 142:-1 143:-1 144:-1 145:-1 146:-1 147:0.333333 149:-1 150:-1 152:-1 153:-1 154:-1 155:-1 156:-0.6 157:-1 158:-1 160:-1 161:-1 162:-1 163:-1 164:0.333333 165:-1 166:-1 167:-0.714286 168:-1 169:-1 170:-1 171:0.666667 172:-1 173:-1 174:-1 175:-1 177:-1 178:-1 179:-0.333333 180:-0.333333 181:-1 182:-1 183:-0.428571 184:-0.714286 185:-1 186:-1 187:-1 188:-1 189:-1 190:-1 191:0.6 192:-1 193:-1 194:-1 195:-1 196:-0.428571 197:-1 198:-1 200:-0.666667 201:-1 202:-1 203:-0.2 204:-1 205:-0.25 206:-0.428571 207:-1 208:-0.333333 209:-0.777778 210:-1 211:-1 212:0.333333 213:-1 214:-1 215:-1 216:-1 217:-1 218:-1 219:-1 220:-1 221:-1 222:-0.666667 223:0.2 224:-1 225:0.333333 226:-1 227:-1 228:-0.666667 229:-0.5 230:-1 231:-1 232:-1 233:-0.5 234:-0.333333 235:-1 236:-1 237:-0.5 238:-0.333333 239:-1 240:-0.6 241:-0.75 242:-1 243:-1 244:-0.6 245:-1 246:-0.2 247:-1 248:-1 249:-0.5 250:-0.333333 251:-1 252:-1 253:0.333333 254:-0.6 255:-1 
0 0 0 0 0 0 0 0 0 0 0 0.1169758810606393 0 0 0 0 0 0.004356280710555773 0 0.2470112371439845 0 0 0 0 0 0 0 0 0:-0.5 1:-0.666667 2:-1 3:-0.5 4:-1 5:-0.333333 6:-0.333333 7:-1 8:-1 9:-1 10:-0.6 11:-0.2 12:-0.2 13:-0.666667 14:-1 15:-1 16:-1 17:-1 19:-0.2 20:-1 21:-1 22:-1 23:-0.6 24:-1 25:-1 26:-1 27:0.2 29:-1 30:-1 31:-0.5 32:-0.6 33:-1 34:-1 35:0.333333 36:-1 37:-1 38:-1 39:-1 40:0.142857 41:-1 42:-1 43:-1 44:-0.333333 45:-1 46:-1 48:-0.428571 49:-1 50:-1 51:-0.333333 52:-0.714286 53:-1 54:-1 55:-1 56:-0.428571 57:-1 58:-1 59:-0.428571 60:-0.6 61:-1 62:-1 64:-0.6 65:-1 66:-1 68:-1 69:-1 70:-1 71:-1 72:0.142857 73:-1 74:-1 75:-1 76:-0.333333 77:-1 78:-1 79:-0.333333 80:-0.6 81:-1 82:-1 84:-1 85:-1 86:-1 87:-1 88:-0.142857 89:-1 90:-1 91:-0.428571 92:-0.333333 93:-1 94:-1 95:-0.333333 96:-0.666667 97:-1 98:-1 99:0.333333 100:-1 101:-1 102:-1 103:-0.714286 104:-0.6 105:-1 106:-1 107:0.142857 108:-1 109:-1 110:-1 111:0.666667 112:-0.333333 113:-1 114:-1 115:-0.142857 116:-1 117:-1 118:-1 119:-1 120:-0.428571 121:-1 122:-1 123:-0.428571 125:-1 126:-1 127:-0.666667 128:0.142857 129:-1 130:-1 131:-1 132:-0.714286 133:-1 134:-1 135:-0.666667 136:-0.666667 137:-1 138:-1 139:0.2 140:-0.6 141:-1 142:-1 143:0.6 144:-1 145:-1 146:-1 148:-1 149:-1 150:-0.666667 151:-0.666667 152:0.428571 153:-1 154:-1 155:-1 156:-1 157:-1 158:-0.666667 160:0.333333 161:-1 162:-1 163:-1 164:-1 165:-1 166:-1 167:-1 168:0.333333 169:-1 170:-1 171:-1 172:0.2 173:-1 174:-1 175:-0.666667 177:-1 178:-1 179:-1 181:-1 182:-1 183:-0.714286 184:-1 185:-1 186:-1 187:0.333333 188:-1 189:-1 190:-1 191:-1 192:0.666667 193:-1 194:-1 195:-1 196:-0.428571 197:-1 198:-1 199:-1 200:-0.333333 201:-1 202:-1 203:-1 204:-0.428571 205:-1 206:-1 207:-0.333333 208:0.333333 209:-1 210:-1 211:-1 212:-1 213:-1 214:-1 215:-1 216:0.333333 217:-1 218:-1 219:-1 220:-1 221:-1 222:-1 223:-1 224:-0.2 225:-1 226:-1 227:-1 228:1 229:-1 230:-1 231:-1 232:-1 233:-1 234:-1 235:-1 236:-1 237:-1 238:-0.666667 239:-1 240:-1 241:-0.25 242:-1 243:-1 244:-0.6 245:-1 246:-1 247:-1 248:-0.6 249:-1 250:-1 252:-1 253:-1 254:-1 255:-1 
0 0 0 0 0 0 0 0 0 0 0 0 0 0 0 0 0 0.0207132320447554 0 0 0 0 0 0 0 0 0 0 0:-1 1:-1 2:0.6 3:-1 4:-1 5:-0.666667 6:-0.666667 7:-1 9:-0.75 10:-0.6 11:-1 12:-1 13:-0.333333 14:-0.6 15:-1 16:-1 17:-1 18:-1 19:-1 20:-0.5 21:-0.75 22:-1 23:-0.2 24:-1 25:-1 26:-0.333333 27:-1 28:-1 29:-0.666667 30:-0.6 32:-1 33:-1 34:-1 35:-1 36:0.142857 37:-1 38:-1 39:-0.666667 40:-1 41:-1 42:0.2 43:-0.333333 45:-1 46:-1 47:-0.333333 48:-0.714286 49:-1 50:-0.428571 52:-0.142857 53:-1 54:-1 55:-0.333333 56:-1 57:-1 58:-1 59:-1 60:-0.2 61:-1 62:-1 64:-1 65:-1 66:-1 67:-1 68:-1 69:-1 70:-1 71:0.333333 72:0.428571 73:-1 74:-1 75:-1 76:-0.666667 77:-1 78:-1 79:-0.666667 80:-1 81:-1 82:-1 83:0.333333 84:0.333333 85:-1 86:-0.75 87:-0.2 88:-1 89:-1 90:-1 91:-1 92:-1 93:-1 94:-1 96:-1 97:-1 98:-1 99:-1 100:-1 101:-1 102:-1 103:0.714286 104:-0.2 105:-1 106:-1 107:-0.428571 108:-0.428571 109:-1 110:-1 111:-1 112:-0.666667 113:-1 114:-1 115:-0.142857 117:-1 118:-1 119:-0.666667 120:-1 121:-1 122:-1 123:-1 124:-0.666667 125:-1 126:-1 127:-0.666667 128:-1 129:-1 130:-1 131:-1 132:-0.428571 133:-1 134:-1 135:-0.333333 136:-1 137:-1 138:-0.333333 139:0.6 140:-1 141:-1 142:-1 143:-1 144:0.333333 145:-1 146:-1 147:-0.333333 148:-1 149:-1 150:-1 151:0.333333 152:-1 153:-1 154:-1 155:-0.6 156:-1 157:-1 158:-1 159:-1 160:-1 161:-1 162:-1 163:-1 164:0.666667 165:-1 166:-1 167:-1 168:-1 169:-1 170:-1 171:-1 172:-1 173:-1 174:-1 175:0.666667 176:-0.666667 177:-1 178:-1 180:-1 181:-1 182:-1 183:-0.714286 184:-1 185:-1 186:-1 188:-1 189:-1 190:-1 191:-1 192:-1 193:0.6 194:-1 195:-1 196:-0.428571 197:-0.75 198:-1 199:-1 200:-1 201:-1 202:-1 203:-1 204:-1 205:-0.75 206:-0.714286 207:-0.666667 208:-0.666667 209:-0.555556 210:-1 211:-1 212:-1 213:-1 214:-1 215:-1 216:-0.333333 217:-1 218:-1 220:-1 221:-1 222:-1 223:-1 224:-1 225:-1 226:-1 227:-1 228:-1 229:-1 230:-1 231:-1 232:-1 233:-1 234:-1 235:-1 236:-1 237:-1 238:-1 239:-1 240:-1 241:-1 242:-1 243:-1 244:-1 245:-1 246:-1 247:-1 248:-1 249:-0.5 250:-0.666667 251:-1 252:-1 254:-1 255:-1 
0 0 0 0 0 0 0 0 0 0 0 0 0 0 0 0 0 0 0 0 0 0 0 0 1 0 0 0 0:-0.5 1:-1 2:-0.6 3:-1 4:-1 5:-1 6:0.333333 7:-1 9:-0.5 10:-0.6 11:-1 12:-1 13:-0.333333 14:-0.2 15:-1 16:-1 17:-1 18:-0.666667 19:-0.2 20:-0.5 21:-1 22:-1 23:-0.2 24:-1 25:-1 26:-1 27:-1 28:-0.5 29:-1 30:-1 32:-0.6 33:-1 34:-1 35:-0.333333 36:-1 37:-1 38:-1 39:-0.333333 40:-1 41:-1 42:-1 43:0.333333 44:-1 45:-1 46:-1 47:-1 48:-1 49:-1 50:-1 51:1 52:0.428571 53:-1 54:-1 55:-0.666667 56:-1 57:-1 58:-1 59:-1 60:-0.2 61:-1 62:-1 63:-0.333333 64:-1 65:-1 66:-1 67:0.333333 68:0.142857 69:-1 70:-1 71:-1 72:-0.142857 73:-1 74:-1 75:-0.714286 76:-1 77:-1 78:-1 79:-1 80:-1 81:-1 82:-1 84:0.333333 85:-1 86:-1 87:-0.6 88:-1 89:-1 90:-1 91:-1 92:-1 93:-1 94:-0.5 95:0.333333 96:0.333333 97:-1 98:-1 99:-0.666667 100:-0.714286 101:-1 102:-0.2 103:-0.142857 104:0.2 105:-1 106:-1 107:-0.714286 108:-1 109:-1 110:-1 111:-1 112:-0.666667 113:-1 114:-1 115:-0.714286 116:-0.666667 117:-1 119:-0.333333 120:-1 121:-1 122:-1 123:-1 124:0.333333 125:-0.666667 126:-1 127:-1 128:-0.142857 129:-1 130:-1 131:-0.666667 132:-0.428571 133:-1 134:-1 135:-0.666667 136:-1 137:-0.555556 138:-1 139:-0.6 140:-1 141:-1 142:-1 143:-0.6 145:-1 146:-1 147:-1 148:-0.666667 149:-1 150:-0.666667 151:-0.666667 152:-0.714286 153:-1 154:-1 155:-0.6 156:0.6 157:-1 158:-1 159:-0.666667 160:-0.333333 161:-1 162:-1 163:-1 165:-0.5 166:-1 167:-1 168:-0.666667 169:-0.75 170:-1 171:-0.666667 172:-1 173:-1 174:-0.6 176:0.333333 177:-0.75 178:-1 179:-1 180:-1 181:-1 182:-1 183:-1 184:-0.428571 185:-0.75 186:-1 187:0.333333 188:-0.333333 189:-0.666667 190:-1 191:-0.2 192:-1 193:0.6 194:-1 195:-1 196:-1 197:-0.75 198:-1 199:-1 200:-1 201:-1 202:-1 203:-1 204:-1 205:-0.5 206:-0.714286 207:-1 208:-1 209:-1 210:-1 211:-1 212:-1 213:-1 214:-1 215:-1 216:-1 217:-0.142857 218:-0.714286 219:-0.666667 220:-0.666667 221:-1 222:-1 223:-0.6 224:-1 225:-1 226:-1 227:-1 228:-1 229:-1 230:-1 231:-1 232:-1 233:-1 234:-1 235:-1 236:-1 237:-1 238:-1 239:-1 240:-1 241:-1 242:-1 243:-1 244:-1 245:-1 246:-1 247:-1 248:-1 249:-1 250:-1 251:-1 252:-1 253:-1 254:-1 255:-1 
0 0 0 0 0 0 0 0 0 0 0 0 0 0.02924067160145119 0 0 0 0 0 0 0 0 0 0 0 0 0 0 0:-1 1:-0.666667 2:-0.2 3:-1 5:-1 6:-1 7:-0.5 9:-1 10:-1 11:-0.6 12:-0.6 13:-0.666667 14:-0.6 15:-0.5 17:-1 18:-1 19:-0.6 21:-1 22:-1 23:-0.6 24:-1 25:-1 26:-1 27:-1 28:0.5 29:-1 30:-1 31:-0.5 32:-1 33:-1 34:-1 35:-1 36:-0.428571 37:-1 38:-1 39:-0.333333 40:-0.142857 41:-1 42:-1 43:-0.333333 44:-0.666667 45:-1 46:-1 47:-0.666667 48:-0.142857 49:-1 50:-1 51:-0.333333 52:-0.714286 53:-1 54:-1 56:-0.714286 57:-1 58:-1 59:-1 60:-0.6 61:-1 62:-1 63:0.333333 64:-1 65:-1 66:-1 67:-1 68:-0.142857 69:-1 70:-1 71:-0.333333 72:0.142857 73:-1 74:-1 75:-1 76:-1 77:-1 78:-1 79:-1 80:-0.2 81:-1 82:-1 83:-0.333333 84:0.333333 85:-1 86:-1 87:-1 88:-0.714286 89:-1 90:-1 91:-1 92:-0.666667 93:-1 94:-1 96:-1 97:-1 98:-1 99:-1 100:-0.428571 101:-1 102:-1 103:-0.142857 104:-0.6 105:-1 106:-1 107:-0.142857 108:-1 109:-1 110:-1 111:-1 112:0.666667 113:-1 114:-1 115:-0.714286 116:-0.333333 117:-1 118:-1 119:-0.333333 120:-1 121:-1 122:-1 123:-1 124:0.333333 125:-1 126:-1 127:-0.666667 128:-1 129:-1 130:-1 131:-1 132:0.142857 133:-1 134:-1 135:-1 136:0.333333 137:-1 138:-1 139:-1 140:-1 141:-1 142:-1 143:-1 144:0.333333 145:-1 146:-1 147:-1 148:0.333333 149:-1 150:-1 151:-0.333333 152:-1 153:-1 154:-1 155:-1 156:0.2 157:-1 158:-1 159:-0.333333 161:-1 162:-1 163:-1 164:-0.333333 165:-1 166:-1 167:-1 168:0.666667 169:-1 170:-1 171:-1 172:-0.6 173:-1 174:-1 175:-1 176:0.333333 177:-1 178:-1 179:-1 180:0.333333 181:-1 182:-1 183:-1 184:-0.714286 185:-1 186:-1 187:-1 188:0.333333 189:-1 190:-1 191:-1 192:-0.666667 193:0.2 194:-1 195:-1 196:-1 197:-1 198:-1 199:-1 200:-0.333333 201:-1 202:-0.666667 203:-0.6 204:-0.142857 205:-0.25 206:-1 207:-1 208:-1 209:-1 210:-1 211:-1 212:0.666667 213:-1 214:-1 215:-1 217:-1 218:-1 219:-0.666667 220:-0.666667 221:-1 222:-1 223:-1 224:-1 225:-1 226:-1 227:-1 228:-1 229:-1 230:-1 231:-1 232:-1 233:-1 234:-1 235:-1 236:-1 237:-1 238:-1 239:-1 240:-1 241:-1 242:-0.666667 243:-1 244:-0.2 245:-1 246:-0.6 247:-0.6 248:-0.2 249:-0.5 250:-1 251:-1 252:-1 253:-1 254:-1 255:-1 
0 0 0 0 0 0 0 0 0 0 0 0 0.6564436784147379 0 0 0 0 0.01121728202242212 0.02593835259167587 0 0 0 0 0 0 0 0 0 0:-1 1:-1 2:-1 3:-1 5:-1 6:-1 7:-0.5 9:-1 10:-1 11:-0.6 12:-0.6 13:-1 14:-1 15:-0.5 16:-1 17:-0.666667 18:-0.666667 19:-1 20:-0.5 21:-1 22:-1 23:-0.6 24:-0.2 25:-1 26:-1 27:-0.6 28:-1 29:-1 30:-1 31:-1 32:-1 33:-1 34:-1 35:-0.666667 36:0.142857 37:-1 38:-1 39:-1 40:-0.142857 41:-1 42:-1 43:-0.333333 45:-1 46:-1 47:-0.666667 48:-1 49:-1 50:-1 51:-0.666667 52:-1 53:-1 54:-1 55:0.333333 56:-0.428571 57:-1 58:-1 59:-0.142857 60:-1 61:-1 62:-1 63:-1 64:-1 65:-1 66:-1 67:-1 68:-0.714286 69:-1 70:-1 71:0.333333 72:-0.714286 73:-1 74:-1 75:-0.142857 76:-0.666667 77:-1 78:-1 80:-1 81:-1 82:-1 83:-1 84:-0.333333 85:-1 86:-1 87:-0.2 88:-0.142857 89:-1 90:-1 91:-0.714286 92:-1 93:-1 94:-1 95:-1 96:-1 97:-1 98:-1 99:-1 100:0.142857 101:-1 102:-1 103:-0.714286 104:0.2 105:-1 106:-1 107:-0.142857 108:-0.142857 109:-1 110:-1 111:-0.333333 112:-0.666667 113:-1 114:-1 115:-0.714286 116:-0.666667 117:-1 118:-1 119:0.333333 120:-0.428571 121:-1 122:-1 123:-0.428571 124:-0.333333 125:-1 126:-1 127:-1 128:-0.714286 129:-1 130:-1 131:-1 132:0.142857 133:-1 134:-1 135:-1 136:-0.666667 137:-1 138:-1 139:0.6 140:0.6 141:-1 142:-1 143:-1 144:-1 145:-1 146:-1 147:-1 148:-0.333333 149:-1 150:-1 151:-0.333333 152:0.142857 153:-1 154:-1 155:-0.6 156:-1 157:-1 158:-1 160:-0.333333 161:-1 162:-1 163:-1 164:-0.333333 165:-1 166:-1 167:-1 168:0.333333 169:-1 170:-1 171:-1 172:-0.2 173:-1 174:-1 175:-0.333333 176:-1 177:-1 178:-1 179:-1 180:-0.666667 181:-1 182:-1 183:-0.142857 184:-0.142857 185:-1 186:-1 187:-0.333333 188:-1 189:-1 190:-1 191:-1 192:0.666667 193:-1 194:-1 195:-1 196:-0.142857 197:-1 198:-1 199:-1 200:-0.333333 201:-0.428571 202:-1 203:-1 204:-0.428571 205:-1 206:-1 207:-0.666667 208:-1 209:-0.777778 210:-0.142857 211:-1 212:-0.666667 213:-1 214:-1 215:-0.666667 216:-0.666667 217:-1 218:-1 220:-1 221:-1 222:-1 223:-1 224:-1 225:-1 226:-0.6 227:-1 228:-1 230:-1 231:-1 232:-0.6 233:-0.25 234:-0.666667 235:-1 236:-1 238:-1 239:-1 240:-1 241:-0.25 242:-0.666667 243:-1 244:-1 245:-0.25 246:-1 247:-1 248:-1 249:-1 250:-1 252:-1 254:-0.6 255:-1 
1 0.03896221996749819 0 0 0 0 0 0.23731146185423 0.4078648954926374 0 0.02885177700681698 0 0.8136829672344814 0 1 0.2899692531327881 0 0 0 1 0 0 0.2683078065357175 0.3260552989409174 1 0 0.4258731972645701 0.1974013278653732 0:-1 1:-0.333333 2:-1 3:-1 4:-1 5:-1 6:0.333333 7:-1 8:-1 9:-0.75 10:-1 11:-1 12:-1 13:-0.333333 14:-1 15:-1 16:-1 17:-0.666667 18:-0.666667 19:-1 20:-0.5 21:-0.75 22:-1 23:-1 24:-1 25:-0.428571 27:-1 28:-1 29:-1 30:-1 31:-0.5 32:-0.2 33:-0.333333 34:-1 35:-1 36:-1 37:-1 38:-1 40:-1 41:0.25 42:-0.6 43:-1 44:-1 45:-0.777778 46:-0.2 47:-1 48:-0.714286 49:-1 50:-1 51:0.333333 52:0.714286 53:-1 54:-1 55:-1 56:-1 57:-1 58:-1 59:-1 60:-0.6 61:-1 62:-1 64:-1 65:-1 66:-1 67:-1 68:-1 69:-1 70:-1 71:0.333333 72:-1 73:-1 74:-1 75:-0.714286 76:-1 77:-1 78:-1 79:-1 80:-0.2 81:-1 82:-1 84:-1 85:-1 86:-1 87:0.2 88:-1 89:-1 90:-1 91:-1 93:-1 94:-1 95:-0.666667 96:-1 97:-1 98:-1 99:-1 100:-1 101:-0.75 102:-1 103:-1 104:-1 105:-1 106:-1 107:-0.714286 108:-1 109:-1 110:-1 111:-1 112:-0.333333 113:-1 114:-1 115:-1 116:-0.666667 117:-1 118:-1 119:0.333333 120:-1 121:-1 122:-1 123:-1 124:-0.666667 125:-1 126:-1 127:0.333333 128:-1 129:-1 130:-1 131:-1 132:-0.142857 133:-1 134:-1 135:-0.333333 136:-1 137:-1 138:-1 139:-1 140:-1 141:-1 142:-1 143:-1 144:-0.333333 145:-1 146:-1 147:-1 148:-0.666667 149:-1 150:-1 151:-0.666667 152:-1 153:-1 154:-1 155:-1 156:-1 157:-1 158:-1 159:0.333333 160:-1 161:-1 162:-1 163:-1 164:0.333333 165:-1 166:-1 167:-0.714286 169:-1 170:-1 171:-1 172:-1 173:-1 174:-1 175:-0.666667 176:-0.666667 177:-1 178:-1 180:-0.333333 181:-1 182:-1 183:-0.428571 184:-0.714286 185:-1 186:-1 187:-1 188:0.333333 189:-1 190:-1 191:-1 192:-1 193:-1 194:-1 195:-1 196:0.142857 197:-1 198:-0.714286 199:-1 200:-1 201:-1 203:-0.2 204:-1 206:-0.714286 207:-1 208:-0.666667 209:-1 210:-1 211:-0.6 212:1 213:-1 214:-1 215:-1 216:-0.333333 217:-1 218:-1 219:-1 220:-0.333333 221:-1 222:-1 223:-1 224:-0.6 226:-1 227:-1 228:-1 229:-1 230:-1 231:-1 232:-1 233:-1 234:-1 235:-1 236:-1 237:-1 238:-1 239:-1 240:-1 241:-1 242:-1 243:-1 244:-1 245:-1 246:-0.6 247:-0.6 248:-0.6 249:-0.5 250:-1 251:-1 252:-1 253:-1 254:-1 255:-1 
0 0 0 0 0 0 0 0 0 0 0 0 0 0 0 0 0 0 0 0 0 0 0 0 0.09334936859605257 0 0.2548025511945994 0 0:-1 1:-0.333333 2:-0.2 3:-1 4:-0.5 5:-1 6:-1 7:-0.5 9:-1 10:-1 11:-1 12:-1 13:-0.666667 14:0.6 15:-1 16:-0.5 17:-1 18:-1 19:-0.6 20:1 21:-1 22:-1 23:-1 24:-1 25:-0.428571 26:-0.666667 27:-0.6 28:-1 29:-1 30:-1 32:-1 33:-1 34:-1 35:-1 36:-1 37:-0.75 38:-1 39:0.666667 40:0.428571 41:-1 42:-1 43:-1 44:-1 45:-1 46:-1 47:-1 48:-0.428571 49:-1 50:-1 51:-0.333333 52:-0.714286 53:-1 54:-1 56:-1 57:-1 58:-1 59:-1 60:-1 61:-1 62:-1 63:0.333333 64:-1 65:-1 66:-1 67:-1 68:-0.714286 69:-1 70:-1 72:-0.714286 73:-1 74:-1 75:-0.142857 76:-0.666667 77:-1 78:-1 79:-0.666667 80:-0.6 81:-1 82:-1 85:-1 86:-1 87:-0.2 88:-1 89:-1 90:-1 91:-1 92:-0.666667 93:-1 94:-1 96:-1 97:-1 98:-1 99:-1 100:-1 101:-1 102:-1 103:-0.142857 104:0.6 105:-1 106:-1 107:-1 108:-1 109:-1 110:-1 111:-1 112:-1 113:-1 114:-1 115:0.428571 116:0.666667 117:-1 118:-1 119:-1 120:-1 121:-1 122:-1 123:-1 124:-0.333333 125:-1 126:-1 128:-1 129:-1 130:-1 131:-1 132:-0.428571 133:-1 134:-1 135:-0.333333 136:-1 137:-1 138:-0.666667 139:0.6 140:-1 141:-1 142:-1 143:-1 145:-1 146:-1 147:-0.666667 148:-0.666667 149:-1 150:-1 152:-1 153:-1 154:-1 155:-1 156:0.6 157:-1 158:-1 159:-1 160:-1 161:-1 162:-1 163:-1 165:-0.75 166:-1 167:-0.714286 168:-1 169:-0.75 170:-0.714286 171:0.666667 172:-0.6 173:-1 174:-1 175:-1 177:-1 178:-1 179:-1 180:-0.666667 181:-1 182:-1 183:-0.142857 184:-1 185:-1 186:-1 187:-1 188:0.333333 189:-1 190:-1 191:-1 192:-1 193:1 194:-1 195:-1 196:-0.714286 197:-1 198:-1 199:-1 200:-1 201:-1 202:-1 203:-1 204:-1 205:-0.25 206:-0.714286 207:-1 208:-1 209:-1 210:-0.714286 211:-1 212:-1 213:-1 214:-1 215:0.666667 216:-0.666667 217:-0.714286 218:-1 219:-1 221:-1 222:-1 223:-1 224:-1 225:-1 226:-1 227:-1 228:-1 229:-1 230:-1 231:-1 232:-1 233:-1 234:-1 235:-1 236:-1 237:-1 238:-1 239:-1 240:-1 241:-1 242:-1 243:-1 244:-1 245:-1 246:-1 247:-1 248:-1 250:-1 251:-1 252:-1 253:-1 254:-1 255:-1 
