svm_type c_svc
kernel_type rbf
gamma 0.015873
nr_class 2
total_sv 67
rho -0.137517
label 0 1
probA -4.94213
probB 0.10854
nr_sv 34 33
SV
0.3103293375903549 0:-1 1:-1 2:-1 3:-1 4:0.0666667 5:1 6:-0.866667 7:-1 8:-1 9:-1 10:-1 11:0.2 12:0.466667 13:0.733333 14:-1 15:-0.866667 16:-1 17:-1 18:0.2 19:-0.333333 20:-1 21:-0.0666667 22:-1 23:0.0666667 24:-0.866667 25:0.733333 26:0.6 27:-1 28:-0.6 29:0.466667 30:-0.333333 31:-0.333333 32:0.2 33:1 34:1 35:0.6 36:1 37:1 38:0.733333 39:-0.333333 40:-0.733333 41:-0.6 42:-0.6 43:-0.6 44:-0.6 45:0.333333 46:-0.866667 47:-0.866667 48:-1 49:-1 50:-1 51:-1 52:-1 53:-1 54:-1 55:0.333333 56:-1 57:-1 58:-1 59:-1 60:-1 61:-1 62:-1 63:-0.333333 
0.206117109692342 0:-1 1:-1 2:-1 3:-1 4:-1 5:-1 6:-1 7:-0.6 8:-0.733333 9:-1 10:-1 11:-1 12:-1 13:-0.0666667 14:-1 15:-0.6 16:-0.6 17:-1 18:-1 19:-1 20:0.2 21:1 22:-0.6 23:-0.6 24:-0.733333 25:-1 26:-1 27:0.466667 28:0.466667 29:-0.0666667 30:-0.6 31:-0.6 32:-1 33:-1 34:0.333333 35:0.2 36:-1 37:-0.0666667 38:-0.733333 39:-1 40:-1 41:0.333333 42:0.6 43:-1 44:-1 45:0.0666667 46:-0.466667 47:-1 48:-0.0666667 49:1 50:1 51:0.733333 52:1 53:1 54:1 55:-0.6 56:-0.6 57:0.333333 58:-0.6 59:-0.6 60:-0.6 61:0.2 62:-0.333333 63:-1 
0.07227626810329954 0:-1 1:-1 2:-1 3:-1 4:-1 5:0.2 6:0.333333 7:-1 8:-1 9:-0.333333 10:-1 11:-1 12:-0.2 13:0.733333 14:-0.0666667 15:-0.866667 16:-1 17:0.466667 18:-1 19:0.0666667 20:0.733333 21:0.2 22:-0.0666667 23:-1 24:-1 25:-0.0666667 26:-0.866667 27:0.2 28:-0.733333 29:-0.866667 30:-0.0666667 31:-1 32:-1 33:0.733333 34:0.733333 35:-1 36:-1 37:-0.6 38:-0.0666667 39:-0.6 40:1 41:1 42:1 43:-0.0666667 44:0.466667 45:0.466667 46:1 47:0.733333 48:0.733333 49:-0.0666667 50:-0.0666667 51:-0.0666667 52:-0.0666667 53:0.2 54:0.6 55:-0.333333 56:-1 57:-1 58:-1 59:-1 60:-1 61:-0.866667 62:-0.733333 63:-1 
0.4347479485205051 0:-1 1:-1 2:-1 3:-1 4:-1 5:-0.733333 6:-0.0666667 7:-1 8:-1 9:-1 10:-1 11:-1 12:-0.466667 13:1 14:0.466667 15:-1 16:-1 17:-1 18:-1 19:-0.6 20:0.866667 21:-0.0666667 22:0.466667 23:-1 24:-1 25:-1 26:-0.6 27:0.733333 28:-0.733333 29:-1 30:0.466667 31:-1 32:-1 33:-0.2 34:0.866667 35:-0.733333 36:-1 37:-0.6 38:0.466667 39:-1 40:0.2 41:1 42:0.6 43:-0.6 44:-0.6 45:0.0666667 46:1 47:0.866667 48:1 49:1 50:1 51:1 52:1 53:0.866667 54:1 55:0.2 56:0.2 57:-0.6 58:-1 59:-1 60:-1 61:-0.866667 62:0.2 63:-1 
0.2658485548441443 0:-1 1:-1 2:-1 3:-1 4:-1 5:-1 6:-1 7:-0.733333 8:-1 9:-1 10:-1 11:-1 12:-1 13:-1 14:0.0666667 15:1 16:-1 17:-1 18:-1 19:-1 20:-1 21:0.466667 22:1 23:0.466667 24:-1 25:-1 26:-1 27:-0.6 28:0.733333 29:0.466667 30:-0.6 31:-1 32:-1 33:-0.866667 34:-0.0666667 35:1 36:0.0666667 37:-1 38:-1 39:-1 40:-1 41:0.866667 42:1 43:1 44:0.0666667 45:-0.0666667 46:0.466667 47:0.466667 48:-0.733333 49:1 50:0.733333 51:0.466667 52:0.466667 53:0.466667 54:0.466667 55:0.733333 56:-1 57:-0.6 58:-0.866667 59:-1 60:-1 61:-1 62:-1 63:-1 
0.008790361835138393 0:-1 1:-1 2:-1 3:-1 4:-1 5:-1 6:-1 7:-1 8:-1 9:-1 10:-1 11:-1 12:-0.866667 13:-0.2 14:-0.333333 15:-1 16:-1 17:-1 18:-1 19:-1 20:0.6 21:1 22:0.2 23:-1 24:-1 25:-1 26:-1 27:0.6 28:0.6 29:-0.866667 30:0.0666667 31:-1 32:-1 33:-0.2 34:0.733333 35:-0.2 36:-1 37:-1 38:-0.2 39:-1 40:-0.0666667 41:1 42:1 43:-0.6 44:-1 45:-0.6 46:0.2 47:-1 48:-0.333333 49:0.6 50:0.466667 51:0.466667 52:0.466667 53:0.733333 54:1 55:-0.0666667 56:-1 57:-1 58:-1 59:-0.733333 60:-0.0666667 61:-0.0666667 62:0.733333 63:-0.733333 
0.0662950695431786 0:-1 1:-1 2:-1 3:-1 4:-1 5:0.466667 6:-0.0666667 7:-1 8:-1 9:-1 10:-1 11:-1 12:0.333333 13:0.6 14:-0.0666667 15:-1 16:-1 17:-1 18:-1 19:0.0666667 20:0.0666667 21:-1 22:-0.0666667 23:-1 24:-1 25:-1 26:0.333333 27:-0.0666667 28:-1 29:-1 30:0.333333 31:-1 32:-1 33:0.466667 34:1 35:-0.0666667 36:-0.333333 37:0.6 38:1 39:-0.0666667 40:-0.6 41:1 42:0.0666667 43:-0.0666667 44:-0.0666667 45:-0.0666667 46:-0.0666667 47:-0.866667 48:-1 49:-0.6 50:-1 51:-1 52:-1 53:-1 54:-1 55:-1 56:-1 57:-1 58:-1 59:-1 60:-1 61:-1 62:-1 63:-1 
1 0:-1 1:-1 2:-1 3:-1 4:-1 5:0.2 6:0.2 7:-1 8:-1 9:-1 10:-1 11:-1 12:0.333333 13:1 14:0.0666667 15:-1 16:-1 17:-1 18:-1 19:0.2 20:0.466667 21:-0.866667 22:-0.0666667 23:-1 24:-1 25:-1 26:-0.0666667 27:0.0666667 28:-1 29:-1 30:-0.0666667 31:-1 32:-0.866667 33:0.333333 34:0.2 35:-1 36:-1 37:-0.733333 38:0.466667 39:-0.0666667 40:0.733333 41:1 42:0.2 43:-0.0666667 44:0.733333 45:1 46:1 47:1 48:1 49:0.6 50:0.466667 51:0.466667 52:-0.0666667 53:0.0666667 54:0.466667 55:-0.733333 56:-0.6 57:-1 58:-1 59:-1 60:-1 61:-1 62:-0.866667 63:-1 
1 0:-1 1:-1 2:-1 3:-1 4:0.0666667 5:1 6:-0.6 7:-1 8:-1 9:-1 10:-1 11:-0.0666667 12:0.733333 13:-0.2 14:-0.6 15:-1 16:-1 17:-1 18:-0.466667 19:0.466667 20:-1 21:-0.6 22:-0.6 23:-1 24:-1 25:0.0666667 26:0.466667 27:-1 28:-1 29:-0.466667 30:-0.466667 31:-0.733333 32:0.466667 33:1 34:0.6 35:-0.466667 36:-0.0666667 37:0.466667 38:0.6 39:0.466667 40:0.733333 41:-0.0666667 42:-0.0666667 43:-0.0666667 44:-0.0666667 45:0.466667 46:0.466667 47:0.2 48:-1 49:-1 50:-1 51:-1 52:-1 53:-0.6 54:-0.6 55:-1 56:-1 57:-1 58:-1 59:-1 60:-1 61:-1 62:-1 63:-1 
1 0:-1 1:-1 2:-1 3:-1 4:-0.733333 5:-0.866667 6:-1 7:-1 8:-1 9:-1 10:-1 11:-0.2 12:0.733333 13:-0.333333 14:-1 15:-1 16:-1 17:-0.733333 18:0.466667 19:0.6 20:-0.866667 21:-1 22:-1 23:-1 24:-0.2 25:1 26:0.0666667 27:-1 28:-0.466667 29:-0.333333 30:-1 31:-1 32:-0.0666667 33:-1 34:-1 35:-0.866667 36:-0.333333 37:-0.733333 38:-0.733333 39:-1 40:-1 41:-0.333333 42:1 43:1 44:0.2 45:-0.733333 46:0.466667 47:-0.733333 48:-1 49:-1 50:-0.6 51:-0.6 52:-1 53:-0.733333 54:-1 55:-1 56:-1 57:-1 58:-1 59:-1 60:-1 61:-0.866667 62:-1 63:-1 
0.1487271632200196 0:-0.866667 1:-0.866667 2:-1 3:-1 4:-1 5:-1 6:-1 7:-1 8:-0.733333 9:-0.733333 10:-1 11:-1 12:-1 13:-0.6 14:-0.733333 15:-1 16:-1 17:-1 18:-1 19:-1 20:-0.0666667 21:1 22:-0.0666667 23:-1 24:-1 25:-1 26:-1 27:-0.6 28:0.333333 29:-0.6 30:-0.2 31:-1 32:-1 33:-1 34:-0.466667 35:-0.733333 36:-1 37:-1 38:-0.2 39:-1 40:-0.6 41:1 42:1 43:0.333333 44:-0.2 45:-0.2 46:0.733333 47:-0.0666667 48:-0.733333 49:0.466667 50:-0.6 51:0.333333 52:0.466667 53:0.733333 54:0.733333 55:0.0666667 56:-1 57:-1 58:-1 59:-1 60:-1 61:-0.866667 62:-0.733333 63:-1 
0.1730400985733634 0:-1 1:-1 2:-1 3:-1 4:-1 5:-0.6 6:-0.866667 7:-1 8:-1 9:-1 10:-1 11:-1 12:0.2 13:1 14:-0.6 15:-1 16:-1 17:-1 18:-1 19:0.733333 20:0.733333 21:-0.466667 22:-0.6 23:-1 24:-1 25:-1 26:0.6 27:0.2 28:-1 29:-0.6 30:-0.6 31:-1 32:-0.866667 33:0.466667 34:0.333333 35:-1 36:-1 37:-0.466667 38:-0.6 39:-1 40:0.733333 41:1 42:0.0666667 43:0.2 44:0.466667 45:0.466667 46:-0.333333 47:-0.6 48:0.866667 49:-0.0666667 50:-0.0666667 51:0.2 52:0.0666667 53:0.6 54:0.6 55:-0.0666667 56:-1 57:-1 58:-1 59:-1 60:-1 61:-0.466667 62:-0.733333 63:-1 
1 0:-1 1:-1 2:-1 3:-1 4:-1 5:-0.333333 6:0.466667 7:0.466667 8:-1 9:-1 10:-1 11:-0.0666667 12:0.333333 13:1 14:1 15:0.2 16:-0.6 17:-0.6 18:0.333333 19:1 20:0.866667 21:0.0666667 22:-0.466667 23:-1 24:1 25:1 26:0.6 27:-0.0666667 28:-0.6 29:-1 30:-0.6 31:-1 32:1 33:-0.0666667 34:-0.866667 35:-1 36:-1 37:-1 38:-0.6 39:-1 40:0.733333 41:0.0666667 42:-1 43:-1 44:-1 45:-1 46:-0.333333 47:-1 48:-1 49:0.333333 50:0.866667 51:-0.0666667 52:-0.733333 53:-0.6 54:-0.6 55:-1 56:-1 57:-1 58:-0.2 59:1 60:0.733333 61:-0.2 62:-0.6 63:-1 
0.2940615567703255 0:-1 1:-1 2:-0.0666667 3:-1 4:-1 5:-1 6:-1 7:-1 8:-1 9:-1 10:-1 11:-1 12:-0.466667 13:-0.0666667 14:0.6 15:-0.0666667 16:-0.866667 17:-0.6 18:0.333333 19:0.6 20:0.733333 21:0.2 22:-0.0666667 23:-0.733333 24:0.733333 25:0.466667 26:-0.466667 27:-0.6 28:-0.866667 29:-0.733333 30:-0.333333 31:-1 32:-0.0666667 33:-1 34:-0.866667 35:-0.6 36:-0.6 37:-0.6 38:-0.2 39:-1 40:-1 41:-1 42:-0.866667 43:0.6 44:1 45:0.733333 46:-1 47:-1 48:-0.866667 49:-0.866667 50:-1 51:-1 52:-0.6 53:-0.733333 54:0.466667 55:0.466667 56:-1 57:-0.6 58:-1 59:-1 60:-1 61:-1 62:-1 63:-1 
1 0:-1 1:-1 2:-1 3:-1 4:-1 5:-1 6:-1 7:-0.866667 8:-1 9:-1 10:-1 11:-1 12:-0.6 13:-0.2 14:0.733333 15:0.466667 16:-0.733333 17:-0.466667 18:0.466667 19:0.6 20:1 21:0.466667 22:-0.2 23:-0.733333 24:1 25:-0.0666667 26:-0.6 27:-0.6 28:-0.6 29:-0.866667 30:-0.6 31:-1 32:-0.0666667 33:-1 34:-0.733333 35:-0.466667 36:-0.6 37:-0.6 38:-0.6 39:-0.866667 40:-1 41:-1 42:-0.733333 43:0.333333 44:0.733333 45:0.6 46:-0.6 47:-1 48:-0.733333 49:-1 50:-1 51:-1 52:-0.866667 53:0.0666667 54:0.333333 55:0.0666667 56:-1 57:-1 58:-1 59:-1 60:-1 61:-1 62:-1 63:-0.333333 
1 0:-1 1:-1 2:-1 3:-1 4:-1 5:-1 6:-1 7:-0.733333 8:-1 9:-1 10:-1 11:-0.6 12:-0.0666667 13:0.6 14:1 15:0.2 16:-1 17:0.466667 18:0.733333 19:0.866667 20:-0.0666667 21:-0.466667 22:0.733333 23:-1 24:-1 25:0.6 26:0.866667 27:-1 28:-1 29:-1 30:-0.0666667 31:-1 32:-1 33:-1 34:-0.2 35:0.866667 36:0.466667 37:-0.466667 38:1 39:-1 40:-1 41:-1 42:-1 43:-1 44:-0.2 45:0.466667 46:1 47:-0.333333 48:-1 49:-1 50:-1 51:-1 52:-1 53:-1 54:-0.466667 55:-0.333333 56:-1 57:-1 58:-1 59:-1 60:-1 61:-1 62:-1 63:-1 
0.9903618935083247 0:-0.6 1:1 2:1 3:-0.6 4:-1 5:-0.6 6:-0.0666667 7:-1 8:-0.6 9:1 10:1 11:-0.6 12:-1 13:-0.6 14:-0.0666667 15:-1 16:-0.6 17:1 18:1 19:-0.466667 20:-1 21:-0.6 22:-0.0666667 23:-1 24:-1 25:0.466667 26:1 27:0.733333 28:-0.6 29:-0.333333 30:-0.0666667 31:-1 32:-1 33:-0.733333 34:-0.0666667 35:1 36:0.6 37:0.466667 38:0.0666667 39:-1 40:-1 41:-1 42:-1 43:-0.0666667 44:1 45:1 46:0.866667 47:-1 48:-1 49:-1 50:-1 51:-1 52:0.2 53:1 54:1 55:-0.6 56:-1 57:-1 58:-1 59:-1 60:-1 61:0.466667 62:1 63:-0.0666667 
0.09898276178737045 0:-1 1:-1 2:-1 3:-0.733333 4:-0.333333 5:-0.0666667 6:0.2 7:-1 8:-0.6 9:-1 10:-0.2 11:0.866667 12:1 13:1 14:-0.466667 15:-1 16:1 17:1 18:1 19:-0.0666667 20:-0.0666667 21:0.333333 22:-1 23:-1 24:1 25:1 26:0.466667 27:-1 28:-1 29:-0.0666667 30:-1 31:-1 32:-1 33:0.0666667 34:0.733333 35:-0.0666667 36:-0.0666667 37:0.2 38:-1 39:-1 40:-1 41:-1 42:-0.733333 43:0.0666667 44:1 45:1 46:-0.0666667 47:-1 48:-1 49:-1 50:-1 51:-1 52:-0.2 53:0.0666667 54:0.866667 55:-1 56:-1 57:-1 58:-1 59:-1 60:-1 61:-1 62:-0.466667 63:-1 
1 0:-1 1:-1 2:-1 3:-1 4:-0.6 5:0.6 6:1 7:0.333333 8:-1 9:-1 10:-1 11:0.2 12:1 13:1 14:0.2 15:-1 16:-1 17:-0.6 18:0.733333 19:1 20:0.6 21:-0.0666667 22:-0.6 23:-1 24:0.0666667 25:1 26:0.733333 27:-0.333333 28:-1 29:-0.6 30:-0.6 31:-1 32:0.466667 33:1 34:-1 35:-1 36:-1 37:-0.6 38:-0.6 39:-1 40:0.0666667 41:1 42:0.466667 43:-0.0666667 44:-0.866667 45:-0.6 46:-0.6 47:-1 48:-1 49:-0.6 50:0.333333 51:1 52:1 53:0.733333 54:-0.333333 55:-1 56:-1 57:-1 58:-1 59:-0.466667 60:0.733333 61:1 62:1 63:0.0666667 
0.009829686786768956 0:-1 1:-1 2:-1 3:-1 4:-1 5:-1 6:-1 7:-1 8:-1 9:-1 10:-1 11:-1 12:-1 13:-1 14:-0.6 15:-0.866667 16:-1 17:-1 18:-1 19:-1 20:-0.733333 21:0.333333 22:1 23:-0.333333 24:-0.866667 25:-0.6 26:-0.0666667 27:0.466667 28:0.6 29:0.466667 30:0.866667 31:-1 32:-0.0666667 33:1 34:1 35:-0.0666667 36:-1 37:-1 38:-0.2 39:-1 40:-0.2 41:1 42:1 43:-0.6 44:-1 45:-1 46:0.2 47:-1 48:-1 49:-1 50:-1 51:-1 52:-0.2 53:0.333333 54:1 55:-0.6 56:-1 57:-1 58:-1 59:-1 60:-1 61:-0.6 62:-0.0666667 63:-0.6 
0.329177595569422 0:-1 1:-1 2:-1 3:-1 4:-1 5:-1 6:-1 7:-1 8:-1 9:-1 10:-1 11:-1 12:-1 13:-1 14:-1 15:-1 16:-1 17:-1 18:-1 19:-1 20:-0.733333 21:0.733333 22:1 23:0.2 24:-0.866667 25:-0.333333 26:0.2 27:0.466667 28:0.0666667 29:-0.6 30:0.6 31:-1 32:-0.0666667 33:1 34:1 35:0.2 36:-1 37:-1 38:-0.6 39:-1 40:-0.866667 41:0.866667 42:1 43:-0.6 44:-0.6 45:-0.6 46:0.2 47:-1 48:-1 49:-1 50:-1 51:-1 52:0.333333 53:1 54:1 55:-0.466667 56:-1 57:-1 58:-1 59:-1 60:-1 61:-1 62:-0.6 63:-0.6 
1 0:-1 1:-1 2:-1 3:-0.0666667 4:0.2 5:1 6:0.6 7:-1 8:-0.6 9:-0.0666667 10:0.466667 11:0.6 12:-0.0666667 13:0.733333 14:-1 15:-1 16:0.466667 17:1 18:1 19:-0.866667 20:-1 21:0.466667 22:-1 23:-1 24:-0.466667 25:0.466667 26:0.866667 27:-1 28:-1 29:0.6 30:-1 31:-1 32:-1 33:-1 34:-0.466667 35:0.466667 36:0.466667 37:1 38:-0.2 39:-1 40:-0.6 41:-1 42:-1 43:-1 44:-0.6 45:0.466667 46:1 47:-1 48:-0.733333 49:-1 50:-1 51:-1 52:-1 53:-1 54:-0.6 55:-1 56:-1 57:-1 58:-1 59:-1 60:-1 61:-1 62:-1 63:-1 
0.06179936543991004 0:-1 1:-1 2:-1 3:-1 4:-1 5:-1 6:-1 7:-1 8:-1 9:-1 10:-1 11:-1 12:-0.6 13:0.6 14:1 15:-0.333333 16:-1 17:-0.6 18:-0.6 19:0.6 20:1 21:1 22:0.866667 23:-1 24:-0.333333 25:1 26:1 27:0.0666667 28:-1 29:-0.866667 30:-0.0666667 31:-1 32:-0.333333 33:1 34:1 35:-0.733333 36:-1 37:-0.866667 38:-0.6 39:-1 40:-1 41:-0.6 42:-0.333333 43:0.733333 44:0.866667 45:-0.2 46:0.333333 47:-1 48:-1 49:-1 50:-1 51:-0.866667 52:0.333333 53:1 54:0.866667 55:-0.733333 56:-1 57:-1 58:-1 59:-1 60:-1 61:-1 62:-0.466667 63:-1 
1 0:-1 1:-1 2:-1 3:-1 4:-1 5:-1 6:-1 7:-1 8:-1 9:-1 10:-1 11:-1 12:-1 13:-1 14:-1 15:-1 16:-1 17:-1 18:-1 19:-1 20:-1 21:-0.866667 22:0.2 23:-0.333333 24:-1 25:-1 26:-1 27:-0.733333 28:0.466667 29:1 30:0.866667 31:-0.6 32:-1 33:0.466667 34:0.2 35:-0.0666667 36:-0.333333 37:-0.866667 38:-0.466667 39:-1 40:-0.6 41:1 42:0.6 43:-1 44:-1 45:-1 46:-1 47:-1 48:-1 49:-0.0666667 50:-0.2 51:-0.466667 52:-0.6 53:-0.866667 54:-0.466667 55:-1 56:-1 57:-1 58:-1 59:-1 60:0.2 61:1 62:0.866667 63:-0.466667 
1 0:-1 1:-1 2:-1 3:-1 4:-0.466667 5:0.0666667 6:1 7:-0.0666667 8:-1 9:-1 10:-0.466667 11:0.733333 12:1 13:1 14:1 15:-0.6 16:0.0666667 17:1 18:1 19:1 20:0.0666667 21:0.333333 22:0.0666667 23:-1 24:1 25:1 26:0.733333 27:-1 28:-1 29:-1 30:-0.333333 31:-1 32:1 33:1 34:-0.0666667 35:-1 36:-1 37:-0.466667 38:-0.6 39:-1 40:-0.6 41:0.333333 42:0.466667 43:-0.0666667 44:-0.733333 45:0.466667 46:-0.6 47:-1 48:-1 49:-1 50:-1 51:1 52:1 53:1 54:0.2 55:-1 56:-1 57:-1 58:-1 59:-0.733333 60:0.0666667 61:1 62:1 63:-0.466667 
0.355228843880038 0:-1 1:-1 2:-1 3:-1 4:-1 5:-1 6:-1 7:-1 8:-1 9:-1 10:-1 11:-1 12:-1 13:-0.866667 14:-0.0666667 15:-0.866667 16:-1 17:-1 18:0.466667 19:0.2 20:-0.2 21:-0.733333 22:1 23:-1 24:-0.6 25:1 26:1 27:1 28:-0.333333 29:-1 30:0.466667 31:-1 32:0.866667 33:0.333333 34:1 35:1 36:0.6 37:-0.2 38:0.866667 39:-1 40:0.2 41:-1 42:-1 43:-1 44:-0.2 45:0.466667 46:1 47:-0.6 48:-0.866667 49:-1 50:-1 51:-1 52:-1 53:-1 54:-0.2 55:-0.866667 56:-1 57:-1 58:-1 59:-1 60:-1 61:-1 62:-1 63:-1 
0.8486886348422209 0:-1 1:-1 2:-1 3:-1 4:-1 5:-0.6 6:-1 7:0.466667 8:-1 9:-1 10:-1 11:-1 12:0.0666667 13:1 14:-0.6 15:0.466667 16:-1 17:-1 18:-0.466667 19:0.866667 20:0.6 21:0.466667 22:-1 23:0.2 24:-0.866667 25:0.466667 26:0.866667 27:-0.333333 28:-0.6 29:-0.466667 30:-1 31:-0.0666667 32:-0.6 33:1 34:0.6 35:-1 36:-0.6 37:-0.333333 38:-1 39:-0.0666667 40:-1 41:-0.333333 42:0.6 43:0.6 44:0.2 45:0.2 46:-1 47:-0.0666667 48:-1 49:-1 50:-1 51:-0.0666667 52:0.466667 53:1 54:-0.6 55:-0.0666667 56:-1 57:-1 58:-1 59:-1 60:-1 61:-0.466667 62:-1 63:-0.0666667 
0.1102296227929323 0:-1 1:-1 2:-1 3:-1 4:-1 5:-0.466667 6:0.866667 7:-0.466667 8:-1 9:-1 10:-0.866667 11:-0.333333 12:-0.333333 13:1 14:1 15:-0.2 16:-0.866667 17:0.466667 18:0.733333 19:0.733333 20:-0.6 21:0.333333 22:0.2 23:-1 24:0.466667 25:1 26:1 27:-0.0666667 28:-1 29:-0.466667 30:-0.6 31:-1 32:1 33:0.333333 34:0.6 35:0.466667 36:-1 37:-0.333333 38:-0.0666667 39:-1 40:1 41:-0.6 42:-1 43:-0.333333 44:0.6 45:1 46:1 47:-0.466667 48:1 49:-1 50:-1 51:-1 52:-1 53:0.0666667 54:1 55:-0.0666667 56:-0.0666667 57:-1 58:-1 59:-1 60:-1 61:-1 62:-0.333333 63:-0.466667 
0.3662950058288534 0:-1 1:-1 2:-1 3:-0.866667 4:0.733333 5:1 6:0.866667 7:1 8:-1 9:-1 10:-0.866667 11:0.6 12:1 13:0.733333 14:0.2 15:-0.733333 16:-0.733333 17:-0.0666667 18:0.733333 19:0.333333 20:-0.6 21:-0.866667 22:-0.0666667 23:-1 24:-0.0666667 25:1 26:1 27:-1 28:-1 29:-1 30:-0.0666667 31:-1 32:-0.0666667 33:1 34:1 35:-1 36:-1 37:-1 38:-0.0666667 39:-1 40:-0.866667 41:0.733333 42:1 43:0.333333 44:-0.6 45:-0.866667 46:0.0666667 47:-1 48:-1 49:-1 50:-0.6 51:0.866667 52:1 53:0.333333 54:0.6 55:-1 56:-1 57:-1 58:-1 59:-0.733333 60:0.733333 61:1 62:1 63:0.0666667 
0.3911977316975545 0:-1 1:-1 2:-1 3:-1 4:-1 5:-0.866667 6:-0.0666667 7:0.466667 8:-1 9:-1 10:-1 11:-0.0666667 12:-0.0666667 13:1 14:1 15:-0.333333 16:-0.0666667 17:1 18:1 19:0.733333 20:-0.6 21:-0.866667 22:0.466667 23:-1 24:-0.333333 25:1 26:1 27:0.2 28:-1 29:-1 30:0.466667 31:-1 32:-1 33:-0.333333 34:0.2 35:1 36:0.2 37:-0.6 38:0.733333 39:-1 40:-1 41:-1 42:-1 43:-1 44:-0.333333 45:0.466667 46:1 47:0.466667 48:-1 49:-1 50:-1 51:-1 52:-1 53:-1 54:-0.6 55:0.466667 56:-1 57:-1 58:-1 59:-1 60:-1 61:-1 62:-1 63:-1 
1 0:-0.333333 1:-1 2:-1 3:-1 4:-1 5:-1 6:-1 7:-1 8:-0.0666667 9:-1 10:-1 11:-1 12:-0.733333 13:-0.466667 14:0.0666667 15:0.466667 16:-1 17:-1 18:-0.866667 19:0.333333 20:0.866667 21:0.6 22:0.466667 23:-0.733333 24:-0.333333 25:0.466667 26:0.6 27:-0.6 28:-0.733333 29:-1 30:-0.866667 31:-1 32:-0.2 33:1 34:-0.0666667 35:-1 36:-1 37:-1 38:-1 39:-1 40:-0.866667 41:-0.6 42:-0.866667 43:-0.733333 44:0.466667 45:-0.6 46:-0.2 47:-0.733333 48:-0.6 49:-1 50:-1 51:-1 52:-0.6 53:-0.2 54:0.333333 55:0.466667 56:-0.866667 57:-1 58:-1 59:-1 60:-1 61:-1 62:-1 63:-0.6 
1 0:-1 1:-1 2:-1 3:-1 4:-1 5:-0.866667 6:-0.333333 7:-0.6 8:-1 9:-1 10:-1 11:-0.466667 12:0.0666667 13:0.733333 14:0.333333 15:-0.6 16:-0.866667 17:-0.2 18:0.733333 19:1 20:0.6 21:-0.466667 22:-1 23:-1 24:-0.0666667 25:0.2 26:-0.6 27:-0.6 28:-1 29:-0.6 30:-0.866667 31:-1 32:-0.333333 33:-1 34:-1 35:-0.0666667 36:-0.466667 37:-0.466667 38:-0.866667 39:-1 40:-1 41:-1 42:-1 43:0.0666667 44:1 45:0.466667 46:-0.6 47:-0.733333 48:-1 49:-1 50:-1 51:-1 52:-1 53:-0.333333 54:0.2 55:-0.2 56:-1 57:-1 58:-1 59:-1 60:-1 61:-1 62:-1 63:-1 
1 0:-1 1:-1 2:-1 3:-0.733333 4:-0.6 5:-0.6 6:0.333333 7:-0.333333 8:-0.733333 9:-0.333333 10:-0.0666667 11:0.866667 12:1 13:1 14:0.466667 15:-1 16:0.333333 17:0.866667 18:1 19:-0.6 20:-0.6 21:-0.2 22:-0.866667 23:-1 24:-0.0666667 25:0.6 26:1 27:0.2 28:-0.333333 29:-0.333333 30:-1 31:-1 32:-1 33:-1 34:-0.0666667 35:0.2 36:0.866667 37:0.733333 38:-0.333333 39:-1 40:-1 41:-1 42:-1 43:-1 44:-0.6 45:0.333333 46:0.866667 47:-0.333333 48:-1 49:-1 50:-1 51:-1 52:-1 53:-1 54:-0.466667 55:-0.733333 56:-1 57:-1 58:-1 59:-1 60:-1 61:-1 62:-1 63:-1 
1 0:-0.866667 1:-1 2:-1 3:-1 4:-1 5:-1 6:-0.6 7:-0.466667 8:-0.6 9:-1 10:-1 11:-1 12:-0.866667 13:0.333333 14:0.466667 15:-0.0666667 16:-1 17:-1 18:-1 19:0.2 20:0.866667 21:-0.466667 22:-1 23:-1 24:-0.466667 25:-0.2 26:0.466667 27:-0.0666667 28:-1 29:-0.866667 30:-1 31:-1 32:-0.0666667 33:0.0666667 34:-0.866667 35:-1 36:-1 37:-0.466667 38:-1 39:-1 40:-0.0666667 41:-0.866667 42:-1 43:0.2 44:0.733333 45:0.0666667 46:-0.6 47:-0.333333 48:-1 49:-1 50:-1 51:-0.866667 52:-0.866667 53:-1 54:-0.0666667 55:-0.2 56:-0.6 57:-1 58:-1 59:-1 60:-1 61:-1 62:-1 63:-1 
-1 0:-1 1:-1 2:-1 3:-0.0666667 4:0.866667 5:1 6:1 7:0.0666667 8:-1 9:-1 10:0.466667 11:1 12:0.866667 13:-0.733333 14:-0.333333 15:0.733333 16:-1 17:0.333333 18:0.6 19:-0.466667 20:-0.0666667 21:-1 22:-1 23:0.466667 24:0.2 25:0.866667 26:-0.866667 27:-1 28:0.0666667 29:-1 30:-1 31:0.466667 32:0.466667 33:-0.0666667 34:-1 35:-1 36:1 37:-0.0666667 38:0.0666667 39:0.866667 40:-1 41:-1 42:-1 43:-1 44:-0.2 45:1 46:1 47:-0.466667 48:-1 49:-1 50:-1 51:-1 52:-1 53:-1 54:-1 55:-1 56:-1 57:-1 58:-1 59:-1 60:-1 61:-1 62:-1 63:-1 
-0.8219426233270472 0:-1 1:-1 2:-0.866667 3:-0.6 4:-0.6 5:-1 6:-1 7:-0.333333 8:-1 9:-0.333333 10:0.466667 11:1 12:1 13:-0.0666667 14:-1 15:0.733333 16:-1 17:0.866667 18:1 19:1 20:-0.0666667 21:1 22:-1 23:1 24:0.466667 25:0.466667 26:-0.6 27:-0.0666667 28:-1 29:-0.0666667 30:-0.733333 31:1 32:0.466667 33:-0.866667 34:-0.733333 35:-0.0666667 36:-1 37:-0.0666667 38:-0.2 39:0.6 40:-1 41:-1 42:-1 43:0.333333 44:-0.6 45:0.2 46:-1 47:0.466667 48:-1 49:-1 50:-1 51:0.2 52:1 53:0.866667 54:-1 55:0.466667 56:-1 57:-1 58:-1 59:-0.866667 60:-0.6 61:-0.733333 62:-1 63:0.0666667 
-0.1210599664073475 0:-1 1:-1 2:-1 3:-1 4:0.466667 5:1 6:1 7:1 8:-1 9:-1 10:-1 11:0.6 12:1 13:0.466667 14:0.333333 15:1 16:-1 17:-1 18:0.333333 19:1 20:0.466667 21:-1 22:-1 23:0.6 24:-1 25:-0.2 26:1 27:0.733333 28:-0.0666667 29:-1 30:-1 31:0.733333 32:-1 33:0.866667 34:-0.333333 35:0.466667 36:0.0666667 37:-1 38:-0.333333 39:0.866667 40:0.0666667 41:0.333333 42:-1 43:0.2 44:0.866667 45:0.466667 46:1 47:-0.0666667 48:0.733333 49:-1 50:-1 51:-0.466667 52:1 53:1 54:0.6 55:-1 56:0.0666667 57:-1 58:-1 59:-1 60:-0.2 61:-0.2 62:-1 63:-1 
-0.004445394162239792 0:-1 1:-1 2:-1 3:-1 4:-0.866667 5:-0.0666667 6:-0.866667 7:-1 8:-1 9:-1 10:-0.866667 11:0.2 12:0.733333 13:0.733333 14:0.733333 15:-0.866667 16:-1 17:-1 18:0.6 19:0.466667 20:-0.866667 21:-1 22:-0.866667 23:-0.2 24:-1 25:0.333333 26:-0.466667 27:-0.6 28:-1 29:-1 30:-1 31:-0.0666667 32:-0.866667 33:0.6 34:-1 35:-0.6 36:-1 37:-1 38:-1 39:-0.0666667 40:-0.866667 41:-0.2 42:-1 43:-0.733333 44:-0.333333 45:-1 46:-0.333333 47:-0.6 48:-1 49:-1 50:-1 51:-1 52:0.2 53:1 54:0.2 55:-1 56:-1 57:-1 58:-1 59:-1 60:-1 61:-1 62:-1 63:-1 
-1 0:-1 1:-1 2:-1 3:-1 4:-0.6 5:-0.0666667 6:-0.866667 7:-1 8:-1 9:-1 10:-0.866667 11:0.2 12:0.733333 13:0.466667 14:0.6 15:-0.866667 16:-1 17:-1 18:0.0666667 19:0.733333 20:-0.866667 21:-1 22:-0.6 23:-0.6 24:-0.866667 25:0.466667 26:-0.466667 27:-0.733333 28:-1 29:-1 30:-1 31:-0.6 32:-0.733333 33:0.733333 34:-1 35:-0.866667 36:-1 37:-1 38:-1 39:-0.6 40:-0.733333 41:-0.466667 42:-1 43:-0.6 44:-0.6 45:-1 46:-0.2 47:-0.6 48:-1 49:-1 50:-1 51:-0.866667 52:0.733333 53:0.466667 54:0.6 55:-1 56:-1 57:-1 58:-1 59:-1 60:-0.733333 61:-0.6 62:-0.866667 63:-1 
-1 0:-1 1:-1 2:-1 3:-1 4:-0.733333 5:-0.866667 6:-1 7:-0.6 8:-1 9:-1 10:-0.866667 11:0.2 12:0.866667 13:0.733333 14:-0.2 15:-0.733333 16:-1 17:-0.6 18:0.733333 19:1 20:0.466667 21:0.0666667 22:0.866667 23:-1 24:-1 25:0.733333 26:0.733333 27:0.333333 28:-0.6 29:-1 30:0.466667 31:-1 32:-0.333333 33:1 34:-0.866667 35:-0.0666667 36:-0.6 37:-1 38:-0.0666667 39:-1 40:0.466667 41:-0.333333 42:-1 43:-0.0666667 44:-0.333333 45:-1 46:0.2 47:-1 48:-0.6 49:-1 50:-1 51:-0.866667 52:0.733333 53:0.466667 54:0.466667 55:-1 56:-1 57:-1 58:-1 59:-1 60:-0.333333 61:-0.0666667 62:-0.6 63:-0.6 
-0.7136518072815604 0:-1 1:-1 2:-1 3:-1 4:0.333333 5:1 6:0.866667 7:-1 8:-1 9:-1 10:-1 11:0.466667 12:1 13:1 14:1 15:-0.2 16:-1 17:-1 18:0.333333 19:1 20:0.6 21:-1 22:-0.466667 23:0.333333 24:-1 25:-0.466667 26:0.866667 27:0.2 28:-0.333333 29:-1 30:-1 31:0.6 32:-1 33:0.6 34:0.0666667 35:-0.466667 36:-0.6 37:-1 38:-1 39:1 40:-0.333333 41:1 42:-1 43:-0.0666667 44:-0.2 45:-1 46:-1 47:0.733333 48:0.466667 49:0.333333 50:-1 51:-0.6 52:0.2 53:-1 54:-0.466667 55:0.333333 56:0.466667 57:-0.733333 58:-1 59:-1 60:1 61:0.466667 62:0.866667 63:-0.0666667 
-0.09681969054522982 0:-1 1:-1 2:-1 3:-1 4:-0.0666667 5:0.333333 6:-0.333333 7:-1 8:-1 9:-1 10:-0.733333 11:1 12:1 13:0.733333 14:1 15:-0.733333 16:-1 17:-0.466667 18:0.866667 19:1 20:0.466667 21:-1 22:0.0666667 23:-0.0666667 24:-1 25:0.866667 26:0.333333 27:-0.2 28:-0.6 29:-1 30:-0.6 31:0.466667 32:-0.2 33:0.866667 34:-1 35:-0.466667 36:-0.0666667 37:-1 38:0.2 39:-0.0666667 40:-0.333333 41:-0.0666667 42:-1 43:-0.866667 44:1 45:1 46:1 47:-0.866667 48:-1 49:-1 50:-1 51:-1 52:-0.466667 53:0.866667 54:-0.733333 55:-1 56:-1 57:-1 58:-1 59:-1 60:-1 61:-1 62:-1 63:-1 
-0.7491103700214493 0:-1 1:-1 2:-1 3:-1 4:-1 5:-1 6:-1 7:-1 8:-1 9:-1 10:-1 11:-0.866667 12:0.2 13:1 14:1 15:-1 16:-1 17:-1 18:0.2 19:1 20:1 21:-0.866667 22:0.0666667 23:0.2 24:-1 25:0.333333 26:0.6 27:-0.333333 28:-0.0666667 29:-1 30:-1 31:0.466667 32:-0.6 33:0.6 34:-1 35:-0.6 36:-0.333333 37:-1 38:-1 39:0.466667 40:-0.0666667 41:-0.0666667 42:-1 43:-0.6 44:0.466667 45:-1 46:-0.866667 47:0.2 48:-0.6 49:-0.866667 50:-1 51:-1 52:0.733333 53:1 54:1 55:-0.6 56:-1 57:-1 58:-1 59:-1 60:-1 61:-0.333333 62:-0.733333 63:-1 
-1 0:-1 1:-1 2:-1 3:-1 4:-0.866667 5:-0.2 6:-1 7:-1 8:-1 9:-1 10:-1 11:-0.0666667 12:0.6 13:1 14:0.2 15:-1 16:-1 17:-1 18:0.333333 19:1 20:0.466667 21:-0.866667 22:0.466667 23:-0.0666667 24:-1 25:0.2 26:0.733333 27:-0.0666667 28:-0.2 29:-1 30:-0.6 31:-0.0666667 32:-0.466667 33:0.866667 34:-0.866667 35:-0.2 36:-0.2 37:-1 38:-0.2 39:-0.2 40:0.466667 41:-0.333333 42:-1 43:-0.6 44:0.733333 45:-0.0666667 46:0.733333 47:-0.733333 48:-0.866667 49:-1 50:-1 51:-1 52:-0.0666667 53:0.466667 54:-0.333333 55:-1 56:-1 57:-1 58:-1 59:-1 60:-1 61:-1 62:-1 63:-1 
-1 0:-1 1:-1 2:-1 3:-1 4:-0.0666667 5:1 6:0.2 7:-1 8:-1 9:-1 10:-1 11:0.0666667 12:1 13:0.466667 14:1 15:-0.866667 16:-1 17:-1 18:0.333333 19:0.733333 20:0.2 21:-1 22:0.2 23:-0.6 24:-1 25:-0.466667 26:0.866667 27:-0.6 28:-0.0666667 29:-1 30:-0.0666667 31:-0.6 32:-1 33:0.333333 34:-0.0666667 35:-0.733333 36:0.466667 37:-1 38:0.466667 39:-0.733333 40:-1 41:-0.333333 42:-1 43:-1 44:0.466667 45:0.733333 46:0.333333 47:-1 48:-1 49:-1 50:-1 51:-1 52:-0.866667 53:-0.6 54:-0.866667 55:-1 56:-1 57:-1 58:-1 59:-1 60:-1 61:-1 62:-1 63:0.333333 
-0.1210104190998499 0:-1 1:-1 2:-1 3:-0.333333 4:-0.0666667 5:-0.0666667 6:-0.333333 7:-1 8:-1 9:-0.866667 10:0.6 11:1 12:0.733333 13:-0.0666667 14:1 15:-0.333333 16:-1 17:0.733333 18:0.333333 19:-0.0666667 20:-0.6 21:-1 22:-0.6 23:0.2 24:0.333333 25:0.466667 26:-1 27:-0.0666667 28:-1 29:-1 30:-1 31:0.466667 32:0.2 33:-0.866667 34:-1 35:-0.333333 36:-0.0666667 37:-1 38:-0.333333 39:0.333333 40:-1 41:-1 42:-1 43:-0.866667 44:0.866667 45:1 46:1 47:-0.6 48:-1 49:-1 50:-1 51:-1 52:-0.733333 53:0.0666667 54:-0.466667 55:-1 56:0.466667 57:0.466667 58:0.466667 59:-0.466667 60:-1 61:-1 62:-1 63:-0.866667 
-0.4462042644589897 0:-1 1:-1 2:0.2 3:1 4:1 5:1 6:0.866667 7:-0.733333 8:-0.333333 9:0.866667 10:1 11:1 12:0.333333 13:0.0666667 14:0.866667 15:0.466667 16:1 17:0.6 18:1 19:0.2 20:-1 21:-1 22:-0.333333 23:1 24:0.2 25:-1 26:0.466667 27:-0.466667 28:-1 29:-1 30:-0.866667 31:1 32:-1 33:-1 34:0.466667 35:0.0666667 36:-1 37:-1 38:-0.333333 39:1 40:-1 41:-1 42:0.2 43:0.866667 44:0.0666667 45:0.0666667 46:0.866667 47:0.2 48:-1 49:-1 50:-1 51:0.866667 52:1 53:1 54:0.6 55:-1 56:-1 57:-1 58:-1 59:-1 60:-0.333333 61:-0.466667 62:-1 63:-1 
-0.8821131660413314 0:-1 1:-1 2:-1 3:-1 4:0.0666667 5:0.866667 6:1 7:0.0666667 8:-1 9:-1 10:-0.466667 11:0.733333 12:1 13:1 14:1 15:1 16:-1 17:-0.333333 18:1 19:1 20:1 21:0.6 22:0.333333 23:1 24:-0.466667 25:1 26:0.866667 27:0.733333 28:1 29:-0.6 30:-1 31:0.733333 32:0.6 33:0.866667 34:-0.733333 35:-0.0666667 36:1 37:-0.6 38:-1 39:0.733333 40:1 41:-0.466667 42:-1 43:-0.6 44:1 45:1 46:0.6 47:1 48:-0.866667 49:-1 50:-1 51:-1 52:0.6 53:1 54:1 55:1 56:-1 57:-1 58:-1 59:-1 60:-1 61:0.2 62:0.6 63:-0.6 
-1 0:-1 1:-1 2:-1 3:-1 4:-1 5:-1 6:-1 7:-1 8:-1 9:-1 10:-1 11:-0.6 12:-0.0666667 13:-0.0666667 14:-0.466667 15:-1 16:-1 17:-1 18:0.0666667 19:0.866667 20:0.2 21:0.0666667 22:0.866667 23:-1 24:-1 25:0.0666667 26:0.733333 27:0.466667 28:-0.866667 29:-1 30:0.333333 31:-1 32:-0.6 33:0.733333 34:-0.733333 35:-0.333333 36:-0.866667 37:-1 38:-0.0666667 39:-1 40:0.2 41:-0.333333 42:-1 43:-0.2 44:-0.2 45:-0.466667 46:0.866667 47:-1 48:-0.866667 49:-1 50:-1 51:-0.866667 52:0.2 53:1 54:-0.466667 55:-1 56:-1 57:-1 58:-1 59:-1 60:-1 61:-0.6 62:-1 63:-1 
-0.858472547545867 0:-1 1:-1 2:-1 3:-1 4:-0.866667 5:-0.6 6:-0.733333 7:-1 8:-1 9:-1 10:-1 11:0.333333 12:0.733333 13:1 14:1 15:-0.733333 16:-1 17:-1 18:0.733333 19:1 20:0.733333 21:-1 22:-0.0666667 23:0.333333 24:-1 25:0.333333 26:0.466667 27:-0.0666667 28:-0.0666667 29:-1 30:-0.6 31:0.466667 32:-0.6 33:0.733333 34:-0.6 35:-0.6 36:0.333333 37:-1 38:-0.466667 39:0.466667 40:-0.6 41:-0.6 42:-1 43:-1 44:0.733333 45:0.466667 46:0.733333 47:-0.333333 48:-1 49:-1 50:-1 51:-1 52:-0.466667 53:0.466667 54:0.2 55:-1 56:-1 57:-1 58:-1 59:-1 60:-1 61:-1 62:-1 63:-1 
-0.1916579935472377 0:-1 1:-1 2:-1 3:-1 4:-0.6 5:-0.2 6:0.866667 7:0.733333 8:-0.333333 9:0.466667 10:0.733333 11:1 12:1 13:1 14:1 15:1 16:0.466667 17:1 18:1 19:1 20:1 21:1 22:1 23:1 24:0.466667 25:1 26:1 27:1 28:1 29:1 30:1 31:1 32:0.466667 33:0.333333 34:0.0666667 35:0.866667 36:0.333333 37:-0.6 38:-0.733333 39:0.733333 40:0.466667 41:-1 42:-1 43:0.2 44:-0.466667 45:-1 46:-1 47:0.466667 48:0.466667 49:-1 50:-1 51:-0.0666667 52:-0.6 53:-1 54:-1 55:0.466667 56:0.466667 57:-1 58:-1 59:-0.0666667 60:-0.6 61:-1 62:-1 63:0.466667 
-0.4272334094199529 0:0.466667 1:-0.466667 2:-1 3:-0.333333 4:-0.6 5:-1 6:-1 7:1 8:0.466667 9:-1 10:-1 11:0.466667 12:-0.6 13:-1 14:-1 15:1 16:0.466667 17:-1 18:-1 19:0.466667 20:-0.333333 21:-1 22:-1 23:1 24:-0.0666667 25:-1 26:-1 27:0.466667 28:-0.0666667 29:-1 30:-1 31:1 32:-0.0666667 33:-1 34:-1 35:0.466667 36:-0.0666667 37:-1 38:-1 39:1 40:0.466667 41:-1 42:-1 43:0.466667 44:-0.0666667 45:-1 46:-1 47:1 48:0.466667 49:-1 50:-1 51:0.466667 52:-0.2 53:-1 54:-1 55:1 56:0.466667 57:-1 58:-1 59:0.466667 60:-1 61:-1 62:-1 63:1 
-0.3856261068457621 0:-1 1:-0.733333 2:-1 3:-1 4:-0.866667 5:-0.6 6:0.2 7:-0.6 8:-1 9:1 10:1 11:1 12:1 13:1 14:1 15:-0.6 16:-1 17:0.6 18:-1 19:0.6 20:-0.866667 21:-1 22:0.733333 23:-1 24:-0.733333 25:0.466667 26:-1 27:0.466667 28:-1 29:-1 30:0.466667 31:-1 32:-1 33:0.466667 34:-1 35:0.466667 36:-1 37:-1 38:0.466667 39:-1 40:-1 41:0.466667 42:-1 43:0.466667 44:-1 45:-1 46:0.466667 47:-0.733333 48:-0.866667 49:0.466667 50:-1 51:0.466667 52:-1 53:-1 54:0.466667 55:-1 56:-0.866667 57:0.2 58:-1 59:-1 60:-1 61:-1 62:0.466667 63:-1 
-0.8014744080590716 0:-1 1:-1 2:-1 3:-1 4:-1 5:-1 6:-1 7:-1 8:0.2 9:-0.0666667 10:-0.0666667 11:-0.0666667 12:-0.0666667 13:-0.0666667 14:-0.0666667 15:-1 16:0.466667 17:0.333333 18:0.0666667 19:0.733333 20:0.2 21:1 22:1 23:-1 24:0.466667 25:-1 26:-1 27:-0.333333 28:-1 29:-1 30:0.733333 31:-1 32:0.466667 33:-1 34:-1 35:0.333333 36:-1 37:-1 38:-0.0666667 39:-1 40:0.466667 41:-1 42:-0.6 43:0.466667 44:-1 45:-1 46:-0.0666667 47:-1 48:0.2 49:-0.866667 50:-1 51:-0.333333 52:-1 53:-1 54:-0.0666667 55:-1 56:-1 57:-1 58:-1 59:-1 60:-1 61:-1 62:-0.0666667 63:-1 
-1 0:-1 1:-1 2:-1 3:-1 4:-1 5:-1 6:-1 7:-1 8:-1 9:-0.333333 10:-1 11:-1 12:-1 13:-1 14:-1 15:-1 16:-0.2 17:1 18:1 19:1 20:1 21:1 22:1 23:-0.866667 24:-0.0666667 25:-0.0666667 26:-1 27:0.866667 28:-0.733333 29:0.466667 30:0.733333 31:-0.6 32:-0.0666667 33:-0.333333 34:-1 35:0.466667 36:-1 37:-1 38:-0.0666667 39:-0.6 40:-0.0666667 41:-0.466667 42:-1 43:0.466667 44:-1 45:-1 46:-0.0666667 47:-0.6 48:-0.0666667 49:-0.333333 50:-1 51:0.466667 52:-1 53:-1 54:-0.0666667 55:-0.6 56:-0.866667 57:-1 58:-1 59:-0.866667 60:-1 61:-1 62:-0.0666667 63:-0.6 
-1 0:-0.466667 1:0.0666667 2:-0.466667 3:-0.2 4:0.2 5:-0.333333 6:-0.0666667 7:-0.6 8:-0.2 9:-0.0666667 10:-0.0666667 11:0.466667 12:0.333333 13:-0.0666667 14:-0.0666667 15:-0.6 16:-0.6 17:-1 18:-1 19:-0.6 20:-1 21:-1 22:-1 23:-1 24:-0.6 25:-1 26:-0.733333 27:-0.2 28:-0.866667 29:-1 30:-1 31:-1 32:-0.6 33:-1 34:-0.6 35:-0.2 36:-0.6 37:-1 38:-1 39:-1 40:-0.2 41:-1 42:-1 43:-0.6 44:-0.6 45:-0.733333 46:-1 47:-1 48:-0.0666667 49:-0.6 50:-1 51:-0.733333 52:-0.866667 53:-1 54:-1 55:-1 56:-0.6 57:-1 58:-1 59:-1 60:-1 61:-1 62:-1 63:-1 
-0.2002473779324772 0:-1 1:0.733333 2:0.2 3:-0.0666667 4:0.333333 5:-0.0666667 6:0.733333 7:-0.6 8:-1 9:0.466667 10:-0.0666667 11:0.2 12:0.866667 13:-0.0666667 14:0.733333 15:-0.333333 16:-0.866667 17:-0.0666667 18:-1 19:-0.6 20:-0.466667 21:-1 22:-1 23:-1 24:-0.6 25:-0.0666667 26:-1 27:-0.6 28:-0.6 29:-1 30:-1 31:-1 32:-0.6 33:-0.0666667 34:-1 35:-0.2 36:-0.6 37:-1 38:-1 39:-1 40:-0.6 41:-0.0666667 42:-1 43:-0.0666667 44:-0.6 45:-1 46:-1 47:-1 48:-0.6 49:-0.0666667 50:-1 51:-1 52:-1 53:-1 54:-1 55:-1 56:-1 57:-0.866667 58:-1 59:-1 60:-1 61:-1 62:-1 63:-1 
-0.1172050695819077 0:-0.0666667 1:-0.466667 2:-0.333333 3:-0.466667 4:-0.6 5:-0.333333 6:-0.6 7:-1 8:-0.6 9:0.466667 10:0.866667 11:0.6 12:0.6 13:0.866667 14:1 15:-0.0666667 16:-0.333333 17:-0.6 18:-1 19:-1 20:-0.0666667 21:-1 22:-1 23:-1 24:-0.0666667 25:-0.6 26:-0.733333 27:-1 28:-0.0666667 29:-0.466667 30:-1 31:-1 32:-0.2 33:-0.6 34:-0.6 35:-1 36:-0.2 37:-0.733333 38:-1 39:-1 40:-0.333333 41:-0.6 42:-0.733333 43:-0.6 44:-0.6 45:-1 46:-1 47:-1 48:0.0666667 49:-0.6 50:-1 51:-0.733333 52:-0.733333 53:-1 54:-1 55:-1 56:-0.733333 57:-0.866667 58:-1 59:-1 60:-1 61:-1 62:-1 63:-1 
-0.1334097227195962 0:0.333333 1:1 2:1 3:1 4:1 5:1 6:1 7:0.866667 8:1 9:1 10:1 11:0.866667 12:1 13:1 14:1 15:1 16:1 17:-0.0666667 18:-1 19:-1 20:0.733333 21:-0.2 22:-0.866667 23:-0.6 24:1 25:-0.0666667 26:-1 27:-1 28:0.6 29:-0.6 30:-1 31:-1 32:1 33:-0.0666667 34:-1 35:-1 36:1 37:-0.6 38:-1 39:-1 40:1 41:-0.0666667 42:-1 43:-0.733333 44:1 45:-0.6 46:-1 47:-1 48:1 49:-0.0666667 50:-1 51:-1 52:-0.2 53:-1 54:-1 55:-1 56:-0.733333 57:-0.866667 58:-1 59:-1 60:-1 61:-1 62:-1 63:-1 
-0.3792887787245948 0:-1 1:-1 2:-1 3:-1 4:-1 5:-1 6:-1 7:-1 8:-0.733333 9:-0.6 10:-0.6 11:-0.733333 12:-0.733333 13:-0.6 14:-0.6 15:-0.866667 16:1 17:1 18:1 19:1 20:1 21:1 22:1 23:-0.0666667 24:0.866667 25:-0.866667 26:-1 27:0.333333 28:-0.6 29:-0.866667 30:-0.6 31:-0.866667 32:0.466667 33:-1 34:-1 35:0.0666667 36:-1 37:-1 38:-1 39:-1 40:0.466667 41:-1 42:-1 43:0.466667 44:-0.733333 45:-1 46:-1 47:-1 48:0.866667 49:-1 50:-1 51:0.333333 52:-0.6 53:-1 54:-1 55:-1 56:0.866667 57:-1 58:-1 59:-0.6 60:-1 61:-1 62:-1 63:-1 
-0.8129824831045239 0:-1 1:-1 2:-1 3:-1 4:-1 5:-1 6:-0.6 7:-0.6 8:-0.866667 9:-0.0666667 10:0.0666667 11:0.333333 12:0.733333 13:1 14:1 15:-0.0666667 16:-0.6 17:0.866667 18:0.466667 19:0.6 20:0.466667 21:-0.6 22:-0.6 23:-0.866667 24:-0.6 25:0.0666667 26:-1 27:-1 28:-0.466667 29:-1 30:-1 31:-1 32:-0.6 33:-0.0666667 34:-1 35:-1 36:-0.2 37:-1 38:-1 39:-1 40:-0.6 41:-0.0666667 42:-1 43:-0.866667 44:0.333333 45:-1 46:-0.733333 47:-0.2 48:-0.6 49:0.2 50:-1 51:-0.6 52:0.466667 53:-1 54:-0.6 55:-0.0666667 56:-0.6 57:0.466667 58:-1 59:-0.866667 60:-0.333333 61:-1 62:-1 63:-1 
-1 0:-0.6 1:-0.0666667 2:-0.0666667 3:-0.0666667 4:-0.2 5:-0.0666667 6:-0.0666667 7:-0.6 8:-0.0666667 9:0.733333 10:0.466667 11:0.333333 12:0.466667 13:0.466667 14:0.2 15:-0.333333 16:-0.0666667 17:-0.6 18:-1 19:-0.733333 20:-0.0666667 21:-1 22:-1 23:-1 24:-0.0666667 25:-0.6 26:-1 27:-1 28:-0.0666667 29:-0.6 30:-1 31:-1 32:-0.0666667 33:-0.6 34:-0.2 35:-0.6 36:-0.0666667 37:-1 38:-1 39:-1 40:-0.0666667 41:-0.6 42:-0.2 43:-0.6 44:-0.0666667 45:-1 46:-1 47:-1 48:-0.0666667 49:-0.2 50:-1 51:-0.866667 52:-0.466667 53:-1 54:-1 55:-1 56:-0.866667 57:-0.866667 58:-1 59:-1 60:-1 61:-1 62:-1 63:-1 
-0.2445662459272269 0:-1 1:-0.466667 2:-0.0666667 3:-0.0666667 4:-0.0666667 5:-0.0666667 6:-0.866667 7:-1 8:-0.333333 9:0.866667 10:0.466667 11:0.466667 12:0.466667 13:0.6 14:0.466667 15:-1 16:0.0666667 17:-0.2 18:-1 19:-1 20:-1 21:-1 22:0.733333 23:-0.6 24:1 25:-0.6 26:-1 27:-1 28:-1 29:-1 30:0.0666667 31:-0.6 32:1 33:-0.466667 34:-1 35:-0.0666667 36:-0.733333 37:-1 38:0.0666667 39:-0.6 40:0.0666667 41:0.733333 42:-1 43:0.466667 44:0.6 45:0.0666667 46:1 47:-0.6 48:-0.733333 49:0.466667 50:-1 51:0.0666667 52:0.866667 53:0.466667 54:0.2 55:-1 56:-1 57:-1 58:-1 59:-1 60:-0.466667 61:-1 62:-1 63:-1 
-0.5982089476190778 0:-1 1:-1 2:-1 3:-1 4:-1 5:-1 6:-0.866667 7:-0.866667 8:-1 9:-0.2 10:0.466667 11:0.466667 12:0.466667 13:0.466667 14:-0.6 15:-1 16:-0.866667 17:0.466667 18:0.0666667 19:-0.0666667 20:-0.0666667 21:-0.466667 22:0.2 23:-0.866667 24:0.0666667 25:-0.866667 26:-1 27:-1 28:-0.866667 29:-1 30:0.2 31:-1 32:-0.0666667 33:-0.866667 34:-0.6 35:0.0666667 36:-1 37:-0.466667 38:-0.0666667 39:-0.866667 40:0.333333 41:-0.866667 42:-0.733333 43:0.2 44:-1 45:-0.866667 46:0.333333 47:-1 48:-0.2 49:-0.2 50:-1 51:0.2 52:-0.6 53:-0.6 54:0.333333 55:-1 56:-0.866667 57:0.333333 58:-1 59:1 60:1 61:0.2 62:-0.733333 63:-1 
-0.2790468708296128 0:-1 1:0.333333 2:0.6 3:1 4:1 5:0.466667 6:-0.2 7:-0.6 8:-1 9:0.733333 10:-0.333333 11:-0.0666667 12:0.2 13:-0.0666667 14:0.866667 15:-0.866667 16:-0.733333 17:-0.2 18:-1 19:-1 20:-1 21:-1 22:-0.2 23:-0.6 24:-0.333333 25:-0.6 26:-1 27:-0.2 28:-1 29:-1 30:-0.6 31:-0.6 32:-0.6 33:-0.333333 34:-1 35:0.466667 36:-1 37:-1 38:-0.466667 39:-0.6 40:-0.6 41:0.733333 42:-1 43:0.466667 44:-0.866667 45:-1 46:0.466667 47:-0.733333 48:-1 49:0.866667 50:-0.6 51:0.466667 52:1 53:1 54:0.733333 55:-1 56:-1 57:-0.466667 58:-0.866667 59:-0.333333 60:-0.6 61:-0.6 62:-0.866667 63:-1 
-0.7041804613660962 0:-1 1:-1 2:-1 3:-1 4:-1 5:-1 6:-1 7:-1 8:-1 9:-0.333333 10:0.2 11:-0.2 12:0.466667 13:0.2 14:-0.866667 15:-1 16:-0.866667 17:0.866667 18:0.466667 19:0.466667 20:0.733333 21:0.733333 22:0.466667 23:-1 24:0.2 25:-0.0666667 26:-1 27:-1 28:-1 29:-0.866667 30:0.466667 31:-0.6 32:0.466667 33:-1 34:-1 35:-0.6 36:-1 37:-1 38:-0.0666667 39:-0.6 40:0.466667 41:-1 42:-1 43:-0.0666667 44:-1 45:-1 46:-0.0666667 47:-0.6 48:0.333333 49:-0.466667 50:-1 51:0.866667 52:-1 53:-0.866667 54:0.733333 55:-1 56:-0.2 57:0.733333 58:-1 59:1 60:1 61:1 62:0.866667 63:-1 
-0.4520664862580172 0:-1 1:-1 2:-1 3:-1 4:-1 5:-1 6:-1 7:-1 8:-1 9:-0.466667 10:0.466667 11:0.466667 12:0.466667 13:0.466667 14:-0.466667 15:-1 16:-1 17:0.866667 18:0.466667 19:0.466667 20:0.466667 21:0.466667 22:0.6 23:-1 24:-0.6 25:-0.0666667 26:-1 27:-1 28:-1 29:-1 30:0.466667 31:-1 32:-0.0666667 33:-0.6 34:-1 35:-0.0666667 36:-0.733333 37:-1 38:-0.0666667 39:-1 40:-0.866667 41:-0.0666667 42:-1 43:-0.0666667 44:-0.6 45:-1 46:0.733333 47:-1 48:-1 49:0.866667 50:-0.6 51:-0.0666667 52:1 53:1 54:0.0666667 55:-1 56:-1 57:-0.733333 58:-1 59:-0.866667 60:-0.6 61:-0.6 62:-1 63:-1 
