svm_type c_svc
kernel_type rbf
gamma 0.00348432
nr_class 2
total_sv 183
rho -0.090766
label 8 11
probA -5.35454
probB 0.347622
nr_sv 91 92
SV
1 0:0 1:0.00622765 2:0.0250885 3:0.723297 4:0.245369 5:0 6:0 7:0 8:0 9:0 10:0.00909077 11:0.0834836 12:0.677111 13:0.206057 14:0.0193936 15:0.00484841 16:0 17:0 18:0 19:0 20:0.0515402 21:0.46078 22:0.443828 23:0.0438349 24:0 25:0 26:0 27:0 28:0 29:0 30:0.143983 31:0.814215 32:0.0101263 33:0.0237334 34:0.00791114 35:0 36:0.0401598 37:0.0491958 38:0.328708 39:0.441557 40:0.0319271 41:0 42:0 43:0 44:0.108432 45:0 46:0.0194442 47:0.16327 48:0.562237 49:0.156274 50:0 51:0 52:0.00432094 53:0.0944435 54:0 55:0 56:0.0382109 57:0.382515 58:0.509207 59:0.0441729 60:0.00691048 61:0.0189699 62:0 63:0 64:0.0033783 65:0.0101349 66:0 67:0.56823 68:0.357424 69:0.0574311 70:0.0033783 71:0 72:0 73:0 74:0 75:0.00935645 76:0.0140347 77:0.118418 78:0.576884 79:0.278647 80:0.0026315 81:0 82:0 83:0 84:0 85:0.0441242 86:0.394 87:0.392082 88:0.169782 89:0 90:0 91:0 92:0 93:0.0058631 94:0.462207 95:0.460416 96:0.0714972 97:0 98:0 99:0 100:0.00118481 101:0.00355442 102:0.0708514 103:0.89595 104:0.0284353 105:0 106:0 107:0 108:0.00942384 109:0.197377 110:0.397372 111:0.0659669 112:0 113:0.10183 114:0.112824 115:0.0157064 116:0.0994738 117:0.0144734 118:0.0644723 119:0.143418 120:0.148681 121:0.419728 122:0.191662 123:0.0175435 124:0 125:0 126:0 127:0 128:0 129:0.114247 130:0.837456 131:0.0482843 132:0 133:0 134:0 135:0 136:0 137:0 138:0.187347 139:0.809024 140:0.0036144 141:0 142:0 143:0 144:0 145:0.214561 146:0.334123 147:0.291733 148:0.129128 149:0 150:0.0106519 151:0.0197822 152:0 153:0 154:0.0140038 155:0.235106 156:0.492993 157:0.257887 158:0 159:0 160:0 161:0 162:0 163:0.00404152 164:0.0211314 165:0.194224 166:0.726666 167:0.0539255 168:0 169:0 170:0 171:0 172:0 173:0 174:0.0428564 175:0.901266 176:0.0558598 177:0 178:0 179:0 180:0.103331 181:0.182377 182:0 183:0 184:0 185:0.00523797 186:0.207138 187:0.318802 188:0.183091 189:0.059513 190:0.154653 191:0.0206474 192:0 193:0 194:0.0542499 195:0.442704 196:0.20951 197:0.0587033 198:0 199:0.0249975 200:0.0749925 201:0.0359964 202:0.182982 203:0.252975 204:0.287971 205:0.117988 206:0.0219978 207:0.0815682 208:0.0434153 209:0.0592027 210:0.0907775 211:0.219708 212:0.286804 213:0.165768 214:0.0236811 215:0.0289436 216:0.00518121 217:0 218:0 219:0 220:0.0668377 221:0.746613 222:0.181342 223:0 224:0 225:0 226:0 227:0 228:0.0148303 229:0.115676 230:0.75917 231:0.0995749 232:0.0107343 233:0 234:0 235:0 236:0 237:0.0104729 238:0.664069 239:0.325447 240:0 241:0 242:0 243:0 244:0 245:0 246:0.14426 247:0.807776 248:0.0479502 249:0 250:0 251:0 252:0 253:0 254:0 255:0 256:0.164058 257:0.608838 258:0.203641 259:0.0234369 260:0 261:0.0228009 262:0.0161235 263:0.013192 264:0 265:0.294458 266:0.578492 267:0.00635169 268:0.0506506 269:0.017915 270:0 271:0 272:0.0079709 273:0.114926 274:0.783177 275:0.0939117 276:0 277:0 278:0 279:0 280:0.00173007 281:0.00519022 282:0.198612 283:0.79445 284:0 285:0 286:0 287:0 
1 0:0 1:0.0338524 2:0.120306 3:0.381751 4:0.120306 5:0.240612 6:0.10312 7:0 8:0 9:0.234811 10:0.26472 11:0.0361591 12:0.0401768 13:0.135262 14:0.0745502 15:0.0602652 16:0.0736574 17:0.0803536 18:0.150675 19:0.52035 20:0.293658 21:0.0352933 22:0 23:0 24:0 25:0 26:0 27:0 28:0 29:0 30:0.544423 31:0.449585 32:0.00595215 33:0 34:0 35:0 36:0 37:0 38:0 39:0 40:0 41:0.154976 42:0.498537 43:0.309952 44:0.0365138 45:0.0319758 46:0.0482544 47:0.0186041 48:0 49:0.0441848 50:0.136333 51:0.221214 52:0.273248 53:0.226156 54:0.062469 55:0.0174332 56:0 57:0 58:0 59:0.144792 60:0.52566 61:0.208472 62:0.0411617 63:0.0677277 64:0.0129479 65:0.0388438 66:0.0358559 67:0.335053 68:0.429473 69:0.0631462 70:0.0169319 71:0 72:0.0695476 73:0.0828932 74:0.0986824 75:0.0609011 76:0 77:0 78:0.440405 79:0.179884 80:0.0676679 81:0.150483 82:0.134302 83:0 84:0 85:0 86:0 87:0.284785 88:0.249187 89:0.181227 90:0 91:0.0213408 92:0.0640224 93:0.0097558 94:0.0420719 95:0.237493 96:0.446938 97:0.1753 98:0.00304869 99:0.0290689 100:0 101:0 102:0 103:0.403767 104:0.498823 105:0.068312 106:0 107:0 108:0 109:0 110:0.20636 111:0.668533 112:0.125089 113:0 114:0 115:0 116:0 117:0.0435613 118:0.369735 119:0.369949 120:0.124246 121:0.0366945 122:0 123:0.0193129 124:0.024463 125:0.0120169 126:0 127:0.0312495 128:0.1684 129:0.632628 130:0.109199 131:0.01684 132:0.0124998 133:0.0291662 134:0 135:0 136:0 137:0 138:0.145507 139:0.785086 140:0.0489786 141:0.0153058 142:0.00510194 143:0 144:0 145:0.0566844 146:0.0421499 147:0.228482 148:0.326153 149:0.346502 150:0 151:0 152:0 153:0.0333325 154:0.0721335 155:0.128903 156:0.122653 157:0.236713 158:0.11458 159:0.0354157 160:0.115882 161:0.140361 162:0.513213 163:0.198343 164:0.110742 165:0 166:0 167:0 168:0 169:0 170:0.177682 171:0.418493 172:0.0669589 173:0.112773 174:0.24625 175:0.137882 176:0 177:0 178:0 179:0.0176208 180:0.145056 181:0.00610456 182:0 183:0 184:0.112498 185:0.398686 186:0.189532 187:0.0638072 188:0.0843011 189:0.0903982 190:0.0695986 191:0.0781984 192:0.0337993 193:0.0665987 194:0.163797 195:0.119998 196:0.123998 197:0.253595 198:0.0246832 199:0.013291 200:0 201:0.0318983 202:0.0672143 203:0.379869 204:0.3343 205:0.0550626 206:0.0936697 207:0.0432564 208:0 209:0 210:0 211:0.0793883 212:0.54923 213:0.238547 214:0.0613224 215:0.0282439 216:0.0904735 217:0.0880926 218:0.242552 219:0.538377 220:0.040475 221:0 222:0 223:0 224:0 225:0.151109 226:0.0817447 227:0.253488 228:0.085078 229:0 230:0 231:0 232:0.126823 233:0.301741 234:0.0236211 235:0 236:0.00708634 237:0.174403 238:0.0578717 239:0.233849 240:0.264163 241:0.187001 242:0.0519665 243:0 244:0 245:0 246:0.032866 247:0.279011 248:0.562218 249:0.0978987 250:0.027971 251:0 252:0 253:0 254:0.29526 255:0.657072 256:0.0476335 257:0 258:0 259:0 260:0 261:0.063959 262:0.151943 263:0.426609 264:0.0392844 265:0.0766209 266:0.132788 267:0.0633096 268:0 269:0.0454531 270:0 271:0.00595214 272:0.137693 273:0.655133 274:0.169438 275:0 276:0.00158724 277:0.0301575 278:0 279:0 280:0 281:0 282:0.290559 283:0.596334 284:0.113035 285:0 286:0 287:0 
1 0:0.377438 1:0.199986 2:0 3:0 4:0 5:0 6:0 7:0.107035 8:0.315471 9:0.384786 10:0.527182 11:0.0626543 12:0 13:0.0253149 14:0 15:0 16:0 17:0 18:0.114282 19:0.523111 20:0.342165 21:0.0204075 22:0 23:0 24:0 25:0 26:0 27:0 28:0.0327842 29:0.208999 30:0.486026 31:0.272109 32:0 33:0 34:0 35:0 36:0.663007 37:0 38:0 39:0 40:0 41:0 42:0 43:0.0749959 44:0.261942 45:0.109085 46:0.060603 47:0.0323216 48:0 49:0.0979748 50:0.113126 51:0.175244 52:0.160598 53:0.250997 54:0.0915003 55:0.00653573 56:0.0196072 57:0 58:0 59:0.073527 60:0.358158 61:0.306853 62:0.143786 63:0 64:0 65:0 66:0.0208848 67:0.0474654 68:0.348079 69:0.38352 70:0.199987 71:0 72:0.129022 73:0.112894 74:0 75:0 76:0 77:0.0548343 78:0.336263 79:0.289493 80:0.0774131 81:0.00714263 82:0.00584397 83:0.244473 84:0.365897 85:0.110061 86:0.217201 87:0.0396091 88:0.00973994 89:0 90:0 91:0.0059522 92:0.0446415 93:0.674385 94:0.221422 95:0 96:0.0267849 97:0.010714 98:0.016071 99:0.0129028 100:0 101:0 102:0.144511 103:0.694171 104:0.145479 105:0.00290313 106:0 107:0 108:0.394855 109:0.605102 110:0 111:0 112:0 113:0 114:0 115:0 116:0 117:0.199994 118:0.42418 119:0.300958 120:0.0167737 121:0.0154834 122:0.0103222 123:0 124:0 125:0.032257 126:0.00602391 127:0 128:0.15361 129:0.615945 130:0.200295 131:0 132:0.0180717 133:0.00602391 134:0 135:0 136:0 137:0 138:0.707613 139:0.292361 140:0 141:0 142:0 143:0 144:0.0914027 145:0.671068 146:0.159369 147:0 148:0 149:0.0164056 150:0.00703098 151:0.0164056 152:0.0382798 153:0.0591196 154:0.249654 155:0.364515 156:0.175332 157:0.00270261 158:0 159:0 160:0.0432418 161:0.105402 162:0.0617756 163:0.0415281 164:0.344208 165:0.353299 166:0.016322 167:0.0361563 168:0.0580567 169:0.0811967 170:0.00743786 171:0.0581362 172:0.0174408 173:0.075577 174:0.287193 175:0.437765 176:0.102901 177:0.020929 178:0 179:0 180:0.129022 181:0 182:0 183:0 184:0 185:0 186:0.0483832 187:0.447545 188:0.37497 189:0.0539973 190:0.0184991 191:0.0464977 192:0.0209989 193:0 194:0.0424979 195:0.178991 196:0.382481 197:0.255987 198:0.0695922 199:0.0182426 200:0 201:0 202:0 203:0 204:0.373636 205:0.328367 206:0.210128 207:0.122718 208:0.0363609 209:0.153019 210:0.128021 211:0.0295432 212:0.163624 213:0.279524 214:0.0113628 215:0.0757518 216:0.133713 217:0.0406953 218:0 219:0 220:0 221:0.109877 222:0.202314 223:0.290099 224:0.223243 225:0.00775829 226:0.0439636 227:0.0482738 228:0.239214 229:0.389638 230:0.197836 231:0.0387914 232:0 233:0.0344813 234:0.0333322 235:0.0379987 236:0.0603313 237:0.158328 238:0.0816639 239:0.28999 240:0.246325 241:0.0919969 242:0 243:0 244:0 245:0 246:0.0673166 247:0.525125 248:0.33351 249:0.0740203 250:0 251:0 252:0.313796 253:0.0265929 254:0 255:0 256:0 257:0 258:0.0382938 259:0.291458 260:0.329752 261:0.138952 262:0.0915525 263:0.262321 264:0.293487 265:0.135705 266:0 267:0 268:0 269:0.077917 270:0.0142853 271:0.134736 272:0.11136 273:0.486348 274:0.0714263 275:0.0749976 276:0.0418818 277:0.0363625 278:0.0285705 279:0 280:0 281:0 282:0.312606 283:0.642687 284:0.0155332 285:0.0218436 286:0.0072812 287:0 
1 0:0 1:0 2:0 3:0 4:0 5:0.42743 6:0.408804 7:0.163717 8:0 9:0 10:0 11:0 12:0 13:0.033983 14:0.635522 15:0.221866 16:0.10859 17:0 18:0 19:0 20:0.0999934 21:0.113808 22:0.289455 23:0.393395 24:0.103283 25:0 26:0 27:0 28:0.173044 29:0.0961354 30:0 31:0.174966 32:0.199962 33:0.182657 34:0.0192271 35:0.153817 36:0.107402 37:0.119439 38:0.553678 39:0.203231 40:0.016203 41:0 42:0 43:0 44:0 45:0.141118 46:0.0403193 47:0.232239 48:0.262076 49:0.104024 50:0.0266108 51:0.0403193 52:0.129022 53:0.0241916 54:0.0215676 55:0.0696044 56:0.173031 57:0.329886 58:0.213715 59:0.126955 60:0.0529386 61:0.0122543 62:0 63:0 64:0 65:0 66:0.158261 67:0.744459 68:0.0972403 69:0 70:0 71:0 72:0.173669 73:0.164021 74:0.26752 75:0.105254 76:0.0964828 77:0 78:0 79:0.150864 80:0.0421016 81:0 82:0.0113628 83:0.0643891 84:0.10681 85:0.256041 86:0.224983 87:0.294675 88:0.0416635 89:0 90:0.0554333 91:0.0937475 92:0.0247276 93:0 94:0 95:0.0285318 96:0.300264 97:0.29347 98:0.203799 99:0 100:0 101:0.102358 102:0.0692886 103:0.374001 104:0.226369 105:0.131491 106:0.0161411 107:0.0803118 108:0.178561 109:0 110:0 111:0 112:0 113:0 114:0.00476162 115:0.316648 116:0.49997 117:0.263713 118:0.263222 119:0.177932 120:0.129405 121:0.0823489 122:0.079898 123:0.0034312 124:0 125:0 126:0 127:0 128:0 129:0 130:0.0580821 131:0.675429 132:0.266459 133:0 134:0 135:0 136:0 137:0 138:0.0323296 139:0.802977 140:0.164655 141:0 142:0 143:0 144:0.571817 145:0.332023 146:0.0961118 147:0 148:0 149:0 150:0 151:0 152:0 153:0.271015 154:0 155:0.0327088 156:0.221485 157:0.0691556 158:0.064483 159:0.0490631 160:0.125695 161:0.166347 162:0.0133329 163:0.0154541 164:0.0536347 165:0.651495 166:0.266053 167:0 168:0 169:0 170:0 171:0.00869527 172:0 173:0 174:0.0121734 175:0.866484 176:0.112604 177:0 178:0 179:0 180:0.105115 181:0.125625 182:0.192283 183:0.179464 184:0.0487117 185:0.0922959 186:0.0384566 187:0.10896 188:0.10896 189:0.208225 190:0.259443 191:0.362489 192:0.0996921 193:0.0295723 194:0.0100607 195:0.00609737 196:0.0243895 197:0 198:0.122241 199:0.0937245 200:0.312922 201:0.391247 202:0.0798464 203:0 204:0 205:0 206:0 207:0 208:0 209:0 210:0 211:0.797358 212:0.165292 213:0.00559681 214:0.0152979 215:0.0164173 216:0.169209 217:0.151263 218:0.119215 219:0.141008 220:0.0858864 221:0.0538392 222:0.0807589 223:0.0269196 224:0.171773 225:0 226:0 227:0 228:0.00752668 229:0.0333324 230:0.262627 231:0.315852 232:0.220962 233:0.159673 234:0 235:0 236:0 237:0 238:0.317877 239:0.34087 240:0.188318 241:0.125545 242:0.0273718 243:0 244:0 245:0 246:0.212294 247:0.787679 248:0 249:0 250:0 251:0 252:0.355197 253:0.0626819 254:0 255:0 256:0 257:0 258:0 259:0.0567122 260:0.525334 261:0.0486077 262:0.0590237 263:0.0867995 264:0.105548 265:0.284702 266:0.331921 267:0 268:0.00833275 269:0.0749948 270:0 271:0 272:0 273:0.0499982 274:0.731495 275:0.21847 276:0 277:0 278:0 279:0 280:0 281:0 282:0.0174148 283:0.817932 284:0.156171 285:0.00842649 286:0 287:0 
1 0:0 1:0 2:0 3:0 4:0 5:0.42743 6:0.408804 7:0.163717 8:0 9:0 10:0 11:0 12:0 13:0.033983 14:0.635522 15:0.221866 16:0.10859 17:0 18:0 19:0 20:0.0999934 21:0.113808 22:0.289455 23:0.393395 24:0.103283 25:0 26:0 27:0 28:0.173044 29:0.0961354 30:0 31:0.174966 32:0.199962 33:0.182657 34:0.0192271 35:0.153817 36:0.107402 37:0.119439 38:0.553678 39:0.203231 40:0.016203 41:0 42:0 43:0 44:0 45:0.141118 46:0.0403193 47:0.232239 48:0.262076 49:0.104024 50:0.0266108 51:0.0403193 52:0.129022 53:0.0241916 54:0.0215676 55:0.0696044 56:0.173031 57:0.329886 58:0.213715 59:0.126955 60:0.0529386 61:0.0122543 62:0 63:0 64:0 65:0 66:0.158261 67:0.744459 68:0.0972403 69:0 70:0 71:0 72:0.173669 73:0.164021 74:0.26752 75:0.105254 76:0.0964828 77:0 78:0 79:0.150864 80:0.0421016 81:0 82:0.0113628 83:0.0643891 84:0.10681 85:0.256041 86:0.224983 87:0.294675 88:0.0416635 89:0 90:0.0554333 91:0.0937475 92:0.0247276 93:0 94:0 95:0.0285318 96:0.300264 97:0.29347 98:0.203799 99:0 100:0 101:0.102358 102:0.0692886 103:0.374001 104:0.226369 105:0.131491 106:0.0161411 107:0.0803118 108:0.178561 109:0 110:0 111:0 112:0 113:0 114:0.00476162 115:0.316648 116:0.49997 117:0.263713 118:0.263222 119:0.177932 120:0.129405 121:0.0823489 122:0.079898 123:0.0034312 124:0 125:0 126:0 127:0 128:0 129:0 130:0.0580821 131:0.675429 132:0.266459 133:0 134:0 135:0 136:0 137:0 138:0.0323296 139:0.802977 140:0.164655 141:0 142:0 143:0 144:0.571817 145:0.332023 146:0.0961118 147:0 148:0 149:0 150:0 151:0 152:0 153:0.271015 154:0 155:0.0327088 156:0.221485 157:0.0691556 158:0.064483 159:0.0490631 160:0.125695 161:0.166347 162:0.0133329 163:0.0154541 164:0.0536347 165:0.651495 166:0.266053 167:0 168:0 169:0 170:0 171:0.00869527 172:0 173:0 174:0.0121734 175:0.866484 176:0.112604 177:0 178:0 179:0 180:0.105115 181:0.125625 182:0.192283 183:0.179464 184:0.0487117 185:0.0922959 186:0.0384566 187:0.10896 188:0.10896 189:0.208225 190:0.259443 191:0.362489 192:0.0996921 193:0.0295723 194:0.0100607 195:0.00609737 196:0.0243895 197:0 198:0.122241 199:0.0937245 200:0.312922 201:0.391247 202:0.0798464 203:0 204:0 205:0 206:0 207:0 208:0 209:0 210:0 211:0.797358 212:0.165292 213:0.00559681 214:0.0152979 215:0.0164173 216:0.169209 217:0.151263 218:0.119215 219:0.141008 220:0.0858864 221:0.0538392 222:0.0807589 223:0.0269196 224:0.171773 225:0 226:0 227:0 228:0.00752668 229:0.0333324 230:0.262627 231:0.315852 232:0.220962 233:0.159673 234:0 235:0 236:0 237:0 238:0.317877 239:0.34087 240:0.188318 241:0.125545 242:0.0273718 243:0 244:0 245:0 246:0.212294 247:0.787679 248:0 249:0 250:0 251:0 252:0.355197 253:0.0626819 254:0 255:0 256:0 257:0 258:0 259:0.0567122 260:0.525334 261:0.0486077 262:0.0590237 263:0.0867995 264:0.105548 265:0.284702 266:0.331921 267:0 268:0.00833275 269:0.0749948 270:0 271:0 272:0 273:0.0499982 274:0.731495 275:0.21847 276:0 277:0 278:0 279:0 280:0 281:0 282:0.0174148 283:0.817932 284:0.156171 285:0.00842649 286:0 287:0 
1 0:0 1:0.0350862 2:0.00877155 3:0.22806 4:0.676286 5:0.00789439 6:0 7:0.0105259 8:0.0333319 9:0.0372331 10:0.101061 11:0.367012 12:0 13:0.153985 14:0.091221 15:0.0991995 16:0.0864339 17:0.0638281 18:0.168033 19:0.283852 20:0.179425 21:0.102845 22:0.0427202 23:0.0822759 24:0.0775292 25:0 26:0.0632891 27:0 28:0 29:0.13807 30:0.421321 31:0.385542 32:0.0229353 33:0.0112383 34:0.0208711 35:0 36:0.187294 37:0.0904726 38:0 39:0.190469 40:0.20396 41:0.0619023 42:0.0357129 43:0.081346 44:0.148804 45:0.149685 46:0.270777 47:0.192341 48:0.243434 49:0 50:0 51:0 52:0 53:0.143748 54:0.301339 55:0.224659 56:0.092823 57:0.0807157 58:0.0493263 59:0 60:0 61:0.0322863 62:0.218829 63:0.0872227 64:0.323781 65:0.233035 66:0.00792934 67:0.0370036 68:0.0511002 69:0.0627739 70:0.0834783 71:0.113654 72:0.144062 73:0.243634 74:0.229228 75:0.0889793 76:0.0415237 77:0.0745731 78:0.158892 79:0.019067 80:0 81:0.117103 82:0.0769724 83:0 84:0 85:0 86:0.140952 87:0.493906 88:0.0429269 89:0.128123 90:0 91:0.0234592 92:0.0191939 93:0 94:0.0341224 95:0.0933627 96:0.113267 97:0.474633 98:0.241937 99:0 100:0 101:0 102:0 103:0.00916206 104:0.171723 105:0.537944 106:0.281144 107:0 108:0.137493 109:0.0548051 110:0.152877 111:0.0836498 112:0.111533 113:0.123552 114:0.143743 115:0.0519206 116:0.140378 117:0.125241 118:0.0524263 119:0.204204 120:0.0504846 121:0.0695782 122:0.184625 123:0.16634 124:0.087539 125:0.059546 126:0.194647 127:0.24325 128:0.22953 129:0.0209297 130:0.00186042 131:0.0167438 132:0.18953 133:0.024418 134:0.0790679 135:0 136:0.00757547 137:0.0348472 138:0.115147 139:0.144691 140:0.573463 141:0.124238 142:0 143:0 144:0.424965 145:0.103325 146:0.104991 147:0.0533289 148:0.0833264 149:0.0591617 150:0.0791601 151:0.028331 152:0.0633281 153:0.254751 154:0.280057 155:0.39708 156:0.0680971 157:0 158:0 159:0 160:0 161:0 162:0.060395 163:0.409399 164:0.442567 165:0.0810218 166:0.000660055 167:0.0059405 168:0 169:0 170:0 171:0 172:0.0345816 173:0.235443 174:0.604458 175:0.125503 176:0 177:0 178:0 179:0 180:0.999927 181:0 182:0 183:0 184:0 185:0 186:0 187:0 188:0 189:0.999974 190:0 191:0 192:0 193:0 194:0 195:0 196:0 197:0 198:0 199:0 200:0 201:0 202:0 203:0 204:0 205:0 206:0 207:0.99191 208:0.00186333 209:0 210:0 211:0 212:0 213:0 214:0.00279499 215:0.0034161 216:0.999962 217:0 218:0 219:0 220:0 221:0 222:0 223:0 224:0 225:0.999974 226:0 227:0 228:0 229:0 230:0 231:0 232:0 233:0 234:0 235:0 236:0 237:0 238:0 239:0 240:0 241:0 242:0 243:0.999983 244:0 245:0 246:0 247:0 248:0 249:0 250:0 251:0 252:0.999963 253:0 254:0 255:0 256:0 257:0 258:0 259:0 260:0 261:0.999965 262:0 263:0 264:0 265:0 266:0 267:0 268:0 269:0 270:0 271:0 272:0 273:0 274:0 275:0 276:0 277:0 278:0 279:0.999978 280:0 281:0 282:0 283:0 284:0 285:0 286:0 287:0 
1 0:0.29205 1:0.263816 2:0.385283 3:0 4:0 5:0 6:0 7:0 8:0.0588218 9:0 10:0.0191996 11:0.325594 12:0.349793 13:0.127197 14:0.0325993 15:0.0621988 16:0.0293994 17:0.0539989 18:0 19:0.00562366 20:0.346213 21:0.648153 22:0 23:0 24:0 25:0 26:0 27:0 28:0 29:0.0342804 30:0.667046 31:0.298657 32:0 33:0 34:0 35:0 36:0.222361 37:0.00789448 38:0 39:0 40:0 41:0 42:0 43:0.0684188 44:0.701293 45:0 46:0.133655 47:0.18735 48:0.00583646 49:0 50:0.0149803 51:0.0688703 52:0.381121 53:0.208167 54:0 55:0.14614 56:0.13472 57:0 58:0 59:0.0623447 60:0.160337 61:0.406321 62:0.0901221 63:0.0137491 64:0.0299981 65:0.0968689 66:0.295607 67:0.457471 68:0.0187488 69:0.0306231 70:0.0568715 71:0 72:0.0135744 73:0 74:0 75:0 76:0.0348408 77:0.22737 78:0.335513 79:0.285966 80:0.102713 81:0.00468075 82:0.00808493 83:0.0127657 84:0.0382971 85:0.0314887 86:0.352971 87:0.305313 88:0.221272 89:0.0251058 90:0.0222926 91:0 92:0 93:0.00573239 94:0.0579609 95:0.164966 96:0.408114 97:0.333753 98:0.00716549 99:0.0252521 100:0.00841737 101:0.031986 102:0.00168347 103:0.339388 104:0.356896 105:0.144274 106:0.0617835 107:0.0303025 108:0.0696817 109:0.194792 110:0.545463 111:0 112:0.02647 113:0.0260175 114:0.0769213 115:0.0606321 116:0 117:0.0738282 118:0.292833 119:0.569414 120:0.0280988 121:0 122:0 123:0 124:0.0125343 125:0.0232779 126:0 127:0 128:0.138136 129:0.534114 130:0.312038 131:0.0156931 132:0 133:0 134:0 135:0.00895509 136:0 137:0 138:0.356562 139:0.618349 140:0.0161192 141:0 142:0 143:0 144:0.155854 145:0.321332 146:0.330328 147:0 148:0 149:0.00230121 150:0.0437229 151:0.0424677 152:0.103973 153:0 154:0.0817517 155:0.438787 156:0.311346 157:0.0675278 158:0.0479878 159:0.0181032 160:0 161:0.0344823 162:0.0231786 163:0.092135 164:0.536254 165:0.338491 166:0 167:0 168:0.00298011 169:0.00695358 170:0 171:0.00448498 172:0.0254149 173:0.0498331 174:0.660288 175:0.248335 176:0.0116277 177:0 178:0 179:0 180:0.450708 181:0.150719 182:0.0557951 183:0.0239122 184:0 185:0 186:0 187:0.192384 188:0.126445 189:0 190:0 191:0.00319142 192:0.0180847 193:0.0382971 194:0.0191485 195:0.175103 196:0.442757 197:0.303398 198:0.0191486 199:0.00212762 200:0 201:0 202:0.0372334 203:0.071098 204:0.233507 205:0.316661 206:0.320207 207:0.0788189 208:0.0035292 209:0.0611729 210:0.438798 211:0.159402 212:0.121169 213:0.0899947 214:0 215:0.0470561 216:0 217:0 218:0 219:0 220:0 221:0 222:0.144863 223:0.838597 224:0.0165175 225:0 226:0 227:0 228:0 229:0.0953343 230:0.133157 231:0.268387 232:0.489107 233:0.0139893 234:0 235:0 236:0 237:0.014305 238:0.00476833 239:0.117301 240:0.668247 241:0.195365 242:0 243:0.0283683 244:0 245:0.00124111 246:0.0235811 247:0.160281 248:0.485452 249:0.233507 250:0.067552 251:0 252:0.0134138 253:0.0170721 254:0.0182916 255:0 256:0 257:0.284739 258:0.609109 259:0.0573136 260:0 261:0.0872993 262:0.0132272 263:0 264:0 265:0.0190471 266:0.423798 267:0.350784 268:0.049205 269:0.0566123 270:0.20341 271:0.138456 272:0.0136746 273:0.0611085 274:0.12179 275:0.0940131 276:0.0884578 277:0.116662 278:0.162386 279:0 280:0 281:0.0437483 282:0.0203117 283:0.706222 284:0.182805 285:0.0351549 286:0.0117183 287:0 
1 0:0.0787386 1:0.272042 2:0.163383 3:0.464558 4:0.0212594 5:0 6:0 7:0 8:0 9:0 10:0.0938403 11:0.0624624 12:0.586062 13:0.178443 14:0.017595 15:0 16:0.039149 17:0.0224337 18:0.0185353 19:0.0140731 20:0.313612 21:0.566813 22:0.0453084 23:0.0160181 24:0.025629 25:0 26:0 27:0 28:0 29:0.0639921 30:0.529684 31:0.406307 32:0 33:0 34:0 35:0 36:0.30567 37:0.0712094 38:0.0397712 39:0 40:0 41:0 42:0.0700731 43:0.060225 44:0.453013 45:0.0122588 46:0.177821 47:0.0550957 48:0.259638 49:0.0593656 50:0.0349857 51:0.0681809 52:0.311566 53:0.0210741 54:0.0163688 55:0.134819 56:0.20342 57:0.24955 58:0.0279758 59:0.0428565 60:0.110266 61:0.214729 62:0 63:0 64:0 65:0.0836498 66:0.503822 67:0.282679 68:0.129801 69:0 70:0 71:0 72:0 73:0 74:0 75:0 76:0 77:0.0556917 78:0.359397 79:0.263855 80:0.321032 81:0.0048308 82:0.0239125 83:0.0239125 84:0.0101447 85:0.0869544 86:0.143716 87:0.168353 88:0.37801 89:0.160141 90:0 91:0 92:0 93:0 94:0.00447754 95:0.116118 96:0.331786 97:0.489843 98:0.0577603 99:0.0661812 100:0.0568453 101:0.0433601 102:0.0680484 103:0.368665 104:0.273438 105:0.123441 106:0 107:0 108:0.0349199 109:0.162298 110:0.330549 111:0 112:0 113:0.202575 114:0.142656 115:0.0537688 116:0.0732128 117:0.046511 118:0.134591 119:0.544469 120:0.0970916 121:0 122:0.0767431 123:0.0918591 124:0.00087208 125:0.00784872 126:0 127:0.0268194 128:0.0134097 129:0.219728 130:0.551714 131:0.188311 132:0 133:0 134:0 135:0 136:0 137:0.00924642 138:0.128422 139:0.839712 140:0.0226024 141:0 142:0 143:0 144:0.0912876 145:0.289194 146:0.526646 147:0.0162018 148:0 149:0.0383269 150:0 151:0 152:0.0383269 153:0.00604831 154:0.0857515 155:0.419215 156:0.405774 157:0.0348114 158:0.00967729 159:0.0145159 160:0.00241932 161:0.0217739 162:0 163:0.00683178 164:0.452549 165:0.529576 166:0.011036 167:0 168:0 169:0 170:0 171:0 172:0 173:0.0070441 174:0.395713 175:0.560904 176:0.0363255 177:0 178:0 179:0 180:0.0935737 181:0.151828 182:0.126141 183:0.174304 184:0.0412825 185:0.165589 186:0.146324 187:0.0807303 188:0.0201826 189:0.0126902 190:0.0565983 191:0.262179 192:0.0263956 193:0 194:0 195:0.125252 196:0.287433 197:0.229439 198:0.0641494 199:0.166741 200:0.066272 201:0.140327 202:0.0806585 203:0.137497 204:0.216504 205:0.0641494 206:0.0636777 207:0.0468235 208:0.0404746 209:0.0134915 210:0.524979 211:0.235308 212:0.049998 213:0.0888854 214:0 215:0 216:0 217:0 218:0 219:0 220:0 221:0 222:0.0314037 223:0.713607 224:0.254948 225:0.00737994 226:0 227:0 228:0 229:0 230:0.0158669 231:0.234129 232:0.492242 233:0.250364 234:0.04725 235:0.00429546 236:0 237:0 238:0 239:0.0579028 240:0.656174 241:0.2268 242:0.00756001 243:0.145885 244:0.0184925 245:0.0773946 246:0.0702031 247:0.366768 248:0.233896 249:0.0873258 250:0 251:0 252:0 253:0 254:0 255:0 256:0 257:0.319933 258:0.495939 259:0.184099 260:0 261:0 262:0.0251647 263:0.00132446 264:0.0324493 265:0.149664 266:0.62978 267:0.0953611 268:0.0629118 269:0.00331115 270:0 271:0 272:0.0394332 273:0.0247165 274:0.258486 275:0.416407 276:0.209053 277:0.0213204 278:0.0305655 279:0 280:0 281:0 282:0.0541087 283:0.826356 284:0.119519 285:0 286:0 287:0 
1 0:0 1:0 2:0.62145 3:0.378522 4:0 5:0 6:0 7:0 8:0 9:0 10:0.0076333 11:0.424411 12:0.550742 13:0.0171749 14:0 15:0 16:0 17:0 18:0 19:0 20:0.0796097 21:0.638577 22:0.272081 23:0 24:0.00728138 25:0.00242713 26:0 27:0 28:0 29:0 30:0.00659323 31:0.730749 32:0.26263 33:0 34:0 35:0 36:0.283903 37:0.519596 38:0.124989 39:0 40:0.00357111 41:0.03214 42:0.0267833 43:0.00892777 44:0 45:0.264379 46:0.520125 47:0.0715802 48:0 49:0 50:0 51:0 52:0.0194238 53:0.124456 54:0.241171 55:0.332572 56:0.218095 57:0.0361983 58:0 59:0 60:0.00452478 61:0.0450216 62:0.122395 63:0.0154919 64:0.0232378 65:0.0570382 66:0.121118 67:0.22604 68:0.403493 69:0.118302 70:0.0352088 71:0 72:0.0851019 73:0.00531887 74:0.0159566 75:0 76:0.0106377 77:0.0106377 78:0.331897 79:0.267007 80:0.27339 81:0.0148511 82:0 83:0 84:0 85:0.00495037 86:0.164847 87:0.284646 88:0.335388 89:0.195292 90:0 91:0 92:0 93:0 94:0.00523456 95:0.365697 96:0.317864 97:0.169853 98:0.141333 99:0.0212111 100:0.0141407 101:0.019696 102:0.217161 103:0.49745 104:0.195445 105:0.0272714 106:0.00757538 107:0 108:0.188762 109:0.187881 110:0.0638752 111:0 112:0 113:0 114:0.269818 115:0.289641 116:0 117:0.281899 118:0.112825 119:0.0355252 120:0.0335515 121:0.0664452 122:0.0552613 123:0.0213809 124:0.242097 125:0.150982 126:0.00985384 127:0.00109487 128:0.00328461 129:0.0333936 130:0.398533 131:0.553822 132:0 133:0 134:0 135:0 136:0 137:0 138:0.0444222 139:0.836522 140:0.119036 141:0 142:0 143:0 144:0.0732852 145:0.209239 146:0.6671 147:0.0366426 148:0.00136982 149:0.0123283 150:0 151:0 152:0 153:0.0428558 154:0.246266 155:0.409615 156:0.171423 157:0.0711158 158:0.0307444 159:0.0279494 160:0 161:0 162:0 163:0.12586 164:0.28302 165:0.43262 166:0.158486 167:0 168:0 169:0 170:0 171:0 172:0.00717198 173:0.021516 174:0.132374 175:0.794656 176:0.0442614 177:0 178:0 179:0 180:0.52087 181:0.253459 182:0.0395303 183:0 184:0 185:0 186:0.0871992 187:0.0360423 188:0.0627834 189:0.36325 190:0.278722 191:0.00994448 192:0 193:0 194:0 195:0 196:0.043369 197:0.304688 198:0.51998 199:0.241529 200:0 201:0 202:0 203:0 204:0 205:0.0384601 206:0.199992 207:0.275815 208:0.0258576 209:0.0775728 210:0.113773 211:0.243062 212:0.0568867 213:0.0586106 214:0.14825 215:0 216:0.0300741 217:0.00375926 218:0.0112778 219:0 220:0 221:0 222:0.4263 223:0.451863 224:0.0766888 225:0 226:0 227:0 228:0.0077101 229:0.0203266 230:0.13481 231:0.421953 232:0.342515 233:0.0726619 234:0 235:0 236:0 237:0 238:0.0148087 239:0.310664 240:0.416076 241:0.197608 242:0.0608271 243:0.00833299 244:0.00416649 245:0.0124995 246:0.0362485 247:0.617058 248:0.290821 249:0.00583309 250:0.0024999 251:0.0224991 252:0 253:0 254:0 255:0 256:0 257:0.12668 258:0.754068 259:0.119228 260:0 261:0 262:0.00352104 263:0.0105631 264:0 265:0.0105631 266:0.268538 267:0.638952 268:0.0678388 269:0 270:0.0202697 271:0.00675657 272:0 273:0.0291884 274:0.317289 275:0.491338 276:0.0589173 277:0.0737818 278:0.00243237 279:0 280:0 281:0 282:0.0072537 283:0.877697 284:0.115023 285:0 286:0 287:0 
1 0:0 1:0.0119315 2:0.618732 3:0.369308 4:0 5:0 6:0 7:0 8:0 9:0 10:0.00394726 11:0.434989 12:0.561038 13:0 14:0 15:0 16:0 17:0 18:0 19:0 20:0.220115 21:0.701503 22:0.0722539 23:0 24:0.00457303 25:0.00152434 26:0 27:0 28:0 29:0 30:0.365254 31:0.63472 32:0 33:0 34:0 35:0 36:0.362587 37:0.4386 38:0.198772 39:0 40:0 41:0 42:0 43:0 44:0 45:0.21009 46:0.442907 47:0.0641382 48:0 49:0 50:0 51:0 52:0.0474724 53:0.235342 54:0.233254 55:0.414276 56:0.160487 57:0 58:0 59:0 60:0 61:0.0160711 62:0.175889 63:0.12173 64:0.110137 65:0.245634 66:0.157235 67:0.0898486 68:0 69:0.0137671 70:0.134773 71:0.126802 72:0.027777 73:0 74:0 75:0 76:0 77:0 78:0.240549 79:0.596372 80:0.135274 81:0.0717365 82:0.0427521 83:0.00144922 84:0 85:0.0340567 86:0.115213 87:0.25615 88:0.403971 89:0.074635 90:0 91:0 92:0 93:0 94:0 95:0.237113 96:0.440637 97:0.279904 98:0.0423306 99:0 100:0 101:0 102:0 103:0.298503 104:0.406238 105:0.123806 106:0.140174 107:0.0312491 108:0.107621 109:0.210309 110:0.312325 111:0.0423757 112:0 113:0 114:0.0430484 115:0.226004 116:0.0582947 117:0.250552 118:0.181559 119:0.11536 120:0 121:0 122:0.00837965 123:0.0631267 124:0.191056 125:0.189939 126:0 127:0.0212385 128:0.014159 129:0.185173 130:0.478972 131:0.269463 132:0.0232296 133:0.00774319 134:0 135:0 136:0 137:0 138:0.0918352 139:0.752708 140:0.15544 141:0 142:0 143:0 144:0.182024 145:0.218351 146:0.513261 147:0.0785126 148:0 149:0 150:0.00585915 151:0.00195305 152:0 153:0.0527759 154:0.379153 155:0.378459 156:0.132634 157:0.0458317 158:0.0111107 159:0 160:0 161:0 162:0.0592696 163:0.197869 164:0.340116 165:0.37811 166:0.0246197 167:0 168:0 169:0 170:0 171:0 172:0 173:0.115319 174:0.338969 175:0.502675 176:0 177:0.0161286 178:0.0053762 179:0.0215048 180:0.438558 181:0.184194 182:0.0263135 183:0 184:0.00350846 185:0.0315762 186:0.0394702 187:0.118411 188:0.157881 189:0.270539 190:0.0719153 191:0 192:0 193:0 194:0 195:0.0380124 196:0.304442 197:0.315058 198:0.32249 199:0.127496 200:0 201:0 202:0 203:0 204:0 205:0.129371 206:0.420612 207:0.433253 208:0.0296241 209:0.0555453 210:0 211:0.118497 212:0.0666543 213:0.0277726 214:0.0870209 215:0.181448 216:0.0223209 217:0 218:0 219:0 220:0 221:0.213388 222:0.544407 223:0.195308 224:0.024553 225:0 226:0 227:0 228:0.0073731 229:0.0430866 230:0.291238 231:0.511739 232:0.128108 233:0.0184328 234:0 235:0 236:0.00866655 237:0.0046666 238:0.198531 239:0.543459 240:0.185331 241:0.0593325 242:0 243:0 244:0 245:0 246:0.00963619 247:0.796349 248:0.17436 249:0.019636 250:0 251:0 252:0 253:0.00227262 254:0.00681787 255:0 256:0 257:0.561793 258:0.424526 259:0.00454525 260:0 261:0 262:0 263:0 264:0 265:0.0640766 266:0.792706 267:0.143202 268:0 269:0 270:0 271:0 272:0 273:0 274:0.413151 275:0.561911 276:0.0249222 277:0 278:0 279:0 280:0.00130887 281:0.0039266 282:0.00863852 283:0.870396 284:0.115704 285:0 286:0 287:0 
1 0:0 1:0 2:0 3:0.370955 4:0.470929 5:0.110497 6:0.047356 7:0 8:0 9:0 10:0.00268803 11:0.633837 12:0.26719 13:0.0639751 14:0.0225794 15:0.0096769 16:0 17:0 18:0 19:0 20:0.533981 21:0.466008 22:0 23:0 24:0 25:0 26:0 27:0 28:0.00415275 29:0.118935 30:0.796997 31:0.079899 32:0 33:0 34:0 35:0 36:0 37:0.317895 38:0.22828 39:0.216961 40:0.23677 41:0 42:0 43:0 44:0 45:0 46:0.522395 47:0.459095 48:0.0184998 49:0 50:0 51:0 52:0 53:0 54:0.058932 55:0.178072 56:0.647556 57:0.0667046 58:0 59:0.00974467 60:0.0128769 61:0.0029002 62:0.0232016 63:0.161998 64:0.461993 65:0.299688 66:0.0578453 67:0 68:0 69:0.00553838 70:0.0129229 71:0 72:0.433595 73:0.347885 74:0.0756271 75:0.016806 76:0 77:0 78:0 79:0 80:0.126045 81:0.533252 82:0.24202 83:0 84:0 85:0 86:0 87:0 88:0.00280896 89:0.221908 90:0.0852795 91:0.109521 92:0.0266228 93:0.0409082 94:0.00173156 95:0 96:0.00497825 97:0.281163 98:0.449774 99:0.195064 100:0.0075999 101:0 102:0 103:0 104:0.0571992 105:0.187597 106:0.295996 107:0.25653 108:0.1266 109:0.0110087 110:0.331177 111:0.109169 112:0 113:0 114:0.0160543 115:0.208247 116:0.197697 117:0.197209 118:0.0885449 119:0.262049 120:0 121:0 122:0 123:0 124:0.18197 125:0.270216 126:0.175251 127:0.150251 128:0.146935 129:0.0326522 130:0.0153057 131:0.0403051 132:0.113518 133:0.0744879 134:0.251269 135:0 136:0 137:0.0119848 138:0.0970019 139:0.186513 140:0.429018 141:0.269845 142:0.00561787 143:0 144:0 145:0.100744 146:0.809676 147:0.0895709 148:0 149:0 150:0 151:0 152:0 153:0 154:0.0520344 155:0.728675 156:0.215405 157:0 158:0 159:0.00290695 160:0.000968983 161:0 162:0 163:0 164:0.459425 165:0.529749 166:0.0108191 167:0 168:0 169:0 170:0 171:0 172:0 173:0.00187498 174:0.517369 175:0.480744 176:0 177:0 178:0 179:0 180:0.136944 181:0.610827 182:0.252207 183:0 184:0 185:0 186:0 187:0 188:0 189:0.348364 190:0.565606 191:0.0860195 192:0 193:0 194:0 195:0 196:0 197:0 198:0.22562 199:0.453949 200:0.212079 201:0 202:0 203:0 204:0.0124997 205:0.00541655 206:0.0904148 207:0.291606 208:0.0104145 209:0.0312435 210:0.0749844 211:0.349927 212:0.0749844 213:0.124974 214:0.041658 215:0 216:0.164648 217:0.0465497 218:0.0387914 219:0 220:0 221:0 222:0.0633593 223:0.490927 224:0.195681 225:0 226:0 227:0 228:0 229:0 230:0.0516059 231:0.281724 232:0.346181 233:0.320479 234:0.00668309 235:0.00198017 236:0.00371283 237:0 238:0.288858 239:0.370045 240:0.154701 241:0.104083 242:0.0699249 243:0 244:0.00295854 245:0.0400882 246:0.773657 247:0.183281 248:0 249:0 250:0 251:0 252:0 253:0 254:0 255:0 256:0 257:0.104945 258:0.696808 259:0.19823 260:0 261:0 262:0 263:0 264:0 265:0.00117644 266:0.537337 267:0.35146 268:0.109997 269:0 270:0 271:0 272:0 273:0.0218178 274:0.637443 275:0.314358 276:0.011818 277:0.00654534 278:0.00799985 279:0 280:0.0385563 281:0.0858188 282:0.526355 283:0.341285 284:0.00796 285:0 286:0 287:0 
1 0:0 1:0 2:0.215343 3:0.186503 4:0.319169 5:0.201884 6:0.0576812 7:0.0192271 8:0 9:0 10:0.00310072 11:0.645336 12:0.349993 13:0.00155036 14:0 15:0 16:0 17:0 18:0 19:0 20:0.263397 21:0.722993 22:0.0135999 23:0 24:0 25:0 26:0 27:0 28:0.0591535 29:0.0927208 30:0.75679 31:0.0584493 32:0 33:0.0246473 34:0.00821577 35:0 36:0.00763528 37:0.543829 38:0.410581 39:0.0369449 40:0.000985197 41:0 42:0 43:0 44:0 45:0.0252969 46:0.373766 47:0.593034 48:0.00789467 49:0 50:0 51:0 52:0 53:0 54:0.149001 55:0.406472 56:0.282387 57:0.134217 58:0.0146177 59:0.00664441 60:0.00664441 61:0 62:0 63:0.0840389 64:0.474932 65:0.37032 66:0.0706974 67:0 68:0 69:0 70:0 71:0 72:0.619465 73:0.191763 74:0 75:0 76:0 77:0 78:0 79:0 80:0.188751 81:0.519544 82:0.196863 83:0.0328353 84:0.0149252 85:0 86:0 87:0.00298503 88:0.0173132 89:0.215519 90:0.139464 91:0 92:0 93:0 94:0 95:0 96:0.196881 97:0.32685 98:0.33679 99:0.120844 100:0 101:0 102:0 103:0.0060422 104:0.237761 105:0.288515 106:0.220843 107:0.12598 108:0.123459 109:0.0457683 110:0.355378 111:0.0446145 112:0 113:0 114:0 115:0.246726 116:0.184035 117:0.1467 118:0.13103 119:0.262471 120:0 121:0 122:0 123:0.0271131 124:0.297935 125:0.134741 126:0.078233 127:0.0794094 128:0.0158819 129:0.165289 130:0.115291 131:0.306462 132:0.239405 133:0 134:0 135:0 136:0 137:0 138:0.0299669 139:0.420189 140:0.519698 141:0.0301298 142:0 143:0 144:0 145:0.0243504 146:0.541228 147:0.434411 148:0 149:0 150:0 151:0 152:0 153:0 154:0.0495005 155:0.678736 156:0.270955 157:0.000798395 158:0 159:0 160:0 161:0 162:0 163:0 164:0.166171 165:0.74476 166:0.0890618 167:0 168:0 169:0 170:0 171:0 172:0 173:0.00512458 174:0.245564 175:0.749297 176:0 177:0 178:0 179:0 180:0.405222 181:0.462124 182:0.10481 183:0.0278237 184:0 185:0 186:0 187:0 188:0 189:0.219388 190:0.571057 191:0.209545 192:0 193:0 194:0 195:0 196:0 197:0 198:0.089019 199:0.234132 200:0.45607 201:0.0938967 202:0.0658496 203:0 204:0.00914578 205:0.00304859 206:0.0487775 207:0 208:0.0124969 209:0.0374906 210:0.162459 211:0.297426 212:0.0899775 213:0.299925 214:0.099975 215:0 216:0.0271313 217:0 218:0 219:0 220:0 221:0 222:0.161043 223:0.348249 224:0.463557 225:0 226:0 227:0 228:0 229:0.0134284 230:0.184855 231:0.392758 232:0.267045 233:0.141903 234:0 235:0.00245898 236:0.00737693 237:0.192456 238:0.501795 239:0.19721 240:0.0298356 241:0.0586876 242:0.0101638 243:0.00519474 244:0.0123375 245:0.136492 246:0.7796 247:0.061168 248:0 249:0 250:0.00233763 251:0.00285711 252:0 253:0 254:0 255:0.0130076 256:0.0195114 257:0.284135 258:0.630462 259:0.0528434 260:0 261:0.00484571 262:0.00396467 263:0 264:0 265:0.234356 266:0.579282 267:0.159027 268:0.0185018 269:0 270:0 271:0 272:0 273:0.200964 274:0.689344 275:0.10645 276:0.00241932 277:0.000806439 278:0 279:0 280:0.00119045 281:0.126187 282:0.700221 283:0.172377 284:0 285:0 286:0 287:0 
1 0:0 1:0 2:0.154725 3:0.0833135 4:0.352297 5:0.271364 6:0.114259 7:0.0238039 8:0 9:0 10:0 11:0.804455 12:0.189224 13:0.00630068 14:0 15:0 16:0 17:0 18:0 19:0 20:0.535093 21:0.464897 22:0 23:0 24:0 25:0 26:0 27:0.00685262 28:0.0510139 29:0.222076 30:0.585518 31:0.107104 32:0.0274105 33:0 34:0 35:0 36:0.017753 37:0.738741 38:0.181877 39:0.0228253 40:0.0257237 41:0.013043 42:0 43:0 44:0 45:0.00360063 46:0.655805 47:0.340586 48:0 49:0 50:0 51:0 52:0 53:0 54:0.270032 55:0.250915 56:0.387493 57:0.0437492 58:0.0294112 59:0 60:0 61:0.0045955 62:0.0137865 63:0.210537 64:0.426858 65:0.321461 66:0.0411306 67:0 68:0 69:0 70:0 71:0 72:0.53598 73:0.291589 74:0 75:0 76:0 77:0 78:0 79:0.0387923 80:0.133618 81:0.338001 82:0.197346 83:0 84:0 85:0 86:0 87:0 88:0.0946958 89:0.369945 90:0.0872711 91:0.0138179 92:0.000727259 93:0 94:0.0072726 95:0 96:0.197815 97:0.35363 98:0.339448 99:0.107647 100:0 101:0 102:0 103:0 104:0.19419 105:0.34178 106:0.256654 107:0.0997153 108:0.104014 109:0.148993 110:0.325495 111:0.056023 112:0 113:0 114:0.0345375 115:0.25381 116:0.0771069 117:0.067592 118:0.217683 119:0.259164 120:0 121:0 122:0 123:0 124:0.255275 125:0.200276 126:0.0538988 127:0.126946 128:0.0460977 129:0.129428 130:0.135811 131:0.17198 132:0.181554 133:0.0808482 134:0.0734017 135:0 136:0 137:0 138:0.0583931 139:0.392329 140:0.506925 141:0.042335 142:0 143:0 144:0 145:0.027509 146:0.808636 147:0.163846 148:0 149:0 150:0 151:0 152:0 153:0 154:0.0478801 155:0.672633 156:0.268206 157:0.0112716 158:0 159:0 160:0 161:0 162:0 163:0 164:0.317093 165:0.64296 166:0.0399392 167:0 168:0 169:0 170:0 171:0 172:0.00271735 173:0.00815206 174:0.302034 175:0.678931 176:0 177:0.00611405 178:0.00203802 179:0 180:0.346675 181:0.384684 182:0.234433 183:0.0137752 184:0 185:0 186:0 187:0.00918344 188:0.0112242 189:0.29171 190:0.562381 191:0.1459 192:0 193:0 194:0 195:0 196:0 197:0 198:0.155194 199:0.349986 200:0.349986 201:0.0299988 202:0.0187992 203:0 204:0.0299988 205:0.0099996 206:0.0559978 207:0.111049 208:0.0832871 209:0.249861 210:0 211:0.133259 212:0.199889 213:0.166574 214:0.0555247 215:0 216:0 217:0 218:0 219:0 220:0 221:0 222:0.0426888 223:0.526008 224:0.431274 225:0 226:0 227:0 228:0 229:0 230:0.0829742 231:0.330284 232:0.350803 233:0.23593 234:0 235:0 236:0 237:0.0870227 238:0.420062 239:0.349129 240:0.0975762 241:0.0292382 242:0.0169547 243:0 244:0 245:0.0657505 246:0.810826 247:0.117628 248:0 249:0.0043352 250:0.00144507 251:0 252:0 253:0 254:0 255:0 256:0 257:0.415924 258:0.430924 259:0.15312 260:0 261:0 262:0 263:0 264:0 265:0.101867 266:0.560267 267:0.304199 268:0.0315413 269:0.00210275 270:0 271:0 272:0 273:0.162879 274:0.72132 275:0.115788 276:0 277:0 278:0 279:0 280:0.0380622 281:0.0673408 282:0.661021 283:0.211031 284:0 285:0 286:0.0056305 287:0.0168915 
1 0:0 1:0.0186231 2:0.594118 3:0.374284 4:0.0129552 5:0 6:0 7:0 8:0 9:0 10:0 11:0.387403 12:0.612585 13:0 14:0 15:0 16:0 17:0 18:0 19:0 20:0.034905 21:0.719798 22:0.245278 23:0 24:0 25:0 26:0 27:0 28:0 29:0 30:0.296818 31:0.703156 32:0 33:0 34:0 35:0 36:0.467508 37:0.355568 38:0.141877 39:0 40:0 41:0 42:0 43:0 44:0.0350313 45:0.322269 46:0.398903 47:0.245946 48:0.0172895 49:0.0109033 50:0.00467282 51:0 52:0 53:0 54:0.0849558 55:0.135098 56:0.241544 57:0.379364 58:0.149998 59:0.00902566 60:0 61:0 62:0 63:0.0816299 64:0.00340124 65:0.0102037 66:0.335023 67:0.474474 68:0.0731268 69:0.0221081 70:0 71:0 72:0.0747318 73:0 74:0 75:0 76:0 77:0 78:0.117792 79:0.453907 80:0.353552 81:0.0140559 82:0.0160639 83:0.00602398 84:0 85:0.00883516 86:0.110841 87:0.287544 88:0.329311 89:0.227305 90:0.0377774 91:0.0011111 92:0.0033333 93:0 94:0.115665 95:0.446551 96:0.22422 97:0.119999 98:0.0513328 99:0 100:0 101:0 102:0.0289713 103:0.880821 104:0.0808392 105:0.00934558 106:0 107:0 108:0.321315 109:0.146601 110:0 111:0 112:0 113:0 114:0.0199996 115:0.293202 116:0.218864 117:0.151868 118:0.0299457 119:0.0240635 120:0.0708537 121:0.101334 122:0.0630999 123:0.0454533 124:0.259084 125:0.254271 126:0.00338339 127:0.0191726 128:0.0140975 129:0.321611 130:0.409767 131:0.215973 132:0.0159771 133:0 134:0 135:0.00799984 136:0 137:0.00359993 138:0.0831983 139:0.893782 140:0.0113998 141:0 142:0 143:0 144:0.157489 145:0.652776 146:0.178917 147:0.0108012 148:0 149:0 150:0 151:0 152:0 153:0.214281 154:0.596206 155:0.129409 156:0.0138653 157:0.0147056 158:0.00630239 159:0 160:0.0113443 161:0.0138653 162:0 163:0.160208 164:0.462456 165:0.33528 166:0.0420414 167:0 168:0 169:0 170:0 171:0.00678991 172:0.011728 173:0.0259251 174:0.512639 175:0.442888 176:0 177:0 178:0 179:0 180:0.134828 181:0 182:0 183:0 184:0.00870762 185:0.0193815 186:0 187:0.173029 188:0.664026 189:0.163124 190:0.120057 191:0 192:0 193:0 194:0.00516217 195:0.136429 196:0.354567 197:0.220646 198:0.062849 199:0.142286 200:0.040186 201:0.0163548 202:0.0492979 203:0.235742 204:0.303264 205:0.149996 206:0 207:0.279604 208:0.0351819 209:0.0555504 210:0.0333302 211:0.334228 212:0.243496 213:0.0138876 214:0.0046292 215:0 216:0 217:0 218:0 219:0 220:0 221:0.118356 222:0.432829 223:0.408203 224:0.0405964 225:0 226:0 227:0 228:0 229:0.0271122 230:0.479569 231:0.407035 232:0.0830971 233:0.00316896 234:0 235:0.00219295 236:0.00657885 237:0 238:0.19912 239:0.659201 240:0.120612 241:0.0122805 242:0 243:0 244:0 245:0 246:0 247:0.749243 248:0.250739 249:0 250:0 251:0 252:0 253:0.00815173 254:0.0244552 255:0 256:0.112494 257:0.689636 258:0.165208 259:0 260:0 261:0.00609747 262:0 263:0 264:0 265:0 266:0.714318 267:0.279569 268:0 269:0 270:0 271:0 272:0 273:0 274:0.451026 275:0.523296 276:0.0256633 277:0 278:0 279:0 280:0 281:0 282:0.204181 283:0.795797 284:0 285:0 286:0 287:0 
1 0:0 1:0 2:0.201886 3:0.771331 4:0.026756 5:0 6:0 7:0 8:0 9:0 10:0.00449088 11:0.319751 12:0.661357 13:0.00838298 14:0 15:0.00449088 16:0.00149696 17:0 18:0 19:0.00378778 20:0.226762 21:0.585591 22:0.163632 23:0 24:0.0151511 25:0.00505038 26:0 27:0 28:0 29:0 30:0.191611 31:0.78321 32:0.0251489 33:0 34:0 35:0 36:0 37:0.00635566 38:0.15296 39:0.141096 40:0.23516 41:0.266514 42:0.151265 43:0.0466082 44:0 45:0.155629 46:0.131568 47:0.294876 48:0.0663811 49:0 50:0 51:0.0651866 52:0.225423 53:0.0609205 54:0.0744431 55:0.0801837 56:0.32129 57:0.317401 58:0.0455547 59:0.00888872 60:0.0377771 61:0.0968501 62:0.0175923 63:0 64:0.0114936 65:0.0655135 66:0.382162 67:0.521809 68:0.0189644 69:0 70:0 71:0 72:0.00545438 73:0.0309082 74:0 75:0.0606042 76:0.209691 77:0.270598 78:0.334838 79:0.0660586 80:0.0218175 81:0 82:0 83:0 84:0 85:0 86:0.06838 87:0.750539 88:0.18107 89:0 90:0 91:0 92:0 93:0 94:0.166867 95:0.473781 96:0.286283 97:0.0730574 98:0 99:0 100:0 101:0 102:0.063988 103:0.753089 104:0.182897 105:0 106:0 107:0 108:0.206078 109:0.216719 110:0.0569247 111:0 112:0 113:0.00574315 114:0.206246 115:0.267225 116:0.0410466 117:0.178051 118:0.0377684 119:0 120:0.0226611 121:0.0820114 122:0.370131 123:0.1669 124:0.0960397 125:0.0464012 126:0 127:0 128:0 129:0.157876 130:0.313783 131:0.465144 132:0.0631809 133:0 134:0 135:0 136:0 137:0 138:0.0709421 139:0.794702 140:0.12396 141:0.0103772 142:0 143:0 144:0.0502749 145:0.238667 146:0.439491 147:0.238391 148:0 149:0 150:0.0124306 151:0.00580094 152:0.0149167 153:0.00928064 154:0.120532 155:0.518439 156:0.321574 157:0.0301621 158:0 159:0 160:0 161:0 162:0 163:0 164:0.0602014 165:0.660094 166:0.279694 167:0 168:0 169:0 170:0 171:0 172:0.00259511 173:0.00778533 174:0.332866 175:0.656736 176:0 177:0 178:0 179:0 180:0.588951 181:0.172293 182:0 183:0 184:0 185:0 186:0 187:0 188:0.238733 189:0.361748 190:0.437536 191:0.00421045 192:0 193:0 194:0 195:0 196:0 197:0.196488 198:0.26703 199:0.0511335 200:0 201:0.0784046 202:0.116471 203:0.0778365 204:0.130106 205:0.215329 206:0.0636327 207:0 208:0.0520779 209:0.258306 210:0.339548 211:0.329132 212:0 213:0.0156234 214:0.00520779 215:0 216:0 217:0 218:0 219:0 220:0.00883816 221:0.0765132 222:0.221712 223:0.519936 224:0.172975 225:0 226:0 227:0 228:0 229:0 230:0.275414 231:0.491662 232:0.213539 233:0.0193748 234:0 235:0 236:0 237:0 238:0.310966 239:0.627866 240:0.0359706 241:0.0235607 242:0.00161868 243:0 244:0.00172408 245:0.00517224 246:0 247:0.91583 248:0.057929 249:0.0175856 250:0.00172408 251:0 252:0 253:0 254:0 255:0 256:0.0246617 257:0.717893 258:0.257428 259:0 260:0 261:0 262:0 263:0.00398926 264:0.0226058 265:0.0848382 266:0.660089 267:0.215154 268:0.0132975 269:0 270:0.00485425 271:0.00242713 272:0.00728138 273:0 274:0.546831 275:0.39101 276:0.043931 277:0.00364069 278:0 279:0 280:0 281:0 282:0.0106247 283:0.953408 284:0.017187 285:0.0140621 286:0.00468735 287:0 
1 0:0 1:0.0155275 2:0.500606 3:0.483836 4:0 5:0 6:0 7:0 8:0 9:0 10:0.0770928 11:0.590207 12:0.254462 13:0.0502779 14:0 15:0.0125695 16:0.00921762 17:0.00614508 18:0 19:0 20:0.0691437 21:0.48698 22:0.440326 23:0.00353153 24:0 25:0 26:0 27:0 28:0 29:0 30:0 31:0.935027 32:0.0649468 33:0 34:0 35:0 36:0.087588 37:0.129192 38:0.162768 39:0.0394146 40:0.0043794 41:0.0372249 42:0.260574 43:0.205832 44:0.07299 45:0.153018 46:0.316941 47:0.261573 48:0 49:0 50:0 51:0.00654351 52:0.212916 53:0.0489925 54:0.0672241 55:0.0588211 56:0.273938 57:0.158817 58:0.16722 59:0.0789883 60:0.117222 61:0.0541994 62:0.0235284 63:0 64:0 65:0 66:0.278157 67:0.607218 68:0.114535 69:0 70:0 71:0 72:0 73:0 74:0 75:0.0137497 76:0.0424991 77:0.48624 78:0.407491 79:0.049999 80:0 81:0 82:0 83:0 84:0 85:0.00334642 86:0.41289 87:0.559542 88:0.0242124 89:0 90:0 91:0 92:0 93:0 94:0.362463 95:0.606615 96:0.0309087 97:0 98:0 99:0 100:0 101:0 102:0.0527895 103:0.909514 104:0.0376735 105:0 106:0 107:0 108:0.0626387 109:0.189321 110:0.232578 111:0.0188197 112:0.0134828 113:0 114:0.240162 115:0.215724 116:0.0272464 117:0 118:0.0110756 119:0.0531629 120:0.387646 121:0.147147 122:0.307269 123:0.0683523 124:0.0224676 125:0.00284801 126:0 127:0 128:0.00183244 129:0.304577 130:0.463345 131:0.230233 132:0 133:0 134:0 135:0 136:0 137:0 138:0.0227754 139:0.956211 140:0.0209961 141:0 142:0 143:0 144:0 145:0.161085 146:0.706034 147:0.127417 148:0.00544344 149:0 150:0 151:0 152:0 153:0 154:0.0819919 155:0.414987 156:0.503012 157:0 158:0 159:0 160:0 161:0 162:0 163:0.00274721 164:0.015247 165:0.65631 166:0.317441 167:0 168:0.00618123 169:0.00206041 170:0 171:0.00221669 172:0.0162558 173:0.0155169 174:0.065023 175:0.814266 176:0.0849733 177:0.0017241 178:0 179:0 180:0.309994 181:0.187955 182:0 183:0 184:0 185:0 186:0 187:0.211016 188:0.291014 189:0.206608 190:0.057935 191:0 192:0 193:0 194:0 195:0.0317452 196:0.270099 197:0.433586 198:0.352118 199:0.247839 200:0.167845 201:0.06071 202:0.114278 203:0 204:0.021427 205:0.0199986 206:0.0157132 207:0 208:0.00806322 209:0.0241896 210:0 211:0.440252 212:0.430576 213:0.0725689 214:0.0241896 215:0 216:0 217:0 218:0 219:0 220:0.0181815 221:0.0433704 222:0.693358 223:0.245071 224:0 225:0.00407328 226:0 227:0 228:0 229:0.0198572 230:0.370872 231:0.499486 232:0.105702 233:0 234:0 235:0.00412534 236:0.012376 237:0.0282174 238:0.77936 239:0.161053 240:0.0148512 241:0 242:0 243:0 244:0.00462952 245:0.0138886 246:0.138654 247:0.842805 248:0 249:0 250:0 251:0 252:0 253:0 254:0 255:0 256:0.176675 257:0.79143 258:0.0318787 259:0 260:0 261:0 262:0.019444 263:0.00833314 264:0 265:0.340501 266:0.555774 267:0.0504618 268:0.0254624 269:0 270:0.00678991 271:0.00555538 272:0 273:0.0160489 274:0.787013 275:0.184562 276:0 277:0 278:0 279:0 280:0 281:0 282:0.171243 283:0.820382 284:0 285:0.00624974 286:0.00208325 287:0 
1 0:0.0734821 1:0.490512 2:0.403015 3:0.0329533 4:0 5:0 6:0 7:0 8:0 9:0 10:0.0587222 11:0.525733 12:0.407013 13:0 14:0 15:0.00638284 16:0.00212761 17:0 18:0 19:0.00842673 20:0.59886 21:0.387068 22:0 23:0 24:0.00421336 25:0.00140445 26:0 27:0 28:0 29:0 30:0.431932 31:0.56804 32:0 33:0 34:0 35:0 36:0.527263 37:0.472719 38:0 39:0 40:0 41:0 42:0 43:0 44:0 45:0.0438587 46:0.267099 47:0.202627 48:0.00394728 49:0.0307011 50:0.0899103 51:0.103506 52:0.175873 53:0.0824543 54:0.177947 55:0.190868 56:0.358422 57:0.0339883 58:0 59:0 60:0 61:0.156458 62:0.0823022 63:0.0314271 64:0.0328556 65:0.130946 66:0.459978 67:0.262845 68:0.0519023 69:0.0299986 70:0 71:0 72:0.507551 73:0.0505807 74:0 75:0 76:0 77:0 78:0 79:0.156248 80:0.285606 81:0.0285298 82:0.0948113 83:0.0380398 84:0.00749269 85:0.0576361 86:0.0661374 87:0.294953 88:0.34769 89:0.0646965 90:0 91:0 92:0 93:0 94:0 95:0.111859 96:0.497434 97:0.390698 98:0 99:0 100:0 101:0 102:0.0450238 103:0.438049 104:0.499241 105:0.0176613 106:0 107:0 108:0 109:0.148618 110:0.0982742 111:0.00827572 112:0 113:0 114:0.213272 115:0.383269 116:0.148273 117:0.139322 118:0.144458 119:0 120:0 121:0 122:0 123:0.0787827 124:0.367022 125:0.270402 126:0.00585926 127:0.0136716 128:0.010742 129:0.074022 130:0.0552724 131:0.570106 132:0.250776 133:0.0136716 134:0.00585926 135:0 136:0 137:0.00693938 138:0.0916354 139:0.523478 140:0.377929 141:0 142:0 143:0 144:0.113821 145:0.385452 146:0.455523 147:0.0451918 148:0 149:0 150:0 151:0 152:0 153:0.00514461 154:0.446134 155:0.528287 156:0.0139869 157:0 158:0 159:0.00482307 160:0.00160769 161:0 162:0 163:0.0196462 164:0.310508 165:0.601468 166:0.0683687 167:0 168:0 169:0 170:0 171:0 172:0 173:0.0076922 174:0.513098 175:0.479195 176:0 177:0 178:0 179:0 180:0.802912 181:0.197067 182:0 183:0 184:0 185:0 186:0 187:0 188:0 189:0.737895 190:0.259141 191:0 192:0 193:0 194:0 195:0.00221236 196:0.000737452 197:0 198:0.286927 199:0.33969 200:0.167835 201:0.0045225 202:0 203:0.0201 204:0.035175 205:0.0577875 206:0.0879375 207:0.133319 208:0.0666593 209:0.219976 210:0.197756 211:0.301078 212:0.0366626 213:0.0333296 214:0.0111099 215:0 216:0 217:0 218:0 219:0 220:0 221:0 222:0 223:0.56687 224:0.433114 225:0.00121292 226:0.00687322 227:0 228:0 229:0 230:0 231:0.188138 232:0.461854 233:0.341909 234:0.0321187 235:0.000993361 236:0 237:0 238:0.0329465 239:0.244532 240:0.406947 241:0.203805 242:0.0786411 243:0 244:0 245:0 246:0.0272707 247:0.445421 248:0.452996 249:0.0666616 250:0.00757518 251:0 252:0.00317455 253:0 254:0 255:0 256:0 257:0 258:0.465707 259:0.531103 260:0 261:0 262:0 263:0 264:0 265:0 266:0.114692 267:0.701513 268:0.183775 269:0 270:0.0146415 271:0.000934565 272:0 273:0 274:0.169935 275:0.641267 276:0.173206 277:0 278:0 279:0 280:0 281:0 282:0 283:0.830316 284:0.169666 285:0 286:0 287:0 
1 0:0 1:0.236175 2:0.744956 3:0.0188437 4:0 5:0 6:0 7:0 8:0 9:0 10:0.257934 11:0.624982 12:0.0911738 13:0.0152937 14:0.0105879 15:0 16:0 17:0 18:0 19:0.0247144 20:0.382692 21:0.497899 22:0.094675 23:0 24:0 25:0 26:0 27:0 28:0 29:0 30:0.0774339 31:0.867414 32:0.0551268 33:0 34:0 35:0 36:0.0772707 37:0.669233 38:0.160424 39:0.0930456 40:0 41:0 42:0 43:0 44:0 45:0.223512 46:0.316095 47:0.0366518 48:0 49:0 50:0.0326264 51:0.0743628 52:0.213767 53:0.102964 54:0.182853 55:0.274755 56:0.168091 57:0.0123807 58:0 59:0.00666651 60:0.0633318 61:0.177853 62:0.114045 63:0 64:0 65:0 66:0.262475 67:0.60475 68:0.13268 69:0 70:0 71:0 72:0.119254 73:0.105176 74:0.0529118 75:0.0495138 76:0 77:0 78:0.00517791 79:0.427501 80:0.240449 81:0 82:0.00694436 83:0.0208331 84:0 85:0.0537872 86:0.0888878 87:0.671204 88:0.153533 89:0.00479792 90:0 91:0 92:0 93:0 94:0.0156248 95:0.451669 96:0.468633 97:0.0640618 98:0 99:0 100:0 101:0 102:0.00887073 103:0.670412 104:0.32069 105:0 106:0 107:0 108:0.204882 109:0.243387 110:0 111:0 112:0 113:0 114:0.010632 115:0.369822 116:0.171262 117:0.111413 118:0.185384 119:0 120:0 121:0.000913221 122:0.00821899 123:0.140636 124:0.357754 125:0.195658 126:0 127:0 128:0 129:0.152034 130:0.164997 131:0.581471 132:0.10148 133:0 134:0 135:0 136:0 137:0 138:0.0453243 139:0.74531 140:0.207923 141:0.00142274 142:0 143:0 144:0 145:0.358111 146:0.633179 147:0 148:0 149:0 150:0 151:0.0073912 152:0.00130433 153:0 154:0.20015 155:0.665787 156:0.124231 157:0.000613488 158:0 159:0 160:0.00782197 161:0.00138035 162:0 163:0 164:0.261735 165:0.645743 166:0.092513 167:0 168:0 169:0 170:0 171:0 172:0 173:0 174:0.18883 175:0.811153 176:0 177:0 178:0 179:0 180:0.413821 181:0.232579 182:0.201777 183:0 184:0 185:0.0187492 186:0.00803536 187:0.053569 188:0.0714254 189:0.426228 190:0.30571 191:0.0212984 192:0 193:0 194:0 195:0 196:0 197:0.24675 198:0.1037 199:0.243324 200:0.212214 201:0.0111107 202:0.0470353 203:0.0122218 204:0.00296285 205:0.135551 206:0.231843 207:0.00918274 208:0.0877462 209:0.162228 210:0.225487 211:0.423426 212:0.0918274 213:0 214:0 215:0 216:0.0240957 217:0.00301196 218:0.00903587 219:0 220:0 221:0.00542152 222:0.124394 223:0.566549 224:0.267462 225:0 226:0 227:0 228:0 229:0 230:0 231:0.221951 232:0.542752 233:0.235285 234:0 235:0.0012315 236:0.00369449 237:0 238:0.0669934 239:0.196054 240:0.320928 241:0.259846 242:0.151228 243:0.0517197 244:0 245:0.0155159 246:0.212051 247:0.651668 248:0 249:0.0258598 250:0.0241359 251:0.0189639 252:0 253:0 254:0 255:0 256:0 257:0 258:0.418512 259:0.581472 260:0 261:0.00528833 262:0.0091344 263:0.0144227 264:0 265:0 266:0.0935074 267:0.645898 268:0.231725 269:0 270:0 271:0 272:0 273:0 274:0.371275 275:0.52793 276:0.100782 277:0 278:0 279:0 280:0 281:0 282:0.0825827 283:0.917399 284:0 285:0 286:0 287:0 
1 0:0 1:0.496486 2:0.503479 3:0 4:0 5:0 6:0 7:0 8:0 9:0 10:0.0178568 11:0.703359 12:0.24067 13:0.0142854 14:0.0166663 15:0.00714272 16:0 17:0 18:0.044443 19:0.166661 20:0.379399 21:0.347047 22:0.0493448 23:0 24:0.0098036 25:0.00326787 26:0 27:0 28:0 29:0 30:0.311485 31:0.68044 32:0.00804575 33:0 34:0 35:0 36:0.284008 37:0.678042 38:0.0379355 39:0 40:0 41:0 42:0 43:0 44:0 45:0.00929733 46:0.137807 47:0.223962 48:0.074172 49:0.0506188 50:0.0661143 51:0.0743786 52:0.12913 53:0.234499 54:0.31639 55:0.153236 56:0.0283395 57:0 58:0 59:0 60:0 61:0.014777 62:0.487237 63:0.238084 64:0 65:0.129518 66:0.201895 67:0.157135 68:0.1019 69:0.0804724 70:0.065235 71:0.0257131 72:0 73:0 74:0 75:0 76:0 77:0 78:0 79:0.323428 80:0.676557 81:0.0326078 82:0.0228255 83:0.00978234 84:0 85:0.0146735 86:0.0179343 87:0.0934757 88:0.427162 89:0.381511 90:0.0253518 91:0 92:0 93:0 94:0 95:0.0198589 96:0.382248 97:0.314362 98:0.258165 99:0 100:0.00211855 101:0.00635566 102:0 103:0.0533876 104:0.398712 105:0.426253 106:0.113131 107:0 108:0.0508323 109:0.184788 110:0.0227079 111:0 112:0 113:0 114:0.0443741 115:0.512906 116:0.184371 117:0.184485 118:0.0894375 119:0 120:0 121:0.00264022 122:0.023762 123:0.0217818 124:0.318807 125:0.35907 126:0.00456422 127:0.00373436 128:0.0209539 129:0.0392108 130:0.00622394 131:0.528205 132:0.397087 133:0 134:0 135:0 136:0.0120965 137:0.0362896 138:0 139:0.388299 140:0.550795 141:0.0124997 142:0 143:0 144:0.00893842 145:0.777643 146:0.213405 147:0 148:0 149:0 150:0 151:0 152:0 153:0.018333 154:0.555175 155:0.419066 156:0 157:0 158:0 159:0.00555545 160:0.00185182 161:0 162:0 163:0.0114531 164:0.374626 165:0.49556 166:0.118348 167:0 168:0 169:0 170:0 171:0 172:0 173:0.0311316 174:0.459112 175:0.50974 176:0 177:0 178:0 179:0 180:0.154907 181:0.562487 182:0.112944 183:0 184:0 185:0 186:0 187:0.0379456 188:0.131693 189:0.46755 190:0.260481 191:0.0182922 192:0 193:0 194:0.00975586 195:0.00975586 196:0 197:0.234141 198:0.318717 199:0.281909 200:0.226804 201:0.00234038 202:0 203:0 204:0.00638284 205:0.00468075 206:0.159146 207:0.576428 208:0.102934 209:0.0705831 210:0 211:0.12352 212:0.0529373 213:0.0294096 214:0.00441144 215:0.039703 216:0 217:0 218:0 219:0 220:0 221:0 222:0 223:0.508455 224:0.491526 225:0.056679 226:0.0163964 227:0.00384608 228:0 229:0 230:0 231:0.0437238 232:0.381774 233:0.497561 234:0 235:0 236:0 237:0 238:0 239:0.0561584 240:0.315755 241:0.39492 242:0.233148 243:0.0249969 244:0.0249969 245:0.0749906 246:0 247:0.0999875 248:0.677415 249:0.0787402 250:0.0187477 251:0 252:0 253:0 254:0 255:0 256:0 257:0 258:0.108972 259:0.742294 260:0.148715 261:0 262:0 263:0 264:0.0112496 265:0.00124996 266:0 267:0.543733 268:0.440611 269:0.0031249 270:0 271:0 272:0 273:0 274:0.0278298 275:0.695587 276:0.276568 277:0 278:0 279:0 280:0 281:0 282:0 283:0.492728 284:0.507251 285:0 286:0 287:0 
1 0:0 1:0.403276 2:0.596691 3:0 4:0 5:0 6:0 7:0 8:0 9:0.00263151 10:0.170785 11:0.54367 12:0.261835 13:0 14:0 15:0.0157891 16:0.00526302 17:0 18:0 19:0 20:0.277068 21:0.72291 22:0 23:0 24:0 25:0 26:0 27:0 28:0 29:0 30:0.494919 31:0.505057 32:0 33:0 34:0 35:0 36:0.149267 37:0.361125 38:0.374263 39:0.115326 40:0 41:0 42:0 43:0 44:0 45:0.0561394 46:0.0103507 47:0.133156 48:0.0542096 49:0.104033 50:0.10263 51:0.295433 52:0.194207 53:0.0498237 54:0.0566447 55:0.12389 56:0.261072 57:0.0742077 58:0.0139238 59:0.0721508 60:0.150789 61:0.180852 62:0.0664546 63:0 64:0 65:0.0255667 66:0.372138 67:0.56815 68:0 69:0.0255667 70:0.00852224 71:0 72:0.0458709 73:0 74:0 75:0 76:0 77:0 78:0.109784 79:0.625526 80:0.218804 81:0 82:0.00989191 83:0.0329131 84:0.00755382 85:0.0187047 86:0.0631284 87:0.392619 88:0.414021 89:0.06115 90:0 91:0 92:0 93:0 94:0.0105421 95:0.481019 96:0.444072 97:0.0643568 98:0 99:0 100:0 101:0 102:0 103:0.583582 104:0.416398 105:0 106:0 107:0 108:0.104463 109:0.2433 110:0.458773 111:0 112:0 113:0 114:0 115:0.057886 116:0.135563 117:0.302646 118:0.192042 119:0.18333 120:0.0318176 121:0.0212117 122:0 123:0.0234844 124:0.0551126 125:0.190337 126:0 127:0.0125826 128:0.000662241 129:0.534263 130:0.179633 131:0.174832 132:0.052317 133:0.0456946 134:0 135:0 136:0 137:0 138:0.143038 139:0.775444 140:0.0650171 141:0.0164832 142:0 143:0 144:0.284316 145:0.449295 146:0.26132 147:0.00505218 148:0 149:0 150:0 151:0 152:0 153:0.228509 154:0.493795 155:0.203854 156:0.0490351 157:0.0110191 158:0 159:0.00275478 160:0.0110191 161:0 162:0.0110047 163:0.117941 164:0.298083 165:0.533367 166:0.0395928 167:0 168:0 169:0 170:0 171:0.0064704 172:0.0097056 173:0.0132349 174:0.422929 175:0.541749 176:0 177:0.00441163 178:0.00147055 179:0 180:0.315142 181:0.00151511 182:0.0099997 183:0.0127269 184:0.00818157 185:0.0154541 186:0.0563619 187:0.341505 188:0.239084 189:0.298046 190:0 191:0 192:0 193:0 194:0 195:0 196:0.249857 197:0.452083 198:0.112991 199:0.00423717 200:0.0127115 201:0.0203384 202:0.00988673 203:0.112991 204:0.22005 205:0.366374 206:0.140392 207:0 208:0.107124 209:0.385645 210:0.214247 211:0.0642742 212:0.192823 213:0.0267809 214:0.00892698 215:0 216:0 217:0 218:0 219:0 220:0 221:0.0105848 222:0.652498 223:0.336903 224:0 225:0.00615375 226:0 227:0 228:0 229:0 230:0.19092 231:0.570914 232:0.231996 233:0 234:0 235:0.00174417 236:0.0052325 237:0 238:0.273485 239:0.602435 240:0.117092 241:0 242:0 243:0 244:0 245:0 246:0 247:0.701746 248:0.298238 249:0 250:0 251:0 252:0 253:0 254:0 255:0 256:0 257:0.297581 258:0.666245 259:0.0198789 260:0.0162646 261:0 262:0 263:0 264:0 265:0.129062 266:0.792355 267:0.0785705 268:0 269:0 270:0 271:0 272:0 273:0 274:0.54239 275:0.457597 276:0 277:0 278:0 279:0 280:0 281:0 282:0.0138886 283:0.950904 284:0.0351844 285:0 286:0 287:0 
1 0:0 1:0.180765 2:0.61561 3:0.203601 4:0 5:0 6:0 7:0 8:0 9:0 10:0.0424515 11:0.518537 12:0.402503 13:0.0364768 14:0 15:0 16:0 17:0 18:0 19:0 20:0.256647 21:0.548486 22:0.194846 23:0 24:0 25:0 26:0 27:0 28:0 29:0 30:0.233732 31:0.766244 32:0 33:0 34:0 35:0 36:0.0344971 37:0.596494 38:0.216152 39:0.0338421 40:0.118993 41:0 42:0 43:0 44:0 45:0.0994967 46:0.115884 47:0.052173 48:0 49:0 50:0.0892962 51:0.298824 52:0.263206 53:0.0811023 54:0.0720458 55:0.165154 56:0.225389 57:0.0688963 58:0.00314954 59:0.0362198 60:0.103935 61:0.208854 62:0.116336 63:0 64:0 65:0 66:0.550801 67:0.421998 68:0.0271163 69:0 70:0 71:0 72:0.148707 73:0.031935 74:0.0112901 75:0.0338704 76:0 77:0 78:0.0948372 79:0.52225 80:0.157094 81:0 82:0 83:0 84:0.00414195 85:0.0218932 86:0.111833 87:0.634014 88:0.201476 89:0.0266268 90:0 91:0 92:0 93:0 94:0.0875471 95:0.480455 96:0.386012 97:0.0459766 98:0 99:0 100:0 101:0 102:0.0148548 103:0.785674 104:0.199453 105:0 106:0 107:0 108:0.174521 109:0.162259 110:0.366344 111:0.0352856 112:0 113:0 114:0.011444 115:0.227109 116:0.0230242 117:0.0843582 118:0.104737 119:0.0810407 120:0.138148 121:0.0845952 122:0.0521315 123:0.042653 124:0.157579 125:0.254733 126:0 127:0 128:0 129:0.454385 130:0.2779 131:0.199997 132:0.0279033 133:0.0398011 134:0 135:0 136:0 137:0 138:0.118325 139:0.827921 140:0.0395011 141:0.010676 142:0.00355866 143:0 144:0.151101 145:0.381757 146:0.433137 147:0.033977 148:0 149:0 150:0 151:0 152:0 153:0.155287 154:0.458288 155:0.275117 156:0.104085 157:0 158:0.00504802 159:0.00216344 160:0 161:0 162:0.0305551 163:0.0644436 164:0.175553 165:0.577909 166:0.100415 167:0.0149998 168:0.0124998 169:0.00416661 170:0.0194442 171:0.00650868 172:0.00532529 173:0 174:0.290524 175:0.666252 176:0.0195261 177:0.00887548 178:0.00295849 179:0 180:0.16388 181:0.0988834 182:0.0149992 183:0 184:0.0111105 185:0 186:0.0822176 187:0.240542 188:0.388312 189:0.356224 190:0.00479226 191:0 192:0 193:0 194:0 195:0.029073 196:0.288973 197:0.320921 198:0.488115 199:0.0800814 200:0.00805051 201:0.0139825 202:0.0258464 203:0.135164 204:0.133469 205:0.083471 206:0.0317783 207:0.280517 208:0.045827 209:0.0624913 210:0 211:0.227746 212:0.0499931 213:0.249965 214:0.0833218 215:0 216:0 217:0 218:0 219:0 220:0 221:0.171623 222:0.672996 223:0.148617 224:0.00674836 225:0 226:0.000716322 227:0.00214897 228:0.00515752 229:0.000573058 230:0.362889 231:0.536525 232:0.0919758 233:0 234:0 235:0 236:0 237:0 238:0.34826 239:0.602771 240:0.0489578 241:0 242:0 243:0 244:0 245:0 246:0.0292091 247:0.901875 248:0.0688992 249:0 250:0 251:0 252:0 253:0 254:0 255:0 256:0.0306923 257:0.617806 258:0.351476 259:0 260:0 261:0 262:0 263:0 264:0 265:0.161109 266:0.82895 267:0.00992896 268:0 269:0 270:0 271:0 272:0 273:0 274:0.708655 275:0.291331 276:0 277:0 278:0 279:0 280:0 281:0 282:0.00663702 283:0.987368 284:0.00597332 285:0 286:0 287:0 
1 0:0 1:0.262801 2:0.737174 3:0 4:0 5:0 6:0 7:0 8:0 9:0.0223457 10:0.223457 11:0.437418 12:0.264518 13:0.0522332 14:0 15:0 16:0 17:0 18:0 19:0.048999 20:0.419192 21:0.415792 22:0.099998 23:0 24:0.000799984 25:0.0151997 26:0 27:0 28:0 29:0 30:0.0969976 31:0.864978 32:0.037999 33:0 34:0 35:0 36:0.0635951 37:0.576742 38:0.270608 39:0.0890331 40:0 41:0 42:0 43:0 44:0 45:0.122885 46:0.223764 47:0.0301051 48:0.0126758 49:0.0457738 50:0.0471823 51:0.121477 52:0.253869 53:0.142251 54:0.118516 55:0.226539 56:0.194852 57:0.0115224 58:0.0246908 59:0.0205757 60:0.0650192 61:0.204523 62:0.133742 63:0 64:0 65:0 66:0.502948 67:0.444743 68:0.0522349 69:0 70:0 71:0 72:0.118901 73:0.0327739 74:0.0434445 75:0 76:0 77:0 78:0.153504 79:0.458834 80:0.192528 81:0.00796449 82:0.0233035 83:0.00117992 84:0.00412973 85:0.0401174 86:0.0632734 87:0.693648 88:0.166369 89:0 90:0 91:0 92:0 93:0 94:0.081826 95:0.647922 96:0.266758 97:0.00348396 98:0 99:0 100:0 101:0 102:0.00499991 103:0.733201 104:0.261781 105:0 106:0 107:0 108:0.181621 109:0.283757 110:0.315238 111:0 112:0 113:0 114:0 115:0.134329 116:0.0850415 117:0.286301 118:0.302691 119:0.096471 120:0.112861 121:0.0398332 122:0 123:0 124:0.0286301 125:0.133192 126:0 127:0.0197737 128:0.0631347 129:0.535868 130:0.235872 131:0.145337 132:0 133:0 134:0 135:0.00315452 136:0.00473179 137:0.0233435 138:0.139588 139:0.763868 140:0.0652986 141:0 142:0 143:0 144:0.0866649 145:0.369159 146:0.512281 147:0.0318743 148:0 149:0 150:0 151:0 152:0 153:0.120771 154:0.364126 155:0.471009 156:0.0440816 157:0 158:0 159:0 160:0 161:0 162:0.0303759 163:0.104031 164:0.400801 165:0.421231 166:0.0247309 167:0 168:0.00604831 169:0.00685475 170:0.0059139 171:0 172:0 173:0.0290689 174:0.283713 175:0.620912 176:0.0662771 177:0 178:0 179:0 180:0.0430131 181:0.0525716 182:0.0066174 183:0.0154406 184:0 185:0 186:0.044116 187:0.442998 188:0.395206 189:0 190:0 191:0 192:0 193:0 194:0 195:0.0225393 196:0.621577 197:0.355867 198:0.394221 199:0.00240379 200:0.00721137 201:0 202:0.017788 203:0.0423067 204:0.0891806 205:0.297589 206:0.149275 207:0.205537 208:0.0166651 209:0.0416628 210:0.269419 211:0.0111101 212:0.131469 213:0.203685 214:0.0916582 215:0.028701 216:0 217:0 218:0 219:0 220:0 221:0.117009 222:0.5594 223:0.300125 224:0.0234533 225:0 226:0 227:0 228:0.0140349 229:0.0494145 230:0.258476 231:0.392538 232:0.278943 233:0.00657885 234:0 235:0 236:0 237:0 238:0.341682 239:0.454551 240:0.184394 241:0.019362 242:0 243:0 244:0 245:0 246:0.0473583 247:0.949103 248:0.00352106 249:0 250:0 251:0 252:0 253:0 254:0.00952356 255:0.057935 256:0.133594 257:0.641253 258:0.157668 259:0 260:0 261:0 262:0 263:0 264:0 265:0.0335567 266:0.904017 267:0.0624154 268:0 269:0 270:0 271:0 272:0 273:0.0043227 274:0.68659 275:0.309073 276:0 277:0 278:0 279:0 280:0 281:0 282:0.0131002 283:0.965918 284:0.0209602 285:0 286:0 287:0 
1 0:0 1:0.204566 2:0.611697 3:0.183709 4:0 5:0 6:0 7:0 8:0 9:0.00514271 10:0.0348561 11:0.338847 12:0.618839 13:0.00228565 14:0 15:0 16:0 17:0 18:0 19:0.0161014 20:0.0851677 21:0.679223 22:0.212707 23:0.00677952 24:0 25:0 26:0 27:0 28:0 29:0 30:0.019293 31:0.788566 32:0.192114 33:0 34:0 35:0 36:0.00847434 37:0.0553657 38:0.218638 39:0.34773 40:0.118923 41:0.168922 42:0.0819186 43:0 44:0 45:0.038271 46:0.140584 47:0.211571 48:0.0802457 49:0.00462956 50:0 51:0.130245 52:0.283329 53:0.111109 54:0.0639255 55:0.0251136 56:0.263008 57:0.325335 58:0.149083 59:0.0319627 60:0.0899523 61:0.010502 62:0.041095 63:0.0123449 64:0 65:0 66:0.0148139 67:0.622801 68:0.325289 69:0.0185174 70:0.00617246 71:0 72:0.0238771 73:0.0291831 74:0.034285 75:0.0228567 76:0.0142854 77:0.06857 78:0.266321 79:0.477337 80:0.063264 81:0 82:0 83:0 84:0 85:0.00447243 86:0.125687 87:0.689671 88:0.180158 89:0 90:0 91:0 92:0 93:0 94:0.170748 95:0.699241 96:0.129998 97:0 98:0 99:0 100:0 101:0 102:0 103:0.654374 104:0.328041 105:0.0175605 106:0 107:0 108:0.0592805 109:0.239667 110:0.233979 111:0 112:0 113:0 114:0.00479035 115:0.254936 116:0.207332 117:0.241831 118:0.118619 119:0.00688758 120:0.0846917 121:0.143364 122:0.133925 123:0.00535701 124:0.102548 125:0.162751 126:0 127:0 128:0.0512813 129:0.298571 130:0.242162 131:0.383043 132:0.0249284 133:0 134:0 135:0 136:0 137:0 138:0.0185248 139:0.914552 140:0.0669053 141:0 142:0 143:0 144:0.111461 145:0.181215 146:0.585108 147:0.0539011 148:0.0273164 149:0.0068291 150:0 151:0 152:0.0341455 153:0.166506 154:0.369236 155:0.281469 156:0.182777 157:0 158:0 159:0 160:0 161:0 162:0 163:0.0238551 164:0.101806 165:0.72228 166:0.149637 167:0 168:0.00180721 169:0.000602402 170:0 171:0 172:0 173:0.00157654 174:0.155177 175:0.811243 176:0.0319813 177:0 178:0 179:0 180:0.470851 181:0.00485413 182:0 183:0 184:0.00970827 185:0.0524246 186:0.221834 187:0.145139 188:0.095141 189:0.278675 190:0.00810464 191:0 192:0 193:0 194:0 195:0.00349123 196:0.282041 197:0.427675 198:0.21653 199:0.0488443 200:0.0884581 201:0.0430753 202:0.0653821 203:0.150763 204:0.174609 205:0.174224 206:0.0380755 207:0 208:0.017854 209:0.117836 210:0.330298 211:0.462417 212:0 213:0.0535619 214:0.017854 215:0 216:0 217:0 218:0 219:0.0113206 220:0.00125784 221:0 222:0.776246 223:0.21116 224:0 225:0 226:0 227:0 228:0 229:0.0206742 230:0.182255 231:0.509377 232:0.287679 233:0 234:0 235:0 236:0 237:0 238:0.33626 239:0.589884 240:0.0738453 241:0 242:0 243:0 244:0 245:0 246:0 247:0.710803 248:0.289179 249:0 250:0 251:0 252:0 253:0 254:0 255:0 256:0 257:0.327482 258:0.662756 259:0.00974005 260:0 261:0 262:0 263:0 264:0 265:0.0711756 266:0.851284 267:0.0775285 268:0 269:0 270:0 271:0.0024834 272:0.00745021 273:0 274:0.52019 275:0.453304 276:0.012417 277:0.004139 278:0 279:0 280:0 281:0 282:0 283:0.858405 284:0.132264 285:0.00930206 286:0 287:0 
1 0:0.0639984 1:0.38549 2:0.504237 3:0.0462488 4:0 5:0 6:0 7:0 8:0 9:0.019047 10:0.140471 11:0.636033 12:0.182647 13:0.0105439 14:0.0112241 15:0 16:0 17:0 18:0 19:0.0252804 20:0.34681 21:0.456171 22:0.17172 23:0 24:0 25:0 26:0 27:0 28:0 29:0 30:0.305974 31:0.694003 32:0 33:0 34:0 35:0 36:0.381219 37:0.432942 38:0.0563208 39:0.118005 40:0.011494 41:0 42:0 43:0 44:0 45:0.0638603 46:0.129371 47:0.0245871 48:0.0059405 49:0.0174915 50:0.135971 51:0.285804 52:0.249006 53:0.0879523 54:0.106857 55:0.180141 56:0.122741 57:0.0675078 58:0.0310464 59:0.0176892 60:0.145846 61:0.238263 62:0.0898901 63:0 64:0 65:0.107749 66:0.558573 67:0.307732 68:0.0258598 69:0 70:0 71:0 72:0.0673845 73:0.0384092 74:0.00202154 75:0 76:0 77:0 78:0.0943383 79:0.532607 80:0.265226 81:0.0341848 82:0.0201275 83:0 84:0 85:0.0319484 86:0.149199 87:0.514209 88:0.247121 89:0.00319484 90:0 91:0 92:0 93:0 94:0.0540246 95:0.367528 96:0.49284 97:0.0855985 98:0 99:0 100:0 101:0 102:0.0120877 103:0.699438 104:0.288456 105:0 106:0 107:0 108:0.0847046 109:0.234408 110:0.342642 111:0 112:0 113:0 114:0 115:0.249996 116:0.088234 117:0.0911956 118:0.168307 119:0.117251 120:0.0436612 121:0.00915477 122:0.00176053 123:0.0334501 124:0.188729 125:0.346473 126:0 127:0 128:0.0188116 129:0.47392 130:0.149833 131:0.221779 132:0.103299 133:0.0323427 134:0 135:0 136:0 137:0 138:0.235467 139:0.655082 140:0.0943378 141:0.0150941 142:0 143:0 144:0.430469 145:0.383803 146:0.185711 147:0 148:0 149:0 150:0 151:0 152:0 153:0.23623 154:0.50822 155:0.218826 156:0.0186706 157:0.00854417 158:0.00664546 159:0.00284806 160:0 161:0 162:0.0758056 163:0.0791465 164:0.294582 165:0.48905 166:0.0314512 167:0 168:0 169:0.00806442 170:0.0218891 171:0 172:0.00242713 173:0.0563093 174:0.438824 175:0.478144 176:0 177:0.0182034 178:0.00606781 179:0 180:0.436672 181:0.0174669 182:0 183:0 184:0 185:0 186:0 187:0.235366 188:0.310474 189:0.241826 190:0.00081698 191:0.00245094 192:0 193:0 194:0 195:0 196:0.137743 197:0.617147 198:0.339071 199:0.0574696 200:0 201:0.00948249 202:0.0135054 203:0 204:0.0600557 205:0.297118 206:0.223269 207:0.0605969 208:0.0454477 209:0.19088 210:0.39388 211:0.103015 212:0.183306 213:0.0227238 214:0 215:0 216:0 217:0 218:0 219:0 220:0 221:0 222:0.473369 223:0.522368 224:0.00424995 225:0 226:0 227:0 228:0 229:0.00298503 230:0.115521 231:0.59223 232:0.273429 233:0.0158207 234:0.00207037 235:0 236:0 237:0 238:0.044306 239:0.49368 240:0.423391 241:0.0365421 242:0 243:0 244:0 245:0 246:0 247:0.66422 248:0.332391 249:0.00337072 250:0 251:0 252:0 253:0 254:0 255:0 256:0 257:0.0898706 258:0.788583 259:0.0961995 260:0.0253157 261:0 262:0 263:0 264:0 265:0.00534435 266:0.73182 267:0.262823 268:0 269:0 270:0 271:0 272:0 273:0.00582515 274:0.300966 275:0.687206 276:0.00598696 277:0 278:0 279:0 280:0 281:0 282:0 283:0.834867 284:0.165105 285:0 286:0 287:0 
1 0:0 1:0.402686 2:0.597289 3:0 4:0 5:0 6:0 7:0 8:0 9:0.0352337 10:0.305023 11:0.40804 12:0.193618 13:0.031207 14:0 15:0.00134224 16:0.0255025 17:0 18:0 19:0.0104867 20:0.316286 21:0.45898 22:0.214228 23:0 24:0 25:0 26:0 27:0 28:0 29:0 30:0.0265299 31:0.908395 32:0.0650494 33:0 34:0 35:0 36:0.0271421 37:0.551699 38:0.276849 39:0.024285 40:0.11314 41:0.00685695 42:0 43:0 44:0 45:0.124914 46:0.241073 47:0.0313126 48:0 49:0.00336695 50:0.0494941 51:0.138718 52:0.253194 53:0.15791 54:0.122724 55:0.197975 56:0.169693 57:0.0550491 58:0.0429282 59:0.0257569 60:0.106058 61:0.172975 62:0.106815 63:0.0704176 64:0 65:0 66:0.483065 67:0.353496 68:0.0929512 69:0 70:0 71:0 72:0.0932707 73:0.0712527 74:0.00366967 75:0.0357793 76:0.0192658 77:0 78:0.303512 79:0.335775 80:0.13746 81:0 82:0 83:0 84:0 85:0.0332047 86:0.13705 87:0.742683 88:0.0847425 89:0.00230766 90:0 91:0 92:0 93:0 94:0.0646827 95:0.688093 96:0.244048 97:0.00316696 98:0 99:0 100:0 101:0 102:0.0129479 103:0.719707 104:0.267325 105:0 106:0 107:0 108:0.120844 109:0.375825 110:0.128699 111:0 112:0 113:0 114:0 115:0.255132 116:0.119485 117:0.345346 118:0.310391 119:0.0455742 120:0.0526537 121:0.0247782 122:0.00884936 123:0.0254419 124:0.125882 125:0.0610606 126:0 127:0 128:0.0535361 129:0.474751 130:0.169129 131:0.238903 132:0.0532146 133:0.01045 134:0 135:0 136:0 137:0 138:0.120032 139:0.748446 140:0.126025 141:0.00547936 142:0 143:0 144:0.0464006 145:0.536543 146:0.417038 147:0 148:0 149:0 150:0 151:0 152:0 153:0.0515356 154:0.436027 155:0.471921 156:0.0405022 157:0 158:0 159:0 160:0 161:0 162:0.00632047 163:0.136906 164:0.433178 165:0.391418 166:0.0231374 167:0 168:0.00677193 169:0.00225731 170:0 171:0.0173607 172:0.0057869 173:0 174:0.32777 175:0.616884 176:0.0136571 177:0.0138886 178:0.00462952 179:0 180:0.142064 181:0.0993069 182:0 183:0 184:0 185:0 186:0.0744802 187:0.489983 188:0.194131 189:0.226412 190:0 191:0 192:0 193:0 194:0 195:0.0115901 196:0.427353 197:0.334632 198:0.139193 199:0.0212956 200:0 201:0.0101849 202:0.026851 203:0 204:0.00617265 205:0.567575 206:0.228697 207:0 208:0.00490148 209:0.0784237 210:0.205862 211:0.0715616 212:0.26566 213:0.285266 214:0.0666601 215:0.0215665 216:0 217:0 218:0 219:0 220:0 221:0 222:0.376277 223:0.593326 224:0.0303842 225:0.012658 226:0 227:0 228:0 229:0.0332273 230:0.12215 231:0.416924 232:0.391924 233:0.0231009 234:0 235:0 236:0 237:0 238:0.10413 239:0.420758 240:0.378068 241:0.0970329 242:0 243:0 244:0 245:0 246:0.0214555 247:0.846536 248:0.13199 249:0 250:0 251:0 252:0 253:0 254:0 255:0 256:0.0737948 257:0.360953 258:0.485816 259:0.0794096 260:0 261:0 262:0 263:0 264:0 265:0.00260178 266:0.814131 267:0.183256 268:0 269:0 270:0 271:0.000976543 272:0.00292963 273:0 274:0.255659 275:0.667174 276:0.0732408 277:0 278:0 279:0 280:0 281:0 282:0.00838683 283:0.934486 284:0.0570949 285:0 286:0 287:0 
1 0:0 1:0.302449 2:0.678556 3:0.0189728 4:0 5:0 6:0 7:0 8:0 9:0.0604379 10:0 11:0.478558 12:0.313453 13:0.0760968 14:0 15:0.0370869 16:0.0123623 17:0.0219774 18:0.013366 19:0.159154 20:0.307171 21:0.386129 22:0.124254 23:0 24:0.00742556 25:0.00247519 26:0 27:0 28:0 29:0 30:0.209835 31:0.790139 32:0 33:0 34:0 35:0 36:0.177633 37:0.424434 38:0.187697 39:0.00894554 40:0 41:0 42:0 43:0.0277951 44:0.17348 45:0 46:0 47:0.0079325 48:0.143025 49:0.0173073 50:0.0531237 51:0.0670657 52:0.135093 53:0.576428 54:0.353153 55:0.142934 56:0.0169142 57:0 58:0 59:0 60:0.0236055 61:0.171001 62:0.292374 63:0 64:0 65:0.153622 66:0.164531 67:0.424507 68:0.184529 69:0.0545405 70:0.0181802 71:0 72:0 73:0 74:0 75:0 76:0 77:0 78:0.040804 79:0.81177 80:0.147412 81:0 82:0 83:0 84:0 85:0 86:0.0331011 87:0.278003 88:0.521979 89:0.166894 90:0.0142516 91:0 92:0 93:0 94:0 95:0.244534 96:0.469234 97:0.26603 98:0.00593817 99:0 100:0 101:0 102:0 103:0.462743 104:0.430091 105:0.0892834 106:0.0122446 107:0.0056121 108:0.0499992 109:0.418925 110:0.13948 111:0 112:0 113:0 114:0.0200644 115:0.24854 116:0.122975 117:0.132244 118:0.339124 119:0.111954 120:0.0195649 121:0.00217387 122:0 123:0 124:0.192931 125:0.201989 126:0 127:0 128:0.113897 129:0.451343 130:0.0567557 131:0.257524 132:0.113704 133:0.00675663 134:0 135:0 136:0 137:0 138:0.18897 139:0.658543 140:0.146385 141:0.00608353 142:0 143:0 144:0.0620527 145:0.810405 146:0.127528 147:0 148:0 149:0 150:0 151:0 152:0 153:0.282905 154:0.437333 155:0.252737 156:0.0227843 157:0.00421932 158:0 159:0 160:0 161:0 162:0.107232 163:0.201266 164:0.407736 165:0.283753 166:0 167:0 168:0 169:0 170:0 171:0.0358323 172:0.0408322 173:0.024166 174:0.448321 175:0.410544 176:0.0180551 177:0.00111108 178:0.0211105 179:0 180:0.227717 181:0 182:0 183:0 184:0 185:0 186:0 187:0.387614 188:0.384644 189:0.225671 190:0.00405396 191:0 192:0 193:0.0045044 194:0 195:0.0110358 196:0.147294 197:0.607419 198:0 199:0 200:0 201:0 202:0 203:0 204:0.00394726 205:0.409989 206:0.586037 207:0.527074 208:0.0279637 209:0.0381324 210:0.0305059 211:0.183035 212:0.0915177 213:0 214:0.0457588 215:0.0559275 216:0 217:0 218:0 219:0 220:0 221:0 222:0.122159 223:0.810238 224:0.0675891 225:0 226:0 227:0 228:0 229:0.00153843 230:0.223457 231:0.411146 232:0.345955 233:0.0178843 234:0 235:0 236:0 237:0.00451122 238:0.00701746 239:0.419794 240:0.502124 241:0.0665405 242:0 243:0 244:0 245:0 246:0 247:0.26034 248:0.640506 249:0.095688 250:0.00344822 251:0 252:0.00371885 253:0.0210735 254:0 255:0.0272716 256:0.0636337 257:0.338003 258:0.360316 259:0.137598 260:0.0483451 261:0 262:0 263:0 264:0 265:0 266:0.790017 267:0.209969 268:0 269:0 270:0 271:0 272:0 273:0 274:0.0812253 275:0.852029 276:0.0667274 277:0 278:0 279:0 280:0 281:0 282:0.00985365 283:0.574067 284:0.416043 285:0 286:0 287:0 
1 0:0 1:0.0220418 2:0.873071 3:0.104833 4:0 5:0 6:0 7:0 8:0 9:0 10:0.00510187 11:0.262236 12:0.539437 13:0.168702 14:0.024489 15:0 16:0 17:0 18:0 19:0.0121944 20:0.0475581 21:0.584111 22:0.307298 23:0 24:0.00914578 25:0.0341443 26:0.00548747 27:0 28:0 29:0.01607 30:0.125882 31:0.815106 32:0.0428533 33:0 34:0 35:0 36:0.291785 37:0.585915 38:0.122261 39:0 40:0 41:0 42:0 43:0 44:0 45:0.18882 46:0.559013 47:0.212223 48:0.018616 49:0 50:0 51:0.0159566 52:0.00531887 53:0 54:0.0348827 55:0.253772 56:0.356094 57:0.311037 58:0.0441848 59:0 60:0 61:0 62:0 63:0 64:0 65:0 66:0.0986043 67:0.66662 68:0.152767 69:0.0645788 70:0.0173599 71:0 72:0.203218 73:0.0145155 74:0 75:0 76:0 77:0 78:0.100802 79:0.44353 80:0.237894 81:0.102036 82:0 83:0 84:0.0183664 85:0.0224478 86:0 87:0.104586 88:0.446916 89:0.305597 90:0.144541 91:0.0493924 92:0.00606042 93:0.0109088 94:0.00939365 95:0.204539 96:0.3109 97:0.194237 98:0.0699979 99:0.0524934 100:0.117485 101:0.00499937 102:0.134983 103:0.39745 104:0.117485 105:0.0187477 106:0.0737408 107:0.0824897 108:0.164335 109:0.0372079 110:0 111:0 112:0 113:0 114:0.106585 115:0.480214 116:0.21162 117:0.110837 118:0.121077 119:0.0090356 120:0.0216854 121:0.00240949 122:0.0921631 123:0.268659 124:0.265044 125:0.10903 126:0 127:0.00271724 128:0.0179338 129:0.042389 130:0.10869 131:0.463562 132:0.298897 133:0.0657573 134:0 135:0 136:0 137:0.0104645 138:0.0436021 139:0.702866 140:0.243009 141:0 142:0 143:0 144:0.0121618 145:0.607412 146:0.377014 147:0.00337826 148:0 149:0 150:0 151:0 152:0 153:0.0377532 154:0.424978 155:0.367838 156:0.104076 157:0.00408142 158:0 159:0.00765267 160:0.0377532 161:0.0158155 162:0 163:0.0218743 164:0.395613 165:0.464048 166:0.118434 167:0 168:0 169:0 170:0 171:0 172:0 173:0 174:0.269778 175:0.73017 176:0 177:0 178:0 179:0 180:0.493808 181:0.263826 182:0.0115376 183:0 184:0.0153834 185:0 186:0 187:0.0184601 188:0.196908 189:0.215429 190:0.286903 191:0.0345626 192:0 193:0 194:0 195:0 196:0.208718 197:0.254354 198:0.13541 199:0.203635 200:0.179157 201:0.0989532 202:0.03229 203:0.0171866 204:0.0411437 205:0.167179 206:0.124994 207:0.673109 208:0.0766411 209:0.0499833 210:0 211:0 212:0 213:0.14995 214:0.0499833 215:0 216:0.0156244 217:0 218:0 219:0 220:0 221:0.073044 222:0.347252 223:0.469513 224:0.0945276 225:0 226:0.0347811 227:0.0230425 228:0.0826051 229:0.055215 230:0.108691 231:0.0365201 232:0.44172 233:0.217382 234:0.0130715 235:0 236:0 237:0 238:0.0562073 239:0.415673 240:0.378419 241:0.136597 242:0 243:0 244:0.00357117 245:0.0107135 246:0.0257124 247:0.516392 248:0.44354 249:0 250:0 251:0 252:0 253:0 254:0 255:0 256:0.0218378 257:0.69134 258:0.286765 259:0 260:0 261:0 262:0 263:0 264:0 265:0.102062 266:0.667328 267:0.230569 268:0 269:0 270:0 271:0.00423693 272:0.0127108 273:0 274:0.198288 275:0.299127 276:0.477078 277:0.00847386 278:0 279:0 280:0 281:0.0833246 282:0.0833246 283:0.335382 284:0.395792 285:0.0812415 286:0.0208312 287:0 
0.8273680657671804 0:0 1:0.320812 2:0.64943 3:0.0297392 4:0 5:0 6:0 7:0 8:0 9:0 10:0.0735639 11:0.573858 12:0.335644 13:0.00483376 14:0 15:0 16:0.00543798 17:0.00664643 18:0 19:0.0421287 20:0.238652 21:0.596051 22:0.106479 23:0.0166663 24:0 25:0 26:0 27:0 28:0 29:0 30:0.405522 31:0.594456 32:0 33:0 34:0 35:0 36:0.258986 37:0.693207 38:0.047791 39:0 40:0 41:0 42:0 43:0 44:0 45:0.253151 46:0.601563 47:0.0399989 48:0 49:0.0010526 50:0.00947344 51:0.00789453 52:0.0210521 53:0.0657877 54:0.270214 55:0.341192 56:0.324453 57:0.0641297 58:0 59:0 60:0 61:0 62:0 63:0 64:0.105043 65:0.128208 66:0.500677 67:0.160547 68:0.0305039 69:0.0291278 70:0.0146786 71:0.0311919 72:0.188609 73:0 74:0 75:0 76:0 77:0 78:0.0416363 79:0.48807 80:0.281668 81:0.019633 82:0.00654433 83:0 84:0 85:0 86:0 87:0.0769613 88:0.383498 89:0.513337 90:0 91:0 92:0 93:0 94:0 95:0.00801877 96:0.207191 97:0.321223 98:0.463556 99:0.0585915 100:0.0273427 101:0.00703098 102:0.0164056 103:0.0777313 104:0.413656 105:0.283973 106:0.0933557 107:0.0218741 108:0.153612 109:0 110:0 111:0 112:0 113:0 114:0.392916 115:0.448487 116:0.0049698 117:0.274189 118:0.00537625 119:0 120:0 121:0.008602 122:0.00573466 123:0.0795685 124:0.464329 125:0.162183 126:0 127:0 128:0.00910351 129:0.00490189 130:0.010364 131:0.511057 132:0.434168 133:0.0303917 134:0 135:0 136:0 137:0 138:0 139:0.386332 140:0.589526 141:0.0241276 142:0 143:0 144:0 145:0.312846 146:0.682943 147:0.00419842 148:0 149:0 150:0 151:0 152:0 153:0.154241 154:0.545008 155:0.199627 156:0.0863453 157:0 158:0 159:0 160:0 161:0.0147599 162:0.00568174 163:0.00852261 164:0.328689 165:0.652121 166:0.00497152 167:0 168:0 169:0 170:0 171:0 172:0 173:0.0153248 174:0.530642 175:0.454018 176:0 177:0 178:0 179:0 180:0.50745 181:0.370389 182:0.117161 183:0 184:0 185:0 186:0.00373125 187:0.00124375 188:0 189:0.390276 190:0.435821 191:0.16781 192:0.00607275 193:0 194:0 195:0 196:0 197:0 198:0.253643 199:0.287887 200:0.405724 201:0.0527337 202:0 203:0 204:0 205:0 206:0 207:0.0507228 208:0.0235499 209:0.242745 210:0.409043 211:0.134053 212:0.039129 213:0.039129 214:0.0293468 215:0.0322452 216:0 217:0 218:0 219:0 220:0 221:0 222:0.0419181 223:0.354284 224:0.603773 225:0 226:0 227:0 228:0 229:0 230:0 231:0.0858315 232:0.506031 233:0.408116 234:0.0204675 235:0 236:0 237:0 238:0 239:0 240:0.135086 241:0.429087 242:0.415345 243:0.0323506 244:0.0889641 245:0.055143 246:0.135284 247:0.0117638 248:0.141901 249:0.386001 250:0.0536725 251:0.094846 252:0 253:0 254:0 255:0 256:0 257:0 258:0.14039 259:0.825746 260:0.0338421 261:0.0342454 262:0 263:0.00616417 264:0.0143831 265:0.0239718 266:0.0571898 267:0.314373 268:0.449642 269:0.0999966 270:0 271:0 272:0 273:0 274:0 275:0.280616 276:0.682291 277:0.0370796 278:0 279:0 280:0 281:0 282:0 283:0.218178 284:0.724986 285:0.0568171 286:0 287:0 
1 0:0 1:0.00574063 2:0.737764 3:0.256477 4:0 5:0 6:0 7:0 8:0 9:0.00891074 10:0.0153463 11:0.515008 12:0.457418 13:0.00330028 14:0 15:0 16:0 17:0 18:0 19:0.0192656 20:0.136694 21:0.586454 22:0.225454 23:0.0176601 24:0.0144492 25:0 26:0 27:0 28:0.01784 29:0.000938945 30:0.131922 31:0.793878 32:0.021361 33:0.0161968 34:0.01784 35:0 36:0.190365 37:0.549784 38:0.259831 39:0 40:0 41:0 42:0 43:0 44:0 45:0.473306 46:0.363212 47:0.0899017 48:0.0245186 49:0.000961515 50:0 51:0 52:0.00600947 53:0.0420663 54:0.192947 55:0.264954 56:0.295937 57:0.246151 58:0 59:0 60:0 61:0 62:0 63:0 64:0 65:0.0354059 66:0.499749 67:0.450468 68:0.0100476 69:0.00430612 70:0 71:0 72:0 73:0 74:0 75:0 76:0 77:0 78:0.243272 79:0.598093 80:0.158618 81:0.0177774 82:0.00666652 83:0.0199996 84:0 85:0 86:0.0568876 87:0.172885 88:0.459101 89:0.266661 90:0 91:0 92:0 93:0 94:0.030498 95:0.36022 96:0.29553 97:0.164174 98:0.149569 99:0.0109888 100:0 101:0 102:0.0161169 103:0.73039 104:0.242486 105:0 106:0 107:0 108:0.194178 109:0.236178 110:0.307813 111:0 112:0 113:0 114:0 115:0.194178 116:0.0676351 117:0.067531 118:0.0731586 119:0.0653665 120:0.027705 121:0.0281379 122:0.0281379 123:0.0781368 124:0.213848 125:0.417956 126:0.00857129 127:0.000952366 128:0 129:0.150315 130:0.486818 131:0.353328 132:0 133:0 134:0 135:0 136:0 137:0 138:0.154846 139:0.598476 140:0.246663 141:0 142:0 143:0 144:0.19858 145:0.37617 146:0.379944 147:0.0452819 148:0 149:0 150:0 151:0 152:0 153:0.197185 154:0.373085 155:0.241561 156:0.135941 157:0.0140559 158:0.0140559 159:0 160:0 161:0.0240959 162:0 163:0.180911 164:0.347611 165:0.402071 166:0.0693976 167:0 168:0 169:0 170:0 171:0 172:0.0176053 173:0.0239432 174:0.275171 175:0.683263 176:0 177:0 178:0 179:0 180:0.125708 181:0.017142 182:0 183:0 184:0.0147612 185:0.0328556 186:0 187:0.0333317 188:0.776154 189:0.469834 190:0.0380946 191:0 192:0 193:0 194:0 195:0 196:0.155077 197:0.336979 198:0.312247 199:0.177862 200:0 201:0 202:0 203:0.0207506 204:0.153752 205:0.149602 206:0.185767 207:0.170819 208:0.112491 209:0 210:0.0799933 211:0.253312 212:0.234147 213:0.0574952 214:0.0291642 215:0.0624948 216:0.0169276 217:0.00188085 218:0 219:0 220:0 221:0.1768 222:0.531026 223:0.174292 224:0.099058 225:0 226:0.00240381 227:0.00721142 228:0.0112178 229:0.0238778 230:0.331565 231:0.483646 232:0.140062 233:0 234:0 235:0 236:0 237:0 238:0.244405 239:0.639576 240:0.116008 241:0 242:0 243:0 244:0 245:0 246:0.00643266 247:0.856566 248:0.136986 249:0 250:0 251:0 252:0 253:0 254:0 255:0 256:0 257:0.763255 258:0.236726 259:0 260:0 261:0 262:0 263:0 264:0 265:0.0803217 266:0.91085 267:0.00881711 268:0 269:0 270:0 271:0 272:0 273:0 274:0.510427 275:0.489558 276:0 277:0 278:0 279:0 280:0 281:0 282:0 283:0.916199 284:0.0837744 285:0 286:0 287:0 
1 0:0 1:0 2:0.115425 3:0.14851 4:0.0189588 5:0.567833 6:0.149254 7:0 8:0 9:0 10:0 11:0.196745 12:0.155553 13:0.128589 14:0.27249 15:0.195526 16:0.0510833 17:0 18:0 19:0.0254769 20:0.0856661 21:0.386293 22:0.413363 23:0.0280246 24:0.0369415 25:0.024203 26:0 27:0.043794 28:0.036495 29:0.036495 30:0.283566 31:0.40181 32:0.102916 33:0.051093 34:0.043794 35:0 36:0 37:0.152952 38:0.58533 39:0.261708 40:0 41:0 42:0 43:0 44:0 45:0.0661325 46:0.128532 47:0.0509327 48:0.548659 49:0.100665 50:0.0330662 51:0.0106665 52:0.0442661 53:0.0170664 54:0 55:0.091229 56:0.359108 57:0.48496 58:0.0574025 59:0.00728921 60:0 61:0 62:0 63:0.00615375 64:0 65:0 66:0.350456 67:0.631221 68:0.0121537 69:0 70:0 71:0 72:0.227249 73:0.252454 74:0.00799164 75:0 76:0 77:0 78:0.00655724 79:0.261675 80:0.244052 81:0.169569 82:0.0292044 83:0 84:0 85:0 86:0.0053516 87:0.0168193 88:0.32339 89:0.45565 90:0.241136 91:0.147466 92:0.0582271 93:0.00886065 94:0 95:0.013291 96:0.128733 97:0.243794 98:0.158479 99:0.0908884 100:0.0113611 101:0.0340832 102:0.156783 103:0.365826 104:0.0681663 105:0.204499 106:0.0681663 107:0 108:0.00211862 109:0 110:0 111:0 112:0 113:0 114:0.394381 115:0.539507 116:0.0639824 117:0 118:0 119:0 120:0 121:0 122:0.0218351 123:0.480056 124:0.472461 125:0.0256325 126:0 127:0 128:0 129:0 130:0.144289 131:0.544372 132:0.297316 133:0.0140137 134:0 135:0 136:0 137:0 138:0 139:0.664947 140:0.335042 141:0 142:0 143:0 144:0 145:0.39762 146:0.579907 147:0.022462 148:0 149:0 150:0 151:0 152:0 153:0.144293 154:0.199158 155:0.510562 156:0.126676 157:0.00721464 158:0.0120803 159:0 160:0 161:0 162:0.0018083 163:0 164:0.16338 165:0.697281 166:0.137521 167:0 168:0 169:0 170:0 171:0 172:0 173:0 174:0.253412 175:0.746576 176:0 177:0 178:0 179:0 180:0.208271 181:0.493692 182:0.192047 183:0 184:0.0264892 185:0 186:0 187:0.0119201 188:0.0675474 189:0.456111 190:0.394953 191:0.145921 192:0.00300426 193:0 194:0 195:0 196:0 197:0 198:0.127707 199:0.323679 200:0.286683 201:0.156499 202:0.00325072 203:0 204:0.0139317 205:0.00464389 206:0.08359 207:0.0199982 208:0.0345423 209:0.0545405 210:0.266339 211:0.501773 212:0.0863558 213:0.0272703 214:0.00909008 215:0 216:0.0309728 217:0 218:0 219:0 220:0 221:0.00619455 222:0.554855 223:0.291586 224:0.116369 225:0 226:0 227:0 228:0 229:0 230:0.0336455 231:0.318434 232:0.368538 233:0.279372 234:0 235:0.00781242 236:0.00195311 237:0 238:0.103222 239:0.414058 240:0.320212 241:0.101171 242:0.051562 243:0.00487793 244:0 245:0 246:0.0714617 247:0.742177 248:0.075364 249:0.0514622 250:0.0524377 251:0.00219507 252:0 253:0 254:0 255:0 256:0 257:0.0793661 258:0.86847 259:0.0521512 260:0 261:0 262:0 263:0 264:0 265:0 266:0.414141 267:0.56655 268:0.0192923 269:0 270:0.0175436 271:0 272:0 273:0 274:0.404203 275:0.525254 276:0.0142103 277:0.0387713 278:0 279:0 280:0 281:0 282:0.00452822 283:0.83772 284:0.157733 285:0 286:0 287:0 
1 0:0.0138763 1:0.427964 2:0.301755 3:0.236999 4:0.0193828 5:0 6:0 7:0 8:0 9:0.0237957 10:0.0645883 11:0.366992 12:0.465999 13:0.0446169 14:0.00849846 15:0 16:0.00254954 17:0.0229459 18:0 19:0 20:0.00853007 21:0.796315 22:0.195142 23:0 24:0 25:0 26:0 27:0 28:0 29:0 30:0.234576 31:0.757932 32:0.00747652 33:0 34:0 35:0 36:0.0347948 37:0.487274 38:0.375872 39:0.09956 40:0.00248534 41:0 42:0 43:0 44:0 45:0.131115 46:0.155849 47:0.105717 48:0.114094 49:0.0238029 50:0.0482706 51:0.0248667 52:0.13311 53:0.263161 54:0.0648643 55:0.083783 56:0.20216 57:0.367384 58:0.102161 59:0.0279277 60:0.0526121 61:0.057477 62:0.0416212 63:0.0119146 64:0.0357439 65:0.00765941 66:0.298292 67:0.559988 68:0.0693602 69:0 70:0.00765941 71:0.0093615 72:0 73:0 74:0 75:0 76:0.018505 77:0.138254 78:0.431487 79:0.276508 80:0.135229 81:0.271295 82:0.0661621 83:0.0824761 84:0.0229604 85:0.0344406 86:0.0120844 87:0.0719022 88:0.105436 89:0.333228 90:0.0886062 91:0 92:0.0569611 93:0.018987 94:0.0354425 95:0.00886062 96:0.278951 97:0.164713 98:0.347463 99:0.00751851 100:0.00187963 101:0.00563889 102:0 103:0.490959 104:0.336078 105:0.0620277 106:0.0714259 107:0.0244352 108:0 109:0 110:0 111:0 112:0 113:0.0422071 114:0.52905 115:0.327267 116:0.101459 117:0.14981 118:0.0224715 119:0 120:0.0509354 121:0.0473774 122:0.0610475 123:0.138387 124:0.266474 125:0.263478 126:0 127:0 128:0 129:0 130:0.0897532 131:0.720484 132:0.189752 133:0 134:0 135:0 136:0 137:0 138:0.0329945 139:0.775371 140:0.191622 141:0 142:0 143:0 144:0.0786079 145:0.363775 146:0.486739 147:0.0708652 148:0 149:0 150:0 151:0 152:0 153:0.178994 154:0.215827 155:0.324917 156:0.0934155 157:0.0551715 158:0.0536042 159:0.0216298 160:0.0363631 161:0.0200624 162:0 163:0 164:0.14891 165:0.664484 166:0.186598 167:0 168:0 169:0 170:0 171:0 172:0 173:0 174:0.125865 175:0.817989 176:0.0561326 177:0 178:0 179:0 180:0.064138 181:0.230323 182:0.145489 183:0.36823 184:0.068851 185:0 186:0.0399582 187:0.0239749 188:0.0590152 189:0.591643 190:0.203592 191:0.031395 192:0 193:0.0211414 194:0.0317121 195:0.0253697 196:0.0380546 197:0.0570819 198:0.323507 199:0.266825 200:0.0294547 201:0.13366 202:0.0544541 203:0.0163362 204:0.0222767 205:0.013366 206:0.140096 207:0 208:0 209:0.00810774 210:0.315301 211:0.402685 212:0.159452 213:0.051349 214:0.0549525 215:0.00810774 216:0.044775 217:0.0199 218:0.111689 219:0.00273625 220:0 221:0.15124 222:0.361185 223:0.248253 224:0.0601975 225:0.195645 226:0.0744411 227:0.00100445 228:0.0190846 229:0 230:0.0356023 231:0.363947 232:0.158257 233:0.152007 234:0.0307803 235:0.0442936 236:0 237:0.02027 238:0.0469963 239:0.198946 240:0.499992 241:0.110659 242:0.0480473 243:0.0397338 244:0 245:0 246:0 247:0.425151 248:0.456939 249:0.0599318 250:0.0109268 251:0.00728453 252:0 253:0 254:0 255:0 256:0 257:0.16147 258:0.657694 259:0.180819 260:0 261:0 262:0.0204541 263:0.0167352 264:0 265:0.00826429 266:0.133468 267:0.558046 268:0.236565 269:0.0264457 270:0 271:0 272:0 273:0 274:0.129265 275:0.693346 276:0.177379 277:0 278:0 279:0 280:0 281:0 282:0 283:0.836553 284:0.163435 285:0 286:0 287:0 
1 0:0 1:0 2:0.312371 3:0.687583 4:0 5:0 6:0 7:0 8:0 9:0 10:0.215319 11:0.123325 12:0.427305 13:0.213986 14:0.0199987 15:0 16:0 17:0 18:0.0685355 19:0.0353913 20:0.301668 21:0.420201 22:0.140442 23:0.0235942 24:0.0101118 25:0 26:0 27:0 28:0 29:0 30:0.264565 31:0.714534 32:0.0208319 33:0 34:0 35:0 36:0.0851294 37:0.177691 38:0.377677 39:0.116208 40:0.0540504 41:0.0743193 42:0.114857 43:0 44:0 45:0.201555 46:0.0796844 47:0 48:0 49:0 50:0 51:0.0121089 52:0.437874 53:0.268739 54:0.136355 55:0.19674 56:0.121421 57:0.0259723 58:0 59:0 60:0.00519447 61:0.380495 62:0.133758 63:0.115362 64:0.0480677 65:0.178812 66:0.219189 67:0.292251 68:0.0692175 69:0 70:0.0346087 71:0.0422996 72:0.0413206 73:0.00413206 74:0.0123962 75:0 76:0 77:0.0173547 78:0.276848 79:0.508244 80:0.139664 81:0 82:0.00483855 83:0.0145157 84:0 85:0 86:0.0996742 87:0.646431 88:0.234509 89:0 90:0 91:0 92:0 93:0 94:0 95:0.39597 96:0.482902 97:0.121102 98:0 99:0 100:0 101:0 102:0 103:0.140122 104:0.625617 105:0.161831 106:0.066443 107:0.00592066 108:0.189995 109:0.00444432 110:0 111:0 112:0 113:0 114:0.267493 115:0.3961 116:0.14194 117:0.213658 118:0.239434 119:0.101239 120:0.0108692 121:0 122:0.0413031 123:0.0493773 124:0.213037 125:0.131052 126:0 127:0.0236018 128:0.0391292 129:0.0680103 130:0.404646 131:0.444707 132:0.0167697 133:0.00310549 134:0 135:0 136:0 137:0.0664817 138:0.0541194 139:0.474438 140:0.404934 141:0 142:0 143:0 144:0.0909525 145:0.591945 146:0.240446 147:0.0565312 148:0 149:0 150:0 151:0.009045 152:0.011055 153:0.0506901 154:0.235939 155:0.0463123 156:0.365429 157:0.162669 158:0.0578328 159:0.0073731 160:0.0248842 161:0.0488468 162:0 163:0 164:0.126848 165:0.788071 166:0.0850673 167:0 168:0 169:0 170:0 171:0 172:0 173:0.00752881 174:0.590722 175:0.40173 176:0 177:0 178:0 179:0 180:0.037285 181:0.159309 182:0.0889755 183:0.16863 184:0.0432167 185:0.0533853 186:0.0762647 187:0.186425 188:0.186425 189:0.150243 190:0.182262 191:0.315017 192:0.135711 193:0 194:0 195:0 196:0.0499988 197:0.166745 198:0.030287 199:0.262007 200:0.620162 201:0.0490361 202:0 203:0 204:0.0144224 205:0.0134609 206:0.0105764 207:0.218716 208:0.0624902 209:0.249961 210:0.174973 211:0.106233 212:0 213:0.140603 214:0.0468677 215:0 216:0 217:0.0403204 218:0.120961 219:0.0172034 220:0.0698887 221:0.222031 222:0.198376 223:0.238697 224:0.0924682 225:0.0304341 226:0 227:0 228:0 229:0 230:0.0547814 231:0.139562 232:0.56064 233:0.214561 234:0 235:0 236:0 237:0 238:0.384135 239:0.378037 240:0.0902411 241:0.0981677 242:0.0493887 243:0.019801 244:0.00247513 245:0.00742538 246:0.0099005 247:0.847483 248:0.103955 249:0.00891045 250:0 251:0 252:0 253:0 254:0 255:0 256:0.154887 257:0.737208 258:0.107878 259:0 260:0 261:0.0184866 262:0.0487374 263:0.00840301 264:0.0588211 265:0.13949 266:0.312592 267:0.292425 268:0.109659 269:0.0113441 270:0.033107 271:0.0277018 272:0.0699301 273:0.19425 274:0.588831 275:0.03885 276:0 277:0 278:0.0472957 279:0 280:0 281:0 282:0.0185476 283:0.896738 284:0.0701585 285:0.0145155 286:0 287:0 
0.6760287652778577 0:0 1:0 2:0.726804 3:0.27317 4:0 5:0 6:0 7:0 8:0 9:0 10:0.00529086 11:0.325653 12:0.622735 13:0.0462951 14:0 15:0 16:0 17:0 18:0.00670711 19:0.0298771 20:0.247553 21:0.642054 22:0.0554861 23:0.0128045 24:0.00548764 25:0 26:0 27:0 28:0 29:0.0303019 30:0.493163 31:0.476497 32:0 33:0 34:0 35:0 36:0.347919 37:0.299991 38:0.300287 39:0.0517736 40:0 41:0 42:0 43:0 44:0 45:0.200914 46:0.129444 47:0.111346 48:0.0322076 49:0.0107359 50:0.0257661 51:0.0220852 52:0.0656422 53:0.401828 54:0.152296 55:0.184862 56:0.309381 57:0.196356 58:0 59:0 60:0 61:0.00478918 62:0.152296 63:0 64:0.0208321 65:0.0678531 66:0.454735 67:0.387477 68:0.0214273 69:0.0357122 70:0.0119041 71:0 72:0 73:0 74:0 75:0 76:0 77:0.0298636 78:0.297731 79:0.458361 80:0.214022 81:0.00260108 82:0.0190746 83:0.0130054 84:0.0104043 85:0.00578018 86:0.0942169 87:0.135256 88:0.478888 89:0.240744 90:0 91:0 92:0 93:0 94:0.0136052 95:0.172276 96:0.481454 97:0.300845 98:0.0318022 99:0 100:0 101:0 102:0 103:0.652688 104:0.34146 105:0.00581373 106:0 107:0 108:0 109:0.182923 110:0.286173 111:0.0268287 112:0 113:0.025406 114:0.273775 115:0.16585 116:0.0390236 117:0.0517736 118:0.178989 119:0.172776 120:0.0520695 121:0 122:0.101476 123:0.209165 124:0.199402 125:0.0343185 126:0 127:0 128:0.19428 129:0.386275 130:0.0314277 131:0.165424 132:0.142567 133:0.0714265 134:0.00857118 135:0.00578018 136:0 137:0 138:0.152597 139:0.738996 140:0.102598 141:0 142:0 143:0 144:0.105099 145:0.163261 146:0.679319 147:0.0522946 148:0 149:0 150:0 151:0 152:0 153:0.372608 154:0.3363 155:0.145531 156:0.0592244 157:0.035118 158:0.00952353 159:0.0312491 160:0.0104164 161:0 162:0.135597 163:0.160515 164:0.504684 165:0.199188 166:0 167:0 168:0 169:0 170:0 171:0 172:0.00646524 173:0.0517219 174:0.553424 175:0.388345 176:0 177:0 178:0 179:0 180:0.28154 181:0 182:0 183:0 184:0 185:0 186:0.0461143 187:0.370856 188:0.301442 189:0.303657 190:0 191:0 192:0 193:0 194:0 195:0.0109945 196:0.239523 197:0.4458 198:0.221669 199:0 200:0 201:0 202:0 203:0.0532007 204:0.19236 205:0.266496 206:0.26625 207:0.145818 208:0.0104156 209:0.0687428 210:0.268722 211:0.371836 212:0.134361 213:0 214:0 215:0 216:0 217:0 218:0 219:0 220:0 221:0.121324 222:0.584219 223:0.284762 224:0.00967725 225:0.00531388 226:0.00434772 227:0 228:0.00869544 229:0.0239125 230:0.431632 231:0.346368 232:0.146856 233:0.0328494 234:0 235:0 236:0 237:0 238:0.130033 239:0.571015 240:0.228265 241:0.0706701 242:0 243:0 244:0 245:0 246:0 247:0.695983 248:0.303992 249:0 250:0 251:0 252:0 253:0.0027471 254:0.00824131 255:0 256:0.0439536 257:0.582935 258:0.241196 259:0.120872 260:0 261:0 262:0 263:0 264:0 265:0.169519 266:0.755762 267:0.0746997 268:0 269:0 270:0 271:0 272:0 273:0 274:0.513573 275:0.483652 276:0.00275585 277:0 278:0 279:0 280:0 281:0 282:0.0755369 283:0.854646 284:0.0697817 285:0 286:0 287:0 
1 0:0.044897 1:0.339789 2:0.487745 3:0.127548 4:0 5:0 6:0 7:0 8:0 9:0.0341455 10:0.0585352 11:0.31487 12:0.555596 13:0.0287798 14:0.00804858 15:0 16:0 17:0 18:0 19:0.00650546 20:0.14312 21:0.790877 22:0.0535306 23:0.00594784 24:0 25:0 26:0 27:0 28:0 29:0 30:0.289706 31:0.71027 32:0 33:0 34:0 35:0 36:0.372918 37:0.560881 38:0.00601481 39:0 40:0 41:0 42:0.0451111 43:0.015037 44:0 45:0.108843 46:0.229418 47:0.399451 48:0.0276168 49:0.00216603 50:0.0194942 51:0 52:0.0218408 53:0.191152 54:0 55:0.165535 56:0.467214 57:0.272626 58:0.0202696 59:0 60:0 61:0.025337 62:0.0489848 63:0.0333278 64:0.0916514 65:0.379937 66:0.188302 67:0.1983 68:0.108315 69:0 70:0 71:0 72:0.178269 73:0.0360108 74:0 75:0 76:0.0238088 77:0.0395822 78:0.068748 79:0.446415 80:0.207137 81:0.00149499 82:0.00847162 83:0 84:0 85:0 86:0.0581386 87:0.417933 88:0.459627 89:0.054318 90:0 91:0.0021186 92:0.0063558 93:0 94:0.00508464 95:0.364399 96:0.40783 97:0.198301 98:0.0158895 99:0 100:0.00588201 101:0.0782307 102:0.165284 103:0.395271 104:0.343509 105:0.00882301 106:0.002941 107:0 108:0.0573324 109:0.175664 110:0.0703322 111:0 112:0 113:0 114:0.159997 115:0.367661 116:0.168997 117:0.0692286 118:0.0269222 119:0 120:0.0894202 121:0.0548059 122:0.192302 123:0.138137 124:0.322426 125:0.106727 126:0 127:0.00343637 128:0.0103091 129:0.0810983 130:0.307555 131:0.534527 132:0.0604801 133:0.00257728 134:0 135:0 136:0 137:0.00519472 138:0.0532459 139:0.800312 140:0.141231 141:0 142:0 143:0 144:0 145:0 146:0.458215 147:0.437436 148:0.0307353 149:0.0155841 150:0.0233761 151:0 152:0.0346313 153:0.15533 154:0.411991 155:0.367992 156:0.0335548 157:0.00266661 158:0.0239995 159:0.00333326 160:0.00111109 161:0 162:0.0461231 163:0.0639522 164:0.214337 165:0.420147 166:0.246894 167:0.00465107 168:0.00290692 169:0.000968973 170:0 171:0 172:0.00299392 173:0.00898177 174:0.0215562 175:0.816443 176:0.149996 177:0 178:0 179:0 180:0.129404 181:0.002941 182:0.0458797 183:0.0647021 184:0.0158814 185:0 186:0.0376448 187:0.158226 188:0.545262 189:0.442984 190:0.0456431 191:0 192:0 193:0 194:0 195:0 196:0.0359842 197:0.47537 198:0.253814 199:0.0666581 200:0.0384566 201:0.0461479 202:0.0871683 203:0.0461479 204:0.0384566 205:0.128189 206:0.294834 207:0.217344 208:0.0108672 209:0.0717235 210:0.247772 211:0.191263 212:0 213:0.19561 214:0.0652032 215:0 216:0 217:0.00154316 218:0.00462949 219:0.0111108 220:0.00123453 221:0.0601833 222:0.655227 223:0.167279 224:0.0987624 225:0 226:0 227:0 228:0 229:0 230:0.0999985 231:0.39863 232:0.360298 233:0.141058 234:0 235:0 236:0 237:0.00714272 238:0.000793635 239:0.51864 240:0.364477 241:0.0811492 242:0.0277772 243:0 244:0 245:0 246:0.03214 247:0.371395 248:0.473172 249:0.09642 250:0.0267833 251:0 252:0 253:0 254:0 255:0 256:0 257:0.153033 258:0.829335 259:0.017611 260:0 261:0 262:0 263:0 264:0 265:0.0147724 266:0.287721 267:0.64294 268:0.0545442 269:0 270:0 271:0 272:0 273:0.00739894 274:0.0450663 275:0.768593 276:0.166588 277:0.0123316 278:0 279:0 280:0 281:0 282:0 283:0.7297 284:0.270277 285:0 286:0 287:0 
