<?xml version="1.0"?>
<opencv_storage>
<_1011Skewed32x8_model3__LV14_xml type_id="opencv-haar-classifier">
  <size>
    32 8</size>
  <stages>
    <_>
      <!-- stage 0 -->
      <trees>
        <_>
          <!-- tree 0 -->
          <_>
            <!-- root node -->
            <feature>
              <rects>
                <_>
                  3 1 3 6 -1.</_>
                <_>
                  4 1 1 6 3.</_></rects>
              <tilted>0</tilted></feature>
            <threshold>3.8182608783245087e-002</threshold>
            <left_val>-2.6537439227104187e-001</left_val>
            <right_val>8.8820308446884155e-001</right_val></_></_>
        <_>
          <!-- tree 1 -->
          <_>
            <!-- root node -->
            <feature>
              <rects>
                <_>
                  4 4 3 3 -1.</_>
                <_>
                  5 4 1 3 3.</_></rects>
              <tilted>0</tilted></feature>
            <threshold>2.4833019822835922e-002</threshold>
            <left_val>-3.5826730728149414e-001</left_val>
            <right_val>8.2567822933197021e-001</right_val></_></_>
        <_>
          <!-- tree 2 -->
          <_>
            <!-- root node -->
            <feature>
              <rects>
                <_>
                  6 5 3 2 -1.</_>
                <_>
                  7 5 1 2 3.</_></rects>
              <tilted>0</tilted></feature>
            <threshold>-2.2152530029416084e-002</threshold>
            <left_val>8.8132262229919434e-001</left_val>
            <right_val>-1.7159789800643921e-001</right_val></_></_>
        <_>
          <!-- tree 3 -->
          <_>
            <!-- root node -->
            <feature>
              <rects>
                <_>
                  6 5 3 3 -1.</_>
                <_>
                  7 6 1 1 9.</_></rects>
              <tilted>0</tilted></feature>
            <threshold>5.1889210939407349e-002</threshold>
            <left_val>-2.6841250061988831e-001</left_val>
            <right_val>8.5525202751159668e-001</right_val></_></_>
        <_>
          <!-- tree 4 -->
          <_>
            <!-- root node -->
            <feature>
              <rects>
                <_>
                  22 0 3 7 -1.</_>
                <_>
                  23 0 1 7 3.</_></rects>
              <tilted>0</tilted></feature>
            <threshold>2.9163440689444542e-002</threshold>
            <left_val>-1.8763729929924011e-001</left_val>
            <right_val>7.5952631235122681e-001</right_val></_></_>
        <_>
          <!-- tree 5 -->
          <_>
            <!-- root node -->
            <feature>
              <rects>
                <_>
                  21 1 3 6 -1.</_>
                <_>
                  22 1 1 6 3.</_></rects>
              <tilted>0</tilted></feature>
            <threshold>3.5386551171541214e-002</threshold>
            <left_val>-3.6891698837280273e-001</left_val>
            <right_val>6.6876441240310669e-001</right_val></_></_>
        <_>
          <!-- tree 6 -->
          <_>
            <!-- root node -->
            <feature>
              <rects>
                <_>
                  21 4 2 2 -1.</_>
                <_>
                  22 4 1 2 2.</_></rects>
              <tilted>0</tilted></feature>
            <threshold>-1.2556930072605610e-002</threshold>
            <left_val>7.3345392942428589e-001</left_val>
            <right_val>-1.5861819684505463e-001</right_val></_></_>
        <_>
          <!-- tree 7 -->
          <_>
            <!-- root node -->
            <feature>
              <rects>
                <_>
                  21 2 2 4 -1.</_>
                <_>
                  21 2 1 2 2.</_>
                <_>
                  22 4 1 2 2.</_></rects>
              <tilted>0</tilted></feature>
            <threshold>1.6344819217920303e-002</threshold>
            <left_val>-1.6825899481773376e-001</left_val>
            <right_val>8.4150940179824829e-001</right_val></_></_>
        <_>
          <!-- tree 8 -->
          <_>
            <!-- root node -->
            <feature>
              <rects>
                <_>
                  10 1 3 2 -1.</_>
                <_>
                  11 1 1 2 3.</_></rects>
              <tilted>0</tilted></feature>
            <threshold>2.6613650843501091e-002</threshold>
            <left_val>-1.1211650073528290e-001</left_val>
            <right_val>7.9236382246017456e-001</right_val></_></_>
        <_>
          <!-- tree 9 -->
          <_>
            <!-- root node -->
            <feature>
              <rects>
                <_>
                  10 5 3 2 -1.</_>
                <_>
                  11 5 1 2 3.</_></rects>
              <tilted>0</tilted></feature>
            <threshold>-1.4816699549555779e-002</threshold>
            <left_val>6.6459852457046509e-001</left_val>
            <right_val>-2.2460989654064178e-001</right_val></_></_></trees>
      <stage_threshold>-1.3946019411087036e+000</stage_threshold>
      <parent>-1</parent>
      <next>-1</next></_>
    <_>
      <!-- stage 1 -->
      <trees>
        <_>
          <!-- tree 0 -->
          <_>
            <!-- root node -->
            <feature>
              <rects>
                <_>
                  3 2 3 5 -1.</_>
                <_>
                  4 2 1 5 3.</_></rects>
              <tilted>0</tilted></feature>
            <threshold>4.6814780682325363e-002</threshold>
            <left_val>-2.4119269847869873e-001</left_val>
            <right_val>8.9571762084960938e-001</right_val></_></_>
        <_>
          <!-- tree 1 -->
          <_>
            <!-- root node -->
            <feature>
              <rects>
                <_>
                  4 4 3 3 -1.</_>
                <_>
                  5 4 1 3 3.</_></rects>
              <tilted>0</tilted></feature>
            <threshold>3.4733939915895462e-002</threshold>
            <left_val>-2.8338611125946045e-001</left_val>
            <right_val>8.5932910442352295e-001</right_val></_></_>
        <_>
          <!-- tree 2 -->
          <_>
            <!-- root node -->
            <feature>
              <rects>
                <_>
                  6 5 3 3 -1.</_>
                <_>
                  7 6 1 1 9.</_></rects>
              <tilted>0</tilted></feature>
            <threshold>-5.3293090313673019e-002</threshold>
            <left_val>8.4301000833511353e-001</left_val>
            <right_val>-1.4768880605697632e-001</right_val></_></_>
        <_>
          <!-- tree 3 -->
          <_>
            <!-- root node -->
            <feature>
              <rects>
                <_>
                  6 5 3 3 -1.</_>
                <_>
                  7 6 1 1 9.</_></rects>
              <tilted>0</tilted></feature>
            <threshold>5.4853349924087524e-002</threshold>
            <left_val>-2.4922999739646912e-001</left_val>
            <right_val>8.0096197128295898e-001</right_val></_></_>
        <_>
          <!-- tree 4 -->
          <_>
            <!-- root node -->
            <feature>
              <rects>
                <_>
                  22 0 3 7 -1.</_>
                <_>
                  23 0 1 7 3.</_></rects>
              <tilted>0</tilted></feature>
            <threshold>3.7276998162269592e-002</threshold>
            <left_val>-1.6994379460811615e-001</left_val>
            <right_val>7.2949510812759399e-001</right_val></_></_>
        <_>
          <!-- tree 5 -->
          <_>
            <!-- root node -->
            <feature>
              <rects>
                <_>
                  10 6 3 1 -1.</_>
                <_>
                  11 6 1 1 3.</_></rects>
              <tilted>0</tilted></feature>
            <threshold>1.2192640453577042e-002</threshold>
            <left_val>-2.7717390656471252e-001</left_val>
            <right_val>7.5840377807617188e-001</right_val></_></_>
        <_>
          <!-- tree 6 -->
          <_>
            <!-- root node -->
            <feature>
              <rects>
                <_>
                  10 5 3 2 -1.</_>
                <_>
                  11 5 1 2 3.</_></rects>
              <tilted>0</tilted></feature>
            <threshold>-1.4554399996995926e-002</threshold>
            <left_val>6.6808688640594482e-001</left_val>
            <right_val>-2.2138270735740662e-001</right_val></_></_>
        <_>
          <!-- tree 7 -->
          <_>
            <!-- root node -->
            <feature>
              <rects>
                <_>
                  21 4 3 1 -1.</_>
                <_>
                  22 4 1 1 3.</_></rects>
              <tilted>0</tilted></feature>
            <threshold>1.1980669572949409e-002</threshold>
            <left_val>-2.0673470199108124e-001</left_val>
            <right_val>6.6816008090972900e-001</right_val></_></_>
        <_>
          <!-- tree 8 -->
          <_>
            <!-- root node -->
            <feature>
              <rects>
                <_>
                  20 4 3 1 -1.</_>
                <_>
                  21 4 1 1 3.</_></rects>
              <tilted>0</tilted></feature>
            <threshold>1.2900229543447495e-002</threshold>
            <left_val>-1.9561520218849182e-001</left_val>
            <right_val>6.5561622381210327e-001</right_val></_></_>
        <_>
          <!-- tree 9 -->
          <_>
            <!-- root node -->
            <feature>
              <rects>
                <_>
                  12 0 3 3 -1.</_>
                <_>
                  13 1 1 1 9.</_></rects>
              <tilted>0</tilted></feature>
            <threshold>5.3948268294334412e-002</threshold>
            <left_val>-1.5293079614639282e-001</left_val>
            <right_val>6.5527671575546265e-001</right_val></_></_></trees>
      <stage_threshold>-1.3370709419250488e+000</stage_threshold>
      <parent>0</parent>
      <next>-1</next></_>
    <_>
      <!-- stage 2 -->
      <trees>
        <_>
          <!-- tree 0 -->
          <_>
            <!-- root node -->
            <feature>
              <rects>
                <_>
                  3 2 3 5 -1.</_>
                <_>
                  4 2 1 5 3.</_></rects>
              <tilted>0</tilted></feature>
            <threshold>4.6814780682325363e-002</threshold>
            <left_val>-2.3969919979572296e-001</left_val>
            <right_val>8.7962722778320313e-001</right_val></_></_>
        <_>
          <!-- tree 1 -->
          <_>
            <!-- root node -->
            <feature>
              <rects>
                <_>
                  4 4 3 2 -1.</_>
                <_>
                  5 4 1 2 3.</_></rects>
              <tilted>0</tilted></feature>
            <threshold>2.6930930092930794e-002</threshold>
            <left_val>-2.7828851342201233e-001</left_val>
            <right_val>8.5260117053985596e-001</right_val></_></_>
        <_>
          <!-- tree 2 -->
          <_>
            <!-- root node -->
            <feature>
              <rects>
                <_>
                  6 5 3 2 -1.</_>
                <_>
                  7 5 1 2 3.</_></rects>
              <tilted>0</tilted></feature>
            <threshold>-2.3747719824314117e-002</threshold>
            <left_val>8.3179980516433716e-001</left_val>
            <right_val>-1.4513480663299561e-001</right_val></_></_>
        <_>
          <!-- tree 3 -->
          <_>
            <!-- root node -->
            <feature>
              <rects>
                <_>
                  6 5 3 3 -1.</_>
                <_>
                  7 6 1 1 9.</_></rects>
              <tilted>0</tilted></feature>
            <threshold>4.9775291234254837e-002</threshold>
            <left_val>-2.6826441287994385e-001</left_val>
            <right_val>7.2720867395401001e-001</right_val></_></_>
        <_>
          <!-- tree 4 -->
          <_>
            <!-- root node -->
            <feature>
              <rects>
                <_>
                  22 1 3 6 -1.</_>
                <_>
                  23 1 1 6 3.</_></rects>
              <tilted>0</tilted></feature>
            <threshold>4.1355650871992111e-002</threshold>
            <left_val>-1.6543270647525787e-001</left_val>
            <right_val>7.1480751037597656e-001</right_val></_></_>
        <_>
          <!-- tree 5 -->
          <_>
            <!-- root node -->
            <feature>
              <rects>
                <_>
                  10 6 3 1 -1.</_>
                <_>
                  11 6 1 1 3.</_></rects>
              <tilted>0</tilted></feature>
            <threshold>1.2192640453577042e-002</threshold>
            <left_val>-2.6468810439109802e-001</left_val>
            <right_val>7.0630937814712524e-001</right_val></_></_>
        <_>
          <!-- tree 6 -->
          <_>
            <!-- root node -->
            <feature>
              <rects>
                <_>
                  10 5 3 2 -1.</_>
                <_>
                  11 5 1 2 3.</_></rects>
              <tilted>0</tilted></feature>
            <threshold>-1.4742749743163586e-002</threshold>
            <left_val>6.2844067811965942e-001</left_val>
            <right_val>-2.4045500159263611e-001</right_val></_></_>
        <_>
          <!-- tree 7 -->
          <_>
            <!-- root node -->
            <feature>
              <rects>
                <_>
                  21 4 3 1 -1.</_>
                <_>
                  22 4 1 1 3.</_></rects>
              <tilted>0</tilted></feature>
            <threshold>1.0269960388541222e-002</threshold>
            <left_val>-2.2051450610160828e-001</left_val>
            <right_val>6.1663079261779785e-001</right_val></_></_>
        <_>
          <!-- tree 8 -->
          <_>
            <!-- root node -->
            <feature>
              <rects>
                <_>
                  21 4 2 1 -1.</_>
                <_>
                  22 4 1 1 2.</_></rects>
              <tilted>0</tilted></feature>
            <threshold>-7.1362610906362534e-003</threshold>
            <left_val>5.9077501296997070e-001</left_val>
            <right_val>-2.0845219492912292e-001</right_val></_></_>
        <_>
          <!-- tree 9 -->
          <_>
            <!-- root node -->
            <feature>
              <rects>
                <_>
                  12 0 3 3 -1.</_>
                <_>
                  13 1 1 1 9.</_></rects>
              <tilted>0</tilted></feature>
            <threshold>6.1946019530296326e-002</threshold>
            <left_val>-1.1165159940719604e-001</left_val>
            <right_val>7.4367779493331909e-001</right_val></_></_></trees>
      <stage_threshold>-1.3433539867401123e+000</stage_threshold>
      <parent>1</parent>
      <next>-1</next></_>
    <_>
      <!-- stage 3 -->
      <trees>
        <_>
          <!-- tree 0 -->
          <_>
            <!-- root node -->
            <feature>
              <rects>
                <_>
                  3 2 3 5 -1.</_>
                <_>
                  4 2 1 5 3.</_></rects>
              <tilted>0</tilted></feature>
            <threshold>4.6814780682325363e-002</threshold>
            <left_val>-2.3942320048809052e-001</left_val>
            <right_val>8.7579828500747681e-001</right_val></_></_>
        <_>
          <!-- tree 1 -->
          <_>
            <!-- root node -->
            <feature>
              <rects>
                <_>
                  4 4 3 2 -1.</_>
                <_>
                  5 4 1 2 3.</_></rects>
              <tilted>0</tilted></feature>
            <threshold>2.6930930092930794e-002</threshold>
            <left_val>-2.7827700972557068e-001</left_val>
            <right_val>8.4870147705078125e-001</right_val></_></_>
        <_>
          <!-- tree 2 -->
          <_>
            <!-- root node -->
            <feature>
              <rects>
                <_>
                  6 5 3 2 -1.</_>
                <_>
                  7 5 1 2 3.</_></rects>
              <tilted>0</tilted></feature>
            <threshold>-2.3747719824314117e-002</threshold>
            <left_val>8.3014911413192749e-001</left_val>
            <right_val>-1.4640170335769653e-001</right_val></_></_>
        <_>
          <!-- tree 3 -->
          <_>
            <!-- root node -->
            <feature>
              <rects>
                <_>
                  6 5 3 3 -1.</_>
                <_>
                  7 6 1 1 9.</_></rects>
              <tilted>0</tilted></feature>
            <threshold>4.9775291234254837e-002</threshold>
            <left_val>-2.6793038845062256e-001</left_val>
            <right_val>7.2091889381408691e-001</right_val></_></_>
        <_>
          <!-- tree 4 -->
          <_>
            <!-- root node -->
            <feature>
              <rects>
                <_>
                  22 0 3 7 -1.</_>
                <_>
                  23 0 1 7 3.</_></rects>
              <tilted>0</tilted></feature>
            <threshold>3.6090649664402008e-002</threshold>
            <left_val>-1.8017080426216125e-001</left_val>
            <right_val>6.7206490039825439e-001</right_val></_></_>
        <_>
          <!-- tree 5 -->
          <_>
            <!-- root node -->
            <feature>
              <rects>
                <_>
                  10 6 3 1 -1.</_>
                <_>
                  11 6 1 1 3.</_></rects>
              <tilted>0</tilted></feature>
            <threshold>1.2192640453577042e-002</threshold>
            <left_val>-2.8265011310577393e-001</left_val>
            <right_val>7.0708972215652466e-001</right_val></_></_>
        <_>
          <!-- tree 6 -->
          <_>
            <!-- root node -->
            <feature>
              <rects>
                <_>
                  11 5 3 2 -1.</_>
                <_>
                  12 5 1 2 3.</_></rects>
              <tilted>0</tilted></feature>
            <threshold>1.9116729497909546e-002</threshold>
            <left_val>-2.0395770668983459e-001</left_val>
            <right_val>6.9550031423568726e-001</right_val></_></_>
        <_>
          <!-- tree 7 -->
          <_>
            <!-- root node -->
            <feature>
              <rects>
                <_>
                  21 4 2 2 -1.</_>
                <_>
                  22 4 1 2 2.</_></rects>
              <tilted>0</tilted></feature>
            <threshold>1.2951999902725220e-002</threshold>
            <left_val>-1.5180839598178864e-001</left_val>
            <right_val>6.3309437036514282e-001</right_val></_></_>
        <_>
          <!-- tree 8 -->
          <_>
            <!-- root node -->
            <feature>
              <rects>
                <_>
                  21 1 2 6 -1.</_>
                <_>
                  21 1 1 3 2.</_>
                <_>
                  22 4 1 3 2.</_></rects>
              <tilted>0</tilted></feature>
            <threshold>-2.4560570716857910e-002</threshold>
            <left_val>7.9235130548477173e-001</left_val>
            <right_val>-1.7215560376644135e-001</right_val></_></_>
        <_>
          <!-- tree 9 -->
          <_>
            <!-- root node -->
            <feature>
              <rects>
                <_>
                  20 2 3 1 -1.</_>
                <_>
                  21 2 1 1 3.</_></rects>
              <tilted>0</tilted></feature>
            <threshold>1.1203429661691189e-002</threshold>
            <left_val>-1.3273529708385468e-001</left_val>
            <right_val>5.8188062906265259e-001</right_val></_></_>
        <_>
          <!-- tree 10 -->
          <_>
            <!-- root node -->
            <feature>
              <rects>
                <_>
                  12 0 3 3 -1.</_>
                <_>
                  13 1 1 1 9.</_></rects>
              <tilted>0</tilted></feature>
            <threshold>5.4011709988117218e-002</threshold>
            <left_val>-1.4156359434127808e-001</left_val>
            <right_val>6.7753982543945313e-001</right_val></_></_></trees>
      <stage_threshold>-1.4824579954147339e+000</stage_threshold>
      <parent>2</parent>
      <next>-1</next></_>
    <_>
      <!-- stage 4 -->
      <trees>
        <_>
          <!-- tree 0 -->
          <_>
            <!-- root node -->
            <feature>
              <rects>
                <_>
                  3 2 3 5 -1.</_>
                <_>
                  4 2 1 5 3.</_></rects>
              <tilted>0</tilted></feature>
            <threshold>4.6814780682325363e-002</threshold>
            <left_val>-2.3867000639438629e-001</left_val>
            <right_val>8.6714988946914673e-001</right_val></_></_>
        <_>
          <!-- tree 1 -->
          <_>
            <!-- root node -->
            <feature>
              <rects>
                <_>
                  4 4 3 2 -1.</_>
                <_>
                  5 4 1 2 3.</_></rects>
              <tilted>0</tilted></feature>
            <threshold>2.6930930092930794e-002</threshold>
            <left_val>-2.7772191166877747e-001</left_val>
            <right_val>8.3777320384979248e-001</right_val></_></_>
        <_>
          <!-- tree 2 -->
          <_>
            <!-- root node -->
            <feature>
              <rects>
                <_>
                  6 5 3 3 -1.</_>
                <_>
                  7 6 1 1 9.</_></rects>
              <tilted>0</tilted></feature>
            <threshold>-5.5911779403686523e-002</threshold>
            <left_val>8.4982252120971680e-001</left_val>
            <right_val>-1.4393539726734161e-001</right_val></_></_>
        <_>
          <!-- tree 3 -->
          <_>
            <!-- root node -->
            <feature>
              <rects>
                <_>
                  6 5 3 2 -1.</_>
                <_>
                  7 5 1 2 3.</_></rects>
              <tilted>0</tilted></feature>
            <threshold>2.6944590732455254e-002</threshold>
            <left_val>-2.3107029497623444e-001</left_val>
            <right_val>7.7641701698303223e-001</right_val></_></_>
        <_>
          <!-- tree 4 -->
          <_>
            <!-- root node -->
            <feature>
              <rects>
                <_>
                  22 0 3 7 -1.</_>
                <_>
                  23 0 1 7 3.</_></rects>
              <tilted>0</tilted></feature>
            <threshold>5.0325978547334671e-002</threshold>
            <left_val>-1.3784730434417725e-001</left_val>
            <right_val>7.2103971242904663e-001</right_val></_></_>
        <_>
          <!-- tree 5 -->
          <_>
            <!-- root node -->
            <feature>
              <rects>
                <_>
                  10 5 3 3 -1.</_>
                <_>
                  11 6 1 1 9.</_></rects>
              <tilted>0</tilted></feature>
            <threshold>4.6749670058488846e-002</threshold>
            <left_val>-2.8125369548797607e-001</left_val>
            <right_val>6.8836557865142822e-001</right_val></_></_>
        <_>
          <!-- tree 6 -->
          <_>
            <!-- root node -->
            <feature>
              <rects>
                <_>
                  10 5 3 2 -1.</_>
                <_>
                  11 5 1 2 3.</_></rects>
              <tilted>0</tilted></feature>
            <threshold>-1.4554399996995926e-002</threshold>
            <left_val>6.3164341449737549e-001</left_val>
            <right_val>-2.3872309923171997e-001</right_val></_></_>
        <_>
          <!-- tree 7 -->
          <_>
            <!-- root node -->
            <feature>
              <rects>
                <_>
                  21 4 2 2 -1.</_>
                <_>
                  22 4 1 2 2.</_></rects>
              <tilted>0</tilted></feature>
            <threshold>1.2951999902725220e-002</threshold>
            <left_val>-1.9355319440364838e-001</left_val>
            <right_val>6.8064898252487183e-001</right_val></_></_>
        <_>
          <!-- tree 8 -->
          <_>
            <!-- root node -->
            <feature>
              <rects>
                <_>
                  21 1 2 6 -1.</_>
                <_>
                  21 1 1 3 2.</_>
                <_>
                  22 4 1 3 2.</_></rects>
              <tilted>0</tilted></feature>
            <threshold>-2.4560570716857910e-002</threshold>
            <left_val>7.9819482564926147e-001</left_val>
            <right_val>-1.6412380337715149e-001</right_val></_></_>
        <_>
          <!-- tree 9 -->
          <_>
            <!-- root node -->
            <feature>
              <rects>
                <_>
                  26 5 2 2 -1.</_>
                <_>
                  26 5 1 1 2.</_>
                <_>
                  27 6 1 1 2.</_></rects>
              <tilted>0</tilted></feature>
            <threshold>-8.4943622350692749e-003</threshold>
            <left_val>8.1031638383865356e-001</left_val>
            <right_val>-9.4262473285198212e-002</right_val></_></_>
        <_>
          <!-- tree 10 -->
          <_>
            <!-- root node -->
            <feature>
              <rects>
                <_>
                  20 2 3 1 -1.</_>
                <_>
                  21 2 1 1 3.</_></rects>
              <tilted>0</tilted></feature>
            <threshold>1.3863650150597095e-002</threshold>
            <left_val>-1.3178700208663940e-001</left_val>
            <right_val>6.2048178911209106e-001</right_val></_></_></trees>
      <stage_threshold>-1.3806790113449097e+000</stage_threshold>
      <parent>3</parent>
      <next>-1</next></_>
    <_>
      <!-- stage 5 -->
      <trees>
        <_>
          <!-- tree 0 -->
          <_>
            <!-- root node -->
            <feature>
              <rects>
                <_>
                  3 2 3 5 -1.</_>
                <_>
                  4 2 1 5 3.</_></rects>
              <tilted>0</tilted></feature>
            <threshold>4.6814780682325363e-002</threshold>
            <left_val>-2.3800820112228394e-001</left_val>
            <right_val>8.5957008600234985e-001</right_val></_></_>
        <_>
          <!-- tree 1 -->
          <_>
            <!-- root node -->
            <feature>
              <rects>
                <_>
                  4 4 3 3 -1.</_>
                <_>
                  5 4 1 3 3.</_></rects>
              <tilted>0</tilted></feature>
            <threshold>3.9356920868158340e-002</threshold>
            <left_val>-2.6554849743843079e-001</left_val>
            <right_val>8.6023187637329102e-001</right_val></_></_>
        <_>
          <!-- tree 2 -->
          <_>
            <!-- root node -->
            <feature>
              <rects>
                <_>
                  6 5 3 3 -1.</_>
                <_>
                  7 6 1 1 9.</_></rects>
              <tilted>0</tilted></feature>
            <threshold>-4.1982799768447876e-002</threshold>
            <left_val>7.5864732265472412e-001</left_val>
            <right_val>-1.6554109752178192e-001</right_val></_></_>
        <_>
          <!-- tree 3 -->
          <_>
            <!-- root node -->
            <feature>
              <rects>
                <_>
                  6 5 3 3 -1.</_>
                <_>
                  7 6 1 1 9.</_></rects>
              <tilted>0</tilted></feature>
            <threshold>4.9161121249198914e-002</threshold>
            <left_val>-2.9122918844223022e-001</left_val>
            <right_val>7.1530377864837646e-001</right_val></_></_>
        <_>
          <!-- tree 4 -->
          <_>
            <!-- root node -->
            <feature>
              <rects>
                <_>
                  21 4 3 2 -1.</_>
                <_>
                  22 4 1 2 3.</_></rects>
              <tilted>0</tilted></feature>
            <threshold>-2.5620970875024796e-002</threshold>
            <left_val>7.6236891746520996e-001</left_val>
            <right_val>-1.3332000374794006e-001</right_val></_></_>
        <_>
          <!-- tree 5 -->
          <_>
            <!-- root node -->
            <feature>
              <rects>
                <_>
                  20 4 3 3 -1.</_>
                <_>
                  21 4 1 3 3.</_></rects>
              <tilted>0</tilted></feature>
            <threshold>-1.6555469483137131e-002</threshold>
            <left_val>6.0077452659606934e-001</left_val>
            <right_val>-3.5045391321182251e-001</right_val></_></_>
        <_>
          <!-- tree 6 -->
          <_>
            <!-- root node -->
            <feature>
              <rects>
                <_>
                  19 6 3 1 -1.</_>
                <_>
                  20 6 1 1 3.</_></rects>
              <tilted>0</tilted></feature>
            <threshold>-7.9894224181771278e-003</threshold>
            <left_val>6.1215138435363770e-001</left_val>
            <right_val>-2.0169079303741455e-001</right_val></_></_>
        <_>
          <!-- tree 7 -->
          <_>
            <!-- root node -->
            <feature>
              <rects>
                <_>
                  10 0 3 3 -1.</_>
                <_>
                  11 1 1 1 9.</_></rects>
              <tilted>0</tilted></feature>
            <threshold>5.8977890759706497e-002</threshold>
            <left_val>-1.5537150204181671e-001</left_val>
            <right_val>7.9096359014511108e-001</right_val></_></_>
        <_>
          <!-- tree 8 -->
          <_>
            <!-- root node -->
            <feature>
              <rects>
                <_>
                  17 2 2 1 -1.</_>
                <_>
                  18 2 1 1 2.</_></rects>
              <tilted>0</tilted></feature>
            <threshold>6.5019261091947556e-003</threshold>
            <left_val>-1.4621500670909882e-001</left_val>
            <right_val>6.2626278400421143e-001</right_val></_></_></trees>
      <stage_threshold>-1.1749000549316406e+000</stage_threshold>
      <parent>4</parent>
      <next>-1</next></_>
    <_>
      <!-- stage 6 -->
      <trees>
        <_>
          <!-- tree 0 -->
          <_>
            <!-- root node -->
            <feature>
              <rects>
                <_>
                  3 1 3 6 -1.</_>
                <_>
                  4 1 1 6 3.</_></rects>
              <tilted>0</tilted></feature>
            <threshold>6.4352318644523621e-002</threshold>
            <left_val>-2.2419719398021698e-001</left_val>
            <right_val>9.0408742427825928e-001</right_val></_></_>
        <_>
          <!-- tree 1 -->
          <_>
            <!-- root node -->
            <feature>
              <rects>
                <_>
                  4 4 3 2 -1.</_>
                <_>
                  5 4 1 2 3.</_></rects>
              <tilted>0</tilted></feature>
            <threshold>2.6930930092930794e-002</threshold>
            <left_val>-2.6349011063575745e-001</left_val>
            <right_val>8.2088357210159302e-001</right_val></_></_>
        <_>
          <!-- tree 2 -->
          <_>
            <!-- root node -->
            <feature>
              <rects>
                <_>
                  6 5 3 3 -1.</_>
                <_>
                  7 6 1 1 9.</_></rects>
              <tilted>0</tilted></feature>
            <threshold>-4.1982799768447876e-002</threshold>
            <left_val>7.6216942071914673e-001</left_val>
            <right_val>-1.8077400326728821e-001</right_val></_></_>
        <_>
          <!-- tree 3 -->
          <_>
            <!-- root node -->
            <feature>
              <rects>
                <_>
                  6 5 3 3 -1.</_>
                <_>
                  7 6 1 1 9.</_></rects>
              <tilted>0</tilted></feature>
            <threshold>4.9161121249198914e-002</threshold>
            <left_val>-2.8494510054588318e-001</left_val>
            <right_val>7.0432919263839722e-001</right_val></_></_>
        <_>
          <!-- tree 4 -->
          <_>
            <!-- root node -->
            <feature>
              <rects>
                <_>
                  22 1 3 6 -1.</_>
                <_>
                  23 1 1 6 3.</_></rects>
              <tilted>0</tilted></feature>
            <threshold>4.1079670190811157e-002</threshold>
            <left_val>-1.6036039590835571e-001</left_val>
            <right_val>6.8386697769165039e-001</right_val></_></_>
        <_>
          <!-- tree 5 -->
          <_>
            <!-- root node -->
            <feature>
              <rects>
                <_>
                  10 6 3 1 -1.</_>
                <_>
                  11 6 1 1 3.</_></rects>
              <tilted>0</tilted></feature>
            <threshold>1.2192640453577042e-002</threshold>
            <left_val>-2.7842330932617188e-001</left_val>
            <right_val>6.8770748376846313e-001</right_val></_></_>
        <_>
          <!-- tree 6 -->
          <_>
            <!-- root node -->
            <feature>
              <rects>
                <_>
                  10 5 3 2 -1.</_>
                <_>
                  11 5 1 2 3.</_></rects>
              <tilted>0</tilted></feature>
            <threshold>-1.5036139637231827e-002</threshold>
            <left_val>6.0576778650283813e-001</left_val>
            <right_val>-2.3699790239334106e-001</right_val></_></_>
        <_>
          <!-- tree 7 -->
          <_>
            <!-- root node -->
            <feature>
              <rects>
                <_>
                  21 4 3 1 -1.</_>
                <_>
                  22 4 1 1 3.</_></rects>
              <tilted>0</tilted></feature>
            <threshold>1.1980669572949409e-002</threshold>
            <left_val>-2.0719219744205475e-001</left_val>
            <right_val>6.4399641752243042e-001</right_val></_></_>
        <_>
          <!-- tree 8 -->
          <_>
            <!-- root node -->
            <feature>
              <rects>
                <_>
                  21 4 2 1 -1.</_>
                <_>
                  22 4 1 1 2.</_></rects>
              <tilted>0</tilted></feature>
            <threshold>-7.1362610906362534e-003</threshold>
            <left_val>5.8124482631683350e-001</left_val>
            <right_val>-2.0836840569972992e-001</right_val></_></_></trees>
      <stage_threshold>-1.2551360130310059e+000</stage_threshold>
      <parent>5</parent>
      <next>-1</next></_>
    <_>
      <!-- stage 7 -->
      <trees>
        <_>
          <!-- tree 0 -->
          <_>
            <!-- root node -->
            <feature>
              <rects>
                <_>
                  3 0 3 7 -1.</_>
                <_>
                  4 0 1 7 3.</_></rects>
              <tilted>0</tilted></feature>
            <threshold>4.1410550475120544e-002</threshold>
            <left_val>-2.5492930412292480e-001</left_val>
            <right_val>8.0112570524215698e-001</right_val></_></_>
        <_>
          <!-- tree 1 -->
          <_>
            <!-- root node -->
            <feature>
              <rects>
                <_>
                  4 4 3 2 -1.</_>
                <_>
                  5 4 1 2 3.</_></rects>
              <tilted>0</tilted></feature>
            <threshold>2.6930930092930794e-002</threshold>
            <left_val>-2.9332369565963745e-001</left_val>
            <right_val>8.2480072975158691e-001</right_val></_></_>
        <_>
          <!-- tree 2 -->
          <_>
            <!-- root node -->
            <feature>
              <rects>
                <_>
                  6 5 3 2 -1.</_>
                <_>
                  7 5 1 2 3.</_></rects>
              <tilted>0</tilted></feature>
            <threshold>-2.3747719824314117e-002</threshold>
            <left_val>8.1034582853317261e-001</left_val>
            <right_val>-1.4905899763107300e-001</right_val></_></_>
        <_>
          <!-- tree 3 -->
          <_>
            <!-- root node -->
            <feature>
              <rects>
                <_>
                  6 5 3 3 -1.</_>
                <_>
                  7 6 1 1 9.</_></rects>
              <tilted>0</tilted></feature>
            <threshold>4.9161121249198914e-002</threshold>
            <left_val>-2.8026559948921204e-001</left_val>
            <right_val>7.0262372493743896e-001</right_val></_></_>
        <_>
          <!-- tree 4 -->
          <_>
            <!-- root node -->
            <feature>
              <rects>
                <_>
                  22 1 3 6 -1.</_>
                <_>
                  23 1 1 6 3.</_></rects>
              <tilted>0</tilted></feature>
            <threshold>4.1079670190811157e-002</threshold>
            <left_val>-1.5943379700183868e-001</left_val>
            <right_val>6.5720379352569580e-001</right_val></_></_>
        <_>
          <!-- tree 5 -->
          <_>
            <!-- root node -->
            <feature>
              <rects>
                <_>
                  10 6 3 1 -1.</_>
                <_>
                  11 6 1 1 3.</_></rects>
              <tilted>0</tilted></feature>
            <threshold>1.2192640453577042e-002</threshold>
            <left_val>-2.8642830252647400e-001</left_val>
            <right_val>6.8058651685714722e-001</right_val></_></_>
        <_>
          <!-- tree 6 -->
          <_>
            <!-- root node -->
            <feature>
              <rects>
                <_>
                  10 5 3 2 -1.</_>
                <_>
                  11 5 1 2 3.</_></rects>
              <tilted>0</tilted></feature>
            <threshold>-1.5036139637231827e-002</threshold>
            <left_val>6.0800421237945557e-001</left_val>
            <right_val>-2.3650710284709930e-001</right_val></_></_>
        <_>
          <!-- tree 7 -->
          <_>
            <!-- root node -->
            <feature>
              <rects>
                <_>
                  21 4 3 1 -1.</_>
                <_>
                  22 4 1 1 3.</_></rects>
              <tilted>0</tilted></feature>
            <threshold>1.1980669572949409e-002</threshold>
            <left_val>-2.1268279850482941e-001</left_val>
            <right_val>6.5110141038894653e-001</right_val></_></_>
        <_>
          <!-- tree 8 -->
          <_>
            <!-- root node -->
            <feature>
              <rects>
                <_>
                  21 1 2 6 -1.</_>
                <_>
                  21 1 1 3 2.</_>
                <_>
                  22 4 1 3 2.</_></rects>
              <tilted>0</tilted></feature>
            <threshold>-2.4560570716857910e-002</threshold>
            <left_val>7.8947848081588745e-001</left_val>
            <right_val>-1.2033800035715103e-001</right_val></_></_>
        <_>
          <!-- tree 9 -->
          <_>
            <!-- root node -->
            <feature>
              <rects>
                <_>
                  17 5 2 1 -1.</_>
                <_>
                  18 5 1 1 2.</_></rects>
              <tilted>0</tilted></feature>
            <threshold>6.5687862224876881e-003</threshold>
            <left_val>-1.2240850180387497e-001</left_val>
            <right_val>6.4452177286148071e-001</right_val></_></_></trees>
      <stage_threshold>-1.3484460115432739e+000</stage_threshold>
      <parent>6</parent>
      <next>-1</next></_>
    <_>
      <!-- stage 8 -->
      <trees>
        <_>
          <!-- tree 0 -->
          <_>
            <!-- root node -->
            <feature>
              <rects>
                <_>
                  3 0 3 7 -1.</_>
                <_>
                  4 0 1 7 3.</_></rects>
              <tilted>0</tilted></feature>
            <threshold>4.1410550475120544e-002</threshold>
            <left_val>-2.5501510500907898e-001</left_val>
            <right_val>7.9933047294616699e-001</right_val></_></_>
        <_>
          <!-- tree 1 -->
          <_>
            <!-- root node -->
            <feature>
              <rects>
                <_>
                  4 4 3 2 -1.</_>
                <_>
                  5 4 1 2 3.</_></rects>
              <tilted>0</tilted></feature>
            <threshold>2.6930930092930794e-002</threshold>
            <left_val>-2.9393109679222107e-001</left_val>
            <right_val>8.2438611984252930e-001</right_val></_></_>
        <_>
          <!-- tree 2 -->
          <_>
            <!-- root node -->
            <feature>
              <rects>
                <_>
                  6 5 3 3 -1.</_>
                <_>
                  7 6 1 1 9.</_></rects>
              <tilted>0</tilted></feature>
            <threshold>-4.1982799768447876e-002</threshold>
            <left_val>7.5077259540557861e-001</left_val>
            <right_val>-1.6997359693050385e-001</right_val></_></_>
        <_>
          <!-- tree 3 -->
          <_>
            <!-- root node -->
            <feature>
              <rects>
                <_>
                  6 5 3 3 -1.</_>
                <_>
                  7 6 1 1 9.</_></rects>
              <tilted>0</tilted></feature>
            <threshold>4.9161121249198914e-002</threshold>
            <left_val>-3.0057820677757263e-001</left_val>
            <right_val>7.1090751886367798e-001</right_val></_></_>
        <_>
          <!-- tree 4 -->
          <_>
            <!-- root node -->
            <feature>
              <rects>
                <_>
                  21 4 3 2 -1.</_>
                <_>
                  22 4 1 2 3.</_></rects>
              <tilted>0</tilted></feature>
            <threshold>-2.5620970875024796e-002</threshold>
            <left_val>7.3348051309585571e-001</left_val>
            <right_val>-1.2828479707241058e-001</right_val></_></_>
        <_>
          <!-- tree 5 -->
          <_>
            <!-- root node -->
            <feature>
              <rects>
                <_>
                  20 4 3 3 -1.</_>
                <_>
                  21 4 1 3 3.</_></rects>
              <tilted>0</tilted></feature>
            <threshold>-1.6555469483137131e-002</threshold>
            <left_val>6.0474342107772827e-001</left_val>
            <right_val>-3.6943039298057556e-001</right_val></_></_>
        <_>
          <!-- tree 6 -->
          <_>
            <!-- root node -->
            <feature>
              <rects>
                <_>
                  19 6 3 1 -1.</_>
                <_>
                  20 6 1 1 3.</_></rects>
              <tilted>0</tilted></feature>
            <threshold>-7.8220143914222717e-003</threshold>
            <left_val>6.0791051387786865e-001</left_val>
            <right_val>-1.9316759705543518e-001</right_val></_></_>
        <_>
          <!-- tree 7 -->
          <_>
            <!-- root node -->
            <feature>
              <rects>
                <_>
                  10 0 3 3 -1.</_>
                <_>
                  11 1 1 1 9.</_></rects>
              <tilted>0</tilted></feature>
            <threshold>5.3879830986261368e-002</threshold>
            <left_val>-1.8288469314575195e-001</left_val>
            <right_val>7.3975569009780884e-001</right_val></_></_></trees>
      <stage_threshold>-1.0921870470046997e+000</stage_threshold>
      <parent>7</parent>
      <next>-1</next></_>
    <_>
      <!-- stage 9 -->
      <trees>
        <_>
          <!-- tree 0 -->
          <_>
            <!-- root node -->
            <feature>
              <rects>
                <_>
                  3 0 3 7 -1.</_>
                <_>
                  4 0 1 7 3.</_></rects>
              <tilted>0</tilted></feature>
            <threshold>4.1410550475120544e-002</threshold>
            <left_val>-2.5501948595046997e-001</left_val>
            <right_val>7.9780417680740356e-001</right_val></_></_>
        <_>
          <!-- tree 1 -->
          <_>
            <!-- root node -->
            <feature>
              <rects>
                <_>
                  4 4 3 2 -1.</_>
                <_>
                  5 4 1 2 3.</_></rects>
              <tilted>0</tilted></feature>
            <threshold>2.6930930092930794e-002</threshold>
            <left_val>-2.9442420601844788e-001</left_val>
            <right_val>8.2390540838241577e-001</right_val></_></_>
        <_>
          <!-- tree 2 -->
          <_>
            <!-- root node -->
            <feature>
              <rects>
                <_>
                  6 5 3 3 -1.</_>
                <_>
                  7 6 1 1 9.</_></rects>
              <tilted>0</tilted></feature>
            <threshold>-4.1982799768447876e-002</threshold>
            <left_val>7.5131118297576904e-001</left_val>
            <right_val>-1.7091779410839081e-001</right_val></_></_>
        <_>
          <!-- tree 3 -->
          <_>
            <!-- root node -->
            <feature>
              <rects>
                <_>
                  6 5 3 3 -1.</_>
                <_>
                  7 6 1 1 9.</_></rects>
              <tilted>0</tilted></feature>
            <threshold>4.9161121249198914e-002</threshold>
            <left_val>-3.0103170871734619e-001</left_val>
            <right_val>7.0884150266647339e-001</right_val></_></_>
        <_>
          <!-- tree 4 -->
          <_>
            <!-- root node -->
            <feature>
              <rects>
                <_>
                  21 4 3 2 -1.</_>
                <_>
                  22 4 1 2 3.</_></rects>
              <tilted>0</tilted></feature>
            <threshold>-2.5620970875024796e-002</threshold>
            <left_val>7.3215621709823608e-001</left_val>
            <right_val>-1.2903490662574768e-001</right_val></_></_>
        <_>
          <!-- tree 5 -->
          <_>
            <!-- root node -->
            <feature>
              <rects>
                <_>
                  20 4 3 3 -1.</_>
                <_>
                  21 4 1 3 3.</_></rects>
              <tilted>0</tilted></feature>
            <threshold>-1.6555469483137131e-002</threshold>
            <left_val>6.0616558790206909e-001</left_val>
            <right_val>-3.7246671319007874e-001</right_val></_></_>
        <_>
          <!-- tree 6 -->
          <_>
            <!-- root node -->
            <feature>
              <rects>
                <_>
                  19 6 3 1 -1.</_>
                <_>
                  20 6 1 1 3.</_></rects>
              <tilted>0</tilted></feature>
            <threshold>-7.8220143914222717e-003</threshold>
            <left_val>6.0870027542114258e-001</left_val>
            <right_val>-1.9537599384784698e-001</right_val></_></_>
        <_>
          <!-- tree 7 -->
          <_>
            <!-- root node -->
            <feature>
              <rects>
                <_>
                  10 0 3 3 -1.</_>
                <_>
                  11 1 1 1 9.</_></rects>
              <tilted>0</tilted></feature>
            <threshold>5.2787858992815018e-002</threshold>
            <left_val>-1.8863399326801300e-001</left_val>
            <right_val>7.3315989971160889e-001</right_val></_></_></trees>
      <stage_threshold>-1.1028289794921875e+000</stage_threshold>
      <parent>8</parent>
      <next>-1</next></_>
    <_>
      <!-- stage 10 -->
      <trees>
        <_>
          <!-- tree 0 -->
          <_>
            <!-- root node -->
            <feature>
              <rects>
                <_>
                  3 0 3 7 -1.</_>
                <_>
                  4 0 1 7 3.</_></rects>
              <tilted>0</tilted></feature>
            <threshold>4.1410550475120544e-002</threshold>
            <left_val>-2.5501948595046997e-001</left_val>
            <right_val>7.9780417680740356e-001</right_val></_></_>
        <_>
          <!-- tree 1 -->
          <_>
            <!-- root node -->
            <feature>
              <rects>
                <_>
                  4 4 3 2 -1.</_>
                <_>
                  5 4 1 2 3.</_></rects>
              <tilted>0</tilted></feature>
            <threshold>2.6930930092930794e-002</threshold>
            <left_val>-2.9442420601844788e-001</left_val>
            <right_val>8.2390540838241577e-001</right_val></_></_>
        <_>
          <!-- tree 2 -->
          <_>
            <!-- root node -->
            <feature>
              <rects>
                <_>
                  6 5 3 3 -1.</_>
                <_>
                  7 6 1 1 9.</_></rects>
              <tilted>0</tilted></feature>
            <threshold>-4.1982799768447876e-002</threshold>
            <left_val>7.5131118297576904e-001</left_val>
            <right_val>-1.7091779410839081e-001</right_val></_></_>
        <_>
          <!-- tree 3 -->
          <_>
            <!-- root node -->
            <feature>
              <rects>
                <_>
                  6 5 3 3 -1.</_>
                <_>
                  7 6 1 1 9.</_></rects>
              <tilted>0</tilted></feature>
            <threshold>4.9161121249198914e-002</threshold>
            <left_val>-3.0103170871734619e-001</left_val>
            <right_val>7.0884150266647339e-001</right_val></_></_>
        <_>
          <!-- tree 4 -->
          <_>
            <!-- root node -->
            <feature>
              <rects>
                <_>
                  21 4 3 2 -1.</_>
                <_>
                  22 4 1 2 3.</_></rects>
              <tilted>0</tilted></feature>
            <threshold>-2.5620970875024796e-002</threshold>
            <left_val>7.3215621709823608e-001</left_val>
            <right_val>-1.2903490662574768e-001</right_val></_></_>
        <_>
          <!-- tree 5 -->
          <_>
            <!-- root node -->
            <feature>
              <rects>
                <_>
                  20 4 3 3 -1.</_>
                <_>
                  21 4 1 3 3.</_></rects>
              <tilted>0</tilted></feature>
            <threshold>-1.6555469483137131e-002</threshold>
            <left_val>6.0616558790206909e-001</left_val>
            <right_val>-3.7246671319007874e-001</right_val></_></_>
        <_>
          <!-- tree 6 -->
          <_>
            <!-- root node -->
            <feature>
              <rects>
                <_>
                  19 6 3 1 -1.</_>
                <_>
                  20 6 1 1 3.</_></rects>
              <tilted>0</tilted></feature>
            <threshold>-7.8220143914222717e-003</threshold>
            <left_val>6.0870027542114258e-001</left_val>
            <right_val>-1.9537599384784698e-001</right_val></_></_>
        <_>
          <!-- tree 7 -->
          <_>
            <!-- root node -->
            <feature>
              <rects>
                <_>
                  10 0 3 3 -1.</_>
                <_>
                  11 1 1 1 9.</_></rects>
              <tilted>0</tilted></feature>
            <threshold>5.2787858992815018e-002</threshold>
            <left_val>-1.8863399326801300e-001</left_val>
            <right_val>7.3315989971160889e-001</right_val></_></_></trees>
      <stage_threshold>-1.1028289794921875e+000</stage_threshold>
      <parent>9</parent>
      <next>-1</next></_>
    <_>
      <!-- stage 11 -->
      <trees>
        <_>
          <!-- tree 0 -->
          <_>
            <!-- root node -->
            <feature>
              <rects>
                <_>
                  3 0 3 7 -1.</_>
                <_>
                  4 0 1 7 3.</_></rects>
              <tilted>0</tilted></feature>
            <threshold>4.1410550475120544e-002</threshold>
            <left_val>-2.5501948595046997e-001</left_val>
            <right_val>7.9780417680740356e-001</right_val></_></_>
        <_>
          <!-- tree 1 -->
          <_>
            <!-- root node -->
            <feature>
              <rects>
                <_>
                  4 4 3 2 -1.</_>
                <_>
                  5 4 1 2 3.</_></rects>
              <tilted>0</tilted></feature>
            <threshold>2.6930930092930794e-002</threshold>
            <left_val>-2.9442420601844788e-001</left_val>
            <right_val>8.2390540838241577e-001</right_val></_></_>
        <_>
          <!-- tree 2 -->
          <_>
            <!-- root node -->
            <feature>
              <rects>
                <_>
                  6 5 3 3 -1.</_>
                <_>
                  7 6 1 1 9.</_></rects>
              <tilted>0</tilted></feature>
            <threshold>-4.1982799768447876e-002</threshold>
            <left_val>7.5131118297576904e-001</left_val>
            <right_val>-1.7091779410839081e-001</right_val></_></_>
        <_>
          <!-- tree 3 -->
          <_>
            <!-- root node -->
            <feature>
              <rects>
                <_>
                  6 5 3 3 -1.</_>
                <_>
                  7 6 1 1 9.</_></rects>
              <tilted>0</tilted></feature>
            <threshold>4.9161121249198914e-002</threshold>
            <left_val>-3.0103170871734619e-001</left_val>
            <right_val>7.0884150266647339e-001</right_val></_></_>
        <_>
          <!-- tree 4 -->
          <_>
            <!-- root node -->
            <feature>
              <rects>
                <_>
                  21 4 3 2 -1.</_>
                <_>
                  22 4 1 2 3.</_></rects>
              <tilted>0</tilted></feature>
            <threshold>-2.5620970875024796e-002</threshold>
            <left_val>7.3215621709823608e-001</left_val>
            <right_val>-1.2903490662574768e-001</right_val></_></_>
        <_>
          <!-- tree 5 -->
          <_>
            <!-- root node -->
            <feature>
              <rects>
                <_>
                  20 4 3 3 -1.</_>
                <_>
                  21 4 1 3 3.</_></rects>
              <tilted>0</tilted></feature>
            <threshold>-1.6555469483137131e-002</threshold>
            <left_val>6.0616558790206909e-001</left_val>
            <right_val>-3.7246671319007874e-001</right_val></_></_>
        <_>
          <!-- tree 6 -->
          <_>
            <!-- root node -->
            <feature>
              <rects>
                <_>
                  19 6 3 1 -1.</_>
                <_>
                  20 6 1 1 3.</_></rects>
              <tilted>0</tilted></feature>
            <threshold>-7.8220143914222717e-003</threshold>
            <left_val>6.0870027542114258e-001</left_val>
            <right_val>-1.9537599384784698e-001</right_val></_></_>
        <_>
          <!-- tree 7 -->
          <_>
            <!-- root node -->
            <feature>
              <rects>
                <_>
                  10 0 3 3 -1.</_>
                <_>
                  11 1 1 1 9.</_></rects>
              <tilted>0</tilted></feature>
            <threshold>5.2787858992815018e-002</threshold>
            <left_val>-1.8863399326801300e-001</left_val>
            <right_val>7.3315989971160889e-001</right_val></_></_></trees>
      <stage_threshold>-1.1028289794921875e+000</stage_threshold>
      <parent>10</parent>
      <next>-1</next></_>
    <_>
      <!-- stage 12 -->
      <trees>
        <_>
          <!-- tree 0 -->
          <_>
            <!-- root node -->
            <feature>
              <rects>
                <_>
                  3 0 3 7 -1.</_>
                <_>
                  4 0 1 7 3.</_></rects>
              <tilted>0</tilted></feature>
            <threshold>4.1410550475120544e-002</threshold>
            <left_val>-2.5501948595046997e-001</left_val>
            <right_val>7.9780417680740356e-001</right_val></_></_>
        <_>
          <!-- tree 1 -->
          <_>
            <!-- root node -->
            <feature>
              <rects>
                <_>
                  4 4 3 2 -1.</_>
                <_>
                  5 4 1 2 3.</_></rects>
              <tilted>0</tilted></feature>
            <threshold>2.6930930092930794e-002</threshold>
            <left_val>-2.9442420601844788e-001</left_val>
            <right_val>8.2390540838241577e-001</right_val></_></_>
        <_>
          <!-- tree 2 -->
          <_>
            <!-- root node -->
            <feature>
              <rects>
                <_>
                  6 5 3 3 -1.</_>
                <_>
                  7 6 1 1 9.</_></rects>
              <tilted>0</tilted></feature>
            <threshold>-4.1982799768447876e-002</threshold>
            <left_val>7.5131118297576904e-001</left_val>
            <right_val>-1.7091779410839081e-001</right_val></_></_>
        <_>
          <!-- tree 3 -->
          <_>
            <!-- root node -->
            <feature>
              <rects>
                <_>
                  6 5 3 3 -1.</_>
                <_>
                  7 6 1 1 9.</_></rects>
              <tilted>0</tilted></feature>
            <threshold>4.9161121249198914e-002</threshold>
            <left_val>-3.0103170871734619e-001</left_val>
            <right_val>7.0884150266647339e-001</right_val></_></_>
        <_>
          <!-- tree 4 -->
          <_>
            <!-- root node -->
            <feature>
              <rects>
                <_>
                  21 4 3 2 -1.</_>
                <_>
                  22 4 1 2 3.</_></rects>
              <tilted>0</tilted></feature>
            <threshold>-2.5620970875024796e-002</threshold>
            <left_val>7.3215621709823608e-001</left_val>
            <right_val>-1.2903490662574768e-001</right_val></_></_>
        <_>
          <!-- tree 5 -->
          <_>
            <!-- root node -->
            <feature>
              <rects>
                <_>
                  20 4 3 3 -1.</_>
                <_>
                  21 4 1 3 3.</_></rects>
              <tilted>0</tilted></feature>
            <threshold>-1.6555469483137131e-002</threshold>
            <left_val>6.0616558790206909e-001</left_val>
            <right_val>-3.7246671319007874e-001</right_val></_></_>
        <_>
          <!-- tree 6 -->
          <_>
            <!-- root node -->
            <feature>
              <rects>
                <_>
                  19 6 3 1 -1.</_>
                <_>
                  20 6 1 1 3.</_></rects>
              <tilted>0</tilted></feature>
            <threshold>-7.8220143914222717e-003</threshold>
            <left_val>6.0870027542114258e-001</left_val>
            <right_val>-1.9537599384784698e-001</right_val></_></_>
        <_>
          <!-- tree 7 -->
          <_>
            <!-- root node -->
            <feature>
              <rects>
                <_>
                  10 0 3 3 -1.</_>
                <_>
                  11 1 1 1 9.</_></rects>
              <tilted>0</tilted></feature>
            <threshold>5.2787858992815018e-002</threshold>
            <left_val>-1.8863399326801300e-001</left_val>
            <right_val>7.3315989971160889e-001</right_val></_></_></trees>
      <stage_threshold>-1.1028289794921875e+000</stage_threshold>
      <parent>11</parent>
      <next>-1</next></_>
    <_>
      <!-- stage 13 -->
      <trees>
        <_>
          <!-- tree 0 -->
          <_>
            <!-- root node -->
            <feature>
              <rects>
                <_>
                  3 0 3 7 -1.</_>
                <_>
                  4 0 1 7 3.</_></rects>
              <tilted>0</tilted></feature>
            <threshold>4.1410550475120544e-002</threshold>
            <left_val>-2.5501948595046997e-001</left_val>
            <right_val>7.9780417680740356e-001</right_val></_></_>
        <_>
          <!-- tree 1 -->
          <_>
            <!-- root node -->
            <feature>
              <rects>
                <_>
                  4 4 3 2 -1.</_>
                <_>
                  5 4 1 2 3.</_></rects>
              <tilted>0</tilted></feature>
            <threshold>2.6930930092930794e-002</threshold>
            <left_val>-2.9442420601844788e-001</left_val>
            <right_val>8.2390540838241577e-001</right_val></_></_>
        <_>
          <!-- tree 2 -->
          <_>
            <!-- root node -->
            <feature>
              <rects>
                <_>
                  6 5 3 3 -1.</_>
                <_>
                  7 6 1 1 9.</_></rects>
              <tilted>0</tilted></feature>
            <threshold>-4.1982799768447876e-002</threshold>
            <left_val>7.5131118297576904e-001</left_val>
            <right_val>-1.7091779410839081e-001</right_val></_></_>
        <_>
          <!-- tree 3 -->
          <_>
            <!-- root node -->
            <feature>
              <rects>
                <_>
                  6 5 3 3 -1.</_>
                <_>
                  7 6 1 1 9.</_></rects>
              <tilted>0</tilted></feature>
            <threshold>4.9161121249198914e-002</threshold>
            <left_val>-3.0103170871734619e-001</left_val>
            <right_val>7.0884150266647339e-001</right_val></_></_>
        <_>
          <!-- tree 4 -->
          <_>
            <!-- root node -->
            <feature>
              <rects>
                <_>
                  21 4 3 2 -1.</_>
                <_>
                  22 4 1 2 3.</_></rects>
              <tilted>0</tilted></feature>
            <threshold>-2.5620970875024796e-002</threshold>
            <left_val>7.3215621709823608e-001</left_val>
            <right_val>-1.2903490662574768e-001</right_val></_></_>
        <_>
          <!-- tree 5 -->
          <_>
            <!-- root node -->
            <feature>
              <rects>
                <_>
                  20 4 3 3 -1.</_>
                <_>
                  21 4 1 3 3.</_></rects>
              <tilted>0</tilted></feature>
            <threshold>-1.6555469483137131e-002</threshold>
            <left_val>6.0616558790206909e-001</left_val>
            <right_val>-3.7246671319007874e-001</right_val></_></_>
        <_>
          <!-- tree 6 -->
          <_>
            <!-- root node -->
            <feature>
              <rects>
                <_>
                  19 6 3 1 -1.</_>
                <_>
                  20 6 1 1 3.</_></rects>
              <tilted>0</tilted></feature>
            <threshold>-7.8220143914222717e-003</threshold>
            <left_val>6.0870027542114258e-001</left_val>
            <right_val>-1.9537599384784698e-001</right_val></_></_>
        <_>
          <!-- tree 7 -->
          <_>
            <!-- root node -->
            <feature>
              <rects>
                <_>
                  10 0 3 3 -1.</_>
                <_>
                  11 1 1 1 9.</_></rects>
              <tilted>0</tilted></feature>
            <threshold>5.2787858992815018e-002</threshold>
            <left_val>-1.8863399326801300e-001</left_val>
            <right_val>7.3315989971160889e-001</right_val></_></_></trees>
      <stage_threshold>-1.1028289794921875e+000</stage_threshold>
      <parent>12</parent>
      <next>-1</next></_></stages></_1011Skewed32x8_model3__LV14_xml>
</opencv_storage>
